FANN_FLO_2.1
num_layers=3
learning_rate=0.010000
connection_rate=1.000000
network_type=0
learning_momentum=0.300000
training_algorithm=0
train_error_function=0
train_stop_function=0
cascade_output_change_fraction=0.010000
quickprop_decay=-0.000100
quickprop_mu=1.750000
rprop_increase_factor=1.200000
rprop_decrease_factor=0.500000
rprop_delta_min=0.000000
rprop_delta_max=50.000000
rprop_delta_zero=0.100000
cascade_output_stagnation_epochs=12
cascade_candidate_change_fraction=0.010000
cascade_candidate_stagnation_epochs=12
cascade_max_out_epochs=150
cascade_min_out_epochs=0
cascade_max_cand_epochs=150
cascade_min_cand_epochs=0
cascade_num_candidate_groups=2
bit_fail_limit=3.49999999999999977796e-01
cascade_candidate_limit=1.00000000000000000000e+03
cascade_weight_multiplier=4.00000000000000022204e-01
cascade_activation_functions_count=10
cascade_activation_functions=3 5 7 8 10 11 14 15 16 17 
cascade_activation_steepnesses_count=4
cascade_activation_steepnesses=2.50000000000000000000e-01 5.00000000000000000000e-01 7.50000000000000000000e-01 1.00000000000000000000e+00 
layer_sizes=471 71 4 
scale_included=0
neurons (num_inputs, activation_function, activation_steepness)=(0, 0, 0.00000000000000000000e+00) (0, 0, 0.00000000000000000000e+00) (0, 0, 0.00000000000000000000e+00) (0, 0, 0.00000000000000000000e+00) (0, 0, 0.00000000000000000000e+00) (0, 0, 0.00000000000000000000e+00) (0, 0, 0.00000000000000000000e+00) (0, 0, 0.00000000000000000000e+00) (0, 0, 0.00000000000000000000e+00) (0, 0, 0.00000000000000000000e+00) (0, 0, 0.00000000000000000000e+00) (0, 0, 0.00000000000000000000e+00) (0, 0, 0.00000000000000000000e+00) (0, 0, 0.00000000000000000000e+00) (0, 0, 0.00000000000000000000e+00) (0, 0, 0.00000000000000000000e+00) (0, 0, 0.00000000000000000000e+00) (0, 0, 0.00000000000000000000e+00) (0, 0, 0.00000000000000000000e+00) (0, 0, 0.00000000000000000000e+00) (0, 0, 0.00000000000000000000e+00) (0, 0, 0.00000000000000000000e+00) (0, 0, 0.00000000000000000000e+00) (0, 0, 0.00000000000000000000e+00) (0, 0, 0.00000000000000000000e+00) (0, 0, 0.00000000000000000000e+00) (0, 0, 0.00000000000000000000e+00) (0, 0, 0.00000000000000000000e+00) (0, 0, 0.00000000000000000000e+00) (0, 0, 0.00000000000000000000e+00) (0, 0, 0.00000000000000000000e+00) (0, 0, 0.00000000000000000000e+00) (0, 0, 0.00000000000000000000e+00) (0, 0, 0.00000000000000000000e+00) (0, 0, 0.00000000000000000000e+00) (0, 0, 0.00000000000000000000e+00) (0, 0, 0.00000000000000000000e+00) (0, 0, 0.00000000000000000000e+00) (0, 0, 0.00000000000000000000e+00) (0, 0, 0.00000000000000000000e+00) (0, 0, 0.00000000000000000000e+00) (0, 0, 0.00000000000000000000e+00) (0, 0, 0.00000000000000000000e+00) (0, 0, 0.00000000000000000000e+00) (0, 0, 0.00000000000000000000e+00) (0, 0, 0.00000000000000000000e+00) (0, 0, 0.00000000000000000000e+00) (0, 0, 0.00000000000000000000e+00) (0, 0, 0.00000000000000000000e+00) (0, 0, 0.00000000000000000000e+00) (0, 0, 0.00000000000000000000e+00) (0, 0, 0.00000000000000000000e+00) (0, 0, 0.00000000000000000000e+00) (0, 0, 0.00000000000000000000e+00) (0, 0, 0.00000000000000000000e+00) (0, 0, 0.00000000000000000000e+00) (0, 0, 0.00000000000000000000e+00) (0, 0, 0.00000000000000000000e+00) (0, 0, 0.00000000000000000000e+00) (0, 0, 0.00000000000000000000e+00) (0, 0, 0.00000000000000000000e+00) (0, 0, 0.00000000000000000000e+00) (0, 0, 0.00000000000000000000e+00) (0, 0, 0.00000000000000000000e+00) (0, 0, 0.00000000000000000000e+00) (0, 0, 0.00000000000000000000e+00) (0, 0, 0.00000000000000000000e+00) (0, 0, 0.00000000000000000000e+00) (0, 0, 0.00000000000000000000e+00) (0, 0, 0.00000000000000000000e+00) (0, 0, 0.00000000000000000000e+00) (0, 0, 0.00000000000000000000e+00) (0, 0, 0.00000000000000000000e+00) (0, 0, 0.00000000000000000000e+00) (0, 0, 0.00000000000000000000e+00) (0, 0, 0.00000000000000000000e+00) (0, 0, 0.00000000000000000000e+00) (0, 0, 0.00000000000000000000e+00) (0, 0, 0.00000000000000000000e+00) (0, 0, 0.00000000000000000000e+00) (0, 0, 0.00000000000000000000e+00) (0, 0, 0.00000000000000000000e+00) (0, 0, 0.00000000000000000000e+00) (0, 0, 0.00000000000000000000e+00) (0, 0, 0.00000000000000000000e+00) (0, 0, 0.00000000000000000000e+00) (0, 0, 0.00000000000000000000e+00) (0, 0, 0.00000000000000000000e+00) (0, 0, 0.00000000000000000000e+00) (0, 0, 0.00000000000000000000e+00) (0, 0, 0.00000000000000000000e+00) (0, 0, 0.00000000000000000000e+00) (0, 0, 0.00000000000000000000e+00) (0, 0, 0.00000000000000000000e+00) (0, 0, 0.00000000000000000000e+00) (0, 0, 0.00000000000000000000e+00) (0, 0, 0.00000000000000000000e+00) (0, 0, 0.00000000000000000000e+00) (0, 0, 0.00000000000000000000e+00) (0, 0, 0.00000000000000000000e+00) (0, 0, 0.00000000000000000000e+00) (0, 0, 0.00000000000000000000e+00) (0, 0, 0.00000000000000000000e+00) (0, 0, 0.00000000000000000000e+00) (0, 0, 0.00000000000000000000e+00) (0, 0, 0.00000000000000000000e+00) (0, 0, 0.00000000000000000000e+00) (0, 0, 0.00000000000000000000e+00) (0, 0, 0.00000000000000000000e+00) (0, 0, 0.00000000000000000000e+00) (0, 0, 0.00000000000000000000e+00) (0, 0, 0.00000000000000000000e+00) (0, 0, 0.00000000000000000000e+00) (0, 0, 0.00000000000000000000e+00) (0, 0, 0.00000000000000000000e+00) (0, 0, 0.00000000000000000000e+00) (0, 0, 0.00000000000000000000e+00) (0, 0, 0.00000000000000000000e+00) (0, 0, 0.00000000000000000000e+00) (0, 0, 0.00000000000000000000e+00) (0, 0, 0.00000000000000000000e+00) (0, 0, 0.00000000000000000000e+00) (0, 0, 0.00000000000000000000e+00) (0, 0, 0.00000000000000000000e+00) (0, 0, 0.00000000000000000000e+00) (0, 0, 0.00000000000000000000e+00) (0, 0, 0.00000000000000000000e+00) (0, 0, 0.00000000000000000000e+00) (0, 0, 0.00000000000000000000e+00) (0, 0, 0.00000000000000000000e+00) (0, 0, 0.00000000000000000000e+00) (0, 0, 0.00000000000000000000e+00) (0, 0, 0.00000000000000000000e+00) (0, 0, 0.00000000000000000000e+00) (0, 0, 0.00000000000000000000e+00) (0, 0, 0.00000000000000000000e+00) (0, 0, 0.00000000000000000000e+00) (0, 0, 0.00000000000000000000e+00) (0, 0, 0.00000000000000000000e+00) (0, 0, 0.00000000000000000000e+00) (0, 0, 0.00000000000000000000e+00) (0, 0, 0.00000000000000000000e+00) (0, 0, 0.00000000000000000000e+00) (0, 0, 0.00000000000000000000e+00) (0, 0, 0.00000000000000000000e+00) (0, 0, 0.00000000000000000000e+00) (0, 0, 0.00000000000000000000e+00) (0, 0, 0.00000000000000000000e+00) (0, 0, 0.00000000000000000000e+00) (0, 0, 0.00000000000000000000e+00) (0, 0, 0.00000000000000000000e+00) (0, 0, 0.00000000000000000000e+00) (0, 0, 0.00000000000000000000e+00) (0, 0, 0.00000000000000000000e+00) (0, 0, 0.00000000000000000000e+00) (0, 0, 0.00000000000000000000e+00) (0, 0, 0.00000000000000000000e+00) (0, 0, 0.00000000000000000000e+00) (0, 0, 0.00000000000000000000e+00) (0, 0, 0.00000000000000000000e+00) (0, 0, 0.00000000000000000000e+00) (0, 0, 0.00000000000000000000e+00) (0, 0, 0.00000000000000000000e+00) (0, 0, 0.00000000000000000000e+00) (0, 0, 0.00000000000000000000e+00) (0, 0, 0.00000000000000000000e+00) (0, 0, 0.00000000000000000000e+00) (0, 0, 0.00000000000000000000e+00) (0, 0, 0.00000000000000000000e+00) (0, 0, 0.00000000000000000000e+00) (0, 0, 0.00000000000000000000e+00) (0, 0, 0.00000000000000000000e+00) (0, 0, 0.00000000000000000000e+00) (0, 0, 0.00000000000000000000e+00) (0, 0, 0.00000000000000000000e+00) (0, 0, 0.00000000000000000000e+00) (0, 0, 0.00000000000000000000e+00) (0, 0, 0.00000000000000000000e+00) (0, 0, 0.00000000000000000000e+00) (0, 0, 0.00000000000000000000e+00) (0, 0, 0.00000000000000000000e+00) (0, 0, 0.00000000000000000000e+00) (0, 0, 0.00000000000000000000e+00) (0, 0, 0.00000000000000000000e+00) (0, 0, 0.00000000000000000000e+00) (0, 0, 0.00000000000000000000e+00) (0, 0, 0.00000000000000000000e+00) (0, 0, 0.00000000000000000000e+00) (0, 0, 0.00000000000000000000e+00) (0, 0, 0.00000000000000000000e+00) (0, 0, 0.00000000000000000000e+00) (0, 0, 0.00000000000000000000e+00) (0, 0, 0.00000000000000000000e+00) (0, 0, 0.00000000000000000000e+00) (0, 0, 0.00000000000000000000e+00) (0, 0, 0.00000000000000000000e+00) (0, 0, 0.00000000000000000000e+00) (0, 0, 0.00000000000000000000e+00) (0, 0, 0.00000000000000000000e+00) (0, 0, 0.00000000000000000000e+00) (0, 0, 0.00000000000000000000e+00) (0, 0, 0.00000000000000000000e+00) (0, 0, 0.00000000000000000000e+00) (0, 0, 0.00000000000000000000e+00) (0, 0, 0.00000000000000000000e+00) (0, 0, 0.00000000000000000000e+00) (0, 0, 0.00000000000000000000e+00) (0, 0, 0.00000000000000000000e+00) (0, 0, 0.00000000000000000000e+00) (0, 0, 0.00000000000000000000e+00) (0, 0, 0.00000000000000000000e+00) (0, 0, 0.00000000000000000000e+00) (0, 0, 0.00000000000000000000e+00) (0, 0, 0.00000000000000000000e+00) (0, 0, 0.00000000000000000000e+00) (0, 0, 0.00000000000000000000e+00) (0, 0, 0.00000000000000000000e+00) (0, 0, 0.00000000000000000000e+00) (0, 0, 0.00000000000000000000e+00) (0, 0, 0.00000000000000000000e+00) (0, 0, 0.00000000000000000000e+00) (0, 0, 0.00000000000000000000e+00) (0, 0, 0.00000000000000000000e+00) (0, 0, 0.00000000000000000000e+00) (0, 0, 0.00000000000000000000e+00) (0, 0, 0.00000000000000000000e+00) (0, 0, 0.00000000000000000000e+00) (0, 0, 0.00000000000000000000e+00) (0, 0, 0.00000000000000000000e+00) (0, 0, 0.00000000000000000000e+00) (0, 0, 0.00000000000000000000e+00) (0, 0, 0.00000000000000000000e+00) (0, 0, 0.00000000000000000000e+00) (0, 0, 0.00000000000000000000e+00) (0, 0, 0.00000000000000000000e+00) (0, 0, 0.00000000000000000000e+00) (0, 0, 0.00000000000000000000e+00) (0, 0, 0.00000000000000000000e+00) (0, 0, 0.00000000000000000000e+00) (0, 0, 0.00000000000000000000e+00) (0, 0, 0.00000000000000000000e+00) (0, 0, 0.00000000000000000000e+00) (0, 0, 0.00000000000000000000e+00) (0, 0, 0.00000000000000000000e+00) (0, 0, 0.00000000000000000000e+00) (0, 0, 0.00000000000000000000e+00) (0, 0, 0.00000000000000000000e+00) (0, 0, 0.00000000000000000000e+00) (0, 0, 0.00000000000000000000e+00) (0, 0, 0.00000000000000000000e+00) (0, 0, 0.00000000000000000000e+00) (0, 0, 0.00000000000000000000e+00) (0, 0, 0.00000000000000000000e+00) (0, 0, 0.00000000000000000000e+00) (0, 0, 0.00000000000000000000e+00) (0, 0, 0.00000000000000000000e+00) (0, 0, 0.00000000000000000000e+00) (0, 0, 0.00000000000000000000e+00) (0, 0, 0.00000000000000000000e+00) (0, 0, 0.00000000000000000000e+00) (0, 0, 0.00000000000000000000e+00) (0, 0, 0.00000000000000000000e+00) (0, 0, 0.00000000000000000000e+00) (0, 0, 0.00000000000000000000e+00) (0, 0, 0.00000000000000000000e+00) (0, 0, 0.00000000000000000000e+00) (0, 0, 0.00000000000000000000e+00) (0, 0, 0.00000000000000000000e+00) (0, 0, 0.00000000000000000000e+00) (0, 0, 0.00000000000000000000e+00) (0, 0, 0.00000000000000000000e+00) (0, 0, 0.00000000000000000000e+00) (0, 0, 0.00000000000000000000e+00) (0, 0, 0.00000000000000000000e+00) (0, 0, 0.00000000000000000000e+00) (0, 0, 0.00000000000000000000e+00) (0, 0, 0.00000000000000000000e+00) (0, 0, 0.00000000000000000000e+00) (0, 0, 0.00000000000000000000e+00) (0, 0, 0.00000000000000000000e+00) (0, 0, 0.00000000000000000000e+00) (0, 0, 0.00000000000000000000e+00) (0, 0, 0.00000000000000000000e+00) (0, 0, 0.00000000000000000000e+00) (0, 0, 0.00000000000000000000e+00) (0, 0, 0.00000000000000000000e+00) (0, 0, 0.00000000000000000000e+00) (0, 0, 0.00000000000000000000e+00) (0, 0, 0.00000000000000000000e+00) (0, 0, 0.00000000000000000000e+00) (0, 0, 0.00000000000000000000e+00) (0, 0, 0.00000000000000000000e+00) (0, 0, 0.00000000000000000000e+00) (0, 0, 0.00000000000000000000e+00) (0, 0, 0.00000000000000000000e+00) (0, 0, 0.00000000000000000000e+00) (0, 0, 0.00000000000000000000e+00) (0, 0, 0.00000000000000000000e+00) (0, 0, 0.00000000000000000000e+00) (0, 0, 0.00000000000000000000e+00) (0, 0, 0.00000000000000000000e+00) (0, 0, 0.00000000000000000000e+00) (0, 0, 0.00000000000000000000e+00) (0, 0, 0.00000000000000000000e+00) (0, 0, 0.00000000000000000000e+00) (0, 0, 0.00000000000000000000e+00) (0, 0, 0.00000000000000000000e+00) (0, 0, 0.00000000000000000000e+00) (0, 0, 0.00000000000000000000e+00) (0, 0, 0.00000000000000000000e+00) (0, 0, 0.00000000000000000000e+00) (0, 0, 0.00000000000000000000e+00) (0, 0, 0.00000000000000000000e+00) (0, 0, 0.00000000000000000000e+00) (0, 0, 0.00000000000000000000e+00) (0, 0, 0.00000000000000000000e+00) (0, 0, 0.00000000000000000000e+00) (0, 0, 0.00000000000000000000e+00) (0, 0, 0.00000000000000000000e+00) (0, 0, 0.00000000000000000000e+00) (0, 0, 0.00000000000000000000e+00) (0, 0, 0.00000000000000000000e+00) (0, 0, 0.00000000000000000000e+00) (0, 0, 0.00000000000000000000e+00) (0, 0, 0.00000000000000000000e+00) (0, 0, 0.00000000000000000000e+00) (0, 0, 0.00000000000000000000e+00) (0, 0, 0.00000000000000000000e+00) (0, 0, 0.00000000000000000000e+00) (0, 0, 0.00000000000000000000e+00) (0, 0, 0.00000000000000000000e+00) (0, 0, 0.00000000000000000000e+00) (0, 0, 0.00000000000000000000e+00) (0, 0, 0.00000000000000000000e+00) (0, 0, 0.00000000000000000000e+00) (0, 0, 0.00000000000000000000e+00) (0, 0, 0.00000000000000000000e+00) (0, 0, 0.00000000000000000000e+00) (0, 0, 0.00000000000000000000e+00) (0, 0, 0.00000000000000000000e+00) (0, 0, 0.00000000000000000000e+00) (0, 0, 0.00000000000000000000e+00) (0, 0, 0.00000000000000000000e+00) (0, 0, 0.00000000000000000000e+00) (0, 0, 0.00000000000000000000e+00) (0, 0, 0.00000000000000000000e+00) (0, 0, 0.00000000000000000000e+00) (0, 0, 0.00000000000000000000e+00) (0, 0, 0.00000000000000000000e+00) (0, 0, 0.00000000000000000000e+00) (0, 0, 0.00000000000000000000e+00) (0, 0, 0.00000000000000000000e+00) (0, 0, 0.00000000000000000000e+00) (0, 0, 0.00000000000000000000e+00) (0, 0, 0.00000000000000000000e+00) (0, 0, 0.00000000000000000000e+00) (0, 0, 0.00000000000000000000e+00) (0, 0, 0.00000000000000000000e+00) (0, 0, 0.00000000000000000000e+00) (0, 0, 0.00000000000000000000e+00) (0, 0, 0.00000000000000000000e+00) (0, 0, 0.00000000000000000000e+00) (0, 0, 0.00000000000000000000e+00) (0, 0, 0.00000000000000000000e+00) (0, 0, 0.00000000000000000000e+00) (0, 0, 0.00000000000000000000e+00) (0, 0, 0.00000000000000000000e+00) (0, 0, 0.00000000000000000000e+00) (0, 0, 0.00000000000000000000e+00) (0, 0, 0.00000000000000000000e+00) (0, 0, 0.00000000000000000000e+00) (0, 0, 0.00000000000000000000e+00) (0, 0, 0.00000000000000000000e+00) (0, 0, 0.00000000000000000000e+00) (0, 0, 0.00000000000000000000e+00) (0, 0, 0.00000000000000000000e+00) (0, 0, 0.00000000000000000000e+00) (0, 0, 0.00000000000000000000e+00) (0, 0, 0.00000000000000000000e+00) (0, 0, 0.00000000000000000000e+00) (0, 0, 0.00000000000000000000e+00) (0, 0, 0.00000000000000000000e+00) (0, 0, 0.00000000000000000000e+00) (0, 0, 0.00000000000000000000e+00) (0, 0, 0.00000000000000000000e+00) (0, 0, 0.00000000000000000000e+00) (0, 0, 0.00000000000000000000e+00) (0, 0, 0.00000000000000000000e+00) (0, 0, 0.00000000000000000000e+00) (0, 0, 0.00000000000000000000e+00) (0, 0, 0.00000000000000000000e+00) (0, 0, 0.00000000000000000000e+00) (0, 0, 0.00000000000000000000e+00) (0, 0, 0.00000000000000000000e+00) (0, 0, 0.00000000000000000000e+00) (0, 0, 0.00000000000000000000e+00) (0, 0, 0.00000000000000000000e+00) (0, 0, 0.00000000000000000000e+00) (0, 0, 0.00000000000000000000e+00) (0, 0, 0.00000000000000000000e+00) (0, 0, 0.00000000000000000000e+00) (0, 0, 0.00000000000000000000e+00) (0, 0, 0.00000000000000000000e+00) (0, 0, 0.00000000000000000000e+00) (0, 0, 0.00000000000000000000e+00) (0, 0, 0.00000000000000000000e+00) (0, 0, 0.00000000000000000000e+00) (0, 0, 0.00000000000000000000e+00) (0, 0, 0.00000000000000000000e+00) (0, 0, 0.00000000000000000000e+00) (0, 0, 0.00000000000000000000e+00) (0, 0, 0.00000000000000000000e+00) (0, 0, 0.00000000000000000000e+00) (0, 0, 0.00000000000000000000e+00) (0, 0, 0.00000000000000000000e+00) (0, 0, 0.00000000000000000000e+00) (0, 0, 0.00000000000000000000e+00) (0, 0, 0.00000000000000000000e+00) (0, 0, 0.00000000000000000000e+00) (0, 0, 0.00000000000000000000e+00) (0, 0, 0.00000000000000000000e+00) (0, 0, 0.00000000000000000000e+00) (0, 0, 0.00000000000000000000e+00) (0, 0, 0.00000000000000000000e+00) (0, 0, 0.00000000000000000000e+00) (0, 0, 0.00000000000000000000e+00) (0, 0, 0.00000000000000000000e+00) (0, 0, 0.00000000000000000000e+00) (0, 0, 0.00000000000000000000e+00) (0, 0, 0.00000000000000000000e+00) (0, 0, 0.00000000000000000000e+00) (0, 0, 0.00000000000000000000e+00) (0, 0, 0.00000000000000000000e+00) (0, 0, 0.00000000000000000000e+00) (0, 0, 0.00000000000000000000e+00) (0, 0, 0.00000000000000000000e+00) (0, 0, 0.00000000000000000000e+00) (0, 0, 0.00000000000000000000e+00) (0, 0, 0.00000000000000000000e+00) (0, 0, 0.00000000000000000000e+00) (0, 0, 0.00000000000000000000e+00) (0, 0, 0.00000000000000000000e+00) (0, 0, 0.00000000000000000000e+00) (0, 0, 0.00000000000000000000e+00) (0, 0, 0.00000000000000000000e+00) (0, 0, 0.00000000000000000000e+00) (0, 0, 0.00000000000000000000e+00) (0, 0, 0.00000000000000000000e+00) (0, 0, 0.00000000000000000000e+00) (0, 0, 0.00000000000000000000e+00) (0, 0, 0.00000000000000000000e+00) (0, 0, 0.00000000000000000000e+00) (0, 0, 0.00000000000000000000e+00) (0, 0, 0.00000000000000000000e+00) (0, 0, 0.00000000000000000000e+00) (0, 0, 0.00000000000000000000e+00) (0, 0, 0.00000000000000000000e+00) (0, 0, 0.00000000000000000000e+00) (0, 0, 0.00000000000000000000e+00) (0, 0, 0.00000000000000000000e+00) (0, 0, 0.00000000000000000000e+00) (0, 0, 0.00000000000000000000e+00) (0, 0, 0.00000000000000000000e+00) (0, 0, 0.00000000000000000000e+00) (0, 0, 0.00000000000000000000e+00) (0, 0, 0.00000000000000000000e+00) (0, 0, 0.00000000000000000000e+00) (0, 0, 0.00000000000000000000e+00) (0, 0, 0.00000000000000000000e+00) (0, 0, 0.00000000000000000000e+00) (0, 0, 0.00000000000000000000e+00) (471, 3, 5.00000000000000000000e-01) (471, 3, 5.00000000000000000000e-01) (471, 3, 5.00000000000000000000e-01) (471, 3, 5.00000000000000000000e-01) (471, 3, 5.00000000000000000000e-01) (471, 3, 5.00000000000000000000e-01) (471, 3, 5.00000000000000000000e-01) (471, 3, 5.00000000000000000000e-01) (471, 3, 5.00000000000000000000e-01) (471, 3, 5.00000000000000000000e-01) (471, 3, 5.00000000000000000000e-01) (471, 3, 5.00000000000000000000e-01) (471, 3, 5.00000000000000000000e-01) (471, 3, 5.00000000000000000000e-01) (471, 3, 5.00000000000000000000e-01) (471, 3, 5.00000000000000000000e-01) (471, 3, 5.00000000000000000000e-01) (471, 3, 5.00000000000000000000e-01) (471, 3, 5.00000000000000000000e-01) (471, 3, 5.00000000000000000000e-01) (471, 3, 5.00000000000000000000e-01) (471, 3, 5.00000000000000000000e-01) (471, 3, 5.00000000000000000000e-01) (471, 3, 5.00000000000000000000e-01) (471, 3, 5.00000000000000000000e-01) (471, 3, 5.00000000000000000000e-01) (471, 3, 5.00000000000000000000e-01) (471, 3, 5.00000000000000000000e-01) (471, 3, 5.00000000000000000000e-01) (471, 3, 5.00000000000000000000e-01) (471, 3, 5.00000000000000000000e-01) (471, 3, 5.00000000000000000000e-01) (471, 3, 5.00000000000000000000e-01) (471, 3, 5.00000000000000000000e-01) (471, 3, 5.00000000000000000000e-01) (471, 3, 5.00000000000000000000e-01) (471, 3, 5.00000000000000000000e-01) (471, 3, 5.00000000000000000000e-01) (471, 3, 5.00000000000000000000e-01) (471, 3, 5.00000000000000000000e-01) (471, 3, 5.00000000000000000000e-01) (471, 3, 5.00000000000000000000e-01) (471, 3, 5.00000000000000000000e-01) (471, 3, 5.00000000000000000000e-01) (471, 3, 5.00000000000000000000e-01) (471, 3, 5.00000000000000000000e-01) (471, 3, 5.00000000000000000000e-01) (471, 3, 5.00000000000000000000e-01) (471, 3, 5.00000000000000000000e-01) (471, 3, 5.00000000000000000000e-01) (471, 3, 5.00000000000000000000e-01) (471, 3, 5.00000000000000000000e-01) (471, 3, 5.00000000000000000000e-01) (471, 3, 5.00000000000000000000e-01) (471, 3, 5.00000000000000000000e-01) (471, 3, 5.00000000000000000000e-01) (471, 3, 5.00000000000000000000e-01) (471, 3, 5.00000000000000000000e-01) (471, 3, 5.00000000000000000000e-01) (471, 3, 5.00000000000000000000e-01) (471, 3, 5.00000000000000000000e-01) (471, 3, 5.00000000000000000000e-01) (471, 3, 5.00000000000000000000e-01) (471, 3, 5.00000000000000000000e-01) (471, 3, 5.00000000000000000000e-01) (471, 3, 5.00000000000000000000e-01) (471, 3, 5.00000000000000000000e-01) (471, 3, 5.00000000000000000000e-01) (471, 3, 5.00000000000000000000e-01) (471, 3, 5.00000000000000000000e-01) (0, 3, 0.00000000000000000000e+00) (71, 3, 5.00000000000000000000e-01) (71, 3, 5.00000000000000000000e-01) (71, 3, 5.00000000000000000000e-01) (0, 3, 0.00000000000000000000e+00) 
connections (connected_to_neuron, weight)=(0, 4.59601853358538314787e-01) (1, 1.22511991011797952145e-01) (2, -1.80666684047451425732e-01) (3, 5.89082200542887998718e-02) (4, 2.98335420603585976806e-01) (5, -4.11480913916323562396e-02) (6, 1.27760559309764848424e-02) (7, -4.86731924672063998027e-01) (8, -1.04855300329846953811e-01) (9, 5.04046842500706013257e-02) (10, 5.63578246382797742875e-01) (11, 2.72556610937084720092e-01) (12, 1.18137412842410555180e-01) (13, 3.43757502633266071035e-02) (14, 8.13213511014726775361e-02) (15, -1.63101678757911899842e-01) (16, -3.60108683306414101288e-01) (17, -1.33222505046250272454e-01) (18, -4.83192121205561209152e-02) (19, -5.10364367068926849669e-01) (20, -2.60503933419346023204e-01) (21, -6.38369185141767353509e-02) (22, 3.61437593370494747447e-01) (23, -2.43069408876881498660e-01) (24, -1.17043634159358922453e-01) (25, -3.39267107688024302514e-02) (26, -1.98582049821451001037e-01) (27, 3.63018069305611479347e-02) (28, -9.30312026967627658802e-02) (29, 5.73647417496644732027e-02) (30, -3.70067409887849738115e-02) (31, -2.03521084132832097424e-01) (32, 3.88540950347653291086e-01) (33, -2.91350180918905597716e-02) (34, 1.70626817589672824527e-01) (35, 5.19526641621538901039e-02) (36, -1.05159519189264208383e-01) (37, 1.33324898928977170209e-01) (38, 1.15631591904946748328e-01) (39, 5.62190471985321432724e-02) (40, 5.70257512440240019180e-02) (41, -5.02267208668653736270e-02) (42, -2.06190535309181049994e-01) (43, -1.86204006672436972458e-01) (44, 2.36850654943529748131e-01) (45, -2.68357632925072475683e-01) (46, -1.10726653889303860989e-01) (47, 2.11054148977161210032e-01) (48, -3.63614127512371709816e-01) (49, -1.41179718357793831940e-01) (50, -1.57678567738188668557e-01) (51, -8.01945415863063726380e-02) (52, -2.33406191570218829456e-01) (53, 1.42700455106384932469e-01) (54, 1.22706737649641659665e-02) (55, 1.18727132937907278731e-03) (56, -1.22664663970870516096e-01) (57, -1.19591123269530183459e-01) (58, 2.85064724313158046609e-01) (59, 3.16066665457549078599e-01) (60, 4.45343703769518969859e-02) (61, 3.07276864077725253566e-01) (62, -2.47841634633256591158e-01) (63, -1.91981309492609358847e-01) (64, 2.88558758426096850780e-01) (65, -2.22423175997123329095e-01) (66, 2.23116308421967869668e-02) (67, 5.56320781767869754209e-02) (68, 5.22131336314171634605e-02) (69, -2.63321570457762277329e-01) (70, -1.17252491676799234198e-03) (71, 4.50140189800225576366e-01) (72, -1.44876375499943671477e-01) (73, 1.03602512810953423239e-01) (74, -1.29240084288153395109e-01) (75, 2.26592233968014936107e-02) (76, -1.75456892986652651656e-01) (77, 2.10966757714762365161e-01) (78, -8.79094672312816793891e-02) (79, 2.75715681732533024473e-01) (80, 5.05448304899916850408e-02) (81, 8.53428409845055635508e-02) (82, 2.10720692320373673145e-02) (83, 1.24468477015817813314e-01) (84, 4.45441883544700420461e-02) (85, 1.84809454005307127744e-01) (86, -1.31653927811126170155e-01) (87, 6.52185268883331836776e-02) (88, -1.41988753649883170382e-01) (89, -9.33110949806861267319e-02) (90, -1.51681669165445398573e-01) (91, -1.19130897719362208176e-01) (92, -5.88400555288485713201e-02) (93, 1.85580724777018202243e-01) (94, 1.85077461910218482588e-01) (95, 8.52967793565907739239e-03) (96, -2.23220584612244948852e-01) (97, -2.03589988662173454470e-01) (98, -2.93099883496978630415e-01) (99, 4.16338911602827932423e-02) (100, 9.65818847765892267432e-03) (101, 3.44835139013336955394e-02) (102, -8.89989968363078948199e-02) (103, -1.68220359231470051320e-01) (104, -2.90562213428858552577e-02) (105, -2.53882878330032105141e-02) (106, -3.56756749975363718352e-01) (107, 1.49526502814209899528e-01) (108, -1.21550031934749870610e-02) (109, -2.18465113744683962771e-02) (110, -1.82432195257399204502e-01) (111, -3.10352570093490487402e-01) (112, -5.57300349538012163020e-02) (113, 9.41407759961960521888e-02) (114, 3.23175562401988247796e-01) (115, 2.69057634253182353934e-01) (116, 2.50086516054725434277e-02) (117, 2.13949085006340244952e-02) (118, -9.74425386275765137434e-02) (119, 1.92443599185718322575e-01) (120, 2.84566392378937937924e-01) (121, 2.58834576993007103862e-01) (122, 1.29415200216932313459e-01) (123, -6.36597541610931405565e-01) (124, 1.55730019216169468521e-01) (125, -2.75017641105352927955e-01) (126, -3.17870998734083642923e-01) (127, 1.52758768335030548080e-01) (128, -8.12825294355602571972e-03) (129, -2.64836241957203261110e-02) (130, 9.57948021294384860491e-02) (131, 1.21259791324494436981e-01) (132, -6.80582404029670129386e-02) (133, -3.87296524114679630024e-01) (134, 1.16291457973570253048e-01) (135, 3.78307580191205861109e-01) (136, 3.96774396333118173352e-01) (137, -1.44693044220139399592e-01) (138, 2.91871707785727810269e-02) (139, 1.35752634580000447473e-01) (140, 2.04724777982473321591e-01) (141, 1.53397298184434149881e-01) (142, 8.88243761448384711032e-02) (143, -3.85976939643867755780e-01) (144, 2.39871727796627104423e-01) (145, -3.24017889856614282884e-01) (146, -1.34363002526647956625e-01) (147, 6.11509925941726262266e-01) (148, 1.19972191953502151096e-02) (149, -8.08318409163263223993e-03) (150, -2.23487911212851692033e-01) (151, 4.28137129127521970373e-02) (152, 2.19101699098883731520e-02) (153, -5.17244188375923022449e-02) (154, -2.10381561629741115071e-01) (155, 1.22578376673261310592e-01) (156, 3.83910879866742882349e-02) (157, -1.99245471747829583364e-01) (158, -4.62997809342775457075e-01) (159, 4.73383210836658893661e-02) (160, 2.57061307542644779112e-01) (161, 1.07233602924084500674e-01) (162, 1.77028078229889751505e-01) (163, -1.71291816264711849183e-01) (164, -2.86675453721839057497e-01) (165, 7.79723847525749802490e-02) (166, 1.26954187492927111913e-01) (167, 4.73651949400058280837e-01) (168, -2.02686634092593354062e-01) (169, -2.88550387860465273882e-01) (170, 1.89990622350391130668e-01) (171, 3.39762741911848742404e-01) (172, 4.87355500530046170660e-02) (173, -3.58134442561611920919e-01) (174, 1.47381213389915749490e-01) (175, 3.90787155444883183009e-01) (176, 4.18817711282582438859e-01) (177, 5.75607072391627339059e-02) (178, -8.63852864110103285666e-02) (179, -1.53887424041499992766e-01) (180, -2.15664149342599115178e-01) (181, 2.67797870073292365589e-01) (182, 4.41884877361244238214e-02) (183, -1.78269598026316755668e-01) (184, -5.26996598666506013697e-02) (185, 1.91541174039399110518e-02) (186, -2.72279557592274679134e-01) (187, 1.97211893596196841116e-01) (188, 2.51127332004687731093e-01) (189, 9.99395406821425025257e-02) (190, -4.40132680876534967962e-02) (191, -1.30888875516466662852e-02) (192, -9.08550117527692907560e-02) (193, 2.27027432778711124595e-02) (194, 2.25330890168087957445e-03) (195, 6.15415347114840582954e-01) (196, 8.51491629017169349147e-01) (197, 2.85525204103707130887e-01) (198, -7.91335609681615287370e-02) (199, 9.03895515887655556786e-03) (200, -2.81748800253432615803e-02) (201, 3.84603073627473729390e-02) (202, -2.48794851539969413823e-01) (203, -1.55340352270927545275e-01) (204, -6.88455726717059207642e-02) (205, -4.42318804465651138624e-01) (206, -4.31364185015158274616e-01) (207, 1.07752136084838201491e+00) (208, 4.35859951820503299658e-01) (209, -6.64092386670517953462e-01) (210, -2.80562413676273880725e-01) (211, -4.50577935471859203354e-01) (212, -6.15095145776506813107e-01) (213, 4.20873788480588706395e-01) (214, 2.67187188962603294762e-01) (215, 5.47650891575082510165e-01) (216, 6.30387734540357569379e-01) (217, -2.25080719676157420261e-01) (218, -2.87200891956270021321e-01) (219, 7.49962366198215629742e-02) (220, 2.76159247910257699132e-01) (221, 2.45506825470754197482e-01) (222, -6.82152036387652205285e-01) (223, -1.84377084996016071816e-01) (224, 2.65832241755767362257e-01) (225, -3.63151831829600812984e-01) (226, -3.32698658761100274361e-01) (227, 7.21382750852565868271e-01) (228, 3.00435170351656788412e-01) (229, 6.17424178288677582421e-03) (230, 1.67234182159738342666e-01) (231, -2.46738240053201912660e-01) (232, -6.61771724277305906092e-01) (233, 5.02024227553952484548e-01) (234, -2.86431747009421623640e-02) (235, 5.57410236356407851055e-01) (236, 6.44808116194400482435e-01) (237, 4.56145319158595199949e-02) (238, -1.51584093458293184264e-01) (239, 4.07220207033412162634e-01) (240, 4.03751800153724416109e-01) (241, 1.79697141575368091182e-01) (242, -9.15780030110138615340e-02) (243, -1.55872967330684703002e-01) (244, 1.04538235665770848359e-01) (245, -1.90548899434399121589e-01) (246, -1.61088742560136360948e-01) (247, -3.50393445175486872856e-01) (248, 1.18678734095528107262e-01) (249, 2.99313946250338025479e-02) (250, 2.20113414422231333523e-02) (251, -1.79811978470173133848e-01) (252, -2.53766078123428107105e-01) (253, 1.65038066473945699286e-01) (254, 7.14592949361292500976e-02) (255, 1.30601205946827364501e-01) (256, -1.65799589220216279928e-02) (257, 2.11030054447966269882e-01) (258, -8.42203068410907196295e-02) (259, -8.79900894068469038856e-03) (260, -1.96969094149671598848e-02) (261, -4.13564202289944740643e-02) (262, 2.03625824473293109973e-01) (263, 3.23507484962097302539e-01) (264, 5.72553931274781269245e-02) (265, -1.32216622267010558422e-02) (266, -8.50535859860098580887e-02) (267, -3.15968213039396150776e-01) (268, -3.40321428823054494828e-01) (269, 1.13799651272711771499e-01) (270, -9.69379243463824868954e-02) (271, 1.10302755645488886893e-01) (272, -6.41163289569826166242e-03) (273, -7.64064961272491321997e-02) (274, 7.96199091177860751589e-02) (275, 5.44007187007265247125e-01) (276, 3.76456229339902082032e-01) (277, 3.46054398288048736809e-02) (278, -7.72254440988719426109e-02) (279, -1.00865548278385147585e-01) (280, 5.02259293097303549658e-01) (281, 1.31677100626212795209e-01) (282, -2.27671928294431474837e-01) (283, -1.39626322226221094569e-01) (284, 3.40295016574785960661e-02) (285, -1.01310921482323956777e-01) (286, -2.30348853446268209133e-01) (287, -2.03433385220528825665e-02) (288, 7.30550093486390939024e-02) (289, -4.56807109881610773350e-01) (290, -4.25154299379251476854e-02) (291, 3.27751805097899751029e-02) (292, -3.86012414172788476119e-01) (293, 2.15590850570243242057e-01) (294, 5.69109361538682634318e-01) (295, 2.69133448332127600544e-01) (296, 3.31568461775287870452e-01) (297, 2.67734426211651277416e-01) (298, 4.18483539953404398704e-02) (299, 1.37249149149442611906e-01) (300, 6.28985933998835594627e-02) (301, 2.86267803439797574594e-01) (302, -1.37819742896150343459e-01) (303, -1.92346278205311277398e-01) (304, 2.84706109710309629435e-01) (305, 2.69168403141778790622e-02) (306, -2.82777463794465555580e-01) (307, 2.43963125323729795868e-01) (308, 1.19345784545465224968e-01) (309, 1.98631953215550438596e-01) (310, -2.56625157803887116170e-01) (311, 5.21702238940523546629e-02) (312, -9.50679914887234550624e-02) (313, -3.41121395058845477966e-01) (314, 7.83608721383017431394e-02) (315, 2.12203160474289498350e-01) (316, 1.77924205732823866033e-02) (317, 1.12447886834346755247e-01) (318, -1.45615044049954456273e-01) (319, -2.66291956490065317986e-01) (320, 1.05887360514092782049e-01) (321, 3.27468761408591796380e-02) (322, -4.25244180833804774622e-02) (323, -5.80590318020546211630e-02) (324, -9.35926804496523268018e-02) (325, -1.50514846844459426745e-01) (326, -3.43727435336950548628e-01) (327, 6.09177387417664140123e-01) (328, -3.74580912875146776475e-02) (329, -1.27033247607140131752e-01) (330, -5.60026772375005199578e-02) (331, -2.29809821094697983024e-02) (332, -4.43695438552409171518e-02) (333, -2.05139755024860787058e-01) (334, -4.89925248203333316144e-02) (335, -1.97989279316547445164e-01) (336, 4.89768205592866281983e-02) (337, -4.14326859652017709390e-01) (338, -1.37822171406047910835e-01) (339, -5.69474114280559690071e-02) (340, -1.31797545546871758271e-01) (341, -5.73839836360779467772e-02) (342, -9.84571400922935879851e-02) (343, -3.96078439214978469951e-02) (344, 2.11098572693626918007e-01) (345, 7.45833150886977963578e-02) (346, -1.06018347155124370573e-01) (347, 2.72140588556713969304e-01) (348, 5.53522273645855530932e-02) (349, -9.12213106425810854594e-02) (350, -1.12855413980530935869e-01) (351, -1.21182857780389605096e-01) (352, -1.55344649821044011873e-01) (353, 1.00414597096861693548e-01) (354, 1.06024841896574226197e-01) (355, 1.20943408934337803817e-01) (356, 1.44045751979188119130e-01) (357, -9.79737388134780118332e-02) (358, 3.13777187084482017676e-02) (359, 1.00812614664287175659e-01) (360, 3.46251816465300232828e-01) (361, 1.19226089850920383140e-01) (362, -3.60509703043157658797e-01) (363, -3.80604833449274759793e-01) (364, -2.38358922889173124871e-01) (365, -1.98048931513614884237e-01) (366, -4.22981475717642330103e-01) (367, 1.15194519225371480586e-01) (368, 1.95570510380672551998e-01) (369, -2.34611300483028278885e-01) (370, -4.32093952795047503423e-02) (371, -3.25000716892703711558e-01) (372, -3.88062473527835294362e-01) (373, 2.20804067818264504464e-01) (374, -2.46922345837689766190e-01) (375, 2.02304335001012823569e-02) (376, 1.15792828996154187338e-01) (377, 2.60672341653796282857e-02) (378, 1.89804964110335150362e-01) (379, 1.92125008579281317256e-02) (380, 1.20122310837139159578e-01) (381, -2.16110503358230870985e-01) (382, -1.53790417913264754191e-01) (383, -1.71118523719939324979e-01) (384, -1.00907365824617817340e-01) (385, 1.11480730589365889527e-01) (386, -2.83967488163850589888e-01) (387, -1.73348307994369926766e-01) (388, -6.51916408003741787436e-02) (389, -2.99195041108833548194e-01) (390, -6.78901252122417059320e-02) (391, -3.04388898213797332026e-01) (392, -1.39795312296552343145e-01) (393, -4.19541320227480724059e-02) (394, -1.02118440499531656918e-01) (395, -1.28021294579747924036e-01) (396, 2.33951370108989031849e-01) (397, -8.08931851647797794946e-02) (398, -1.82686580427282307948e-01) (399, -1.33266560148710161426e-01) (400, -2.72434980304066889922e-02) (401, -6.54133228667021920932e-02) (402, -9.02133643567128024054e-02) (403, 8.93215554549383061733e-02) (404, -7.55524603725824944744e-02) (405, -2.78481555950632168883e-02) (406, -8.78206454205260611534e-02) (407, 6.08887708337298022565e-02) (408, -4.21772924921280656374e-02) (409, -1.48817838927470941224e-01) (410, 1.30061750329514891344e-01) (411, -1.73855016373743898050e-01) (412, -2.06099171908424999566e-01) (413, 5.34897978916297131557e-02) (414, -2.35720439468886100443e-02) (415, -4.59934945566490699376e-02) (416, -1.06742115642223911465e-01) (417, 3.15704523878638995682e-02) (418, 2.58441280034982477642e-02) (419, -1.14287351057667227461e-01) (420, -1.77507056506950589014e-01) (421, -3.97890162748487430378e-01) (422, 2.56573870064628201115e-02) (423, -5.55186993231144176875e-01) (424, -1.92650943767763122016e-01) (425, -6.11667402549833649772e-02) (426, -8.43565219439064289952e-02) (427, -1.51130791586343821153e-01) (428, -1.34242079292090948917e-01) (429, -7.33048613071651117279e-02) (430, -5.88045901531291659303e-02) (431, -8.63728157701009469083e-02) (432, -4.09942239624599136238e-02) (433, 2.48933960927949678166e-02) (434, -1.06015219042392069837e-01) (435, -2.26805636013283941355e-03) (436, -1.02732023141501645908e-02) (437, -1.75839689896943929259e-01) (438, -1.42249895786455443636e-01) (439, -3.13564822355970607148e-01) (440, 2.84884859161724957044e-01) (441, 6.60232303349948534965e-02) (442, -3.06140727377249011187e-01) (443, -8.73753372023878122077e-02) (444, 3.38539486953523094392e-01) (445, -3.88478198002133678912e-01) (446, 1.31545735895209681132e-01) (447, 5.57304280963278816929e-03) (448, -2.05593240191332231326e-02) (449, -3.51605814211877198971e-01) (450, -3.99091079940242787760e-02) (451, 8.51870827943076169841e-02) (452, 9.85036818803057406813e-02) (453, -9.82512940754592112302e-02) (454, -3.95303601289653597228e-02) (455, 1.65697017095968401890e-01) (456, 2.03397584789130531080e-01) (457, 5.36139858577343308976e-02) (458, 2.52965400124244454982e-01) (459, 3.05960192857585799864e-01) (460, 3.28863785454805990227e-01) (461, 2.26944538648913812784e-01) (462, 9.74725793192339896691e-04) (463, 9.44777204365938177988e-02) (464, 4.16558135158233283635e-02) (465, -1.57586153465961581466e-01) (466, -1.36063682620361947606e-01) (467, 2.35092099340315392741e-02) (468, -1.79222677516015643784e-01) (469, -1.55899123542381848329e-02) (470, 4.56354185225324379682e-02) (0, -8.49227508549975751428e-01) (1, -4.11011859212782257322e-02) (2, 4.82831755807325083141e-02) (3, -3.52004718402464762336e-03) (4, 1.06563870880861555346e-01) (5, -3.56676152922517974986e-01) (6, -8.07681244396454389722e-01) (7, 1.42075691339853560358e+00) (8, 1.66436573618902766691e-01) (9, -2.94284930178414061430e-01) (10, -9.99873140874963151070e-01) (11, -5.33474624134428587752e-01) (12, -2.24086495360395709930e-01) (13, 2.54246636262560055108e-01) (14, 9.54236586020720922718e-01) (15, 3.47706267197666285540e-01) (16, 5.09416589705346867234e-01) (17, 1.88160633512607644580e-01) (18, 1.95803825610970982929e-01) (19, 1.20012376458566993875e+00) (20, -1.46116380375167137506e-01) (21, 9.13145897304397657912e-01) (22, -8.60437445789287019826e-02) (23, 9.51818517976046191142e-03) (24, 9.55997610382366830306e-02) (25, -1.48113343125530566580e-01) (26, -5.79683505060201321318e-03) (27, -8.69043685407403822263e-03) (28, -1.57636094815582393979e-04) (29, -8.06664495693926314468e-02) (30, 1.63728383805119254157e-01) (31, 2.75104638299438451765e-03) (32, -3.85617811835624046957e-02) (33, -1.57583070463108959602e-01) (34, 1.28284758307831842084e-02) (35, 2.18000176649960464292e-01) (36, -2.87734639337836162198e-01) (37, -1.22389510844920154642e-01) (38, 9.38694531799528775196e-02) (39, -1.68502895135452718245e-01) (40, -9.33312634587527834018e-02) (41, 2.87316801760148250039e-03) (42, -2.46235488603631647031e-01) (43, 1.19184430693187407707e-02) (44, -9.14700441417940130796e-04) (45, -1.02717944040659359822e-02) (46, -6.44431094092997452938e-02) (47, -7.78886172299534940144e-02) (48, 8.49915309516401651369e-02) (49, -2.04413206921003315353e-01) (50, 1.69010603370404577372e-01) (51, -1.37263954570076590622e-01) (52, 2.80666486837752526817e-01) (53, -1.97554378121299806237e-01) (54, 1.29706978173780185237e-01) (55, -2.28605198605876774876e-01) (56, -2.67840927568138598147e-01) (57, 2.89641689645446454016e-01) (58, 9.72256009686856270680e-02) (59, 2.05040824839139435021e-02) (60, 1.26674328098080934968e-01) (61, 2.83686674504482275183e-02) (62, 5.37992812438270670561e-02) (63, -5.61343575664413965698e-03) (64, 2.98083523070401479327e-01) (65, -2.16431073019972081140e-01) (66, 1.86924598617972614889e-01) (67, 1.19819849693354879561e-01) (68, 1.36933448134077123681e-02) (69, -4.56114887712685754262e-02) (70, 2.50856869275826559196e-02) (71, -1.97098210292191600157e-01) (72, -4.55497950276403384962e-02) (73, -1.20424446745258775793e-01) (74, 2.85577901166560003954e-02) (75, 3.27292544944740859680e-02) (76, 1.54170037335869675177e-01) (77, -1.67560538836537736840e-01) (78, 5.99310478571349197763e-02) (79, 2.97361095043205195254e-02) (80, 7.65649832545670372408e-02) (81, -1.28086767329624984235e-01) (82, -3.79868783583702379625e-02) (83, 1.79527844183888035667e-01) (84, -2.76545222617271824195e-01) (85, -1.57894097529039295624e-01) (86, -1.98971808092103935595e-01) (87, -1.41487528735325274187e-01) (88, -1.99191875432441406479e-01) (89, 1.09893731354296142477e-01) (90, 1.33741640834732805621e-01) (91, 2.44475105859960489818e-01) (92, -1.11007277529199047117e-01) (93, -2.06366924061608947305e-02) (94, 7.56497417423305923423e-02) (95, -2.05398969344013082594e-01) (96, -1.54494297001302377526e-01) (97, -3.03227127936985972265e-03) (98, -2.84035668943157619537e-02) (99, -2.14471974882483068514e-01) (100, -8.98664539035754633689e-02) (101, -1.06715024508160630234e-01) (102, 3.83451571752300851559e-02) (103, 3.27738442074027649942e-02) (104, -6.53163903679011975667e-02) (105, -2.14394529699447222715e-01) (106, 1.25759788484214818371e-01) (107, -1.92770500143281509065e-01) (108, -1.76994220596299073334e-01) (109, -2.09171140208116806969e-01) (110, -1.25387417751370550123e-01) (111, -6.06565750810701253409e-03) (112, 9.31100294022271096628e-03) (113, -9.05300661651115001760e-02) (114, 4.84276940848183800464e-03) (115, 1.04141026782302650866e-02) (116, -8.16602366217354380673e-02) (117, 5.77697240285421939436e-04) (118, 1.41783021993850538722e-01) (119, -6.59420723658475232964e-02) (120, 3.54539478753579717640e-01) (121, -9.35964108580397552428e-02) (122, -1.96188603682083718971e-02) (123, 1.30515054838200472709e-01) (124, 2.38661819803243469007e-01) (125, 1.54840492574466276343e-01) (126, 1.68986814489202087641e-02) (127, 9.83313240254685694275e-02) (128, -6.91606060441260148131e-03) (129, -3.08713573517770289989e-01) (130, -1.19785103016532071263e-02) (131, 1.70549362224021339163e-01) (132, 1.18521357794488760296e-01) (133, 1.85725381848911769156e-01) (134, -2.20423442709493516700e-02) (135, 2.78369983014490396389e-01) (136, 8.16724024188268393765e-02) (137, -1.27892839579803074823e-01) (138, 3.90553022778292735495e-01) (139, 4.38554769288846291175e-01) (140, 1.03649075567097390116e-01) (141, -1.70713255668157509737e-01) (142, -6.65275942162251027190e-02) (143, -1.34624290458942364769e-03) (144, -1.06202321923701978323e-01) (145, -1.51151714635893719141e-01) (146, 8.19640488919558402037e-02) (147, -1.20334849863214604637e-01) (148, -3.30158756643410600251e-01) (149, 9.19735508336890217329e-02) (150, 6.36226292557938305494e-02) (151, -3.50128214422174705023e-02) (152, -5.30630570733721246279e-02) (153, -1.09277114257716551071e-01) (154, -2.30863763758613532717e-01) (155, -3.54124947583782823113e-01) (156, -5.68594580472647007086e-02) (157, 6.68090906460087757823e-02) (158, -3.68617229693653236655e-01) (159, -4.92600727202918087233e-01) (160, -2.12004189597322034722e-01) (161, -6.02130256870716459860e-02) (162, -2.19941327181816664860e-01) (163, 3.50168208046884865681e-01) (164, -1.78041325359660995709e-01) (165, -8.54700702090750441542e-02) (166, -7.77642698633317086543e-02) (167, -1.68080797562410289014e-01) (168, 2.31023416035586820483e-01) (169, -7.35768957743288265494e-02) (170, -2.29484426662521556750e-01) (171, 8.43766367459622274039e-02) (172, 2.48110137361591182037e-01) (173, 6.16592521404077317793e-02) (174, 9.96230877149089782963e-02) (175, -1.87102833570410714836e-01) (176, -3.25686112339683198069e-01) (177, 2.07393920450556143442e-02) (178, 5.54790525731995581848e-03) (179, 8.15020873440508303309e-02) (180, 2.69492261166234037262e-01) (181, 3.15820562027953777307e-01) (182, -1.20415789742508314020e-01) (183, 2.58141857885466730060e-01) (184, -9.24495452304666259780e-02) (185, -2.70065432121058712767e-01) (186, 3.54743904627403905394e-01) (187, 8.30914810805021386564e-01) (188, 4.87573949313176768783e-01) (189, -2.63383501074232362349e-01) (190, 6.40512080152643159536e-02) (191, -2.14094866561776592251e-01) (192, 1.31943946232066733337e-01) (193, 1.56071196473984985520e-01) (194, 8.84774953007919195969e-01) (195, 2.30069730063738153714e-01) (196, -2.14016089019852223663e-01) (197, -9.62213144231889166980e-02) (198, 3.83482317078204237859e-01) (199, 1.19696847129529171383e+00) (200, 1.17787250509979113389e+00) (201, 8.85562567599492977966e-02) (202, -6.78239299538345163931e-02) (203, -5.07810638734776387260e-01) (204, 8.92119878380135955531e-01) (205, -1.09457840011807638891e-01) (206, 2.98928498277926911475e-02) (207, 3.91989072530124826876e-01) (208, -4.58850225459685068241e-01) (209, 2.27893202977605489196e-03) (210, 2.28416901421108653469e-01) (211, 3.73420725203093883948e-01) (212, 7.60581118547407397656e-01) (213, -7.44746101973361551707e-01) (214, -7.19044839315924777523e-01) (215, 5.77986557578425097503e-01) (216, 7.28198270768119160223e-01) (217, 4.12484332858906288521e-01) (218, -2.69231356370426000435e-01) (219, 2.82482026249165907306e-01) (220, 1.33972207043452640196e-01) (221, 5.45522240109919565043e-01) (222, -6.58373120268114370157e-02) (223, -2.47389288944606516862e-01) (224, -1.93634518980988323822e-01) (225, -3.94977106591621995868e-01) (226, 3.54823959830011859129e-01) (227, -5.42853548283467657321e-01) (228, 3.38887176393049827094e-01) (229, 8.49046945957331100630e-01) (230, -6.55658325477591397146e-01) (231, -3.57467303407553227412e-01) (232, 6.77705663937080426962e-02) (233, -1.04335593936060444520e+00) (234, -3.23766328138793524349e-01) (235, -2.36459274134711683324e-01) (236, -8.99746841366596883383e-01) (237, 5.24758789170803985336e-01) (238, -5.21912399403746896098e-01) (239, -8.57636835529920094068e-01) (240, 2.14735487628365889767e-01) (241, 2.41123078493041043124e-01) (242, 4.36962636502998061361e-02) (243, 2.54737376221625844153e-01) (244, -2.77806476398117230264e-01) (245, -5.17842492325840675349e-02) (246, 2.62830617216603723563e-01) (247, 4.20467854073922564506e-01) (248, -4.45070153519409872356e-01) (249, 6.97597423284603435772e-03) (250, -3.11527597381667242793e-01) (251, -1.37111248530036283766e-01) (252, 6.41128028568838326251e-01) (253, -1.15167751846065735677e+00) (254, 4.99526008189890846634e-01) (255, 5.32964276453662177957e-01) (256, 1.76310778251456912180e-01) (257, -1.76331338655678154792e-01) (258, -5.06685315879876418954e-01) (259, -4.58964536888524651196e-04) (260, 1.39233570870807965569e+00) (261, -4.19538577812749891027e-01) (262, 2.75826794637752503725e-01) (263, -4.52251703002557403632e-01) (264, 2.97986398166745547478e-01) (265, -2.91423317478408827608e-01) (266, 5.25647940551411285703e-01) (267, 1.73134644370548618220e+00) (268, 7.08511531161328256267e-01) (269, 3.88988333565201793718e-01) (270, -5.67008566037389971637e-02) (271, -1.90147829397619649860e-01) (272, 6.67585097493907708710e-01) (273, -3.42741841523562296157e-01) (274, 4.13716941993875819694e-01) (275, 7.78859352486446776531e-01) (276, 9.67493672568924822919e-01) (277, -6.12272340243126156345e-01) (278, 7.28495422683654081375e-01) (279, 1.20812820073904547691e+00) (280, 6.89459209147079810087e-01) (281, 4.39050647014603445673e-01) (282, -2.34344954308671499232e-01) (283, -7.76226723134981977381e-01) (284, 5.06730763593477795403e-01) (285, -7.21605493019669586019e-01) (286, 1.32853087861831670180e-01) (287, 1.53130665759682260685e+00) (288, 3.10286614387443315799e-01) (289, 2.79898485588952528058e-01) (290, 2.51495996068435645476e-01) (291, 1.49321746806499816573e-01) (292, 5.11650022762662248788e-01) (293, -2.48960263897253286647e-01) (294, -5.01914411775215452138e-01) (295, -7.70529411120607687913e-01) (296, 2.31914141078685999420e-02) (297, -1.85439698462037227955e-01) (298, -4.06236393041824905836e-01) (299, -4.32231830494038404833e-01) (300, -2.04499470993298237964e-01) (301, -1.94721797668126445080e-01) (302, -1.49136659677036625959e-01) (303, -1.55250744419851011147e-01) (304, -4.33081307345480670534e-01) (305, -4.34876694199838931265e-01) (306, 2.22435508438091622541e-01) (307, 6.80814087849384019790e-01) (308, 7.24775494058506469797e-02) (309, 3.40677225345500434006e-01) (310, 2.34594124409978399548e-01) (311, -1.20157327309985142993e-01) (312, 3.66225642594666889185e-01) (313, -6.22036075934242149721e-01) (314, -7.10622103470816224302e-01) (315, -2.76965796494763050184e-01) (316, -1.11384705290229549246e-01) (317, 1.16105240603796691645e-01) (318, -2.97600175165567526481e-01) (319, -1.25537339484552701308e-01) (320, -2.19782600328333604933e-01) (321, -2.51313680923846372028e-01) (322, -6.80356304045135872743e-04) (323, -4.47859867089029570209e-02) (324, -4.34649535581348112068e-01) (325, -1.21797441332179512408e-01) (326, 2.06911800105974208464e-01) (327, 4.46277509763840285473e-01) (328, -2.35810396532405069925e-01) (329, 3.75470778532495455537e-02) (330, -5.14234113877559892436e-02) (331, -3.09146859359297643266e-01) (332, 5.31068687404883110759e-01) (333, -5.78723443053557384808e-01) (334, 2.33968027018075674928e-01) (335, 2.67815374628399063828e-02) (336, 7.84951167945151379035e-02) (337, -1.91558610259952438737e-01) (338, -3.54637211274868094368e-02) (339, 3.32767752742632871854e-01) (340, 3.51514292582702026282e-03) (341, -7.76693620637589343669e-02) (342, -2.06810477941940185076e-01) (343, -4.59652833882144173927e-01) (344, 2.76194667837095064744e-01) (345, -2.20984580538333252875e-01) (346, -1.83691524840032788246e-01) (347, 1.82879486833934429280e-01) (348, 2.42430032482065183075e-01) (349, 1.72426329054082061454e-01) (350, -1.23276974712701992143e-01) (351, 7.76425134209520473316e-02) (352, 2.52524283010627237367e-01) (353, -2.25403605852552459121e-02) (354, 8.17359039412855065132e-02) (355, -2.35562456629074795655e-01) (356, 2.88160302685393332478e-01) (357, -2.06921327735710508522e-01) (358, -5.36607556467117927101e-02) (359, 6.33620961262532644831e-02) (360, -1.05011053386394759973e-02) (361, 1.47935752289734268050e-01) (362, 5.43341641216488410726e-02) (363, -1.74452999250420598409e-01) (364, -9.17730660606252135469e-02) (365, -2.55069913825705152366e-01) (366, -1.50427808953283781435e-01) (367, 2.80705112715227744768e-01) (368, 1.03628021687952008578e-02) (369, 5.32986877190629093626e-01) (370, 3.88342770407274565092e-02) (371, 3.70490782897064108159e-02) (372, 5.26143366278003649095e-02) (373, 2.31859432816244152853e-02) (374, -2.09837560138954465350e-01) (375, -3.32966799594888562819e-01) (376, -1.14955593998437050063e-01) (377, -1.44702480198814792400e-01) (378, -2.10535472537802886839e-01) (379, 8.00362691686847399497e-02) (380, -5.27617121702650293535e-01) (381, -2.40159029384873268231e-01) (382, -2.58618810886624972412e-01) (383, -1.60131702632020506138e-01) (384, -5.31744538795933086028e-01) (385, 1.63276503422936147825e-01) (386, 3.38229075830742298425e-01) (387, -8.82092746440468616909e-02) (388, 5.33114647676889447797e-03) (389, -2.50918233282945157825e-01) (390, -7.15383351164164960068e-02) (391, 1.29846932648714857850e-01) (392, 1.35447023458003024121e-01) (393, -1.20501828037465480437e-01) (394, -1.30507994472753324766e-01) (395, -2.89438038553836207711e-01) (396, -1.11497102832526104321e-01) (397, -4.36005847153495162960e-01) (398, -3.10066176043448604727e-01) (399, 7.99413902591048775026e-02) (400, 2.46188956991044843869e-01) (401, 9.18067294334943551082e-02) (402, 2.14387861293899237292e-02) (403, 3.07673679453413839724e-01) (404, -8.10977152448802002249e-02) (405, -2.06844883086737124644e-02) (406, 4.09477889791479074399e-02) (407, 7.50448190734268050228e-02) (408, 9.71322795336399192256e-05) (409, -5.89386228820838187215e-02) (410, -2.22703084092026534768e-02) (411, -1.26416981212312817817e-01) (412, -1.27914527210098494248e-01) (413, -9.34564964353057775481e-02) (414, 1.16048540615580980662e-01) (415, 1.09379865769453674118e-01) (416, -2.34200514445618672432e-02) (417, 8.65977630832220623969e-02) (418, 1.68751664082594482474e-01) (419, 1.57352566535014976035e-01) (420, 1.90323210567616252220e-01) (421, 2.85459176611379039645e-01) (422, 1.12346630275984127323e+00) (423, 7.62897164637253877295e-01) (424, 3.16154271599747072052e-01) (425, -3.22301784612505359817e-01) (426, -1.04672316834082693160e-01) (427, 1.42322957679393846675e-01) (428, -2.30793335770264479434e-01) (429, -1.40907560536987858102e-01) (430, 1.76128430462776319754e-01) (431, 2.09782102336453113445e-01) (432, -1.83941443163087692270e-01) (433, -9.48030273407104821792e-03) (434, -5.69248342174667812388e-02) (435, -2.52207903086428680828e-02) (436, -2.10410520876184198302e-01) (437, -2.43212013330563643632e-02) (438, 1.52221459517857538035e-01) (439, -5.19126262728344320396e-02) (440, -1.60773687910358259456e-01) (441, 7.83898677401178134438e-01) (442, 9.20134129598158989616e-01) (443, 2.29906720183007567179e-04) (444, -3.41669091579732131514e-02) (445, -1.15161683136668080429e-01) (446, -5.03296436048452852652e-02) (447, -1.21744695937737682639e-02) (448, -2.77239451618545296174e-02) (449, -2.98485166090960318819e-01) (450, 8.10944365931542954229e-03) (451, -2.57606361279617453175e-02) (452, -3.71732847402531305092e-02) (453, 3.80844445524022370830e-02) (454, -2.54758990313270816674e-01) (455, 4.52469093112810638591e-01) (456, 1.19390631439333316788e-01) (457, -6.23742891494915574491e-01) (458, 2.80943593994913864975e-01) (459, 4.11785423255812410570e-01) (460, -1.07553586800087516706e-01) (461, -7.59988224750380858552e-01) (462, 2.73552788845309202692e-01) (463, 8.72856125928727744068e-01) (464, -4.43927209083112561672e-02) (465, -2.64601089450926696411e-01) (466, 7.32214440376875025374e-02) (467, 2.73780593995775034522e-01) (468, 8.32237590492710815893e-02) (469, -1.16416222130526908485e-01) (470, 1.02257828146958162918e+00) (0, -6.22026985568379653380e-01) (1, -1.28271387714392975932e-01) (2, 6.72650880898179731604e-02) (3, -9.45685048382240434073e-02) (4, -9.60892854224379006078e-02) (5, -2.49043302084783063632e-01) (6, -3.82567021273308549567e-01) (7, 7.64768198968809764793e-01) (8, 7.30254206089892277109e-02) (9, -2.37270415964621950167e-01) (10, -7.66398072422197262910e-01) (11, -2.85007100986723826974e-01) (12, -1.78272118698669407300e-01) (13, 2.26807866279311320934e-02) (14, 4.09353259743501007861e-01) (15, 2.46390288187423894817e-01) (16, 4.65606992165244648607e-01) (17, 1.42608694298414440116e-01) (18, 6.53763318518298108817e-02) (19, 6.00567313949306846865e-01) (20, 2.33832131814503657585e-01) (21, 8.18220566892145645399e-02) (22, -1.49628371926977827427e-02) (23, 2.83149616935546910579e-01) (24, 2.42712243237151945041e-02) (25, 8.49669114997684687962e-02) (26, -1.42459133531700303521e-02) (27, 7.73848542231998920427e-02) (28, -8.52586942370696099225e-02) (29, 1.04559278786909761599e-02) (30, 1.63674261294375039677e-01) (31, -2.25647486332220592598e-01) (32, 1.35891032750434126442e-01) (33, 1.76937635415163538322e-02) (34, 1.16875607856979132904e-01) (35, -8.02175512485200081780e-02) (36, 8.54112689573104655327e-02) (37, 4.92888209420870998523e-02) (38, -3.53360867506704520724e-02) (39, -6.21906904562051013330e-02) (40, 6.52457765950491125340e-02) (41, 1.90440596008841583897e-01) (42, -3.72408879629384584331e-02) (43, -9.32125944382662524612e-02) (44, 1.03459440464380089675e-01) (45, 6.67231060986510499111e-02) (46, -3.63091152188613486285e-02) (47, 2.06351770136542600476e-01) (48, 2.20568047167497616190e-01) (49, 5.99976541944417657293e-02) (50, -2.58467747043019911712e-02) (51, -4.71420769762836110173e-03) (52, -1.49434192837314239188e-01) (53, 1.86656170867756959764e-01) (54, -1.13506200371316617881e-01) (55, -4.12567151510336779796e-02) (56, 2.49984816343396011595e-02) (57, -1.69447831176120500274e-01) (58, -2.81507275743940249199e-03) (59, -2.06016785210101027737e-01) (60, 1.51503661546335717525e-02) (61, 2.60425567051051964906e-01) (62, -8.97719987753601983416e-02) (63, -1.04464642454122874637e-01) (64, 1.27456923473908884104e-01) (65, 3.03121533009110925849e-02) (66, 7.46108063600537801952e-02) (67, -1.85160832479270454076e-01) (68, 7.83369255215195792186e-02) (69, -1.40779858847216790552e-02) (70, -4.58021914743015744892e-03) (71, 1.06251859495183537119e-01) (72, -1.12953014218478337005e-01) (73, -1.48322587057181959347e-01) (74, -9.19692425330212448564e-02) (75, 2.74848762551098468876e-01) (76, 2.58952616109881850193e-01) (77, -9.93542096974877331217e-02) (78, -3.53297682437374097053e-02) (79, 1.35281626941562677091e-01) (80, 1.37750697583567532911e-01) (81, 5.83359557230769404379e-02) (82, -8.84925214847017277409e-02) (83, -2.94445432536044778005e-02) (84, 2.12358937368743477814e-01) (85, 4.77344921014086071009e-02) (86, -6.78900541170578825101e-02) (87, 3.36681526581596057834e-01) (88, 2.05803815633293668563e-01) (89, 1.35953256870843003368e-01) (90, -4.07799643138874401416e-01) (91, 1.24738622724196751568e-01) (92, -7.38927357129243456146e-02) (93, -7.02579946448853159824e-02) (94, -3.46390771202838079756e-02) (95, 3.10888069541339406854e-01) (96, 1.24504199287494496384e-01) (97, -6.53241061004976586446e-02) (98, -1.34702974090105287441e-01) (99, -2.68231456419785241341e-01) (100, -3.95025824853446061447e-02) (101, 9.91877706691539490214e-02) (102, -1.50246207993656039070e-01) (103, 1.48304964728131094542e-01) (104, 1.60788636335884471684e-01) (105, 4.13725093309807612219e-01) (106, 1.94422464683410955999e-01) (107, 3.57471310119193586008e-01) (108, 2.22690888789230490019e-01) (109, 1.05282685156640340440e-01) (110, -8.42039249622365468251e-03) (111, 1.99847136740375380670e-01) (112, -1.99253217579066194132e-01) (113, -7.46589480400594585063e-02) (114, 2.91266766604578508648e-01) (115, 3.07252103325050783533e-02) (116, -4.77087579562101016251e-02) (117, 7.72016803918652155803e-02) (118, 1.73610508985745537469e-01) (119, 1.05933526957224202758e-01) (120, -1.96384151643223051065e-02) (121, 1.83995455926972500960e-01) (122, -1.08740202944162228649e-01) (123, 5.26895482445587162723e-02) (124, 2.86510458108961973966e-01) (125, 1.93106198534270967482e-01) (126, -4.65573554740673981045e-02) (127, 9.40537243234747522003e-02) (128, 3.53660946648757634758e-01) (129, 8.27575482701067566271e-02) (130, -2.00295886087831871356e-03) (131, 2.38500131468892179187e-01) (132, -2.15789693138457833177e-01) (133, -5.45906515632001779204e-02) (134, -7.41939654407514498358e-02) (135, 4.56403206058483557062e-02) (136, 1.05231449162418860821e-01) (137, -5.52649480504643283996e-02) (138, 8.29150532112723909206e-02) (139, -3.41662355306400322696e-01) (140, 1.26986505141968714083e-01) (141, -1.97571554305337987456e-01) (142, -3.78514565724706653072e-01) (143, 1.08732142571826354005e-01) (144, -2.20518618216727996240e-01) (145, 2.37545150021830742126e-01) (146, 6.69460033579175883833e-02) (147, 4.94280596583787784626e-02) (148, 2.83780944400873758049e-01) (149, -1.70692220361354007885e-01) (150, 4.94758740638071917162e-02) (151, -5.88501330553337434481e-02) (152, 4.25594784932169720171e-02) (153, -3.89321357073768511969e-02) (154, -2.09973411710084129078e-01) (155, -2.97791212329234389333e-01) (156, -5.36325659745890748198e-01) (157, -1.30106458323126478183e-01) (158, -3.14448139307997032166e-01) (159, -3.36347639387222674401e-01) (160, 2.26040172919457327261e-01) (161, -6.68714370238735270058e-03) (162, -3.09756529840770900019e-01) (163, -2.45587167338953034357e-02) (164, -3.85754394190492233552e-01) (165, -2.30807490340506175908e-02) (166, 1.24243031080357394652e-02) (167, -7.21749159923119332216e-02) (168, -7.18760564867639839548e-02) (169, -1.04840702206096172272e-02) (170, -2.98594839709009941819e-02) (171, 1.01120994921613513440e-01) (172, -2.83302795484656699809e-01) (173, 6.87873587373099594500e-03) (174, 8.28106637654397320647e-03) (175, -3.48492744487356342908e-01) (176, -8.20862027493544976764e-01) (177, 2.82383872158878890257e-01) (178, 1.80089042450608249890e-01) (179, -1.70364641351757495347e-01) (180, -4.28539405599505152100e-01) (181, -2.41895542525662962663e-02) (182, -2.78752416481550968630e-01) (183, -5.49101272363339693028e-02) (184, -8.69343578726533561252e-03) (185, 1.29097209347851626937e-01) (186, 3.30910606051946554196e-01) (187, -4.60026207622355687299e-01) (188, 1.78802147637962371984e-01) (189, 1.28265600191996453905e-01) (190, 2.54283011173217610157e-01) (191, 2.65339338052330120377e-01) (192, -3.46647485616692119237e-01) (193, -1.31941278051597249421e-01) (194, -1.27385140907258026521e-01) (195, -2.71316626829822382660e-01) (196, -5.01550874217559172763e-01) (197, -1.66913665871755934056e-01) (198, -9.78381972774215874500e-02) (199, -4.54405171169673272047e-01) (200, -5.80149691593114247290e-01) (201, -3.84342941225367218383e-01) (202, 2.63607776788228158338e-02) (203, -1.27012366479472588177e-01) (204, -2.24592162405476608589e-01) (205, -4.59560885635689891915e-02) (206, -1.42519349456680072263e-01) (207, -1.41819215414818230320e-02) (208, -1.69334391237067061198e-01) (209, -3.69213724045375057958e-01) (210, -3.56784837984631328367e-02) (211, 3.08046953315501241544e-02) (212, 1.33395396674803379256e-01) (213, -9.63468420734483188550e-02) (214, -5.60545073218478157040e-02) (215, -1.72324200190726528614e-01) (216, 1.18433832356686405407e-01) (217, -8.93099739311079138249e-02) (218, 4.36088191546438255775e-02) (219, 3.84589653369074857547e-02) (220, -1.41411394792455236136e-01) (221, -2.13192713333478611748e-01) (222, -7.87548283995807008040e-02) (223, 3.42716276205429493107e-02) (224, 1.09846969855826412377e-01) (225, 7.24263378307657829103e-02) (226, 8.95537562641863030266e-03) (227, -5.80656212140982022629e-02) (228, -2.49804974546393082635e-01) (229, 1.96289728436836341530e-01) (230, -8.09550592352059616985e-02) (231, 2.28486925069707441649e-01) (232, -4.91831080333787543091e-02) (233, -5.20957105214435705481e-03) (234, 2.36421215497033793129e-01) (235, 2.39468719646872496565e-01) (236, 1.79873621718754900245e-01) (237, -2.06400426361557504107e-01) (238, -3.88971911041044449142e-02) (239, 8.28314319158050260672e-02) (240, -3.44807445819142355248e-01) (241, 6.88635321389934329517e-02) (242, -2.47559229002475900128e-01) (243, 1.30595798169810900502e-01) (244, 3.40401296523415330952e-01) (245, 3.28219858498553562764e-01) (246, -1.47676722917863822993e-01) (247, 4.67230497911851005988e-01) (248, 6.91216491287959811096e-02) (249, 2.09935694917277142213e-02) (250, -1.01920094114383297246e-01) (251, -4.21366677854041138396e-01) (252, -1.69344168504585890211e-01) (253, 1.65332521902274626191e-01) (254, -1.29014840091030452696e-01) (255, -7.65857165333800743445e-02) (256, -1.36973882968917298752e-01) (257, 2.24486066759457258968e-02) (258, 1.63485296977767619042e-01) (259, -2.84578526432560541259e-01) (260, 1.33426304754842905975e-01) (261, -1.90838255021041791615e-01) (262, 3.61498100255289056548e-01) (263, -8.61115936600283515823e-02) (264, 5.94299522727624388030e-02) (265, 2.72132362872895938732e-01) (266, 1.27327241463067054178e-02) (267, -8.27646796115320104725e-01) (268, -2.11860539188196084215e-01) (269, 2.15862385092463714142e-02) (270, -2.71983602564701346105e-02) (271, -5.46480404511967832182e-02) (272, 4.34244828550325756567e-01) (273, -1.79765727561185917338e-01) (274, 3.70260476400421811860e-01) (275, 5.68780649567538765243e-02) (276, 9.44646787946841204331e-02) (277, -1.62276689230166221156e-01) (278, 2.13560663270152051307e-01) (279, 4.60852487942342403660e-01) (280, -1.98938555443938264178e-01) (281, 2.63493793030557921231e-01) (282, -3.68807800876357061437e-02) (283, -7.55395966663525986196e-02) (284, 3.34417112842714692178e-01) (285, 9.51783348229316289446e-02) (286, -1.45017137991360511862e-01) (287, 1.06222721940260972362e-01) (288, 4.81120727426022354312e-01) (289, 1.45272436745418814796e-01) (290, 5.04477289324900546319e-02) (291, 1.93858879865654143426e-01) (292, -2.58783472530283997770e-01) (293, -1.93223602106707914583e-01) (294, 1.08336562267441465640e-02) (295, 2.67980696782198421491e-02) (296, 2.08234858166282260639e-01) (297, -2.70872182229289826250e-01) (298, -1.91463827448805801179e-01) (299, -1.53030473820194943407e-02) (300, 2.26369918539265468915e-01) (301, -2.02139839328028925181e-01) (302, 2.37573276772787028710e-01) (303, 3.16299618246344338424e-01) (304, -1.39555691501668049925e-01) (305, 1.91612075271699044965e-01) (306, 2.25405500895374338866e-01) (307, -1.37893448740950302911e-01) (308, -1.46395861904598023617e-01) (309, -4.66201732387442890904e-01) (310, -2.15782695542965675950e-02) (311, -2.44062895514578021006e-01) (312, 1.92255580101644590885e-01) (313, -1.07301292112387952615e-01) (314, -6.26956521410483719192e-02) (315, 1.38427524578706440117e-01) (316, 1.13340790408894068197e-01) (317, -1.59173068335657419414e-01) (318, 5.15041990485841857939e-02) (319, 3.06916180879548528004e-01) (320, 6.78619604366403617046e-02) (321, 1.02434067602231837490e-01) (322, -1.13147753667318939907e-01) (323, 7.90486132439926075799e-02) (324, 1.09880439873282485276e-03) (325, -1.37751398201020110873e-02) (326, -8.11607263918203009068e-02) (327, -3.13486114003986682253e-01) (328, 1.03577317026343984629e-01) (329, 2.76036511072230983377e-01) (330, 5.97884298143448941754e-02) (331, 6.62785312338184939840e-02) (332, 9.14127192984787451113e-02) (333, -7.44685956925153630381e-02) (334, -4.55683290160001530644e-01) (335, 2.29398306275716529212e-01) (336, 2.98560965590224325350e-01) (337, -9.84310804080138213035e-02) (338, -3.83935409185380105423e-01) (339, 3.96980174633997581757e-02) (340, 5.05919049062313108678e-01) (341, -2.95470868527337837683e-01) (342, -9.55260023352734605195e-02) (343, 1.50276663271300736646e-01) (344, -2.73365373815113943401e-01) (345, -7.14392270585160887864e-02) (346, -1.46218658880859553317e-01) (347, -6.37889170704347436419e-03) (348, -3.90441803398800524327e-02) (349, -2.38233971446407899464e-01) (350, -8.56208260795398856668e-02) (351, -1.92985395184335023488e-01) (352, -1.51097195290945229829e-01) (353, -1.30092352284197937395e-01) (354, -1.46512356070624988336e-01) (355, 3.41007152328924256768e-01) (356, 1.75853263504316126298e-01) (357, -1.67417154122725342358e-01) (358, 9.18269697096112669232e-02) (359, -1.80806890811832876587e-01) (360, 3.27534596259244525918e-01) (361, -3.31411350357668707534e-02) (362, -1.44464926895885359404e-01) (363, -4.07113442621877097416e-01) (364, -6.40936070802542445790e-02) (365, -1.47345656859987683696e-01) (366, -3.37061640652322525025e-01) (367, 5.14956169431200691533e-02) (368, 1.65248423477724448727e-01) (369, -8.15994007512818586569e-02) (370, -1.06524231210278583215e-01) (371, 1.27203553886567066744e-01) (372, 1.08635433423288310650e-01) (373, -2.24245786835547800120e-01) (374, 1.96045536093528788291e-01) (375, 9.60309977659685176654e-02) (376, -7.94091056763805147600e-02) (377, 2.36474334572151223544e-01) (378, -4.71586977035690566029e-02) (379, -3.40241203328627672686e-01) (380, 3.70855516579114363740e-01) (381, -1.27915833629446806796e-01) (382, 2.90648139743610277319e-02) (383, -2.30291212344300062764e-02) (384, 4.78550128896514728738e-02) (385, -2.38478104289931922000e-02) (386, -5.85563028083989009498e-02) (387, -3.71045234075416230368e-01) (388, -7.18898731306124010726e-03) (389, 2.72993022505772960085e-02) (390, -1.78143854490133840551e-02) (391, 1.43149154923347149415e-01) (392, -1.33419705210349320845e-01) (393, 6.60203275808436962357e-02) (394, -1.80057970422651786313e-01) (395, 1.64069589612052149467e-03) (396, 1.91365057211451639052e-01) (397, -1.53926552077111977734e-01) (398, 1.07023533961964123495e-01) (399, -1.63031190136138232072e-01) (400, 5.43766982718495439642e-02) (401, 5.44789356517651410239e-02) (402, 2.13731186342882607809e-02) (403, -1.15128159718457679511e-02) (404, 4.04625920858184065509e-02) (405, -8.38705048242121969926e-02) (406, 2.70523653558834703547e-02) (407, -3.98599855418072190893e-01) (408, 1.75037754163282238684e-01) (409, -2.05146080826039793610e-02) (410, -6.24649258524407891002e-02) (411, 1.55423555547402642008e-01) (412, 1.14851107193057230815e-01) (413, 2.54517842394696852670e-02) (414, -5.26267214046255704663e-02) (415, 8.36005096156236665594e-02) (416, -6.38892784992426548962e-02) (417, -6.64125290975654206799e-03) (418, -7.28542384068149497661e-03) (419, -1.02737625011878427883e-01) (420, -3.83832955644476392365e-02) (421, -7.46685031540915943038e-03) (422, -4.60374658318875654150e-02) (423, 1.34942657159376450116e-01) (424, -1.26107821455984009384e-01) (425, -2.64845619549923250169e-01) (426, -1.10272353196113045981e-01) (427, -2.26684484981302912521e-02) (428, -1.10894808660096877428e-01) (429, -1.51454683365006337326e-01) (430, -8.41617260875038297741e-02) (431, 6.64131650200936313189e-02) (432, -1.77879600367314066878e-01) (433, 5.17124663786782019781e-03) (434, 6.34257161484479831115e-02) (435, -5.14752710513690023286e-02) (436, -8.86491075340725409593e-02) (437, 8.07827503895617166085e-02) (438, 3.82457734135464300085e-01) (439, 2.86956031509557507597e-01) (440, 4.35954533851449055337e-01) (441, -4.86099384209983886862e-01) (442, -5.09475548149026180589e-01) (443, -3.24686231040549666549e-01) (444, -5.10448494571471678150e-01) (445, 2.41589259801245591353e-02) (446, -1.67757730199297322438e-01) (447, 7.92175788850808942909e-02) (448, 8.51944215425184947499e-02) (449, 1.29306233898619726830e-01) (450, 5.85511557556251879819e-03) (451, -1.94535520224113772647e-01) (452, 2.85655504999707300640e-02) (453, -7.53509229582065287456e-02) (454, 1.95954653916422041893e-02) (455, 9.18790011253111105205e-02) (456, 3.08787748692047128718e-02) (457, -1.97266436124596572510e-01) (458, -5.83922191087233866114e-02) (459, -1.55539646552533994406e-01) (460, -6.11973401010307144210e-02) (461, 9.39465536330177375390e-02) (462, -1.18331593287206063292e-01) (463, -3.58747643100643318070e-02) (464, -1.57432892878281299742e-01) (465, -2.62960847106801301476e-02) (466, -1.76351388751700061119e-01) (467, -4.52343689985491362315e-02) (468, 2.99465902874161797598e-02) (469, -2.06962596208149468557e-01) (470, -2.00602230938696363127e-02) (0, -3.62119979775053779658e-01) (1, -1.01334598659352778660e-01) (2, 5.43303695017545787427e-02) (3, 1.39330016646652867646e-02) (4, -7.50907273987532208892e-02) (5, -1.92805692025294878045e-01) (6, -1.76378398450759504845e-01) (7, 3.84131372552059757730e-01) (8, 1.54939185002894858068e-01) (9, -8.16746420986620286220e-02) (10, -4.42490099715331874908e-01) (11, -2.81099251502904989852e-01) (12, -9.20796188575235402540e-02) (13, 1.14954112450855155947e-01) (14, 3.31564338875328268319e-01) (15, 1.10447974008386837208e-01) (16, 2.05952162963593338185e-01) (17, 9.61583182037761968752e-02) (18, -3.72966225273244217364e-02) (19, 3.50028031533441863488e-01) (20, -1.22067547236486013268e-02) (21, 3.82251518012431470983e-02) (22, 1.73080625709273350221e-01) (23, 1.09153476595107920555e-01) (24, 1.23761013464845928689e-01) (25, -3.17756503930218869858e-01) (26, -1.05095888211011331825e-01) (27, -1.86707233398377692168e-01) (28, 8.25218248454431119177e-02) (29, -1.92813170822408591620e-02) (30, 2.94576690524848083808e-01) (31, 1.95181812055620962365e-01) (32, 1.45619420542672656227e-02) (33, 6.17509336139011669187e-02) (34, -5.88320482192878080330e-02) (35, 6.73359951801927314463e-02) (36, 1.04949781508093767379e-01) (37, 1.65933938699976274433e-01) (38, -1.98656113219985025475e-02) (39, -4.87156949868620958721e-02) (40, 1.74986232723806839351e-01) (41, -4.28571206951714259170e-02) (42, -1.69671580657941051262e-01) (43, -8.56359521544115820380e-02) (44, 1.86570845774405191797e-01) (45, -1.31054760937278330646e-01) (46, 9.92345932734287929089e-03) (47, -1.36125849187129110973e-01) (48, -1.07898629687843805591e-01) (49, -5.24478515694261973601e-02) (50, 4.76348929814516541814e-02) (51, -2.35193161636220698929e-01) (52, -1.55261398680079515389e-02) (53, 2.35933736980732861044e-01) (54, -9.46093264903360847695e-02) (55, 8.33613894863628746013e-02) (56, 2.18525067437110968871e-02) (57, -1.64729911153565000692e-01) (58, 4.78153911985218157965e-02) (59, 2.40167667071181055449e-02) (60, 1.12838387246476296033e-01) (61, -8.43275011947741681695e-02) (62, -4.86618531250777447417e-02) (63, 3.25396664406757732922e-04) (64, -7.47869311642746226187e-02) (65, 1.09056617471965086597e-01) (66, 5.78021968214014192355e-02) (67, -1.21627317785465677291e-01) (68, 8.23283284083391880825e-02) (69, -4.34610079307935562309e-02) (70, 9.88184182461461640967e-02) (71, 1.69653512892022836911e-02) (72, -1.02985232443983415473e-01) (73, -6.94066464468219707085e-02) (74, -4.23628971719842983834e-02) (75, -1.17089197589884549955e-01) (76, -2.13513473266951133572e-03) (77, -1.37795468030196044396e-01) (78, 5.83014220865783125425e-02) (79, 9.92677981579001417201e-02) (80, 1.80220801546877029686e-01) (81, 1.35850822347786809319e-01) (82, -2.16823637761307669303e-02) (83, -5.02054562587981034749e-02) (84, 1.04587651927023975174e-01) (85, 9.87009353730357030798e-02) (86, -2.26701473302837221147e-02) (87, 7.02903934880696884546e-02) (88, -7.95914562383597951056e-02) (89, -3.01603227029652476432e-01) (90, 5.83539638133075549975e-02) (91, 5.92936033467521481088e-02) (92, 1.58157192951330592690e-02) (93, 6.24310553222418886110e-03) (94, -5.64487653138712359990e-03) (95, -1.84756464152810828683e-01) (96, -3.42938874965947049223e-02) (97, -2.03911262551320138225e-01) (98, -5.37892542848194959992e-02) (99, 1.41244643303082950681e-01) (100, 1.93592761577819488794e-01) (101, -1.09643124966983876445e-01) (102, 7.99778415261330061226e-02) (103, -2.91015822432157600028e-03) (104, 9.30374635458702803348e-02) (105, 2.06477141256356210020e-02) (106, 1.61371064232952970974e-01) (107, 1.26181317533666098596e-01) (108, -2.12371576645358009494e-02) (109, -1.84663776087211933818e-01) (110, 8.04532827330665806231e-02) (111, -7.58443131501230494163e-02) (112, 7.74178691811770319786e-02) (113, 2.69005115200377127593e-02) (114, -2.00003342578447151912e-01) (115, -8.62811632213684176484e-02) (116, -3.70040147979991407290e-02) (117, -6.00239969988161647940e-02) (118, 7.08434310744028711282e-02) (119, 8.69293954463564236268e-03) (120, -1.76797173320262540619e-01) (121, 1.09114257830092237223e-01) (122, -1.26658342331545381576e-02) (123, -6.64454007767017046371e-02) (124, -1.00947282632183873985e-01) (125, -2.50328463634638459165e-04) (126, -3.78902682425148462642e-02) (127, -2.13042197382025177976e-01) (128, -1.17636611797236598220e-01) (129, -1.44676055196752390009e-01) (130, 7.78338020749889530903e-02) (131, 6.55547386702657886026e-02) (132, 1.43144065774935519419e-01) (133, 2.95076652417967898179e-02) (134, 3.32633345392960189102e-01) (135, -2.70773235344568041771e-01) (136, -2.57041511132778677240e-01) (137, 1.66705336485892391396e-01) (138, 1.37612227967322781064e-01) (139, 8.71350715159922989406e-02) (140, -2.53974753202253378248e-01) (141, 1.01096311199705468642e-01) (142, 1.12316745016235119969e-01) (143, 1.77860069381910290698e-01) (144, 2.70987042013490289638e-02) (145, 2.22071110430293205962e-01) (146, 6.10489215178408317630e-02) (147, -1.20426275628211204571e-01) (148, -3.05443927445993801406e-01) (149, -4.14198912670234953293e-01) (150, -8.88578351628949297814e-02) (151, -1.46488859181168301626e-01) (152, 2.01974464989647412017e-01) (153, 4.22729237812767624782e-02) (154, -2.06199227215148245262e-01) (155, -1.75631418436906550085e-01) (156, 1.37452032318747113804e-01) (157, 3.08678362201069422799e-01) (158, -2.05382160311362776950e-01) (159, -1.60291175897292054175e-01) (160, -2.49884402938760324941e-01) (161, -7.94407855940471446798e-02) (162, 3.09568798015175221383e-02) (163, 2.73133579659383896043e-01) (164, -1.31937362597791679741e-01) (165, -6.25780833861989266298e-02) (166, 4.02856512937920796524e-02) (167, -2.05647209971961536512e-01) (168, 1.31492160353798709371e-02) (169, -1.96622318446753874266e-01) (170, 5.70860614786234468743e-02) (171, -2.11175191532130442085e-02) (172, 6.28871647630493690873e-02) (173, 4.81817001107455900044e-01) (174, 7.80498009366048690894e-03) (175, -2.58780577552443380451e-01) (176, 1.53296714850961829368e-01) (177, 4.22269508154077766182e-01) (178, 1.89871092690146014981e-01) (179, 4.03017147979441048289e-01) (180, 4.27050651010781739947e-02) (181, 1.46344785618191419729e-01) (182, 1.60332513154893580021e-01) (183, 5.58826520628991699202e-02) (184, -1.57932664321777549432e-01) (185, 5.17106891621053957331e-02) (186, 9.05954398600365973238e-02) (187, -2.72066765320208125978e-01) (188, -9.75310579178361586328e-02) (189, -2.79948321704337033111e-01) (190, 4.98664900518772102878e-02) (191, -7.02625577321020211574e-02) (192, 1.12326824790278265165e-01) (193, -2.79368084012284245699e-01) (194, -1.06655834345907821192e-01) (195, 5.10037923693457684315e-01) (196, 4.95918790075217830182e-01) (197, 3.13507461183692437423e-01) (198, 4.95576408871992793448e-02) (199, 1.15887134173108211077e-01) (200, 4.25695926268792823599e-01) (201, 1.37522072129725035812e-03) (202, -3.53023240268501847794e-01) (203, -4.34916524084822064822e-01) (204, 5.22091072506849634971e-02) (205, -1.53141719850810875680e-01) (206, -1.92747413672121226114e-01) (207, -6.08617108538985318589e-01) (208, 2.88924766264496146739e-01) (209, -8.60420638723706360240e-02) (210, -9.75239936477163421591e-02) (211, -1.70597628195490569336e-01) (212, -1.47791873650883615054e-01) (213, 2.95271310184369695229e-01) (214, 7.27738335248983257697e-03) (215, -3.29475951222717944322e-01) (216, -9.87451550288160895263e-02) (217, 6.26207723449247466441e-01) (218, 3.98086692476821712994e-01) (219, 4.51094155123747050928e-02) (220, 6.67191908165304103928e-02) (221, 1.15501529095124275126e-01) (222, 2.41672966542608252949e-01) (223, -3.91785647798334607517e-02) (224, 1.47815296221993713877e-01) (225, 3.24050475509568669530e-01) (226, 3.76511481258551689022e-02) (227, -9.11681266669682410786e-01) (228, -3.66368910855434826157e-01) (229, -3.35354601595378332135e-01) (230, -1.53239079481690493312e-01) (231, -1.33690998836923230497e-01) (232, 4.03900433176149320502e-01) (233, -5.75118781938361411932e-01) (234, 1.50321494776171127317e-01) (235, 4.45352265788607537544e-01) (236, 4.26542420983486991748e-01) (237, -2.73806426544286440894e-01) (238, -2.50539353271513942634e-01) (239, -1.87634326886980923321e-01) (240, 4.30686618972107804204e-01) (241, -1.42768445590775533427e-01) (242, -4.94717090645854062902e-01) (243, -4.12362387553951437180e-01) (244, -8.60318159953508410087e-02) (245, -4.16412350561792932169e-01) (246, -4.90629334868008082360e-01) (247, 2.55879138052632015832e-01) (248, 2.89161196868053360642e-01) (249, 6.20731477586001001434e-01) (250, 9.13091848081878654231e-02) (251, -4.22583259502986807732e-01) (252, -4.80517378844422138329e-01) (253, 2.45963723874554951454e-01) (254, 7.10074185827591075615e-02) (255, -5.23053762564927526846e-01) (256, -5.71357329306067418528e-01) (257, 6.73789008380965420697e-02) (258, 9.80377278230232795941e-02) (259, -3.51312223347532592843e-01) (260, 1.11899425926266476994e-01) (261, 1.56819246856138100332e-01) (262, 2.94578857384928227692e-01) (263, 2.69368056038408965058e-01) (264, -1.13518567535893344367e-01) (265, 3.17630320035540814061e-01) (266, 4.32352343820992246481e-01) (267, 2.12919409443666191040e-01) (268, -5.00979755665256210051e-01) (269, -6.87686166623145300747e-01) (270, 1.35527994174975047192e-01) (271, 1.33367286698836434722e-01) (272, 4.76821843086997876338e-01) (273, -2.41292518879681616717e-01) (274, 2.13591718987569428867e-01) (275, -5.95801523128640445059e-02) (276, -1.63451269298419687992e-01) (277, -1.81116060855994659429e-01) (278, -1.31513642042728001735e-01) (279, -5.47301561909227310410e-02) (280, 3.99624278967927182293e-02) (281, -4.35091475602943523332e-03) (282, 4.55441036426001560899e-02) (283, -1.64212324040922869051e-01) (284, -3.88484453875965543568e-02) (285, -3.42222982097187405914e-02) (286, 7.74481827211225271057e-02) (287, -2.36668161306014035450e-01) (288, 2.09064468637484932728e-03) (289, 1.91957241807986261906e-01) (290, 3.07451223395225459178e-01) (291, 5.25060874914828959459e-02) (292, -1.00571492445771223934e-01) (293, 1.43780921015042889577e-01) (294, -3.15209407362631102711e-02) (295, -4.36589999326601363450e-01) (296, 6.27450608046674265100e-03) (297, 3.00567294763209036379e-01) (298, -1.26560126205333273175e-01) (299, 4.16078311102334712918e-03) (300, 7.53805849147235196295e-02) (301, -1.34298779225452830088e-01) (302, 2.07353095195951901697e-02) (303, 2.61310020179148679020e-02) (304, -1.36673301580860911963e-01) (305, -8.24647526382735890360e-02) (306, -1.84463803884529375932e-01) (307, -1.70294744097373412783e-01) (308, 6.08643546067568624869e-02) (309, -5.79261369886661312001e-02) (310, 2.27380990886159067843e-01) (311, -1.06247450103206061978e-01) (312, -1.10186532361112518585e-01) (313, 2.23051388854543161666e-02) (314, 1.15858047513018952435e-01) (315, 3.84724827243429576967e-03) (316, -2.20491750939552005883e-01) (317, 6.46685061133741301287e-02) (318, -4.67870089624538854078e-02) (319, -1.67793836102671761745e-01) (320, 6.64759346842455217663e-02) (321, 6.10502428414425521441e-02) (322, 5.01670943798858265383e-02) (323, 7.78278680800575939358e-02) (324, -1.28997998003304997772e-01) (325, -8.45819882896211155954e-02) (326, 2.66552010367327486817e-02) (327, 1.02842318984223864142e-02) (328, 6.90971036106382552333e-02) (329, 8.58849422138438373109e-02) (330, 3.35498532077118938322e-01) (331, -6.95416930184728082631e-02) (332, 1.31438044542157850270e-01) (333, 9.08888688956415863318e-02) (334, -2.01278835665074078837e-03) (335, 1.00710220904427924515e-01) (336, 2.17641836611117606148e-01) (337, -5.32356561238191416940e-02) (338, -2.16368288996582280870e-01) (339, 3.94073782622738066905e-02) (340, 1.94523250931784269513e-01) (341, 9.38073492415987947313e-02) (342, -9.75279067337265354043e-02) (343, -2.28614048522575719069e-02) (344, -8.42729040701183790274e-02) (345, -6.98580692697637652133e-03) (346, 2.92970736639024884052e-02) (347, -4.56928065717678022484e-02) (348, -2.88423919106292753201e-02) (349, 8.74315047484330448713e-02) (350, -4.46599191376699095057e-02) (351, -2.37847976481967357532e-02) (352, -2.89048131142357167533e-01) (353, 1.93051314826989062201e-01) (354, 4.86149948125520498660e-03) (355, 1.62584943475537563318e-01) (356, 7.98078782413389614669e-02) (357, 1.72155254582793265650e-01) (358, 1.89193909676764415728e-01) (359, 1.85272494983825669612e-02) (360, -4.78534133264909566918e-02) (361, -4.61443326039175788500e-02) (362, -2.89206878485649743205e-01) (363, 6.80525726096008198862e-02) (364, 3.74925717472130576313e-02) (365, -1.92474562588387576589e-01) (366, -6.27215890207001164347e-02) (367, 1.58805840813055904048e-02) (368, 1.07458660044381856813e-01) (369, 4.74804191734358449484e-02) (370, 5.70756705205319736507e-02) (371, -5.98988891356251607068e-02) (372, -2.07708845310887568747e-01) (373, 1.88019978454153413594e-01) (374, 4.90584291126842861330e-02) (375, -9.53760627719512921185e-02) (376, -3.14547474989419553748e-02) (377, 1.45617178789902323999e-01) (378, 1.48322935943926648150e-01) (379, 2.15176350545946443171e-01) (380, 5.06364382327097184433e-02) (381, -8.80513049681160009374e-02) (382, -1.67134186808448714778e-01) (383, 8.81242992871942160127e-02) (384, -7.78701474841767549151e-02) (385, -2.94735872193930513452e-02) (386, 4.80418732693805583533e-02) (387, 1.71751241307550976678e-02) (388, -5.67937367669603815346e-02) (389, -3.54130568627158623385e-02) (390, -1.42438092522228360037e-02) (391, -3.58946686217342658676e-02) (392, -2.00610108302586631623e-01) (393, 1.37252715482562875904e-01) (394, 2.58541273536758819951e-01) (395, -1.13158917785276535994e-02) (396, -1.99709848744532070253e-01) (397, 7.80770933240789027918e-02) (398, 1.81192143801862437513e-01) (399, 6.46962808899957525499e-02) (400, -3.41920181351811694470e-02) (401, 1.23775401295271272883e-01) (402, -1.10032352697119528706e-01) (403, -2.02783692435660641007e-02) (404, 1.36720282216708316492e-01) (405, 5.77851894101905350087e-02) (406, -9.40507901134804702448e-02) (407, -2.73956263545812109261e-02) (408, 4.51323426701845942244e-02) (409, 4.28749302926654113355e-02) (410, -6.93082436525742640043e-02) (411, -4.59125344347201050366e-02) (412, -8.42220253386335299117e-02) (413, -2.20088586898750437904e-01) (414, -1.89317316885961761663e-01) (415, -2.03404853330911017384e-01) (416, -2.03933243203142738897e-01) (417, -1.09200743873031080877e-01) (418, -2.50969307340475511481e-01) (419, -2.05237975836232516835e-01) (420, -3.34913986775194294498e-01) (421, -3.10694222453643920101e-01) (422, -1.38396126395106927598e-01) (423, -1.90941999994210437341e-01) (424, -2.92114189310167526870e-01) (425, -3.94119306570751212759e-02) (426, -4.92303257212316630609e-02) (427, 1.07782522426599063764e-02) (428, -9.52604836261125575980e-02) (429, -8.71589074480640657594e-02) (430, -8.03082740919579818328e-02) (431, -7.10285841882456331353e-02) (432, -1.13992742650812425853e-01) (433, -1.23060760320454321004e-01) (434, 1.20364638415328975563e-01) (435, -1.85412146589424287058e-02) (436, 2.87455165479200747125e-01) (437, -9.38261301798528207785e-02) (438, 1.39126613305233404194e-01) (439, -4.89824192328871088620e-01) (440, -1.31681323027453278662e-01) (441, -3.40106581187418544054e-01) (442, 4.19163070252254188475e-01) (443, -2.83980629232796488726e-01) (444, 2.51651832260559205068e-01) (445, 3.03668613277432886122e-01) (446, 1.65816590311344241870e-01) (447, 1.50596968809773718023e-01) (448, 1.32437003019053756159e-01) (449, -1.59782792940364459788e-01) (450, 4.03886971502429803493e-01) (451, 1.14462818427593565618e-01) (452, 5.65416795413004949489e-02) (453, 8.85145165223305135926e-02) (454, -1.01796665550836398784e-01) (455, -9.31874269913675057353e-02) (456, -2.08201801613735276719e-01) (457, -4.45988927664738438184e-02) (458, 1.55051940901460461042e-01) (459, 3.19154734755365598886e-01) (460, -8.45303615641629230160e-02) (461, 9.83007265247938383235e-02) (462, -1.67620255233890957935e-01) (463, 1.06931863069401361654e-01) (464, 6.22078538596490746015e-02) (465, -6.20931525939783929280e-02) (466, -5.70022963842903712672e-02) (467, 5.56392082723755967977e-02) (468, 1.31036211471163316356e-01) (469, 2.45038825471961180247e-01) (470, -1.92733827885535509428e-02) (0, -6.45561449226159274339e-03) (1, 1.98813775300972599147e-02) (2, -3.79814272047414866820e-03) (3, 1.91329809532619805890e-02) (4, 1.13161430474530047552e-01) (5, 7.11601546898798786867e-02) (6, -7.77577359550100377650e-02) (7, -1.34343634268871359172e-01) (8, -4.68019847558727095094e-02) (9, -6.58176642471632739051e-02) (10, 1.02984214356242720356e-01) (11, 2.16643605338659346604e-02) (12, 1.52060237397171227336e-01) (13, 6.83204814867370835429e-02) (14, 4.86393675970846900425e-02) (15, 2.38162832620390715888e-02) (16, -1.50216450937074363914e-01) (17, 6.40627482296534794814e-02) (18, -3.55596166652478382075e-02) (19, -5.03674394442278072770e-02) (20, -3.11594223388941028718e-02) (21, -1.13278355832714894280e-01) (22, -9.71978486927264628825e-02) (23, 9.59298642935688256062e-02) (24, -1.02780769695583709677e-01) (25, -6.16249341415639195763e-02) (26, -1.33295141074293438388e-01) (27, -1.05496294335918144869e-01) (28, -2.31428840601051954984e-01) (29, 2.37954978522478370617e-02) (30, -1.06760961550024693900e-01) (31, -3.22290442831148563063e-02) (32, 1.97593661447774043838e-01) (33, 4.99781604132627996218e-02) (34, 7.32858192786416395847e-02) (35, 1.66286290297877718813e-02) (36, -1.99180486224839088660e-02) (37, 7.13634893958163540884e-02) (38, -2.93129200046753739251e-02) (39, 9.55934463365616313157e-03) (40, -4.14119652042111152657e-02) (41, -1.67514888586792060066e-01) (42, 2.15223057530349514907e-03) (43, -8.91307035764589555837e-02) (44, -7.35678050784233650283e-02) (45, -2.28093298681281940465e-02) (46, 5.06394240286191718581e-02) (47, -6.78317163065589312509e-02) (48, 1.56145398807163854338e-02) (49, -2.70343697626711614024e-02) (50, 4.69968355874627319313e-02) (51, -5.62662311932390357683e-02) (52, -3.07900607868661219113e-02) (53, 2.35973251006373549443e-02) (54, 8.34743823567307835498e-02) (55, 6.78904131614772865522e-02) (56, 3.60407544820507616534e-02) (57, -6.20441561968442661934e-02) (58, -7.37404714135416784748e-03) (59, 3.61668566185126133528e-02) (60, 8.28868308260661823539e-02) (61, -1.30757808360995927272e-02) (62, -7.07721838392127017281e-02) (63, -6.94546771057727163612e-02) (64, 2.03126524542583009048e-01) (65, -1.37788177687064611332e-01) (66, -9.75174820534623898460e-02) (67, 6.46328062655293026501e-03) (68, -8.29664615845560060592e-02) (69, -5.31868980361552834424e-02) (70, 5.32536684974051974240e-02) (71, -1.40621034140622578473e-02) (72, -5.61221428921404863477e-02) (73, 2.72495258784021844589e-02) (74, -2.83116370147961475545e-02) (75, -5.55886720171024292791e-02) (76, 1.05865149602039826382e-01) (77, 7.83545791241568173602e-02) (78, 8.12878667822773855189e-03) (79, -1.39659291694225334846e-02) (80, 7.12678365061181033624e-03) (81, -7.91626739522831440743e-02) (82, 2.94707083739317483861e-02) (83, -1.58560617097312755996e-01) (84, -2.26324638807669890894e-02) (85, -9.57810738666973193745e-02) (86, -2.05900909248318440478e-03) (87, 5.89206898859336997143e-02) (88, -4.38712355982621149408e-02) (89, 3.92593604127581263796e-02) (90, -1.33763458158589698677e-01) (91, -3.18903570289026383477e-02) (92, -1.19242900194331591379e-01) (93, -1.66413319443348584059e-01) (94, 9.96831129205273495930e-03) (95, 1.62809256949619729493e-01) (96, 9.32452090538218175686e-02) (97, 1.95668262691771205342e-02) (98, -2.74004572496873814724e-02) (99, 7.70347143820718643914e-02) (100, -1.71995825925507946075e-02) (101, -1.40829503132317290781e-01) (102, -1.01542155039462039801e-01) (103, -2.85177770649916555168e-02) (104, -1.63755271816863945400e-01) (105, -4.52779425776649660507e-02) (106, 1.16250604663994602794e-02) (107, 2.44472724422602899486e-02) (108, -1.23479556442561672069e-01) (109, 4.06908795539401985097e-02) (110, -1.07149569402391994788e-01) (111, 1.93030134756913239469e-02) (112, 8.37371724620793733695e-02) (113, 9.08887443449164084130e-02) (114, -1.75271164201561746587e-01) (115, -8.88459948695000389929e-02) (116, -1.19869759106584441999e-01) (117, 1.72871111160567775267e-01) (118, -2.44738875692480407908e-02) (119, -1.92850569222693862814e-01) (120, 1.73581453910889194070e-01) (121, 2.62825573588512731438e-02) (122, 1.47457478240311717910e-01) (123, 1.80730318613854024079e-01) (124, -1.55647057575650366035e-01) (125, -7.83535956285510461206e-03) (126, 7.51624761954172160294e-02) (127, -5.12769489144314777329e-02) (128, 6.31275355998103943067e-02) (129, -6.84373277226060783285e-02) (130, 7.04350932241412097667e-02) (131, 3.48429929140409294641e-02) (132, 6.57529829475902716229e-02) (133, -9.27263472429017132637e-02) (134, -8.63234858593174281260e-02) (135, 2.57284713185761543253e-02) (136, 9.61279933336408286271e-03) (137, -8.33799908329500155668e-02) (138, -2.01121056703199019289e-02) (139, 2.24214226018481892211e-02) (140, 1.46591119044462231402e-01) (141, -1.86304268335225307884e-02) (142, 6.98686891505849588802e-02) (143, -8.62896953514600967283e-02) (144, 1.02121626858144229355e-02) (145, -9.76595584559444666872e-03) (146, 6.88736953642818394705e-02) (147, 6.17397827104728333381e-02) (148, 1.71609556049338099482e-02) (149, 3.94857726553852622642e-02) (150, -8.99410241229095797078e-02) (151, -2.38104470812956379652e-03) (152, 8.59824811937772021109e-02) (153, -1.55736870071891048140e-01) (154, -5.16463736171407297726e-02) (155, 8.12745282398621288200e-02) (156, -6.87075320903451636223e-02) (157, 1.85131254966566967390e-02) (158, -2.14074999995327780455e-01) (159, -1.04919516645990723580e-01) (160, -1.55483317953576477555e-01) (161, -1.36281873445123269395e-01) (162, 1.09001510598797247270e-02) (163, 6.46317033661394924060e-02) (164, -1.95287991288958240332e-01) (165, -8.12455233145370353531e-02) (166, 4.33015805205979667503e-02) (167, 7.29716500505611376237e-02) (168, -1.88231921779193595023e-01) (169, 2.00768762410562830178e-02) (170, 2.74744910415787753355e-02) (171, 1.77299447641992326263e-02) (172, 7.63743323922582394159e-03) (173, -1.81829621064040380940e-01) (174, -6.74509061741304510873e-02) (175, -2.44780901695820535258e-01) (176, -2.16549820632263717579e-01) (177, 1.80465338701675248601e-01) (178, -4.20289742503157717768e-02) (179, -6.31734601604920509299e-02) (180, -1.14142719447582557946e-01) (181, -1.60129812490380024625e-01) (182, -7.88563179541781761328e-02) (183, 1.22371712508833330180e-01) (184, -1.47036967425772130413e-01) (185, 8.30456414347034987955e-02) (186, 8.33659335631052877957e-02) (187, 1.23983397429000649637e-01) (188, -1.69554085170316587439e-02) (189, -9.91565162806388594730e-02) (190, -1.78410391482243836647e-02) (191, -9.69727759783959621098e-03) (192, -1.38847619588247706002e-01) (193, -2.34967356325323728505e-01) (194, -1.60700551353005871569e-01) (195, -7.58599931007798277544e-03) (196, 1.44053664067697873019e-01) (197, 7.55937222851790074918e-02) (198, -1.56593681419509606068e-01) (199, 6.30287903465552024063e-02) (200, 3.94957055742220300432e-02) (201, 1.25086846677361751556e-01) (202, -9.39767082190641617201e-02) (203, -1.89379979584425262029e-01) (204, -1.49472047413677228134e-01) (205, -1.75781308305932831848e-01) (206, -7.38089993387895382249e-02) (207, 1.00587161582554845962e-01) (208, 5.33967443051094267648e-02) (209, -2.33357141820383390263e-01) (210, -1.97075342076060505692e-01) (211, -7.57870146518472287411e-02) (212, -1.94897145843962726897e-01) (213, 5.32538759244185547215e-02) (214, -3.68312056276462462812e-02) (215, 6.98987101759443174576e-02) (216, -1.97865680811596458821e-02) (217, 1.69017899443970019691e-02) (218, -4.54207739092480008991e-02) (219, 6.67408655207148426847e-02) (220, 1.68080900882782990902e-02) (221, 2.89005021241672266363e-02) (222, 8.21280918033959889124e-02) (223, 1.26262197670638204317e-01) (224, -2.67614551375436049430e-02) (225, 1.67933717174764768343e-01) (226, 1.45159808293331527018e-01) (227, -1.71156191772480287261e-01) (228, 7.21996952828743987496e-02) (229, -1.07712381465922851786e-01) (230, 9.10954825009770326194e-03) (231, 7.10797348570986753380e-02) (232, 4.19605360818262745903e-02) (233, -9.20258030961043638207e-02) (234, -1.64388718498913247168e-02) (235, -9.40800167820181054701e-02) (236, -1.10887161718762672358e-01) (237, 1.83500096808307755492e-01) (238, -7.57712854811812882433e-03) (239, -1.51787560781441954738e-01) (240, -1.05406579650894491329e-01) (241, -4.64956044009297089770e-02) (242, 1.36705381324400326859e-01) (243, 9.86612446969064443847e-02) (244, -1.62602319246093224292e-01) (245, 1.57142935768406100117e-01) (246, 7.47303282170523330841e-02) (247, 7.68360154853367921524e-02) (248, 9.88672306793407854042e-03) (249, 3.80391330166974170335e-02) (250, 7.02999723669603671095e-02) (251, -4.59847952753265065695e-02) (252, 6.45628241189532964261e-02) (253, -1.03443473048307935103e-01) (254, 1.07743903639655663751e-01) (255, 9.16668233733266696328e-02) (256, 4.92205333707985692726e-02) (257, 5.02754930117627341080e-02) (258, 8.27821923240314172521e-02) (259, 3.67169242737093934337e-02) (260, 6.97642948926091924222e-03) (261, -1.21535705497859233826e-01) (262, -1.68123635247570013540e-01) (263, -4.43504804257384352417e-02) (264, 1.33240252325830966368e-02) (265, 6.16414873462097223644e-02) (266, -1.28147236378031853521e-01) (267, -1.32962020892863602706e-01) (268, 1.28091093695132746122e-01) (269, 2.37810833315234698704e-01) (270, -8.31792425715748434678e-02) (271, -4.67688739159037164539e-02) (272, -7.00387675213774707483e-02) (273, -9.73197614320538972876e-02) (274, 1.47918584111847051243e-01) (275, 6.81918783723182292400e-02) (276, -4.51613777579185221578e-02) (277, -1.13264861452052778557e-01) (278, -8.44207410783513918784e-03) (279, -3.41367510638102278353e-02) (280, 1.98603780416959752042e-01) (281, -2.02725999124737897572e-02) (282, -4.48577798847119499359e-02) (283, 3.14500757855951940112e-02) (284, -1.38624589277455273484e-02) (285, -9.66768769619061468790e-02) (286, -6.58217174351199973970e-02) (287, 2.15635907892516055784e-02) (288, -6.95277428531503316478e-02) (289, -1.53105651433114275939e-01) (290, -1.24249047451908206652e-01) (291, -3.98615324314758323609e-02) (292, -1.82242190555922084494e-01) (293, -5.69678571048407925148e-02) (294, -5.21872658492861657420e-02) (295, -5.84278704792999606377e-02) (296, 2.06073847516789754319e-02) (297, -2.62499077615966566746e-02) (298, -7.94267813348747686586e-02) (299, -8.79178648631472048347e-02) (300, 1.54871872569016400673e-02) (301, 6.74121879937208678957e-02) (302, 2.69781351132328990616e-02) (303, -1.04589087706458035154e-02) (304, -1.82531836469247525645e-02) (305, -6.67524211280026147364e-02) (306, 1.16076530221923698849e-01) (307, 1.86602910773488506191e-01) (308, -5.99740108651233838621e-02) (309, -4.13483549780443160326e-02) (310, -6.42608885124676260103e-02) (311, 4.70779471287506023902e-02) (312, 4.01854557004779067153e-02) (313, -2.62517094862373167111e-03) (314, -5.73578754003127230798e-02) (315, -5.77229149496536267372e-02) (316, 7.97139318729551960008e-02) (317, -1.91903846449643922245e-02) (318, 8.96669527787618131365e-02) (319, 2.10875625276624525939e-02) (320, -8.47715779309650974138e-02) (321, -2.22980770274246523077e-03) (322, 1.15706654830994466743e-02) (323, -1.51542022723470254375e-01) (324, -3.15887472269451505258e-02) (325, 9.44330210947670611876e-03) (326, -2.43434568753594232637e-02) (327, 8.27877598923104779383e-02) (328, -6.20226942847406231829e-02) (329, -3.12633935309465579855e-02) (330, -5.84930640981387792166e-02) (331, -8.84118131762266085127e-03) (332, -1.40234823488019078042e-01) (333, 4.98762140391254757410e-02) (334, 8.68165808271905911631e-03) (335, -1.12781818410733758462e-01) (336, -7.15143359481368451336e-02) (337, -9.64344606185520841768e-03) (338, 3.79186920635156896053e-02) (339, 9.53215313941793984664e-02) (340, -3.78642252587578914680e-02) (341, 2.90333791150950981663e-02) (342, 7.37734119334493374659e-03) (343, 5.74676634132699204471e-02) (344, -7.00651057343561478596e-02) (345, 7.39860003092970147653e-02) (346, -3.18677954976738717074e-02) (347, 6.52047118610240422631e-02) (348, 6.09677859807168133488e-03) (349, 6.59977359442135980139e-02) (350, -1.73885201231894072176e-03) (351, 1.07247547316714694765e-01) (352, 6.94840916229100269419e-02) (353, -6.29021261676410755465e-03) (354, 1.30370343175050279472e-01) (355, 3.40730022944905064364e-02) (356, -1.29903707568565403296e-02) (357, 5.13887376601628378947e-02) (358, -2.91886887741073589031e-03) (359, -1.26202499163371895108e-01) (360, 6.45222691473229803538e-02) (361, 1.20525243507791257613e-01) (362, 4.43517758869466007660e-03) (363, -1.11325840892117194914e-01) (364, 6.02068941623983954620e-03) (365, -9.73386379795081468913e-02) (366, 5.36987664003883494179e-02) (367, -6.80487332264565064621e-02) (368, -8.34889921511664384601e-02) (369, 5.47517731821200136222e-03) (370, 1.13626916518760667785e-01) (371, 3.33547990703763688747e-02) (372, -8.00840157175171235560e-02) (373, -4.60268784834572328157e-02) (374, -4.70979756419072498330e-02) (375, -1.31741817928958865336e-01) (376, -1.45571985305739920458e-01) (377, -6.01572268090698036164e-03) (378, 1.17952150116068278651e-02) (379, 2.79212417409591025230e-02) (380, -1.37483508822628774926e-01) (381, -1.19572767595929000534e-02) (382, -1.02733156870594387333e-02) (383, -1.09463884331848906872e-01) (384, 7.81999370127895165883e-02) (385, -4.13083744220979626194e-02) (386, -1.14286572768798333488e-01) (387, -2.11467316590668551191e-02) (388, 1.25647911633256614827e-01) (389, 2.03493321164619905828e-02) (390, -2.32102999746362399780e-02) (391, 2.27315840957004623030e-03) (392, -2.94231990745819288816e-03) (393, 2.16913073558219447745e-02) (394, 7.99928725317113759052e-02) (395, 7.11847423207809856111e-03) (396, 3.57857542322336935614e-02) (397, -2.76522215540801101843e-03) (398, -5.01955958729434709512e-04) (399, 1.24253964125923446749e-01) (400, 1.29035653280986355868e-02) (401, -1.92840401966491090113e-02) (402, -9.41585839809149817425e-03) (403, 2.18572630315760603817e-03) (404, 3.14970998436485058458e-02) (405, 7.07079186736356418708e-02) (406, -5.89356527897978085817e-02) (407, 2.05936423627233466949e-02) (408, -6.11449093687931391483e-02) (409, 4.52209116867460028666e-02) (410, -6.11999643667958739823e-02) (411, -3.01935174187916190169e-02) (412, -4.31756970956118577010e-02) (413, -4.63878345045057594032e-02) (414, 1.98294791106774677403e-02) (415, 8.59628958498943329669e-02) (416, 1.15679861097418585497e-02) (417, -9.68245864172795345226e-02) (418, -2.96091951819264231904e-02) (419, -5.99590108670425211979e-02) (420, -1.48904416818776474951e-01) (421, -3.52812192745109165504e-01) (422, 1.64708524638452098732e-02) (423, -2.17570632264065921824e-01) (424, -1.03258863438169534721e-01) (425, -1.15108628402354140619e-01) (426, 4.92645185004455393729e-02) (427, 3.64344523034368233949e-02) (428, 2.88903571408012371791e-02) (429, -1.65764883005378553527e-02) (430, 8.37957309877917916330e-02) (431, 1.25874437556701107566e-01) (432, -2.39026011451467339242e-02) (433, -1.26165110056184581744e-01) (434, 1.94568319028746244959e-01) (435, 