FANN_FLO_2.1
num_layers=3
learning_rate=0.010000
connection_rate=1.000000
network_type=0
learning_momentum=0.300000
training_algorithm=0
train_error_function=0
train_stop_function=0
cascade_output_change_fraction=0.010000
quickprop_decay=-0.000100
quickprop_mu=1.750000
rprop_increase_factor=1.200000
rprop_decrease_factor=0.500000
rprop_delta_min=0.000000
rprop_delta_max=50.000000
rprop_delta_zero=0.100000
cascade_output_stagnation_epochs=12
cascade_candidate_change_fraction=0.010000
cascade_candidate_stagnation_epochs=12
cascade_max_out_epochs=150
cascade_min_out_epochs=0
cascade_max_cand_epochs=150
cascade_min_cand_epochs=0
cascade_num_candidate_groups=2
bit_fail_limit=3.49999999999999977796e-01
cascade_candidate_limit=1.00000000000000000000e+03
cascade_weight_multiplier=4.00000000000000022204e-01
cascade_activation_functions_count=10
cascade_activation_functions=3 5 7 8 10 11 14 15 16 17 
cascade_activation_steepnesses_count=4
cascade_activation_steepnesses=2.50000000000000000000e-01 5.00000000000000000000e-01 7.50000000000000000000e-01 1.00000000000000000000e+00 
layer_sizes=632 121 4 
scale_included=0
neurons (num_inputs, activation_function, activation_steepness)=(0, 0, 0.00000000000000000000e+00) (0, 0, 0.00000000000000000000e+00) (0, 0, 0.00000000000000000000e+00) (0, 0, 0.00000000000000000000e+00) (0, 0, 0.00000000000000000000e+00) (0, 0, 0.00000000000000000000e+00) (0, 0, 0.00000000000000000000e+00) (0, 0, 0.00000000000000000000e+00) (0, 0, 0.00000000000000000000e+00) (0, 0, 0.00000000000000000000e+00) (0, 0, 0.00000000000000000000e+00) (0, 0, 0.00000000000000000000e+00) (0, 0, 0.00000000000000000000e+00) (0, 0, 0.00000000000000000000e+00) (0, 0, 0.00000000000000000000e+00) (0, 0, 0.00000000000000000000e+00) (0, 0, 0.00000000000000000000e+00) (0, 0, 0.00000000000000000000e+00) (0, 0, 0.00000000000000000000e+00) (0, 0, 0.00000000000000000000e+00) (0, 0, 0.00000000000000000000e+00) (0, 0, 0.00000000000000000000e+00) (0, 0, 0.00000000000000000000e+00) (0, 0, 0.00000000000000000000e+00) (0, 0, 0.00000000000000000000e+00) (0, 0, 0.00000000000000000000e+00) (0, 0, 0.00000000000000000000e+00) (0, 0, 0.00000000000000000000e+00) (0, 0, 0.00000000000000000000e+00) (0, 0, 0.00000000000000000000e+00) (0, 0, 0.00000000000000000000e+00) (0, 0, 0.00000000000000000000e+00) (0, 0, 0.00000000000000000000e+00) (0, 0, 0.00000000000000000000e+00) (0, 0, 0.00000000000000000000e+00) (0, 0, 0.00000000000000000000e+00) (0, 0, 0.00000000000000000000e+00) (0, 0, 0.00000000000000000000e+00) (0, 0, 0.00000000000000000000e+00) (0, 0, 0.00000000000000000000e+00) (0, 0, 0.00000000000000000000e+00) (0, 0, 0.00000000000000000000e+00) (0, 0, 0.00000000000000000000e+00) (0, 0, 0.00000000000000000000e+00) (0, 0, 0.00000000000000000000e+00) (0, 0, 0.00000000000000000000e+00) (0, 0, 0.00000000000000000000e+00) (0, 0, 0.00000000000000000000e+00) (0, 0, 0.00000000000000000000e+00) (0, 0, 0.00000000000000000000e+00) (0, 0, 0.00000000000000000000e+00) (0, 0, 0.00000000000000000000e+00) (0, 0, 0.00000000000000000000e+00) (0, 0, 0.00000000000000000000e+00) (0, 0, 0.00000000000000000000e+00) (0, 0, 0.00000000000000000000e+00) (0, 0, 0.00000000000000000000e+00) (0, 0, 0.00000000000000000000e+00) (0, 0, 0.00000000000000000000e+00) (0, 0, 0.00000000000000000000e+00) (0, 0, 0.00000000000000000000e+00) (0, 0, 0.00000000000000000000e+00) (0, 0, 0.00000000000000000000e+00) (0, 0, 0.00000000000000000000e+00) (0, 0, 0.00000000000000000000e+00) (0, 0, 0.00000000000000000000e+00) (0, 0, 0.00000000000000000000e+00) (0, 0, 0.00000000000000000000e+00) (0, 0, 0.00000000000000000000e+00) (0, 0, 0.00000000000000000000e+00) (0, 0, 0.00000000000000000000e+00) (0, 0, 0.00000000000000000000e+00) (0, 0, 0.00000000000000000000e+00) (0, 0, 0.00000000000000000000e+00) (0, 0, 0.00000000000000000000e+00) (0, 0, 0.00000000000000000000e+00) (0, 0, 0.00000000000000000000e+00) (0, 0, 0.00000000000000000000e+00) (0, 0, 0.00000000000000000000e+00) (0, 0, 0.00000000000000000000e+00) (0, 0, 0.00000000000000000000e+00) (0, 0, 0.00000000000000000000e+00) (0, 0, 0.00000000000000000000e+00) (0, 0, 0.00000000000000000000e+00) (0, 0, 0.00000000000000000000e+00) (0, 0, 0.00000000000000000000e+00) (0, 0, 0.00000000000000000000e+00) (0, 0, 0.00000000000000000000e+00) (0, 0, 0.00000000000000000000e+00) (0, 0, 0.00000000000000000000e+00) (0, 0, 0.00000000000000000000e+00) (0, 0, 0.00000000000000000000e+00) (0, 0, 0.00000000000000000000e+00) (0, 0, 0.00000000000000000000e+00) (0, 0, 0.00000000000000000000e+00) (0, 0, 0.00000000000000000000e+00) (0, 0, 0.00000000000000000000e+00) (0, 0, 0.00000000000000000000e+00) (0, 0, 0.00000000000000000000e+00) (0, 0, 0.00000000000000000000e+00) (0, 0, 0.00000000000000000000e+00) (0, 0, 0.00000000000000000000e+00) (0, 0, 0.00000000000000000000e+00) (0, 0, 0.00000000000000000000e+00) (0, 0, 0.00000000000000000000e+00) (0, 0, 0.00000000000000000000e+00) (0, 0, 0.00000000000000000000e+00) (0, 0, 0.00000000000000000000e+00) (0, 0, 0.00000000000000000000e+00) (0, 0, 0.00000000000000000000e+00) (0, 0, 0.00000000000000000000e+00) (0, 0, 0.00000000000000000000e+00) (0, 0, 0.00000000000000000000e+00) (0, 0, 0.00000000000000000000e+00) (0, 0, 0.00000000000000000000e+00) (0, 0, 0.00000000000000000000e+00) (0, 0, 0.00000000000000000000e+00) (0, 0, 0.00000000000000000000e+00) (0, 0, 0.00000000000000000000e+00) (0, 0, 0.00000000000000000000e+00) (0, 0, 0.00000000000000000000e+00) (0, 0, 0.00000000000000000000e+00) (0, 0, 0.00000000000000000000e+00) (0, 0, 0.00000000000000000000e+00) (0, 0, 0.00000000000000000000e+00) (0, 0, 0.00000000000000000000e+00) (0, 0, 0.00000000000000000000e+00) (0, 0, 0.00000000000000000000e+00) (0, 0, 0.00000000000000000000e+00) (0, 0, 0.00000000000000000000e+00) (0, 0, 0.00000000000000000000e+00) (0, 0, 0.00000000000000000000e+00) (0, 0, 0.00000000000000000000e+00) (0, 0, 0.00000000000000000000e+00) (0, 0, 0.00000000000000000000e+00) (0, 0, 0.00000000000000000000e+00) (0, 0, 0.00000000000000000000e+00) (0, 0, 0.00000000000000000000e+00) (0, 0, 0.00000000000000000000e+00) (0, 0, 0.00000000000000000000e+00) (0, 0, 0.00000000000000000000e+00) (0, 0, 0.00000000000000000000e+00) (0, 0, 0.00000000000000000000e+00) (0, 0, 0.00000000000000000000e+00) (0, 0, 0.00000000000000000000e+00) (0, 0, 0.00000000000000000000e+00) (0, 0, 0.00000000000000000000e+00) (0, 0, 0.00000000000000000000e+00) (0, 0, 0.00000000000000000000e+00) (0, 0, 0.00000000000000000000e+00) (0, 0, 0.00000000000000000000e+00) (0, 0, 0.00000000000000000000e+00) (0, 0, 0.00000000000000000000e+00) (0, 0, 0.00000000000000000000e+00) (0, 0, 0.00000000000000000000e+00) (0, 0, 0.00000000000000000000e+00) (0, 0, 0.00000000000000000000e+00) (0, 0, 0.00000000000000000000e+00) (0, 0, 0.00000000000000000000e+00) (0, 0, 0.00000000000000000000e+00) (0, 0, 0.00000000000000000000e+00) (0, 0, 0.00000000000000000000e+00) (0, 0, 0.00000000000000000000e+00) (0, 0, 0.00000000000000000000e+00) (0, 0, 0.00000000000000000000e+00) (0, 0, 0.00000000000000000000e+00) (0, 0, 0.00000000000000000000e+00) (0, 0, 0.00000000000000000000e+00) (0, 0, 0.00000000000000000000e+00) (0, 0, 0.00000000000000000000e+00) (0, 0, 0.00000000000000000000e+00) (0, 0, 0.00000000000000000000e+00) (0, 0, 0.00000000000000000000e+00) (0, 0, 0.00000000000000000000e+00) (0, 0, 0.00000000000000000000e+00) (0, 0, 0.00000000000000000000e+00) (0, 0, 0.00000000000000000000e+00) (0, 0, 0.00000000000000000000e+00) (0, 0, 0.00000000000000000000e+00) (0, 0, 0.00000000000000000000e+00) (0, 0, 0.00000000000000000000e+00) (0, 0, 0.00000000000000000000e+00) (0, 0, 0.00000000000000000000e+00) (0, 0, 0.00000000000000000000e+00) (0, 0, 0.00000000000000000000e+00) (0, 0, 0.00000000000000000000e+00) (0, 0, 0.00000000000000000000e+00) (0, 0, 0.00000000000000000000e+00) (0, 0, 0.00000000000000000000e+00) (0, 0, 0.00000000000000000000e+00) (0, 0, 0.00000000000000000000e+00) (0, 0, 0.00000000000000000000e+00) (0, 0, 0.00000000000000000000e+00) (0, 0, 0.00000000000000000000e+00) (0, 0, 0.00000000000000000000e+00) (0, 0, 0.00000000000000000000e+00) (0, 0, 0.00000000000000000000e+00) (0, 0, 0.00000000000000000000e+00) (0, 0, 0.00000000000000000000e+00) (0, 0, 0.00000000000000000000e+00) (0, 0, 0.00000000000000000000e+00) (0, 0, 0.00000000000000000000e+00) (0, 0, 0.00000000000000000000e+00) (0, 0, 0.00000000000000000000e+00) (0, 0, 0.00000000000000000000e+00) (0, 0, 0.00000000000000000000e+00) (0, 0, 0.00000000000000000000e+00) (0, 0, 0.00000000000000000000e+00) (0, 0, 0.00000000000000000000e+00) (0, 0, 0.00000000000000000000e+00) (0, 0, 0.00000000000000000000e+00) (0, 0, 0.00000000000000000000e+00) (0, 0, 0.00000000000000000000e+00) (0, 0, 0.00000000000000000000e+00) (0, 0, 0.00000000000000000000e+00) (0, 0, 0.00000000000000000000e+00) (0, 0, 0.00000000000000000000e+00) (0, 0, 0.00000000000000000000e+00) (0, 0, 0.00000000000000000000e+00) (0, 0, 0.00000000000000000000e+00) (0, 0, 0.00000000000000000000e+00) (0, 0, 0.00000000000000000000e+00) (0, 0, 0.00000000000000000000e+00) (0, 0, 0.00000000000000000000e+00) (0, 0, 0.00000000000000000000e+00) (0, 0, 0.00000000000000000000e+00) (0, 0, 0.00000000000000000000e+00) (0, 0, 0.00000000000000000000e+00) (0, 0, 0.00000000000000000000e+00) (0, 0, 0.00000000000000000000e+00) (0, 0, 0.00000000000000000000e+00) (0, 0, 0.00000000000000000000e+00) (0, 0, 0.00000000000000000000e+00) (0, 0, 0.00000000000000000000e+00) (0, 0, 0.00000000000000000000e+00) (0, 0, 0.00000000000000000000e+00) (0, 0, 0.00000000000000000000e+00) (0, 0, 0.00000000000000000000e+00) (0, 0, 0.00000000000000000000e+00) (0, 0, 0.00000000000000000000e+00) (0, 0, 0.00000000000000000000e+00) (0, 0, 0.00000000000000000000e+00) (0, 0, 0.00000000000000000000e+00) (0, 0, 0.00000000000000000000e+00) (0, 0, 0.00000000000000000000e+00) (0, 0, 0.00000000000000000000e+00) (0, 0, 0.00000000000000000000e+00) (0, 0, 0.00000000000000000000e+00) (0, 0, 0.00000000000000000000e+00) (0, 0, 0.00000000000000000000e+00) (0, 0, 0.00000000000000000000e+00) (0, 0, 0.00000000000000000000e+00) (0, 0, 0.00000000000000000000e+00) (0, 0, 0.00000000000000000000e+00) (0, 0, 0.00000000000000000000e+00) (0, 0, 0.00000000000000000000e+00) (0, 0, 0.00000000000000000000e+00) (0, 0, 0.00000000000000000000e+00) (0, 0, 0.00000000000000000000e+00) (0, 0, 0.00000000000000000000e+00) (0, 0, 0.00000000000000000000e+00) (0, 0, 0.00000000000000000000e+00) (0, 0, 0.00000000000000000000e+00) (0, 0, 0.00000000000000000000e+00) (0, 0, 0.00000000000000000000e+00) (0, 0, 0.00000000000000000000e+00) (0, 0, 0.00000000000000000000e+00) (0, 0, 0.00000000000000000000e+00) (0, 0, 0.00000000000000000000e+00) (0, 0, 0.00000000000000000000e+00) (0, 0, 0.00000000000000000000e+00) (0, 0, 0.00000000000000000000e+00) (0, 0, 0.00000000000000000000e+00) (0, 0, 0.00000000000000000000e+00) (0, 0, 0.00000000000000000000e+00) (0, 0, 0.00000000000000000000e+00) (0, 0, 0.00000000000000000000e+00) (0, 0, 0.00000000000000000000e+00) (0, 0, 0.00000000000000000000e+00) (0, 0, 0.00000000000000000000e+00) (0, 0, 0.00000000000000000000e+00) (0, 0, 0.00000000000000000000e+00) (0, 0, 0.00000000000000000000e+00) (0, 0, 0.00000000000000000000e+00) (0, 0, 0.00000000000000000000e+00) (0, 0, 0.00000000000000000000e+00) (0, 0, 0.00000000000000000000e+00) (0, 0, 0.00000000000000000000e+00) (0, 0, 0.00000000000000000000e+00) (0, 0, 0.00000000000000000000e+00) (0, 0, 0.00000000000000000000e+00) (0, 0, 0.00000000000000000000e+00) (0, 0, 0.00000000000000000000e+00) (0, 0, 0.00000000000000000000e+00) (0, 0, 0.00000000000000000000e+00) (0, 0, 0.00000000000000000000e+00) (0, 0, 0.00000000000000000000e+00) (0, 0, 0.00000000000000000000e+00) (0, 0, 0.00000000000000000000e+00) (0, 0, 0.00000000000000000000e+00) (0, 0, 0.00000000000000000000e+00) (0, 0, 0.00000000000000000000e+00) (0, 0, 0.00000000000000000000e+00) (0, 0, 0.00000000000000000000e+00) (0, 0, 0.00000000000000000000e+00) (0, 0, 0.00000000000000000000e+00) (0, 0, 0.00000000000000000000e+00) (0, 0, 0.00000000000000000000e+00) (0, 0, 0.00000000000000000000e+00) (0, 0, 0.00000000000000000000e+00) (0, 0, 0.00000000000000000000e+00) (0, 0, 0.00000000000000000000e+00) (0, 0, 0.00000000000000000000e+00) (0, 0, 0.00000000000000000000e+00) (0, 0, 0.00000000000000000000e+00) (0, 0, 0.00000000000000000000e+00) (0, 0, 0.00000000000000000000e+00) (0, 0, 0.00000000000000000000e+00) (0, 0, 0.00000000000000000000e+00) (0, 0, 0.00000000000000000000e+00) (0, 0, 0.00000000000000000000e+00) (0, 0, 0.00000000000000000000e+00) (0, 0, 0.00000000000000000000e+00) (0, 0, 0.00000000000000000000e+00) (0, 0, 0.00000000000000000000e+00) (0, 0, 0.00000000000000000000e+00) (0, 0, 0.00000000000000000000e+00) (0, 0, 0.00000000000000000000e+00) (0, 0, 0.00000000000000000000e+00) (0, 0, 0.00000000000000000000e+00) (0, 0, 0.00000000000000000000e+00) (0, 0, 0.00000000000000000000e+00) (0, 0, 0.00000000000000000000e+00) (0, 0, 0.00000000000000000000e+00) (0, 0, 0.00000000000000000000e+00) (0, 0, 0.00000000000000000000e+00) (0, 0, 0.00000000000000000000e+00) (0, 0, 0.00000000000000000000e+00) (0, 0, 0.00000000000000000000e+00) (0, 0, 0.00000000000000000000e+00) (0, 0, 0.00000000000000000000e+00) (0, 0, 0.00000000000000000000e+00) (0, 0, 0.00000000000000000000e+00) (0, 0, 0.00000000000000000000e+00) (0, 0, 0.00000000000000000000e+00) (0, 0, 0.00000000000000000000e+00) (0, 0, 0.00000000000000000000e+00) (0, 0, 0.00000000000000000000e+00) (0, 0, 0.00000000000000000000e+00) (0, 0, 0.00000000000000000000e+00) (0, 0, 0.00000000000000000000e+00) (0, 0, 0.00000000000000000000e+00) (0, 0, 0.00000000000000000000e+00) (0, 0, 0.00000000000000000000e+00) (0, 0, 0.00000000000000000000e+00) (0, 0, 0.00000000000000000000e+00) (0, 0, 0.00000000000000000000e+00) (0, 0, 0.00000000000000000000e+00) (0, 0, 0.00000000000000000000e+00) (0, 0, 0.00000000000000000000e+00) (0, 0, 0.00000000000000000000e+00) (0, 0, 0.00000000000000000000e+00) (0, 0, 0.00000000000000000000e+00) (0, 0, 0.00000000000000000000e+00) (0, 0, 0.00000000000000000000e+00) (0, 0, 0.00000000000000000000e+00) (0, 0, 0.00000000000000000000e+00) (0, 0, 0.00000000000000000000e+00) (0, 0, 0.00000000000000000000e+00) (0, 0, 0.00000000000000000000e+00) (0, 0, 0.00000000000000000000e+00) (0, 0, 0.00000000000000000000e+00) (0, 0, 0.00000000000000000000e+00) (0, 0, 0.00000000000000000000e+00) (0, 0, 0.00000000000000000000e+00) (0, 0, 0.00000000000000000000e+00) (0, 0, 0.00000000000000000000e+00) (0, 0, 0.00000000000000000000e+00) (0, 0, 0.00000000000000000000e+00) (0, 0, 0.00000000000000000000e+00) (0, 0, 0.00000000000000000000e+00) (0, 0, 0.00000000000000000000e+00) (0, 0, 0.00000000000000000000e+00) (0, 0, 0.00000000000000000000e+00) (0, 0, 0.00000000000000000000e+00) (0, 0, 0.00000000000000000000e+00) (0, 0, 0.00000000000000000000e+00) (0, 0, 0.00000000000000000000e+00) (0, 0, 0.00000000000000000000e+00) (0, 0, 0.00000000000000000000e+00) (0, 0, 0.00000000000000000000e+00) (0, 0, 0.00000000000000000000e+00) (0, 0, 0.00000000000000000000e+00) (0, 0, 0.00000000000000000000e+00) (0, 0, 0.00000000000000000000e+00) (0, 0, 0.00000000000000000000e+00) (0, 0, 0.00000000000000000000e+00) (0, 0, 0.00000000000000000000e+00) (0, 0, 0.00000000000000000000e+00) (0, 0, 0.00000000000000000000e+00) (0, 0, 0.00000000000000000000e+00) (0, 0, 0.00000000000000000000e+00) (0, 0, 0.00000000000000000000e+00) (0, 0, 0.00000000000000000000e+00) (0, 0, 0.00000000000000000000e+00) (0, 0, 0.00000000000000000000e+00) (0, 0, 0.00000000000000000000e+00) (0, 0, 0.00000000000000000000e+00) (0, 0, 0.00000000000000000000e+00) (0, 0, 0.00000000000000000000e+00) (0, 0, 0.00000000000000000000e+00) (0, 0, 0.00000000000000000000e+00) (0, 0, 0.00000000000000000000e+00) (0, 0, 0.00000000000000000000e+00) (0, 0, 0.00000000000000000000e+00) (0, 0, 0.00000000000000000000e+00) (0, 0, 0.00000000000000000000e+00) (0, 0, 0.00000000000000000000e+00) (0, 0, 0.00000000000000000000e+00) (0, 0, 0.00000000000000000000e+00) (0, 0, 0.00000000000000000000e+00) (0, 0, 0.00000000000000000000e+00) (0, 0, 0.00000000000000000000e+00) (0, 0, 0.00000000000000000000e+00) (0, 0, 0.00000000000000000000e+00) (0, 0, 0.00000000000000000000e+00) (0, 0, 0.00000000000000000000e+00) (0, 0, 0.00000000000000000000e+00) (0, 0, 0.00000000000000000000e+00) (0, 0, 0.00000000000000000000e+00) (0, 0, 0.00000000000000000000e+00) (0, 0, 0.00000000000000000000e+00) (0, 0, 0.00000000000000000000e+00) (0, 0, 0.00000000000000000000e+00) (0, 0, 0.00000000000000000000e+00) (0, 0, 0.00000000000000000000e+00) (0, 0, 0.00000000000000000000e+00) (0, 0, 0.00000000000000000000e+00) (0, 0, 0.00000000000000000000e+00) (0, 0, 0.00000000000000000000e+00) (0, 0, 0.00000000000000000000e+00) (0, 0, 0.00000000000000000000e+00) (0, 0, 0.00000000000000000000e+00) (0, 0, 0.00000000000000000000e+00) (0, 0, 0.00000000000000000000e+00) (0, 0, 0.00000000000000000000e+00) (0, 0, 0.00000000000000000000e+00) (0, 0, 0.00000000000000000000e+00) (0, 0, 0.00000000000000000000e+00) (0, 0, 0.00000000000000000000e+00) (0, 0, 0.00000000000000000000e+00) (0, 0, 0.00000000000000000000e+00) (0, 0, 0.00000000000000000000e+00) (0, 0, 0.00000000000000000000e+00) (0, 0, 0.00000000000000000000e+00) (0, 0, 0.00000000000000000000e+00) (0, 0, 0.00000000000000000000e+00) (0, 0, 0.00000000000000000000e+00) (0, 0, 0.00000000000000000000e+00) (0, 0, 0.00000000000000000000e+00) (0, 0, 0.00000000000000000000e+00) (0, 0, 0.00000000000000000000e+00) (0, 0, 0.00000000000000000000e+00) (0, 0, 0.00000000000000000000e+00) (0, 0, 0.00000000000000000000e+00) (0, 0, 0.00000000000000000000e+00) (0, 0, 0.00000000000000000000e+00) (0, 0, 0.00000000000000000000e+00) (0, 0, 0.00000000000000000000e+00) (0, 0, 0.00000000000000000000e+00) (0, 0, 0.00000000000000000000e+00) (0, 0, 0.00000000000000000000e+00) (0, 0, 0.00000000000000000000e+00) (0, 0, 0.00000000000000000000e+00) (0, 0, 0.00000000000000000000e+00) (0, 0, 0.00000000000000000000e+00) (0, 0, 0.00000000000000000000e+00) (0, 0, 0.00000000000000000000e+00) (0, 0, 0.00000000000000000000e+00) (0, 0, 0.00000000000000000000e+00) (0, 0, 0.00000000000000000000e+00) (0, 0, 0.00000000000000000000e+00) (0, 0, 0.00000000000000000000e+00) (0, 0, 0.00000000000000000000e+00) (0, 0, 0.00000000000000000000e+00) (0, 0, 0.00000000000000000000e+00) (0, 0, 0.00000000000000000000e+00) (0, 0, 0.00000000000000000000e+00) (0, 0, 0.00000000000000000000e+00) (0, 0, 0.00000000000000000000e+00) (0, 0, 0.00000000000000000000e+00) (0, 0, 0.00000000000000000000e+00) (0, 0, 0.00000000000000000000e+00) (0, 0, 0.00000000000000000000e+00) (0, 0, 0.00000000000000000000e+00) (0, 0, 0.00000000000000000000e+00) (0, 0, 0.00000000000000000000e+00) (0, 0, 0.00000000000000000000e+00) (0, 0, 0.00000000000000000000e+00) (0, 0, 0.00000000000000000000e+00) (0, 0, 0.00000000000000000000e+00) (0, 0, 0.00000000000000000000e+00) (0, 0, 0.00000000000000000000e+00) (0, 0, 0.00000000000000000000e+00) (0, 0, 0.00000000000000000000e+00) (0, 0, 0.00000000000000000000e+00) (0, 0, 0.00000000000000000000e+00) (0, 0, 0.00000000000000000000e+00) (0, 0, 0.00000000000000000000e+00) (0, 0, 0.00000000000000000000e+00) (0, 0, 0.00000000000000000000e+00) (0, 0, 0.00000000000000000000e+00) (0, 0, 0.00000000000000000000e+00) (0, 0, 0.00000000000000000000e+00) (0, 0, 0.00000000000000000000e+00) (0, 0, 0.00000000000000000000e+00) (0, 0, 0.00000000000000000000e+00) (0, 0, 0.00000000000000000000e+00) (0, 0, 0.00000000000000000000e+00) (0, 0, 0.00000000000000000000e+00) (0, 0, 0.00000000000000000000e+00) (0, 0, 0.00000000000000000000e+00) (0, 0, 0.00000000000000000000e+00) (0, 0, 0.00000000000000000000e+00) (0, 0, 0.00000000000000000000e+00) (0, 0, 0.00000000000000000000e+00) (0, 0, 0.00000000000000000000e+00) (0, 0, 0.00000000000000000000e+00) (0, 0, 0.00000000000000000000e+00) (0, 0, 0.00000000000000000000e+00) (0, 0, 0.00000000000000000000e+00) (0, 0, 0.00000000000000000000e+00) (0, 0, 0.00000000000000000000e+00) (0, 0, 0.00000000000000000000e+00) (0, 0, 0.00000000000000000000e+00) (0, 0, 0.00000000000000000000e+00) (0, 0, 0.00000000000000000000e+00) (0, 0, 0.00000000000000000000e+00) (0, 0, 0.00000000000000000000e+00) (0, 0, 0.00000000000000000000e+00) (0, 0, 0.00000000000000000000e+00) (0, 0, 0.00000000000000000000e+00) (0, 0, 0.00000000000000000000e+00) (0, 0, 0.00000000000000000000e+00) (0, 0, 0.00000000000000000000e+00) (0, 0, 0.00000000000000000000e+00) (0, 0, 0.00000000000000000000e+00) (0, 0, 0.00000000000000000000e+00) (0, 0, 0.00000000000000000000e+00) (0, 0, 0.00000000000000000000e+00) (0, 0, 0.00000000000000000000e+00) (0, 0, 0.00000000000000000000e+00) (0, 0, 0.00000000000000000000e+00) (0, 0, 0.00000000000000000000e+00) (0, 0, 0.00000000000000000000e+00) (0, 0, 0.00000000000000000000e+00) (0, 0, 0.00000000000000000000e+00) (0, 0, 0.00000000000000000000e+00) (0, 0, 0.00000000000000000000e+00) (0, 0, 0.00000000000000000000e+00) (0, 0, 0.00000000000000000000e+00) (0, 0, 0.00000000000000000000e+00) (0, 0, 0.00000000000000000000e+00) (0, 0, 0.00000000000000000000e+00) (0, 0, 0.00000000000000000000e+00) (0, 0, 0.00000000000000000000e+00) (0, 0, 0.00000000000000000000e+00) (0, 0, 0.00000000000000000000e+00) (0, 0, 0.00000000000000000000e+00) (0, 0, 0.00000000000000000000e+00) (0, 0, 0.00000000000000000000e+00) (0, 0, 0.00000000000000000000e+00) (0, 0, 0.00000000000000000000e+00) (0, 0, 0.00000000000000000000e+00) (0, 0, 0.00000000000000000000e+00) (0, 0, 0.00000000000000000000e+00) (0, 0, 0.00000000000000000000e+00) (0, 0, 0.00000000000000000000e+00) (0, 0, 0.00000000000000000000e+00) (0, 0, 0.00000000000000000000e+00) (0, 0, 0.00000000000000000000e+00) (0, 0, 0.00000000000000000000e+00) (0, 0, 0.00000000000000000000e+00) (0, 0, 0.00000000000000000000e+00) (0, 0, 0.00000000000000000000e+00) (0, 0, 0.00000000000000000000e+00) (0, 0, 0.00000000000000000000e+00) (0, 0, 0.00000000000000000000e+00) (0, 0, 0.00000000000000000000e+00) (0, 0, 0.00000000000000000000e+00) (0, 0, 0.00000000000000000000e+00) (0, 0, 0.00000000000000000000e+00) (0, 0, 0.00000000000000000000e+00) (0, 0, 0.00000000000000000000e+00) (0, 0, 0.00000000000000000000e+00) (0, 0, 0.00000000000000000000e+00) (0, 0, 0.00000000000000000000e+00) (0, 0, 0.00000000000000000000e+00) (0, 0, 0.00000000000000000000e+00) (0, 0, 0.00000000000000000000e+00) (0, 0, 0.00000000000000000000e+00) (0, 0, 0.00000000000000000000e+00) (0, 0, 0.00000000000000000000e+00) (0, 0, 0.00000000000000000000e+00) (0, 0, 0.00000000000000000000e+00) (0, 0, 0.00000000000000000000e+00) (0, 0, 0.00000000000000000000e+00) (0, 0, 0.00000000000000000000e+00) (0, 0, 0.00000000000000000000e+00) (0, 0, 0.00000000000000000000e+00) (0, 0, 0.00000000000000000000e+00) (0, 0, 0.00000000000000000000e+00) (0, 0, 0.00000000000000000000e+00) (0, 0, 0.00000000000000000000e+00) (0, 0, 0.00000000000000000000e+00) (0, 0, 0.00000000000000000000e+00) (0, 0, 0.00000000000000000000e+00) (0, 0, 0.00000000000000000000e+00) (0, 0, 0.00000000000000000000e+00) (0, 0, 0.00000000000000000000e+00) (0, 0, 0.00000000000000000000e+00) (0, 0, 0.00000000000000000000e+00) (0, 0, 0.00000000000000000000e+00) (0, 0, 0.00000000000000000000e+00) (0, 0, 0.00000000000000000000e+00) (0, 0, 0.00000000000000000000e+00) (0, 0, 0.00000000000000000000e+00) (0, 0, 0.00000000000000000000e+00) (0, 0, 0.00000000000000000000e+00) (0, 0, 0.00000000000000000000e+00) (0, 0, 0.00000000000000000000e+00) (0, 0, 0.00000000000000000000e+00) (632, 3, 5.00000000000000000000e-01) (632, 3, 5.00000000000000000000e-01) (632, 3, 5.00000000000000000000e-01) (632, 3, 5.00000000000000000000e-01) (632, 3, 5.00000000000000000000e-01) (632, 3, 5.00000000000000000000e-01) (632, 3, 5.00000000000000000000e-01) (632, 3, 5.00000000000000000000e-01) (632, 3, 5.00000000000000000000e-01) (632, 3, 5.00000000000000000000e-01) (632, 3, 5.00000000000000000000e-01) (632, 3, 5.00000000000000000000e-01) (632, 3, 5.00000000000000000000e-01) (632, 3, 5.00000000000000000000e-01) (632, 3, 5.00000000000000000000e-01) (632, 3, 5.00000000000000000000e-01) (632, 3, 5.00000000000000000000e-01) (632, 3, 5.00000000000000000000e-01) (632, 3, 5.00000000000000000000e-01) (632, 3, 5.00000000000000000000e-01) (632, 3, 5.00000000000000000000e-01) (632, 3, 5.00000000000000000000e-01) (632, 3, 5.00000000000000000000e-01) (632, 3, 5.00000000000000000000e-01) (632, 3, 5.00000000000000000000e-01) (632, 3, 5.00000000000000000000e-01) (632, 3, 5.00000000000000000000e-01) (632, 3, 5.00000000000000000000e-01) (632, 3, 5.00000000000000000000e-01) (632, 3, 5.00000000000000000000e-01) (632, 3, 5.00000000000000000000e-01) (632, 3, 5.00000000000000000000e-01) (632, 3, 5.00000000000000000000e-01) (632, 3, 5.00000000000000000000e-01) (632, 3, 5.00000000000000000000e-01) (632, 3, 5.00000000000000000000e-01) (632, 3, 5.00000000000000000000e-01) (632, 3, 5.00000000000000000000e-01) (632, 3, 5.00000000000000000000e-01) (632, 3, 5.00000000000000000000e-01) (632, 3, 5.00000000000000000000e-01) (632, 3, 5.00000000000000000000e-01) (632, 3, 5.00000000000000000000e-01) (632, 3, 5.00000000000000000000e-01) (632, 3, 5.00000000000000000000e-01) (632, 3, 5.00000000000000000000e-01) (632, 3, 5.00000000000000000000e-01) (632, 3, 5.00000000000000000000e-01) (632, 3, 5.00000000000000000000e-01) (632, 3, 5.00000000000000000000e-01) (632, 3, 5.00000000000000000000e-01) (632, 3, 5.00000000000000000000e-01) (632, 3, 5.00000000000000000000e-01) (632, 3, 5.00000000000000000000e-01) (632, 3, 5.00000000000000000000e-01) (632, 3, 5.00000000000000000000e-01) (632, 3, 5.00000000000000000000e-01) (632, 3, 5.00000000000000000000e-01) (632, 3, 5.00000000000000000000e-01) (632, 3, 5.00000000000000000000e-01) (632, 3, 5.00000000000000000000e-01) (632, 3, 5.00000000000000000000e-01) (632, 3, 5.00000000000000000000e-01) (632, 3, 5.00000000000000000000e-01) (632, 3, 5.00000000000000000000e-01) (632, 3, 5.00000000000000000000e-01) (632, 3, 5.00000000000000000000e-01) (632, 3, 5.00000000000000000000e-01) (632, 3, 5.00000000000000000000e-01) (632, 3, 5.00000000000000000000e-01) (632, 3, 5.00000000000000000000e-01) (632, 3, 5.00000000000000000000e-01) (632, 3, 5.00000000000000000000e-01) (632, 3, 5.00000000000000000000e-01) (632, 3, 5.00000000000000000000e-01) (632, 3, 5.00000000000000000000e-01) (632, 3, 5.00000000000000000000e-01) (632, 3, 5.00000000000000000000e-01) (632, 3, 5.00000000000000000000e-01) (632, 3, 5.00000000000000000000e-01) (632, 3, 5.00000000000000000000e-01) (632, 3, 5.00000000000000000000e-01) (632, 3, 5.00000000000000000000e-01) (632, 3, 5.00000000000000000000e-01) (632, 3, 5.00000000000000000000e-01) (632, 3, 5.00000000000000000000e-01) (632, 3, 5.00000000000000000000e-01) (632, 3, 5.00000000000000000000e-01) (632, 3, 5.00000000000000000000e-01) (632, 3, 5.00000000000000000000e-01) (632, 3, 5.00000000000000000000e-01) (632, 3, 5.00000000000000000000e-01) (632, 3, 5.00000000000000000000e-01) (632, 3, 5.00000000000000000000e-01) (632, 3, 5.00000000000000000000e-01) (632, 3, 5.00000000000000000000e-01) (632, 3, 5.00000000000000000000e-01) (632, 3, 5.00000000000000000000e-01) (632, 3, 5.00000000000000000000e-01) (632, 3, 5.00000000000000000000e-01) (632, 3, 5.00000000000000000000e-01) (632, 3, 5.00000000000000000000e-01) (632, 3, 5.00000000000000000000e-01) (632, 3, 5.00000000000000000000e-01) (632, 3, 5.00000000000000000000e-01) (632, 3, 5.00000000000000000000e-01) (632, 3, 5.00000000000000000000e-01) (632, 3, 5.00000000000000000000e-01) (632, 3, 5.00000000000000000000e-01) (632, 3, 5.00000000000000000000e-01) (632, 3, 5.00000000000000000000e-01) (632, 3, 5.00000000000000000000e-01) (632, 3, 5.00000000000000000000e-01) (632, 3, 5.00000000000000000000e-01) (632, 3, 5.00000000000000000000e-01) (632, 3, 5.00000000000000000000e-01) (632, 3, 5.00000000000000000000e-01) (632, 3, 5.00000000000000000000e-01) (632, 3, 5.00000000000000000000e-01) (632, 3, 5.00000000000000000000e-01) (0, 3, 0.00000000000000000000e+00) (121, 3, 5.00000000000000000000e-01) (121, 3, 5.00000000000000000000e-01) (121, 3, 5.00000000000000000000e-01) (0, 3, 0.00000000000000000000e+00) 
connections (connected_to_neuron, weight)=(0, 7.12341944690071532387e-02) (1, 1.72094109607054610023e-02) (2, 1.09013611975542448751e-01) (3, 7.47407915202868977644e-02) (4, -2.73218746464830054832e-02) (5, -1.96613769232516430452e-02) (6, -6.75613769971156602479e-02) (7, -1.61129900560922864096e-03) (8, -9.30984403876073118855e-02) (9, -7.86743030395664344478e-02) (10, -8.25488091981349397797e-02) (11, -6.49136034978517600935e-02) (12, 3.12127182459666675796e-02) (13, 2.33110579193713078616e-02) (14, -3.47708832023883515627e-02) (15, 3.23759824042924027054e-02) (16, -6.29100894898831503044e-02) (17, 2.47088636899493252833e-03) (18, -7.07450396201488307391e-02) (19, -7.65371045996385557242e-02) (20, -3.63239146250507599634e-02) (21, -1.29369921078100275080e-01) (22, -9.52063810251602138379e-02) (23, -5.53489997903998248718e-02) (24, 6.74151788653796907314e-02) (25, -6.66070884260844681135e-02) (26, -1.19896904194657302756e-01) (27, -2.14311918846389615201e-02) (28, -1.02334931971746270762e-01) (29, -1.04883297239998285466e-01) (30, -7.56405123204060680225e-03) (31, -1.82545481927658798625e-03) (32, 2.73719728730791901639e-02) (33, 6.99530617366659612788e-02) (34, 2.22536794276505592305e-02) (35, -4.37160893344943068950e-02) (36, 9.67374804520347297832e-02) (37, 1.10657036498029270888e-01) (38, 2.37977506717498149547e-02) (39, -8.32298919913591339625e-02) (40, -7.76983309864444360304e-02) (41, -1.05463984674296198940e-01) (42, -4.02057906289474686901e-02) (43, 2.68070716969723218948e-02) (44, 7.32359246698564489431e-03) (45, 8.22250956343361788514e-02) (46, -6.12818086179511556377e-02) (47, -5.86318233277941872061e-02) (48, -3.47952505642032255961e-02) (49, 7.78753411316651933394e-02) (50, -2.89291672600667168491e-02) (51, 5.30950730623338321146e-02) (52, 1.00149646807955100547e-01) (53, 6.53682845452429606148e-02) (54, -7.61852789833873250691e-02) (55, 2.95965155083542617864e-02) (56, 8.59370425487347849858e-02) (57, -4.71201628993874049867e-02) (58, -8.33951956820837281281e-02) (59, 5.96234287326619094571e-02) (60, -2.70535337885426212245e-02) (61, 6.31666787525863721031e-02) (62, 4.87118589846574495672e-02) (63, -3.10504860950842932754e-02) (64, -6.31621093832842178672e-02) (65, 1.08187119473653892143e-02) (66, 2.53619634490570230751e-04) (67, 2.57705305663982996156e-02) (68, -2.60607402720780794575e-03) (69, 9.09569427478848849256e-03) (70, 4.24003815215001633732e-02) (71, 2.67372031670675830428e-02) (72, 3.09618321645612828985e-02) (73, -4.69661093988850680131e-03) (74, -3.19568517866993528909e-02) (75, -1.30335325522244416252e-01) (76, -8.28704003619903407929e-03) (77, -1.78597256448541630292e-02) (78, -5.64537140760251535121e-02) (79, 9.26011665553653773308e-02) (80, -7.21644140248077631261e-02) (81, -9.10714311929851534633e-03) (82, -1.02350996456205649288e-02) (83, -1.40184878159430287292e-01) (84, -4.00247611176164294622e-02) (85, 4.17267389319182085972e-02) (86, 6.99605675853444686219e-02) (87, -2.37725118316970164545e-02) (88, 5.87471563068397290008e-03) (89, 7.56247537307550704577e-02) (90, -4.53825128550085568624e-02) (91, -6.64853522439282917933e-02) (92, 3.98758268502048124349e-02) (93, 4.46923574192820416418e-02) (94, 1.74639422351148716761e-02) (95, -1.18803226611948226088e-01) (96, -3.58049964847525978295e-02) (97, -6.20322570240139578579e-02) (98, 6.22532860079569316802e-02) (99, 5.99612704928906142809e-02) (100, 8.16029032582982725985e-03) (101, -6.98777943648593372061e-03) (102, -8.65559051200124190961e-02) (103, 2.20115169414178517282e-02) (104, -5.45461623449470869862e-02) (105, -1.01862621141312864603e-01) (106, -8.81600070324310147729e-02) (107, -2.73476863371757694665e-02) (108, 3.11659047920917649244e-02) (109, -8.30034943677941845774e-03) (110, 4.05239957892307503529e-02) (111, 3.18551802407419579199e-02) (112, 7.85166202009424524233e-02) (113, -1.65811830377856767038e-01) (114, 3.30288988456262436189e-02) (115, -1.34822691805754402150e-01) (116, 5.00773179768179976801e-02) (117, -2.59885016764437384862e-02) (118, -4.62449316039566377112e-02) (119, -3.75095990778200952254e-02) (120, 1.06448405714232117308e-02) (121, 1.18450553242495787432e-02) (122, 3.69945232446718397235e-02) (123, -5.27414942142476125819e-02) (124, -7.21034304578630907967e-02) (125, -9.60880619476067315832e-02) (126, -2.20349932693947141160e-02) (127, 5.49897290105511894753e-03) (128, -1.21452282466800121075e-01) (129, -1.08909185588099116648e-01) (130, -7.00990393650874205056e-02) (131, 4.15251353633038430835e-02) (132, 3.80994940308708321744e-03) (133, -9.74500078854003554119e-02) (134, 2.13219401068719636994e-02) (135, -6.76795644921024119878e-02) (136, 9.16069713598871224192e-03) (137, 4.52008524165626365127e-03) (138, 7.05870776430466556617e-02) (139, -7.68560912572057858272e-02) (140, 1.51484666100561490149e-02) (141, -5.36550606093000662100e-02) (142, -6.40786820305506849005e-02) (143, 4.96284300947053905184e-02) (144, 8.98638773587394877607e-03) (145, 9.35659015606708499568e-02) (146, 3.29615829941526244928e-02) (147, -7.75454078418004316697e-02) (148, -1.07596209808682313769e-01) (149, 5.48933239011282214648e-02) (150, -1.50532455997105848317e-02) (151, 5.53502421047257081588e-02) (152, 3.37337793503366886738e-02) (153, -2.06449780294973628259e-01) (154, -1.00785821827031038533e-01) (155, -4.32143900945934286706e-02) (156, -1.04546012579912500629e-01) (157, 4.78524072440478370760e-02) (158, -1.01591880354256425267e-01) (159, -6.26833767402429214988e-02) (160, -1.87860925061936814839e-02) (161, 4.52277610528453583028e-02) (162, 9.53011313926508396577e-02) (163, 9.69517033130718602907e-02) (164, -2.77094251325947817099e-02) (165, -1.84362202508371554252e-03) (166, -1.07726696662884813271e-02) (167, -9.36591497832891389796e-02) (168, -2.12827841577816791185e-02) (169, -1.24457084986000915405e-01) (170, 6.19065345184742002460e-02) (171, 4.01929983472001858824e-02) (172, 2.99646538444293224213e-02) (173, -1.22646305998068513854e-01) (174, -5.36994323867888562196e-02) (175, 1.24833228336643745071e-01) (176, -3.41735026936028640776e-02) (177, 5.89416077842660410258e-02) (178, -1.53039516321706620117e-01) (179, 3.92896064208661729977e-02) (180, 7.95239518534863049082e-02) (181, 2.39108445570755563658e-02) (182, 6.27165662411116875408e-02) (183, -1.14032554488314841201e-01) (184, 4.88557856382716704235e-02) (185, 5.83841797884279214981e-02) (186, 2.94885085787974995930e-02) (187, 4.42351940471103419195e-02) (188, -7.79462679871011782096e-03) (189, 1.42122234419695209207e-01) (190, -7.56425832918413698636e-02) (191, -9.92527697231114641729e-02) (192, 1.08355350524505913978e-01) (193, -1.83555831166297561685e-01) (194, 5.57122901113816723639e-02) (195, -6.36975849468391780439e-02) (196, -4.95290384365584882009e-02) (197, 6.88339742626023487482e-02) (198, -1.75140533572507195448e-01) (199, -1.39360367641007232287e-01) (200, 7.16594377124266795898e-02) (201, -2.30531526684229560228e-04) (202, 6.63709455994218339853e-03) (203, -9.64685449717693904725e-02) (204, -1.18866194149153794890e-01) (205, -7.09164869906116473314e-03) (206, -3.97055271451165966989e-02) (207, -9.34245463712794245448e-03) (208, -1.65530722155484257344e-03) (209, -1.50600198857134166819e-02) (210, -1.31099116029014511192e-02) (211, -3.26630637848597527029e-02) (212, 1.36565927292269795323e-01) (213, -1.21633078911310546499e-01) (214, -3.46638826358103323624e-03) (215, 7.72452327657956704099e-03) (216, -6.89614796385804584844e-02) (217, -6.61383389802552984493e-02) (218, -4.53059658345266944024e-02) (219, -2.87084619318075176531e-02) (220, -1.06144690242235217870e-01) (221, 4.12470536849616001285e-02) (222, -5.89360228520658599449e-02) (223, -4.48094224740365129622e-02) (224, 1.05554357986140420755e-01) (225, -5.51339007656332161234e-02) (226, -1.52137493110653977679e-02) (227, 7.97872238853372488243e-03) (228, -2.63016975392738536210e-02) (229, 8.27864601356979729063e-02) (230, -5.49181918105683050668e-02) (231, -7.52345341177283882805e-02) (232, -4.70205080814032616576e-02) (233, -1.49179288303429046815e-03) (234, 2.31204570378305968026e-02) (235, -1.32824781280416713558e-02) (236, 2.45250272854180828563e-02) (237, -9.33889559880116126855e-02) (238, -1.04992149756378952419e-01) (239, -7.95979126534362008139e-02) (240, -4.74727959643982955207e-02) (241, 2.70177665426361186818e-02) (242, 2.02819496418453378006e-02) (243, -6.01307917613636278009e-02) (244, 6.47236351032133699901e-02) (245, 1.05996998874980318493e-03) (246, -1.44693196189369016613e-01) (247, 1.33758813394329295621e-01) (248, -1.37668141741924598964e-01) (249, -5.21967129676491128909e-02) (250, -2.89991843370034745042e-02) (251, -9.60333603625275200599e-02) (252, -2.87962732010260367976e-02) (253, -3.43071722907969112182e-02) (254, 5.56898243386211855288e-02) (255, -1.12129322821613822136e-01) (256, -3.10247177423016787245e-02) (257, 5.06589996040893719709e-02) (258, -1.11532133375439948542e-01) (259, 8.88486918475388659511e-02) (260, -4.73914414773900713462e-02) (261, -2.94963139377411621977e-02) (262, -1.00798413542453266234e-01) (263, -8.62938555643707888576e-02) (264, 5.27795682592400571681e-03) (265, -1.69178726731410199527e-03) (266, 5.50279353499304874076e-02) (267, -9.67586179135855872779e-02) (268, -1.62783313074894547823e-01) (269, -1.13071621773945224509e-01) (270, -9.03451145632377071448e-03) (271, 1.44648005334176220187e-03) (272, -2.98308919069414273453e-03) (273, 4.78425543438665834550e-02) (274, -6.73442090646022423206e-02) (275, 3.87022695299877386721e-02) (276, 1.00470487151031726003e-01) (277, -2.10528016733709730235e-02) (278, 1.02621573954377615784e-02) (279, -5.94400397951011169595e-02) (280, -4.45755364409060814146e-02) (281, 1.16625796622320337947e-01) (282, -1.14358647572354588107e-01) (283, -5.05115428923305284648e-02) (284, 7.22235129702319816891e-02) (285, -1.12683012968739046378e-01) (286, 5.18454740542732411823e-02) (287, -1.96505109446107523175e-01) (288, 1.01963219729282336679e-01) (289, -1.13812868811283440795e-01) (290, -4.75287534646242487701e-02) (291, -2.58679790449798275177e-04) (292, -5.75922587701049731868e-02) (293, -1.82554784393155727917e-01) (294, 3.82149955021960779922e-02) (295, -7.71206300329433380725e-02) (296, -9.05565948836709044834e-02) (297, 1.40885613224186079240e-01) (298, -2.57638171051545253332e-02) (299, -8.86962396020879589864e-02) (300, -2.03870818092666099275e-02) (301, 5.90538856609868767489e-02) (302, -7.19543009309538406093e-02) (303, -3.99875061002672310684e-02) (304, 1.33565166771972931685e-03) (305, -8.50036170526446005491e-02) (306, -1.43790621949228175636e-01) (307, -1.11473684660779698286e-01) (308, -1.57167907853085792036e-01) (309, -5.59524628493195466672e-02) (310, 4.42007340637922110298e-05) (311, 2.92728893690735432823e-03) (312, -5.19278892130643245084e-03) (313, -2.44243359685765784595e-02) (314, 9.92329361757718353410e-03) (315, -9.28578023193182972017e-02) (316, 4.45302918978257716853e-02) (317, -7.03571656024436740962e-03) (318, 1.34079358511847903518e-02) (319, 4.80888410466337526405e-02) (320, -2.05726040092706966012e-02) (321, 1.32382632275981088760e-02) (322, 6.41218647687205600683e-02) (323, 4.29004480216872360887e-02) (324, 1.18402830776612053021e-01) (325, -1.75224991315135400494e-02) (326, -1.30059192849792587543e-01) (327, -1.30718965298690925625e-01) (328, -2.76781702572922137795e-02) (329, -2.85429924069820276089e-02) (330, -1.09185004366250705543e-02) (331, -8.29199678327586231497e-02) (332, -1.59215390791153481309e-02) (333, -7.57007110584129172537e-02) (334, 1.42278252546306410720e-01) (335, 8.02349058958050642687e-02) (336, 9.04739342872511176363e-02) (337, 6.87052757365625571540e-02) (338, 4.30459827159314634137e-02) (339, -3.65651944532929609744e-02) (340, -1.00975425394941906165e-01) (341, -8.92644601618501343232e-02) (342, 5.09487739488540328225e-02) (343, -5.41049472869690878385e-02) (344, 1.38394575359853222452e-01) (345, -2.85902580026866949547e-02) (346, -2.80401908141584173262e-02) (347, 9.10031167361084747380e-02) (348, 2.56748425864063885282e-02) (349, -9.06110094454141146159e-02) (350, 3.40670810109156285694e-02) (351, -8.47664337896146535822e-02) (352, 4.08015819206039402622e-03) (353, -1.13053470905765660048e-01) (354, -4.48852272384733450017e-02) (355, 4.64468728068316780155e-02) (356, 1.14842434850517663425e-01) (357, -8.60611991034459372640e-02) (358, 5.54343511834532939875e-02) (359, 3.04729999089062252027e-02) (360, 2.24104436170148840074e-03) (361, -2.82265247408823548303e-02) (362, -8.57818927885406756761e-02) (363, -1.50021414493773291854e-01) (364, -6.75586984334129447838e-02) (365, -1.31469915821969096648e-01) (366, -7.11235537488038027654e-02) (367, 1.52433329993293203986e-01) (368, 2.19732973105188147955e-02) (369, 8.21440707721016460940e-02) (370, 7.90697223806292592840e-02) (371, 8.44687176729139004017e-03) (372, 5.20226057053442131339e-02) (373, -3.23194918459311295034e-02) (374, -8.59743410685906844781e-02) (375, 7.45643624685930900275e-02) (376, -2.62919758646640751298e-02) (377, -7.90767613042970413106e-03) (378, 2.90800189097391616200e-02) (379, 8.88016709077157628816e-02) (380, 2.56310650173253266881e-02) (381, 3.97905874120727739984e-02) (382, -1.12181330944773213765e-01) (383, -9.31446088395227744794e-02) (384, -1.20543757408639817807e-01) (385, -1.03404300882720012744e-01) (386, 9.40236169193205129080e-02) (387, 1.52708255969313727585e-01) (388, -7.99100160457161950989e-02) (389, -1.92397922921392597502e-03) (390, -2.24632390576874896304e-02) (391, 6.35884445814658000318e-02) (392, -1.90699064356529765507e-02) (393, -1.59013756092139774134e-01) (394, -4.67138421162293683564e-03) (395, -2.67984531209548779151e-02) (396, 8.61452774861044406896e-02) (397, 6.58871195361648287481e-02) (398, -5.66677790269758674402e-02) (399, -1.18129505044838375299e-02) (400, 5.13811779160527129506e-02) (401, -4.76050707839947434552e-02) (402, -1.99898955029018596252e-02) (403, -8.12079479260194164736e-02) (404, 5.41345500485274633284e-02) (405, 3.64874851400201899443e-02) (406, -1.72538043622287931567e-02) (407, -9.37381760548435943869e-02) (408, -5.28599786160586504469e-02) (409, -1.29986876221168418111e-01) (410, -1.44561245752989203650e-01) (411, -7.34365679969082169043e-02) (412, 6.75607159964167341970e-02) (413, -1.28366267267837119714e-01) (414, -2.91195490351708677346e-02) (415, -2.30699722830005997387e-02) (416, -3.72811913800910749162e-02) (417, 5.01232086981800648018e-03) (418, -4.40257245689984911402e-03) (419, 1.45112413077083039596e-03) (420, 8.85146843375907987905e-02) (421, -1.11668545513298411720e-01) (422, -8.82333889086699650617e-03) (423, -7.97677896835574801182e-02) (424, -1.20918656558927514744e-01) (425, 7.24617101295036564190e-03) (426, -1.49694458826396589041e-02) (427, 7.59292789980346022327e-02) (428, -8.15505978898279915157e-02) (429, -5.57874477113323510857e-02) (430, 2.31644726295217977252e-02) (431, 4.09968928589171319188e-02) (432, 1.22863629239306285101e-01) (433, -8.29079596256584588909e-02) (434, -2.44650919821515523689e-02) (435, -2.81599626163740908436e-03) (436, -5.16571920873088591408e-02) (437, 1.79139442626128110592e-02) (438, 4.07594503937837929208e-02) (439, 1.97362776465422259942e-02) (440, 3.00847343597150478078e-02) (441, 4.32577166081630840044e-02) (442, 7.71169971017971744853e-02) (443, -5.95013113095450019152e-02) (444, 1.76249868613179323795e-02) (445, -5.30639660030106513622e-02) (446, 9.43110887577515433211e-02) (447, 3.95902501602959314836e-03) (448, -6.70272235463416077295e-02) (449, -5.17268296556539376035e-03) (450, 1.64496863825291960749e-03) (451, -1.97093920547211504113e-02) (452, 8.67070033963419362077e-02) (453, -4.97100300686781140791e-02) (454, 1.38111030147210697705e-02) (455, 9.09919067124996955309e-02) (456, -8.82442272359729856790e-02) (457, 5.24651977265948518681e-02) (458, 2.17073778715005868967e-02) (459, -3.31997819850080519433e-02) (460, -1.83001092205587571893e-02) (461, -4.97989509124215218305e-02) (462, -4.07491514114638048172e-02) (463, 4.60507059531467324853e-02) (464, 4.61850967889027227975e-02) (465, -3.48480735698444357706e-02) (466, -8.05089908806821963339e-02) (467, -1.02930583182329615788e-01) (468, 1.06630542616555565316e-01) (469, 6.44298713632106417881e-02) (470, 7.23810880608623252730e-02) (471, 2.34834498056156991408e-02) (472, 1.09162910347991738008e-02) (473, -5.72694110356813772256e-03) (474, 2.53207230046226562659e-02) (475, 9.24731139045073674554e-02) (476, 1.04873018601648868020e-01) (477, 7.24785426750466227341e-02) (478, 2.94696943757938763231e-02) (479, -9.95016392836638452479e-02) (480, 2.88123604332617723467e-02) (481, 5.24419916480741987730e-02) (482, 4.01512190365073892706e-02) (483, -1.25641325329358316543e-01) (484, -6.03542829012487652696e-02) (485, -1.26410778885591129628e-01) (486, 1.18103434448973657056e-01) (487, 3.71267040515323035535e-03) (488, 3.92475083020979442772e-02) (489, -8.30099253742487830365e-02) (490, 5.45468950783300418617e-02) (491, -9.17697305427754017604e-02) (492, 8.60991104904039322721e-02) (493, -1.19765294253787749068e-01) (494, -1.03508356751175464860e-01) (495, 1.89950481386516531468e-02) (496, -4.80658633994841544279e-02) (497, -7.13495766729594360633e-02) (498, 3.48516770506497111648e-02) (499, -6.21601569223168698430e-02) (500, -1.22507797507742322018e-01) (501, -2.79148670686707976729e-02) (502, -1.57863287682021902203e-01) (503, -1.11124359736381711494e-01) (504, -1.82808358938938625426e-01) (505, -2.25390167875126085084e-01) (506, -1.23085452946504803062e-01) (507, -1.55863306798562195610e-01) (508, -5.11207556810382591356e-03) (509, -1.33429140881243302186e-01) (510, -7.71600653629188198979e-02) (511, -6.97189700319084532110e-02) (512, -1.13611216988413199491e-01) (513, 3.21268508688512671734e-02) (514, -4.19606513001042277788e-02) (515, -5.02930471889656352524e-02) (516, -1.12067672367589327154e-01) (517, 1.85259804295842371580e-02) (518, -7.57581675313526853310e-02) (519, 9.72943509090764269143e-02) (520, -5.91083423242859673508e-02) (521, 1.18921751195558228487e-01) (522, -8.04896992551716455866e-02) (523, -4.10592757635992473136e-03) (524, 7.62658473337105569101e-02) (525, -1.30711489722352275367e-01) (526, -3.69259151103562971441e-02) (527, -9.01054533271127000571e-02) (528, -6.28106608461397597498e-02) (529, 1.04779894070635426484e-01) (530, -2.71576325617720847061e-02) (531, -4.01761445985101342537e-02) (532, 2.01442543950129289432e-02) (533, 8.45798536625620711593e-02) (534, -9.42505811295141215922e-02) (535, 2.46243250745325908957e-02) (536, 1.73089776270766541877e-02) (537, 6.66286693019366160762e-03) (538, 6.39312745374272933807e-02) (539, 7.35139683836226603963e-02) (540, 1.47412405133123147749e-01) (541, 4.00933826061673145857e-02) (542, 5.15332642496611152000e-03) (543, -8.51009514155013149783e-03) (544, 1.55234723474295659845e-02) (545, 9.00249549587618658197e-02) (546, 1.05996869841531685119e-01) (547, -2.02162121671154298985e-02) (548, 7.90276636523985450723e-04) (549, 1.07911255005026407439e-01) (550, -1.64829671807731788225e-02) (551, 2.78689943552577965025e-02) (552, 1.22453077707814217412e-01) (553, 3.17213014981086588451e-02) (554, -1.95904569763884726930e-02) (555, 1.02707151655613698749e-01) (556, 5.75251565623092417368e-02) (557, 1.25956270885921040037e-01) (558, 1.51836102474971618159e-01) (559, 4.65039379294712208746e-03) (560, 3.93255393748535089782e-02) (561, 6.82391986190801491663e-02) (562, 6.52102087521968659667e-02) (563, 6.09334869729790534754e-02) (564, 5.71967969096868408818e-02) (565, 1.47392760173724268746e-01) (566, 9.59099391684867796926e-02) (567, -2.65946149137268189611e-02) (568, 1.03722712514757842150e-01) (569, 6.64460058806871645132e-02) (570, -8.38785100414910639310e-02) (571, 1.25049921652183482212e-01) (572, -8.19316057507535472348e-02) (573, -5.02630970206470323314e-02) (574, 1.34248465956589124737e-01) (575, -7.58424357330998808596e-03) (576, -8.49428231422778845516e-02) (577, 6.15046527488542840723e-02) (578, 4.58217395397463589379e-02) (579, -4.21641235351464596648e-02) (580, -1.28637675782090916271e-02) (581, 1.19997694033540977521e-01) (582, 1.71549787303900413971e-02) (583, -5.51367825777260428533e-02) (584, -5.50418025371811892033e-02) (585, 4.74477413427822347636e-02) (586, 1.45059371875438769539e-01) (587, -1.80200288439954017794e-02) (588, 3.44663502322838447012e-02) (589, 2.98742374360510765108e-01) (590, -3.10290372429906161078e-02) (591, -1.55167292940180084893e-01) (592, 4.71106208712109064685e-01) (593, -2.31751983773497455266e-01) (594, -4.02965034463598006931e-02) (595, 8.49417713520666528559e-01) (596, -5.41723813311490998146e-01) (597, -1.80212552964046590631e-01) (598, 4.42892956789573466470e-01) (599, -3.39289180112300026160e-01) (600, -1.57971199418256547098e-01) (601, 2.51227367112064281507e-01) (602, -6.42075270270815456897e-02) (603, -6.10351871093804398960e-02) (604, -6.30502545935522906717e-02) (605, -7.16950802001874581970e-02) (606, 2.00087710350542263837e-01) (607, -2.46925037668504522570e-02) (608, -9.35090574444381594788e-02) (609, 6.40983519381475158605e-02) (610, 8.13442379667687620604e-02) (611, -3.78801605498152241247e-02) (612, 2.77626974592243072615e-02) (613, 5.66444466876661958943e-03) (614, 8.68894414492848120302e-03) (615, 4.34533448408201267155e-02) (616, -5.15958933559286583859e-02) (617, 2.99611512447573065387e-02) (618, -5.88904128342316243727e-02) (619, 1.17433153367282640256e-02) (620, -1.15061344531071033798e-02) (621, 1.17130229317994563609e-01) (622, 4.62063374211044222695e-02) (623, 8.80203884511905065846e-02) (624, 3.30655491283922669393e-03) (625, 3.59370554690794253433e-03) (626, -7.20950451625543831113e-02) (627, 8.77240294156202415898e-02) (628, 3.89110986938592849985e-03) (629, 3.61702401758284691757e-02) (630, 8.56866090044705597251e-02) (631, -1.21274058492426464739e-01) (0, 5.91440591217821942660e-02) (1, 6.06245313335820185108e-02) (2, -6.54363502252615497623e-02) (3, 9.00161488833803591358e-02) (4, 1.05329984331850659562e-02) (5, 8.76704540573267632197e-02) (6, -5.91809881368500073640e-02) (7, 1.25544171019795237909e-02) (8, -3.67597819069820225257e-02) (9, -7.91063161403889741896e-02) (10, -5.22553896675540530126e-02) (11, 2.24328359216537411014e-02) (12, 1.66215902841680973623e-02) (13, -9.47916119017110508915e-02) (14, -6.23063789579873586466e-02) (15, 2.23712932826511303602e-03) (16, 4.34555785109408312245e-03) (17, -2.51506522326066343787e-02) (18, -4.14070641179176898716e-02) (19, 6.33560550185422316494e-02) (20, -6.08822550827918876348e-02) (21, -1.62428515835467024431e-01) (22, 8.13622620365327675618e-02) (23, 7.93935233048991828575e-02) (24, 3.48915809684152630754e-02) (25, 5.55618280174437415009e-02) (26, 2.08774722154441115529e-02) (27, -6.93704077952745218338e-02) (28, 5.31080527171173891188e-02) (29, -1.15471299124595572910e-02) (30, 4.69631310560532505560e-02) (31, -3.31247441642489176550e-02) (32, -3.88992481233355058556e-02) (33, 1.09579906779137190020e-01) (34, -5.93641255595118225163e-02) (35, 6.54055646669929047210e-02) (36, 3.17748450298548298920e-02) (37, 6.05418589803138063044e-02) (38, -5.77574269809248835861e-02) (39, -9.82383494489838665631e-02) (40, 1.07620288315203982421e-01) (41, 1.28640406043609000636e-02) (42, 8.22636720728285308901e-02) (43, -3.51713470496114108399e-02) (44, 4.88209176027125518749e-02) (45, -9.34573557576115626633e-02) (46, -1.20636443536443788149e-01) (47, 1.22347830343347274955e-04) (48, -1.90312337952144826347e-02) (49, 2.70529053250190406818e-03) (50, -4.90212503699382698419e-02) (51, 2.28510857953996109060e-02) (52, -1.58972982540141784258e-02) (53, -3.93821859812779756504e-02) (54, -2.17559143011393715805e-02) (55, -8.21386311750415543109e-02) (56, -1.03705353425566734749e-01) (57, -9.07729152847679687799e-02) (58, -5.70762114216738711270e-02) (59, 6.02950508572018817333e-02) (60, 6.59235726868909466258e-02) (61, -8.73668186868329921246e-02) (62, -3.82912005788653905802e-02) (63, -1.05529945243125616861e-01) (64, -9.94433012128388832407e-02) (65, 5.31282350283494367305e-02) (66, 8.69508491531717775391e-02) (67, 1.26192202719757007312e-01) (68, 4.62488688650121160251e-02) (69, 1.40234749175471504201e-02) (70, -5.37659392004606884186e-02) (71, 3.86560060123676552113e-02) (72, -6.30578443916844921802e-02) (73, 6.08234933164284730100e-02) (74, -8.28970331185131525942e-02) (75, -7.79879024774698392797e-02) (76, 9.13889977854145246772e-02) (77, -1.02686821906320266407e-01) (78, -2.58637092210484004218e-02) (79, -2.95396007440511983166e-02) (80, -2.58942649407149332041e-02) (81, 1.15160111062717743224e-01) (82, -1.09453114871945297870e-01) (83, 3.72327363178011905287e-02) (84, -6.99688090086939690204e-02) (85, 1.22666452480024376626e-02) (86, -1.01619657641832839001e-01) (87, -1.47567223433554897682e-02) (88, 1.92316181518974171905e-02) (89, 1.23512971212916058961e-02) (90, -6.58472641679241216250e-02) (91, -1.87720025658553273107e-02) (92, -3.34026180842151090844e-02) (93, -2.34995046871664947652e-02) (94, -2.26411854533861787303e-03) (95, -2.38228971401645457651e-02) (96, -2.81268265770457694119e-02) (97, -3.37116531056991892631e-03) (98, -5.10916971076226383852e-02) (99, 7.92042336323226653372e-02) (100, -7.49371495499035200627e-02) (101, 7.97621262395131237766e-03) (102, -1.84643326949980313145e-02) (103, -1.16356189492257830476e-01) (104, -6.90104111658941116181e-02) (105, -3.94578396686437529728e-02) (106, -5.47425822388353522374e-02) (107, -4.06870908634156674966e-02) (108, 3.36558270877295589996e-02) (109, 6.42013931105619439776e-02) (110, 1.92886497504022175198e-02) (111, -8.82389460578341805475e-02) (112, 9.01379745622426543916e-03) (113, -3.03027935580656576642e-02) (114, 5.82149064916532635316e-02) (115, 2.35170727130886610123e-02) (116, -3.20271292035298610346e-02) (117, 3.71088413292403815347e-02) (118, 6.96065282281975034051e-02) (119, 5.52533517519943270790e-02) (120, -4.59286329818120869772e-02) (121, 1.30714434967426657019e-01) (122, -7.04420790514340977584e-02) (123, -6.61749778082121320466e-02) (124, -2.04377413938898189194e-02) (125, 6.60714289282515743196e-02) (126, 3.23567721286984189000e-02) (127, 6.85602528092802837589e-02) (128, -1.28364945452773531603e-02) (129, -6.24788135085346252318e-02) (130, 6.45018938691003934638e-02) (131, -1.21780197999558220667e-03) (132, -3.31660840369355711110e-02) (133, -9.56395571146124168216e-02) (134, 3.33981172899415271194e-02) (135, 4.42646282347952391145e-02) (136, 9.26124803600793661262e-02) (137, -9.22145312675669848179e-02) (138, 7.43660994512238132659e-02) (139, -1.59039860363458067372e-02) (140, 9.04619538395732142311e-02) (141, -1.49609915540413074969e-02) (142, -2.94145166446793410869e-04) (143, -4.82155468063687128732e-02) (144, -9.29050949880178278395e-02) (145, -2.13875405533959853099e-02) (146, 6.39425321318702472029e-02) (147, -1.43984584893308148468e-02) (148, -6.27429726221738343073e-02) (149, 6.76160508683504718475e-02) (150, -4.72575172936855955608e-02) (151, -5.58689620746261605966e-02) (152, 7.35522979189075498674e-02) (153, -2.57151878022930449608e-02) (154, 2.85602277202193777228e-02) (155, -4.88387488069324943174e-02) (156, 4.88268096718235677933e-02) (157, 6.02822480916112846128e-02) (158, -9.19454311090679154983e-02) (159, -7.35579000227842977333e-02) (160, 3.34537326352266281559e-02) (161, -9.48248312628188899653e-02) (162, 1.02146434946801187293e-02) (163, -9.47373776667645717264e-02) (164, -1.17257926537056196559e-02) (165, 1.13253284465971598184e-03) (166, 8.95016059098792532422e-02) (167, -9.19857336572556553642e-04) (168, -5.53788707972892382814e-02) (169, 3.72059161191261381085e-02) (170, -5.68618782735170885667e-02) (171, -3.97580294273310805298e-02) (172, -6.98682169445630635307e-02) (173, -4.77103750083204686261e-02) (174, 6.19878287646294795499e-02) (175, -5.06615547164196364238e-02) (176, 7.06639203927312276043e-02) (177, 6.10543928373875107590e-03) (178, 3.37931833194951916632e-02) (179, -3.11914479155935286947e-02) (180, 2.07801611523621941602e-02) (181, 1.19712452693856330477e-01) (182, -2.27840528570841249767e-03) (183, -1.23671594929500389126e-01) (184, 4.12030726109397782420e-02) (185, -2.44406464832810227383e-02) (186, -1.65423550161923581248e-02) (187, -4.77877937658072616395e-03) (188, -8.51090836406239309442e-02) (189, 8.60724702300535021715e-02) (190, 3.36903529235841395217e-02) (191, 8.62851935623101251593e-02) (192, 9.30668181071976768903e-02) (193, -6.98265043461177431494e-02) (194, 6.28534987571659903294e-02) (195, -4.53226931916372033360e-02) (196, 3.51557848520074600618e-02) (197, 4.95387374409166497680e-02) (198, 3.09485448689065939520e-02) (199, -6.11848804803180948420e-02) (200, 1.23830593691615937352e-02) (201, 7.43874861898448508368e-02) (202, -6.52826743998878057662e-03) (203, -1.08938225213565647448e-02) (204, -5.17954821533179038395e-02) (205, -7.06459106416994914168e-02) (206, 1.13744889884872718566e-01) (207, -5.95195105885938796630e-02) (208, 5.13234041040663557798e-02) (209, -9.83528799733629499613e-03) (210, 7.23389181022990601644e-02) (211, -2.39286641019378285011e-02) (212, 4.06729856939845868524e-02) (213, -1.06517496690392801661e-01) (214, 1.17693651010406970248e-02) (215, -3.14296805284345268094e-02) (216, 5.20444012963620361578e-02) (217, -8.53464316834715297500e-02) (218, 3.91750247206435822656e-02) (219, 6.66538955364249646740e-02) (220, 5.93366745029537331901e-02) (221, -4.27273579927742591655e-02) (222, 1.10862732396860147466e-02) (223, -1.95875142751942669939e-02) (224, 2.45852862503608410316e-02) (225, 2.95967964303183034280e-02) (226, 1.33481378921853827135e-01) (227, -6.61157812298138747309e-02) (228, -7.46903443543202663624e-03) (229, 7.22169715393763816946e-02) (230, 2.16798713519953563378e-02) (231, 8.17935506214710755790e-02) (232, 2.75218781638555190505e-02) (233, -8.93481125593254682515e-02) (234, -4.31123357104823065611e-02) (235, 5.66980818447514606229e-02) (236, -6.58952578177843112384e-02) (237, -2.50553285852345049289e-02) (238, -7.99821274834322387681e-02) (239, -8.36297613529782130071e-02) (240, 8.58682538913206894193e-02) (241, 6.40164525325437605563e-02) (242, 2.90616415926846574647e-02) (243, -2.71372887086283390290e-02) (244, -8.34392285646945452982e-02) (245, -1.10953549183584798676e-01) (246, 8.83246098290403902631e-02) (247, 7.85190050011511098127e-02) (248, -6.28193433956336366730e-02) (249, -6.48118154418394903926e-02) (250, 5.33696903118796861509e-02) (251, 9.50546296123502415520e-02) (252, 7.23378579087754769450e-02) (253, -5.84318138571077727583e-02) (254, -1.45452554043916434251e-02) (255, -3.24826839151490728841e-02) (256, 1.00571599289181565218e-01) (257, 4.29543659582034831335e-02) (258, -5.44036497169289659515e-02) (259, -3.21761323631510193222e-02) (260, -1.26514173410107108597e-02) (261, 8.04378937472487315352e-02) (262, -1.34342685071513451289e-01) (263, 6.60268518484305594329e-02) (264, 4.38353786327507835563e-02) (265, -3.90408815599996572576e-02) (266, 8.11414561013744095597e-02) (267, -9.05320371576365384714e-02) (268, 1.10367830245776510356e-01) (269, -7.02856570797675689333e-02) (270, -1.59129355761351010123e-02) (271, 7.23993069112455200909e-02) (272, -1.03920371905533090451e-01) (273, -1.24214013261550598743e-02) (274, -2.82177390380854604957e-02) (275, -4.24146352688756500537e-02) (276, 6.18091322480656193972e-02) (277, -4.97086378494264943817e-02) (278, -7.57130807033183500510e-02) (279, -7.16232500555556844679e-02) (280, 3.51093650631812068119e-02) (281, 5.29965936800616405078e-02) (282, -7.79866568446578728446e-02) (283, -5.18886525895534550523e-02) (284, -1.07862647413929368945e-01) (285, 3.68260029996726120927e-02) (286, 7.51947303386690975302e-03) (287, -1.28569905946557011545e-01) (288, -1.01369405116343541673e-01) (289, 1.15248204772641811566e-02) (290, -4.82977209877023024726e-03) (291, 9.30397463988367687260e-03) (292, 1.77491384294865793547e-02) (293, -3.11407152121127572819e-02) (294, 2.12022604302113983066e-02) (295, -1.16801235732350138646e-02) (296, -1.34226661253549178765e-01) (297, -3.11535344497243654738e-02) (298, 3.30364098895281968482e-02) (299, -1.10504528355127196182e-01) (300, -8.23371783759148032078e-03) (301, 8.35563105340309530966e-02) (302, 1.03013042598010265416e-01) (303, 2.68419397824671904229e-02) (304, 8.24008182722656828956e-02) (305, -3.12728216046154541830e-02) (306, -4.03568845854143515295e-02) (307, -3.73829398072464957892e-02) (308, -1.62541683955164523168e-02) (309, -4.15621201053099562084e-02) (310, 9.67691938141010676855e-02) (311, -3.83695512058283977330e-02) (312, -3.30883206749528965829e-02) (313, 2.73058058117559947220e-02) (314, 1.68009856609642703462e-02) (315, -5.25530803808412633193e-02) (316, -3.57133765482057149998e-02) (317, 3.60766951040455696731e-02) (318, 1.14378244313643271518e-02) (319, 6.69850747456261861462e-03) (320, 6.58715121368510202193e-03) (321, 5.74228996921770026840e-02) (322, -6.77030407926551558440e-02) (323, -1.26388500127308900378e-01) (324, -2.02532746437684672836e-02) (325, -1.66034159663342242852e-02) (326, -1.73328133957243099572e-02) (327, -4.28233755916263350572e-02) (328, 4.16817285964151337807e-02) (329, -3.94293660354910827093e-02) (330, -2.54716394895307916835e-02) (331, -4.12750088016484578679e-02) (332, -4.40101422228215063970e-02) (333, -8.21945626183671063103e-02) (334, 9.59456026110241944060e-02) (335, 9.56859835547046594373e-02) (336, 5.14144159481991838700e-02) (337, 1.27927198378524203948e-01) (338, 3.10110604021589832124e-02) (339, -1.78601489394412601963e-02) (340, -1.79889160564682994148e-02) (341, -1.08158503818234271593e-02) (342, -7.76151462077389903832e-03) (343, -7.07380999551175393414e-02) (344, -1.91890032955629313838e-02) (345, -1.29983250563204089101e-01) (346, 2.49946934799492176404e-02) (347, 6.77211025124313803492e-02) (348, 8.97235159791272551821e-02) (349, -4.32550758548121069835e-02) (350, -4.83963808421054159092e-02) (351, -3.26472857431948093598e-02) (352, 6.78729806374662042456e-02) (353, -2.22321310906021876730e-02) (354, -3.41123034868375460404e-02) (355, -1.14213408267742747015e-01) (356, -1.25126896447081248365e-01) (357, -6.55567643407134470479e-02) (358, -6.96747203945786985901e-02) (359, 8.19464432185115429497e-03) (360, -5.35335126817159806523e-02) (361, 1.59775718295178739692e-02) (362, -9.98823536262976180433e-02) (363, -7.71562942174156274344e-02) (364, -1.40724833215569333777e-01) (365, -9.85819669976453483162e-02) (366, -6.95062466241271464940e-02) (367, 7.40393168587370614775e-02) (368, -9.24862970883503915376e-02) (369, 1.58051394175333613512e-02) (370, -1.08825619921044669525e-01) (371, -3.82678164000793963329e-02) (372, -4.35841491957325369300e-02) (373, 1.85107738340256795795e-02) (374, 7.63807574804115513301e-02) (375, 1.70236079419521964262e-02) (376, 1.02006445288573388552e-01) (377, -4.79827088663201187235e-02) (378, -6.53759684213029573785e-02) (379, 3.99435351132662735951e-02) (380, 7.55015619032195217653e-02) (381, 4.79167466489300378218e-02) (382, -1.31879292638109407720e-01) (383, -8.32460878872079007573e-02) (384, -3.41311055466098564604e-02) (385, -1.24022582449778567826e-02) (386, 5.19268112975811418214e-03) (387, -4.64005673649157887595e-02) (388, 3.48279911622603535748e-02) (389, 8.68360725147222095588e-02) (390, -1.13551313630954081590e-01) (391, 2.58845649607323258223e-02) (392, 7.69775246238458502740e-03) (393, -9.42591294846234495353e-02) (394, -1.28196932987715728203e-01) (395, 8.79449230797683771665e-03) (396, -5.93773637998910239211e-02) (397, -3.64830364145414323684e-02) (398, -8.44243022210874188849e-02) (399, -4.99124605690587502815e-02) (400, 1.46017538544136404877e-01) (401, -1.49101686195342239549e-02) (402, 5.81993009316526255237e-02) (403, -7.20976116925441112837e-02) (404, -1.20030437656296243287e-01) (405, 1.02232860700550362565e-02) (406, 3.44215367483499123935e-02) (407, 8.10806783950997478350e-02) (408, -1.26426338000679844287e-01) (409, 4.57724847563830070096e-02) (410, 5.42271493906811355434e-02) (411, -1.10785498560711931360e-02) (412, 4.79658233189697788545e-02) (413, -1.21708627802777948068e-02) (414, -1.01664551895504412515e-01) (415, 1.87775800016360349363e-03) (416, -4.18166233878247833866e-02) (417, -6.73902603232363200947e-03) (418, 5.16015199951806169398e-02) (419, 9.51828838391591269819e-02) (420, -2.29707025860398416153e-03) (421, 9.87774187992191549101e-02) (422, 4.37110398811315081780e-02) (423, 5.32405356519648972902e-02) (424, -6.92132318164799531512e-02) (425, 1.99094559580422596212e-02) (426, -1.25850347259992708347e-03) (427, -1.26538840661333650689e-02) (428, 5.33441695316498529222e-02) (429, 5.98727274781731474973e-02) (430, -1.01731977334291054382e-01) (431, 6.75874730491035080604e-02) (432, -1.90995719403944975989e-02) (433, 4.99730341483881623788e-02) (434, -9.62740817456887443271e-02) (435, -7.58649055681563308506e-03) (436, -5.23606586254629462196e-03) (437, 4.04314386101941591889e-02) (438, -4.23264542346487582236e-02) (439, -3.06112553111010585183e-02) (440, 2.10861178375624062908e-02) (441, -1.10405145649805511154e-01) (442, -5.84530868642770401467e-02) (443, -1.16089750317936404866e-01) (444, 5.45660340893983561439e-02) (445, -5.48177080101900429665e-02) (446, 5.56172764902763197559e-02) (447, -8.04100867787629902672e-02) (448, 4.20557898238636679311e-02) (449, 1.20187209305032891016e-02) (450, -4.68363793455032623170e-02) (451, -6.39436426508456501328e-02) (452, -5.76471927038985348241e-04) (453, 3.00372646717103758407e-02) (454, -4.74727578759659221697e-02) (455, 7.00853509989657064150e-02) (456, 3.20690989799336870214e-02) (457, 5.50074334708703024943e-02) (458, -5.45912642559104668849e-02) (459, 2.90624308900549049861e-02) (460, 4.68304808206983875715e-04) (461, -5.66033343330611671274e-02) (462, -2.58730295720488515099e-02) (463, 5.77833409731647040797e-02) (464, -4.69643565682405644823e-02) (465, 1.05266624277716592389e-02) (466, -3.60790807747505617997e-02) (467, 8.46089802981373276247e-03) (468, -5.34339909113171820931e-02) (469, 3.79905869549072294777e-02) (470, -4.53006531677762058763e-02) (471, 7.56399996232763466297e-02) (472, 4.91757174334946228766e-02) (473, -4.12497008070938017688e-02) (474, -9.58855001369192661009e-02) (475, 4.14843821351599875702e-02) (476, 7.29133886232541245098e-02) (477, 8.26088249023834431117e-02) (478, 7.59551873062465077169e-02) (479, 2.63732528181327453842e-02) (480, 1.67601759842533303002e-02) (481, -7.72253372079363953340e-02) (482, 4.41434704830644120133e-02) (483, -1.35397487661382848190e-01) (484, -9.61848994059110035115e-02) (485, -1.28204996847869900911e-01) (486, 6.82934953660562643618e-02) (487, -1.23248045701950630082e-02) (488, 3.99655573074646289222e-02) (489, -8.88020333786864596304e-02) (490, -6.57003769286859662380e-02) (491, -4.28730219727791114770e-02) (492, -5.99336314955441901153e-02) (493, -6.71289253477085415267e-03) (494, -7.78010432275386687451e-02) (495, -3.98967993660144307211e-02) (496, -1.08516376962596292066e-01) (497, -1.03595405877610329676e-02) (498, -1.17158591141228715649e-01) (499, -6.90520599598369172467e-02) (500, -4.48286416873343515621e-02) (501, -5.37900193971330639608e-02) (502, -1.13923581881199567634e-01) (503, -1.77721953776705993144e-01) (504, -1.81410460424088787468e-01) (505, -1.81557351548280870857e-01) (506, 1.58806594208382757805e-02) (507, 4.73596273123600627897e-02) (508, -1.06334323391713114759e-01) (509, 2.86777319015190865215e-02) (510, -2.08419221396566540019e-03) (511, 2.48600862942575037695e-02) (512, 5.66038677416438318346e-02) (513, -3.61279637590568719618e-02) (514, 5.87420109838045628736e-02) (515, -1.24910900582963724226e-01) (516, 2.91024218417021635422e-03) (517, 5.30179915174910296183e-02) (518, -2.07277119872739980233e-02) (519, -1.64251848201890163215e-02) (520, 1.09564330197795170574e-01) (521, 8.23696794634954237990e-02) (522, 6.88274443282669429189e-02) (523, -1.08356302128628040338e-01) (524, 2.26485906423492359962e-02) (525, 6.66333778388243733876e-03) (526, 1.80126570045844904000e-02) (527, 4.22556394019197797962e-02) (528, -1.45211718282185400092e-02) (529, -2.18655301366971234478e-02) (530, -1.14362441917163687455e-01) (531, -1.12562661473105105059e-01) (532, 1.83176682194959939212e-03) (533, -1.04500709206411343533e-01) (534, 4.25424279957112225214e-02) (535, 2.28435277385536823769e-02) (536, 1.24922000136670430237e-01) (537, -1.24883633506322477835e-02) (538, 2.30497736299300863549e-02) (539, 2.25417845508475399308e-02) (540, -8.68993341816558795276e-02) (541, -9.88087638978296239900e-02) (542, 5.74537982387659292710e-03) (543, -6.66439539064402342028e-02) (544, -1.67596255489207979217e-02) (545, -2.70124820961749985068e-03) (546, -4.62372093537413847431e-02) (547, -1.09354788480111625448e-01) (548, -3.87806590646855228743e-02) (549, 1.03192145874815455198e-01) (550, -3.75458539084876988245e-02) (551, -7.44163485364085358631e-02) (552, 8.62862191497684311026e-02) (553, 7.50895237332233761451e-02) (554, -3.46565115766239092987e-02) (555, 3.94617273640187893324e-02) (556, 5.28201384299604378980e-02) (557, 1.05213558621776309687e-01) (558, -1.34664698276539922250e-02) (559, 3.13423776816370916465e-02) (560, 7.40248043306948044773e-02) (561, 1.06044768178213417303e-02) (562, 6.94379431792134099721e-02) (563, -1.53999874416891252560e-01) (564, 9.04925906650630856864e-02) (565, 1.61883761712762502816e-01) (566, -2.12249516711497838994e-02) (567, -2.56580543169135019688e-02) (568, 3.46431397348455905050e-02) (569, 3.25000471736806503809e-02) (570, -3.16635843042309406137e-02) (571, 6.72008896679836958965e-02) (572, -1.43833531055807817278e-01) (573, 8.80467296381408498496e-02) (574, 1.08351758728409672261e-01) (575, -1.35296384624347589692e-02) (576, -2.43086585877348281687e-03) (577, 1.70837488754405769642e-01) (578, 1.56640967281460111171e-02) (579, 3.58292010569152066801e-02) (580, 1.55161654220643485669e-01) (581, -7.17118849142844710931e-02) (582, 6.20542619245700172170e-02) (583, 1.41523799574519409950e-01) (584, -9.95048677199746600675e-02) (585, -7.66765148075608665712e-02) (586, 8.72857625332448677780e-02) (587, 5.56872292512075334897e-03) (588, -6.32463606246957271706e-02) (589, 2.26952020946185883954e-01) (590, -9.79623976944212632167e-02) (591, 4.77238195038470550124e-02) (592, 1.98015212276230034849e-01) (593, -9.56194818209155500410e-02) (594, 7.77136223548414439843e-02) (595, 2.76953641355910162858e-01) (596, -4.72278360023397347778e-01) (597, 3.51483742481503935728e-01) (598, 1.96276412283289347638e-01) (599, -1.00881423900433767060e-01) (600, 5.23333116348954630048e-02) (601, -2.16571687486750638629e-02) (602, -6.92757109414313398954e-02) (603, 8.38724685726536210717e-03) (604, 9.72846503797753781040e-02) (605, -1.23551147112758497038e-01) (606, -2.42755785857593289756e-02) (607, -2.19994892600403092742e-02) (608, -1.17210585891622171006e-01) (609, 1.11462672078523089558e-01) (610, -7.39522128574126857981e-02) (611, 3.51807494392396141736e-02) (612, 1.13077362166315115166e-01) (613, 1.08122902912378929252e-01) (614, 2.39913847302473462464e-02) (615, 1.17534558002718197978e-01) (616, -7.14471630921321848584e-02) (617, -3.21947660246438907561e-02) (618, 9.18449672713477355268e-02) (619, -6.78177681481140770536e-02) (620, -5.27855176327629155297e-02) (621, -3.05396216209027175637e-02) (622, -2.29910709354751267852e-02) (623, 4.38644623036857361775e-02) (624, -8.22071257891460460687e-02) (625, -8.01450300243224979246e-03) (626, -9.07878787740317716448e-02) (627, 5.52251713011547573640e-02) (628, 1.44561150490671419533e-01) (629, -1.46744121429613044727e-01) (630, 3.68132214393105602901e-02) (631, -1.81497669469975891898e-01) (0, -6.03766325698020731028e-02) (1, -8.19154436030935378943e-02) (2, -2.25516463002820456013e-03) (3, -4.64898206568198635313e-02) (4, -8.93233033170555690283e-02) (5, 6.48507375848960676556e-02) (6, 8.44587024061932561958e-02) (7, -6.54881165250414815082e-02) (8, 3.40087637030349054790e-02) (9, 4.34939718265024422017e-02) (10, -6.27060492076511322157e-02) (11, 3.31980156673320550564e-02) (12, -2.35925474098140413801e-03) (13, -8.05950581167449858766e-02) (14, -5.81690786559628109087e-02) (15, 4.53893704297539460346e-02) (16, 2.41254625833310538952e-02) (17, -3.20975908145348584610e-02) (18, -9.96520195224096516640e-02) (19, -8.50970362220241777207e-02) (20, 3.70923469392254803734e-02) (21, -1.90822305274652964657e-01) (22, -2.17206180137598167668e-02) (23, -3.50722334466587034804e-03) (24, 9.46756583653060937444e-03) (25, -7.09862646105975381161e-02) (26, 1.49784762366446323918e-03) (27, -4.59658164397998697526e-02) (28, -5.07851693285234773168e-02) (29, -7.90427801832020021644e-02) (30, -5.41215500621330322661e-02) (31, -3.33403002733622805254e-02) (32, -1.24699009367474356047e-01) (33, 1.24779302093904739812e-01) (34, -3.08604422502870325007e-02) (35, 9.61896845208292938789e-02) (36, 2.05646693821796393287e-02) (37, 1.14522071369189598622e-01) (38, 1.34884936493378349009e-01) (39, 1.63568034642178339322e-02) (40, -5.83490917663418637296e-02) (41, 1.70700952491251059344e-03) (42, 2.49719140699396595362e-02) (43, -7.50034850333134439637e-02) (44, 1.00670160527422447583e-01) (45, -9.38871567229625642037e-02) (46, 4.66101031189097084195e-02) (47, 2.11323565712820682361e-02) (48, 7.92166820082546296877e-02) (49, 1.45937799458576850098e-01) (50, 7.88527895829351926915e-02) (51, -1.37745046319665165324e-01) (52, -6.26054802814211414086e-02) (53, 1.02378699247671386963e-01) (54, 1.61415494881202548072e-01) (55, -5.04400532969395687388e-02) (56, -4.53205672261726560945e-02) (57, -1.35565431802634861480e-01) (58, 4.64009638598675694388e-02) (59, 2.74877463440867490785e-02) (60, 2.64667585376409490727e-02) (61, 5.92173003183025931095e-02) (62, -9.08524314064613064401e-02) (63, 8.44641544080291656327e-02) (64, 1.32066591565243196538e-01) (65, -4.18219255565798822549e-02) (66, -5.18505006150950728538e-02) (67, -1.19735280500179563923e-01) (68, -1.07415967787495070240e-01) (69, -1.28879974920140510236e-02) (70, -4.27542663791174171184e-02) (71, -1.29259597848873475368e-01) (72, -1.85502890093631848945e-02) (73, 9.14979438656753074621e-03) (74, -1.24935762869429548005e-02) (75, 1.56461745081452552331e-01) (76, 4.57750261801994490218e-02) (77, -2.29154768012548902892e-03) (78, 1.37549712222934467087e-01) (79, 1.53729279325512044330e-02) (80, -9.74621059233671815925e-02) (81, 7.61074175132128161181e-02) (82, -2.51398143498269286203e-03) (83, -4.46804965901948791807e-02) (84, 1.04290568927451143821e-01) (85, -2.19480928273556967489e-02) (86, 4.80057888097034091146e-02) (87, 3.32526363006581393567e-02) (88, 8.70518854440813089068e-02) (89, 3.31731387860577861537e-02) (90, 1.57123201143217518239e-02) (91, -4.26122245462247153935e-02) (92, -8.93897898877360763681e-02) (93, 2.51176374600166507634e-01) (94, -1.18853339270862501387e-01) (95, -1.36835732441628638023e-01) (96, -8.37625092395682113722e-02) (97, 6.67780628741735937659e-02) (98, 2.47860460226337689371e-02) (99, -4.09457731116286555162e-02) (100, -1.09985806896847726488e-01) (101, 1.13780623295677410511e-01) (102, 1.19715475259132383967e-01) (103, 1.25393115329993060092e-01) (104, -5.37043328955838228378e-02) (105, 1.29964641960820886935e-01) (106, -1.34481261176877166935e-02) (107, 1.07499507759323764677e-01) (108, 1.36313617700371869645e-01) (109, 7.20853430605826878130e-02) (110, -4.67857607502962236090e-02) (111, -3.92933800501587132681e-02) (112, -3.83186015477449334887e-02) (113, 1.52333527913017047206e-01) (114, -4.87686406778522277272e-02) (115, -9.89551251746710325286e-02) (116, -4.32648977378618515566e-02) (117, -3.83606255674366208863e-02) (118, 3.82466319204644578100e-02) (119, 1.38775727334681294595e-02) (120, 4.46031083575739381586e-02) (121, -3.49788328197262674002e-02) (122, 6.56388421768511615140e-02) (123, 5.87143194771473572735e-02) (124, 3.03867772278432722588e-02) (125, 1.10864414729841907065e-02) (126, -6.47133722094445085204e-02) (127, 5.60009218836014857623e-02) (128, -1.12694045551146759809e-01) (129, 6.39316615214540889811e-02) (130, -8.31823763871024773886e-02) (131, -9.36679890226976563650e-02) (132, 1.16913612444725385081e-02) (133, 6.77479902588500187965e-02) (134, 1.06369607796703471991e-01) (135, -4.17566085754305683919e-03) (136, 9.89431967222143549101e-02) (137, 3.29668032360926240021e-03) (138, -1.39138191561854491357e-02) (139, 1.42854723635632119283e-01) (140, -1.91425872738839930598e-01) (141, 2.98068856398224328597e-02) (142, 8.88180882517656672404e-02) (143, 9.16925267311247543800e-02) (144, 3.46995964126006880765e-03) (145, -1.70309481082720317116e-03) (146, -7.96445455488644649122e-02) (147, -3.66128117055199292507e-02) (148, 4.75649042131522578614e-02) (149, -7.04973569298303626152e-02) (150, -3.99358729765426478248e-03) (151, 5.51317257271150412690e-02) (152, -4.94059799437502611408e-02) (153, 2.12390629599951724638e-01) (154, 2.36739067287422902397e-03) (155, -1.60159132135444470801e-01) (156, -7.21935370426370348618e-02) (157, 6.58078520792837601272e-02) (158, -4.90557579019392855924e-02) (159, 4.56146259754171556899e-02) (160, -1.25416682531601347828e-01) (161, -1.58661061069003767043e-01) (162, 1.10943498175297597386e-01) (163, 1.42013611151872831684e-01) (164, 4.85630436585364685942e-02) (165, 1.05184354071539865050e-01) (166, -5.63133848088785346486e-02) (167, -4.87748394880484006930e-02) (168, -6.00583682827867740284e-02) (169, -1.27330838617360470044e-01) (170, -3.37760365978345064586e-02) (171, -5.85801556050894942085e-02) (172, -3.92613591359626118438e-02) (173, 3.83375679378254730079e-02) (174, 4.61237076823710206996e-02) (175, -1.23391585492103522670e-01) (176, 6.59712280907607390157e-02) (177, -1.00627903664731024880e-01) (178, -8.33888297014201279600e-02) (179, 1.22365930519342441807e-01) (180, -4.67797855312528307326e-02) (181, 2.36020704280995525029e-03) (182, -2.25480637827949713381e-02) (183, 2.13770509771960375012e-02) (184, -1.78128026750059599570e-02) (185, 8.55753521565189856357e-02) (186, -5.87207514175700807935e-03) (187, 1.59734942152760864276e-02) (188, -1.00858451593666020862e-01) (189, -3.93081831524439706538e-02) (190, -7.28356547370554441301e-02) (191, -8.54558276331664895542e-02) (192, 7.43050813425431971870e-02) (193, 2.33957740698861715867e-01) (194, -1.32780189882012150671e-01) (195, 8.97282698464751393708e-02) (196, 2.20461918148626118130e-01) (197, 2.00020930359054056880e-02) (198, -1.10699571985217529169e-01) (199, -1.59064483917187408923e-02) (200, -4.36224975094274547427e-02) (201, -9.73074778273275431406e-02) (202, -1.37448473942450521967e-01) (203, -4.81090773344707636761e-02) (204, 7.55698998159463897206e-02) (205, -8.05824917661307066341e-02) (206, -1.45046761829839554458e-01) (207, 7.50114766621097633914e-02) (208, -6.85415532034862936411e-03) (209, -6.59722126733298108725e-02) (210, -4.35786966756803867407e-02) (211, -2.30748379807788783769e-01) (212, -2.49312481683920839082e-01) (213, 1.61024888762492074390e-01) (214, -1.11314286761663036596e-01) (215, 1.42656086573853362054e-02) (216, 2.98275149391437136015e-02) (217, -6.80711192217423460837e-02) (218, -1.23437214795576927218e-01) (219, -7.58592460096670223590e-02) (220, 9.04059750903320608062e-02) (221, -1.18008706577863081710e-01) (222, 6.62745364800454150878e-02) (223, 5.86684045961750749720e-02) (224, -1.89942345338727003323e-01) (225, -9.27935844189200220722e-02) (226, -1.29869424547535888825e-01) (227, 1.95641885891845619672e-02) (228, -1.00981088404424296234e-01) (229, -8.88073266967899926927e-02) (230, -5.08153027205751964268e-02) (231, -7.68858194671590139402e-02) (232, -5.81558626455626753726e-02) (233, 5.22136253648876752509e-02) (234, 8.13628118814637840694e-02) (235, -8.95654373180038709812e-02) (236, -4.96718541589765971711e-02) (237, 7.72234094446534041767e-02) (238, 9.52814852150924984642e-02) (239, -1.32420070294255926013e-01) (240, -1.68470972778875655029e-01) (241, 2.99580887576957194396e-02) (242, 1.86339543856935963007e-02) (243, 5.14731012183451200337e-02) (244, -4.17127713061079263834e-02) (245, 2.21468951370131478251e-01) (246, -2.72155090704587730721e-02) (247, -9.43807917740789731331e-02) (248, -1.65018393504952287643e-01) (249, -8.13361386941037212139e-02) (250, -8.81404585265907064562e-02) (251, 2.18295647957522272187e-02) (252, -6.44352981670923280477e-02) (253, -1.76041627117442534001e-01) (254, -1.22953839891799354515e-03) (255, 1.53822362499051151774e-01) (256, -2.47833857246090773913e-03) (257, 1.26072738748530976949e-01) (258, -1.09090443615835391844e-01) (259, -1.81562972640649054196e-03) (260, -4.98679041375448203754e-02) (261, 1.26879450116407638260e-01) (262, -8.52739394107216719387e-02) (263, -1.50643104203229349913e-01) (264, -1.31800152787488383810e-01) (265, -7.65766985460124421925e-02) (266, -4.78675776507336281362e-02) (267, 1.22748813698415740192e-01) (268, 2.20969791887585059742e-01) (269, 9.01765081401252471816e-02) (270, -1.30489822701924024217e-01) (271, -9.83033594029180946006e-02) (272, -8.36225089859696790739e-02) (273, 3.06351862164703121760e-02) (274, 1.17232909215718959783e-02) (275, 2.90688523754886636585e-02) (276, -5.04971125252472105571e-02) (277, 5.11241407566133398976e-02) (278, -1.26450976564184247586e-01) (279, -8.16185335285844609787e-02) (280, 1.00187523488013033313e-01) (281, -5.35376299205697070427e-02) (282, -4.54621509241704135906e-02) (283, -1.71744362254343183039e-02) (284, -8.66143731998419985629e-02) (285, 6.36160641720345115813e-02) (286, -7.60521142919439157443e-03) (287, -4.76288951802607551933e-02) (288, -8.03922017246652687028e-02) (289, -3.84345512001663591403e-03) (290, -1.36593288476541480092e-01) (291, 6.07404988494770065044e-02) (292, -2.33778400299117262995e-02) (293, 7.85840122735317891944e-02) (294, -8.48472886221836031240e-02) (295, 1.04746111129779176374e-01) (296, -7.08155311754228300458e-02) (297, -1.65343162117124214960e-01) (298, 5.25051521254417605244e-02) (299, 5.62297763868761651951e-02) (300, 9.58888164527910147328e-02) (301, 3.13780485698628916480e-02) (302, 5.64021733227310292924e-02) (303, -1.20589506985874159173e-02) (304, -8.43187114841901369511e-02) (305, 2.82792952673379988267e-04) (306, -3.83440335450434049633e-03) (307, 2.35504458803469512995e-02) (308, -2.32783691607418982347e-03) (309, 3.95233782542742731470e-02) (310, -2.17077237392414648665e-02) (311, -2.02530939727011860541e-01) (312, -1.83443948088314129352e-01) (313, -1.06706822424406197469e-01) (314, -6.75430891486046135891e-03) (315, 1.17331553705464372572e-01) (316, 2.40873413284870774298e-01) (317, -1.32430492063229987565e-01) (318, 1.01723796804537955363e-01) (319, 9.65621405462391557695e-02) (320, -2.10045650595904603852e-01) (321, 6.68914634740741392838e-02) (322, -1.32658843256453579107e-01) (323, -4.00355983460394249107e-02) (324, 5.22648111937355080991e-03) (325, 1.68467151978212784091e-02) (326, 4.52154931583835378861e-02) (327, 8.45838512762140115608e-02) (328, 2.94472239732696920711e-02) (329, -4.90007098730566581501e-02) (330, 6.35520685903020153551e-03) (331, -4.95179008416678709259e-02) (332, -1.48782095259643698526e-01) (333, 9.89434263115695628032e-02) (334, 3.49602363428838242010e-02) (335, 8.62659251144100476527e-03) (336, -7.75876458924532226569e-03) (337, 8.83890509402373014680e-02) (338, -7.48461698939862085656e-02) (339, -2.75277662020433910861e-01) (340, -1.19000180046667167200e-01) (341, -1.32868617927207628010e-02) (342, 5.06017647788374741458e-02) (343, 1.05628356653936980591e-01) (344, 2.20057794691557034872e-02) (345, 7.95215682891403791155e-02) (346, -4.95314175225532657421e-02) (347, 4.52145005530612403843e-02) (348, -7.35089427584661135595e-03) (349, 6.46068026756345947792e-02) (350, -1.25465031879214677923e-01) (351, -1.50236399228977704490e-02) (352, 8.26022016894232963269e-02) (353, 1.26137635559267463625e-01) (354, 1.05476030522987547500e-02) (355, -7.96168625802179535933e-02) (356, -2.34998594729698521977e-02) (357, -2.05341478484857287157e-02) (358, 1.07120615171808694632e-01) (359, -7.46231903283760961143e-02) (360, -9.18304477973309746242e-02) (361, -6.84396207618808011253e-02) (362, -1.12651348968786785276e-02) (363, -7.69439743256545849448e-02) (364, 1.59828869835471315541e-01) (365, 1.02444010941481842419e-02) (366, 2.51013243916802441733e-03) (367, 7.82788211368917880018e-02) (368, 2.04006030193034683384e-02) (369, 4.61095766008256593982e-02) (370, 1.43882823727320766083e-02) (371, 7.28870353748281990525e-02) (372, -4.40500856857489117568e-02) (373, 1.57073402165005954201e-01) (374, -5.31692885354939984155e-03) (375, -9.10582717155330595427e-02) (376, 3.67856609621860161652e-02) (377, -4.76894251216082726286e-02) (378, 1.26120957305976486018e-02) (379, -7.26104730150322046772e-03) (380, -1.29342675871775766860e-02) (381, -2.59633446733295537509e-03) (382, -1.25682777314210264441e-01) (383, 3.30223151329522290887e-02) (384, -3.67565775838019359600e-02) (385, -1.84752329513373225733e-02) (386, 6.26809591424741935350e-02) (387, -2.78802377101321045838e-02) (388, 6.05399872424447205166e-02) (389, -8.04371562044152166315e-02) (390, -2.27709862627970584248e-02) (391, -7.75793631855239557149e-02) (392, -9.36451575919052814356e-02) (393, 1.57501836745931461659e-01) (394, -1.09601228483117742185e-02) (395, -9.89937386898760429688e-02) (396, -1.58285711332467243784e-01) (397, 2.61078528100108569684e-03) (398, 1.39794424122859119175e-02) (399, -2.95697178648201310092e-02) (400, 8.46537921694263256756e-03) (401, -2.11127644768387030816e-02) (402, 1.32663973068052137849e-01) (403, 2.46998504944814956108e-01) (404, -5.33406667871098374989e-02) (405, -2.17596984761066793157e-02) (406, 8.69393079934028950584e-02) (407, -1.04890403651099597959e-01) (408, 6.26684564504667446228e-02) (409, -1.16100208004027080633e-03) (410, -4.61081947490382254573e-02) (411, -5.80642286278620634032e-02) (412, -7.63599172662207947848e-02) (413, 5.53531682610844608106e-02) (414, 9.25186670582740094959e-02) (415, -3.92157389514267012975e-02) (416, 4.58855951633092215558e-02) (417, 1.31590175590486305884e-02) (418, -2.37484311749259838220e-02) (419, 6.18737978102932868057e-03) (420, 8.94428687904877950388e-02) (421, -1.02706504259506670174e-01) (422, -9.99677887962511502185e-02) (423, 3.94332112357436495587e-02) (424, -7.65962901460632977768e-02) (425, 6.56588179725840770384e-02) (426, 7.34754508870990585834e-02) (427, -5.56081610401927689535e-02) (428, -2.04105090173422147604e-02) (429, 3.42687063533965025064e-02) (430, -1.28430863038484999183e-01) (431, -4.66011395483215129509e-02) (432, -9.04689520158532684002e-02) (433, 1.86776063861892410722e-01) (434, 3.04056089200308438114e-02) (435, 5.06549424178262056029e-02) (436, 3.98876970353097132227e-02) (437, -2.99580772794408763116e-02) (438, 1.17006524159835215149e-01) (439, 2.47445183665335709244e-02) (440, 6.21782786676464416242e-02) (441, -4.41303338401640085631e-02) (442, -9.24962220579336052984e-03) (443, -2.27873593651476309685e-02) (444, 3.63178251164226681413e-02) (445, 1.91767468461353889075e-02) (446, -4.77828994311053495414e-02) (447, -1.98056916903337314195e-02) (448, 6.46598139449287429015e-02) (449, 1.77149048639244459380e-02) (450, -1.02146169507932357834e-01) (451, -3.25536565460353213841e-02) (452, -1.11890021741696876756e-01) (453, 1.84740847347476498663e-02) (454, -1.02809052490810640124e-01) (455, -7.20412101151644279629e-02) (456, -1.53119108079121501315e-02) (457, -1.05653083114577509005e-01) (458, -6.63728101704902373470e-02) (459, -9.85131226597553838475e-02) (460, -1.39695194157530427903e-01) (461, -9.89616073514617555773e-02) (462, 9.29825725187769930313e-02) (463, -4.04852288704958818144e-02) (464, -1.05537214795289283065e-01) (465, 5.13228304810893834476e-03) (466, -9.31537430363252316745e-02) (467, -1.77753186302442633959e-01) (468, -9.12828360713620334810e-02) (469, 2.42650884947095413224e-02) (470, 3.24593309487337458585e-02) (471, -1.36782407870863487176e-01) (472, 4.89583169477559448923e-02) (473, -1.73414035512267725864e-03) (474, -1.85101218320234572889e-01) (475, -7.73547591989481170272e-02) (476, -8.18507024811833405753e-02) (477, -7.01958719226010875031e-03) (478, 4.59387972806535455073e-02) (479, -9.17859887191317669330e-02) (480, -3.85774034668892387701e-02) (481, -8.42051041568305097540e-02) (482, 7.84262928897073025025e-02) (483, -3.53087562348459865769e-02) (484, -1.33185412983270357046e-01) (485, -8.38744790441548621063e-02) (486, -3.81378543279916534803e-02) (487, 3.95059697114222355130e-02) (488, 4.88215835958892771518e-02) (489, 1.10727973400755505540e-01) (490, -5.74977278856282220110e-02) (491, 5.88568927736687376451e-03) (492, -6.17874937070184079846e-02) (493, 2.25765967278685648900e-02) (494, 2.18148921421401284504e-02) (495, -2.89380924318718563137e-02) (496, -3.90501729264841196398e-02) (497, -8.67482425126502032509e-02) (498, -1.04206844167388824884e-02) (499, -4.96497867718898866496e-02) (500, -5.10406028221512403364e-02) (501, -9.62655668883475729158e-02) (502, -1.15190463763324993374e-01) (503, -1.09925182810642424469e-01) (504, -1.53404380764777636958e-01) (505, -3.04346061372119773558e-02) (506, -1.50456269182020790920e-01) (507, 8.99225266914819784669e-03) (508, 3.78151282995326590286e-02) (509, -9.63506091001502112947e-02) (510, 1.23783964299223094019e-02) (511, -1.09308308614220806021e-01) (512, -3.09333583119113589288e-02) (513, 1.62373044372489637455e-02) (514, -4.21275833741732511073e-02) (515, 4.27133544469961781709e-02) (516, -1.00479672284152832251e-01) (517, -6.36632889499684911927e-02) (518, -7.83490746026311163375e-02) (519, -1.44617008753236464536e-01) (520, 5.92296974922879200520e-03) (521, -4.92018643646819769932e-02) (522, 5.65411572755604718843e-02) (523, 1.34104624842805775220e-01) (524, 1.42696902376233225596e-01) (525, -9.19898787631208414428e-03) (526, -7.59731420585896682907e-02) (527, -2.63052051671033682023e-01) (528, -3.61886093647291254283e-02) (529, 1.54110556350597763600e-03) (530, 5.61189330185353149605e-02) (531, 2.51893167197159775772e-02) (532, -3.80559970850271114817e-02) (533, 6.68757257267118682131e-02) (534, 2.12049427362085741999e-02) (535, 9.78540025713002664665e-02) (536, 5.58088830577326763804e-02) (537, -1.58781077303518682042e-02) (538, 8.28332696780255950397e-02) (539, -1.38907975297743790932e-01) (540, -6.15550588739974466335e-02) (541, -6.11503528644814151050e-02) (542, 2.11561378041529649097e-02) (543, 9.33688273339920021821e-02) (544, 7.32233625291401069024e-02) (545, 1.48469668041033259209e-01) (546, 9.04768566921575340123e-02) (547, 9.23753328768086023892e-02) (548, 9.80249324078808353944e-02) (549, 6.64749039117037560098e-02) (550, 6.33166528751194779279e-02) (551, -5.15322055582319790701e-02) (552, 8.13561784255651260223e-02) (553, -4.12086247176872075282e-02) (554, -7.19063673674331590990e-03) (555, 2.83382176841420994895e-02) (556, 1.37157554928945494416e-02) (557, 6.38083363696526351116e-02) (558, 4.26765334890416569991e-02) (559, 4.69904659772719876520e-02) (560, 4.64809892020641018950e-02) (561, 1.16495328075964452164e-02) (562, 6.43636436865881178537e-02) (563, 4.20269493602666299736e-02) (564, -1.87332265204455422625e-01) (565, -5.88267758975179813619e-02) (566, -1.07882696573127337403e-01) (567, -1.23872018872741764678e-02) (568, -5.30152506797102601732e-02) (569, -1.24682589456500889091e-01) (570, 5.36334571915412366971e-02) (571, 1.42575319792769515670e-02) (572, 2.20463128234286882823e-02) (573, -1.37901208279187198480e-01) (574, 3.91705634576912636174e-03) (575, -4.69372491460622598414e-02) (576, -1.63624382317222177852e-02) (577, -1.18439570263442706111e-01) (578, 1.18306204725523722576e-01) (579, -8.15562259382291293575e-02) (580, -3.73608241225473688973e-02) (581, -3.44381184067700258505e-03) (582, 6.45413770810213394125e-02) (583, -9.07483349156950752645e-02) (584, 3.44784708639845269285e-02) (585, -4.03088948903710525551e-02) (586, -1.87470650986849451947e-01) (587, -1.43772738416908588133e-02) (588, 2.39243613717075205571e-02) (589, -3.15595200821837465477e-02) (590, 1.88760545721722738932e-01) (591, -1.79977008458261533708e-01) (592, -9.60396929350836037198e-03) (593, 4.16341445902742968155e-01) (594, -3.68064804474522000444e-01) (595, -2.20550138224120034769e-01) (596, 1.11818637159567080275e+00) (597, -9.96981349897811619520e-01) (598, -1.82250864984075215680e-02) (599, 2.39522519776366737965e-01) (600, -2.35261294994630637545e-01) (601, -1.00041085067043497570e-01) (602, 3.73488517912283005118e-02) (603, -2.03369011282198530743e-01) (604, -5.40507560368844799936e-02) (605, -5.68063274714159308076e-03) (606, -5.95580217998611521901e-02) (607, -1.98627174103622704260e-02) (608, -5.60466394193325292972e-02) (609, -4.97218809489118340750e-02) (610, 9.77631569953791162986e-02) (611, -1.02309307676620678262e-01) (612, -8.95304098049446994700e-02) (613, 4.40887744135524863726e-03) (614, 4.87247017641976101765e-02) (615, 6.07006767603009839140e-02) (616, 7.55726918517878598625e-02) (617, 4.57458699384542047395e-02) (618, -1.24559477743721766507e-01) (619, 6.87567634837500385458e-02) (620, 6.24227147645513985585e-02) (621, 1.33316626945656838132e-02) (622, 4.98396205756118648722e-03) (623, 1.18075433428438236749e-01) (624, -9.83805222918561483869e-02) (625, 1.82774021833170194351e-02) (626, 7.19263857500992837002e-02) (627, -7.50242024400355894675e-02) (628, -1.75447090392529758685e-01) (629, 2.88742770926417487154e-02) (630, 6.49346545468375141441e-02) (631, -2.19229418422978994396e-01) (0, 3.70294568634848275668e-02) (1, -5.71760703947622045407e-02) (2, -2.60472854712699118662e-02) (3, -7.88950787215121490670e-02) (4, -2.57234721630242336998e-02) (5, 8.89064718105372492341e-02) (6, -2.10790893610986497519e-02) (7, -7.99339469614485965965e-03) (8, -1.01436568615056467955e-03) (9, -1.09128659501546137339e-02) (10, 2.94560664178774612998e-02) (11, 1.39705341393834021196e-02) (12, -3.64623882689643422084e-02) (13, -2.23765716401440606376e-02) (14, 1.78456134670585235547e-02) (15, 9.32742787789420657596e-02) (16, -4.26437897179966426964e-02) (17, -1.90760073187870127058e-03) (18, -2.65419120666346153303e-02) (19, -8.65053542220199089829e-02) (20, -3.10531342588877268263e-02) (21, 1.19535601865225198787e-02) (22, 1.02547295728435017281e-01) (23, 1.35470211116811539709e-01) (24, -9.13448939458888671539e-03) (25, 5.21411154809586982473e-02) (26, -1.10920539078083781048e-02) (27, 7.91577484112262613758e-02) (28, -4.95195653892832460263e-02) (29, -8.63594682723018008952e-02) (30, 6.08267991672554256266e-02) (31, 8.28766627647091053133e-02) (32, -3.12319476337930140852e-02) (33, -3.44147342771534830996e-02) (34, 9.70022540114009040879e-02) (35, 5.57565131770295305258e-02) (36, -5.31559563021842609865e-02) (37, -3.46246157234840271077e-02) (38, -3.24031170883707295149e-02) (39, 6.12415308372141753424e-02) (40, -1.38068704466622199645e-01) (41, 6.33997060966843134500e-02) (42, -7.36946919267370491834e-04) (43, -1.45503312511969309928e-02) (44, -2.91584988673900570577e-02) (45, 1.09856574701595072208e-01) (46, -3.38182040858751448154e-02) (47, 1.02853056847018453634e-02) (48, -2.13227101986280670465e-02) (49, 1.99226607655331316993e-02) (50, 4.79937266708876150018e-03) (51, 4.89825156351820084621e-02) (52, 1.60836276866520161422e-02) (53, 5.76003516423273728697e-02) (54, 3.00956367120327784870e-02) (55, -7.72775667607095567702e-02) (56, -2.03921765234263523137e-02) (57, -8.46550978298365869312e-02) (58, 8.42091030408333579560e-02) (59, 3.15848455330122040996e-02) (60, -2.51307817363412462630e-02) (61, 4.46491338356167014045e-02) (62, 1.22763715329801785525e-02) (63, 5.18022496157569053987e-02) (64, 1.23450368681644689905e-01) (65, 3.40179143232421793419e-02) (66, 2.78956301722079885730e-02) (67, -6.39606235769025754934e-02) (68, -9.26791793955837467367e-02) (69, 5.60444930206595443023e-02) (70, 1.02178884835872882397e-01) (71, -8.29001320327470564431e-02) (72, -1.21096406455850034989e-02) (73, -3.99111106297735315773e-02) (74, -8.73571699841204502013e-02) (75, 6.23661469666349360663e-02) (76, -5.66948128014977612010e-02) (77, -8.49474823954258530245e-03) (78, -6.70427484482695734691e-02) (79, -1.78711773349346757234e-02) (80, -6.33947623605624205334e-02) (81, 7.35912935144670821153e-02) (82, -4.54677776115567228166e-02) (83, 1.56018143488354191911e-02) (84, -2.87762257317070169194e-02) (85, -7.33925542936116059867e-02) (86, 7.08340170953391107256e-02) (87, 7.56513796032999702446e-02) (88, -2.54536099723853374843e-02) (89, -8.61737874474267397107e-03) (90, 1.64556193750566188971e-02) (91, 6.03495882729163587999e-02) (92, -8.69193878226111327212e-02) (93, 1.07196232203168845265e-01) (94, -1.94249348037331161232e-02) (95, -1.08665482625154505292e-01) (96, -4.77658703595252795426e-02) (97, -1.07305944906902081537e-01) (98, -3.03611239245851483037e-02) (99, -4.32622061390427192773e-02) (100, 3.24226022778053429851e-02) (101, -7.29581788592386249609e-03) (102, 7.77250308574699115549e-03) (103, -6.09714122593268889605e-02) (104, -3.70839593851085363128e-04) (105, 6.61617235700772410301e-02) (106, 1.13905285063510636201e-01) (107, 1.02306891680115752408e-01) (108, -1.64222628904169380692e-02) (109, -4.21312876810496228508e-02) (110, 7.23869546769783257095e-03) (111, 6.47147285183777200984e-03) (112, -9.01165557601305844404e-02) (113, 7.53306016149339202626e-02) (114, -1.29743490755987317398e-01) (115, 1.46409732970435874783e-02) (116, -8.19787299241997585719e-02) (117, 4.37699546588173962758e-02) (118, -2.74948977824950591131e-02) (119, -7.75548474271954002557e-02) (120, -1.19282757261078026928e-02) (121, 4.74375984796259267395e-02) (122, -7.62475714879996130380e-02) (123, -3.73887945014379149966e-02) (124, 2.47543975224325911444e-02) (125, 4.70751221598002464463e-02) (126, 1.06801243935875714297e-02) (127, -1.13705084660634999499e-02) (128, 4.48096674137556591488e-02) (129, 9.89027475384074844511e-02) (130, 8.86014599537708474886e-02) (131, -2.12058599663862527851e-02) (132, -1.67942007256353907640e-02) (133, -2.40526348816016630194e-02) (134, 1.46336740749585525467e-02) (135, -9.22758559951806084376e-02) (136, -7.00678947948892849595e-02) (137, 6.05924046982132188943e-02) (138, 7.16705654636985156625e-02) (139, -5.93971792630626580639e-03) (140, 9.91154776044640278831e-02) (141, -6.24179974014701308138e-02) (142, 1.30550425404897058046e-01) (143, -1.01882925815508867950e-01) (144, -1.10127992404315575015e-01) (145, -7.94723126075651403744e-02) (146, -2.11093808526094314781e-02) (147, -2.43046969606119630039e-03) (148, 6.57522366204932179334e-02) (149, 7.13459809665413502433e-02) (150, 3.42601349325362056208e-02) (151, -8.23535745606904096006e-02) (152, 9.51736324954559620437e-02) (153, 6.85182143626744399878e-02) (154, -3.13814618584708996535e-03) (155, 2.06682046880035594216e-02) (156, 5.53177226386023374038e-02) (157, -1.09587881636633410753e-01) (158, 8.40611624644508476090e-02) (159, -1.68607998287560907624e-02) (160, -4.62632753102637933607e-02) (161, 2.42931063295669345814e-02) (162, -1.05780675257785311549e-01) (163, -3.79544613638400918365e-02) (164, -8.04620225181856413288e-02) (165, 7.72809148576561327770e-02) (166, -2.41147342577142792530e-02) (167, -3.87203141740352640987e-02) (168, 4.45168120941576775373e-02) (169, 6.43278336987519183676e-02) (170, 3.22579060809620107864e-02) (171, 4.37269818712294859597e-03) (172, 1.21754935836603211952e-01) (173, 4.97820649340173018715e-02) (174, 5.71068393291503627329e-03) (175, -6.99007105244206228267e-02) (176, 3.28068197525215668464e-02) (177, -1.18223482706546603738e-01) (178, 4.63633929435086702964e-02) (179, 7.31570807765158648284e-02) (180, 9.58196663949036214758e-02) (181, -2.52853178646578156952e-02) (182, -8.57512855936565093762e-02) (183, 1.20160190951071194077e-02) (184, -2.62448974220085944065e-02) (185, 4.04988048907126141351e-02) (186, -4.21654461874642824681e-02) (187, -9.29518558976060033094e-02) (188, 3.34277733258222659041e-02) (189, -4.98358678435988355915e-02) (190, 7.62431218786425914796e-03) (191, 7.76666698973783042881e-02) (192, 1.37475869257949773194e-01) (193, -1.86492811376605012452e-02) (194, -2.74353677953939091572e-02) (195, -7.86070481974979196060e-02) (196, -1.58257026350777686707e-02) (197, 5.89590476960353271352e-02) (198, -2.76643738737616974588e-02) (199, 6.28454390510443661189e-02) (200, -2.21112534105978239540e-02) (201, 