FANN_FLO_2.1
num_layers=3
learning_rate=0.010000
connection_rate=1.000000
network_type=0
learning_momentum=0.300000
training_algorithm=0
train_error_function=0
train_stop_function=0
cascade_output_change_fraction=0.010000
quickprop_decay=-0.000100
quickprop_mu=1.750000
rprop_increase_factor=1.200000
rprop_decrease_factor=0.500000
rprop_delta_min=0.000000
rprop_delta_max=50.000000
rprop_delta_zero=0.100000
cascade_output_stagnation_epochs=12
cascade_candidate_change_fraction=0.010000
cascade_candidate_stagnation_epochs=12
cascade_max_out_epochs=150
cascade_min_out_epochs=0
cascade_max_cand_epochs=150
cascade_min_cand_epochs=0
cascade_num_candidate_groups=2
bit_fail_limit=3.49999999999999977796e-01
cascade_candidate_limit=1.00000000000000000000e+03
cascade_weight_multiplier=4.00000000000000022204e-01
cascade_activation_functions_count=10
cascade_activation_functions=3 5 7 8 10 11 14 15 16 17 
cascade_activation_steepnesses_count=4
cascade_activation_steepnesses=2.50000000000000000000e-01 5.00000000000000000000e-01 7.50000000000000000000e-01 1.00000000000000000000e+00 
layer_sizes=736 101 4 
scale_included=0
neurons (num_inputs, activation_function, activation_steepness)=(0, 0, 0.00000000000000000000e+00) (0, 0, 0.00000000000000000000e+00) (0, 0, 0.00000000000000000000e+00) (0, 0, 0.00000000000000000000e+00) (0, 0, 0.00000000000000000000e+00) (0, 0, 0.00000000000000000000e+00) (0, 0, 0.00000000000000000000e+00) (0, 0, 0.00000000000000000000e+00) (0, 0, 0.00000000000000000000e+00) (0, 0, 0.00000000000000000000e+00) (0, 0, 0.00000000000000000000e+00) (0, 0, 0.00000000000000000000e+00) (0, 0, 0.00000000000000000000e+00) (0, 0, 0.00000000000000000000e+00) (0, 0, 0.00000000000000000000e+00) (0, 0, 0.00000000000000000000e+00) (0, 0, 0.00000000000000000000e+00) (0, 0, 0.00000000000000000000e+00) (0, 0, 0.00000000000000000000e+00) (0, 0, 0.00000000000000000000e+00) (0, 0, 0.00000000000000000000e+00) (0, 0, 0.00000000000000000000e+00) (0, 0, 0.00000000000000000000e+00) (0, 0, 0.00000000000000000000e+00) (0, 0, 0.00000000000000000000e+00) (0, 0, 0.00000000000000000000e+00) (0, 0, 0.00000000000000000000e+00) (0, 0, 0.00000000000000000000e+00) (0, 0, 0.00000000000000000000e+00) (0, 0, 0.00000000000000000000e+00) (0, 0, 0.00000000000000000000e+00) (0, 0, 0.00000000000000000000e+00) (0, 0, 0.00000000000000000000e+00) (0, 0, 0.00000000000000000000e+00) (0, 0, 0.00000000000000000000e+00) (0, 0, 0.00000000000000000000e+00) (0, 0, 0.00000000000000000000e+00) (0, 0, 0.00000000000000000000e+00) (0, 0, 0.00000000000000000000e+00) (0, 0, 0.00000000000000000000e+00) (0, 0, 0.00000000000000000000e+00) (0, 0, 0.00000000000000000000e+00) (0, 0, 0.00000000000000000000e+00) (0, 0, 0.00000000000000000000e+00) (0, 0, 0.00000000000000000000e+00) (0, 0, 0.00000000000000000000e+00) (0, 0, 0.00000000000000000000e+00) (0, 0, 0.00000000000000000000e+00) (0, 0, 0.00000000000000000000e+00) (0, 0, 0.00000000000000000000e+00) (0, 0, 0.00000000000000000000e+00) (0, 0, 0.00000000000000000000e+00) (0, 0, 0.00000000000000000000e+00) (0, 0, 0.00000000000000000000e+00) (0, 0, 0.00000000000000000000e+00) (0, 0, 0.00000000000000000000e+00) (0, 0, 0.00000000000000000000e+00) (0, 0, 0.00000000000000000000e+00) (0, 0, 0.00000000000000000000e+00) (0, 0, 0.00000000000000000000e+00) (0, 0, 0.00000000000000000000e+00) (0, 0, 0.00000000000000000000e+00) (0, 0, 0.00000000000000000000e+00) (0, 0, 0.00000000000000000000e+00) (0, 0, 0.00000000000000000000e+00) (0, 0, 0.00000000000000000000e+00) (0, 0, 0.00000000000000000000e+00) (0, 0, 0.00000000000000000000e+00) (0, 0, 0.00000000000000000000e+00) (0, 0, 0.00000000000000000000e+00) (0, 0, 0.00000000000000000000e+00) (0, 0, 0.00000000000000000000e+00) (0, 0, 0.00000000000000000000e+00) (0, 0, 0.00000000000000000000e+00) (0, 0, 0.00000000000000000000e+00) (0, 0, 0.00000000000000000000e+00) (0, 0, 0.00000000000000000000e+00) (0, 0, 0.00000000000000000000e+00) (0, 0, 0.00000000000000000000e+00) (0, 0, 0.00000000000000000000e+00) (0, 0, 0.00000000000000000000e+00) (0, 0, 0.00000000000000000000e+00) (0, 0, 0.00000000000000000000e+00) (0, 0, 0.00000000000000000000e+00) (0, 0, 0.00000000000000000000e+00) (0, 0, 0.00000000000000000000e+00) (0, 0, 0.00000000000000000000e+00) (0, 0, 0.00000000000000000000e+00) (0, 0, 0.00000000000000000000e+00) (0, 0, 0.00000000000000000000e+00) (0, 0, 0.00000000000000000000e+00) (0, 0, 0.00000000000000000000e+00) (0, 0, 0.00000000000000000000e+00) (0, 0, 0.00000000000000000000e+00) (0, 0, 0.00000000000000000000e+00) (0, 0, 0.00000000000000000000e+00) (0, 0, 0.00000000000000000000e+00) (0, 0, 0.00000000000000000000e+00) (0, 0, 0.00000000000000000000e+00) (0, 0, 0.00000000000000000000e+00) (0, 0, 0.00000000000000000000e+00) (0, 0, 0.00000000000000000000e+00) (0, 0, 0.00000000000000000000e+00) (0, 0, 0.00000000000000000000e+00) (0, 0, 0.00000000000000000000e+00) (0, 0, 0.00000000000000000000e+00) (0, 0, 0.00000000000000000000e+00) (0, 0, 0.00000000000000000000e+00) (0, 0, 0.00000000000000000000e+00) (0, 0, 0.00000000000000000000e+00) (0, 0, 0.00000000000000000000e+00) (0, 0, 0.00000000000000000000e+00) (0, 0, 0.00000000000000000000e+00) (0, 0, 0.00000000000000000000e+00) (0, 0, 0.00000000000000000000e+00) (0, 0, 0.00000000000000000000e+00) (0, 0, 0.00000000000000000000e+00) (0, 0, 0.00000000000000000000e+00) (0, 0, 0.00000000000000000000e+00) (0, 0, 0.00000000000000000000e+00) (0, 0, 0.00000000000000000000e+00) (0, 0, 0.00000000000000000000e+00) (0, 0, 0.00000000000000000000e+00) (0, 0, 0.00000000000000000000e+00) (0, 0, 0.00000000000000000000e+00) (0, 0, 0.00000000000000000000e+00) (0, 0, 0.00000000000000000000e+00) (0, 0, 0.00000000000000000000e+00) (0, 0, 0.00000000000000000000e+00) (0, 0, 0.00000000000000000000e+00) (0, 0, 0.00000000000000000000e+00) (0, 0, 0.00000000000000000000e+00) (0, 0, 0.00000000000000000000e+00) (0, 0, 0.00000000000000000000e+00) (0, 0, 0.00000000000000000000e+00) (0, 0, 0.00000000000000000000e+00) (0, 0, 0.00000000000000000000e+00) (0, 0, 0.00000000000000000000e+00) (0, 0, 0.00000000000000000000e+00) (0, 0, 0.00000000000000000000e+00) (0, 0, 0.00000000000000000000e+00) (0, 0, 0.00000000000000000000e+00) (0, 0, 0.00000000000000000000e+00) (0, 0, 0.00000000000000000000e+00) (0, 0, 0.00000000000000000000e+00) (0, 0, 0.00000000000000000000e+00) (0, 0, 0.00000000000000000000e+00) (0, 0, 0.00000000000000000000e+00) (0, 0, 0.00000000000000000000e+00) (0, 0, 0.00000000000000000000e+00) (0, 0, 0.00000000000000000000e+00) (0, 0, 0.00000000000000000000e+00) (0, 0, 0.00000000000000000000e+00) (0, 0, 0.00000000000000000000e+00) (0, 0, 0.00000000000000000000e+00) (0, 0, 0.00000000000000000000e+00) (0, 0, 0.00000000000000000000e+00) (0, 0, 0.00000000000000000000e+00) (0, 0, 0.00000000000000000000e+00) (0, 0, 0.00000000000000000000e+00) (0, 0, 0.00000000000000000000e+00) (0, 0, 0.00000000000000000000e+00) (0, 0, 0.00000000000000000000e+00) (0, 0, 0.00000000000000000000e+00) (0, 0, 0.00000000000000000000e+00) (0, 0, 0.00000000000000000000e+00) (0, 0, 0.00000000000000000000e+00) (0, 0, 0.00000000000000000000e+00) (0, 0, 0.00000000000000000000e+00) (0, 0, 0.00000000000000000000e+00) (0, 0, 0.00000000000000000000e+00) (0, 0, 0.00000000000000000000e+00) (0, 0, 0.00000000000000000000e+00) (0, 0, 0.00000000000000000000e+00) (0, 0, 0.00000000000000000000e+00) (0, 0, 0.00000000000000000000e+00) (0, 0, 0.00000000000000000000e+00) (0, 0, 0.00000000000000000000e+00) (0, 0, 0.00000000000000000000e+00) (0, 0, 0.00000000000000000000e+00) (0, 0, 0.00000000000000000000e+00) (0, 0, 0.00000000000000000000e+00) (0, 0, 0.00000000000000000000e+00) (0, 0, 0.00000000000000000000e+00) (0, 0, 0.00000000000000000000e+00) (0, 0, 0.00000000000000000000e+00) (0, 0, 0.00000000000000000000e+00) (0, 0, 0.00000000000000000000e+00) (0, 0, 0.00000000000000000000e+00) (0, 0, 0.00000000000000000000e+00) (0, 0, 0.00000000000000000000e+00) (0, 0, 0.00000000000000000000e+00) (0, 0, 0.00000000000000000000e+00) (0, 0, 0.00000000000000000000e+00) (0, 0, 0.00000000000000000000e+00) (0, 0, 0.00000000000000000000e+00) (0, 0, 0.00000000000000000000e+00) (0, 0, 0.00000000000000000000e+00) (0, 0, 0.00000000000000000000e+00) (0, 0, 0.00000000000000000000e+00) (0, 0, 0.00000000000000000000e+00) (0, 0, 0.00000000000000000000e+00) (0, 0, 0.00000000000000000000e+00) (0, 0, 0.00000000000000000000e+00) (0, 0, 0.00000000000000000000e+00) (0, 0, 0.00000000000000000000e+00) (0, 0, 0.00000000000000000000e+00) (0, 0, 0.00000000000000000000e+00) (0, 0, 0.00000000000000000000e+00) (0, 0, 0.00000000000000000000e+00) (0, 0, 0.00000000000000000000e+00) (0, 0, 0.00000000000000000000e+00) (0, 0, 0.00000000000000000000e+00) (0, 0, 0.00000000000000000000e+00) (0, 0, 0.00000000000000000000e+00) (0, 0, 0.00000000000000000000e+00) (0, 0, 0.00000000000000000000e+00) (0, 0, 0.00000000000000000000e+00) (0, 0, 0.00000000000000000000e+00) (0, 0, 0.00000000000000000000e+00) (0, 0, 0.00000000000000000000e+00) (0, 0, 0.00000000000000000000e+00) (0, 0, 0.00000000000000000000e+00) (0, 0, 0.00000000000000000000e+00) (0, 0, 0.00000000000000000000e+00) (0, 0, 0.00000000000000000000e+00) (0, 0, 0.00000000000000000000e+00) (0, 0, 0.00000000000000000000e+00) (0, 0, 0.00000000000000000000e+00) (0, 0, 0.00000000000000000000e+00) (0, 0, 0.00000000000000000000e+00) (0, 0, 0.00000000000000000000e+00) (0, 0, 0.00000000000000000000e+00) (0, 0, 0.00000000000000000000e+00) (0, 0, 0.00000000000000000000e+00) (0, 0, 0.00000000000000000000e+00) (0, 0, 0.00000000000000000000e+00) (0, 0, 0.00000000000000000000e+00) (0, 0, 0.00000000000000000000e+00) (0, 0, 0.00000000000000000000e+00) (0, 0, 0.00000000000000000000e+00) (0, 0, 0.00000000000000000000e+00) (0, 0, 0.00000000000000000000e+00) (0, 0, 0.00000000000000000000e+00) (0, 0, 0.00000000000000000000e+00) (0, 0, 0.00000000000000000000e+00) (0, 0, 0.00000000000000000000e+00) (0, 0, 0.00000000000000000000e+00) (0, 0, 0.00000000000000000000e+00) (0, 0, 0.00000000000000000000e+00) (0, 0, 0.00000000000000000000e+00) (0, 0, 0.00000000000000000000e+00) (0, 0, 0.00000000000000000000e+00) (0, 0, 0.00000000000000000000e+00) (0, 0, 0.00000000000000000000e+00) (0, 0, 0.00000000000000000000e+00) (0, 0, 0.00000000000000000000e+00) (0, 0, 0.00000000000000000000e+00) (0, 0, 0.00000000000000000000e+00) (0, 0, 0.00000000000000000000e+00) (0, 0, 0.00000000000000000000e+00) (0, 0, 0.00000000000000000000e+00) (0, 0, 0.00000000000000000000e+00) (0, 0, 0.00000000000000000000e+00) (0, 0, 0.00000000000000000000e+00) (0, 0, 0.00000000000000000000e+00) (0, 0, 0.00000000000000000000e+00) (0, 0, 0.00000000000000000000e+00) (0, 0, 0.00000000000000000000e+00) (0, 0, 0.00000000000000000000e+00) (0, 0, 0.00000000000000000000e+00) (0, 0, 0.00000000000000000000e+00) (0, 0, 0.00000000000000000000e+00) (0, 0, 0.00000000000000000000e+00) (0, 0, 0.00000000000000000000e+00) (0, 0, 0.00000000000000000000e+00) (0, 0, 0.00000000000000000000e+00) (0, 0, 0.00000000000000000000e+00) (0, 0, 0.00000000000000000000e+00) (0, 0, 0.00000000000000000000e+00) (0, 0, 0.00000000000000000000e+00) (0, 0, 0.00000000000000000000e+00) (0, 0, 0.00000000000000000000e+00) (0, 0, 0.00000000000000000000e+00) (0, 0, 0.00000000000000000000e+00) (0, 0, 0.00000000000000000000e+00) (0, 0, 0.00000000000000000000e+00) (0, 0, 0.00000000000000000000e+00) (0, 0, 0.00000000000000000000e+00) (0, 0, 0.00000000000000000000e+00) (0, 0, 0.00000000000000000000e+00) (0, 0, 0.00000000000000000000e+00) (0, 0, 0.00000000000000000000e+00) (0, 0, 0.00000000000000000000e+00) (0, 0, 0.00000000000000000000e+00) (0, 0, 0.00000000000000000000e+00) (0, 0, 0.00000000000000000000e+00) (0, 0, 0.00000000000000000000e+00) (0, 0, 0.00000000000000000000e+00) (0, 0, 0.00000000000000000000e+00) (0, 0, 0.00000000000000000000e+00) (0, 0, 0.00000000000000000000e+00) (0, 0, 0.00000000000000000000e+00) (0, 0, 0.00000000000000000000e+00) (0, 0, 0.00000000000000000000e+00) (0, 0, 0.00000000000000000000e+00) (0, 0, 0.00000000000000000000e+00) (0, 0, 0.00000000000000000000e+00) (0, 0, 0.00000000000000000000e+00) (0, 0, 0.00000000000000000000e+00) (0, 0, 0.00000000000000000000e+00) (0, 0, 0.00000000000000000000e+00) (0, 0, 0.00000000000000000000e+00) (0, 0, 0.00000000000000000000e+00) (0, 0, 0.00000000000000000000e+00) (0, 0, 0.00000000000000000000e+00) (0, 0, 0.00000000000000000000e+00) (0, 0, 0.00000000000000000000e+00) (0, 0, 0.00000000000000000000e+00) (0, 0, 0.00000000000000000000e+00) (0, 0, 0.00000000000000000000e+00) (0, 0, 0.00000000000000000000e+00) (0, 0, 0.00000000000000000000e+00) (0, 0, 0.00000000000000000000e+00) (0, 0, 0.00000000000000000000e+00) (0, 0, 0.00000000000000000000e+00) (0, 0, 0.00000000000000000000e+00) (0, 0, 0.00000000000000000000e+00) (0, 0, 0.00000000000000000000e+00) (0, 0, 0.00000000000000000000e+00) (0, 0, 0.00000000000000000000e+00) (0, 0, 0.00000000000000000000e+00) (0, 0, 0.00000000000000000000e+00) (0, 0, 0.00000000000000000000e+00) (0, 0, 0.00000000000000000000e+00) (0, 0, 0.00000000000000000000e+00) (0, 0, 0.00000000000000000000e+00) (0, 0, 0.00000000000000000000e+00) (0, 0, 0.00000000000000000000e+00) (0, 0, 0.00000000000000000000e+00) (0, 0, 0.00000000000000000000e+00) (0, 0, 0.00000000000000000000e+00) (0, 0, 0.00000000000000000000e+00) (0, 0, 0.00000000000000000000e+00) (0, 0, 0.00000000000000000000e+00) (0, 0, 0.00000000000000000000e+00) (0, 0, 0.00000000000000000000e+00) (0, 0, 0.00000000000000000000e+00) (0, 0, 0.00000000000000000000e+00) (0, 0, 0.00000000000000000000e+00) (0, 0, 0.00000000000000000000e+00) (0, 0, 0.00000000000000000000e+00) (0, 0, 0.00000000000000000000e+00) (0, 0, 0.00000000000000000000e+00) (0, 0, 0.00000000000000000000e+00) (0, 0, 0.00000000000000000000e+00) (0, 0, 0.00000000000000000000e+00) (0, 0, 0.00000000000000000000e+00) (0, 0, 0.00000000000000000000e+00) (0, 0, 0.00000000000000000000e+00) (0, 0, 0.00000000000000000000e+00) (0, 0, 0.00000000000000000000e+00) (0, 0, 0.00000000000000000000e+00) (0, 0, 0.00000000000000000000e+00) (0, 0, 0.00000000000000000000e+00) (0, 0, 0.00000000000000000000e+00) (0, 0, 0.00000000000000000000e+00) (0, 0, 0.00000000000000000000e+00) (0, 0, 0.00000000000000000000e+00) (0, 0, 0.00000000000000000000e+00) (0, 0, 0.00000000000000000000e+00) (0, 0, 0.00000000000000000000e+00) (0, 0, 0.00000000000000000000e+00) (0, 0, 0.00000000000000000000e+00) (0, 0, 0.00000000000000000000e+00) (0, 0, 0.00000000000000000000e+00) (0, 0, 0.00000000000000000000e+00) (0, 0, 0.00000000000000000000e+00) (0, 0, 0.00000000000000000000e+00) (0, 0, 0.00000000000000000000e+00) (0, 0, 0.00000000000000000000e+00) (0, 0, 0.00000000000000000000e+00) (0, 0, 0.00000000000000000000e+00) (0, 0, 0.00000000000000000000e+00) (0, 0, 0.00000000000000000000e+00) (0, 0, 0.00000000000000000000e+00) (0, 0, 0.00000000000000000000e+00) (0, 0, 0.00000000000000000000e+00) (0, 0, 0.00000000000000000000e+00) (0, 0, 0.00000000000000000000e+00) (0, 0, 0.00000000000000000000e+00) (0, 0, 0.00000000000000000000e+00) (0, 0, 0.00000000000000000000e+00) (0, 0, 0.00000000000000000000e+00) (0, 0, 0.00000000000000000000e+00) (0, 0, 0.00000000000000000000e+00) (0, 0, 0.00000000000000000000e+00) (0, 0, 0.00000000000000000000e+00) (0, 0, 0.00000000000000000000e+00) (0, 0, 0.00000000000000000000e+00) (0, 0, 0.00000000000000000000e+00) (0, 0, 0.00000000000000000000e+00) (0, 0, 0.00000000000000000000e+00) (0, 0, 0.00000000000000000000e+00) (0, 0, 0.00000000000000000000e+00) (0, 0, 0.00000000000000000000e+00) (0, 0, 0.00000000000000000000e+00) (0, 0, 0.00000000000000000000e+00) (0, 0, 0.00000000000000000000e+00) (0, 0, 0.00000000000000000000e+00) (0, 0, 0.00000000000000000000e+00) (0, 0, 0.00000000000000000000e+00) (0, 0, 0.00000000000000000000e+00) (0, 0, 0.00000000000000000000e+00) (0, 0, 0.00000000000000000000e+00) (0, 0, 0.00000000000000000000e+00) (0, 0, 0.00000000000000000000e+00) (0, 0, 0.00000000000000000000e+00) (0, 0, 0.00000000000000000000e+00) (0, 0, 0.00000000000000000000e+00) (0, 0, 0.00000000000000000000e+00) (0, 0, 0.00000000000000000000e+00) (0, 0, 0.00000000000000000000e+00) (0, 0, 0.00000000000000000000e+00) (0, 0, 0.00000000000000000000e+00) (0, 0, 0.00000000000000000000e+00) (0, 0, 0.00000000000000000000e+00) (0, 0, 0.00000000000000000000e+00) (0, 0, 0.00000000000000000000e+00) (0, 0, 0.00000000000000000000e+00) (0, 0, 0.00000000000000000000e+00) (0, 0, 0.00000000000000000000e+00) (0, 0, 0.00000000000000000000e+00) (0, 0, 0.00000000000000000000e+00) (0, 0, 0.00000000000000000000e+00) (0, 0, 0.00000000000000000000e+00) (0, 0, 0.00000000000000000000e+00) (0, 0, 0.00000000000000000000e+00) (0, 0, 0.00000000000000000000e+00) (0, 0, 0.00000000000000000000e+00) (0, 0, 0.00000000000000000000e+00) (0, 0, 0.00000000000000000000e+00) (0, 0, 0.00000000000000000000e+00) (0, 0, 0.00000000000000000000e+00) (0, 0, 0.00000000000000000000e+00) (0, 0, 0.00000000000000000000e+00) (0, 0, 0.00000000000000000000e+00) (0, 0, 0.00000000000000000000e+00) (0, 0, 0.00000000000000000000e+00) (0, 0, 0.00000000000000000000e+00) (0, 0, 0.00000000000000000000e+00) (0, 0, 0.00000000000000000000e+00) (0, 0, 0.00000000000000000000e+00) (0, 0, 0.00000000000000000000e+00) (0, 0, 0.00000000000000000000e+00) (0, 0, 0.00000000000000000000e+00) (0, 0, 0.00000000000000000000e+00) (0, 0, 0.00000000000000000000e+00) (0, 0, 0.00000000000000000000e+00) (0, 0, 0.00000000000000000000e+00) (0, 0, 0.00000000000000000000e+00) (0, 0, 0.00000000000000000000e+00) (0, 0, 0.00000000000000000000e+00) (0, 0, 0.00000000000000000000e+00) (0, 0, 0.00000000000000000000e+00) (0, 0, 0.00000000000000000000e+00) (0, 0, 0.00000000000000000000e+00) (0, 0, 0.00000000000000000000e+00) (0, 0, 0.00000000000000000000e+00) (0, 0, 0.00000000000000000000e+00) (0, 0, 0.00000000000000000000e+00) (0, 0, 0.00000000000000000000e+00) (0, 0, 0.00000000000000000000e+00) (0, 0, 0.00000000000000000000e+00) (0, 0, 0.00000000000000000000e+00) (0, 0, 0.00000000000000000000e+00) (0, 0, 0.00000000000000000000e+00) (0, 0, 0.00000000000000000000e+00) (0, 0, 0.00000000000000000000e+00) (0, 0, 0.00000000000000000000e+00) (0, 0, 0.00000000000000000000e+00) (0, 0, 0.00000000000000000000e+00) (0, 0, 0.00000000000000000000e+00) (0, 0, 0.00000000000000000000e+00) (0, 0, 0.00000000000000000000e+00) (0, 0, 0.00000000000000000000e+00) (0, 0, 0.00000000000000000000e+00) (0, 0, 0.00000000000000000000e+00) (0, 0, 0.00000000000000000000e+00) (0, 0, 0.00000000000000000000e+00) (0, 0, 0.00000000000000000000e+00) (0, 0, 0.00000000000000000000e+00) (0, 0, 0.00000000000000000000e+00) (0, 0, 0.00000000000000000000e+00) (0, 0, 0.00000000000000000000e+00) (0, 0, 0.00000000000000000000e+00) (0, 0, 0.00000000000000000000e+00) (0, 0, 0.00000000000000000000e+00) (0, 0, 0.00000000000000000000e+00) (0, 0, 0.00000000000000000000e+00) (0, 0, 0.00000000000000000000e+00) (0, 0, 0.00000000000000000000e+00) (0, 0, 0.00000000000000000000e+00) (0, 0, 0.00000000000000000000e+00) (0, 0, 0.00000000000000000000e+00) (0, 0, 0.00000000000000000000e+00) (0, 0, 0.00000000000000000000e+00) (0, 0, 0.00000000000000000000e+00) (0, 0, 0.00000000000000000000e+00) (0, 0, 0.00000000000000000000e+00) (0, 0, 0.00000000000000000000e+00) (0, 0, 0.00000000000000000000e+00) (0, 0, 0.00000000000000000000e+00) (0, 0, 0.00000000000000000000e+00) (0, 0, 0.00000000000000000000e+00) (0, 0, 0.00000000000000000000e+00) (0, 0, 0.00000000000000000000e+00) (0, 0, 0.00000000000000000000e+00) (0, 0, 0.00000000000000000000e+00) (0, 0, 0.00000000000000000000e+00) (0, 0, 0.00000000000000000000e+00) (0, 0, 0.00000000000000000000e+00) (0, 0, 0.00000000000000000000e+00) (0, 0, 0.00000000000000000000e+00) (0, 0, 0.00000000000000000000e+00) (0, 0, 0.00000000000000000000e+00) (0, 0, 0.00000000000000000000e+00) (0, 0, 0.00000000000000000000e+00) (0, 0, 0.00000000000000000000e+00) (0, 0, 0.00000000000000000000e+00) (0, 0, 0.00000000000000000000e+00) (0, 0, 0.00000000000000000000e+00) (0, 0, 0.00000000000000000000e+00) (0, 0, 0.00000000000000000000e+00) (0, 0, 0.00000000000000000000e+00) (0, 0, 0.00000000000000000000e+00) (0, 0, 0.00000000000000000000e+00) (0, 0, 0.00000000000000000000e+00) (0, 0, 0.00000000000000000000e+00) (0, 0, 0.00000000000000000000e+00) (0, 0, 0.00000000000000000000e+00) (0, 0, 0.00000000000000000000e+00) (0, 0, 0.00000000000000000000e+00) (0, 0, 0.00000000000000000000e+00) (0, 0, 0.00000000000000000000e+00) (0, 0, 0.00000000000000000000e+00) (0, 0, 0.00000000000000000000e+00) (0, 0, 0.00000000000000000000e+00) (0, 0, 0.00000000000000000000e+00) (0, 0, 0.00000000000000000000e+00) (0, 0, 0.00000000000000000000e+00) (0, 0, 0.00000000000000000000e+00) (0, 0, 0.00000000000000000000e+00) (0, 0, 0.00000000000000000000e+00) (0, 0, 0.00000000000000000000e+00) (0, 0, 0.00000000000000000000e+00) (0, 0, 0.00000000000000000000e+00) (0, 0, 0.00000000000000000000e+00) (0, 0, 0.00000000000000000000e+00) (0, 0, 0.00000000000000000000e+00) (0, 0, 0.00000000000000000000e+00) (0, 0, 0.00000000000000000000e+00) (0, 0, 0.00000000000000000000e+00) (0, 0, 0.00000000000000000000e+00) (0, 0, 0.00000000000000000000e+00) (0, 0, 0.00000000000000000000e+00) (0, 0, 0.00000000000000000000e+00) (0, 0, 0.00000000000000000000e+00) (0, 0, 0.00000000000000000000e+00) (0, 0, 0.00000000000000000000e+00) (0, 0, 0.00000000000000000000e+00) (0, 0, 0.00000000000000000000e+00) (0, 0, 0.00000000000000000000e+00) (0, 0, 0.00000000000000000000e+00) (0, 0, 0.00000000000000000000e+00) (0, 0, 0.00000000000000000000e+00) (0, 0, 0.00000000000000000000e+00) (0, 0, 0.00000000000000000000e+00) (0, 0, 0.00000000000000000000e+00) (0, 0, 0.00000000000000000000e+00) (0, 0, 0.00000000000000000000e+00) (0, 0, 0.00000000000000000000e+00) (0, 0, 0.00000000000000000000e+00) (0, 0, 0.00000000000000000000e+00) (0, 0, 0.00000000000000000000e+00) (0, 0, 0.00000000000000000000e+00) (0, 0, 0.00000000000000000000e+00) (0, 0, 0.00000000000000000000e+00) (0, 0, 0.00000000000000000000e+00) (0, 0, 0.00000000000000000000e+00) (0, 0, 0.00000000000000000000e+00) (0, 0, 0.00000000000000000000e+00) (0, 0, 0.00000000000000000000e+00) (0, 0, 0.00000000000000000000e+00) (0, 0, 0.00000000000000000000e+00) (0, 0, 0.00000000000000000000e+00) (0, 0, 0.00000000000000000000e+00) (0, 0, 0.00000000000000000000e+00) (0, 0, 0.00000000000000000000e+00) (0, 0, 0.00000000000000000000e+00) (0, 0, 0.00000000000000000000e+00) (0, 0, 0.00000000000000000000e+00) (0, 0, 0.00000000000000000000e+00) (0, 0, 0.00000000000000000000e+00) (0, 0, 0.00000000000000000000e+00) (0, 0, 0.00000000000000000000e+00) (0, 0, 0.00000000000000000000e+00) (0, 0, 0.00000000000000000000e+00) (0, 0, 0.00000000000000000000e+00) (0, 0, 0.00000000000000000000e+00) (0, 0, 0.00000000000000000000e+00) (0, 0, 0.00000000000000000000e+00) (0, 0, 0.00000000000000000000e+00) (0, 0, 0.00000000000000000000e+00) (0, 0, 0.00000000000000000000e+00) (0, 0, 0.00000000000000000000e+00) (0, 0, 0.00000000000000000000e+00) (0, 0, 0.00000000000000000000e+00) (0, 0, 0.00000000000000000000e+00) (0, 0, 0.00000000000000000000e+00) (0, 0, 0.00000000000000000000e+00) (0, 0, 0.00000000000000000000e+00) (0, 0, 0.00000000000000000000e+00) (0, 0, 0.00000000000000000000e+00) (0, 0, 0.00000000000000000000e+00) (0, 0, 0.00000000000000000000e+00) (0, 0, 0.00000000000000000000e+00) (0, 0, 0.00000000000000000000e+00) (0, 0, 0.00000000000000000000e+00) (0, 0, 0.00000000000000000000e+00) (0, 0, 0.00000000000000000000e+00) (0, 0, 0.00000000000000000000e+00) (0, 0, 0.00000000000000000000e+00) (0, 0, 0.00000000000000000000e+00) (0, 0, 0.00000000000000000000e+00) (0, 0, 0.00000000000000000000e+00) (0, 0, 0.00000000000000000000e+00) (0, 0, 0.00000000000000000000e+00) (0, 0, 0.00000000000000000000e+00) (0, 0, 0.00000000000000000000e+00) (0, 0, 0.00000000000000000000e+00) (0, 0, 0.00000000000000000000e+00) (0, 0, 0.00000000000000000000e+00) (0, 0, 0.00000000000000000000e+00) (0, 0, 0.00000000000000000000e+00) (0, 0, 0.00000000000000000000e+00) (0, 0, 0.00000000000000000000e+00) (0, 0, 0.00000000000000000000e+00) (0, 0, 0.00000000000000000000e+00) (0, 0, 0.00000000000000000000e+00) (0, 0, 0.00000000000000000000e+00) (0, 0, 0.00000000000000000000e+00) (0, 0, 0.00000000000000000000e+00) (0, 0, 0.00000000000000000000e+00) (0, 0, 0.00000000000000000000e+00) (0, 0, 0.00000000000000000000e+00) (0, 0, 0.00000000000000000000e+00) (0, 0, 0.00000000000000000000e+00) (0, 0, 0.00000000000000000000e+00) (0, 0, 0.00000000000000000000e+00) (0, 0, 0.00000000000000000000e+00) (0, 0, 0.00000000000000000000e+00) (0, 0, 0.00000000000000000000e+00) (0, 0, 0.00000000000000000000e+00) (0, 0, 0.00000000000000000000e+00) (0, 0, 0.00000000000000000000e+00) (0, 0, 0.00000000000000000000e+00) (0, 0, 0.00000000000000000000e+00) (0, 0, 0.00000000000000000000e+00) (0, 0, 0.00000000000000000000e+00) (0, 0, 0.00000000000000000000e+00) (0, 0, 0.00000000000000000000e+00) (0, 0, 0.00000000000000000000e+00) (0, 0, 0.00000000000000000000e+00) (0, 0, 0.00000000000000000000e+00) (0, 0, 0.00000000000000000000e+00) (0, 0, 0.00000000000000000000e+00) (0, 0, 0.00000000000000000000e+00) (0, 0, 0.00000000000000000000e+00) (0, 0, 0.00000000000000000000e+00) (0, 0, 0.00000000000000000000e+00) (0, 0, 0.00000000000000000000e+00) (0, 0, 0.00000000000000000000e+00) (0, 0, 0.00000000000000000000e+00) (0, 0, 0.00000000000000000000e+00) (0, 0, 0.00000000000000000000e+00) (0, 0, 0.00000000000000000000e+00) (0, 0, 0.00000000000000000000e+00) (0, 0, 0.00000000000000000000e+00) (0, 0, 0.00000000000000000000e+00) (0, 0, 0.00000000000000000000e+00) (0, 0, 0.00000000000000000000e+00) (0, 0, 0.00000000000000000000e+00) (0, 0, 0.00000000000000000000e+00) (0, 0, 0.00000000000000000000e+00) (0, 0, 0.00000000000000000000e+00) (0, 0, 0.00000000000000000000e+00) (0, 0, 0.00000000000000000000e+00) (0, 0, 0.00000000000000000000e+00) (0, 0, 0.00000000000000000000e+00) (0, 0, 0.00000000000000000000e+00) (0, 0, 0.00000000000000000000e+00) (0, 0, 0.00000000000000000000e+00) (0, 0, 0.00000000000000000000e+00) (0, 0, 0.00000000000000000000e+00) (0, 0, 0.00000000000000000000e+00) (0, 0, 0.00000000000000000000e+00) (0, 0, 0.00000000000000000000e+00) (0, 0, 0.00000000000000000000e+00) (0, 0, 0.00000000000000000000e+00) (0, 0, 0.00000000000000000000e+00) (0, 0, 0.00000000000000000000e+00) (0, 0, 0.00000000000000000000e+00) (0, 0, 0.00000000000000000000e+00) (0, 0, 0.00000000000000000000e+00) (0, 0, 0.00000000000000000000e+00) (0, 0, 0.00000000000000000000e+00) (0, 0, 0.00000000000000000000e+00) (0, 0, 0.00000000000000000000e+00) (0, 0, 0.00000000000000000000e+00) (0, 0, 0.00000000000000000000e+00) (0, 0, 0.00000000000000000000e+00) (0, 0, 0.00000000000000000000e+00) (0, 0, 0.00000000000000000000e+00) (0, 0, 0.00000000000000000000e+00) (0, 0, 0.00000000000000000000e+00) (0, 0, 0.00000000000000000000e+00) (0, 0, 0.00000000000000000000e+00) (0, 0, 0.00000000000000000000e+00) (0, 0, 0.00000000000000000000e+00) (0, 0, 0.00000000000000000000e+00) (0, 0, 0.00000000000000000000e+00) (0, 0, 0.00000000000000000000e+00) (0, 0, 0.00000000000000000000e+00) (0, 0, 0.00000000000000000000e+00) (0, 0, 0.00000000000000000000e+00) (736, 3, 5.00000000000000000000e-01) (736, 3, 5.00000000000000000000e-01) (736, 3, 5.00000000000000000000e-01) (736, 3, 5.00000000000000000000e-01) (736, 3, 5.00000000000000000000e-01) (736, 3, 5.00000000000000000000e-01) (736, 3, 5.00000000000000000000e-01) (736, 3, 5.00000000000000000000e-01) (736, 3, 5.00000000000000000000e-01) (736, 3, 5.00000000000000000000e-01) (736, 3, 5.00000000000000000000e-01) (736, 3, 5.00000000000000000000e-01) (736, 3, 5.00000000000000000000e-01) (736, 3, 5.00000000000000000000e-01) (736, 3, 5.00000000000000000000e-01) (736, 3, 5.00000000000000000000e-01) (736, 3, 5.00000000000000000000e-01) (736, 3, 5.00000000000000000000e-01) (736, 3, 5.00000000000000000000e-01) (736, 3, 5.00000000000000000000e-01) (736, 3, 5.00000000000000000000e-01) (736, 3, 5.00000000000000000000e-01) (736, 3, 5.00000000000000000000e-01) (736, 3, 5.00000000000000000000e-01) (736, 3, 5.00000000000000000000e-01) (736, 3, 5.00000000000000000000e-01) (736, 3, 5.00000000000000000000e-01) (736, 3, 5.00000000000000000000e-01) (736, 3, 5.00000000000000000000e-01) (736, 3, 5.00000000000000000000e-01) (736, 3, 5.00000000000000000000e-01) (736, 3, 5.00000000000000000000e-01) (736, 3, 5.00000000000000000000e-01) (736, 3, 5.00000000000000000000e-01) (736, 3, 5.00000000000000000000e-01) (736, 3, 5.00000000000000000000e-01) (736, 3, 5.00000000000000000000e-01) (736, 3, 5.00000000000000000000e-01) (736, 3, 5.00000000000000000000e-01) (736, 3, 5.00000000000000000000e-01) (736, 3, 5.00000000000000000000e-01) (736, 3, 5.00000000000000000000e-01) (736, 3, 5.00000000000000000000e-01) (736, 3, 5.00000000000000000000e-01) (736, 3, 5.00000000000000000000e-01) (736, 3, 5.00000000000000000000e-01) (736, 3, 5.00000000000000000000e-01) (736, 3, 5.00000000000000000000e-01) (736, 3, 5.00000000000000000000e-01) (736, 3, 5.00000000000000000000e-01) (736, 3, 5.00000000000000000000e-01) (736, 3, 5.00000000000000000000e-01) (736, 3, 5.00000000000000000000e-01) (736, 3, 5.00000000000000000000e-01) (736, 3, 5.00000000000000000000e-01) (736, 3, 5.00000000000000000000e-01) (736, 3, 5.00000000000000000000e-01) (736, 3, 5.00000000000000000000e-01) (736, 3, 5.00000000000000000000e-01) (736, 3, 5.00000000000000000000e-01) (736, 3, 5.00000000000000000000e-01) (736, 3, 5.00000000000000000000e-01) (736, 3, 5.00000000000000000000e-01) (736, 3, 5.00000000000000000000e-01) (736, 3, 5.00000000000000000000e-01) (736, 3, 5.00000000000000000000e-01) (736, 3, 5.00000000000000000000e-01) (736, 3, 5.00000000000000000000e-01) (736, 3, 5.00000000000000000000e-01) (736, 3, 5.00000000000000000000e-01) (736, 3, 5.00000000000000000000e-01) (736, 3, 5.00000000000000000000e-01) (736, 3, 5.00000000000000000000e-01) (736, 3, 5.00000000000000000000e-01) (736, 3, 5.00000000000000000000e-01) (736, 3, 5.00000000000000000000e-01) (736, 3, 5.00000000000000000000e-01) (736, 3, 5.00000000000000000000e-01) (736, 3, 5.00000000000000000000e-01) (736, 3, 5.00000000000000000000e-01) (736, 3, 5.00000000000000000000e-01) (736, 3, 5.00000000000000000000e-01) (736, 3, 5.00000000000000000000e-01) (736, 3, 5.00000000000000000000e-01) (736, 3, 5.00000000000000000000e-01) (736, 3, 5.00000000000000000000e-01) (736, 3, 5.00000000000000000000e-01) (736, 3, 5.00000000000000000000e-01) (736, 3, 5.00000000000000000000e-01) (736, 3, 5.00000000000000000000e-01) (736, 3, 5.00000000000000000000e-01) (736, 3, 5.00000000000000000000e-01) (736, 3, 5.00000000000000000000e-01) (736, 3, 5.00000000000000000000e-01) (736, 3, 5.00000000000000000000e-01) (736, 3, 5.00000000000000000000e-01) (736, 3, 5.00000000000000000000e-01) (736, 3, 5.00000000000000000000e-01) (736, 3, 5.00000000000000000000e-01) (736, 3, 5.00000000000000000000e-01) (0, 3, 0.00000000000000000000e+00) (101, 3, 5.00000000000000000000e-01) (101, 3, 5.00000000000000000000e-01) (101, 3, 5.00000000000000000000e-01) (0, 3, 0.00000000000000000000e+00) 
connections (connected_to_neuron, weight)=(0, -8.23679039901020343395e-02) (1, -1.20440674634172920077e-01) (2, -3.73620277767566007915e-03) (3, -6.29453606686139616189e-02) (4, -2.84649074120325931703e-02) (5, -1.25885868961327612725e-01) (6, 1.81871151362518780614e-02) (7, 8.60537847374411440926e-02) (8, -1.49336329439284324488e-02) (9, 2.44504366220216276528e-02) (10, 1.46029231655374260729e-02) (11, -1.28299162182628961881e-01) (12, 5.03447412303905036945e-02) (13, -7.08217267696477081884e-02) (14, 8.57706924370505302546e-02) (15, 8.52864626017749843934e-02) (16, 1.03685738879845723570e-01) (17, -2.50218104389571330270e-02) (18, -4.17010200996561566922e-02) (19, -1.69492147332084633349e-02) (20, 1.61324079348122324806e-02) (21, -2.90166396821962713215e-01) (22, -8.46034101183356507248e-02) (23, 1.81055971060364834235e-01) (24, 8.52156622147440812043e-02) (25, -9.47898226706574975609e-02) (26, -6.08675417764090107009e-02) (27, 5.12356084192107236186e-02) (28, 1.54718110919588990732e-02) (29, -4.11562643831499611058e-02) (30, 3.02268485351847582265e-02) (31, 2.90967219861138048920e-01) (32, 3.97724671444083799354e-02) (33, 1.41884479331178758876e-01) (34, -5.38554650116941022175e-02) (35, 2.31640758991643290476e-02) (36, -2.69265865438395660125e-02) (37, -7.94155300085698512280e-02) (38, 3.84877935871163687209e-02) (39, 6.12997621884764989919e-02) (40, -5.34166939679223476412e-03) (41, 7.53079785692416653342e-02) (42, 2.32569144667312162345e-02) (43, 3.47751061759144219909e-02) (44, -4.31420525806655921763e-02) (45, 1.00871477513837140561e-01) (46, -6.75316282538326179141e-02) (47, -6.07569383887100883390e-02) (48, 7.00628160421508383582e-02) (49, 4.87202914658045604934e-02) (50, 5.60171103783993762359e-02) (51, -1.27201901082473062266e-01) (52, -1.58895679222108454631e-01) (53, 1.09507591823498798278e-01) (54, 3.45341873751283043315e-02) (55, 1.51103260595766512170e-02) (56, 1.32105966524487545427e-02) (57, -2.55290604429438648670e-03) (58, 8.17958162918769327021e-02) (59, 7.20789741372774295236e-02) (60, -7.32661562638585728280e-02) (61, 1.20709234276770188687e-01) (62, -8.97003361001426496868e-02) (63, 4.47593698119416946724e-02) (64, -2.19033321538133173012e-02) (65, -1.03415092661800933627e-01) (66, 1.06691981286215223368e-01) (67, 4.94770938971730647737e-02) (68, 5.96907300214314859299e-02) (69, 7.32272609404953922496e-02) (70, 5.62429022481697113434e-02) (71, -7.54485133126394924563e-02) (72, -6.94615985485860232274e-02) (73, 5.57084369897123399262e-02) (74, -8.58832932380282493279e-02) (75, -6.50862330636419461616e-02) (76, 7.78731386289471458340e-03) (77, 1.23030907867152511370e-02) (78, 1.65757527400230864068e-01) (79, 1.12735511731214432807e-01) (80, -5.11029525064991066441e-02) (81, -3.46570244360622503610e-02) (82, 3.01083296146390198833e-02) (83, -2.44218192909139361624e-02) (84, 2.59863842202361326750e-02) (85, -1.37612126773177967376e-01) (86, 6.10820241670472288686e-02) (87, -4.60039288690091766054e-02) (88, 7.86580858687450784617e-02) (89, 8.72837642417875758660e-02) (90, 1.16986057412445554338e-01) (91, 3.83252063431030465246e-02) (92, -1.60744731997701145731e-01) (93, 4.56246365163202050041e-02) (94, -1.61550708807722626092e-01) (95, 2.00692970130941332474e-02) (96, 5.08633779912455244454e-02) (97, -7.95086216425551078890e-02) (98, 1.03321754080080971394e-01) (99, 1.37492820707080964926e-01) (100, -1.69122667835594708841e-01) (101, -7.57663076161353005178e-02) (102, -8.21203403996541292376e-03) (103, -9.71712171111989014838e-02) (104, 7.02059179575824504616e-02) (105, -5.15483537706024064207e-03) (106, 9.30294765801226719582e-02) (107, 1.80410881226541921878e-04) (108, -3.40235334359263591475e-02) (109, 2.04058422456122393052e-02) (110, -1.16928058296855924905e-03) (111, -3.94564755101464575970e-02) (112, -2.43669669030017327360e-01) (113, 1.37462941294718116181e-01) (114, -4.04691509869298249313e-02) (115, 3.04859993442521508278e-02) (116, 1.39704056774111351480e-01) (117, 2.97893865979993455184e-02) (118, 5.39386095373810409148e-02) (119, 7.20103275038552897991e-02) (120, -3.18393054436627298553e-02) (121, 4.58293918379555700882e-02) (122, 5.83035645974652183554e-02) (123, 2.81015698008976223810e-02) (124, 7.28491651713160104364e-02) (125, 2.56413907621032971518e-02) (126, 8.44595147009718216768e-02) (127, -8.55525553565354146546e-02) (128, -6.39491748162040740677e-02) (129, -7.28438716721238194163e-02) (130, -9.42947818772792156761e-02) (131, -2.87762062268636341356e-02) (132, -1.75144567877182966154e-01) (133, 1.14001711472172903572e-01) (134, -2.47147662293058893723e-02) (135, 1.75426294786091632738e-02) (136, 4.78248840301308403289e-02) (137, 7.63043772816078685883e-02) (138, 4.41324003596035990826e-02) (139, 6.15962527600310977283e-02) (140, -4.37410242886034639209e-02) (141, -3.28791272463149347738e-02) (142, 3.95552676041477160873e-02) (143, 7.99506117571289337542e-02) (144, 6.21266482650939741439e-02) (145, 1.14706855399193619061e-01) (146, 7.13660246645721613179e-02) (147, 2.33338130640134283622e-02) (148, 4.17121949287551363472e-02) (149, -1.79190309320887489197e-02) (150, 3.31212201959543229082e-03) (151, 6.11735998689560411812e-02) (152, -8.17543709972968768440e-02) (153, 1.97396831567391822793e-01) (154, 7.64508355570741732210e-02) (155, -7.89832378745921638574e-03) (156, -1.35164738710382453801e-01) (157, 8.63562376268180303951e-02) (158, 1.65430211437215569925e-02) (159, 1.08415940478512346640e-02) (160, -2.40656753951468370401e-02) (161, 3.72689661807930894266e-02) (162, 1.43679963825893597384e-01) (163, -4.62761234846999006121e-02) (164, 1.68003353656142745409e-01) (165, 7.72642655368479119860e-02) (166, 6.11220909988658550605e-02) (167, -1.00455724381320180005e-01) (168, 3.92675738122890902182e-02) (169, -9.47747171572238256143e-02) (170, 3.45837318153444719937e-02) (171, 3.10739906168748560022e-02) (172, -1.21020090539188489298e-02) (173, 7.84852820106652360188e-02) (174, 2.42542966810174176473e-02) (175, 7.29887029211701184039e-03) (176, -1.94561255416418957265e-02) (177, 1.37203885141009257476e-01) (178, -3.03969359581007202153e-02) (179, -1.00594387983735628067e-01) (180, -4.32939725838144412462e-02) (181, -3.60974580664554442477e-02) (182, 5.67571136692371150390e-02) (183, -6.40391049977478109267e-03) (184, 1.60177567656652281025e-01) (185, 7.17658009340970404200e-02) (186, 4.61662403358206671622e-02) (187, -4.20653705654914431000e-02) (188, 5.10949220515033580847e-02) (189, -1.29301005494937254481e-01) (190, -2.44382036945950814610e-02) (191, 2.43295662864195204322e-02) (192, -3.90529014980980290761e-02) (193, 2.42018283932402933356e-01) (194, 3.47802426596642080825e-02) (195, 1.23672483643193758390e-02) (196, -4.59417972205160077270e-02) (197, 1.63330563927059219109e-02) (198, 8.09390743851167229761e-03) (199, 2.76623670284890585402e-02) (200, -1.08338333044168275143e-01) (201, 3.72816315086986547860e-04) (202, 1.07266183685304716811e-01) (203, 1.17809432015838891350e-01) (204, 1.08252836214383946212e-01) (205, 2.40152969861927197137e-02) (206, -2.78475383275123312965e-02) (207, -6.73867718508135843392e-02) (208, 2.81966454888430868853e-02) (209, -8.22698199817232384001e-02) (210, -4.89821408863431659308e-02) (211, 2.44631686068160006386e-02) (212, -1.61840870397345709675e-01) (213, 1.20862838437275951775e-01) (214, 3.14325024008635239836e-02) (215, -1.33395146190550960459e-03) (216, -6.62857322519213726375e-02) (217, -4.00856864433851087237e-02) (218, 5.29988252030070897125e-02) (219, 1.46988788253356150726e-01) (220, 8.82404632622271929698e-03) (221, 4.28271404045543618855e-02) (222, -2.21491159221927427780e-02) (223, 3.66827026481279724890e-02) (224, 9.66126648836240914386e-02) (225, 1.24684120146735397117e-01) (226, 5.63024490119821488521e-02) (227, -3.51179858198029173910e-02) (228, -3.77196543238602979842e-02) (229, -6.22597248066402084166e-02) (230, -1.19696145641423112860e-01) (231, -2.19866868506611579104e-02) (232, -9.75082379909819746411e-02) (233, 1.83466556250647061521e-01) (234, 6.52106310505194824989e-02) (235, -3.30908064930011541760e-02) (236, -6.27561661467079673349e-02) (237, -4.82401986687863437719e-02) (238, 4.74875692144312230858e-02) (239, 2.11118910203490245392e-01) (240, 3.39026818323887426179e-03) (241, 9.44851153096664952979e-02) (242, -5.39781327954864525998e-02) (243, 7.76397805632491038591e-03) (244, 6.06138315997759302700e-02) (245, 6.88176800580786451889e-02) (246, 7.12503671402860416784e-02) (247, -4.70603357967427499142e-02) (248, -5.51688498615285523308e-03) (249, -2.15237984075857154143e-03) (250, -1.16089123221784204509e-01) (251, 5.84794785110292619779e-02) (252, -9.02755363877476152412e-02) (253, -6.34552101198665174930e-02) (254, -2.74391003056438029239e-02) (255, 4.36958417481105934610e-02) (256, -3.03376368311504690523e-02) (257, 3.83164723734985349091e-02) (258, 1.43138393694086235586e-01) (259, 1.09679470592611114088e-01) (260, 1.74680688426087027398e-01) (261, 3.18580333780627208973e-02) (262, 7.73721828675349027060e-02) (263, -1.85849868791082492581e-02) (264, 9.16986224722156489930e-02) (265, 1.03421832276664446559e-01) (266, -2.80136165101856626780e-02) (267, -2.37539910915854718398e-01) (268, -5.51805451869764179706e-02) (269, 2.87320824852984359199e-02) (270, -6.03308959489396098852e-02) (271, -2.30889089526422446041e-02) (272, -4.39907702352356280717e-02) (273, -1.91278201383234175426e-01) (274, 2.83621177098474577805e-02) (275, -1.04223295447291114391e-01) (276, -2.03752698016587185936e-01) (277, 2.35801563408995391857e-02) (278, 9.43146292929876589595e-02) (279, -8.25157860758550798508e-02) (280, 6.31149581850155710905e-02) (281, 4.87907564681277217122e-02) (282, 1.03962417463752704316e-01) (283, -9.94443503093144776095e-02) (284, 1.63136970400170416839e-01) (285, 1.76063203737310908226e-01) (286, -4.30832279287434033455e-02) (287, -1.66386328667488814226e-01) (288, -2.64816911599076665329e-01) (289, 9.17726606905188840857e-02) (290, -5.07918894906467452421e-02) (291, -6.31541300023000240493e-02) (292, 8.10020597368678596517e-02) (293, -2.05771745141690526326e-01) (294, 1.28181703685646047886e-01) (295, -2.09710976181513797378e-01) (296, -9.42324562774688734290e-02) (297, -3.94016769159628160724e-03) (298, -2.14171040986064868672e-02) (299, -1.09838317161133153244e-01) (300, -5.59061762995430450163e-02) (301, -1.90381448087574040029e-01) (302, 1.70237358202314226219e-01) (303, -2.76749295320600718906e-01) (304, 1.76283485620782359726e-01) (305, -6.12124403802926028706e-02) (306, -1.65607872342152878664e-01) (307, 2.07781617527382056476e-01) (308, -1.38643514403545442537e-01) (309, 2.10230009329076289459e-01) (310, -1.32213581620517883763e-01) (311, -1.86222990284153899765e-02) (312, 3.80134705335710282315e-02) (313, -1.28878979329428183798e-01) (314, 7.69129595880563565746e-02) (315, -6.05716544957032101970e-02) (316, 8.88788103813886593008e-02) (317, 1.66666302490008598480e-02) (318, -1.35199974733857010423e-02) (319, -1.63481330953720166432e-01) (320, 7.89191032918800348950e-03) (321, -4.44139563551763441596e-02) (322, -7.29936288648379838495e-02) (323, -1.13134835923061990992e-01) (324, 9.33868787055121413188e-02) (325, -1.32243476786306130011e-01) (326, -6.43822841338298895719e-02) (327, 3.24826489926172745637e-01) (328, -8.71363240595438848235e-02) (329, 1.37386532146175383007e-01) (330, -6.88326194869825214173e-02) (331, -2.10590556227693813385e-02) (332, -3.85359621659567830321e-02) (333, -1.29208540265875315017e-02) (334, 8.52403782612196764257e-02) (335, -4.13625649501007663922e-02) (336, 3.20640394850675095051e-02) (337, 7.07615430273123569016e-02) (338, -6.00007730169644926121e-02) (339, -5.30689721584465742832e-02) (340, 1.46509068658259231088e-02) (341, -7.67648090251318027111e-02) (342, 2.08852681432265645245e-02) (343, -1.59703885663834338482e-01) (344, 9.36129200838827779663e-02) (345, -2.76271912814379586032e-02) (346, -1.08925758292979582564e-01) (347, 4.74452441886361819812e-01) (348, 2.29663299563105764711e-02) (349, 1.01679490836848185342e-01) (350, 7.24714142000255304860e-03) (351, -5.25636138458871263190e-02) (352, -1.07185890909134620697e-01) (353, -2.61371814152693980778e-04) (354, 1.21341613969289992964e-02) (355, 3.77422221771059121509e-02) (356, 1.55666525528592697425e-01) (357, -9.19006201147587117872e-03) (358, 1.96452807871177227705e-02) (359, 5.85267085542995196823e-02) (360, -5.18736522880407918690e-02) (361, -8.79978834587976793680e-02) (362, -6.30165414182512761965e-02) (363, -7.59253677754938710587e-02) (364, 2.88485698223027442477e-02) (365, -2.10791161126932906356e-02) (366, -1.53987800638132416031e-01) (367, 1.50655101518333056632e-01) (368, 6.27105119225758178558e-02) (369, -6.38720128937691755677e-02) (370, 2.05953141546383854121e-03) (371, -2.36809795878558451698e-02) (372, -2.04882853877095039152e-01) (373, 7.31643784566976679296e-02) (374, -2.66994252480035818009e-02) (375, 3.25607748757483633772e-02) (376, 1.73797500934265047867e-01) (377, 6.51664046770110833018e-02) (378, 9.78879442117072534613e-02) (379, 1.00236825389547631882e-01) (380, -1.50829902647268587756e-01) (381, -7.34475548642553044409e-02) (382, -8.21948649023011429504e-02) (383, 2.17764764854417409642e-03) (384, 1.76110798242747508546e-02) (385, 1.53080556146008461837e-01) (386, 1.10524021668774397043e-01) (387, 1.13648412460368650190e-02) (388, 7.46062510607255063855e-02) (389, -6.90617514164603707449e-02) (390, -2.21205382442107821583e-02) (391, 4.38082202936747738820e-02) (392, -1.15036747591647225963e-01) (393, 9.54452279965858907396e-02) (394, -2.40958135724448213599e-02) (395, 5.78942276879148252922e-03) (396, 1.52762112386668869046e-01) (397, 5.33786989018321111899e-02) (398, 4.36972571559602757096e-02) (399, 4.09934381288664939635e-02) (400, -1.30528915840708609197e-01) (401, -2.80672671249350691447e-02) (402, -1.62248422400373395677e-04) (403, -5.09307506575854551656e-02) (404, -5.56869919307902069838e-02) (405, 7.27172295013846781142e-02) (406, 1.43965604619141780002e-02) (407, 1.84230567443591903252e-03) (408, 8.01935094255069036429e-02) (409, -1.00448310590697212352e-01) (410, 5.68612499123688358571e-02) (411, 1.35025159561424717980e-01) (412, -1.25993354232700832673e-01) (413, 1.55728840869778645262e-01) (414, -2.50159378569719016705e-02) (415, 2.00252168069824515451e-02) (416, 1.44828716215318481497e-01) (417, -2.76292751414249117270e-02) (418, -3.25847723298811342563e-02) (419, 2.52968861886924342719e-02) (420, -1.28878220417596001113e-01) (421, -5.83661241914756531712e-02) (422, -2.27479312146305207021e-02) (423, 9.03617148232795236451e-02) (424, 3.10635379454201575322e-02) (425, 8.70151582539052115273e-02) (426, -8.61658456639948638900e-02) (427, -3.78693106600675385986e-02) (428, 1.77450744816358869926e-02) (429, -1.24544070129122014939e-02) (430, 6.83458842908827857165e-02) (431, 1.32193209973885061892e-01) (432, -1.57396804862474509745e-01) (433, 2.00408369278942011249e-01) (434, 1.07160626980331921687e-02) (435, 1.17747305106291930143e-01) (436, 7.73318250492853187517e-02) (437, -6.71269927151409151467e-02) (438, -5.43068016499826528021e-02) (439, -7.58526829062615148835e-02) (440, -1.54602788214276143375e-01) (441, -1.64577358752643149176e-01) (442, 6.27941827976297856084e-03) (443, 8.14333286632964864493e-02) (444, 2.93117311577539424450e-02) (445, 1.06628445949819405936e-01) (446, 2.51193465963637369009e-02) (447, -1.99229007994951412552e-01) (448, -2.51730989896645392101e-03) (449, -5.33799430818859832470e-02) (450, -3.89326946089912639959e-02) (451, 3.44046225412570558233e-02) (452, -1.03459880703560380688e-01) (453, 2.53525303392748979636e-01) (454, 7.69772320040690016807e-02) (455, 4.35408788201001734075e-02) (456, 1.05233013107770154160e-01) (457, 3.19801098562612212683e-02) (458, -1.32525836002528013546e-01) (459, 1.76310319628900126487e-02) (460, -2.13972751027443536254e-01) (461, -4.10585495764973981703e-02) (462, 1.35774607944784103664e-01) (463, 1.99190901637630646270e-01) (464, 5.77662628542374920193e-02) (465, 1.39171040326619838146e-01) (466, -1.21506369510815080692e-02) (467, -5.63631213295546773523e-02) (468, -4.40786827459115834738e-02) (469, -2.05187387310352270520e-02) (470, 8.70278387692290794631e-03) (471, 7.43817953807958953671e-02) (472, -1.48699192705119498381e-01) (473, 1.94761914762627857955e-01) (474, -5.84503704490693751922e-04) (475, 4.23423265911157045704e-02) (476, 1.28623031975764356982e-01) (477, 5.35052368629178182191e-02) (478, -6.08859873743437182703e-02) (479, 5.85745118770221173676e-02) (480, -1.84941567304808707206e-01) (481, -3.53238199427180418755e-02) (482, 1.04624444359702584162e-01) (483, 1.23726183294601936591e-02) (484, 1.84737641827994771015e-02) (485, 3.74711311618597039952e-02) (486, -3.82659928557346068478e-02) (487, -9.41536104336738836895e-03) (488, -1.31566838368514710256e-01) (489, -6.09647909681563723860e-02) (490, 3.13857409660388692041e-02) (491, 6.33216918569199788136e-02) (492, -1.63012774926925008145e-01) (493, 2.74260253965472253213e-02) (494, -4.06279119356020776421e-02) (495, -6.94686823671576275663e-02) (496, 5.57251242614380179474e-02) (497, 1.40492932068764075221e-02) (498, 3.98604046654571775310e-02) (499, 6.48240916901234309755e-02) (500, -1.13296476382520522330e-01) (501, 4.01799223665237972836e-03) (502, -4.05180694694541251866e-02) (503, -3.44220477264774102344e-02) (504, 4.21007870237636964983e-03) (505, -9.88356090665181569177e-02) (506, -1.00873582439748393780e-01) (507, 4.50768380449199368432e-02) (508, -3.24782033643271905721e-02) (509, -1.25846386206037302857e-01) (510, -6.33025039578343114155e-03) (511, 1.19187412007404111569e-01) (512, -9.01458486631052796634e-02) (513, 1.18674109677062614154e-01) (514, 2.63046245828094799046e-02) (515, -4.70836798348326368568e-02) (516, 1.92097950741211206949e-02) (517, -6.22366985754816692822e-02) (518, 7.30428763818605775171e-02) (519, 4.93128200097374125299e-02) (520, -5.60086559570303205158e-02) (521, -4.92741865969121492497e-02) (522, 5.28815921365501859230e-02) (523, -1.11359539668336986890e-02) (524, 3.91843196166230742228e-02) (525, -6.66976899290743635573e-02) (526, -3.47657547537713260133e-02) (527, 1.92308069016815762209e-02) (528, -1.55012581959441009261e-01) (529, -1.94695566506763104164e-02) (530, -2.89079717301395262841e-02) (531, 8.69824123774336210868e-02) (532, -1.45684534144786881349e-01) (533, 1.41988423907293659365e-01) (534, 8.68394130785978858589e-03) (535, 2.55719503682130290534e-02) (536, -3.40757074551336983093e-02) (537, -6.67154195264595406556e-02) (538, 1.71169616846023032140e-03) (539, 4.30295038093946521918e-02) (540, 2.94773191786666700909e-02) (541, -1.41615623806642890875e-02) (542, -5.37540057026969775311e-02) (543, 9.99734482555345721488e-03) (544, 3.13439853448666885805e-02) (545, -1.19700637254222613803e-01) (546, 3.77189743951603650984e-02) (547, 1.40315980890332973885e-02) (548, -6.06923468987848949152e-02) (549, -9.58575861216061503312e-02) (550, 1.67454798950704975002e-02) (551, 2.15931926517900288354e-02) (552, -5.54706925467781872263e-02) (553, -7.52841403653425455395e-03) (554, -9.52822650908887042176e-02) (555, -9.79758979392537920905e-02) (556, -2.32776861101852000635e-02) (557, -2.46729038105906774148e-02) (558, 4.17429472213365349020e-02) (559, -3.44702075642234415098e-02) (560, -5.23587688671280169356e-03) (561, -1.16925799992769821611e-02) (562, -3.55364996983883532633e-02) (563, -1.79068676503289954394e-03) (564, 3.43447747234889230739e-02) (565, -6.64714257195326424510e-02) (566, 2.74604711728692919837e-02) (567, -2.17100495921405158006e-02) (568, -1.29338588693266254293e-01) (569, -9.40178628621979317614e-02) (570, -5.54968601975187048048e-02) (571, -1.30987206932517696867e-01) (572, -2.41073477727561491513e-01) (573, 3.58424161663875376349e-02) (574, -7.65001152796927763600e-02) (575, 4.55247149542562165592e-02) (576, 2.19141977603421050924e-02) (577, 3.85740548385936216080e-02) (578, -6.86003603801371569793e-02) (579, -4.14999768621602885266e-02) (580, -7.27387648321800583950e-02) (581, -1.26739433560973585591e-01) (582, 2.62611442779452156082e-02) (583, -1.75995612320469313472e-01) (584, -8.87985983208872675654e-02) (585, -2.20480352455295819381e-01) (586, -2.67706041183687071250e-01) (587, -1.41598580390150774466e-01) (588, -1.52603884776894321851e-01) (589, 5.81442393634403441316e-03) (590, 3.80226533023554566504e-02) (591, -9.69934708364705022721e-02) (592, -1.21335391468646802693e-01) (593, -4.80343609985780795046e-02) (594, -2.12563123642616064179e-02) (595, 7.80673761930851112245e-02) (596, 4.34910983728502564816e-02) (597, -8.23062047008812774918e-02) (598, -5.78806490990414895803e-02) (599, -1.16826379281250461450e-01) (600, -2.27725668726179893142e-02) (601, 2.68847361246889356157e-03) (602, 3.17663991259276154086e-03) (603, -4.03943469545204984772e-03) (604, 4.68705674741856440080e-02) (605, -2.25535975549674347351e-02) (606, 3.58666148644368534826e-02) (607, 1.43122152052142764811e-01) (608, 8.96653476836656582183e-02) (609, -1.07423654482442284402e-02) (610, -7.62485534421947219741e-02) (611, -5.74905750328346815126e-02) (612, -1.03574197895842535361e-02) (613, -2.95940424438300327126e-02) (614, 1.08527863986388181661e-01) (615, 2.82027881456981405206e-02) (616, -2.42548413137351689950e-02) (617, -5.83254314870558926431e-02) (618, -4.61981104326210575972e-02) (619, -6.40427838930994648703e-03) (620, 2.77884771349011586161e-02) (621, 1.84521860274819218817e-02) (622, 3.03160183540831032478e-02) (623, -5.39458193979800298967e-02) (624, -9.78407190956551015004e-02) (625, -6.20870835833006798343e-02) (626, -3.50417998669216509966e-02) (627, 8.72410267742503298116e-02) (628, -3.59383964657447735336e-02) (629, 2.66913059117440711054e-02) (630, -9.76084778527938796977e-03) (631, -9.64914048354078152103e-02) (632, 3.39442064267178079950e-03) (633, -4.62176085177902623569e-02) (634, -4.09047228464634593514e-02) (635, -2.89402160541003088123e-02) (636, -1.20410335059981818406e-01) (637, -2.56960180029888810016e-02) (638, -3.04633957978026580216e-02) (639, 5.60296662428678357570e-02) (640, 8.44717107273355444219e-02) (641, -5.98101806794168293357e-03) (642, 1.10820802343797500389e-01) (643, 4.07711526005474691331e-03) (644, 6.91820976055522885578e-03) (645, -6.55019520345689887364e-02) (646, -4.10240467485285600913e-02) (647, 1.37646580048906633231e-02) (648, 3.03805406181309085867e-02) (649, -6.52674024358086690700e-02) (650, -3.41441080169572613867e-02) (651, 2.15490611720971780851e-02) (652, 1.09186892394244672300e-01) (653, 1.59941594347031285084e-01) (654, -1.76571700092413685912e-01) (655, 1.35582424584221927777e-01) (656, -6.93885484743897024140e-02) (657, -9.52533634176763455148e-02) (658, -3.79005039016666808727e-02) (659, -5.04169464065366487726e-02) (660, -4.47065809208119085971e-02) (661, -1.83976877552633234780e-02) (662, -1.48507107765551676914e-01) (663, -4.98071245248410815476e-02) (664, -2.61324232035510832170e-03) (665, -1.14413241391698325411e-01) (666, -4.60199464214708295340e-02) (667, 5.73356273984105754837e-02) (668, -9.78435618016448155343e-02) (669, -1.20842502912393762182e-01) (670, 8.71068041536083165211e-02) (671, -1.18809904425590626142e-01) (672, -2.03437072156235548848e-01) (673, 6.44070392350298923795e-03) (674, -2.07097266885477859777e-02) (675, -2.25817214843058305940e-01) (676, -6.28862685926898368205e-02) (677, 1.67342629670174797285e-01) (678, -3.25634972948546375093e-01) (679, 4.08370708129588283475e-02) (680, 1.31451015509115337609e-01) (681, -4.45068582915189803195e-01) (682, 1.28604548992356820802e-01) (683, 1.75370630023722329227e-01) (684, -4.96802888400151521076e-01) (685, 2.75895112177963808264e-01) (686, 1.51667338071332535865e-01) (687, -1.00154942995727935795e+00) (688, 4.23010719190432760151e-01) (689, 3.10485030660847705075e-01) (690, -1.15484135933842457789e+00) (691, 6.88033920407389198992e-01) (692, 2.04741406913080570273e-01) (693, -1.45080726545407490136e+00) (694, 1.58617196892815282006e+00) (695, -2.17566940028016186925e-01) (696, -1.18122383903917982373e+00) (697, 8.80889963603269765535e-01) (698, 1.02020663163834832132e-01) (699, -7.45578204947285327897e-01) (700, 4.28432864529098456075e-01) (701, 2.22815656995423716502e-01) (702, -2.58731360318187386671e-01) (703, 2.23992440417572158395e-01) (704, -1.39911012698903991502e-01) (705, -2.80791175446435281593e-01) (706, 5.83263781390312291419e-02) (707, -1.33921630292643201177e-01) (708, -1.96278109598625183363e-01) (709, 6.00470046582176272820e-02) (710, -1.60576864954619258352e-01) (711, -7.84018458672343515614e-02) (712, 1.47664306141834164587e-02) (713, -1.78640781862240069500e-02) (714, -4.11337493120614780540e-02) (715, -9.06145002467871191199e-02) (716, -6.22378187138948602009e-02) (717, -3.36024801745788831431e-02) (718, 3.56584418738572772600e-02) (719, -8.84469293629319558425e-02) (720, -6.94566195953985193734e-02) (721, -4.50037099799732165373e-02) (722, -3.32559347829087109671e-02) (723, -9.98909752288362484673e-02) (724, 7.29290892949116531518e-02) (725, 5.25096400192056542156e-02) (726, -1.02021256390802395053e-01) (727, 6.18982412589695399352e-02) (728, -4.00769783280499961031e-02) (729, -1.47810187933317183084e-01) (730, -2.27952040229831356943e-02) (731, -1.09737472324665671919e-01) (732, -1.89657624288451620576e-01) (733, 1.63241203557532327251e-01) (734, -2.87377563191832004208e-02) (735, -1.40290521975986737235e-01) (0, -9.11332167519938590727e-02) (1, 5.87785561205931492146e-02) (2, -7.96915292935638924776e-02) (3, -9.38589191469307165816e-03) (4, -2.50847328201200571451e-02) (5, -3.94721498200929291067e-02) (6, -5.59030942291619467599e-02) (7, -4.28707578536458508434e-02) (8, -9.30556830880823887542e-02) (9, -2.06623029188259454622e-03) (10, 9.48288303301384055688e-02) (11, -1.33309022079129563254e-02) (12, 2.56611943023913116613e-02) (13, 5.42003109823368453557e-02) (14, 3.31083389248804024763e-02) (15, -6.44670511223702086268e-02) (16, -8.44596568347870807481e-02) (17, -4.69917595948408720052e-02) (18, 3.87174840927903621268e-02) (19, 4.22102602954692596171e-02) (20, -7.65228310607611178495e-02) (21, -1.01763295854139859675e-01) (22, 3.27530536669662971500e-03) (23, 1.79064982556071949915e-01) (24, -6.71535590484520217291e-02) (25, -4.47332043681674257352e-02) (26, -9.04271223344362967689e-02) (27, -2.73155070520887874319e-02) (28, -1.19397744777723718856e-01) (29, 8.03594625440132437344e-02) (30, 1.87603092655386424759e-02) (31, 8.49705405677400604780e-02) (32, 1.74144023011719856209e-01) (33, 1.05790675910382700464e-01) (34, 8.21144438306094931468e-02) (35, -7.40902506203726385348e-02) (36, -9.82356083626714088330e-02) (37, -1.53052101928853434565e-01) (38, 2.18241113097580388680e-02) (39, -1.18800583739761683733e-01) (40, -7.11759458206518823981e-03) (41, 4.01366724769053953570e-02) (42, 8.72123638125877264846e-04) (43, 2.68074563008129746963e-03) (44, -7.98952155710068445682e-02) (45, -1.03965320024018963857e-02) (46, 7.81626113727383609042e-03) (47, -7.31091757200055952781e-02) (48, -6.98678873595178634437e-02) (49, -1.00269804452053357124e-01) (50, 1.30016900700769044708e-01) (51, 1.01363043163400820545e-01) (52, -2.23134905566617462724e-02) (53, 4.75802647085072152877e-02) (54, 5.69765544195841994179e-02) (55, -1.66001730221397893195e-02) (56, 7.35782184485637841265e-02) (57, -2.82290392057232266895e-03) (58, -5.67660411285754798461e-02) (59, -4.17466104511435565083e-02) (60, -4.21989417270168809537e-02) (61, -2.10500630477629714632e-02) (62, -1.51992413748833696263e-02) (63, -6.73808311790269603286e-03) (64, 7.89387899404835231831e-03) (65, -2.76184333217437388147e-03) (66, -8.08838509697197977077e-02) (67, -8.70913982407132830632e-02) (68, 4.71179123830550994345e-02) (69, -8.28439410572838069724e-02) (70, -4.86956288324405656143e-02) (71, -8.94865506582047803841e-02) (72, -8.37136810988009689993e-03) (73, 1.15886614280703889590e-01) (74, 1.29632448380497256046e-02) (75, 6.47371101674603377507e-02) (76, 9.98323916306988329294e-02) (77, 5.96357475552739685343e-02) (78, -5.94644792753897186155e-02) (79, 4.62677546556943472544e-02) (80, 9.08382708537556482487e-02) (81, -9.67166866145775933061e-02) (82, 4.16822557562698675637e-02) (83, -1.26062576334037205854e-03) (84, 1.66564375132760081333e-02) (85, -1.04749951725583906326e-01) (86, 3.77201719988730851951e-02) (87, -1.33943081790607654291e-01) (88, 5.92387088879481812920e-02) (89, -1.21295638992420413971e-02) (90, -7.98787980912314121706e-02) (91, -7.00242439185424642156e-02) (92, -7.46532602688021046378e-02) (93, 1.19630925629249498798e-01) (94, 4.12608314257249947365e-02) (95, 2.23654512601122387738e-02) (96, -2.60316466866431991956e-02) (97, -4.12755380891503889651e-02) (98, 6.14557800460209732729e-02) (99, -4.33730892158307942963e-02) (100, -5.66416304214663809957e-02) (101, -8.14378335213380710744e-02) (102, -7.18299904287052481955e-02) (103, 1.17703051018217152990e-01) (104, 1.11061199363636398108e-01) (105, 4.88867795246126640718e-02) (106, -3.70080449675320088607e-03) (107, 1.24557439197151595227e-03) (108, 3.01258451776725139082e-03) (109, -3.47152768264532632370e-02) (110, -7.31039197090220804753e-02) (111, -6.38462674844096217397e-02) (112, 3.99332943578077637081e-02) (113, 6.45172831061836598784e-04) (114, 7.24288015475312851876e-02) (115, -1.14506857282175522617e-01) (116, -2.76675920719909491929e-02) (117, -1.59852413116945146765e-02) (118, -4.77603118165438392251e-02) (119, -2.29576888382531964228e-02) (120, -6.45192776303036702457e-02) (121, -1.39400250429570937705e-01) (122, 5.51104579768101204840e-02) (123, 1.01330524159649854044e-01) (124, -1.15660592119101370695e-02) (125, 1.62806397401220881438e-02) (126, -5.29692769470702859436e-02) (127, -7.18886792716602347070e-03) (128, -1.17392338815493404297e-02) (129, -1.64476341524821073614e-01) (130, 1.00807189314486483900e-01) (131, -1.57561183551655908941e-01) (132, -1.14642163182877579453e-01) (133, -2.37783051891732079286e-02) (134, -5.33480611432751994361e-02) (135, -7.13458247242728660353e-02) (136, -3.83181785027690707812e-02) (137, -2.77265056319236403992e-02) (138, 1.13305818099934493826e-01) (139, 4.17076915334614675701e-02) (140, -5.27817854011031969974e-02) (141, -9.93611525242084625553e-02) (142, -6.32420738960003531171e-02) (143, -4.57520078499596485888e-02) (144, 1.39425819343535779132e-02) (145, -3.90664136323407781837e-02) (146, -9.99331285614790121308e-02) (147, 5.37165109084329767120e-02) (148, -1.67115107816340480174e-02) (149, -6.66636520735780918612e-02) (150, -8.63428220807728047381e-02) (151, -1.71984998287287416119e-01) (152, -5.49871807682393784478e-02) (153, 1.88644628450821361110e-01) (154, 4.62558980670225855514e-02) (155, 9.94914874028200862943e-02) (156, 4.62697103282974156468e-02) (157, -7.90451359700260480778e-02) (158, -1.45406532078448790662e-02) (159, 1.28419849284662750816e-02) (160, -6.34050012569960103059e-02) (161, -8.77300242912848887711e-02) (162, -7.40651374459511679937e-02) (163, -2.37964008230709817004e-02) (164, 3.51103911239590074644e-02) (165, 6.50082250056013485895e-03) (166, -9.78147269770372612685e-02) (167, 5.02946712748504887180e-02) (168, -4.90847500365335434602e-02) (169, -9.15323450513667868922e-02) (170, -9.22734129329074032055e-02) (171, -1.27771619012406745242e-01) (172, -7.03476264885678076455e-02) (173, 9.26943351197898335325e-02) (174, -6.41895218652657473246e-02) (175, 8.03233601575933930938e-03) (176, 1.50624291827887984291e-02) (177, -1.19909319067815055976e-02) (178, -5.38508019524788633658e-02) (179, -1.61177073122156754026e-02) (180, 4.79099518985181271891e-02) (181, -1.72737460742987229689e-02) (182, 7.11114770752608038595e-02) (183, 8.86551045462686954091e-02) (184, -3.80640652671589557743e-02) (185, 3.08988307834197470023e-03) (186, -3.36681618997901202853e-03) (187, -5.88910102623502948460e-02) (188, -6.29604249164976703668e-02) (189, 3.36292344163428361115e-02) (190, -6.69929222199262125459e-02) (191, 4.14027548657725022463e-02) (192, -3.52117535885638280324e-02) (193, 1.35071787625873157568e-01) (194, 8.72821447851060555623e-02) (195, -3.03420025707253106229e-02) (196, -1.29892178047781164940e-01) (197, -4.21262632203257547658e-02) (198, -5.82855413126266361235e-02) (199, -1.12927124839449083415e-01) (200, -1.96309651433970375201e-02) (201, -3.34310191618840818473e-02) (202, 3.65907258785891226216e-02) (203, 3.50989449180095502978e-02) (204, -8.63114635985597622447e-02) (205, 1.76499580597667182769e-01) (206, 1.52314188933311583929e-01) (207, 8.00505217944102176464e-02) (208, -7.93268780151409752532e-02) (209, -5.18178430128779718422e-02) (210, -3.10502545122779242959e-02) (211, -1.49181042933224129732e-03) (212, -6.07801877396142928300e-02) (213, 9.82721981279013889754e-02) (214, 7.19092605006324409045e-02) (215, -3.71576284558380806611e-02) (216, -7.28035418391852068298e-02) (217, -1.14153938273458238628e-01) (218, 3.82330820255197406654e-02) (219, 7.46533594442650438872e-02) (220, -1.71235681477902634828e-01) (221, -1.20839527247383726749e-01) (222, -8.92605062189723436061e-02) (223, -6.15773320776184969472e-03) (224, 9.66526911754269080213e-02) (225, -6.87853925637054303133e-02) (226, 7.19806350770242739552e-04) (227, -8.00673341879372529872e-02) (228, -5.67365177697747302688e-02) (229, 3.08197375779906785828e-03) (230, -1.51116342001904341991e-02) (231, -3.32472473847556515558e-02) (232, -9.87808735471610716017e-02) (233, 1.69416884859165450816e-01) (234, -1.10108852552610630982e-01) (235, 1.41115417740287629744e-02) (236, 7.42909967070121413091e-02) (237, 3.79677367382173780452e-03) (238, 2.26051513604804410473e-02) (239, -1.08981100895187837940e-01) (240, -1.00748634314872876142e-04) (241, -1.39532574731593805861e-01) (242, -1.01851241073191937231e-02) (243, 9.49129844759072083260e-02) (244, 7.68964901013629714699e-02) (245, -1.08400618511807402683e-02) (246, -4.42928316048586886988e-02) (247, 1.35155163860325028269e-01) (248, 9.42878164022888619333e-03) (249, -1.17326269786753520363e-01) (250, -4.88862100588292949888e-02) (251, 1.21637941120805222889e-02) (252, -1.21621212147964244399e-01) (253, 4.62629760150193580781e-02) (254, -1.54277877153688902645e-01) (255, -1.61853466274612695086e-01) (256, -6.87456500595501340811e-03) (257, 4.83559038022692150305e-02) (258, -1.67904982851007966715e-01) (259, -1.78591377829880382233e-01) (260, -1.82517790177876448876e-01) (261, -7.74912080837920347332e-02) (262, 9.57857185095725011115e-03) (263, 9.03215240883832315433e-02) (264, -1.66071102638382706029e-01) (265, 1.26892911720347598137e-02) (266, 5.81590151198065150734e-03) (267, 8.57435472322232022924e-02) (268, -4.18152891807418228276e-02) (269, -1.23889641720172943851e-01) (270, -8.43710424096782984904e-02) (271, 2.26282197409080829131e-02) (272, -8.53109639773165784327e-02) (273, 7.81667686041023768162e-02) (274, -9.35785408680750163679e-02) (275, 6.92046010935391253671e-02) (276, -8.07258524527802306947e-02) (277, 1.37366394848165013221e-01) (278, -1.67067709858683619006e-02) (279, -3.23461014322307394142e-02) (280, -1.25859651483688911311e-01) (281, -1.35098362111732650526e-01) (282, -1.81113506254662170319e-03) (283, 3.98474170018036297214e-02) (284, -1.34440570303066258412e-02) (285, 3.86285960320855367711e-02) (286, 1.19439205051739445740e-02) (287, 1.93944814438619488051e-02) (288, -6.55996615135754773673e-02) (289, 1.07441406099359343385e-01) (290, 1.38304863556186607293e-02) (291, -1.07637105384219167181e-01) (292, -1.54528778589915705144e-01) (293, 1.22036427910738043412e-01) (294, 7.13332466579723045719e-02) (295, -1.30864283525084751370e-01) (296, -3.71542425816928515228e-03) (297, -4.57534526488434928337e-02) (298, 4.94518381168681658844e-02) (299, 1.38046934205602028073e-02) (300, -2.15135405296994833280e-02) (301, 2.02838234447926812898e-02) (302, 1.30793722190015310192e-01) (303, 5.45592720210643020162e-02) (304, -3.15114611582677159318e-02) (305, -6.83911178057889923565e-02) (306, 4.63912152859926388282e-02) (307, -1.57841456322519946287e-01) (308, -1.96822379830109861487e-01) (309, -3.23072217031631428452e-02) (310, -4.36317535010842735832e-02) (311, -4.28447086019471470864e-02) (312, 7.77230205559283071626e-02) (313, 1.21407330568919155644e-01) (314, 7.90620551339766240717e-03) (315, 9.48334812649500591419e-02) (316, 1.05586190774807964221e-01) (317, -8.78891154984290205732e-03) (318, 2.85081190445154730728e-02) (319, 5.84582802819485353174e-02) (320, -2.48534446184132257196e-02) (321, -1.25653695143742305529e-01) (322, 1.83836389441766230590e-02) (323, 3.67013551388181494262e-02) (324, -1.22144814064320372804e-01) (325, -1.17543864366242197667e-03) (326, -4.03405988633494944073e-02) (327, -5.21390098736017812420e-02) (328, 3.14753348864061921475e-02) (329, -2.32299207888548610301e-02) (330, -5.75708875151343044130e-02) (331, -1.02525618780107186101e-01) (332, -3.32716221593408337590e-03) (333, 2.09022220410718349848e-02) (334, -1.72830545674846590420e-02) (335, -1.50927047998759555902e-01) (336, -4.88875019126792445534e-02) (337, 3.43281911352514360058e-02) (338, -1.35178662901036306110e-01) (339, -5.71418280896860975027e-02) (340, -3.34233850440201415988e-02) (341, -2.72404530297465537203e-02) (342, 1.18607563220738385090e-01) (343, 1.80818093990608025345e-01) (344, -1.47033225209673712452e-01) (345, 8.46991828615278469217e-02) (346, 3.16985045658724970408e-02) (347, 8.50508920705179277677e-02) (348, 7.25962362153772557127e-03) (349, -2.13086161443055838172e-02) (350, -1.48307426253606235850e-02) (351, -8.87741614911240345398e-02) (352, -6.54510868156428782250e-02) (353, 1.66565002804526796076e-01) (354, -3.42431360215062832730e-02) (355, -5.71649352984312797421e-02) (356, -7.25689724071860442489e-02) (357, 1.26125355850601936734e-03) (358, -4.55585624641019829029e-02) (359, -1.10857254032728363979e-01) (360, 9.34040288597462048381e-02) (361, -3.53445801203963599901e-02) (362, 1.10687087620355270601e-01) (363, 7.18776111599529615726e-02) (364, 1.28637983514817803854e-02) (365, 1.00356478210644847748e-01) (366, 2.15731172547660721150e-02) (367, 6.23619437005171473043e-02) (368, -8.33089811659360468532e-02) (369, -1.97862203870763711522e-03) (370, -1.60818559116009535126e-02) (371, 2.99665219473179431434e-03) (372, 3.24820078927370303745e-02) (373, -5.66240010366651988494e-02) (374, -7.77172853484378173272e-02) (375, 7.22490168365664264805e-02) (376, -2.08735490935722869943e-02) (377, 1.07086942115823008370e-01) (378, -5.49725313430413572990e-02) (379, -2.84939295472984299717e-02) (380, 1.04405529735185242934e-01) (381, 4.32504324112260099544e-02) (382, 3.57079265525763606126e-02) (383, -6.98176254890092717886e-02) (384, -2.47033808499708025519e-02) (385, -7.54948916530856217744e-02) (386, -9.85240363272969904562e-02) (387, -1.37165812797192060435e-01) (388, 1.11971928137564818995e-01) (389, 9.94097483263787079499e-02) (390, 8.56492235471111307277e-02) (391, 5.37571040602876498715e-02) (392, -1.17280191290808757931e-01) (393, 9.02261647116196080498e-02) (394, 4.42289946435887523779e-02) (395, -4.82438966602834889974e-02) (396, -1.69809033779617195303e-02) (397, 3.00606301058278339855e-02) (398, 5.99693241546666363367e-03) (399, 1.55211287371369664051e-02) (400, 6.42833359410451277149e-02) (401, -5.12983223260064513660e-02) (402, -6.01207046698554667397e-02) (403, -6.20988569675334639575e-02) (404, -1.12160872836265398944e-01) (405, 3.88476274410751790112e-02) (406, 7.81665327504575541129e-02) (407, -7.31420023940760472003e-02) (408, -1.12747730199436024118e-02) (409, -1.04419244413201522947e-01) (410, -3.58035492790346535075e-02) (411, 5.04080745233210988920e-02) (412, -1.17549933288659563813e-01) (413, 1.22166633954799347395e-01) (414, -7.68541421179359252047e-02) (415, 3.48140162465501584732e-02) (416, 5.71824773171726043718e-04) (417, 2.97925101706337687457e-02) (418, -9.81422523815382724655e-02) (419, -1.32919489672148009168e-02) (420, -6.82336665076485049397e-02) (421, 7.92193726785094670673e-02) (422, -2.94570719258824866016e-02) (423, 1.19556358342462559774e-01) (424, -7.44682706087332335620e-03) (425, -3.55401922303420214622e-02) (426, 8.86579682025420146019e-02) (427, -8.48109168973510407774e-02) (428, 3.60106921463072063294e-02) (429, 7.38426568701202046263e-02) (430, 7.11806186256088158082e-02) (431, -1.88506630979108323609e-02) (432, -9.29623463916827018523e-04) (433, 1.12342522794399782282e-01) (434, -2.04106174999790848656e-02) (435, 8.50612512944832616091e-02) (436, 4.35481109700583228495e-03) (437, -6.19780522274346254430e-02) (438, 3.44565195983885215816e-03) (439, -8.75059583007381236452e-02) (440, 3.29565400890979437465e-02) (441, -1.44537996725711600371e-02) (442, -1.86561608498255690480e-02) (443, 6.76669722717172378301e-02) (444, 4.95972600672710782488e-03) (445, 6.31357931853819692725e-02) (446, 4.01755738616654395345e-02) (447, -4.07244731757306702158e-02) (448, 2.06721488611465963048e-02) (449, 5.06784531020617393104e-02) (450, -7.16184099050444916701e-02) (451, 4.76033652688801212083e-02) (452, 4.81031098619202970856e-02) (453, 7.66686991205408480132e-02) (454, 6.80422508199460679412e-02) (455, 3.46213905211422423580e-02) (456, -1.08220180259699857994e-01) (457, 6.31250564808882030921e-02) (458, 1.20192906533445349054e-02) (459, -1.41272738463692870692e-01) (460, 4.16431098075857181184e-02) (461, -8.38359800070823668605e-02) (462, -6.99041766804808506475e-02) (463, -7.89659891421914256204e-02) (464, -2.11905562547823724320e-03) (465, 5.03612739065152220652e-02) (466, 1.06831549572394976511e-01) (467, 4.37903404850808267157e-02) (468, 1.38726794144324816482e-01) (469, -9.85641658869223884210e-03) (470, 8.22785104909893594272e-02) (471, -2.28949517875611484319e-02) (472, -1.95794395122153991329e-01) (473, 4.08050094120122261443e-02) (474, -1.36454838247354152958e-02) (475, -3.87839559361521160619e-02) (476, -8.59775297672265848004e-02) (477, -1.56136713991186171224e-01) (478, 3.06383078664799121671e-02) (479, 3.34263818305303925249e-02) (480, 1.17164550090217922662e-01) (481, 1.03900788073208009965e-02) (482, 6.51445658172357111582e-02) (483, 2.06904639209311347336e-01) (484, -6.79384483521440346587e-02) (485, 6.74315852241945956624e-02) (486, -1.18368951747651381806e-02) (487, -1.21675105785984845330e-02) (488, 8.07698448258502288422e-02) (489, -6.40750481708317332075e-02) (490, 2.35647910358180202872e-02) (491, -6.11892598378354635180e-02) (492, -1.05061292259104974156e-01) (493, 9.80814703205323823454e-02) (494, -8.64298268741265085513e-02) (495, 5.74432686719167154288e-02) (496, 2.48592796582019562313e-02) (497, -1.25074566769740547212e-01) (498, -2.66559555107346649039e-02) (499, -1.34229606945137774909e-01) (500, -1.48111773866810621930e-02) (501, -6.29765632234072919582e-02) (502, 7.14781269156862242298e-02) (503, 1.36355382309905126537e-01) (504, -7.00240844142686891249e-03) (505, 1.57436246349908520736e-01) (506, 9.32463127180824941087e-02) (507, -5.02427983266806668650e-02) (508, 9.96335443682896115813e-02) (509, 5.97716446962838626744e-02) (510, 5.99707906334362786382e-02) (511, 8.20279312112236480559e-02) (512, 4.56679822727537598759e-02) (513, 1.03322386614355804513e-01) (514, 3.77317198319607194357e-02) (515, 1.97402166484751603881e-02) (516, 1.06314714652103445292e-01) (517, -4.70616551924822948405e-02) (518, -5.15120477557123451762e-02) (519, 9.62758984719662563867e-02) (520, 4.68386056557033372827e-02) (521, -1.02756995376796275016e-02) (522, -6.87621429418713431270e-02) (523, 1.18617624802361196212e-01) (524, -1.02886210307504243067e-02) (525, 2.53448674343329915376e-03) (526, -1.44152342713742840155e-03) (527, -5.48001559424701883971e-02) (528, 1.06398281449144507110e-02) (529, 7.53659424948305844971e-02) (530, -9.66741807190587831844e-02) (531, -4.98374363202286271846e-02) (532, -9.45770406742125202548e-02) (533, 1.43213680970856960251e-01) (534, 8.91392490863600339690e-02) (535, -1.43259455534546192856e-01) (536, 8.14247376485163591731e-03) (537, 1.06533572199854192214e-02) (538, -4.19396760205709914771e-02) (539, 3.95898823592210277744e-02) (540, -5.11657326436213474169e-03) (541, 1.17391399373254434746e-01) (542, 2.12535202744860429735e-02) (543, -8.31865479486222636485e-02) (544, 1.46902973139116394680e-02) (545, -5.58224928039115081413e-02) (546, 8.45107909837336662706e-02) (547, -3.49098137729663623996e-02) (548, 5.12126021969983372117e-02) (549, 7.53073061489937523039e-02) (550, 4.62847164300020513794e-02) (551, 1.02220606171024575026e-02) (552, -3.19782523473586613449e-02) (553, 6.60751757336768830164e-02) (554, 3.14317950954017683030e-02) (555, -8.33834791610038317256e-02) (556, -8.34049516064998275322e-02) (557, -8.66911188815863154034e-02) (558, -5.14152564251541752127e-02) (559, -3.82985287618220005337e-03) (560, -5.09684880099213963311e-02) (561, -2.47973286171683550416e-02) (562, 8.84206167624620315015e-02) (563, 8.78563763425165532295e-03) (564, -1.89502553994383010627e-02) (565, 1.68033460603153397828e-02) (566, 3.23046018891717037769e-02) (567, -8.22189984509300308968e-02) (568, -2.07267905765744359092e-02) (569, 1.11966777069189941940e-02) (570, 1.39159691609796271061e-01) (571, 8.91670304804490498896e-02) (572, 3.36349419945596236903e-02) (573, -2.35408802999374673626e-02) (574, -1.27097555333218675822e-01) (575, -9.05555882521048571832e-02) (576, -1.12238788118016630246e-01) (577, 1.57130131533127978538e-02) (578, 2.73532782091831030979e-02) (579, 6.62713242185469925127e-02) (580, 1.85194454734000889251e-02) (581, -9.85504899306698656236e-02) (582, -1.04094979712833463070e-01) (583, -1.13760482677406557506e-01) (584, -5.14644326154972339693e-02) (585, -1.01087987828761979858e-01) (586, -4.22448546619429293747e-02) (587, 3.11841802699352084460e-02) (588, -4.93040732357770683514e-02) (589, 2.75532250088627063411e-02) (590, -2.22081428340411037026e-02) (591, 3.87483529692524836241e-02) (592, -7.49972869362017513506e-02) (593, -3.96554539562790978047e-02) (594, -2.31399237581430827770e-02) (595, 1.40892179080862479240e-02) (596, 9.90430804927446700736e-02) (597, 9.46467939398126512085e-02) (598, 2.72316366276998018947e-02) (599, -3.17962789274282287000e-02) (600, -2.74627547499974589140e-02) (601, -7.42819832538275798273e-02) (602, -4.10135066736355760608e-02) (603, -4.57857920129694853650e-02) (604, -3.03564961922400886052e-02) (605, -1.75944251668157386481e-02) (606, 6.24881306642167538845e-02) (607, -9.70898347360628771741e-02) (608, -3.62626969116648448233e-02) (609, 4.87442402084528464412e-02) (610, -7.76612379788606255193e-02) (611, 1.31995649581512580761e-01) (612, 1.41987694631878713647e-01) (613, -1.37225825329441775136e-01) (614, -1.39104229006806245916e-01) (615, 1.42667992265022858245e-01) (616, 1.08558207151295035842e-01) (617, 8.17423121955099807323e-02) (618, 2.58890089185097455049e-02) (619, 1.92170178965384963465e-01) (620, 8.77641868289679299986e-02) (621, 1.49467780557235030425e-02) (622, 6.81308989894590655290e-02) (623, 3.79934772895433661710e-02) (624, -9.58083677920994886135e-02) (625, -1.41502275590582149434e-01) (626, -4.53352235932297301102e-02) (627, -4.47927195405102979153e-02) (628, 1.06145078506107895522e-01) (629, 8.19993890631239286115e-02) (630, -3.17399110600417727612e-02) (631, 3.86878553670086111627e-02) (632, -1.72362617464414252799e-02) (633, 7.70044077502677892788e-02) (634, 1.09946412355002229311e-01) (635, 3.92335564461173333384e-02) (636, -4.78646470665556947321e-02) (637, 1.10122543437306871089e-02) (638, 6.40401326172291701644e-02) (639, -1.14568711424298426416e-02) (640, -7.23412260065623702321e-02) (641, 6.34818200073175159526e-02) (642, 6.19442212952002989323e-03) (643, 4.25161452598721636975e-02) (644, -5.21699563833337917607e-02) (645, 1.61384286875622603996e-02) (646, -6.43671462226404894613e-02) (647, 6.51958891772045218138e-02) (648, -5.89304982342490901726e-02) (649, -7.85006643733095893500e-02) (650, 3.80157368104003107190e-02) (651, -1.15832092813356046790e-01) (652, -1.40448791928084959491e-01) (653, 3.50757840298909339544e-03) (654, 1.51720467963176591786e-01) (655, -4.76509390937167875979e-02) (656, -1.36058861940383246658e-01) (657, 1.73027121836490764550e-02) (658, -9.94198834149576243790e-02) (659, -7.73822061680717321330e-02) (660, 2.82234897066519219155e-02) (661, -4.67800926574600331453e-02) (662, -1.63127510691893490291e-01) (663, 7.06683657795754566200e-02) (664, -1.38734967609693005119e-01) (665, -1.06967584641592214356e-01) (666, -5.81005887935949622003e-02) (667, -4.04353878203100088745e-03) (668, -1.00150666966061421131e-02) (669, 1.03053545062058854453e-01) (670, -1.18891370783095348673e-01) (671, 2.07393054144213995205e-02) (672, 1.10552499763150888223e-01) (673, -1.02619073238943356308e-01) (674, -2.81796507132457511868e-02) (675, -4.60101180475962559524e-02) (676, -1.27955473055002183491e-01) (677, 9.83402313106151830524e-03) (678, -1.23363522058559202388e-01) (679, -7.06705061039936688339e-02) (680, 1.24283751126883015847e-01) (681, 5.25523151692546403035e-02) (682, 3.24191586907050495817e-03) (683, -6.03255022001490115446e-02) (684, -6.34240668044964150951e-02) (685, 4.97894499415855659730e-02) (686, -1.12669227539246546987e-01) (687, -2.43586046549902762726e-01) (688, 1.16532046686457446683e-01) (689, -8.93107235507737545754e-02) (690, -1.90998451769855970284e-01) (691, 2.86042807197598836222e-01) (692, -1.93841117754643188498e-01) (693, -2.28000832759516408599e-01) (694, 5.89915168762314645612e-01) (695, -4.70655774202613841339e-01) (696, -3.17239252235025803728e-01) (697, 3.41260301201918192504e-01) (698, -2.52142627684362519158e-01) (699, -3.15359261592665141016e-01) (700, 1.87834793177303283063e-01) (701, -1.06456237757380042797e-01) (702, -4.43401752434984183782e-02) (703, 1.26368742834363695371e-01) (704, -1.85297282977910648949e-01) (705, -1.36485558235712539643e-01) (706, 1.23829925392081402480e-01) (707, -5.07982916227945821563e-02) (708, -2.56678929627334184715e-01) (709, 1.23384637680589243081e-01) (710, -2.60486600385896041251e-03) (711, -5.50507147637131696860e-02) (712, 3.65707173771785618022e-02) (713, 3.19612446241375400269e-02) (714, -1.93935037665791648598e-01) (715, -6.49383690228078624962e-02) (716, -3.70257750661290088723e-02) (717, -1.12441929647904684253e-01) (718, 9.56462360939715726393e-03) (719, 8.37394023975047419039e-02) (720, -8.52313112391955979286e-02) (721, -1.75792681366155369160e-02) (722, 4.78359670954466506543e-02) (723, -1.02966579695596374688e-01) (724, -1.52832973468013475632e-02) (725, -5.89343528391827950474e-02) (726, -1.78953978431718924158e-01) (727, 2.39180743858342127750e-02) (728, 2.41828612004654150414e-02) (729, -1.34913922904550870330e-01) (730, 5.46916124159614047695e-02) (731, -1.23706981913972002829e-01) (732, -3.31517624946282216114e-02) (733, 1.39785406371254666835e-01) (734, -1.29414383402695148950e-01) (735, -1.21242436859123836612e-01) (0, 4.52129795455507577095e-02) (1, 8.79930081362351179664e-02) (2, 3.59609729286290979999e-02) (3, 5.61972599657253324423e-02) (4, 6.89867649935029941810e-02) (5, -8.75612297004842998760e-02) (6, -1.70601969154411605041e-03) (7, -3.82120100179387384154e-02) (8, 3.71234570289987169528e-03) (9, 4.35329055777293749685e-02) (10, 3.39314698645552040301e-02) (11, -3.00722291760541172653e-03) (12, 1.21988673159005411861e-01) (13, 9.65957952229078570250e-02) (14, 5.60922444350416202208e-02) (15, 2.97552570111483689203e-03) (16, -1.10897040457786699719e-01) (17, -6.32246405229743013710e-02) (18, -9.83866087588111809525e-02) (19, -8.81119837893948043561e-02) (20, -9.91612377714359699565e-02) (21, -1.66746994629093869822e-01) (22, 1.11991666647425242020e-01) (23, 3.05923488044642422068e-01) (24, -8.61943171972457712615e-03) (25, 6.08225809305211057021e-02) (26, 1.56617742760359529575e-01) (27, -3.50814779631323245615e-03) (28, -9.09522188582051124839e-03) (29, -7.91485360986654701287e-02) (30, 1.67265735910741078496e-02) (31, 1.36924011597006595187e-01) (32, 5.89574758215566201158e-03) (33, 6.62604576465543391832e-04) (34, 1.07283651242289390648e-01) (35, 2.68215918573014196202e-02) (36, -1.15717739791634535718e-01) (37, -1.94209831274137038892e-02) (38, 1.10594762482841210693e-02) (39, 8.16939602693871336214e-02) (40, -6.41064074704546238426e-02) (41, 1.07379005764608084772e-01) (42, 7.14738644541987322434e-02) (43, 6.72101263989197811322e-02) (44, 1.11003143299690881785e-01) (45, 8.12423463987231725403e-02) (46, -2.65950644989254372796e-02) (47, 5.95755010867394310670e-02) (48, -8.75474888656271599263e-02) (49, 1.26045433311890470174e-01) (50, -6.09388892093283007778e-02) (51, -9.51279541602240708009e-02) (52, 2.22263226223728238562e-01) (53, -3.17977587875968234488e-02) (54, -4.94892691770548384667e-02) (55, 6.04012351585042628344e-02) (56, -6.75032150503552114129e-02) (57, -3.92542949665673004955e-02) (58, 1.20194919123230173352e-01) (59, 9.15957445953231447211e-02) (60, -6.69644354847034883882e-02) (61, -5.33764618194133289020e-02) (62, 7.05034267753950477653e-02) (63, 1.21885743749781158551e-01) (64, 8.66937914583820606884e-02) (65, -4.63643928605020176625e-03) (66, -2.50630126945999565091e-02) (67, -1.16891256266350634929e-01) (68, 1.30978989080797608713e-01) (69, 1.83714086434340791165e-02) (70, -2.31597920454801389778e-02) (71, -8.49124500649196117807e-02) (72, 1.29585946444225719176e-01) (73, -3.20087200540376606850e-02) (74, -5.83189277680651804725e-02) (75, 6.33524862259450677326e-02) (76, -1.14859425025223310657e-01) (77, 3.71236035212440668163e-02) (78, 6.21542732169028180889e-02) (79, 6.68665113125500691627e-03) (80, -1.12131988814710037428e-01) (81, -6.71445381570905386326e-02) (82, 1.59270886512003578828e-01) (83, 2.15964774679550906844e-02) (84, 8.28325892990790096926e-02) (85, 4.21595612045009703224e-04) (86, 3.15710849574623295989e-05) (87, 5.56032773394364489977e-03) (88, 3.56653069618488166581e-02) (89, 7.31623588920048140150e-02) (90, -8.37942260708796071711e-02) (91, -1.76382650430168902433e-01) (92, -5.77913204912526706769e-02) (93, -1.34414137819269721014e-02) (94, -1.08063681673626316160e-01) (95, 5.34791807697338333893e-02) (96, -6.50648930854624690800e-02) (97, -1.31387505103927049177e-01) (98, 1.29052164082818721091e-01) (99, 5.09971917444724566482e-03) (100, -4.26944343429069839146e-02) (101, 1.12158261426194477695e-01) (102, 7.43860396596039835648e-02) (103, -6.86501858391881103483e-02) (104, 2.03859558423187398057e-02) (105, 3.24513055974076161658e-02) (106, 4.13231726075002914200e-02) (107, 9.95746076315775913157e-02) (108, 1.26154861086237246592e-01) (109, 3.25866440118140407445e-02) (110, 6.33713545722454779652e-02) (111, -4.00082952329058189056e-02) (112, -2.93776536833081185207e-02) (113, 5.86414789474303949079e-02) (114, 2.25911906138854604031e-02) (115, 2.90658319827941553914e-02) (116, -1.65405387007205056937e-01) (117, 2.86513959329334939874e-02) (118, 3.09978340355257196703e-02) (119, -6.83334515321949165223e-02) (120, 3.61501997913121625450e-02) (121, -6.33204418505979166332e-02) (122, 1.33181581120764086501e-01) (123, 2.67759302492719553773e-03) (124, -2.69655968653323002693e-02) (125, -3.36044185461578798213e-02) (126, 6.75424738589803230759e-02) (127, -2.57676439627007383693e-02) (128, -6.84473842087375827781e-02) (129, -2.04918418565990835545e-02) (130, -6.85437862336875413163e-04) (131, -1.77630314708248325528e-02) (132, 6.45056851350295640257e-02) (133, -2.79971607585156011255e-02) (134, -6.14646283373943783795e-03) (135, -1.16195566901072355748e-01) (136, -3.06224822887703057583e-02) (137, -1.46718551655184742399e-01) (138, 4.71764063033354927312e-02) (139, 3.80597105721961134761e-02) (140, 2.79535263095816305379e-02) (141, -7.90239415756985030814e-02) (142, 3.63931252441104663431e-02) (143, -9.38037318165372835388e-02) (144, -1.26826412261086124422e-01) (145, -7.00874605229273167639e-02) (146, 6.95304548947366374279e-02) (147, -8.40293870725078717587e-02) (148, 1.08170659998941112723e-01) (149, -2.63816787989929225910e-02) (150, 7.01487799115942251005e-02) (151, -8.47988870559238244740e-02) (152, 1.16691380562303340107e-01) (153, -1.55607401095052798323e-02) (154, 3.37542113511480196264e-02) (155, 3.07705822344196931739e-02) (156, -9.75487504633964497280e-02) (157, -1.31222246078990772977e-01) (158, 8.35605615875431168016e-02) (159, -7.97253554956764975969e-02) (160, -1.32871544308472921969e-01) (161, 1.64651248371595134053e-03) (162, 2.83617605298732596009e-02) (163, -5.90102482823641125154e-02) (164, -4.76498991986731568193e-02) (165, 9.55362592865250659369e-02) (166, -7.44998560769730838738e-02) (167, 2.33305324809305048017e-02) (168, 7.75672633016549484264e-02) (169, 3.18412764423063338742e-03) (170, 1.94338103876977967566e-02) (171, -3.32545061115675014141e-02) (172, 1.29266733580756215671e-01) (173, 6.72962171328891911593e-02) (174, -1.09205543960837925255e-01) (175, -1.39390208841919299720e-01) (176, 1.74541171484992457819e-02) (177, -6.43736358202711966836e-02) (178, -2.66695191448024400416e-02) (179, -8.98373160128092262955e-03) (180, -1.16897656118805665787e-02) (181, -1.04313188087463828979e-01) (182, 2.31258058125741905453e-01) (183, 2.29514559261778617813e-03) (184, -1.89705120609749977589e-01) (185, 8.19047612404843611289e-02) (186, 2.66870110560974427294e-02) (187, -8.91612823522377612173e-02) (188, -3.69798963996893215178e-02) (189, 4.27064746688611389120e-04) (190, -1.23367827597163082221e-02) (191, 8.08160161190698972389e-02) (192, 2.32603114708526820253e-01) (193, 2.11247808892060795483e-02) (194, -1.11909274731270852454e-01) (195, -1.21357188181030976187e-02) (196, -5.72154802811175033916e-02) (197, -2.04146646168960943513e-01) (198, -5.88475097125656099184e-02) (199, -2.16050693497231698775e-03) (200, 6.31070573288170511006e-02) (201, 1.67612302505319721302e-02) (202, -2.63592141486310438392e-02) (203, 9.03385595366517218929e-02) (204, -9.60068873389190585721e-02) (205, 5.99392256723781172156e-02) (206, 1.23830488937849217401e-01) (207, -1.35660081749556737929e-01) (208, -5.95327702822987525622e-02) (209, -5.01056969386131367816e-02) (210, 2.62687492566960473228e-02) (211, -3.61205624504809599817e-02) (212, 8.26042928106280466283e-02) (213, -1.04212641880146762718e-02) (214, -8.04177533273844613593e-02) (215, 2.51689032554519402651e-03) (216, -1.86920866533262702847e-01) (217, -1.69597378303358164997e-01) (218, 5.54652417415875259588e-02) (219, 5.02631206544254180435e-02) (220, 8.77275023047092636364e-03) (221, -6.54008355566934509312e-03) (222, 1.59888930392506678491e-01) (223, -6.69083450264382484374e-02) (224, -1.51561975191733810941e-01) (225, 1.65780706412423900487e-01) (226, 1.52678845322880923918e-01) (227, -1.15444578733891571598e-02) (228, -1.44231576568825653473e-01) (229, 1.14807336081137856265e-01) (230, 7.64226319673409065780e-02) (231, 1.32596302203495525207e-01) (232, 7.70388861581537826018e-02) (233, 9.83167260567887058009e-02) (234, -1.13719881690872107877e-02) (235, 1.11303052142036215666e-01) (236, -1.39224135743422246236e-02) (237, -1.10423564263946366593e-01) (238, 8.47176567849204781302e-02) (239, -1.71401018928609288894e-01) (240, -2.86860672056086021819e-02) (241, -1.09745257316904071265e-01) (242, -1.43539600838950676120e-01) (243, 3.79057181185541366975e-02) (244, -2.66813455029755973447e-02) (245, 2.81006647041768349224e-03) (246, -1.87536872506268263716e-02) (247, -2.28528173768794253332e-03) (248, 3.21746723183425967219e-02) (249, 1.51021726906000020030e-01) (250, 5.53637644242122028970e-02) (251, -8.18868055820423518254e-02) (252, -1.89472095653736655185e-01) (253, 3.11947480861088713433e-02) (254, 5.15106810410821056023e-02) (255, -1.09510212528739228621e-01) (256, -1.22258304747087237496e-01) (257, -1.48551152699289840120e-01) (258, 2.30585075283940177382e-01) (259, 3.40740221616055508069e-02) (260, 5.20783035448532452549e-02) (261, 3.55625353910694538828e-02) (262, -1.13629730183021360190e-01) (263, 8.15659590949316115616e-02) (264, -5.60453454409409225490e-03) (265, 9.15880405340331778252e-03) (266, -1.29980978697049904397e-02) (267, 1.73348910568500380602e-01) (268, 6.77028716061265356529e-02) (269, 7.58473379203868924847e-02) (270, -3.47665124050462528982e-02) (271, -2.10162294691305429062e-01) (272, 5.79947986584102709307e-03) (273, -8.64545311399372851113e-03) (274, 8.24817737196381073339e-02) (275, 8.32543558982628967291e-02) (276, 3.18125034861638580908e-02) (277, -3.04062245316823916153e-02) (278, -3.26996572078951316942e-02) (279, 2.49961581860021375689e-01) (280, 3.89046010143562284722e-02) (281, -5.72179921386498022140e-02) (282, 4.19690071642075737679e-02) (283, 6.39792356188851468746e-02) (284, 1.16456488772256019915e-01) (285, -3.86185208587613293396e-02) (286, 1.79155500827862940172e-01) (287, -1.50917296327530231492e-01) (288, -2.50472316712682420425e-02) (289, 1.28654271975401884864e-01) (290, 6.95130164016950352623e-02) (291, -8.46515998931115024040e-03) (292, 5.46263392443585016345e-02) (293, -3.60682890042093723393e-02) (294, -3.45359829999588655025e-02) (295, 2.62917464595697307483e-02) (296, -2.61667189771442958678e-04) (297, -2.52132717255917106203e-02) (298, -2.62023504715312161029e-02) (299, 9.32325391022836708066e-02) (300, -3.28545112055266819162e-02) (301, -1.09649645163157949401e-01) (302, 8.53314354429694915671e-02) (303, -1.71125539998850467738e-01) (304, -7.69308748076121540205e-02) (305, -3.08602763860901345427e-02) (306, 1.13983721518246608473e-01) (307, -9.56653806543216328473e-02) (308, 8.51921520723770281380e-02) (309, -2.23991945523457254563e-02) (310, 6.51050279290694838830e-02) (311, 5.51196517719296230631e-02) (312, -1.57913713269240835180e-01) (313, -1.08404409831797360342e-01) (314, -6.92364976764489326033e-02) (315, 4.52174629606860722930e-02) (316, 2.14592062396970595373e-01) (317, -9.86189296984750496389e-02) (318, 1.47471509793761251794e-01) (319, 4.44199793679772372834e-02) (320, -1.00252826221073038093e-01) (321, -1.53623150780028412503e-03) (322, 7.78868238385182348749e-02) (323, 9.86025938728282286272e-02) (324, 2.27459214798377308553e-02) (325, -5.07285316607721248339e-02) (326, -3.61653517115399919524e-02) (327, 2.89475622614435192104e-02) (328, 1.88990084673211385102e-02) (329, -4.96451990864636288903e-02) (330, 8.56390587099074701571e-02) (331, -5.90148174079660470248e-02) (332, -1.28868123136823553576e-01) (333, 6.70292438587367783720e-02) (334, -7.27162888691060965707e-02) (335, -1.43989365766568205851e-01) (336, -2.29975756819142222731e-02) (337, 1.25981136501056960320e-02) (338, 1.48484508909438234214e-01) (339, 1.72695921351601583416e-01) (340, 1.03697871962669038726e-02) (341, 2.99848933122856065384e-03) (342, 3.45714955593126593847e-02) (343, 1.24171369711665591229e-01) (344, 6.80786226418486767331e-02) (345, 1.04903331031736032908e-01) (346, 2.97518972239908044419e-02) (347, 2.79607829286198476815e-02) (348, -1.45416959607041779839e-02) (349, -7.76697977053685678639e-02) (350, -5.64447319929501506452e-02) (351, 6.14721492628949803261e-02) (352, -1.35364511599489392019e-02) (353, -8.71715718104213582729e-02) (354, 5.27231387039016688445e-02) (355, 2.09436969236758592505e-02) (356, -7.29495008716427306705e-02) (357, -3.97588343163305449335e-02) (358, -1.06905673593878314254e-01) (359, 4.26219290001287332004e-02) (360, -1.31156609870644886434e-02) (361, 6.09726553650601910128e-02) (362, -3.84437166724073062229e-02) (363, 2.01609084404893112996e-01) (364, -1.12336389326329957883e-01) (365, 6.57871629925071005340e-02) (366, -3.77456871581710109997e-02) (367, -8.25718052527261159312e-02) (368, -2.05255722950381837288e-02) (369, -6.28451382773355382572e-02) (370, -3.28598828673360085495e-02) (371, 1.61362381159686457677e-01) (372, -4.44744869519669502878e-02) (373, 7.53613702914370311992e-03) (374, 6.96928564985263704346e-02) (375, 3.50973569040933103258e-02) (376, -3.23460164340778552616e-02) (377, -1.24977819174512727596e-01) (378, -1.74270764154365494225e-02) (379, -4.18152473881691980062e-02) (380, 1.31459245575300445047e-02) (381, -1.65996969209181652327e-02) (382, 3.38276973588090695833e-02) (383, -6.85344915042849500697e-02) (384, -1.45585091937351415042e-02) (385, -8.04460657660668702895e-03) (386, -9.30315285026618310482e-02) (387, -8.10601641679253720474e-02) (388, -7.48365123072141161242e-03) (389, 2.78987536284233152151e-02) (390, 4.91109798714019912813e-02) (391, -1.23427819023734730575e-01) (392, 3.50169684750429519027e-02) (393, 7.82669417582987914095e-02) (394, -1.04668685692906465734e-01) (395, -1.73501411511756305217e-02) (396, -7.33446726378378793809e-02) (397, -1.76374701337801177703e-02) (398, -3.10104360033062603774e-02) (399, 1.85154987502137899878e-03) (400, -7.61860132270941996929e-03) (401, -1.12663242118444403839e-01) (402, 4.70575419826582269645e-02) (403, -4.81123411689269031566e-02) (404, 3.09390295821236650797e-02) (405, -8.18026610406747019255e-03) (406, 7.55580608522848501396e-02) (407, -1.07662769829342377936e-01) (408, -3.78231492455873771763e-02) (409, -2.98754227840842129238e-02) (410, -9.57945944973688512381e-02) (411, 9.16759690426628137683e-02) (412, -3.68305029695515859234e-02) (413, 6.36758729837852976985e-02) (414, -1.91407655463944822993e-02) (415, 1.28745173809150764699e-01) (416, -4.42252997577312553790e-02) (417, -1.50538613194892451075e-01) (418, -4.68378646363986142487e-02) (419, -4.75387457604650991855e-03) (420, 1.00769920665286349254e-02) (421, -1.37789700051312163920e-01) (422, 1.57940666598416581436e-03) (423, -4.00449747073581066581e-02) (424, 9.52934691675895173546e-02) (425, 1.73132880577853555219e-03) (426, -1.22191481661002077086e-01) (427, -1.15644370140523429502e-02) (428, -2.68005866952770524514e-02) (429, 1.52956941489879899576e-01) (430, -2.13854439350523312102e-01) (431, -8.29767192508548551144e-02) (432, 5.47068603367804953685e-02) (433, -5.45449889835194958593e-03) (434, 4.99475796976817862372e-02) (435, 4.88167605103853041726e-02) (436, -7.31799202230180856343e-03) (437, 3.46201223076591860228e-02) (438, -7.99009976241175090550e-02) (439, -1.46015557613665775127e-01) (440, -4.35049624464570097032e-03) (441, -1.21863500365281457460e-01) (442, -2.71263946857191462492e-02) (443, -1.13383668206137933065e-01) (444, -6.20325997307646162526e-02) (445, -6.07326460280912944212e-02) (446, -2.35610045527763455053e-02) (447, 8.13072493314254546304e-02) (448, 6.71765968059110929467e-02) (449, 1.16109494430633355955e-01) (450, 2.73010697384637041063e-02) (451, -1.47008564105454542226e-01) (452, -9.35903185631223460961e-02) (453, -1.30962308982966985083e-01) (454, 2.80719304168114934528e-02) (455, 5.99080868195118760450e-03) (456, 1.72915706109105435373e-02) (457, -1.62012063013123958077e-01) (458, 5.40980026395986163257e-02) (459, 4.52554511853919677611e-02) (460, 6.21081644308264929633e-02) (461, 9.50568547118757489756e-02) (462, -1.88980793640588506932e-01) (463, 1.36645229165171088609e-02) (464, 9.03812545133650530049e-02) (465, 1.69628203607637972894e-02) (466, -9.31849973068109710406e-02) (467, -3.28794679641725706709e-02) (468, -2.65857623340756167585e-02) (469, -5.83643224999779997031e-02) (470, -9.43201173701353479117e-02) (471, -5.84474705776942479729e-02) (472, -7.98200044933238817002e-02) (473, -2.31210790762917187124e-02) (474, -1.63801012037078090773e-03) (475, 9.41238843042826039964e-02) (476, -2.84395723119714657900e-02) (477, -9.60963563794401953722e-02) (478, 1.82458351597220083673e-02) (479, 1.67312989939396639105e-01) (480, -5.35991896215550975291e-02) (481, 2.79057170858075659359e-02) (482, -8.61645042914192388350e-02) (483, -1.15393128623155691304e-01) (484, 1.30266586228539898995e-01) (485, 1.67802982779733551866e-02) (486, -5.55164021199151536123e-02) (487, -2.23704971385920506344e-02) (488, 7.42375968058269636307e-02) (489, -5.79851546155293121054e-02) (490, -5.40481238541516625928e-02) (491, -4.60386566040247441345e-02) (492, -1.21349749181840410595e-01) (493, 3.17155179697098180136e-02) (494, -1.13915035685736826254e-01) (495, 2.89910794985224103126e-02) (496, 1.45199538342306378510e-04) (497, 6.94358494946017562599e-02) (498, 9.49382306368050099543e-02) (499, -4.52738619386363408403e-02) (500, 6.38516539819275865189e-04) (501, 6.58038722986571122942e-02) (502, -2.98038806388251087398e-02) (503, 6.35620579376557082174e-02) (504, -6.26248810611946815641e-02) (505, 9.89438040465275836510e-02) (506, 8.75814655403904518405e-02) (507, 3.39264101586866095861e-02) (508, 1.80856424897363782245e-01) (509, -8.23923325704573744632e-02) (510, -1.11545527785045450742e-01) (511, -2.77849344363952366344e-02) (512, -8.66541405488538557522e-02) (513, -4.70744679070877955485e-02) (514, -1.89059705258704385811e-02) (515, 6.54067224355836668304e-02) (516, -3.00261174017402328318e-02) (517, -9.71359841685014158141e-02) (518, 6.85854324686141075818e-02) (519, 1.90735516328326581981e-01) (520, -4.38262609000465985787e-02) (521, 1.50669919970822102639e-02) (522, -2.62583712880747471852e-02) (523, 1.79895341875107687979e-02) (524, -1.00804847829433177897e-01) (525, 1.15888299904790600253e-02) (526, 1.27972790170566896872e-01) (527, 1.12456703799320000686e-02) (528, -1.61420602685713628077e-02) (529, -2.27131662496929259687e-02) (530, 8.07790651421776140229e-02) (531, 6.86990726033108178861e-02) (532, -1.38586799225627443910e-01) (533, -1.91573857600711681959e-02) (534, -4.58297087521681370537e-02) (535, -1.44200060815455992358e-02) (536, 5.24263401157693473276e-02) (537, -2.45469226471769219611e-02) (538, 4.51553599271547062566e-02) (539, 