FANN_FLO_2.1
num_layers=3
learning_rate=0.010000
connection_rate=1.000000
network_type=0
learning_momentum=0.300000
training_algorithm=0
train_error_function=0
train_stop_function=0
cascade_output_change_fraction=0.010000
quickprop_decay=-0.000100
quickprop_mu=1.750000
rprop_increase_factor=1.200000
rprop_decrease_factor=0.500000
rprop_delta_min=0.000000
rprop_delta_max=50.000000
rprop_delta_zero=0.100000
cascade_output_stagnation_epochs=12
cascade_candidate_change_fraction=0.010000
cascade_candidate_stagnation_epochs=12
cascade_max_out_epochs=150
cascade_min_out_epochs=0
cascade_max_cand_epochs=150
cascade_min_cand_epochs=0
cascade_num_candidate_groups=2
bit_fail_limit=3.49999999999999977796e-01
cascade_candidate_limit=1.00000000000000000000e+03
cascade_weight_multiplier=4.00000000000000022204e-01
cascade_activation_functions_count=10
cascade_activation_functions=3 5 7 8 10 11 14 15 16 17 
cascade_activation_steepnesses_count=4
cascade_activation_steepnesses=2.50000000000000000000e-01 5.00000000000000000000e-01 7.50000000000000000000e-01 1.00000000000000000000e+00 
layer_sizes=682 61 4 
scale_included=0
neurons (num_inputs, activation_function, activation_steepness)=(0, 0, 0.00000000000000000000e+00) (0, 0, 0.00000000000000000000e+00) (0, 0, 0.00000000000000000000e+00) (0, 0, 0.00000000000000000000e+00) (0, 0, 0.00000000000000000000e+00) (0, 0, 0.00000000000000000000e+00) (0, 0, 0.00000000000000000000e+00) (0, 0, 0.00000000000000000000e+00) (0, 0, 0.00000000000000000000e+00) (0, 0, 0.00000000000000000000e+00) (0, 0, 0.00000000000000000000e+00) (0, 0, 0.00000000000000000000e+00) (0, 0, 0.00000000000000000000e+00) (0, 0, 0.00000000000000000000e+00) (0, 0, 0.00000000000000000000e+00) (0, 0, 0.00000000000000000000e+00) (0, 0, 0.00000000000000000000e+00) (0, 0, 0.00000000000000000000e+00) (0, 0, 0.00000000000000000000e+00) (0, 0, 0.00000000000000000000e+00) (0, 0, 0.00000000000000000000e+00) (0, 0, 0.00000000000000000000e+00) (0, 0, 0.00000000000000000000e+00) (0, 0, 0.00000000000000000000e+00) (0, 0, 0.00000000000000000000e+00) (0, 0, 0.00000000000000000000e+00) (0, 0, 0.00000000000000000000e+00) (0, 0, 0.00000000000000000000e+00) (0, 0, 0.00000000000000000000e+00) (0, 0, 0.00000000000000000000e+00) (0, 0, 0.00000000000000000000e+00) (0, 0, 0.00000000000000000000e+00) (0, 0, 0.00000000000000000000e+00) (0, 0, 0.00000000000000000000e+00) (0, 0, 0.00000000000000000000e+00) (0, 0, 0.00000000000000000000e+00) (0, 0, 0.00000000000000000000e+00) (0, 0, 0.00000000000000000000e+00) (0, 0, 0.00000000000000000000e+00) (0, 0, 0.00000000000000000000e+00) (0, 0, 0.00000000000000000000e+00) (0, 0, 0.00000000000000000000e+00) (0, 0, 0.00000000000000000000e+00) (0, 0, 0.00000000000000000000e+00) (0, 0, 0.00000000000000000000e+00) (0, 0, 0.00000000000000000000e+00) (0, 0, 0.00000000000000000000e+00) (0, 0, 0.00000000000000000000e+00) (0, 0, 0.00000000000000000000e+00) (0, 0, 0.00000000000000000000e+00) (0, 0, 0.00000000000000000000e+00) (0, 0, 0.00000000000000000000e+00) (0, 0, 0.00000000000000000000e+00) (0, 0, 0.00000000000000000000e+00) (0, 0, 0.00000000000000000000e+00) (0, 0, 0.00000000000000000000e+00) (0, 0, 0.00000000000000000000e+00) (0, 0, 0.00000000000000000000e+00) (0, 0, 0.00000000000000000000e+00) (0, 0, 0.00000000000000000000e+00) (0, 0, 0.00000000000000000000e+00) (0, 0, 0.00000000000000000000e+00) (0, 0, 0.00000000000000000000e+00) (0, 0, 0.00000000000000000000e+00) (0, 0, 0.00000000000000000000e+00) (0, 0, 0.00000000000000000000e+00) (0, 0, 0.00000000000000000000e+00) (0, 0, 0.00000000000000000000e+00) (0, 0, 0.00000000000000000000e+00) (0, 0, 0.00000000000000000000e+00) (0, 0, 0.00000000000000000000e+00) (0, 0, 0.00000000000000000000e+00) (0, 0, 0.00000000000000000000e+00) (0, 0, 0.00000000000000000000e+00) (0, 0, 0.00000000000000000000e+00) (0, 0, 0.00000000000000000000e+00) (0, 0, 0.00000000000000000000e+00) (0, 0, 0.00000000000000000000e+00) (0, 0, 0.00000000000000000000e+00) (0, 0, 0.00000000000000000000e+00) (0, 0, 0.00000000000000000000e+00) (0, 0, 0.00000000000000000000e+00) (0, 0, 0.00000000000000000000e+00) (0, 0, 0.00000000000000000000e+00) (0, 0, 0.00000000000000000000e+00) (0, 0, 0.00000000000000000000e+00) (0, 0, 0.00000000000000000000e+00) (0, 0, 0.00000000000000000000e+00) (0, 0, 0.00000000000000000000e+00) (0, 0, 0.00000000000000000000e+00) (0, 0, 0.00000000000000000000e+00) (0, 0, 0.00000000000000000000e+00) (0, 0, 0.00000000000000000000e+00) (0, 0, 0.00000000000000000000e+00) (0, 0, 0.00000000000000000000e+00) (0, 0, 0.00000000000000000000e+00) (0, 0, 0.00000000000000000000e+00) (0, 0, 0.00000000000000000000e+00) (0, 0, 0.00000000000000000000e+00) (0, 0, 0.00000000000000000000e+00) (0, 0, 0.00000000000000000000e+00) (0, 0, 0.00000000000000000000e+00) (0, 0, 0.00000000000000000000e+00) (0, 0, 0.00000000000000000000e+00) (0, 0, 0.00000000000000000000e+00) (0, 0, 0.00000000000000000000e+00) (0, 0, 0.00000000000000000000e+00) (0, 0, 0.00000000000000000000e+00) (0, 0, 0.00000000000000000000e+00) (0, 0, 0.00000000000000000000e+00) (0, 0, 0.00000000000000000000e+00) (0, 0, 0.00000000000000000000e+00) (0, 0, 0.00000000000000000000e+00) (0, 0, 0.00000000000000000000e+00) (0, 0, 0.00000000000000000000e+00) (0, 0, 0.00000000000000000000e+00) (0, 0, 0.00000000000000000000e+00) (0, 0, 0.00000000000000000000e+00) (0, 0, 0.00000000000000000000e+00) (0, 0, 0.00000000000000000000e+00) (0, 0, 0.00000000000000000000e+00) (0, 0, 0.00000000000000000000e+00) (0, 0, 0.00000000000000000000e+00) (0, 0, 0.00000000000000000000e+00) (0, 0, 0.00000000000000000000e+00) (0, 0, 0.00000000000000000000e+00) (0, 0, 0.00000000000000000000e+00) (0, 0, 0.00000000000000000000e+00) (0, 0, 0.00000000000000000000e+00) (0, 0, 0.00000000000000000000e+00) (0, 0, 0.00000000000000000000e+00) (0, 0, 0.00000000000000000000e+00) (0, 0, 0.00000000000000000000e+00) (0, 0, 0.00000000000000000000e+00) (0, 0, 0.00000000000000000000e+00) (0, 0, 0.00000000000000000000e+00) (0, 0, 0.00000000000000000000e+00) (0, 0, 0.00000000000000000000e+00) (0, 0, 0.00000000000000000000e+00) (0, 0, 0.00000000000000000000e+00) (0, 0, 0.00000000000000000000e+00) (0, 0, 0.00000000000000000000e+00) (0, 0, 0.00000000000000000000e+00) (0, 0, 0.00000000000000000000e+00) (0, 0, 0.00000000000000000000e+00) (0, 0, 0.00000000000000000000e+00) (0, 0, 0.00000000000000000000e+00) (0, 0, 0.00000000000000000000e+00) (0, 0, 0.00000000000000000000e+00) (0, 0, 0.00000000000000000000e+00) (0, 0, 0.00000000000000000000e+00) (0, 0, 0.00000000000000000000e+00) (0, 0, 0.00000000000000000000e+00) (0, 0, 0.00000000000000000000e+00) (0, 0, 0.00000000000000000000e+00) (0, 0, 0.00000000000000000000e+00) (0, 0, 0.00000000000000000000e+00) (0, 0, 0.00000000000000000000e+00) (0, 0, 0.00000000000000000000e+00) (0, 0, 0.00000000000000000000e+00) (0, 0, 0.00000000000000000000e+00) (0, 0, 0.00000000000000000000e+00) (0, 0, 0.00000000000000000000e+00) (0, 0, 0.00000000000000000000e+00) (0, 0, 0.00000000000000000000e+00) (0, 0, 0.00000000000000000000e+00) (0, 0, 0.00000000000000000000e+00) (0, 0, 0.00000000000000000000e+00) (0, 0, 0.00000000000000000000e+00) (0, 0, 0.00000000000000000000e+00) (0, 0, 0.00000000000000000000e+00) (0, 0, 0.00000000000000000000e+00) (0, 0, 0.00000000000000000000e+00) (0, 0, 0.00000000000000000000e+00) (0, 0, 0.00000000000000000000e+00) (0, 0, 0.00000000000000000000e+00) (0, 0, 0.00000000000000000000e+00) (0, 0, 0.00000000000000000000e+00) (0, 0, 0.00000000000000000000e+00) (0, 0, 0.00000000000000000000e+00) (0, 0, 0.00000000000000000000e+00) (0, 0, 0.00000000000000000000e+00) (0, 0, 0.00000000000000000000e+00) (0, 0, 0.00000000000000000000e+00) (0, 0, 0.00000000000000000000e+00) (0, 0, 0.00000000000000000000e+00) (0, 0, 0.00000000000000000000e+00) (0, 0, 0.00000000000000000000e+00) (0, 0, 0.00000000000000000000e+00) (0, 0, 0.00000000000000000000e+00) (0, 0, 0.00000000000000000000e+00) (0, 0, 0.00000000000000000000e+00) (0, 0, 0.00000000000000000000e+00) (0, 0, 0.00000000000000000000e+00) (0, 0, 0.00000000000000000000e+00) (0, 0, 0.00000000000000000000e+00) (0, 0, 0.00000000000000000000e+00) (0, 0, 0.00000000000000000000e+00) (0, 0, 0.00000000000000000000e+00) (0, 0, 0.00000000000000000000e+00) (0, 0, 0.00000000000000000000e+00) (0, 0, 0.00000000000000000000e+00) (0, 0, 0.00000000000000000000e+00) (0, 0, 0.00000000000000000000e+00) (0, 0, 0.00000000000000000000e+00) (0, 0, 0.00000000000000000000e+00) (0, 0, 0.00000000000000000000e+00) (0, 0, 0.00000000000000000000e+00) (0, 0, 0.00000000000000000000e+00) (0, 0, 0.00000000000000000000e+00) (0, 0, 0.00000000000000000000e+00) (0, 0, 0.00000000000000000000e+00) (0, 0, 0.00000000000000000000e+00) (0, 0, 0.00000000000000000000e+00) (0, 0, 0.00000000000000000000e+00) (0, 0, 0.00000000000000000000e+00) (0, 0, 0.00000000000000000000e+00) (0, 0, 0.00000000000000000000e+00) (0, 0, 0.00000000000000000000e+00) (0, 0, 0.00000000000000000000e+00) (0, 0, 0.00000000000000000000e+00) (0, 0, 0.00000000000000000000e+00) (0, 0, 0.00000000000000000000e+00) (0, 0, 0.00000000000000000000e+00) (0, 0, 0.00000000000000000000e+00) (0, 0, 0.00000000000000000000e+00) (0, 0, 0.00000000000000000000e+00) (0, 0, 0.00000000000000000000e+00) (0, 0, 0.00000000000000000000e+00) (0, 0, 0.00000000000000000000e+00) (0, 0, 0.00000000000000000000e+00) (0, 0, 0.00000000000000000000e+00) (0, 0, 0.00000000000000000000e+00) (0, 0, 0.00000000000000000000e+00) (0, 0, 0.00000000000000000000e+00) (0, 0, 0.00000000000000000000e+00) (0, 0, 0.00000000000000000000e+00) (0, 0, 0.00000000000000000000e+00) (0, 0, 0.00000000000000000000e+00) (0, 0, 0.00000000000000000000e+00) (0, 0, 0.00000000000000000000e+00) (0, 0, 0.00000000000000000000e+00) (0, 0, 0.00000000000000000000e+00) (0, 0, 0.00000000000000000000e+00) (0, 0, 0.00000000000000000000e+00) (0, 0, 0.00000000000000000000e+00) (0, 0, 0.00000000000000000000e+00) (0, 0, 0.00000000000000000000e+00) (0, 0, 0.00000000000000000000e+00) (0, 0, 0.00000000000000000000e+00) (0, 0, 0.00000000000000000000e+00) (0, 0, 0.00000000000000000000e+00) (0, 0, 0.00000000000000000000e+00) (0, 0, 0.00000000000000000000e+00) (0, 0, 0.00000000000000000000e+00) (0, 0, 0.00000000000000000000e+00) (0, 0, 0.00000000000000000000e+00) (0, 0, 0.00000000000000000000e+00) (0, 0, 0.00000000000000000000e+00) (0, 0, 0.00000000000000000000e+00) (0, 0, 0.00000000000000000000e+00) (0, 0, 0.00000000000000000000e+00) (0, 0, 0.00000000000000000000e+00) (0, 0, 0.00000000000000000000e+00) (0, 0, 0.00000000000000000000e+00) (0, 0, 0.00000000000000000000e+00) (0, 0, 0.00000000000000000000e+00) (0, 0, 0.00000000000000000000e+00) (0, 0, 0.00000000000000000000e+00) (0, 0, 0.00000000000000000000e+00) (0, 0, 0.00000000000000000000e+00) (0, 0, 0.00000000000000000000e+00) (0, 0, 0.00000000000000000000e+00) (0, 0, 0.00000000000000000000e+00) (0, 0, 0.00000000000000000000e+00) (0, 0, 0.00000000000000000000e+00) (0, 0, 0.00000000000000000000e+00) (0, 0, 0.00000000000000000000e+00) (0, 0, 0.00000000000000000000e+00) (0, 0, 0.00000000000000000000e+00) (0, 0, 0.00000000000000000000e+00) (0, 0, 0.00000000000000000000e+00) (0, 0, 0.00000000000000000000e+00) (0, 0, 0.00000000000000000000e+00) (0, 0, 0.00000000000000000000e+00) (0, 0, 0.00000000000000000000e+00) (0, 0, 0.00000000000000000000e+00) (0, 0, 0.00000000000000000000e+00) (0, 0, 0.00000000000000000000e+00) (0, 0, 0.00000000000000000000e+00) (0, 0, 0.00000000000000000000e+00) (0, 0, 0.00000000000000000000e+00) (0, 0, 0.00000000000000000000e+00) (0, 0, 0.00000000000000000000e+00) (0, 0, 0.00000000000000000000e+00) (0, 0, 0.00000000000000000000e+00) (0, 0, 0.00000000000000000000e+00) (0, 0, 0.00000000000000000000e+00) (0, 0, 0.00000000000000000000e+00) (0, 0, 0.00000000000000000000e+00) (0, 0, 0.00000000000000000000e+00) (0, 0, 0.00000000000000000000e+00) (0, 0, 0.00000000000000000000e+00) (0, 0, 0.00000000000000000000e+00) (0, 0, 0.00000000000000000000e+00) (0, 0, 0.00000000000000000000e+00) (0, 0, 0.00000000000000000000e+00) (0, 0, 0.00000000000000000000e+00) (0, 0, 0.00000000000000000000e+00) (0, 0, 0.00000000000000000000e+00) (0, 0, 0.00000000000000000000e+00) (0, 0, 0.00000000000000000000e+00) (0, 0, 0.00000000000000000000e+00) (0, 0, 0.00000000000000000000e+00) (0, 0, 0.00000000000000000000e+00) (0, 0, 0.00000000000000000000e+00) (0, 0, 0.00000000000000000000e+00) (0, 0, 0.00000000000000000000e+00) (0, 0, 0.00000000000000000000e+00) (0, 0, 0.00000000000000000000e+00) (0, 0, 0.00000000000000000000e+00) (0, 0, 0.00000000000000000000e+00) (0, 0, 0.00000000000000000000e+00) (0, 0, 0.00000000000000000000e+00) (0, 0, 0.00000000000000000000e+00) (0, 0, 0.00000000000000000000e+00) (0, 0, 0.00000000000000000000e+00) (0, 0, 0.00000000000000000000e+00) (0, 0, 0.00000000000000000000e+00) (0, 0, 0.00000000000000000000e+00) (0, 0, 0.00000000000000000000e+00) (0, 0, 0.00000000000000000000e+00) (0, 0, 0.00000000000000000000e+00) (0, 0, 0.00000000000000000000e+00) (0, 0, 0.00000000000000000000e+00) (0, 0, 0.00000000000000000000e+00) (0, 0, 0.00000000000000000000e+00) (0, 0, 0.00000000000000000000e+00) (0, 0, 0.00000000000000000000e+00) (0, 0, 0.00000000000000000000e+00) (0, 0, 0.00000000000000000000e+00) (0, 0, 0.00000000000000000000e+00) (0, 0, 0.00000000000000000000e+00) (0, 0, 0.00000000000000000000e+00) (0, 0, 0.00000000000000000000e+00) (0, 0, 0.00000000000000000000e+00) (0, 0, 0.00000000000000000000e+00) (0, 0, 0.00000000000000000000e+00) (0, 0, 0.00000000000000000000e+00) (0, 0, 0.00000000000000000000e+00) (0, 0, 0.00000000000000000000e+00) (0, 0, 0.00000000000000000000e+00) (0, 0, 0.00000000000000000000e+00) (0, 0, 0.00000000000000000000e+00) (0, 0, 0.00000000000000000000e+00) (0, 0, 0.00000000000000000000e+00) (0, 0, 0.00000000000000000000e+00) (0, 0, 0.00000000000000000000e+00) (0, 0, 0.00000000000000000000e+00) (0, 0, 0.00000000000000000000e+00) (0, 0, 0.00000000000000000000e+00) (0, 0, 0.00000000000000000000e+00) (0, 0, 0.00000000000000000000e+00) (0, 0, 0.00000000000000000000e+00) (0, 0, 0.00000000000000000000e+00) (0, 0, 0.00000000000000000000e+00) (0, 0, 0.00000000000000000000e+00) (0, 0, 0.00000000000000000000e+00) (0, 0, 0.00000000000000000000e+00) (0, 0, 0.00000000000000000000e+00) (0, 0, 0.00000000000000000000e+00) (0, 0, 0.00000000000000000000e+00) (0, 0, 0.00000000000000000000e+00) (0, 0, 0.00000000000000000000e+00) (0, 0, 0.00000000000000000000e+00) (0, 0, 0.00000000000000000000e+00) (0, 0, 0.00000000000000000000e+00) (0, 0, 0.00000000000000000000e+00) (0, 0, 0.00000000000000000000e+00) (0, 0, 0.00000000000000000000e+00) (0, 0, 0.00000000000000000000e+00) (0, 0, 0.00000000000000000000e+00) (0, 0, 0.00000000000000000000e+00) (0, 0, 0.00000000000000000000e+00) (0, 0, 0.00000000000000000000e+00) (0, 0, 0.00000000000000000000e+00) (0, 0, 0.00000000000000000000e+00) (0, 0, 0.00000000000000000000e+00) (0, 0, 0.00000000000000000000e+00) (0, 0, 0.00000000000000000000e+00) (0, 0, 0.00000000000000000000e+00) (0, 0, 0.00000000000000000000e+00) (0, 0, 0.00000000000000000000e+00) (0, 0, 0.00000000000000000000e+00) (0, 0, 0.00000000000000000000e+00) (0, 0, 0.00000000000000000000e+00) (0, 0, 0.00000000000000000000e+00) (0, 0, 0.00000000000000000000e+00) (0, 0, 0.00000000000000000000e+00) (0, 0, 0.00000000000000000000e+00) (0, 0, 0.00000000000000000000e+00) (0, 0, 0.00000000000000000000e+00) (0, 0, 0.00000000000000000000e+00) (0, 0, 0.00000000000000000000e+00) (0, 0, 0.00000000000000000000e+00) (0, 0, 0.00000000000000000000e+00) (0, 0, 0.00000000000000000000e+00) (0, 0, 0.00000000000000000000e+00) (0, 0, 0.00000000000000000000e+00) (0, 0, 0.00000000000000000000e+00) (0, 0, 0.00000000000000000000e+00) (0, 0, 0.00000000000000000000e+00) (0, 0, 0.00000000000000000000e+00) (0, 0, 0.00000000000000000000e+00) (0, 0, 0.00000000000000000000e+00) (0, 0, 0.00000000000000000000e+00) (0, 0, 0.00000000000000000000e+00) (0, 0, 0.00000000000000000000e+00) (0, 0, 0.00000000000000000000e+00) (0, 0, 0.00000000000000000000e+00) (0, 0, 0.00000000000000000000e+00) (0, 0, 0.00000000000000000000e+00) (0, 0, 0.00000000000000000000e+00) (0, 0, 0.00000000000000000000e+00) (0, 0, 0.00000000000000000000e+00) (0, 0, 0.00000000000000000000e+00) (0, 0, 0.00000000000000000000e+00) (0, 0, 0.00000000000000000000e+00) (0, 0, 0.00000000000000000000e+00) (0, 0, 0.00000000000000000000e+00) (0, 0, 0.00000000000000000000e+00) (0, 0, 0.00000000000000000000e+00) (0, 0, 0.00000000000000000000e+00) (0, 0, 0.00000000000000000000e+00) (0, 0, 0.00000000000000000000e+00) (0, 0, 0.00000000000000000000e+00) (0, 0, 0.00000000000000000000e+00) (0, 0, 0.00000000000000000000e+00) (0, 0, 0.00000000000000000000e+00) (0, 0, 0.00000000000000000000e+00) (0, 0, 0.00000000000000000000e+00) (0, 0, 0.00000000000000000000e+00) (0, 0, 0.00000000000000000000e+00) (0, 0, 0.00000000000000000000e+00) (0, 0, 0.00000000000000000000e+00) (0, 0, 0.00000000000000000000e+00) (0, 0, 0.00000000000000000000e+00) (0, 0, 0.00000000000000000000e+00) (0, 0, 0.00000000000000000000e+00) (0, 0, 0.00000000000000000000e+00) (0, 0, 0.00000000000000000000e+00) (0, 0, 0.00000000000000000000e+00) (0, 0, 0.00000000000000000000e+00) (0, 0, 0.00000000000000000000e+00) (0, 0, 0.00000000000000000000e+00) (0, 0, 0.00000000000000000000e+00) (0, 0, 0.00000000000000000000e+00) (0, 0, 0.00000000000000000000e+00) (0, 0, 0.00000000000000000000e+00) (0, 0, 0.00000000000000000000e+00) (0, 0, 0.00000000000000000000e+00) (0, 0, 0.00000000000000000000e+00) (0, 0, 0.00000000000000000000e+00) (0, 0, 0.00000000000000000000e+00) (0, 0, 0.00000000000000000000e+00) (0, 0, 0.00000000000000000000e+00) (0, 0, 0.00000000000000000000e+00) (0, 0, 0.00000000000000000000e+00) (0, 0, 0.00000000000000000000e+00) (0, 0, 0.00000000000000000000e+00) (0, 0, 0.00000000000000000000e+00) (0, 0, 0.00000000000000000000e+00) (0, 0, 0.00000000000000000000e+00) (0, 0, 0.00000000000000000000e+00) (0, 0, 0.00000000000000000000e+00) (0, 0, 0.00000000000000000000e+00) (0, 0, 0.00000000000000000000e+00) (0, 0, 0.00000000000000000000e+00) (0, 0, 0.00000000000000000000e+00) (0, 0, 0.00000000000000000000e+00) (0, 0, 0.00000000000000000000e+00) (0, 0, 0.00000000000000000000e+00) (0, 0, 0.00000000000000000000e+00) (0, 0, 0.00000000000000000000e+00) (0, 0, 0.00000000000000000000e+00) (0, 0, 0.00000000000000000000e+00) (0, 0, 0.00000000000000000000e+00) (0, 0, 0.00000000000000000000e+00) (0, 0, 0.00000000000000000000e+00) (0, 0, 0.00000000000000000000e+00) (0, 0, 0.00000000000000000000e+00) (0, 0, 0.00000000000000000000e+00) (0, 0, 0.00000000000000000000e+00) (0, 0, 0.00000000000000000000e+00) (0, 0, 0.00000000000000000000e+00) (0, 0, 0.00000000000000000000e+00) (0, 0, 0.00000000000000000000e+00) (0, 0, 0.00000000000000000000e+00) (0, 0, 0.00000000000000000000e+00) (0, 0, 0.00000000000000000000e+00) (0, 0, 0.00000000000000000000e+00) (0, 0, 0.00000000000000000000e+00) (0, 0, 0.00000000000000000000e+00) (0, 0, 0.00000000000000000000e+00) (0, 0, 0.00000000000000000000e+00) (0, 0, 0.00000000000000000000e+00) (0, 0, 0.00000000000000000000e+00) (0, 0, 0.00000000000000000000e+00) (0, 0, 0.00000000000000000000e+00) (0, 0, 0.00000000000000000000e+00) (0, 0, 0.00000000000000000000e+00) (0, 0, 0.00000000000000000000e+00) (0, 0, 0.00000000000000000000e+00) (0, 0, 0.00000000000000000000e+00) (0, 0, 0.00000000000000000000e+00) (0, 0, 0.00000000000000000000e+00) (0, 0, 0.00000000000000000000e+00) (0, 0, 0.00000000000000000000e+00) (0, 0, 0.00000000000000000000e+00) (0, 0, 0.00000000000000000000e+00) (0, 0, 0.00000000000000000000e+00) (0, 0, 0.00000000000000000000e+00) (0, 0, 0.00000000000000000000e+00) (0, 0, 0.00000000000000000000e+00) (0, 0, 0.00000000000000000000e+00) (0, 0, 0.00000000000000000000e+00) (0, 0, 0.00000000000000000000e+00) (0, 0, 0.00000000000000000000e+00) (0, 0, 0.00000000000000000000e+00) (0, 0, 0.00000000000000000000e+00) (0, 0, 0.00000000000000000000e+00) (0, 0, 0.00000000000000000000e+00) (0, 0, 0.00000000000000000000e+00) (0, 0, 0.00000000000000000000e+00) (0, 0, 0.00000000000000000000e+00) (0, 0, 0.00000000000000000000e+00) (0, 0, 0.00000000000000000000e+00) (0, 0, 0.00000000000000000000e+00) (0, 0, 0.00000000000000000000e+00) (0, 0, 0.00000000000000000000e+00) (0, 0, 0.00000000000000000000e+00) (0, 0, 0.00000000000000000000e+00) (0, 0, 0.00000000000000000000e+00) (0, 0, 0.00000000000000000000e+00) (0, 0, 0.00000000000000000000e+00) (0, 0, 0.00000000000000000000e+00) (0, 0, 0.00000000000000000000e+00) (0, 0, 0.00000000000000000000e+00) (0, 0, 0.00000000000000000000e+00) (0, 0, 0.00000000000000000000e+00) (0, 0, 0.00000000000000000000e+00) (0, 0, 0.00000000000000000000e+00) (0, 0, 0.00000000000000000000e+00) (0, 0, 0.00000000000000000000e+00) (0, 0, 0.00000000000000000000e+00) (0, 0, 0.00000000000000000000e+00) (0, 0, 0.00000000000000000000e+00) (0, 0, 0.00000000000000000000e+00) (0, 0, 0.00000000000000000000e+00) (0, 0, 0.00000000000000000000e+00) (0, 0, 0.00000000000000000000e+00) (0, 0, 0.00000000000000000000e+00) (0, 0, 0.00000000000000000000e+00) (0, 0, 0.00000000000000000000e+00) (0, 0, 0.00000000000000000000e+00) (0, 0, 0.00000000000000000000e+00) (0, 0, 0.00000000000000000000e+00) (0, 0, 0.00000000000000000000e+00) (0, 0, 0.00000000000000000000e+00) (0, 0, 0.00000000000000000000e+00) (0, 0, 0.00000000000000000000e+00) (0, 0, 0.00000000000000000000e+00) (0, 0, 0.00000000000000000000e+00) (0, 0, 0.00000000000000000000e+00) (0, 0, 0.00000000000000000000e+00) (0, 0, 0.00000000000000000000e+00) (0, 0, 0.00000000000000000000e+00) (0, 0, 0.00000000000000000000e+00) (0, 0, 0.00000000000000000000e+00) (0, 0, 0.00000000000000000000e+00) (0, 0, 0.00000000000000000000e+00) (0, 0, 0.00000000000000000000e+00) (0, 0, 0.00000000000000000000e+00) (0, 0, 0.00000000000000000000e+00) (0, 0, 0.00000000000000000000e+00) (0, 0, 0.00000000000000000000e+00) (0, 0, 0.00000000000000000000e+00) (0, 0, 0.00000000000000000000e+00) (0, 0, 0.00000000000000000000e+00) (0, 0, 0.00000000000000000000e+00) (0, 0, 0.00000000000000000000e+00) (0, 0, 0.00000000000000000000e+00) (0, 0, 0.00000000000000000000e+00) (0, 0, 0.00000000000000000000e+00) (0, 0, 0.00000000000000000000e+00) (0, 0, 0.00000000000000000000e+00) (0, 0, 0.00000000000000000000e+00) (0, 0, 0.00000000000000000000e+00) (0, 0, 0.00000000000000000000e+00) (0, 0, 0.00000000000000000000e+00) (0, 0, 0.00000000000000000000e+00) (0, 0, 0.00000000000000000000e+00) (0, 0, 0.00000000000000000000e+00) (0, 0, 0.00000000000000000000e+00) (0, 0, 0.00000000000000000000e+00) (0, 0, 0.00000000000000000000e+00) (0, 0, 0.00000000000000000000e+00) (0, 0, 0.00000000000000000000e+00) (0, 0, 0.00000000000000000000e+00) (0, 0, 0.00000000000000000000e+00) (0, 0, 0.00000000000000000000e+00) (0, 0, 0.00000000000000000000e+00) (0, 0, 0.00000000000000000000e+00) (0, 0, 0.00000000000000000000e+00) (0, 0, 0.00000000000000000000e+00) (0, 0, 0.00000000000000000000e+00) (0, 0, 0.00000000000000000000e+00) (0, 0, 0.00000000000000000000e+00) (0, 0, 0.00000000000000000000e+00) (0, 0, 0.00000000000000000000e+00) (0, 0, 0.00000000000000000000e+00) (0, 0, 0.00000000000000000000e+00) (0, 0, 0.00000000000000000000e+00) (0, 0, 0.00000000000000000000e+00) (0, 0, 0.00000000000000000000e+00) (0, 0, 0.00000000000000000000e+00) (0, 0, 0.00000000000000000000e+00) (0, 0, 0.00000000000000000000e+00) (0, 0, 0.00000000000000000000e+00) (0, 0, 0.00000000000000000000e+00) (0, 0, 0.00000000000000000000e+00) (0, 0, 0.00000000000000000000e+00) (0, 0, 0.00000000000000000000e+00) (0, 0, 0.00000000000000000000e+00) (0, 0, 0.00000000000000000000e+00) (0, 0, 0.00000000000000000000e+00) (0, 0, 0.00000000000000000000e+00) (0, 0, 0.00000000000000000000e+00) (0, 0, 0.00000000000000000000e+00) (0, 0, 0.00000000000000000000e+00) (0, 0, 0.00000000000000000000e+00) (0, 0, 0.00000000000000000000e+00) (0, 0, 0.00000000000000000000e+00) (0, 0, 0.00000000000000000000e+00) (0, 0, 0.00000000000000000000e+00) (0, 0, 0.00000000000000000000e+00) (0, 0, 0.00000000000000000000e+00) (0, 0, 0.00000000000000000000e+00) (0, 0, 0.00000000000000000000e+00) (0, 0, 0.00000000000000000000e+00) (0, 0, 0.00000000000000000000e+00) (0, 0, 0.00000000000000000000e+00) (0, 0, 0.00000000000000000000e+00) (0, 0, 0.00000000000000000000e+00) (0, 0, 0.00000000000000000000e+00) (0, 0, 0.00000000000000000000e+00) (0, 0, 0.00000000000000000000e+00) (0, 0, 0.00000000000000000000e+00) (0, 0, 0.00000000000000000000e+00) (0, 0, 0.00000000000000000000e+00) (0, 0, 0.00000000000000000000e+00) (0, 0, 0.00000000000000000000e+00) (0, 0, 0.00000000000000000000e+00) (0, 0, 0.00000000000000000000e+00) (0, 0, 0.00000000000000000000e+00) (0, 0, 0.00000000000000000000e+00) (0, 0, 0.00000000000000000000e+00) (0, 0, 0.00000000000000000000e+00) (0, 0, 0.00000000000000000000e+00) (0, 0, 0.00000000000000000000e+00) (0, 0, 0.00000000000000000000e+00) (0, 0, 0.00000000000000000000e+00) (0, 0, 0.00000000000000000000e+00) (0, 0, 0.00000000000000000000e+00) (0, 0, 0.00000000000000000000e+00) (0, 0, 0.00000000000000000000e+00) (0, 0, 0.00000000000000000000e+00) (0, 0, 0.00000000000000000000e+00) (0, 0, 0.00000000000000000000e+00) (0, 0, 0.00000000000000000000e+00) (0, 0, 0.00000000000000000000e+00) (0, 0, 0.00000000000000000000e+00) (682, 3, 5.00000000000000000000e-01) (682, 3, 5.00000000000000000000e-01) (682, 3, 5.00000000000000000000e-01) (682, 3, 5.00000000000000000000e-01) (682, 3, 5.00000000000000000000e-01) (682, 3, 5.00000000000000000000e-01) (682, 3, 5.00000000000000000000e-01) (682, 3, 5.00000000000000000000e-01) (682, 3, 5.00000000000000000000e-01) (682, 3, 5.00000000000000000000e-01) (682, 3, 5.00000000000000000000e-01) (682, 3, 5.00000000000000000000e-01) (682, 3, 5.00000000000000000000e-01) (682, 3, 5.00000000000000000000e-01) (682, 3, 5.00000000000000000000e-01) (682, 3, 5.00000000000000000000e-01) (682, 3, 5.00000000000000000000e-01) (682, 3, 5.00000000000000000000e-01) (682, 3, 5.00000000000000000000e-01) (682, 3, 5.00000000000000000000e-01) (682, 3, 5.00000000000000000000e-01) (682, 3, 5.00000000000000000000e-01) (682, 3, 5.00000000000000000000e-01) (682, 3, 5.00000000000000000000e-01) (682, 3, 5.00000000000000000000e-01) (682, 3, 5.00000000000000000000e-01) (682, 3, 5.00000000000000000000e-01) (682, 3, 5.00000000000000000000e-01) (682, 3, 5.00000000000000000000e-01) (682, 3, 5.00000000000000000000e-01) (682, 3, 5.00000000000000000000e-01) (682, 3, 5.00000000000000000000e-01) (682, 3, 5.00000000000000000000e-01) (682, 3, 5.00000000000000000000e-01) (682, 3, 5.00000000000000000000e-01) (682, 3, 5.00000000000000000000e-01) (682, 3, 5.00000000000000000000e-01) (682, 3, 5.00000000000000000000e-01) (682, 3, 5.00000000000000000000e-01) (682, 3, 5.00000000000000000000e-01) (682, 3, 5.00000000000000000000e-01) (682, 3, 5.00000000000000000000e-01) (682, 3, 5.00000000000000000000e-01) (682, 3, 5.00000000000000000000e-01) (682, 3, 5.00000000000000000000e-01) (682, 3, 5.00000000000000000000e-01) (682, 3, 5.00000000000000000000e-01) (682, 3, 5.00000000000000000000e-01) (682, 3, 5.00000000000000000000e-01) (682, 3, 5.00000000000000000000e-01) (682, 3, 5.00000000000000000000e-01) (682, 3, 5.00000000000000000000e-01) (682, 3, 5.00000000000000000000e-01) (682, 3, 5.00000000000000000000e-01) (682, 3, 5.00000000000000000000e-01) (682, 3, 5.00000000000000000000e-01) (682, 3, 5.00000000000000000000e-01) (682, 3, 5.00000000000000000000e-01) (682, 3, 5.00000000000000000000e-01) (682, 3, 5.00000000000000000000e-01) (0, 3, 0.00000000000000000000e+00) (61, 3, 5.00000000000000000000e-01) (61, 3, 5.00000000000000000000e-01) (61, 3, 5.00000000000000000000e-01) (0, 3, 0.00000000000000000000e+00) 
connections (connected_to_neuron, weight)=(0, 1.33539012677124282330e-02) (1, 4.21021442304126761180e-02) (2, -1.45799645976283035603e-02) (3, -5.32428100134659937348e-02) (4, 5.19282292327915909191e-02) (5, 5.03765170892731331542e-02) (6, -3.33442745963560688294e-02) (7, 9.32194960826725205205e-02) (8, -3.53672267892728223182e-02) (9, -1.00824490445993990989e-02) (10, -7.15558181772196488790e-02) (11, -3.78468737740110389156e-02) (12, -1.00620646959477411803e-02) (13, -3.87005648899067106194e-02) (14, -9.95710223442215075496e-03) (15, 7.92823609900148579266e-02) (16, -8.17184602031680376588e-03) (17, 8.69281278202068269367e-02) (18, 3.42327926074182734006e-02) (19, -1.96475457373394314653e-02) (20, 8.66046173052371220935e-02) (21, -6.71511011722010081604e-02) (22, 3.71091808559209507257e-02) (23, -4.00243300531542417486e-02) (24, 6.14183228044913737120e-02) (25, -7.54542238088960759423e-02) (26, -1.34709031797342476677e-01) (27, 2.59677088002139670742e-02) (28, -8.67167860605247559080e-02) (29, -1.05787132802579120217e-01) (30, 5.28872744538119790580e-02) (31, -8.92314718768758563527e-02) (32, 7.31615424139280406957e-02) (33, -4.44521633216869091476e-02) (34, -3.14052285049738477696e-02) (35, 8.38963057494398478653e-02) (36, -9.49230881424823202952e-02) (37, 6.65107085887114111988e-04) (38, 5.55821019713967426346e-02) (39, -4.65323330347236427396e-02) (40, -5.87290247208854740424e-02) (41, -6.43116217575669529838e-02) (42, 1.67459249677174779047e-02) (43, 1.84770303187840323478e-02) (44, -2.61734054700453987186e-02) (45, -4.02642576550753736320e-02) (46, 3.26068376454217503935e-02) (47, 8.90541480039388488876e-02) (48, -6.22674352988149895638e-02) (49, -5.95041676299289806762e-02) (50, -7.19306783930331317123e-02) (51, -4.79250413431411420584e-02) (52, 8.85889391579785800968e-02) (53, -8.49223839694169535530e-02) (54, 7.09489312671269106714e-02) (55, 6.70066217084059195797e-02) (56, -3.71294404179314946335e-02) (57, 1.06549516288575972511e-02) (58, 5.16690327088852388582e-02) (59, 4.75938527522309362539e-02) (60, 1.10879202929113740428e-01) (61, -2.00098119772987130538e-03) (62, 3.40411381495094034211e-02) (63, 3.81352197503767517683e-02) (64, 5.08303952668386072045e-02) (65, -6.05684385076034961792e-02) (66, 3.11459242231855448768e-02) (67, 9.05350696598000020954e-02) (68, 6.81251419003888331050e-02) (69, 1.12691892820846600864e-02) (70, -9.37466459654254097300e-02) (71, 7.69985940169504862185e-02) (72, -2.05259071192656315785e-02) (73, 5.82556165851537757772e-02) (74, 9.62260066453270689057e-03) (75, -7.76934119176385523664e-02) (76, -3.24568972256259122289e-02) (77, -9.91413610503989878309e-02) (78, 7.14163359603395830888e-02) (79, 2.24599306598693748737e-04) (80, -2.49393375535753476779e-02) (81, -7.90598983503899566117e-02) (82, 2.90270884087443434285e-02) (83, -7.14873408487750466866e-02) (84, -9.44966520718927283085e-02) (85, -1.97519803495762487355e-02) (86, 1.27928295777452044613e-01) (87, -6.91269938168345417055e-04) (88, -2.39566417550732511932e-02) (89, 5.81733000276826589525e-02) (90, -8.36731015061851629566e-02) (91, -5.23781734545115881807e-02) (92, -7.89687631927834393641e-02) (93, 6.33854818701522770841e-02) (94, -8.69002726773978328989e-02) (95, 8.82214139344252856745e-02) (96, -7.74307056931530651722e-02) (97, 4.64528161500210728940e-02) (98, 6.27674651352913282043e-02) (99, -5.62307767941449335170e-02) (100, -3.88689939986834667729e-02) (101, 8.84200239171576002351e-02) (102, -9.61409675519401263344e-02) (103, 4.43397802737007934448e-02) (104, 2.24057571600219836150e-02) (105, 2.39697173303990603010e-02) (106, 5.96782867332986757813e-02) (107, 1.07764931062305210907e-01) (108, 4.08619479308436131526e-02) (109, 1.03062265832285920863e-01) (110, -1.52191763386492571325e-02) (111, 7.70725023332430037026e-02) (112, 6.02086142210403740815e-02) (113, -4.68732439406911241542e-02) (114, -7.37668159297064501834e-02) (115, 8.36140375159821480633e-02) (116, 6.98940637998339969750e-02) (117, -1.00090607007844015208e-01) (118, -1.31098880658902759710e-02) (119, -4.98994000284399968903e-02) (120, 8.80037871357076117995e-02) (121, -1.62695477464222387765e-02) (122, 2.76030286000989973430e-03) (123, -9.31885318520726257940e-02) (124, -4.07372883109860250972e-02) (125, 1.49847025343790279245e-02) (126, 8.24921270679869617082e-02) (127, 3.81326519325851376330e-02) (128, -2.26469269317304301714e-02) (129, 6.12654619152183735342e-02) (130, 2.95029085716428524089e-02) (131, 1.80125205761103544810e-02) (132, -7.30066262908185981823e-03) (133, 5.46408202129939485348e-02) (134, -2.39768897307946621256e-02) (135, -7.60970914304348183821e-02) (136, -5.64218614489056385919e-02) (137, -7.35305028125798759708e-02) (138, -5.25104908634203212947e-02) (139, 1.04974564470393341709e-01) (140, -8.18050715207696843567e-02) (141, 4.96261601016019446297e-02) (142, 6.27501941266819657228e-02) (143, 9.85744460579133646716e-02) (144, 6.71890115067845378194e-02) (145, -1.02324262268863125369e-01) (146, 7.70180644215812254538e-02) (147, 5.62122619093508718580e-02) (148, -2.07888221227754584064e-02) (149, 6.54267128037646760602e-03) (150, -7.22290797265410094985e-02) (151, -1.13540073833936869252e-01) (152, 3.61742786915961872518e-02) (153, -1.22889421405852385105e-02) (154, -8.44042112086653695258e-02) (155, -7.36936145105220319351e-02) (156, -7.82406262342908720431e-02) (157, -9.05335331970022333392e-02) (158, 4.44507935744872240136e-02) (159, 1.28101967361550113378e-02) (160, 6.44429359821677427700e-02) (161, -1.85539370474419769430e-02) (162, 8.43806193358955236583e-02) (163, -5.42911021378684466310e-02) (164, -1.11290634340003954939e-01) (165, -3.95955044053744945054e-02) (166, 6.73395843551477784467e-03) (167, -3.39062231141458725325e-02) (168, 4.82018001150571820390e-02) (169, 6.04808793357773030741e-02) (170, -1.38387221225488611653e-02) (171, 3.43705098754940874262e-02) (172, -3.59139274591064802666e-02) (173, -4.15943262270663874358e-02) (174, 2.27347779246145180465e-02) (175, -2.14224796183549899553e-02) (176, -2.05006537059252702537e-02) (177, 3.83853221041038430994e-02) (178, -5.49162444000894922613e-02) (179, 1.10656624751542861235e-02) (180, 8.86302976949335935553e-02) (181, -4.60082031656483467219e-02) (182, 3.54562735854375629674e-02) (183, 1.68365792470992411967e-02) (184, 2.29866515643638857913e-02) (185, 6.33653948148933665596e-02) (186, 6.08986277508034926087e-02) (187, 4.67317484640568034382e-02) (188, 8.46367812561118620929e-02) (189, 2.11958446212838595712e-02) (190, -7.47860032952570308318e-02) (191, -8.98569124754721240689e-03) (192, 7.46379638905914910563e-02) (193, -6.27134488153802266419e-02) (194, 8.67364298007099743248e-02) (195, -1.32300632935850509542e-01) (196, -2.59221915692153213884e-02) (197, -5.27617397897113993462e-04) (198, -3.07132293920128890408e-02) (199, -6.85132716811768238685e-02) (200, -7.24756628981837597303e-02) (201, 4.18605635827172736785e-02) (202, 1.01668555990869199923e-01) (203, 5.18430450249278487740e-02) (204, 5.09584600378788429853e-02) (205, 2.74326318709970477794e-02) (206, -8.93491047937591126304e-02) (207, -8.25072380317783543591e-02) (208, 2.42307896038145356710e-03) (209, -4.94396490207849245713e-02) (210, 4.83908130581634787770e-02) (211, -2.79354302145343909303e-02) (212, 1.68297180180995119281e-02) (213, -2.72321165475870458073e-02) (214, -6.86196049052889833764e-02) (215, -7.98153262287715492551e-02) (216, -6.15815881964206016108e-02) (217, 9.05766921763809657042e-02) (218, 1.00135184968425050567e-01) (219, -1.16524701349491999203e-01) (220, 3.56524511173026597069e-03) (221, -8.32227863055053362906e-02) (222, -1.29087604223213797162e-03) (223, -1.28886159293604991155e-02) (224, -8.23204614096355452579e-02) (225, -7.01342481230607817794e-03) (226, -1.31543977085818138487e-03) (227, 2.63000530564104738340e-02) (228, -1.02333959269192836805e-01) (229, 7.84236536198274769571e-02) (230, 3.32932410090495817245e-02) (231, -2.09712413951404844092e-02) (232, 1.38598146839431102945e-02) (233, 1.27890970221822431602e-02) (234, 9.36524662703239335615e-02) (235, 2.83755249322254904376e-02) (236, -2.39853130494126591532e-02) (237, 1.16031489114747268787e-01) (238, 1.53583647323868675155e-02) (239, 3.65205631627494725633e-02) (240, -4.02741804685928309060e-02) (241, -2.32326236594690010984e-02) (242, -1.00149234545078957836e-01) (243, 3.42395117603109047644e-02) (244, 2.58569576723412936081e-02) (245, -8.85467604425074217289e-02) (246, 7.74712645686580630988e-02) (247, 1.02670705321564081913e-01) (248, -7.94681371711238176969e-02) (249, 7.64754779167119008720e-02) (250, 9.79185222181264414143e-02) (251, 2.28372880895939441015e-02) (252, 9.45803488155131655279e-02) (253, -1.47496318434481403503e-02) (254, -1.03531129142177297231e-01) (255, -6.36952492866256769766e-02) (256, -6.51310470499401189537e-02) (257, 2.55764438336701441234e-02) (258, 4.13588451229324749470e-02) (259, -8.57711604085912571183e-02) (260, -3.12922260613615818570e-02) (261, -1.93808900246199532214e-02) (262, -1.76731100867545017075e-02) (263, 5.29901187093813827444e-02) (264, -6.50602126059023205817e-02) (265, -4.63732094773751865602e-02) (266, -6.94812746887431692544e-02) (267, 8.40774117747205979034e-02) (268, -6.57806526112303391329e-03) (269, 5.72370557188941336824e-02) (270, -3.59160486340669160565e-02) (271, 2.37434600076577989602e-02) (272, -5.65962219378259162594e-02) (273, -2.44451471916695313447e-02) (274, -1.87468383419054918093e-02) (275, 8.40679242307130203393e-02) (276, 7.35134201296577249884e-02) (277, -2.12996350233017502085e-02) (278, 3.83828670845559813407e-02) (279, 9.70467006535378484688e-02) (280, -4.36147998154947785787e-02) (281, 2.59033430911396293783e-02) (282, 1.84148598377684852290e-02) (283, -1.28220219816169694188e-02) (284, -9.80561603983077650915e-02) (285, -1.84171771771049277988e-02) (286, -5.44425680888146537595e-02) (287, 7.91012425983882438985e-02) (288, -9.16489818152265850459e-02) (289, -6.97133640782988950324e-02) (290, 2.99993453916508646950e-02) (291, -2.34262905362008421947e-03) (292, 3.95404659507431407994e-02) (293, -9.00930681400346766718e-02) (294, -2.95408682654460554018e-02) (295, 1.65843310380859448872e-02) (296, -1.13245161275331643336e-02) (297, -2.63170527956479473330e-02) (298, -1.50891407772996907766e-02) (299, 6.27686240551380558728e-02) (300, -2.51457206716163353399e-03) (301, 5.22327772167951800975e-02) (302, -1.62156240488997953342e-02) (303, 3.18751650842638012406e-02) (304, -4.10259487575458658970e-02) (305, 5.59645970374307022421e-02) (306, 4.00747142379638109783e-03) (307, -1.20241109199512256206e-02) (308, -6.77319875135016236101e-02) (309, -5.68944956391339781709e-02) (310, 8.41428004755040842566e-02) (311, 4.83859969322110797241e-02) (312, -7.14629061007693300311e-02) (313, -1.48515565035150509665e-02) (314, -1.09945905329181400911e-01) (315, -9.10895781172445934137e-03) (316, -2.61530052543182192637e-02) (317, -2.05414174812672614689e-02) (318, 4.79455561769744492695e-02) (319, -4.98437256575168033401e-02) (320, 2.61605749123701297743e-02) (321, -1.16436144424710182055e-02) (322, -2.38148038302755720927e-03) (323, -8.19883726147041386190e-02) (324, -3.84815576257987179698e-02) (325, -7.35592004670596183447e-02) (326, -8.13971120714277046604e-02) (327, -3.54109236323383517846e-04) (328, 2.81284239243811684528e-02) (329, 2.41006729758693541421e-02) (330, 1.86934674441010216517e-02) (331, -8.45537832598678568141e-02) (332, -3.23982902292136581979e-02) (333, -8.37940267854770104439e-02) (334, 4.98001018511971885183e-02) (335, 7.25102102999899966740e-02) (336, -6.25149993775964002429e-02) (337, -2.90936230363348091732e-02) (338, 8.98725992106379073521e-02) (339, 8.15410375219609122321e-03) (340, 9.74140949674319328588e-02) (341, 6.66105898013518993306e-02) (342, -7.76881842785224208114e-02) (343, -2.23467212136273137013e-02) (344, -1.70913245610634853544e-02) (345, -5.17973262370432299684e-02) (346, 6.81222117207677252404e-02) (347, 2.33990304259110437624e-02) (348, 2.92756525845937858044e-02) (349, 4.97784148695702283183e-02) (350, 4.31055586083016889498e-02) (351, -1.06116234371830583938e-01) (352, -1.18895125366946879941e-01) (353, -4.67728945973400981467e-03) (354, -1.09378216716696282512e-02) (355, -9.02957949627394840242e-03) (356, 1.86917095078925239726e-02) (357, 6.42973257656844800201e-03) (358, -4.96156704470268050677e-02) (359, -8.24558094766246196805e-02) (360, -9.86517592552863670230e-03) (361, 8.77496878269889007962e-02) (362, -3.76662936251035834756e-02) (363, -4.85273282443841186273e-03) (364, -8.38150653730488359727e-02) (365, -6.07690524927189390514e-02) (366, -2.06641817365466641532e-02) (367, -9.19557185615965111403e-02) (368, -3.56197549193054754935e-02) (369, -7.55901917018610407933e-03) (370, 4.13132730025870809065e-02) (371, -8.15846345352147644947e-02) (372, -5.50996250833831399674e-02) (373, -1.00130859173826025632e-01) (374, 5.94655414225092257552e-02) (375, 1.39664305572953541257e-02) (376, -4.91616219412575883307e-02) (377, 5.05824357669506577406e-02) (378, -7.95963514908999275610e-02) (379, 7.46073594332655604111e-02) (380, 5.16931834109145074696e-02) (381, 9.64334281642960644554e-02) (382, -8.23692636783390774724e-02) (383, 1.27206130854021770560e-02) (384, 2.32284235352577580341e-03) (385, 1.14276299288091649081e-02) (386, -1.02190283783425026054e-01) (387, -7.94978354690219074508e-02) (388, -9.19312060802370961676e-02) (389, -1.03712531795942621872e-03) (390, 1.35541150041267374066e-02) (391, -7.91543750618284164267e-02) (392, -5.30476611144990589652e-02) (393, 4.22920091206009027274e-02) (394, 5.51111155244997721891e-02) (395, -5.05991556787501184367e-02) (396, -1.17382790607559239771e-01) (397, -6.74620899535528922852e-02) (398, 1.10563536458385680561e-03) (399, 4.59673825721321066551e-02) (400, 2.64871033314580985041e-02) (401, -6.85146984414934136220e-03) (402, 8.94281266411819236728e-02) (403, 2.71563586071383381015e-02) (404, -8.61814041095059456266e-03) (405, 1.94348632322061259936e-02) (406, 7.29272778289650255162e-03) (407, 3.28399356338521311582e-02) (408, -4.25867402251132454172e-02) (409, 4.54545309558144414175e-02) (410, 5.83064860677292504110e-02) (411, -7.07442364049060690157e-02) (412, 3.46244906963577708803e-02) (413, 8.40468010087717376511e-02) (414, 4.93454290100394377117e-02) (415, -8.90819467372606366151e-02) (416, -3.18159488105403537306e-02) (417, 3.42419495967167114570e-02) (418, -3.72545014176335759215e-02) (419, 4.27893784596325293945e-02) (420, -5.96241641018563292564e-02) (421, 4.14935678919772094053e-02) (422, 7.78658999279429331342e-02) (423, -3.94381221173879109587e-02) (424, 3.52488636153823614583e-02) (425, 1.41187808380505083750e-02) (426, 4.78464034934966975232e-02) (427, 1.61310907203264970733e-02) (428, 1.66376242541069058190e-02) (429, -3.99499595034142687688e-02) (430, -3.15369782924723937589e-02) (431, -4.98452204804668633220e-02) (432, 1.92643613608471653276e-02) (433, -7.31192142015001517175e-02) (434, 1.21759412912879116941e-01) (435, -4.70476269827395168766e-02) (436, 4.44015095184335586986e-02) (437, -3.95552175392690913425e-02) (438, 9.21549855797569178462e-02) (439, -3.62903979579815225143e-02) (440, -3.97839936312077702141e-02) (441, 2.67300465364001885171e-02) (442, -4.77357220267203216646e-02) (443, 2.38277068563763384790e-02) (444, 4.76746372741516169502e-02) (445, 6.69608897714543543911e-02) (446, 2.90755679632012514757e-02) (447, -7.90150545285795424810e-02) (448, 4.50261746094335751911e-02) (449, -7.01746209968236028809e-02) (450, 2.86260613466504526547e-02) (451, 2.67365740186148205526e-02) (452, 8.58099452913381188779e-02) (453, 3.94699876668528071288e-02) (454, -5.06916809855965169729e-02) (455, -2.71576677950985598264e-02) (456, -8.38484849061047615715e-02) (457, 1.95631556932711198060e-02) (458, -8.03449114523944046828e-02) (459, 8.52818202823339976959e-02) (460, -3.04649079696758494362e-02) (461, -5.03194585381668904600e-02) (462, -6.97845272974832037116e-02) (463, 4.20499531602891926663e-02) (464, 1.26209132407232182298e-06) (465, -7.68419548467859508944e-02) (466, 1.22885886378529401997e-01) (467, -1.04009133332875550182e-01) (468, 7.25651405393257318416e-03) (469, 9.13135274379365535768e-02) (470, -8.11381003581119197854e-02) (471, 3.38050992413827314231e-02) (472, 2.23643688049736701073e-02) (473, 3.89471229584359007747e-02) (474, -1.99254121015437178632e-02) (475, -7.45782990431085590632e-02) (476, -2.26358383903032742146e-02) (477, -5.94158915544290358590e-02) (478, -4.19717141714641001071e-02) (479, -7.67621148245211937233e-02) (480, -8.42920438362798965515e-03) (481, -7.71697868579410417578e-02) (482, 1.16420544301755149452e-01) (483, -6.52063719646377021322e-02) (484, 5.52923173957946337276e-02) (485, 1.00622643090963054258e-01) (486, 4.13479754270558719220e-02) (487, 4.39090914255840653047e-02) (488, 5.16329348910164118158e-02) (489, 3.93159001718427492111e-02) (490, 5.40783411447471121236e-03) (491, 5.94780502462805976682e-02) (492, 7.12275503929325204400e-02) (493, 8.40559033275069533708e-02) (494, 3.14082986680047290817e-02) (495, -5.75752510944542578164e-02) (496, -9.18866457381756901457e-02) (497, -1.46281286153220214247e-02) (498, -4.36032020289001745472e-02) (499, 8.47680184740027056756e-03) (500, 1.09848195599614104068e-02) (501, 5.57835336135727374862e-02) (502, -7.13924785787232035750e-02) (503, -1.20193131097113978245e-01) (504, -3.33224852726200226893e-02) (505, 1.85419289047888298516e-02) (506, -3.89718108114615463533e-02) (507, 5.60547488518705616656e-02) (508, 9.02203175765317055834e-02) (509, -2.09732787298354678152e-02) (510, 5.66551702525629752305e-02) (511, -1.07846288270572968765e-02) (512, -5.92965805280990312931e-03) (513, 7.97748769737925828016e-02) (514, 1.62953910668834946185e-02) (515, -7.44310138755168715363e-02) (516, 5.37722466668581269844e-02) (517, -1.01038779649565688135e-01) (518, 7.17860899473248409430e-02) (519, 1.07888357186488818146e-02) (520, 8.25273427067124698553e-02) (521, 4.31607981934222038195e-03) (522, -2.70158568549215341581e-02) (523, 4.69120248039850973321e-02) (524, -2.43167011117328144346e-03) (525, 6.89366510733218917917e-02) (526, -5.74498499348323060643e-02) (527, 1.32637573335040465788e-02) (528, 1.76739974343862668582e-02) (529, 1.92118711835887849559e-02) (530, -6.46469116461650533667e-02) (531, -7.20877797943965947791e-02) (532, -6.25693608795823003055e-02) (533, -2.86418183451240537796e-02) (534, -5.21505438257288470028e-02) (535, -4.08087803454485684163e-02) (536, 8.66109057636647583500e-02) (537, -5.48341508498168539454e-02) (538, -8.12680558167213490384e-02) (539, 6.08178625535636327437e-02) (540, 4.62298006227760682751e-02) (541, 8.74002342785511476819e-02) (542, -8.07064772267677560391e-02) (543, -5.18226672938895960296e-02) (544, 9.58985673917361336471e-02) (545, 3.55272186468979581098e-02) (546, -1.27492742111838842922e-02) (547, 2.94701929423401391694e-02) (548, 1.11831139977410592978e-01) (549, -4.82680058702566194828e-02) (550, -2.57217360863307431540e-02) (551, 6.52923686239131884079e-02) (552, 7.17206251296015895313e-02) (553, 1.02538318310030265174e-02) (554, 6.31940535065448477647e-02) (555, -2.33137943268610092762e-02) (556, 1.79886860221414417171e-02) (557, 2.91636266599065406557e-02) (558, 4.66124450040999727118e-02) (559, -5.25942247505358922988e-02) (560, -6.57793189475511103081e-02) (561, 8.67165119869218736781e-02) (562, -4.70888433299250300235e-02) (563, -3.12192144431211841826e-02) (564, -6.45194130103677876420e-02) (565, -4.48746227767411950960e-02) (566, 7.34047129955363308884e-02) (567, -6.46288263292359027590e-02) (568, 6.70257219014964850112e-02) (569, 8.06551511724671460479e-02) (570, -6.29715972060778256258e-02) (571, -3.53710682689078528829e-02) (572, 4.70850985129229251958e-02) (573, -6.55031317482656361140e-02) (574, 1.72080668164748019910e-02) (575, 1.22051074413002981489e-02) (576, -1.23915157978594273058e-01) (577, 7.29019846288055523020e-02) (578, -5.67307139565062790165e-02) (579, 6.15312253127801578323e-02) (580, -9.83118939063801350331e-02) (581, -3.70794291071878806543e-02) (582, -4.81070698335208692120e-03) (583, 3.06825218619348255231e-03) (584, -1.23841701776974816296e-01) (585, 8.09592680377158838319e-04) (586, -2.06618150424209667815e-01) (587, 9.57538416944601483705e-02) (588, -1.22103323658206822100e-01) (589, -2.48363423363419377754e-02) (590, -1.17397011474952711607e-02) (591, -7.06725690655293364850e-02) (592, 3.07702197949005912259e-02) (593, -9.11693539202600711224e-02) (594, 4.86926815054738101884e-02) (595, -1.17639188509853026554e-01) (596, -1.66142788837635967114e-02) (597, -7.62729270932466230093e-03) (598, -7.12617778616281283277e-02) (599, -7.87600365154716014482e-02) (600, -1.31856489877147705497e-02) (601, -4.82499989209935701423e-03) (602, 4.55989369883278913842e-02) (603, -3.35418036720798451444e-02) (604, 3.49471972269590341886e-02) (605, -4.85830234816445310359e-03) (606, 8.47909834916003440908e-02) (607, 5.16138004134578665116e-02) (608, -1.09436700750790358305e-02) (609, -6.04059581961400582362e-02) (610, 3.74244156893859467039e-02) (611, 1.03877636001139866603e-03) (612, 3.27102209464403548278e-02) (613, -1.11458590343461901029e-02) (614, 9.80423444263183417602e-03) (615, 8.29246655029786949864e-02) (616, 6.37155211986283193104e-02) (617, 6.23413840693673657056e-02) (618, 2.99543394397159892795e-02) (619, -9.45387186740721113809e-02) (620, 2.90349621177356659318e-02) (621, 1.36019606987499864365e-02) (622, -1.18337692656898234994e-02) (623, 2.73290246001367288786e-02) (624, 8.27522336563078775296e-02) (625, -6.24555180914490234989e-02) (626, 4.68810944745526245181e-02) (627, 7.31801544645712884196e-03) (628, -1.05509916807356982082e-01) (629, -1.20438909142653496898e-01) (630, 5.55049169532217043233e-02) (631, 2.99748123688557237265e-02) (632, -3.89686249886067870296e-02) (633, 1.12509497617221856935e-01) (634, -1.01409025578236902665e-01) (635, -1.79331975329214271531e-01) (636, 1.23299539942304706153e-01) (637, 1.78840907331992565732e-01) (638, -1.47426831943131220193e-01) (639, 4.24705067918472289890e-01) (640, 2.90473664569225464849e-01) (641, -7.67725595768128377117e-01) (642, 1.21420503610749172529e-01) (643, 1.90063252486090766835e-01) (644, -2.71869665870238419458e-01) (645, 1.27272919176068977087e-01) (646, 1.70809905169507121603e-02) (647, -1.58464918181614844439e-01) (648, -1.96030200893530306971e-02) (649, -5.63044074845609060498e-02) (650, -3.97140044387615312460e-02) (651, -7.57990142725550319902e-02) (652, -1.43478674662712080146e-01) (653, -4.19771254788739237029e-02) (654, 9.77689244303943383319e-02) (655, -1.68407557941449015360e-01) (656, 8.39435814910196587135e-02) (657, 4.34801162187448686502e-02) (658, -2.95029800239388281802e-02) (659, 1.20537959947668651961e-01) (660, 4.67862647683068774707e-02) (661, -4.23916975235156950896e-02) (662, 5.28254782962447114181e-02) (663, -7.07009970705577278638e-02) (664, -7.00094173710726075388e-02) (665, 4.38687195804291565904e-02) (666, -6.43150729811902809735e-03) (667, -4.04688904047709255285e-02) (668, 2.52405187697481436793e-02) (669, -3.12322117660845909037e-02) (670, 8.28998841559039495452e-02) (671, 2.33586558994552107027e-02) (672, -1.05415864510026657808e-01) (673, 7.99144317114364871601e-02) (674, 4.08815661204730285139e-02) (675, -7.05898621966892653168e-02) (676, 1.33206124979067946912e-02) (677, 2.81574287193462891032e-02) (678, -5.57504281562549372508e-02) (679, 9.58491846674473513268e-02) (680, -2.56341464009278534320e-02) (681, -9.91035268716330131067e-02) (0, -1.80929855831925889831e-01) (1, 4.33770806751400325729e-02) (2, 7.82194777568499810538e-02) (3, 8.71413384352526659837e-02) (4, -6.45126639165726628589e-02) (5, -3.24406549108699829298e-02) (6, -6.84995880361089076738e-02) (7, -1.32735092995184375715e-03) (8, -3.83097729659273491393e-03) (9, -8.98482696036558836639e-02) (10, -1.23941105395017944768e-01) (11, -1.04097000833372754780e-01) (12, -1.77089877771565464004e-02) (13, -9.03849586502901980456e-02) (14, 9.77720512111394796095e-02) (15, 6.13310380824025475066e-02) (16, 2.29163446862122553715e-02) (17, 4.27813085031119016283e-03) (18, -6.10186048653096266281e-02) (19, -2.91648447568927616722e-03) (20, -2.73208889588900695478e-02) (21, -1.56142605255648658780e-01) (22, 7.62783665715109776562e-02) (23, -1.46987135418707365320e-01) (24, -1.20307367408513596341e-02) (25, -5.69584274989237207554e-02) (26, 1.01216394434794146329e-01) (27, 5.30289722306679645047e-02) (28, -8.18345047886446103069e-02) (29, -4.61587334364616311277e-02) (30, 3.58001387625517947244e-02) (31, 1.74073495247207554737e-02) (32, -4.67388863993778297390e-02) (33, -5.57620689041745526415e-02) (34, -5.55083435951903916838e-02) (35, 7.32787914066222300508e-03) (36, 6.91062136179288744042e-02) (37, 6.14439457131599614526e-02) (38, -2.00004535727350309104e-02) (39, -5.78249716007902536674e-02) (40, -5.54898859073561581678e-02) (41, -4.24884770142077150545e-02) (42, -9.22100934896149908304e-03) (43, -3.67896710121018641337e-02) (44, -8.93093678979826055553e-02) (45, 1.02382925012254617086e-02) (46, -3.15502423940765205912e-02) (47, 1.56288544601747361740e-02) (48, 3.71461479990830983899e-02) (49, -2.13248946278543002886e-02) (50, 2.72061801410815318203e-02) (51, -9.35110356882816878832e-02) (52, 1.66196907765186266404e-02) (53, -3.79710368941362213374e-03) (54, -7.91421925726602526474e-02) (55, 6.69266227165628974083e-02) (56, -5.86727019812399233634e-02) (57, -7.58188811344733537556e-02) (58, -1.51351683612818890129e-02) (59, 1.29468980665739460956e-02) (60, 1.84897295229442537590e-02) (61, -1.05508535986664861439e-01) (62, 8.75053667418373426479e-02) (63, 3.79890881869695620776e-02) (64, -5.76181761575124268271e-02) (65, 2.34869122595319050617e-02) (66, -4.79967532622575590584e-02) (67, -4.38111020775118903403e-02) (68, -4.87679320794214138379e-02) (69, 5.17809827873574116119e-02) (70, -3.88268106635622088814e-04) (71, -1.79831875591169899897e-02) (72, 8.04197885975383025547e-02) (73, -1.28426099498446355529e-01) (74, 6.31958363346578205766e-02) (75, -6.55218103960556880194e-02) (76, 8.56233884432713128129e-04) (77, -8.51763141496394843299e-02) (78, -2.37480339162034793932e-02) (79, -6.44825274359443062488e-02) (80, 2.27589376385671721473e-03) (81, -4.95127316159565677989e-02) (82, -4.72083199478017939699e-02) (83, 3.57805192012149164693e-02) (84, 3.93773019635235074776e-02) (85, 2.82942639717270599808e-02) (86, 3.10066288380727791973e-02) (87, 1.14943302638435843055e-01) (88, 3.07847920446629036428e-02) (89, -2.09501417725235783429e-02) (90, -1.73757204763446380935e-02) (91, -5.50683440599720602782e-02) (92, -3.07172886104179407307e-02) (93, -4.95816308800978364224e-02) (94, -1.18514035817181104249e-01) (95, 1.73902913338166188739e-02) (96, 5.91287129266091643354e-02) (97, -1.92816441978485124398e-02) (98, 6.21337104064970183193e-02) (99, -6.60366014770319004201e-02) (100, -3.92649311696583735998e-02) (101, -1.69598763477672616340e-02) (102, -2.80110148625403818784e-03) (103, -5.92927233785536886984e-03) (104, -5.02604550205560385301e-02) (105, 1.73643357591163338682e-02) (106, 7.87337995387230177302e-02) (107, 1.19303265231726809970e-01) (108, 9.00309495305891445416e-03) (109, 3.33956268124673480435e-02) (110, -6.89287119238267131927e-02) (111, 8.42832016080324042395e-02) (112, 6.22788194391465099731e-02) (113, -2.67273782878571682098e-02) (114, 5.07589860609838350314e-02) (115, 2.46884406529535417943e-03) (116, -9.39476398105123372551e-02) (117, 2.40026557292414462197e-02) (118, -5.26565224470160950232e-02) (119, 5.03906021087473371400e-02) (120, 8.79451352387126128463e-02) (121, 6.31070446931917966582e-02) (122, -9.30245170676519683717e-02) (123, -1.18872639802938162568e-01) (124, -9.09817792197901431539e-02) (125, -7.29435484326701744084e-02) (126, 3.05511312135607476792e-02) (127, -5.72581618911524037330e-02) (128, 2.42102002098969291272e-03) (129, 5.52271042324586347583e-02) (130, -5.06110278771373447992e-02) (131, -3.59748286460215768723e-02) (132, 1.03458759229438798655e-01) (133, 3.63243344890108246781e-02) (134, -5.94456631376336641637e-02) (135, -4.17507207300345795087e-02) (136, -4.68302384679172498116e-02) (137, -2.77310701805979324674e-02) (138, -2.32814442942735171094e-02) (139, 3.36305856670335648340e-02) (140, 9.32879719348072428131e-02) (141, 2.31707371249843044336e-02) (142, 4.52385855370756179150e-02) (143, -5.98344996297052109102e-02) (144, -1.07356306118393848847e-01) (145, -2.34242914210268556030e-03) (146, 5.71347387768744510717e-02) (147, -8.65510705965467919132e-02) (148, -5.35283554727955454555e-02) (149, 2.62619545129085807389e-02) (150, 1.09167637955493931901e-01) (151, 5.17401519463787096242e-02) (152, -5.11068161506660345594e-02) (153, 6.87388807855340983055e-02) (154, -1.08842525108984775062e-01) (155, -8.28813276133090817699e-03) (156, -6.88432380530090287651e-02) (157, 5.96900177263484030266e-02) (158, -4.01130382616429539966e-02) (159, -3.11698516127189573233e-02) (160, -3.47451953466414165117e-02) (161, 6.89931460734562879145e-02) (162, 9.72255633931504853473e-02) (163, -1.04643274518501055992e-01) (164, -8.02638690718532679669e-03) (165, -7.40218252855787961497e-02) (166, 2.75628112413109360723e-02) (167, 5.94928743042604513125e-02) (168, 3.77057343767883950542e-03) (169, -4.63496609353706359724e-02) (170, 2.16759227913506970220e-02) (171, -7.36056358530340903989e-02) (172, 5.47310945149487096395e-02) (173, -9.69253608335257643702e-02) (174, 9.03985234147421275186e-03) (175, 4.83239217565232734297e-02) (176, 9.69744894674797464074e-02) (177, 2.39789513274456488057e-02) (178, 2.69372494852544303034e-02) (179, 6.26992568178992987216e-02) (180, -6.78861754108949361219e-02) (181, 3.82500703891492446762e-02) (182, 9.31265309972404281558e-02) (183, -7.86578601762956824972e-02) (184, -1.02025668215933694449e-02) (185, 5.61758045955696172502e-02) (186, 4.71446874447874544889e-02) (187, 4.51895700803892838571e-02) (188, 3.99727400426941187339e-02) (189, 2.17418545377619336356e-02) (190, -8.58481224185954211459e-02) (191, 3.91177027499248139430e-02) (192, -3.16454230424113025499e-02) (193, 3.34216334691889715991e-02) (194, -6.90924120874120001323e-02) (195, 5.02993214715818093286e-02) (196, -6.42951051546228197209e-02) (197, 7.32506020030720544911e-02) (198, -3.24455353618611774813e-02) (199, 2.49961515847629232867e-02) (200, -5.40653455259135218292e-02) (201, -8.61852751633608166193e-02) (202, 9.50760500522394164102e-02) (203, -9.17038878155433320738e-03) (204, -7.27628135134224113267e-02) (205, -2.25006246734935043408e-02) (206, -1.60537433992999772903e-02) (207, -4.72174312028213194470e-02) (208, -3.24158309615351844513e-02) (209, -1.46736986284772465833e-02) (210, -6.60538221729764646328e-02) (211, -5.92412420581001422648e-02) (212, 1.01582113947847857416e-01) (213, 4.81894400797512056922e-02) (214, -9.55245039033724568922e-03) (215, -2.20295551497230110427e-02) (216, 1.07731968150940340956e-01) (217, -3.79389878409844933868e-03) (218, -1.43787625395260271199e-01) (219, -2.88717571070520075127e-02) (220, 1.37831436318960331988e-01) (221, -8.81549281385847066650e-02) (222, -7.33526069549353225419e-03) (223, -1.28292929502521108054e-01) (224, 6.11500537737871899258e-02) (225, -1.44956967422014415536e-02) (226, 8.25798126244761676595e-02) (227, -4.95929215684868043845e-02) (228, 5.95652347917937090467e-04) (229, 5.23819876354177649258e-02) (230, 5.45589876160493744695e-02) (231, -4.63657192798702221664e-03) (232, 5.82647148703979156359e-02) (233, -2.32803314786567613903e-02) (234, -9.67188526689804761727e-02) (235, 1.03261134772441712237e-01) (236, 3.30311867606141460266e-04) (237, -1.66999335576260808656e-02) (238, -1.42964137805961483130e-01) (239, -2.05306444962772491336e-02) (240, 1.03918534839143705817e-01) (241, -5.57230469111697213069e-02) (242, 7.74786792302151056111e-02) (243, -2.09645430820864266119e-02) (244, -9.57362410154226212144e-02) (245, -3.62327929723897310121e-02) (246, -6.10930240224080572942e-02) (247, -5.86888965026741912800e-02) (248, 8.54509703270234927119e-02) (249, -4.88526043203102097734e-02) (250, 5.01772463016317560314e-02) (251, 3.55453959975558578255e-02) (252, -5.03310420693559648631e-02) (253, -1.18051067221160529974e-01) (254, 8.05915809269630439848e-02) (255, -7.85024872679944973886e-02) (256, 7.52987174603425984953e-02) (257, 5.27017873729330871280e-02) (258, -1.04245064121544300795e-01) (259, -9.15722891675292416380e-02) (260, -4.13069399290673447411e-02) (261, -1.16651301586340627736e-01) (262, 1.45727560890294809137e-02) (263, 2.66884603126611059942e-02) (264, 2.96421289002986865224e-02) (265, 8.98872299424253833056e-03) (266, 4.46393071694221321710e-02) (267, 1.41580157057457245440e-01) (268, -3.00930942373819794444e-02) (269, 1.15201101200682304304e-01) (270, 1.65684668001863620590e-02) (271, -1.27136515710895126041e-01) (272, -7.57692260869204381457e-02) (273, -2.22295567172063647521e-02) (274, 3.14299893543784347738e-02) (275, 7.93737798294504590460e-04) (276, 2.06012491850098566903e-01) (277, 3.61550284596282647809e-02) (278, -5.19559778873993557968e-02) (279, 1.10204390111704284005e-01) (280, 7.70368693608686483376e-02) (281, 6.42455575859724459242e-02) (282, -7.85190491948926407029e-03) (283, 4.08114221725743801100e-03) (284, 7.18537223006220082677e-02) (285, -3.76320438452079908398e-02) (286, 5.05247342906901056314e-02) (287, 9.65860645038720128097e-02) (288, 5.52918005523651556743e-02) (289, -1.13155106879971080469e-02) (290, 1.13933889424591774930e-02) (291, 4.78356274678941456591e-02) (292, -7.48670863060137692369e-02) (293, -8.28891953798110425744e-02) (294, 6.92786845235485448935e-02) (295, 9.95670319157947736333e-02) (296, 1.08433584004597627359e-01) (297, -1.67252813943945428943e-02) (298, 9.39548807923136775067e-02) (299, -2.51536897079065735472e-02) (300, 3.81718582330355521437e-02) (301, -2.99967207654404863226e-02) (302, -1.03419989453480201669e-01) (303, -6.50025483229285661047e-03) (304, 8.23869967514994222535e-02) (305, 1.78930220896805249053e-02) (306, 5.19589007550348702669e-02) (307, 1.60100523146468415314e-01) (308, 1.26274150233910125579e-02) (309, -9.59833707703732913474e-02) (310, 4.36301859992720905690e-02) (311, -3.04860024427169758188e-02) (312, -1.05615510869233444891e-01) (313, 6.41133171266841921793e-03) (314, -1.70024607980677061603e-02) (315, -6.26275836253398360265e-02) (316, 2.28059445616803427304e-02) (317, -6.43266264997947867510e-02) (318, 4.24823851889220699407e-02) (319, 1.42528503219977314975e-01) (320, 1.29321413120970871852e-02) (321, -4.28878660539864647872e-02) (322, 3.18547247078512299479e-02) (323, 2.66295282855950818379e-02) (324, 1.23356403546474998820e-03) (325, 3.99769258443981572587e-03) (326, 3.21966544322379658039e-02) (327, -1.53668146612198908141e-01) (328, -2.85565225911301977246e-02) (329, -8.36968945006041561974e-03) (330, -2.54832289465491308722e-02) (331, 5.56890902020838046704e-02) (332, -1.22306997416710139248e-01) (333, -1.49846870587073636300e-02) (334, 2.38146575341433609785e-02) (335, 8.16020717898110620192e-02) (336, -2.19336032786912639436e-02) (337, 2.65416408555666730879e-03) (338, 6.64755049742239700894e-02) (339, -1.03965239197711417640e-01) (340, 6.82481421658870379687e-02) (341, 4.28146462963716195604e-02) (342, 1.05597031082073113117e-02) (343, 1.41885536372846638581e-02) (344, -4.06932710576862963214e-02) (345, 6.04348112669470458047e-02) (346, 4.33994708947133961408e-02) (347, -7.23022173516879446131e-02) (348, -1.05425673493535917991e-01) (349, -4.98052293345463831242e-02) (350, 4.52323106703526670036e-02) (351, 4.42147874963526570785e-03) (352, -7.18766016343236249092e-03) (353, -5.23558498070883920894e-02) (354, 1.77562674913573012581e-02) (355, 4.87072127677499605580e-02) (356, -1.15245650776256022829e-01) (357, -7.40057203646398431562e-02) (358, -1.15776742248953415371e-01) (359, -8.10330548651690685258e-02) (360, 9.16469118811468613783e-02) (361, -1.90975844821820693598e-02) (362, -1.10333747627984948142e-02) (363, 7.87377542010855302479e-02) (364, -7.20879463519492058587e-02) (365, 5.96278489009521989184e-02) (366, 7.41251819847626725046e-02) (367, -5.84474663100575733687e-02) (368, -5.68157268760616229741e-02) (369, -2.04812569961849190447e-02) (370, 2.94883961610990265323e-02) (371, -9.03748642688265019229e-02) (372, -6.72759670931877690192e-02) (373, -1.19766477562488621311e-01) (374, 7.35292862505277644569e-02) (375, -6.61239636048605028407e-02) (376, 4.29471214992650368591e-02) (377, 4.02480594213210172289e-03) (378, 2.89683149369955247887e-02) (379, -1.16059346066870711089e-01) (380, 1.25896392219446623395e-01) (381, -2.93955708608626981732e-03) (382, 5.44450136529182823764e-02) (383, -6.16992640149669445415e-03) (384, 6.61323385402745322903e-02) (385, -6.11140918561877966031e-02) (386, -7.02806395526290039744e-02) (387, 1.02805677552317800694e-01) (388, -4.88207928981444702621e-02) (389, -2.10176395019392898977e-02) (390, 3.16881121682958217731e-03) (391, -5.95732388810768440091e-02) (392, 9.90782138795099076578e-02) (393, 6.82100103202527667523e-03) (394, -9.92604431063647402178e-02) (395, 4.75543605288053575220e-02) (396, 9.20896202091516132004e-03) (397, 2.72575857484811424902e-02) (398, -7.91536840948557640640e-02) (399, -1.28305461627411743208e-01) (400, -5.67313274826914543114e-02) (401, 7.17599169375249951175e-02) (402, -6.18467478450062391193e-02) (403, -7.56749687249366753683e-02) (404, 6.58470659583550443905e-02) (405, 4.80100639173790533221e-02) (406, 8.27956827633907592456e-03) (407, 8.29594831706177010533e-02) (408, -4.27310321160576517263e-02) (409, -5.58368954769958361628e-02) (410, 8.63036217156210594403e-02) (411, -6.19240232559331929552e-03) (412, 8.03100719792396583463e-02) (413, -5.05993789572195540316e-02) (414, 5.97216590662159527159e-02) (415, -3.48471648966285144078e-02) (416, 2.43116661349234673695e-02) (417, -6.01335667668161377719e-02) (418, -6.15134806829414904072e-02) (419, -7.22859795201380717078e-02) (420, 4.68239125175809664525e-02) (421, 5.04011800094698175778e-02) (422, 1.10589394390826125519e-02) (423, -4.93159998452024281312e-02) (424, -6.44841559474395708412e-03) (425, -3.45411980203779757359e-03) (426, -5.37755650869517834445e-02) (427, -4.40086671826666261942e-02) (428, -8.03858533731431068592e-02) (429, -2.15385423339318343716e-02) (430, -4.35375772014034018165e-02) (431, -2.96519532987038723915e-02) (432, 6.60374600865768716235e-03) (433, -8.25224713672541437814e-02) (434, 1.62274373616084453820e-02) (435, -8.35642725548614712094e-02) (436, -6.91261073079556531695e-02) (437, 8.26281091453039961969e-02) (438, 4.08781931394156805570e-02) (439, 5.51542185112741459307e-02) (440, -6.26994361461470639529e-02) (441, 6.88383771375622108279e-04) (442, -1.58131862031342003416e-02) (443, 7.12708606242091948640e-03) (444, -7.02737661001637398117e-02) (445, -7.49665238333872413490e-02) (446, -1.14453432778050326335e-01) (447, 7.03388325132140723728e-02) (448, 4.04944561300379143182e-03) (449, -8.64815589447288403380e-03) (450, -7.15224950957098343229e-02) (451, 1.05387658351623100805e-01) (452, -5.61519745081766052941e-02) (453, 2.78711357715650262859e-03) (454, -3.07020572550689256619e-02) (455, -7.67949590180374251636e-03) (456, -8.52133928635166737475e-02) (457, 1.83985059868184905318e-02) (458, 1.30701070124594406763e-02) (459, -5.35912298212793888896e-02) (460, 1.13462517843038859788e-01) (461, 8.12502083586500029044e-02) (462, 6.55046552135383347570e-02) (463, -1.03414101185986262443e-01) (464, -7.05136823621576591670e-02) (465, -5.75260424511449333651e-02) (466, -8.70138091398524327058e-02) (467, -1.69067873224765380380e-02) (468, -4.81285518647773039036e-02) (469, 8.76517338705843362945e-02) (470, -4.03079491536489295522e-02) (471, -6.15687374089145811329e-02) (472, 2.48680790527955539182e-02) (473, 1.00007262734711551561e-02) (474, 8.33969517813984290155e-02) (475, -1.08244165474305504421e-02) (476, 5.84248870894595942471e-02) (477, -9.81492311664346195332e-02) (478, -7.46964096647957931374e-02) (479, -5.84324438889711542111e-02) (480, -1.43177435658270002343e-03) (481, -1.47422238454355900711e-02) (482, -1.57772430239074556990e-02) (483, -6.28417944759619567785e-02) (484, -8.74471261897463991719e-02) (485, 2.76833402080510423970e-02) (486, 4.52895743191689889584e-02) (487, -7.44048493080509947689e-03) (488, -4.35607904906689519242e-02) (489, 3.19669450374228045209e-02) (490, 1.10410486206868486275e-02) (491, -9.19084907104118498111e-02) (492, 1.01180161222393025233e-02) (493, -2.29010964476875009121e-02) (494, -9.08463346202807442431e-02) (495, -6.10520076646389395214e-03) (496, 5.04919909376195866213e-02) (497, -3.10445444856464851380e-02) (498, 5.02603166333895415296e-02) (499, 7.37058213110717841410e-02) (500, -3.88691104684119881352e-02) (501, -2.96977121945836246286e-02) (502, -3.95733584298474105889e-02) (503, -4.07181440316002757340e-02) (504, 1.22234580258772165817e-01) (505, -7.01225331244496180583e-02) (506, 9.51220170192513814200e-02) (507, 8.98278486244990098664e-02) (508, -4.52931522195058611224e-02) (509, -4.68478167935120620724e-02) (510, -7.58538879447067798667e-02) (511, -7.17769543501490300125e-03) (512, 6.14345230659788382743e-02) (513, -2.19276784612916463002e-02) (514, 7.96503863570321851695e-02) (515, 4.80158299502959420857e-02) (516, -8.34635539458137010183e-02) (517, 6.40224548188885189681e-02) (518, 8.14267999773679307385e-02) (519, -3.37471370845584539566e-02) (520, -3.22612843996054124429e-02) (521, -5.44060872097296838179e-03) (522, -2.21920378313440226636e-02) (523, -1.98269740700348084950e-02) (524, -6.96171939511185111638e-02) (525, 4.78391764897167018344e-03) (526, -5.89241111917157070477e-02) (527, 7.20846515752791155984e-02) (528, 1.05850808516152403160e-01) (529, -3.56163980762080542575e-02) (530, 3.20552223191118285106e-02) (531, -7.35486098682874289700e-02) (532, 2.46208453037824182008e-02) (533, 4.75653041507508311803e-02) (534, 4.79667049559141106529e-02) (535, -1.33540453062124600536e-02) (536, -9.38706251166400162944e-02) (537, 1.57066729940891283701e-02) (538, -8.14036503854494997157e-02) (539, -6.42129270727888057380e-02) (540, 7.20071420109642257312e-02) (541, -5.16918836521829475061e-02) (542, 9.35100982319188034353e-02) (543, -4.82275749991166180486e-02) (544, 6.72484257644645894159e-02) (545, 5.25347682186580178243e-02) (546, -7.19732259259569517873e-02) (547, 1.05263484662699066674e-01) (548, 1.89558796287606079467e-02) (549, -7.38532339230466572388e-02) (550, -5.67830111141164120547e-02) (551, 8.92967234033109763525e-02) (552, 6.23247555851314666286e-02) (553, -3.01669065637797002843e-03) (554, 3.15368509647626516640e-03) (555, 6.53189935044886510473e-02) (556, -8.00229518846626297623e-02) (557, 3.61750358000050703522e-02) (558, -3.94565443399216321529e-03) (559, -8.91588481639050134397e-02) (560, 5.78437746080279480143e-02) (561, -5.75365623618824470475e-02) (562, -5.53336029117324143534e-02) (563, -6.24536525780192697255e-02) (564, -5.48283674635220985571e-02) (565, 6.96352469468504986505e-02) (566, 5.00199026076682262687e-02) (567, -1.20124774208027230993e-02) (568, -8.78019636982509295298e-03) (569, 9.66796469920646744933e-02) (570, 4.94552985344861861794e-02) (571, -5.14129880965391583558e-02) (572, -2.52121029710830699827e-03) (573, -1.73496443609135256314e-02) (574, -2.94655184774962781991e-02) (575, -1.23828504824564533671e-01) (576, -9.06552423377702670804e-02) (577, -3.98151876889481781685e-02) (578, -1.35935567746882507434e-01) (579, 9.00262398707330803449e-03) (580, -4.09202947847490047795e-02) (581, -1.05027472197335783322e-01) (582, -1.26160117638454659372e-02) (583, -1.01520371835020245532e-01) (584, -2.52724714613733686744e-03) (585, -1.64474901402389850347e-01) (586, -2.09737121864816050687e-01) (587, -1.70073503758150779142e-01) (588, 4.66799445993175583791e-03) (589, -2.76202148461123682399e-02) (590, -1.09619584859618632300e-01) (591, 1.67276121094033988768e-02) (592, -1.04777457082439545699e-01) (593, -4.29489832930840392811e-02) (594, -1.15556091451168602147e-01) (595, -6.85217059148067325625e-02) (596, -8.69400269805984116100e-02) (597, 4.10980551456516865483e-02) (598, 3.49233151914770389990e-02) (599, -2.21427387261526192885e-02) (600, 1.53347170273649222733e-02) (601, -1.19331862549365234211e-02) (602, 6.47976706750109515687e-02) (603, -9.97719235527691067356e-02) (604, -8.10988917559160860105e-02) (605, -6.41154224230331554191e-02) (606, -8.21115520182083696854e-02) (607, -2.22621126122669113490e-02) (608, 4.07918429129491555418e-02) (609, -8.82122823776726044942e-02) (610, -3.89238557994738901269e-02) (611, -3.18150803484416530575e-02) (612, -2.78345020027888573680e-04) (613, 7.87367293484889929633e-02) (614, 4.19711107091115601109e-02) (615, 2.07433191447849891997e-02) (616, -8.82976589286192103945e-02) (617, 5.78399806889915504837e-02) (618, 6.72156517733903668965e-02) (619, -1.18236647965169847097e-01) (620, -3.57223809588705799173e-03) (621, 1.08407443478000201087e-01) (622, 4.55395217977748664739e-02) (623, 2.66373589552883413556e-02) (624, 3.06003092887744999884e-02) (625, 4.20951257665550526710e-02) (626, 1.04413221240375886367e-01) (627, 7.54470803675975215663e-02) (628, -1.46653160678795833199e-02) (629, 8.21851627216715757696e-02) (630, 1.73622693756322304948e-01) (631, -1.16940895324015678436e-01) (632, 1.20515163145058258609e-02) (633, 1.29660830309962338269e-01) (634, -1.46809705108593951950e-01) (635, -1.24499160844219417671e-02) (636, 2.58790406293229691137e-01) (637, -2.20468710885869195737e-01) (638, 3.67672453343579272445e-02) (639, 4.16445385122127031963e-01) (640, -3.17954518111138395575e-01) (641, -5.71588012104311191108e-02) (642, 2.73131224430124885938e-01) (643, -2.35251998661245687039e-01) (644, -3.02369821647398007158e-02) (645, 1.56794629141314117993e-01) (646, -9.10907152800878860965e-02) (647, 2.23634584286559849609e-02) (648, 5.53027623570978496548e-02) (649, -1.52658179529094106819e-01) (650, -8.28210762385199611435e-02) (651, 1.58171318252175896468e-01) (652, -1.70742686185136716137e-01) (653, 1.26002367755650462877e-01) (654, 9.68580471316036334395e-02) (655, -1.27638184298502849190e-01) (656, 9.79527472684198763364e-02) (657, 7.97610955572902458055e-02) (658, -3.96611273209863460232e-02) (659, 8.39930299814259789803e-02) (660, 4.03837867170290382157e-03) (661, -2.49946886442932066086e-02) (662, -1.88503825122423654403e-02) (663, 2.37286201729514506509e-02) (664, -1.20281865870552881481e-01) (665, 9.87509566823439044470e-02) (666, 8.40364063371469849351e-02) (667, -7.43003143003793942167e-03) (668, 3.24922561935267958932e-02) (669, 6.23949326849303903542e-03) (670, -1.08771192935337865371e-01) (671, -1.27514185871366002301e-02) (672, -3.45630773818933270669e-02) (673, 5.71548059153773949093e-02) (674, 4.36285662323275813534e-02) (675, -8.50767977639747818852e-02) (676, -4.74807055100481267829e-02) (677, -5.59353630173937618753e-03) (678, -1.25609450142485812307e-01) (679, 1.02847614160343180101e-02) (680, 7.32052029596386016896e-02) (681, -2.05295882925054601342e-01) (0, -1.79052994630690270883e-01) (1, 5.56190689172583133809e-03) (2, -5.94244447245646859046e-02) (3, 8.87036903312409252820e-02) (4, -3.63786366118156248572e-02) (5, -1.80151782536558391357e-03) (6, -1.79503833736027934576e-01) (7, 2.92667755357593817322e-01) (8, 3.94719123257047180275e-02) (9, -3.78986290047337859299e-02) (10, -3.26221596751132936198e-01) (11, 2.00218929087885091911e-02) (12, -3.46200588451704219239e-02) (13, 7.65628966785582287802e-02) (14, 1.37248321617398943983e-01) (15, 1.21881019177033034229e-01) (16, 1.39578731543731404674e-01) (17, -4.06871706114480327643e-02) (18, 4.43030322834553069722e-02) (19, 1.96748639978880701662e-01) (20, -2.92517805572144011517e-03) (21, 3.48273947706669306790e-02) (22, 1.20490762029736020455e-01) (23, -8.34061891907084684838e-02) (24, 1.30241835126608695994e-01) (25, -5.47267813918949977414e-02) (26, 8.04490378654031945693e-02) (27, 2.97703373017057099092e-02) (28, 9.37551477943713157392e-02) (29, 4.17479147335397815510e-02) (30, 4.58686085016119585167e-02) (31, 2.74060342525019005888e-02) (32, 1.62519359438725733216e-03) (33, -6.81573407044437085123e-02) (34, -4.63657459358364498758e-02) (35, 9.26316411318024307553e-02) (36, -4.25123002532448029944e-02) (37, 6.42137749853814582268e-02) (38, -4.43139164717278998679e-03) (39, 5.78360826991171569911e-02) (40, 3.06499565652782468561e-02) (41, -1.57046593032498169040e-02) (42, 6.36616126156734074559e-02) (43, -3.37060650013390299129e-03) (44, 3.70142175490433614216e-02) (45, 6.84529266003096603654e-02) (46, 5.60047432523592958464e-02) (47, 2.92593911826675052990e-02) (48, -1.22204844041558253337e-02) (49, -5.57178972203341421610e-02) (50, -5.05204170784559827845e-02) (51, 4.99324204426326787032e-02) (52, 1.09084215160240763365e-01) (53, 6.63975701564780279584e-02) (54, -2.43261661761502677448e-02) (55, 1.18367677549630873068e-01) (56, -7.98001799300298297890e-02) (57, 1.19733971509740300121e-01) (58, 3.77698989879815469339e-02) (59, -8.21791349510624935526e-02) (60, 1.04213124280599922500e-01) (61, -9.13483828361271871232e-02) (62, 4.06111457564610402616e-04) (63, -4.98288516104923653871e-02) (64, -8.53041514137981154997e-02) (65, -2.96088381341802486801e-02) (66, -7.72107063614671240703e-02) (67, -1.20800502072998805492e-02) (68, 9.92008286420577728437e-02) (69, 8.04378309463432972226e-02) (70, -9.45854892959801726859e-03) (71, 2.29385884620743954465e-02) (72, 8.99149222016245031064e-02) (73, -6.99169247975057472910e-02) (74, -7.39802700229249959873e-02) (75, 5.52691072752600140450e-02) (76, 6.22012232723821376079e-02) (77, -9.75235307044641785978e-02) (78, 4.94905490608275877573e-02) (79, -3.12940892484747656965e-02) (80, -2.38048157102157889597e-02) (81, -4.72115940488226151772e-02) (82, -4.04468670603785342664e-04) (83, -1.33020858886787218811e-01) (84, -1.49353226365652513863e-01) (85, -9.76944795100261054177e-03) (86, -1.26982562275236854354e-01) (87, -3.08619240175053329012e-02) (88, -2.82503875467877193367e-03) (89, 1.01092111798093700625e-01) (90, -6.04504394274801917786e-02) (91, 6.94851219047670221052e-02) (92, -4.68766050255308153183e-02) (93, 3.38336557327906517489e-02) (94, -1.18171464311561308369e-01) (95, 1.12947106977861842086e-02) (96, 6.61423850850058475670e-02) (97, 8.13236815407538012057e-03) (98, -8.72344094990172569393e-02) (99, 2.84879862913752848752e-02) (100, 1.75793193292214905421e-01) (101, -1.23048802067497690255e-02) (102, -4.33615436867935757914e-02) (103, -4.80154347153186264463e-02) (104, -3.01754227595086828642e-03) (105, 7.15781412827117269337e-02) (106, -1.15223325087177065618e-02) (107, 1.10919064040333484322e-01) (108, 4.04628959598791818064e-02) (109, -2.96949238169817164579e-02) (110, -1.89378986889986132558e-02) (111, 7.22882272100194150921e-02) (112, 4.51641308575876851417e-02) (113, -7.62942618586810120812e-03) (114, 3.00736023429502390136e-02) (115, -6.12705629972593469185e-03) (116, 9.50162183059617138081e-02) (117, -4.68066889692430598835e-02) (118, -3.39141814029410501585e-02) (119, -1.31715384185144973594e-01) (120, -4.54394463370364019156e-03) (121, 2.82979574805097590373e-02) (122, -7.91378620595421522488e-02) (123, -1.68336584356809454421e-01) (124, -6.14862243407162945008e-02) (125, -2.16309127335556732052e-02) (126, 1.77673185633392960447e-02) (127, 2.85737034576678192166e-02) (128, 7.73180475244317905181e-02) (129, 6.41176802190929900904e-02) (130, -4.34774443144511635317e-02) (131, 1.41589464408880226498e-02) (132, 1.84249927837106149131e-02) (133, -4.96776724376839368125e-02) (134, -2.77910592769370010102e-02) (135, -1.06889401240535419912e-01) (136, -6.00199337461229526225e-02) (137, 1.03742957912145883359e-01) (138, -1.15146036041264540617e-01) (139, -4.99382223848196041271e-02) (140, -8.13863140515620926696e-03) (141, -7.24735387784610201461e-03) (142, 6.19561534942182703944e-02) (143, -9.70122343855064489526e-02) (144, 2.68473170783801451389e-02) (145, 1.91569852946124608017e-02) (146, 6.54900546016390777693e-02) (147, 8.45811946571789347038e-02) (148, 5.72227340835427880639e-02) (149, 5.13791913296008234679e-02) (150, -1.52892305590350222749e-02) (151, 4.45230642579952113486e-03) (152, 8.61582642665225176271e-03) (153, -1.52544764412114786101e-01) (154, 4.53968576060636980207e-02) (155, 6.17886364761313471028e-03) (156, 3.78407294999689586268e-02) (157, 6.69467908930292988912e-03) (158, -1.56214427292029112149e-01) (159, -1.30208405984637176633e-01) (160, -2.14826468341239654181e-02) (161, -4.90243427005047152645e-02) (162, 1.40549849893182282612e-01) (163, -1.26246836232837694736e-01) (164, -2.55985649125528742787e-02) (165, -4.93573969604252996146e-02) (166, 3.50629782637933290479e-02) (167, 1.31342649641472297706e-01) (168, -7.04330607824692478403e-02) (169, 3.19316211430947100025e-02) (170, 1.18823257803887055717e-01) (171, -7.35220253932771239391e-02) (172, 1.40619954530745494559e-01) (173, -1.08995178482215779314e-01) (174, -5.19894988968971558108e-03) (175, 3.09199625140131918732e-02) (176, -5.17871562441400631882e-02) (177, -1.10169533393699413393e-02) (178, -2.98816354106446885330e-02) (179, -6.38570465165808672653e-03) (180, 1.56677200886658707368e-01) (181, 7.07844398981180983332e-02) (182, 3.24542527629003291212e-02) (183, -1.33381682806412549258e-01) (184, 4.40467080131270449783e-02) (185, -1.00041652376231568478e-01) (186, 7.11041999411084063576e-02) (187, 6.35860399816555177388e-02) (188, 5.39316288789483608279e-02) (189, 1.49213753830325285277e-01) (190, 6.63351720987946646968e-02) (191, 2.46398679147296576636e-03) (192, -1.06185745380613723483e-03) (193, -7.99409831518318736432e-02) (194, -1.05015952035664036912e-01) (195, -9.30071667996945072865e-02) (196, -7.72546911540719777323e-02) (197, -1.81538336022665281778e-03) (198, -1.54241318239036667714e-01) (199, -9.68381142907280695331e-02) (200, 1.89762020068887454771e-01) (201, 4.66223493351203624457e-02) (202, -2.74057495182862195793e-02) (203, -4.98798596966599783187e-02) (204, -1.08704407898369714847e-01) (205, 1.12004746873243174465e-02) (206, 3.25369352224280303232e-02) (207, 9.85890384974657807415e-02) (208, -1.03032843160875495908e-02) (209, 4.30570446538725074004e-02) (210, -1.96361423193549995692e-02) (211, -4.47406799116585179865e-02) (212, 1.51501284711202249822e-01) (213, -3.85109163588134989498e-02) (214, -1.09111120601434366528e-01) (215, 7.44434093812574443350e-02) (216, 9.25939769904169035844e-04) (217, -8.37537766802253363929e-02) (218, -9.56255246826149679640e-02) (219, -3.13063822488383837125e-03) (220, 1.91043094543400480967e-02) (221, -7.71620647715062363270e-02) (222, 3.66991988845057071078e-02) (223, -8.17258132839794038116e-02) (224, -4.15920799386939876729e-02) (225, -4.01141415028014036714e-02) (226, -3.26942301908394877819e-02) (227, 1.24713162400050411871e-01) (228, -7.58406575381111031087e-02) (229, 6.80963285282914082552e-02) (230, 1.05714561801447656797e-01) (231, -2.44961610720356923188e-02) (232, 6.18033790701832258518e-02) (233, -1.26392601870192133884e-01) (234, 2.67403526571057918726e-02) (235, 1.18315010803348059920e-02) (236, -1.63040829121242417110e-02) (237, -5.46371508437268824099e-02) (238, -1.24510529599025088210e-01) (239, -5.63870623290328581989e-02) (240, 4.51705029592150697493e-02) (241, 2.47195150167116364792e-02) (242, 7.94745242449275274277e-02) (243, -1.22652649655336752621e-02) (244, -7.17966295831216488876e-02) (245, -1.37717882763164628512e-01) (246, 7.61719206067048015818e-02) (247, 1.00134990607339963153e-01) (248, -6.31513196921834885078e-02) (249, 1.25054150503077693424e-01) (250, 6.81940497134921191913e-02) (251, -4.64430004202401186530e-02) (252, 1.70376229316400035207e-01) (253, -8.18498882612309214268e-02) (254, -2.71913783704600918456e-02) (255, 1.45886985362807496125e-02) (256, 1.50164860144613943049e-01) (257, 2.63680262357888980929e-02) (258, -8.79629552934654834750e-02) (259, -8.90864458776065709644e-02) (260, -1.25506154992227836331e-01) (261, -6.04308311770990133627e-02) (262, -6.15202980672240606896e-02) (263, -7.00889375010769477559e-02) (264, -8.18900816776113454898e-02) (265, -1.44774860257641246886e-01) (266, -6.76898925594231343217e-02) (267, 8.79172000265597691770e-02) (268, 6.06835128839250392829e-02) (269, 6.03551000427985581687e-02) (270, -1.16288447379460282288e-02) (271, -1.81572469273415353086e-02) (272, -4.77150927269241256767e-02) (273, -1.27553880001750691298e-01) (274, -8.22371645052403371645e-02) (275, 6.81129662552942966025e-02) (276, 8.34554323265195296955e-02) (277, 1.18015031232699182245e-02) (278, -9.20147990289555961496e-02) (279, 1.49473905474946256594e-02) (280, 4.58095309691030558308e-02) (281, 5.15785837183241595988e-03) (282, -1.37153574525128996164e-01) (283, -8.76544406961847488713e-02) (284, 3.83427171805908462154e-02) (285, -4.34612689035839411256e-02) (286, -9.81816745328677603633e-02) (287, 1.02495865226530369352e-01) (288, 1.19512589556141787805e-01) (289, 8.30259592724654355012e-02) (290, 3.21326091639001845679e-02) (291, 4.62538226787479606061e-02) (292, 7.56868123020922461963e-02) (293, 7.17272715925588860708e-02) (294, -1.30048899678355932980e-02) (295, 1.32076706364012197437e-01) (296, 1.98363051305102927602e-01) (297, -3.62700109186355687529e-02) (298, -1.60220503908738466647e-02) (299, 1.02255979104798264134e-01) (300, 2.27560991001637610842e-02) (301, -6.00409975709468649030e-02) (302, -7.21751297567654465093e-02) (303, -1.62913472544348070237e-01) (304, -1.68069705956470014097e-02) (305, 6.78842915965951684831e-03) (306, -7.38294260303853783212e-02) (307, 1.65429837387346317934e-01) (308, 9.40518498760540971881e-02) (309, 1.51558376513091872667e-03) (310, 4.70981021854658607473e-02) (311, -8.19071145589718857538e-02) (312, -1.35250057994747235890e-01) (313, -1.05673088197809454669e-02) (314, 8.42751949086571611192e-02) (315, -1.34571869523672383445e-02) (316, 2.57779480901091269385e-02) (317, 2.15977348693708916250e-02) (318, 9.37668953643354535776e-02) (319, -1.29934521904039000650e-02) (320, 2.52790346187657007093e-02) (321, 3.24001914088739365050e-02) (322, -1.55633004580634198843e-01) (323, -4.29774697641759836908e-02) (324, 1.04476855819330000097e-02) (325, -7.37705227509896921401e-02) (326, 1.01377206237403580391e-01) (327, -1.75578772453928305675e-01) (328, -6.85998588864073916005e-02) (329, -8.18139180068128690770e-02) (330, 6.18932240058460148013e-02) (331, -8.24763615783677406235e-02) (332, -8.81178439112857009308e-03) (333, 2.75637323506326518963e-02) (334, -2.19898278045798463085e-03) (335, -2.64747840773976207684e-02) (336, -1.84778011552135905393e-02) (337, 6.21781410698838549189e-02) (338, 1.45614479825336540220e-01) (339, -1.06181498835868262653e-01) (340, -1.50920051730488065378e-02) (341, 1.23955514334101984941e-01) (342, -3.23662205773709299450e-02) (343, -3.18016725239434611128e-03) (344, -5.38554177581154411292e-03) (345, -8.98660366635718327322e-02) (346, 1.04015101987022587360e-01) (347, -1.41099545787986530021e-01) (348, 2.38383167605207141326e-03) (349, 4.68546296200250123043e-02) (350, 1.37865164780712146086e-01) (351, -2.80284698645209932877e-02) (352, -4.19229201896592837406e-02) (353, 6.64085882371376612365e-02) (354, -7.08627720261292143311e-02) (355, -3.79824369085138904834e-02) (356, -1.35131938926195738215e-01) (357, -1.00665893119720684101e-01) (358, -5.30655255069280556296e-03) (359, -9.29571658360731772897e-02) (360, -2.28613641569277471766e-02) (361, 1.23918446598160741229e-03) (362, 5.06105842223968996341e-02) (363, -2.82411933382724564257e-02) (364, -7.41378495735415393719e-02) (365, 4.90599707117622824137e-02) (366, 2.23917847127884754588e-02) (367, -1.61953877184763325725e-02) (368, -2.91999138166241754833e-02) (369, -6.13870470748066610067e-02) (370, 1.24262948580282889255e-01) (371, 1.41916688191785454742e-02) (372, 2.35042260556700723095e-02) (373, -5.44858880628767833221e-02) (374, -3.74356436337845432938e-02) (375, -1.27262914687949132975e-02) (376, -1.47035158859480902249e-01) (377, -8.66354298592683647051e-02) (378, -1.02310448774948950512e-01) (379, -9.25429895701656707319e-02) (380, 5.78269568811224238258e-02) (381, -5.20857195094826253001e-02) (382, 3.74313660873625830838e-02) (383, -5.01710765755089549423e-02) (384, -4.57334573134572860975e-02) (385, 3.00889668899194939744e-02) (386, 2.88991678089498826854e-02) (387, 5.19744270596476909928e-04) (388, 1.19557520472627683977e-02) (389, 1.13611993605955141629e-02) (390, 1.00250180024183746519e-01) (391, -1.95334589035460991224e-02) (392, -1.01732336363306672539e-02) (393, -3.90299859989334321786e-02) (394, 6.63709205908427114784e-03) (395, -6.97173850513961024244e-02) (396, -8.11989338636137647498e-02) (397, -3.74660030959793124983e-02) (398, 2.70155482984954196934e-02) (399, -6.30229970520889137831e-02) (400, 8.00234810867394841249e-02) (401, 5.81419081981244603718e-02) (402, -1.36603574905682836199e-02) (403, 3.91810073675572176355e-02) (404, 1.03077089608265490273e-01) (405, -2.81503984941546894771e-02) (406, 7.81770423784100033926e-03) (407, 4.60791695131129094842e-02) (408, 3.07686076099510895376e-02) (409, 6.70666767545167602504e-02) (410, 4.88016454548518274770e-02) (411, 5.13001628402603021550e-02) (412, 1.59233110259277804710e-01) (413, -1.15292354362588680972e-01) (414, 8.58421530930005699522e-02) (415, 3.83767960313506004133e-02) (416, -1.37359216666565253639e-01) (417, 4.42239649722572514268e-02) (418, -1.11058409440054642325e-01) (419, 3.31304230169745458912e-02) (420, -1.12631723524529280683e-02) (421, -6.63972871568807299081e-02) (422, -1.03455937305520190295e-01) (423, -8.79621791588471868550e-02) (424, 3.38088290520085488211e-02) (425, -8.37083171084685162544e-02) (426, -3.52847052732765432970e-03) (427, -2.08221266084132675123e-02) (428, -4.70777708591679916461e-02) (429, -4.90830416332235369703e-02) (430, 2.33603496711813456155e-02) (431, -5.05154473233463199855e-02) (432, -1.20397898381405157181e-03) (433, -1.14053816606808050560e-01) (434, -5.60581439473737327961e-02) (435, -1.19104785371368412927e-01) (436, -1.72351267533618957017e-01) (437, 1.56256222694809848717e-02) (438, -9.55633160293399008811e-02) (439, 2.23080015075263135560e-02) (440, -4.54024043103602933935e-02) (441, 2.22177033570729563772e-02) (442, 1.30220940249718170056e-01) (443, 1.12493450541186465474e-01) (444, 7.64358277311309314284e-02) (445, 3.57620313921235416510e-02) (446, 1.07293023295651809845e-01) (447, -7.68091887256300148712e-02) (448, -4.05604261750709682577e-02) (449, -5.99279947432787424288e-02) (450, 1.20680061759034867874e-01) (451, -2.54297173136595403009e-02) (452, 1.54665812285536465737e-02) (453, 7.16510057125009508505e-02) (454, 5.44467529119534426191e-03) (455, 8.13510814891234418367e-02) (456, -1.31121390627195771872e-01) (457, 1.51628676741913215320e-01) (458, -9.46826399389282397090e-02) (459, -3.72553370466992897492e-02) (460, -6.19946703943178023533e-02) (461, 3.50382088790172144255e-02) (462, -1.80792301583564789247e-02) (463, -6.85081588432134985789e-02) (464, 7.19985616610940432070e-02) (465, -1.05987862744169020202e-01) (466, -5.80725574345243647501e-02) (467, 5.45773777391903441858e-02) (468, 9.97655408811700186722e-03) (469, -2.64748644750664383074e-02) (470, 9.76161052528290024144e-02) (471, -2.22967695361952385202e-02) (472, -1.01084956562506635136e-02) (473, -1.96750739294110563171e-02) (474, 6.25467816251356611978e-02) (475, -3.31509420241832067355e-02) (476, -7.81499399348378892549e-02) (477, 1.86904641646007778355e-02) (478, -1.12506215378008728178e-01) (479, -1.73734202914261059991e-02) (480, 4.73216455218439177588e-02) (481, -9.44562360547030049895e-02) (482, -2.84806661774148865696e-02) (483, 7.14573913403860061511e-02) (484, -1.01927482618154444105e-01) (485, 5.02901636510562494164e-02) (486, 7.17422542629522486113e-02) (487, -1.69925939764388432562e-02) (488, 1.04648960503473165140e-01) (489, -2.09574332261707949043e-02) (490, -9.43247885814953584971e-02) (491, -1.40584895115913127706e-01) (492, 1.23573049687013450382e-01) (493, -1.17672576191160602188e-01) (494, -9.73439800467715832255e-02) (495, -2.88224168790750523428e-02) (496, -1.03779284216040684763e-01) (497, 2.07015326443021098479e-02) (498, -8.02881864144877610556e-02) (499, -1.54859877354511510372e-02) (500, 1.01162495722394218944e-01) (501, -2.05268965971137987148e-02) (502, 4.73910578138336466281e-02) (503, 1.05355670441538401549e-01) (504, -9.02998457904696100185e-02) (505, -8.01228025381933162130e-02) (506, -3.92716921726064052689e-02) (507, -1.43951024331414613976e-03) (508, 5.97030386244966695952e-02) (509, 1.89695475036551833292e-02) (510, -6.12167186899825813140e-02) (511, -2.94442214890522774295e-02) (512, -1.56497911594481536011e-03) (513, -2.31424042659277677536e-02) (514, -3.69735456868805281716e-02) (515, -4.24677891792178824337e-02) (516, -5.11497205503322963094e-02) (517, 8.63352102837518405043e-03) (518, -4.78431429454887792441e-03) (519, -1.06810537447787984311e-01) (520, 3.18071510920672345657e-02) (521, -2.27282375756376053832e-02) (522, -2.21904157051604176976e-02) (523, -9.26241561230559812268e-02) (524, -1.81613419425487553072e-02) (525, -1.48783217106354774539e-02) (526, 5.40812691322244826209e-02) (527, 4.83513980180219557492e-02) (528, 3.78330079102093402854e-02) (529, -1.98180695887318868154e-02) (530, -4.64062766262719750276e-02) (531, 1.47078044396689762430e-02) (532, 8.48879204560330502538e-02) (533, -2.13647894679127904605e-02) (534, 1.12320668497540594039e-02) (535, -2.98397837011581861313e-03) (536, 6.49706577299469928422e-02) (537, 7.42373941150080984830e-02) (538, 3.86489864196612534220e-02) (539, -1.83963723496667931612e-02) (540, 1.28176019732243989813e-01) (541, -9.70133752133858218158e-02) (542, -1.52520019364959895369e-02) (543, -7.05358224078184575800e-02) (544, -4.39236921825095910643e-02) (545, 2.14612240554874454668e-02) (546, 3.76243397900830958691e-02) (547, 4.69326653877462363074e-02) (548, 4.92894142091676104589e-02) (549, -2.01841201641914623488e-02) (550, 5.70024267095218528656e-02) (551, -4.59930390232464805789e-02) (552, 1.56539885350573781952e-01) (553, -1.46842402514118897106e-01) (554, -5.28927562113044660852e-02) (555, 1.31081791986522953192e-02) (556, -5.39840393879782096120e-02) (557, 9.35073417604839890460e-02) (558, -4.84740378738226299071e-02) (559, -1.02696648605904106155e-01) (560, 5.88373564957921368901e-02) (561, -1.76873612221269092826e-02) (562, 8.45680484441899138481e-02) (563, 1.27834467431855343389e-02) (564, -6.52651286538192820785e-02) (565, 2.83341345601092441109e-02) (566, -7.75331489917858024397e-02) (567, -2.97481650185033690004e-02) (568, -1.08149231856734126533e-01) (569, 9.70706407715266478275e-02) (570, -5.65182012050822607518e-02) (571, -2.39242890160230384233e-02) (572, -8.43913647844411057841e-03) (573, -1.21669748450240287202e-02) (574, -6.35986257241585341282e-03) (575, 1.15595783787696901324e-02) (576, 3.57675469288544697899e-02) (577, 7.85411545400033911379e-02) (578, -3.67523397372887875023e-02) (579, -1.47661645926347069591e-02) (580, -8.51221652106245452174e-02) (581, -9.34344544363933382503e-02) (582, 1.51251730204009973008e-02) (583, -8.06327445515371415974e-02) (584, -1.64428337000394053646e-01) (585, -1.68161272515992249454e-01) (586, -6.45135756531059201269e-02) (587, -2.00327532338055253058e-01) (588, -8.50750206125602537188e-02) (589, 5.09925110513916590715e-02) (590, 3.20369325301792795546e-02) (591, 4.44278279006323067730e-05) (592, 3.74497255253091049232e-02) (593, -2.14287969409455505976e-02) (594, -1.30091430816420883243e-01) (595, -1.03139715341781706970e-01) (596, 5.98893315144888860324e-02) (597, -8.40218756915035724919e-02) (598, 2.25384108360514902325e-02) (599, 5.72547017886925191377e-02) (600, -6.66073300483716462805e-02) (601, -1.29812926498371009748e-02) (602, 2.25248875994470049156e-01) (603, -9.97859040872745971934e-04) (604, 1.02779715509675767526e-01) (605, -2.60719347360043873785e-02) (606, 1.29321511841080510896e-01) (607, 2.96413110275871340138e-02) (608, -9.62993260401902861911e-02) (609, 1.32463955125284610359e-01) (610, -3.95861032314865704529e-02) (611, -3.92412194180419768297e-02) (612, 1.84872860827227161740e-02) (613, 3.91715260596865386122e-02) (614, 2.44470153198779851025e-03) (615, 1.05546445232555283211e-01) (616, -4.13031874297016196596e-02) (617, -8.24091085826210850707e-02) (618, 2.34087049042472128413e-01) (619, 3.86743205770699940982e-02) (620, -4.52296795923153027719e-02) (621, 1.82855500993480440952e-01) (622, -1.21639388260763262745e-02) (623, 6.19964958255087711381e-02) (624, 1.63008669872695938219e-01) (625, 2.61126282779268470424e-03) (626, -1.10200418975905795049e-01) (627, 3.42678769639010394332e-01) (628, -6.13704617853131316474e-03) (629, 6.13087530686735326935e-02) (630, 2.89380522610970414288e-01) (631, -8.17502530143939254437e-02) (632, 7.54250540468821006890e-02) (633, 1.61511873949134854289e-01) (634, -1.04015800224985577316e-01) (635, 9.71846049093574582134e-02) (636, 2.19519674304389372788e-01) (637, -4.90368408723608317779e-01) (638, 1.62206696227621599560e-01) (639, 3.96569060749916879605e-01) (640, -1.09481872355153608822e+00) (641, 5.22537183401876936806e-01) (642, 8.81656703566643940029e-02) (643, -4.69189142344706822119e-01) (644, 1.47880795856656421794e-01) (645, 1.86436043648873617240e-01) (646, -1.36058663195339851759e-01) (647, 9.72928439456954008424e-02) (648, 2.04669724064452079881e-01) (649, -9.32241948876892240206e-02) (650, 9.11471381425109500318e-02) (651, 7.18810432313082836586e-02) (652, 5.51693146838972345303e-02) (653, -3.56218191374376921821e-02) (654, 2.53871902579774266773e-01) (655, 5.50280698781368746153e-02) (656, -2.41270488417717095253e-02) (657, 8.08176487379790031707e-02) (658, 1.48616674894527841383e-02) (659, 1.00749851075529320288e-01) (660, 1.97175958028770997865e-01) (661, 1.74178015148370723963e-02) (662, -1.09755735153914055213e-02) (663, 8.51678622243615679466e-02) (664, -8.41806548110985292110e-02) (665, -7.12883189222822399866e-02) (666, 1.73388470067470268354e-01) (667, -1.64867096510570632084e-01) (668, -2.15218978544181559209e-02) (669, 1.89123154543638677394e-01) (670, -1.62157958149984293694e-01) (671, 4.88649634300422214261e-02) (672, -1.14099793810777134367e-02) (673, -8.23178637583820149715e-02) (674, -9.33953620494160502430e-02) (675, 1.15934978403510843825e-01) (676, -1.35803610535939200954e-01) (677, 1.95650376163201758506e-02) (678, 7.06089258434960398425e-02) (679, -1.67213343085923837883e-01) (680, -7.48423874431412283759e-02) (681, -1.15806322912244019641e-01) (0, -1.36619510931254656283e-01) (1, 8.51395623605051554694e-02) (2, -1.68926209377907345088e-02) (3, -7.48181562723003873439e-02) (4, 4.50772874817099780675e-02) (5, 8.13394679265659892309e-02) (6, -9.43564891214812989650e-02) (7, 8.46538415765636653720e-02) (8, 5.86784929152645226558e-02) (9, 7.73725196358855810130e-02) (10, -1.41701734266002826734e-01) (11, -9.37660324565963709809e-02) (12, -5.53120109966764028631e-02) (13, 8.85422121141174293946e-03) (14, -3.87809465672146747028e-02) (15, -6.92201082364028164040e-02) (16, 4.09697082484466734709e-02) (17, 7.77599508996824340112e-02) (18, -8.78474080464924644840e-02) (19, 6.98180811734049611150e-02) (20, 3.64832266422492126901e-02) (21, -1.49720600492300154327e-01) (22, 5.92968057754593574904e-02) (23, -3.16632265599466125594e-02) (24, 1.03653701022108760132e-01) (25, -1.04803016817503119595e-01) (26, -1.22236551780423665942e-04) (27, -1.64914183229781553808e-02) (28, -1.32754085963755597000e-01) (29, -3.84615735063582042663e-02) (30, -6.62019182207627399084e-02) (31, -9.98675918485241176370e-02) (32, -5.64299401434506936459e-02) (33, 2.60770427146749632363e-02) (34, -8.56746593552636104274e-02) (35, 1.32429954103503340346e-02) (36, 4.16091288031674652603e-02) (37, -9.33729543328323668971e-02) (38, -6.92555991813624538533e-02) (39, -6.51738363156612876548e-02) (40, -7.34488531523520005173e-02) (41, -2.24095527797405413492e-03) (42, -4.10535151876161297224e-02) (43, -3.38291702695353233010e-02) (44, 6.32273417154940869933e-02) (45, 7.30163693553704529204e-02) (46, 3.99218517841657544176e-02) (47, 3.16033499615709853603e-02) (48, 1.90457794694578476900e-03) (49, 9.09335224218333400964e-04) (50, -8.74669742795954330283e-02) (51, -1.52839307726119859321e-02) (52, 4.97800766851646606104e-02) (53, -8.88109044802655456241e-02) (54, -3.55719064080470409595e-02) (55, 7.36580084613303875951e-02) (56, -7.03375378151702007612e-02) (57, -2.97036987195469642797e-02) (58, -2.54078769599260963219e-02) (59, -1.03833081618589326278e-01) (60, -5.01936744900446790707e-02) (61, 7.39021347378095985400e-04) (62, -1.05185893052637521872e-01) (63, -8.07890271835038330239e-03) (64, -1.20542283921648771261e-01) (65, 