FANN_FLO_2.1
num_layers=3
learning_rate=0.010000
connection_rate=1.000000
network_type=0
learning_momentum=0.300000
training_algorithm=0
train_error_function=0
train_stop_function=0
cascade_output_change_fraction=0.010000
quickprop_decay=-0.000100
quickprop_mu=1.750000
rprop_increase_factor=1.200000
rprop_decrease_factor=0.500000
rprop_delta_min=0.000000
rprop_delta_max=50.000000
rprop_delta_zero=0.100000
cascade_output_stagnation_epochs=12
cascade_candidate_change_fraction=0.010000
cascade_candidate_stagnation_epochs=12
cascade_max_out_epochs=150
cascade_min_out_epochs=0
cascade_max_cand_epochs=150
cascade_min_cand_epochs=0
cascade_num_candidate_groups=2
bit_fail_limit=3.49999999999999977796e-01
cascade_candidate_limit=1.00000000000000000000e+03
cascade_weight_multiplier=4.00000000000000022204e-01
cascade_activation_functions_count=10
cascade_activation_functions=3 5 7 8 10 11 14 15 16 17 
cascade_activation_steepnesses_count=4
cascade_activation_steepnesses=2.50000000000000000000e-01 5.00000000000000000000e-01 7.50000000000000000000e-01 1.00000000000000000000e+00 
layer_sizes=433 121 4 
scale_included=0
neurons (num_inputs, activation_function, activation_steepness)=(0, 0, 0.00000000000000000000e+00) (0, 0, 0.00000000000000000000e+00) (0, 0, 0.00000000000000000000e+00) (0, 0, 0.00000000000000000000e+00) (0, 0, 0.00000000000000000000e+00) (0, 0, 0.00000000000000000000e+00) (0, 0, 0.00000000000000000000e+00) (0, 0, 0.00000000000000000000e+00) (0, 0, 0.00000000000000000000e+00) (0, 0, 0.00000000000000000000e+00) (0, 0, 0.00000000000000000000e+00) (0, 0, 0.00000000000000000000e+00) (0, 0, 0.00000000000000000000e+00) (0, 0, 0.00000000000000000000e+00) (0, 0, 0.00000000000000000000e+00) (0, 0, 0.00000000000000000000e+00) (0, 0, 0.00000000000000000000e+00) (0, 0, 0.00000000000000000000e+00) (0, 0, 0.00000000000000000000e+00) (0, 0, 0.00000000000000000000e+00) (0, 0, 0.00000000000000000000e+00) (0, 0, 0.00000000000000000000e+00) (0, 0, 0.00000000000000000000e+00) (0, 0, 0.00000000000000000000e+00) (0, 0, 0.00000000000000000000e+00) (0, 0, 0.00000000000000000000e+00) (0, 0, 0.00000000000000000000e+00) (0, 0, 0.00000000000000000000e+00) (0, 0, 0.00000000000000000000e+00) (0, 0, 0.00000000000000000000e+00) (0, 0, 0.00000000000000000000e+00) (0, 0, 0.00000000000000000000e+00) (0, 0, 0.00000000000000000000e+00) (0, 0, 0.00000000000000000000e+00) (0, 0, 0.00000000000000000000e+00) (0, 0, 0.00000000000000000000e+00) (0, 0, 0.00000000000000000000e+00) (0, 0, 0.00000000000000000000e+00) (0, 0, 0.00000000000000000000e+00) (0, 0, 0.00000000000000000000e+00) (0, 0, 0.00000000000000000000e+00) (0, 0, 0.00000000000000000000e+00) (0, 0, 0.00000000000000000000e+00) (0, 0, 0.00000000000000000000e+00) (0, 0, 0.00000000000000000000e+00) (0, 0, 0.00000000000000000000e+00) (0, 0, 0.00000000000000000000e+00) (0, 0, 0.00000000000000000000e+00) (0, 0, 0.00000000000000000000e+00) (0, 0, 0.00000000000000000000e+00) (0, 0, 0.00000000000000000000e+00) (0, 0, 0.00000000000000000000e+00) (0, 0, 0.00000000000000000000e+00) (0, 0, 0.00000000000000000000e+00) (0, 0, 0.00000000000000000000e+00) (0, 0, 0.00000000000000000000e+00) (0, 0, 0.00000000000000000000e+00) (0, 0, 0.00000000000000000000e+00) (0, 0, 0.00000000000000000000e+00) (0, 0, 0.00000000000000000000e+00) (0, 0, 0.00000000000000000000e+00) (0, 0, 0.00000000000000000000e+00) (0, 0, 0.00000000000000000000e+00) (0, 0, 0.00000000000000000000e+00) (0, 0, 0.00000000000000000000e+00) (0, 0, 0.00000000000000000000e+00) (0, 0, 0.00000000000000000000e+00) (0, 0, 0.00000000000000000000e+00) (0, 0, 0.00000000000000000000e+00) (0, 0, 0.00000000000000000000e+00) (0, 0, 0.00000000000000000000e+00) (0, 0, 0.00000000000000000000e+00) (0, 0, 0.00000000000000000000e+00) (0, 0, 0.00000000000000000000e+00) (0, 0, 0.00000000000000000000e+00) (0, 0, 0.00000000000000000000e+00) (0, 0, 0.00000000000000000000e+00) (0, 0, 0.00000000000000000000e+00) (0, 0, 0.00000000000000000000e+00) (0, 0, 0.00000000000000000000e+00) (0, 0, 0.00000000000000000000e+00) (0, 0, 0.00000000000000000000e+00) (0, 0, 0.00000000000000000000e+00) (0, 0, 0.00000000000000000000e+00) (0, 0, 0.00000000000000000000e+00) (0, 0, 0.00000000000000000000e+00) (0, 0, 0.00000000000000000000e+00) (0, 0, 0.00000000000000000000e+00) (0, 0, 0.00000000000000000000e+00) (0, 0, 0.00000000000000000000e+00) (0, 0, 0.00000000000000000000e+00) (0, 0, 0.00000000000000000000e+00) (0, 0, 0.00000000000000000000e+00) (0, 0, 0.00000000000000000000e+00) (0, 0, 0.00000000000000000000e+00) (0, 0, 0.00000000000000000000e+00) (0, 0, 0.00000000000000000000e+00) (0, 0, 0.00000000000000000000e+00) (0, 0, 0.00000000000000000000e+00) (0, 0, 0.00000000000000000000e+00) (0, 0, 0.00000000000000000000e+00) (0, 0, 0.00000000000000000000e+00) (0, 0, 0.00000000000000000000e+00) (0, 0, 0.00000000000000000000e+00) (0, 0, 0.00000000000000000000e+00) (0, 0, 0.00000000000000000000e+00) (0, 0, 0.00000000000000000000e+00) (0, 0, 0.00000000000000000000e+00) (0, 0, 0.00000000000000000000e+00) (0, 0, 0.00000000000000000000e+00) (0, 0, 0.00000000000000000000e+00) (0, 0, 0.00000000000000000000e+00) (0, 0, 0.00000000000000000000e+00) (0, 0, 0.00000000000000000000e+00) (0, 0, 0.00000000000000000000e+00) (0, 0, 0.00000000000000000000e+00) (0, 0, 0.00000000000000000000e+00) (0, 0, 0.00000000000000000000e+00) (0, 0, 0.00000000000000000000e+00) (0, 0, 0.00000000000000000000e+00) (0, 0, 0.00000000000000000000e+00) (0, 0, 0.00000000000000000000e+00) (0, 0, 0.00000000000000000000e+00) (0, 0, 0.00000000000000000000e+00) (0, 0, 0.00000000000000000000e+00) (0, 0, 0.00000000000000000000e+00) (0, 0, 0.00000000000000000000e+00) (0, 0, 0.00000000000000000000e+00) (0, 0, 0.00000000000000000000e+00) (0, 0, 0.00000000000000000000e+00) (0, 0, 0.00000000000000000000e+00) (0, 0, 0.00000000000000000000e+00) (0, 0, 0.00000000000000000000e+00) (0, 0, 0.00000000000000000000e+00) (0, 0, 0.00000000000000000000e+00) (0, 0, 0.00000000000000000000e+00) (0, 0, 0.00000000000000000000e+00) (0, 0, 0.00000000000000000000e+00) (0, 0, 0.00000000000000000000e+00) (0, 0, 0.00000000000000000000e+00) (0, 0, 0.00000000000000000000e+00) (0, 0, 0.00000000000000000000e+00) (0, 0, 0.00000000000000000000e+00) (0, 0, 0.00000000000000000000e+00) (0, 0, 0.00000000000000000000e+00) (0, 0, 0.00000000000000000000e+00) (0, 0, 0.00000000000000000000e+00) (0, 0, 0.00000000000000000000e+00) (0, 0, 0.00000000000000000000e+00) (0, 0, 0.00000000000000000000e+00) (0, 0, 0.00000000000000000000e+00) (0, 0, 0.00000000000000000000e+00) (0, 0, 0.00000000000000000000e+00) (0, 0, 0.00000000000000000000e+00) (0, 0, 0.00000000000000000000e+00) (0, 0, 0.00000000000000000000e+00) (0, 0, 0.00000000000000000000e+00) (0, 0, 0.00000000000000000000e+00) (0, 0, 0.00000000000000000000e+00) (0, 0, 0.00000000000000000000e+00) (0, 0, 0.00000000000000000000e+00) (0, 0, 0.00000000000000000000e+00) (0, 0, 0.00000000000000000000e+00) (0, 0, 0.00000000000000000000e+00) (0, 0, 0.00000000000000000000e+00) (0, 0, 0.00000000000000000000e+00) (0, 0, 0.00000000000000000000e+00) (0, 0, 0.00000000000000000000e+00) (0, 0, 0.00000000000000000000e+00) (0, 0, 0.00000000000000000000e+00) (0, 0, 0.00000000000000000000e+00) (0, 0, 0.00000000000000000000e+00) (0, 0, 0.00000000000000000000e+00) (0, 0, 0.00000000000000000000e+00) (0, 0, 0.00000000000000000000e+00) (0, 0, 0.00000000000000000000e+00) (0, 0, 0.00000000000000000000e+00) (0, 0, 0.00000000000000000000e+00) (0, 0, 0.00000000000000000000e+00) (0, 0, 0.00000000000000000000e+00) (0, 0, 0.00000000000000000000e+00) (0, 0, 0.00000000000000000000e+00) (0, 0, 0.00000000000000000000e+00) (0, 0, 0.00000000000000000000e+00) (0, 0, 0.00000000000000000000e+00) (0, 0, 0.00000000000000000000e+00) (0, 0, 0.00000000000000000000e+00) (0, 0, 0.00000000000000000000e+00) (0, 0, 0.00000000000000000000e+00) (0, 0, 0.00000000000000000000e+00) (0, 0, 0.00000000000000000000e+00) (0, 0, 0.00000000000000000000e+00) (0, 0, 0.00000000000000000000e+00) (0, 0, 0.00000000000000000000e+00) (0, 0, 0.00000000000000000000e+00) (0, 0, 0.00000000000000000000e+00) (0, 0, 0.00000000000000000000e+00) (0, 0, 0.00000000000000000000e+00) (0, 0, 0.00000000000000000000e+00) (0, 0, 0.00000000000000000000e+00) (0, 0, 0.00000000000000000000e+00) (0, 0, 0.00000000000000000000e+00) (0, 0, 0.00000000000000000000e+00) (0, 0, 0.00000000000000000000e+00) (0, 0, 0.00000000000000000000e+00) (0, 0, 0.00000000000000000000e+00) (0, 0, 0.00000000000000000000e+00) (0, 0, 0.00000000000000000000e+00) (0, 0, 0.00000000000000000000e+00) (0, 0, 0.00000000000000000000e+00) (0, 0, 0.00000000000000000000e+00) (0, 0, 0.00000000000000000000e+00) (0, 0, 0.00000000000000000000e+00) (0, 0, 0.00000000000000000000e+00) (0, 0, 0.00000000000000000000e+00) (0, 0, 0.00000000000000000000e+00) (0, 0, 0.00000000000000000000e+00) (0, 0, 0.00000000000000000000e+00) (0, 0, 0.00000000000000000000e+00) (0, 0, 0.00000000000000000000e+00) (0, 0, 0.00000000000000000000e+00) (0, 0, 0.00000000000000000000e+00) (0, 0, 0.00000000000000000000e+00) (0, 0, 0.00000000000000000000e+00) (0, 0, 0.00000000000000000000e+00) (0, 0, 0.00000000000000000000e+00) (0, 0, 0.00000000000000000000e+00) (0, 0, 0.00000000000000000000e+00) (0, 0, 0.00000000000000000000e+00) (0, 0, 0.00000000000000000000e+00) (0, 0, 0.00000000000000000000e+00) (0, 0, 0.00000000000000000000e+00) (0, 0, 0.00000000000000000000e+00) (0, 0, 0.00000000000000000000e+00) (0, 0, 0.00000000000000000000e+00) (0, 0, 0.00000000000000000000e+00) (0, 0, 0.00000000000000000000e+00) (0, 0, 0.00000000000000000000e+00) (0, 0, 0.00000000000000000000e+00) (0, 0, 0.00000000000000000000e+00) (0, 0, 0.00000000000000000000e+00) (0, 0, 0.00000000000000000000e+00) (0, 0, 0.00000000000000000000e+00) (0, 0, 0.00000000000000000000e+00) (0, 0, 0.00000000000000000000e+00) (0, 0, 0.00000000000000000000e+00) (0, 0, 0.00000000000000000000e+00) (0, 0, 0.00000000000000000000e+00) (0, 0, 0.00000000000000000000e+00) (0, 0, 0.00000000000000000000e+00) (0, 0, 0.00000000000000000000e+00) (0, 0, 0.00000000000000000000e+00) (0, 0, 0.00000000000000000000e+00) (0, 0, 0.00000000000000000000e+00) (0, 0, 0.00000000000000000000e+00) (0, 0, 0.00000000000000000000e+00) (0, 0, 0.00000000000000000000e+00) (0, 0, 0.00000000000000000000e+00) (0, 0, 0.00000000000000000000e+00) (0, 0, 0.00000000000000000000e+00) (0, 0, 0.00000000000000000000e+00) (0, 0, 0.00000000000000000000e+00) (0, 0, 0.00000000000000000000e+00) (0, 0, 0.00000000000000000000e+00) (0, 0, 0.00000000000000000000e+00) (0, 0, 0.00000000000000000000e+00) (0, 0, 0.00000000000000000000e+00) (0, 0, 0.00000000000000000000e+00) (0, 0, 0.00000000000000000000e+00) (0, 0, 0.00000000000000000000e+00) (0, 0, 0.00000000000000000000e+00) (0, 0, 0.00000000000000000000e+00) (0, 0, 0.00000000000000000000e+00) (0, 0, 0.00000000000000000000e+00) (0, 0, 0.00000000000000000000e+00) (0, 0, 0.00000000000000000000e+00) (0, 0, 0.00000000000000000000e+00) (0, 0, 0.00000000000000000000e+00) (0, 0, 0.00000000000000000000e+00) (0, 0, 0.00000000000000000000e+00) (0, 0, 0.00000000000000000000e+00) (0, 0, 0.00000000000000000000e+00) (0, 0, 0.00000000000000000000e+00) (0, 0, 0.00000000000000000000e+00) (0, 0, 0.00000000000000000000e+00) (0, 0, 0.00000000000000000000e+00) (0, 0, 0.00000000000000000000e+00) (0, 0, 0.00000000000000000000e+00) (0, 0, 0.00000000000000000000e+00) (0, 0, 0.00000000000000000000e+00) (0, 0, 0.00000000000000000000e+00) (0, 0, 0.00000000000000000000e+00) (0, 0, 0.00000000000000000000e+00) (0, 0, 0.00000000000000000000e+00) (0, 0, 0.00000000000000000000e+00) (0, 0, 0.00000000000000000000e+00) (0, 0, 0.00000000000000000000e+00) (0, 0, 0.00000000000000000000e+00) (0, 0, 0.00000000000000000000e+00) (0, 0, 0.00000000000000000000e+00) (0, 0, 0.00000000000000000000e+00) (0, 0, 0.00000000000000000000e+00) (0, 0, 0.00000000000000000000e+00) (0, 0, 0.00000000000000000000e+00) (0, 0, 0.00000000000000000000e+00) (0, 0, 0.00000000000000000000e+00) (0, 0, 0.00000000000000000000e+00) (0, 0, 0.00000000000000000000e+00) (0, 0, 0.00000000000000000000e+00) (0, 0, 0.00000000000000000000e+00) (0, 0, 0.00000000000000000000e+00) (0, 0, 0.00000000000000000000e+00) (0, 0, 0.00000000000000000000e+00) (0, 0, 0.00000000000000000000e+00) (0, 0, 0.00000000000000000000e+00) (0, 0, 0.00000000000000000000e+00) (0, 0, 0.00000000000000000000e+00) (0, 0, 0.00000000000000000000e+00) (0, 0, 0.00000000000000000000e+00) (0, 0, 0.00000000000000000000e+00) (0, 0, 0.00000000000000000000e+00) (0, 0, 0.00000000000000000000e+00) (0, 0, 0.00000000000000000000e+00) (0, 0, 0.00000000000000000000e+00) (0, 0, 0.00000000000000000000e+00) (0, 0, 0.00000000000000000000e+00) (0, 0, 0.00000000000000000000e+00) (0, 0, 0.00000000000000000000e+00) (0, 0, 0.00000000000000000000e+00) (0, 0, 0.00000000000000000000e+00) (0, 0, 0.00000000000000000000e+00) (0, 0, 0.00000000000000000000e+00) (0, 0, 0.00000000000000000000e+00) (0, 0, 0.00000000000000000000e+00) (0, 0, 0.00000000000000000000e+00) (0, 0, 0.00000000000000000000e+00) (0, 0, 0.00000000000000000000e+00) (0, 0, 0.00000000000000000000e+00) (0, 0, 0.00000000000000000000e+00) (0, 0, 0.00000000000000000000e+00) (0, 0, 0.00000000000000000000e+00) (0, 0, 0.00000000000000000000e+00) (0, 0, 0.00000000000000000000e+00) (0, 0, 0.00000000000000000000e+00) (0, 0, 0.00000000000000000000e+00) (0, 0, 0.00000000000000000000e+00) (0, 0, 0.00000000000000000000e+00) (0, 0, 0.00000000000000000000e+00) (0, 0, 0.00000000000000000000e+00) (0, 0, 0.00000000000000000000e+00) (0, 0, 0.00000000000000000000e+00) (0, 0, 0.00000000000000000000e+00) (0, 0, 0.00000000000000000000e+00) (0, 0, 0.00000000000000000000e+00) (0, 0, 0.00000000000000000000e+00) (0, 0, 0.00000000000000000000e+00) (0, 0, 0.00000000000000000000e+00) (0, 0, 0.00000000000000000000e+00) (0, 0, 0.00000000000000000000e+00) (0, 0, 0.00000000000000000000e+00) (0, 0, 0.00000000000000000000e+00) (0, 0, 0.00000000000000000000e+00) (0, 0, 0.00000000000000000000e+00) (0, 0, 0.00000000000000000000e+00) (0, 0, 0.00000000000000000000e+00) (0, 0, 0.00000000000000000000e+00) (0, 0, 0.00000000000000000000e+00) (0, 0, 0.00000000000000000000e+00) (0, 0, 0.00000000000000000000e+00) (0, 0, 0.00000000000000000000e+00) (0, 0, 0.00000000000000000000e+00) (0, 0, 0.00000000000000000000e+00) (0, 0, 0.00000000000000000000e+00) (0, 0, 0.00000000000000000000e+00) (0, 0, 0.00000000000000000000e+00) (0, 0, 0.00000000000000000000e+00) (0, 0, 0.00000000000000000000e+00) (0, 0, 0.00000000000000000000e+00) (0, 0, 0.00000000000000000000e+00) (0, 0, 0.00000000000000000000e+00) (0, 0, 0.00000000000000000000e+00) (0, 0, 0.00000000000000000000e+00) (0, 0, 0.00000000000000000000e+00) (0, 0, 0.00000000000000000000e+00) (0, 0, 0.00000000000000000000e+00) (0, 0, 0.00000000000000000000e+00) (0, 0, 0.00000000000000000000e+00) (0, 0, 0.00000000000000000000e+00) (0, 0, 0.00000000000000000000e+00) (0, 0, 0.00000000000000000000e+00) (0, 0, 0.00000000000000000000e+00) (0, 0, 0.00000000000000000000e+00) (0, 0, 0.00000000000000000000e+00) (0, 0, 0.00000000000000000000e+00) (0, 0, 0.00000000000000000000e+00) (0, 0, 0.00000000000000000000e+00) (0, 0, 0.00000000000000000000e+00) (0, 0, 0.00000000000000000000e+00) (0, 0, 0.00000000000000000000e+00) (0, 0, 0.00000000000000000000e+00) (0, 0, 0.00000000000000000000e+00) (0, 0, 0.00000000000000000000e+00) (0, 0, 0.00000000000000000000e+00) (0, 0, 0.00000000000000000000e+00) (0, 0, 0.00000000000000000000e+00) (0, 0, 0.00000000000000000000e+00) (0, 0, 0.00000000000000000000e+00) (0, 0, 0.00000000000000000000e+00) (0, 0, 0.00000000000000000000e+00) (0, 0, 0.00000000000000000000e+00) (0, 0, 0.00000000000000000000e+00) (0, 0, 0.00000000000000000000e+00) (0, 0, 0.00000000000000000000e+00) (0, 0, 0.00000000000000000000e+00) (0, 0, 0.00000000000000000000e+00) (0, 0, 0.00000000000000000000e+00) (0, 0, 0.00000000000000000000e+00) (0, 0, 0.00000000000000000000e+00) (0, 0, 0.00000000000000000000e+00) (0, 0, 0.00000000000000000000e+00) (0, 0, 0.00000000000000000000e+00) (0, 0, 0.00000000000000000000e+00) (0, 0, 0.00000000000000000000e+00) (0, 0, 0.00000000000000000000e+00) (0, 0, 0.00000000000000000000e+00) (0, 0, 0.00000000000000000000e+00) (0, 0, 0.00000000000000000000e+00) (0, 0, 0.00000000000000000000e+00) (0, 0, 0.00000000000000000000e+00) (0, 0, 0.00000000000000000000e+00) (0, 0, 0.00000000000000000000e+00) (0, 0, 0.00000000000000000000e+00) (0, 0, 0.00000000000000000000e+00) (433, 3, 5.00000000000000000000e-01) (433, 3, 5.00000000000000000000e-01) (433, 3, 5.00000000000000000000e-01) (433, 3, 5.00000000000000000000e-01) (433, 3, 5.00000000000000000000e-01) (433, 3, 5.00000000000000000000e-01) (433, 3, 5.00000000000000000000e-01) (433, 3, 5.00000000000000000000e-01) (433, 3, 5.00000000000000000000e-01) (433, 3, 5.00000000000000000000e-01) (433, 3, 5.00000000000000000000e-01) (433, 3, 5.00000000000000000000e-01) (433, 3, 5.00000000000000000000e-01) (433, 3, 5.00000000000000000000e-01) (433, 3, 5.00000000000000000000e-01) (433, 3, 5.00000000000000000000e-01) (433, 3, 5.00000000000000000000e-01) (433, 3, 5.00000000000000000000e-01) (433, 3, 5.00000000000000000000e-01) (433, 3, 5.00000000000000000000e-01) (433, 3, 5.00000000000000000000e-01) (433, 3, 5.00000000000000000000e-01) (433, 3, 5.00000000000000000000e-01) (433, 3, 5.00000000000000000000e-01) (433, 3, 5.00000000000000000000e-01) (433, 3, 5.00000000000000000000e-01) (433, 3, 5.00000000000000000000e-01) (433, 3, 5.00000000000000000000e-01) (433, 3, 5.00000000000000000000e-01) (433, 3, 5.00000000000000000000e-01) (433, 3, 5.00000000000000000000e-01) (433, 3, 5.00000000000000000000e-01) (433, 3, 5.00000000000000000000e-01) (433, 3, 5.00000000000000000000e-01) (433, 3, 5.00000000000000000000e-01) (433, 3, 5.00000000000000000000e-01) (433, 3, 5.00000000000000000000e-01) (433, 3, 5.00000000000000000000e-01) (433, 3, 5.00000000000000000000e-01) (433, 3, 5.00000000000000000000e-01) (433, 3, 5.00000000000000000000e-01) (433, 3, 5.00000000000000000000e-01) (433, 3, 5.00000000000000000000e-01) (433, 3, 5.00000000000000000000e-01) (433, 3, 5.00000000000000000000e-01) (433, 3, 5.00000000000000000000e-01) (433, 3, 5.00000000000000000000e-01) (433, 3, 5.00000000000000000000e-01) (433, 3, 5.00000000000000000000e-01) (433, 3, 5.00000000000000000000e-01) (433, 3, 5.00000000000000000000e-01) (433, 3, 5.00000000000000000000e-01) (433, 3, 5.00000000000000000000e-01) (433, 3, 5.00000000000000000000e-01) (433, 3, 5.00000000000000000000e-01) (433, 3, 5.00000000000000000000e-01) (433, 3, 5.00000000000000000000e-01) (433, 3, 5.00000000000000000000e-01) (433, 3, 5.00000000000000000000e-01) (433, 3, 5.00000000000000000000e-01) (433, 3, 5.00000000000000000000e-01) (433, 3, 5.00000000000000000000e-01) (433, 3, 5.00000000000000000000e-01) (433, 3, 5.00000000000000000000e-01) (433, 3, 5.00000000000000000000e-01) (433, 3, 5.00000000000000000000e-01) (433, 3, 5.00000000000000000000e-01) (433, 3, 5.00000000000000000000e-01) (433, 3, 5.00000000000000000000e-01) (433, 3, 5.00000000000000000000e-01) (433, 3, 5.00000000000000000000e-01) (433, 3, 5.00000000000000000000e-01) (433, 3, 5.00000000000000000000e-01) (433, 3, 5.00000000000000000000e-01) (433, 3, 5.00000000000000000000e-01) (433, 3, 5.00000000000000000000e-01) (433, 3, 5.00000000000000000000e-01) (433, 3, 5.00000000000000000000e-01) (433, 3, 5.00000000000000000000e-01) (433, 3, 5.00000000000000000000e-01) (433, 3, 5.00000000000000000000e-01) (433, 3, 5.00000000000000000000e-01) (433, 3, 5.00000000000000000000e-01) (433, 3, 5.00000000000000000000e-01) (433, 3, 5.00000000000000000000e-01) (433, 3, 5.00000000000000000000e-01) (433, 3, 5.00000000000000000000e-01) (433, 3, 5.00000000000000000000e-01) (433, 3, 5.00000000000000000000e-01) (433, 3, 5.00000000000000000000e-01) (433, 3, 5.00000000000000000000e-01) (433, 3, 5.00000000000000000000e-01) (433, 3, 5.00000000000000000000e-01) (433, 3, 5.00000000000000000000e-01) (433, 3, 5.00000000000000000000e-01) (433, 3, 5.00000000000000000000e-01) (433, 3, 5.00000000000000000000e-01) (433, 3, 5.00000000000000000000e-01) (433, 3, 5.00000000000000000000e-01) (433, 3, 5.00000000000000000000e-01) (433, 3, 5.00000000000000000000e-01) (433, 3, 5.00000000000000000000e-01) (433, 3, 5.00000000000000000000e-01) (433, 3, 5.00000000000000000000e-01) (433, 3, 5.00000000000000000000e-01) (433, 3, 5.00000000000000000000e-01) (433, 3, 5.00000000000000000000e-01) (433, 3, 5.00000000000000000000e-01) (433, 3, 5.00000000000000000000e-01) (433, 3, 5.00000000000000000000e-01) (433, 3, 5.00000000000000000000e-01) (433, 3, 5.00000000000000000000e-01) (433, 3, 5.00000000000000000000e-01) (433, 3, 5.00000000000000000000e-01) (433, 3, 5.00000000000000000000e-01) (433, 3, 5.00000000000000000000e-01) (433, 3, 5.00000000000000000000e-01) (433, 3, 5.00000000000000000000e-01) (433, 3, 5.00000000000000000000e-01) (433, 3, 5.00000000000000000000e-01) (0, 3, 0.00000000000000000000e+00) (121, 3, 5.00000000000000000000e-01) (121, 3, 5.00000000000000000000e-01) (121, 3, 5.00000000000000000000e-01) (0, 3, 0.00000000000000000000e+00) 
connections (connected_to_neuron, weight)=(0, 8.43443466870905211863e-01) (1, 2.11017777812172180329e-01) (2, 2.38089922536729343971e-02) (3, 1.79637879214894963242e-01) (4, 5.83695168161063482337e-01) (5, 1.18565028060516983177e-01) (6, -1.56626760054316332971e-01) (7, -4.96716965204966165448e-01) (8, -5.05918615426864393125e-02) (9, 1.66467712851019571108e-02) (10, 3.60263891746508468916e-01) (11, 5.06079718179789361798e-01) (12, 5.50752663620507454389e-01) (13, -2.13090902555580330446e-01) (14, -4.47412085405056225706e-01) (15, -3.94095440299368049430e-01) (16, -6.24696366511733325311e-01) (17, -3.01475495399210424718e-01) (18, 2.08075878477566172942e-01) (19, -6.96041495066050730500e-01) (20, 1.39569512123585398600e-01) (21, 3.11699659495114876628e-02) (22, 6.84287841657359452441e-02) (23, -2.78823685287971967384e-01) (24, -1.42277680669458977958e-01) (25, 2.45745590629303824193e-02) (26, 2.47411471251973075214e-01) (27, 2.75690876302205012394e-01) (28, -2.65526808019570625952e-01) (29, -2.72337051273105978932e-01) (30, -3.07817697832262371360e-01) (31, -2.09776614320943410874e-01) (32, 3.45998909202568483146e-01) (33, 6.08758194800668381297e-02) (34, 1.43353886468017915901e-01) (35, -7.94402408125804981864e-02) (36, 1.74269371824926827541e-01) (37, -4.14928649519549289093e-02) (38, 9.90431953594509972838e-02) (39, 4.10925697019799973653e-01) (40, -3.39959095744025580066e-02) (41, 1.05240967904428536772e-01) (42, -2.87351372708603058914e-01) (43, -5.02555436846493619463e-01) (44, 3.11864698050894395553e-01) (45, -2.38838674467835354598e-01) (46, -4.51029662471073067298e-01) (47, 3.08434674211174097991e-01) (48, -4.12797630544708554767e-02) (49, -2.11603761789715655306e-01) (50, -6.71332627592820668783e-02) (51, 1.52633141303314574799e-02) (52, -5.15385812882553473457e-01) (53, 2.75999796166651489848e-01) (54, 1.98391577009761010952e-01) (55, -1.28914833348989423673e-02) (56, 3.35283853837875234216e-01) (57, 6.35712254789050079662e-02) (58, 2.09415032197185733975e-02) (59, 4.65115494720649419458e-02) (60, -1.22163064644257940428e-01) (61, 1.14455528736660920586e-02) (62, -6.68625599237530759966e-02) (63, -3.34907375523253281191e-01) (64, 1.69121721825695847663e-01) (65, -3.03674424793098030051e-01) (66, -1.03818199638179259336e-01) (67, -7.52504227767951117123e-02) (68, -1.72238365040331575795e-01) (69, -5.39710902051380794764e-02) (70, -2.89409597272839158588e-01) (71, -7.54372951271468656503e-03) (72, -2.26282794049610935794e-01) (73, -1.01411497872419317096e-02) (74, 9.43625912475819922376e-02) (75, -3.97828310108663152356e-01) (76, -5.54870045452256266394e-01) (77, 1.54467476816794874184e-01) (78, 6.30106157911333314425e-02) (79, -2.73365705839292649770e-01) (80, -3.71377494172506136816e-02) (81, 8.00475642839509615722e-02) (82, 2.00086759977868067217e-01) (83, -1.14073661660178016231e-01) (84, -9.22316271177998636688e-02) (85, -1.90821017794956693248e-01) (86, 1.18730057845393519034e-01) (87, 2.27457620846356095567e-01) (88, -2.72647815048078445699e-01) (89, 1.86352685647639682021e-01) (90, -5.73990974830984861804e-03) (91, 2.18561281361078552088e-01) (92, -5.12391686247594489029e-03) (93, -4.93529463059323922347e-02) (94, 1.35077687617711411638e-01) (95, 1.55192989046256148156e-02) (96, 2.17389420933597171670e-01) (97, -2.58089644825616304491e-01) (98, 2.43861220908750453429e-01) (99, -6.59659385666308689666e-02) (100, 1.19080721840099670872e-01) (101, -2.38204492587387843539e-02) (102, -3.66778036753501401890e-01) (103, -5.51189330205076988278e-01) (104, 1.03941959227579289182e-01) (105, -1.39015600003945249963e-01) (106, -3.15587539047675502690e-01) (107, 5.20598025691815652349e-02) (108, 4.77315920479712052504e-01) (109, -1.59340840081455097088e-02) (110, 5.21690683457888808999e-03) (111, 7.22104959837146509471e-02) (112, -4.05655311443892885315e-01) (113, -2.93008598445324286441e-01) (114, 4.93977713411127894449e-01) (115, 3.55836380326264634100e-01) (116, 4.64967540765732656460e-01) (117, -2.04794002261957180933e-01) (118, -3.34748515169266847025e-01) (119, 1.37776850802641487315e-01) (120, -3.21224331863146222998e-02) (121, 1.34440799716098902117e-01) (122, -6.02535451409516698007e-01) (123, -6.44630738232331856885e-01) (124, 5.60178386795141203258e-01) (125, -3.31352643180048256344e-01) (126, -3.06786145637088891736e-01) (127, 3.14073506280168501803e-01) (128, -1.62429232610635243539e-01) (129, 1.07154793607949314072e-01) (130, -2.29851556913241189539e-01) (131, -3.83645794090552660904e-01) (132, -4.29179148043613567509e-01) (133, -1.27748465193267574103e-01) (134, -2.46415190926706634267e-01) (135, -2.92665478975771164993e-01) (136, -1.11556416732403435033e-01) (137, 1.38681865056569982725e-02) (138, -4.15866096190710077263e-01) (139, -1.28050263704262812237e-01) (140, 9.18772352637622913285e-02) (141, -1.34260222695308295560e-01) (142, 1.93296285801640266300e-01) (143, -3.76606225386372783781e-01) (144, 9.50683349709686847939e-02) (145, 4.52819854783099509654e-02) (146, -7.89681159789121928094e-02) (147, 1.64582988521270567883e-01) (148, -2.86809774457451815977e-01) (149, 1.21221629567471941846e-01) (150, -1.55163005454045599407e-01) (151, 4.67643127176707324583e-03) (152, 1.14318497857619313929e-01) (153, -1.71396882418242024748e-01) (154, -3.93836888000442475466e-01) (155, 1.21383532701598878534e-01) (156, 2.24660490967071718726e-01) (157, 5.06446161355097387857e-02) (158, -4.31984772456093402138e-01) (159, -1.24385233625151719883e-01) (160, -9.02509764463663988199e-02) (161, 2.06577968327566918738e-01) (162, 1.06278040193617279163e-01) (163, -2.05923581022756652104e-01) (164, 2.27864531063954989243e-01) (165, -1.79843441055713842980e-01) (166, 6.05525843482336359469e-02) (167, 2.90598557416866909442e-01) (168, 4.29589774927745596256e-03) (169, -3.79600204171018189292e-03) (170, -2.92293164305003905223e-01) (171, -2.40186266576074780588e-01) (172, -9.89592696860702863981e-02) (173, -1.87233950209971106160e-01) (174, 2.14846944670865902527e-01) (175, 5.71027999383693751767e-01) (176, 5.22128674299894068866e-01) (177, 1.90509929215831770588e-02) (178, 1.87174868336652422407e-01) (179, 6.39730383399801483257e-01) (180, -1.83671112748557241456e-01) (181, 6.57548849810950103434e-02) (182, -4.61134015834973876036e-01) (183, -5.45458133371353626195e-01) (184, 5.55519476056721361878e-01) (185, -2.72247889519147689974e-01) (186, -3.50446619321774954781e-01) (187, 7.15599689746719058725e-01) (188, 1.45197172236469856932e-01) (189, 2.00213653718560286032e-01) (190, -5.72892594804452204293e-01) (191, -5.93417395030909733400e-01) (192, -5.45669356856630760610e-01) (193, 2.61162888602025189400e-01) (194, 1.97006836528563683553e-01) (195, 7.91332485552898867720e-02) (196, 6.48512825301771789199e-01) (197, -8.29179488623261184976e-02) (198, 2.08811249319678593483e-01) (199, 1.09601865960827882240e+00) (200, -4.67016068329826228300e-01) (201, -1.44221725066691508488e-01) (202, -1.56931342099327297834e-01) (203, -6.56213541691527568744e-01) (204, 4.12939806054632208010e-01) (205, -5.33196280219221108165e-02) (206, 1.21550272637716318125e-02) (207, 4.20322981161621589408e-01) (208, -5.73190724536554938040e-02) (209, 7.21786182283126048764e-02) (210, -2.74624164052088060028e-01) (211, -8.41400368301897377821e-02) (212, -6.53921715296018946084e-01) (213, 2.89394843966221948506e-01) (214, 5.72148012671879410695e-02) (215, 5.96291785559917852932e-02) (216, 4.43768545736613728714e-01) (217, 3.69038946889688607156e-02) (218, 1.82945395966459312120e-01) (219, 4.17796503773094074496e-01) (220, -5.43470082251271691121e-02) (221, 2.42115736409240223104e-01) (222, -3.67698741636571069247e-01) (223, 2.90659768003095397848e-01) (224, -8.72999799915521595972e-02) (225, 1.09938548109422537524e-01) (226, -2.16876194865262883482e-01) (227, 1.73401473725272675663e-01) (228, -6.17699906600519335620e-02) (229, -3.38277566590353240272e-01) (230, -3.60835270331954727219e-01) (231, 2.67573887130588383698e-01) (232, -4.25126171364825777843e-01) (233, 2.96428709235819383416e-02) (234, 7.46887245604904576046e-02) (235, -8.25924275009769504052e-02) (236, 4.15392150331631793136e-01) (237, 2.45868026625209373792e-01) (238, 3.56191289026872470735e-01) (239, 5.24521583249113243497e-01) (240, 4.55058500879571670161e-01) (241, -4.66567902203178855314e-02) (242, -3.41465567648040091431e-01) (243, 1.15311915104765655427e-01) (244, 4.73202201841512112845e-02) (245, -3.54765889879603765755e-02) (246, -8.02416998464922648360e-02) (247, -4.92754914908312691146e-02) (248, 2.98161080465692174268e-01) (249, 2.20618275472091833478e-02) (250, -2.60235978263925138432e-01) (251, -3.66350167588063768687e-01) (252, -6.00485700411307554702e-01) (253, -5.87456123302025554067e-02) (254, 4.48459112466577103362e-01) (255, 1.44458085373369654603e-01) (256, 1.19587161460315866135e-01) (257, -1.60994660363916602952e-01) (258, 2.67191805900756806924e-01) (259, -4.75594086614080646669e-02) (260, 5.09250780201774944089e-01) (261, 2.03900103996390746897e-01) (262, -2.65707947925011067625e-01) (263, -1.74393858285039338174e-01) (264, 1.33562184552491663991e-01) (265, -1.09488331662465507299e-01) (266, -2.64926008542196611550e-01) (267, -6.03641507809488889885e-03) (268, -2.43644012454687156066e-02) (269, -4.37241280297632817220e-01) (270, -7.56160764013905500880e-02) (271, 7.25172589285179719498e-02) (272, -1.28140350138697706184e-01) (273, -3.27546734418166229919e-01) (274, -1.88693923802497387499e-01) (275, 2.10485062047740534297e-01) (276, 3.52872801778104039361e-01) (277, -3.17071149507012969848e-02) (278, 3.24419376069867149148e-01) (279, -1.43236192547479906922e-01) (280, 8.57691474563315597868e-02) (281, 8.30905229678405993221e-02) (282, 6.94867849320860153650e-02) (283, -3.87626129701775651304e-02) (284, 1.09397851839997894974e-01) (285, -2.43147516876084185400e-01) (286, -2.61392604873263989518e-01) (287, 6.80081252316661749591e-02) (288, 1.74668158856286059866e-01) (289, -2.63134433587288107947e-01) (290, -6.94931110696087456224e-02) (291, -3.42624564981046375589e-01) (292, 3.24104849441554446199e-02) (293, -1.89964161457716329551e-01) (294, 5.01529573569867603844e-01) (295, 4.35150865213415893873e-01) (296, 8.90262402695288668220e-01) (297, -2.35224119483257082530e-01) (298, 3.95957797055114413265e-01) (299, -3.14490785606627021309e-01) (300, 2.28119006328186928190e-02) (301, 2.15941030506301340219e-01) (302, -8.33264163336050245334e-01) (303, -4.41647132293821575999e-01) (304, 2.51124973330568046492e-01) (305, -2.34730330753125548959e-01) (306, -5.56146440210604997567e-01) (307, 7.50488175688531433671e-01) (308, 4.17190913320431511213e-01) (309, -6.60097054837576746600e-02) (310, -2.84565984877402811115e-01) (311, -2.63039752670643556254e-01) (312, -4.87650675202132399821e-01) (313, -2.57313351720008354206e-01) (314, 8.12105051795471849507e-02) (315, 5.82148278477995634317e-02) (316, 4.60979115603724176609e-01) (317, -1.59577763102268010975e-01) (318, 1.47133439013729827582e-01) (319, -1.10838670064377364799e-01) (320, 2.80143661738105120840e-01) (321, 3.01703643130892595892e-01) (322, -9.01897864068550103589e-01) (323, -6.24608611718993178563e-01) (324, 2.30860479959946129913e-01) (325, -1.36392789206360165455e-01) (326, -2.66508552960239120111e-01) (327, 9.19230019155510724715e-01) (328, 2.28750370766532012956e-01) (329, -2.82161048976076918315e-02) (330, -2.84340270667400446536e-02) (331, -8.28239433408944347725e-02) (332, -3.21096958698699252999e-01) (333, -6.76798782169686696797e-01) (334, -2.70066359505737707547e-01) (335, 2.41998717271176035093e-02) (336, 4.16197910070004617467e-01) (337, -1.01699528439662904150e-02) (338, -1.31336624419389758067e-01) (339, 6.81224554294894424356e-02) (340, 3.41622942457667277960e-01) (341, -6.49101139349198968942e-02) (342, -9.90717980528102275251e-03) (343, -4.11045759473007032980e-01) (344, 3.49362240021696465048e-03) (345, 1.96880199290729029915e-02) (346, -3.69065657694804927225e-01) (347, 3.31446008105261091803e-01) (348, -5.42856997434187308477e-04) (349, -8.91057903464449602149e-02) (350, 1.39280981945403808941e-01) (351, 1.26464942854833395369e-01) (352, -1.11002671839649895424e-02) (353, -4.27605198929232988014e-01) (354, 1.05962205960616798195e-01) (355, 3.68570309878286511696e-02) (356, 2.02232296074809025921e-01) (357, -6.78868191485841321331e-02) (358, -3.25958697579956824253e-01) (359, -2.30719311095810536427e-01) (360, -3.93584306611205636539e-01) (361, -1.22622368768641451520e-01) (362, 4.79901131513653291666e-03) (363, -2.05177172788268552539e-01) (364, -2.60385399580994214563e-01) (365, -2.37625892100055607914e-01) (366, -1.03746331322330020974e-01) (367, 5.14606717456097650931e-01) (368, 2.45508580033570206202e-01) (369, 3.29031593896448038006e-01) (370, 1.44501706451018702149e-01) (371, 3.43427023505051998153e-01) (372, 4.78361845462712875765e-01) (373, -1.90188613209875928556e-01) (374, -1.44475276104098354635e-01) (375, -8.70689878708703207666e-02) (376, 8.30998205729734706892e-01) (377, 2.37902105005573044627e-01) (378, -3.17225488693370083482e-01) (379, -1.94223326079277752720e-01) (380, 2.11170615442783926596e-01) (381, -1.08270584292464340515e-02) (382, -3.21833707563105475558e-01) (383, -3.56936235139772739533e-01) (384, -3.43325256939793987954e-01) (385, -4.52150473185242318674e-01) (386, -3.85302219926822564489e-01) (387, 3.72236603633748330822e-01) (388, 4.43875905002265813692e-01) (389, 4.34117627780063852772e-01) (390, 1.18988105935129831470e-01) (391, -1.35155622843372957842e-01) (392, 8.50500404705919477166e-02) (393, 7.24115228279401806910e-02) (394, 1.62405225877683939695e-01) (395, 1.26247600645546048659e-01) (396, 4.14560815950489991444e-01) (397, 6.04796164406781605605e-02) (398, 1.54993062124982178274e-01) (399, 2.36886544496979108143e-02) (400, 3.07203305671261972520e-02) (401, -8.35071053027765242138e-02) (402, -6.37940793718643983645e-01) (403, -3.86859746143014160413e-01) (404, -1.88573617256529890880e-03) (405, -2.57100530707861096857e-01) (406, -8.21614510205989079239e-02) (407, 3.40577421516171652272e-01) (408, 3.53570995942566537740e-02) (409, 2.85540715165929215313e-01) (410, -2.02840672698273369323e-02) (411, -3.10037760171182785740e-01) (412, -2.48677165073860895195e-01) (413, -5.03391056098075190262e-02) (414, -1.24686035451915283589e-01) (415, 6.70535417102267536360e-03) (416, -2.42436667307920905579e-01) (417, 1.68673788391063908532e-02) (418, 9.94331530299722397837e-03) (419, 1.06774535329563630137e-01) (420, -5.58161296623616506873e-02) (421, -1.73333247654031685769e-01) (422, 1.52753782704165871724e-03) (423, -4.33025698532824743214e-01) (424, -1.30254406432510100311e-01) (425, -8.48742009111139311672e-02) (426, 5.50271510447105718922e-02) (427, -1.51490938537897357197e-01) (428, -2.22371239437325646238e-01) (429, -1.64624625848958122676e-01) (430, -2.26125712500742814814e-01) (431, -3.25816753548230531035e-01) (432, -1.51500205950543774536e-02) (0, -4.50857331227753829750e-02) (1, -2.13437677431114226911e-02) (2, 8.32330424238094113143e-02) (3, -6.05788449605186921088e-02) (4, 2.52166658165605517272e-01) (5, -2.69798179722066044928e-01) (6, -2.98590312378684441530e-01) (7, 7.88117115601789652857e-02) (8, 8.03313254630375478405e-02) (9, -1.07639052321034447979e-01) (10, -3.40143097467695693092e-02) (11, 9.23366571340058645001e-02) (12, 1.54269880542237253218e-01) (13, -1.26375824468600461703e-01) (14, 3.31152387993047803150e-01) (15, -1.13822511774329518386e-01) (16, -1.44981901129572043896e-01) (17, 9.07124868507804232691e-04) (18, 1.77995543105884584945e-01) (19, -1.25480221651964179985e-01) (20, -4.48408545201286687365e-02) (21, -1.59867516395875680635e-01) (22, 5.95782380289641699811e-01) (23, 1.89699513393906477043e-01) (24, -1.25863178496899985603e-01) (25, -1.08527760437050965758e-01) (26, -3.60463452740592688039e-02) (27, 1.10759238095484852105e-01) (28, 6.96153739520890407766e-02) (29, -5.50984110265915760785e-02) (30, 7.31339907433590230568e-02) (31, 8.57277261490680259071e-02) (32, 2.65658891160592325331e-01) (33, -9.41298974947024774673e-02) (34, -1.78613660679327213021e-01) (35, -1.53935245422259975312e-01) (36, 5.03266128316147906552e-02) (37, -1.71694192996354411118e-01) (38, 2.37349480404708740311e-01) (39, 1.60880511596524194973e-01) (40, 8.83678552019368374060e-02) (41, -1.56170975822010921208e-01) (42, 8.91709147669412366399e-02) (43, 1.73813727925093086668e-01) (44, -1.65127179791646434620e-04) (45, -1.80459930898686643497e-01) (46, -1.00407958430941454675e-01) (47, -2.61717777902597467654e-02) (48, -2.42863252052129996450e-01) (49, -1.14987340110678362692e-01) (50, -5.01797352490267953296e-02) (51, 1.00690221106608704393e-01) (52, -1.16882941692400404987e-01) (53, 1.77863184010968816695e-01) (54, -5.12865466131836936214e-02) (55, 7.15949721958814011558e-02) (56, 1.01066962492438072729e-01) (57, -1.58704712785632108367e-03) (58, 1.70083199752726205167e-01) (59, 1.03258672578845370205e-01) (60, -1.68493048510063692103e-01) (61, -9.33416481428442496027e-02) (62, -1.70533656900710567372e-01) (63, -1.88305510396472475243e-01) (64, 5.86153304774942457422e-03) (65, 1.64377013534874077960e-01) (66, -4.45828146208567671627e-02) (67, -1.01638769603438053335e-01) (68, -1.42387605947453504962e-01) (69, -3.56600935168482078078e-03) (70, -1.58809293120957706336e-01) (71, -1.49882534269696277018e-01) (72, -6.27707460354726132223e-02) (73, -2.37857179394022205665e-01) (74, 2.13294477296370743602e-01) (75, -1.00448744601043152280e-01) (76, 1.68483413874963461332e-01) (77, -1.31374376956858052168e-01) (78, 3.03238143636324342101e-01) (79, -6.61690419157752451884e-02) (80, 2.85373131084503683930e-01) (81, -2.48351216169477501117e-01) (82, -1.85813283604601670040e-01) (83, 3.22138592050639355202e-02) (84, 7.04341141959777816695e-02) (85, -1.29643700319454994313e-02) (86, 2.84999917265973790048e-01) (87, 7.19043798894253294307e-02) (88, -2.04864128202687442726e-02) (89, -2.75395376793248713998e-01) (90, 6.97926220165147742636e-02) (91, 4.32894227737353823326e-02) (92, -9.03118855508766443796e-02) (93, 3.25019514659325270411e-01) (94, -1.42113546879808372303e-01) (95, 2.45783093478364828011e-01) (96, 2.02437507221717369332e-02) (97, -1.26181660657758709654e-01) (98, -1.64564999784199729460e-04) (99, -1.02685590203147728006e-01) (100, 1.78191351374083262193e-01) (101, -1.53647587078800412774e-01) (102, -5.68033455413335247597e-03) (103, -2.67416274297802569748e-01) (104, 3.13534159631762787690e-01) (105, 2.56347574451920474925e-02) (106, -1.76240345224613487174e-01) (107, 6.62499192484269777692e-02) (108, 1.23874627517441923685e-01) (109, 1.79465111884309636014e-01) (110, -7.38091513152578648782e-02) (111, -7.38641730842872074048e-02) (112, -3.53206156334281484721e-01) (113, 1.35076458603120480584e-01) (114, 2.45325351817923309472e-01) (115, 2.19746336554276222586e-01) (116, 2.76772333077440091387e-01) (117, -7.08745163377976494790e-02) (118, -1.06401309665463322807e-01) (119, -9.45888394796393083830e-02) (120, 3.01617420733733654359e-01) (121, -3.13738607069947508799e-02) (122, -2.59237085836268144057e-01) (123, -2.87825639138218625224e-01) (124, 1.86717468487613419414e-01) (125, 8.51542478660319707151e-02) (126, -1.39269402922148316515e-01) (127, 1.61710905597988119364e-01) (128, -1.54579194590308083290e-01) (129, -1.18158490727797868547e-01) (130, -7.25044553124048335446e-02) (131, -4.36364669483200531830e-02) (132, -3.31026775306614895467e-01) (133, 3.29039394961153849883e-02) (134, 9.52099364836790917899e-02) (135, 4.35240436808922576128e-02) (136, -1.34032304897321374870e-01) (137, -1.31457982071674167601e-01) (138, -1.31792117296749944355e-01) (139, -4.52291078700247373146e-02) (140, 3.52071343966181615759e-01) (141, -7.05403825216162350120e-03) (142, -1.22514032994421553924e-01) (143, -1.48792368174958528071e-01) (144, -3.82398753028154736455e-02) (145, 1.16752400175856363429e-01) (146, -2.34050601256549528628e-01) (147, 1.95668342794231037152e-01) (148, 1.95535241349642681385e-02) (149, -1.51227494179718979783e-02) (150, -1.51539345823307747274e-02) (151, -9.62279384394151282578e-02) (152, -1.77470318456992209866e-01) (153, -2.46340624582151584976e-01) (154, 1.28915878158874147585e-01) (155, -1.06121935663310879017e-01) (156, 2.64228522133692300677e-01) (157, -1.93108890197630556074e-01) (158, 2.47512762562050840642e-02) (159, 2.80679548017373214908e-01) (160, 1.36806800955388052632e-01) (161, -2.22097696747745848578e-01) (162, -2.43416128050831064022e-02) (163, -8.28431123865794871719e-02) (164, 8.13732933567944821673e-02) (165, -1.24837797522420104052e-02) (166, -1.88250726284609870564e-01) (167, 1.96997095180282216775e-01) (168, 1.89283062081439718005e-01) (169, -2.20098400943478905711e-01) (170, 1.65308638875679425606e-02) (171, -1.94308336967935479933e-01) (172, -1.39205444417930618295e-01) (173, -1.67748647107075876672e-01) (174, -1.26009151270069008621e-01) (175, 2.10393193076243212314e-01) (176, 1.45415907981441688834e-01) (177, -2.26900629421907334970e-01) (178, -5.37487843583473456910e-02) (179, 1.45254077979447199231e-01) (180, 1.88573539440701820613e-01) (181, 3.95221260954869216264e-02) (182, 7.50096391761032738055e-02) (183, 7.79191475547809930813e-02) (184, -3.35108873318652675244e-02) (185, 1.44495869946181295512e-02) (186, -2.25098997702943753874e-01) (187, 1.01418956876134322420e-01) (188, 2.88984672160377431549e-01) (189, -1.69297097590464462602e-01) (190, -1.95154213430982020894e-01) (191, -1.88060445330727882274e-01) (192, -1.49876798640787511907e-01) (193, -1.96954942761433687837e-01) (194, 9.99477220732917365220e-02) (195, -1.79808064147993856841e-01) (196, -1.59181575622883125787e-01) (197, -1.24126385326788671315e-01) (198, -1.17328742711592340364e-01) (199, -1.34974567240683018809e-01) (200, 1.87996623327559314598e-01) (201, -9.10759745627516409394e-02) (202, 3.64422039312408947796e-04) (203, 1.68886310352779261956e-01) (204, 4.21315505122955499817e-02) (205, 4.56166004964493124185e-02) (206, -8.29910633870281633229e-03) (207, 2.06429242238646920571e-01) (208, 3.08701382398105628191e-01) (209, 2.56846597676549603939e-01) (210, -4.54853284832715601405e-02) (211, 1.78370517057354766033e-02) (212, -8.44174576213940486280e-02) (213, 2.06612712148432804693e-02) (214, -1.09576250606026909251e-01) (215, 2.05297451725209523232e-01) (216, 2.45639666661247507706e-01) (217, -2.92923656398533072132e-01) (218, -5.46604207698524954817e-02) (219, 1.50168524898357247377e-01) (220, -3.93134950528888138521e-01) (221, -8.88678009657562495427e-02) (222, -1.08200113647421866658e-01) (223, -4.00742470669772574143e-02) (224, -1.95273765525583731240e-02) (225, 6.85154205830714457814e-02) (226, 2.88572501846125761826e-01) (227, 5.56440826243792097117e-01) (228, 1.78802539621846556805e-01) (229, 1.30431894444183599235e-01) (230, 2.67362734000522045408e-02) (231, -2.91918854834243880758e-02) (232, 2.25690452851144612856e-01) (233, -3.17030402448870429755e-01) (234, -2.19940006900784135180e-01) (235, 5.91564854282890517645e-01) (236, 2.66797852162153903421e-01) (237, -1.94856022050260313527e-01) (238, -1.76057726560562510798e-01) (239, -1.15029880931443728720e-01) (240, 2.70421819025006837656e-01) (241, 1.27341147125827197639e-01) (242, -1.86017012260627889741e-01) (243, -1.39771052776304555154e-01) (244, -1.83238954138046472586e-01) (245, 1.50201799911289218120e-02) (246, 2.33492672941300882794e-01) (247, 7.87865654956194205738e-01) (248, -2.85134549371499679271e-01) (249, 3.05421826827746933919e-01) (250, 1.34500149672414998081e-01) (251, 1.14812908674870924747e-02) (252, -2.40258389754378944014e-02) (253, 1.74066830993413329542e-01) (254, 8.12582767157761648447e-02) (255, 7.44084096971910219365e-02) (256, -5.93212452518048077854e-02) (257, -2.05573216356407795224e-01) (258, 3.80663884977965050194e-02) (259, -1.26104161978980860992e-01) (260, 6.83117787607731424826e-02) (261, 1.55858204659342663989e-01) (262, -8.13618457884570378535e-02) (263, -2.31000679640787215385e-01) (264, 9.76995702920638725564e-02) (265, 3.09702829391248456170e-02) (266, 2.86291815953513995030e-01) (267, 7.49825209345297283292e-02) (268, 1.33438606885419568798e-03) (269, 1.33336966759825009676e-01) (270, 8.15428179403655667423e-02) (271, 6.93326682079607875542e-02) (272, 1.09334634185521972771e-01) (273, 1.72959084475421076554e-01) (274, -1.56300096024166446096e-01) (275, 1.67642851387518165840e-01) (276, 4.37772434328840387430e-01) (277, -1.79349203325287559485e-01) (278, -1.71952015319319154174e-02) (279, 1.29100706223674893680e-01) (280, -2.83854250502774407838e-02) (281, -1.75923419148618975782e-01) (282, -8.83719928314556923965e-02) (283, 4.86194046293857914942e-02) (284, 7.94379900063334892790e-02) (285, 7.83561671043358221045e-02) (286, -1.11927633011556261489e-02) (287, -1.00159048715224005544e-01) (288, 1.37989646047534126466e-02) (289, -9.23685648358069100183e-02) (290, 4.47512860429757977632e-02) (291, -8.09064365837029592088e-02) (292, 1.04535320309309759379e-01) (293, -7.84769232469983285538e-02) (294, -1.75415322057757311347e-01) (295, 1.09815881736336343200e-01) (296, 2.28547957813865720844e-01) (297, 6.45615024725165655844e-03) (298, 1.43029374302220291248e-01) (299, 7.05251126477146172283e-03) (300, 5.10569514008957156537e-02) (301, -1.02996815910002759153e-01) (302, 1.63693474557279394777e-01) (303, 8.60800748961968453798e-02) (304, -6.39309283813118967021e-02) (305, -7.51650878877234834841e-02) (306, -2.95247514489257630033e-02) (307, 2.47219014490440563980e-02) (308, -6.35820526901390986607e-02) (309, -1.53851392841558798352e-01) (310, -4.35531051052799322854e-02) (311, 8.83367550246377530865e-02) (312, -2.22927784392352890119e-01) (313, -3.03463330508859596701e-01) (314, 9.99697563541683681398e-02) (315, 2.16752882690917192399e-01) (316, 9.21089971079402658471e-02) (317, -2.05294841569584857188e-01) (318, -5.52661763022442575899e-02) (319, -9.48558717487038155491e-02) (320, 2.28726823972175724586e-01) (321, -2.78121113605584557860e-01) (322, 1.38733827163807360572e-01) (323, 1.22461524786684664012e-01) (324, 1.70606982522520211898e-01) (325, 6.53100794081982599648e-02) (326, -2.27280605546029718100e-01) (327, -2.50192535092268776575e-02) (328, 1.27316511842115540759e-02) (329, 1.73253553664184795080e-02) (330, -4.52413675962771554689e-03) (331, -8.67664191547277002803e-02) (332, -3.57095374165217305240e-01) (333, 2.25601347339583563345e-01) (334, 1.12265674855745404420e-02) (335, 1.73758763664226212331e-01) (336, 2.80533100261090517780e-01) (337, -1.86389753980673922307e-01) (338, -5.92446575561540803023e-02) (339, 7.18307989747476449693e-02) (340, 3.64564944949024305476e-01) (341, -2.97691555362530113626e-01) (342, -1.04740561151813071916e-01) (343, -3.13066526717872384289e-01) (344, -1.18976433602173581328e-01) (345, -5.46293165192688959242e-02) (346, -2.58736085622311762222e-01) (347, -4.30465701572222067539e-02) (348, 9.33376967651666084036e-02) (349, -7.94640472100398009836e-02) (350, -3.19870402907339451692e-02) (351, -2.23548453668959867802e-01) (352, 4.90090939411656559277e-02) (353, -1.45620556341998413918e-01) (354, -5.27350910986741014397e-02) (355, 2.65820082752841246876e-01) (356, -3.40956199729697479253e-03) (357, -7.13284916480191322208e-02) (358, -4.83502513325920549314e-02) (359, 1.92638193984481398413e-01) (360, -5.28649592061508563634e-02) (361, -2.20821308086884160460e-01) (362, 4.20119296394075372736e-02) (363, 3.92604959693525074060e-02) (364, -1.03487672813212430722e-01) (365, -1.72085034076915277534e-01) (366, -2.31663483173645268209e-01) (367, -1.12838689862549454435e-01) (368, -2.75519904329248437047e-02) (369, 1.36889303628318498296e-01) (370, 1.80131436357605090315e-02) (371, -2.42719480798312958747e-01) (372, 2.86896164142250685580e-03) (373, 3.71205428817505456163e-01) (374, 1.84730140873933662560e-01) (375, 2.87913524867371129444e-04) (376, 1.25635466035017517861e-01) (377, -1.31580259347688605098e-01) (378, -1.81044330596587477178e-01) (379, -2.62681628293290503340e-01) (380, 3.03521891278543898274e-01) (381, -2.52800934737856071097e-03) (382, -8.96195205544816908549e-03) (383, -2.42142872330182862273e-01) (384, -1.78230386679576774389e-01) (385, -1.14363721709774754376e-01) (386, -1.05147420592199961065e-01) (387, -1.40905653609238318280e-01) (388, 5.69770439665422540054e-02) (389, -1.15856931443561544937e-01) (390, -1.47099360806221046705e-01) (391, -2.01826627451594659002e-01) (392, -1.42848672102005302964e-01) (393, -1.45492823205215865423e-01) (394, -1.70202026724538102442e-01) (395, 2.63835986176323089580e-01) (396, -8.32669974328684447951e-02) (397, -9.28439259167233577053e-02) (398, -1.08820145231976306288e-01) (399, 2.05812278030354178782e-01) (400, -1.86093444851340050761e-01) (401, -9.62967373637001466946e-02) (402, -2.86784973594677639053e-01) (403, -1.70819419298517440053e-02) (404, 3.11818046297035522674e-01) (405, -1.69526942962704957329e-01) (406, 1.13044668888734267664e-01) (407, 4.68379944372638960803e-03) (408, -7.54320945380685670134e-02) (409, 4.37461215138955430981e-02) (410, 2.71297517936212040368e-02) (411, -4.63425719538955015880e-03) (412, -1.49523355254135126291e-01) (413, -6.74233501715404970334e-02) (414, 5.63451669698479453569e-03) (415, 1.17231408997045774556e-01) (416, 8.27602799694075186299e-02) (417, -2.56586236385563000451e-03) (418, 1.35756031096167906203e-01) (419, -1.07372769618400337732e-01) (420, -3.34025793800414139145e-01) (421, -6.96919223249337527193e-01) (422, 3.54048597420713387351e-02) (423, -8.47694256521981603925e-01) (424, -2.04261628451838622711e-01) (425, -7.93549179970729351430e-02) (426, -1.52737856506597352579e-01) (427, -1.08913066927943377737e-01) (428, -3.19373630795103002900e-01) (429, -2.88791980733539122017e-01) (430, -1.44936677556135651290e-01) (431, -9.61195099038217870557e-02) (432, -1.74028364215954092775e-02) (0, -1.62202224114186860371e-01) (1, -3.33372224437157166355e-02) (2, -5.05518041947474530695e-02) (3, 3.80129622767002295358e-02) (4, 1.65404535756363851862e-01) (5, -1.50679768249528056590e-01) (6, -2.39226777254627293035e-01) (7, 1.12914299947305313276e-01) (8, -5.90789528649719175579e-02) (9, -6.46826372274597466427e-02) (10, -1.70103427721249811366e-01) (11, -8.76228060395893848522e-02) (12, -9.33254752131098541668e-02) (13, 1.17123161840962525249e-01) (14, 3.03824835635629730834e-01) (15, -3.00030771517819268290e-02) (16, 1.86201784241713158563e-01) (17, 5.86016502334884420433e-03) (18, 3.30718540468814686806e-02) (19, 6.96560658776560343020e-02) (20, 1.01030980355592166220e-02) (21, -7.77619114409760781026e-02) (22, 2.83077363593949860032e-02) (23, -5.23500917816599811716e-02) (24, -3.68683785281927814403e-02) (25, -8.67230582017219642221e-02) (26, -1.21342214998087588596e-01) (27, -9.22906978022696306008e-02) (28, 5.52787448557992382170e-03) (29, -1.29390027968814214088e-01) (30, -9.94599093372195396101e-03) (31, -5.45753078002983449402e-02) (32, -4.14048103632568553767e-02) (33, 6.69430134507920659992e-02) (34, 1.75178750115281248352e-03) (35, -8.75373645793789817438e-02) (36, 6.94633675413106471686e-02) (37, -3.24758904588675623160e-02) (38, -4.73224117207250161155e-02) (39, 1.64803153193271378907e-01) (40, 4.61999489231762483499e-02) (41, -4.09265121188081906767e-02) (42, -7.86531137864404650273e-02) (43, -6.32903193686488590997e-02) (44, -5.26818384456152338791e-02) (45, -7.19269016994134591236e-02) (46, -1.92982719879151998210e-02) (47, -8.69376811281888511873e-02) (48, -3.27569534933259756682e-02) (49, 7.39853902048003136960e-02) (50, -7.61038956067160293761e-02) (51, 2.68331011105301373877e-04) (52, -9.06834632678675534034e-03) (53, -1.15180836225725585775e-01) (54, -4.41156274994211339280e-02) (55, 5.24678581155454681895e-02) (56, 1.09544887167567522868e-01) (57, 7.40143497636840397291e-02) (58, -2.82578087031963645637e-02) (59, -8.42491443190788863449e-02) (60, 2.10739062105626512311e-01) (61, 3.86180576923597293493e-02) (62, -3.51071007311762155190e-03) (63, 1.71367206257142731807e-02) (64, -3.84553257244625232292e-02) (65, -9.59008897625470979609e-02) (66, 6.81802127059095292028e-02) (67, -5.42091572176648314740e-02) (68, -4.60731825564888036739e-02) (69, -9.57185663105419581864e-02) (70, -3.93848893851644205055e-02) (71, -5.03662182773000760561e-02) (72, -9.13106402402498375931e-04) (73, 5.50859689089201673418e-02) (74, 3.43506754406283599731e-03) (75, 4.68124649594640618311e-02) (76, -1.17882298158918600445e-02) (77, 7.26458130912843308424e-02) (78, 1.51433156731611534562e-01) (79, 8.79897084727893630252e-02) (80, 6.51050325306152116722e-02) (81, -5.66521063226655546829e-02) (82, 1.08491450281587437088e-02) (83, -6.53501609554285045611e-02) (84, -3.96779137594476527529e-02) (85, -6.64081854388862413696e-02) (86, -8.38685194137345733922e-03) (87, -6.47949628013816392169e-02) (88, 1.06736864563763175773e-01) (89, 1.62014136528278313021e-02) (90, -1.09923225475109399146e-02) (91, 7.03215455784676618523e-02) (92, -9.95311551149588996656e-02) (93, -7.10432145722381253039e-02) (94, 2.78898294313751904383e-02) (95, -1.44657235759357099235e-03) (96, 4.76532569545559600566e-02) (97, -8.53768940424104449960e-02) (98, 4.81246819122961716486e-02) (99, 1.33246877094466226188e-01) (100, 9.83726165971246652164e-02) (101, 1.44311043856628823390e-01) (102, -1.74193984801466361656e-01) (103, -2.92621005497000416518e-02) (104, -3.66039767800340892778e-02) (105, -1.55329289974588478224e-02) (106, -9.20845418899048223649e-02) (107, 6.92884003164128403629e-02) (108, -9.73470103907130429599e-02) (109, -1.00747523056986573731e-01) (110, 1.63871051092302801033e-02) (111, -5.58860195465809075910e-03) (112, -1.60098588797758567548e-01) (113, -2.20687646926080163409e-03) (114, -1.38857613349617048382e-01) (115, -2.47380320332465652999e-02) (116, -4.62917098266699064690e-02) (117, 1.32033387356303745508e-02) (118, 2.84639131991310072312e-02) (119, 6.81464805786057004067e-02) (120, 9.88601049911571466700e-02) (121, -6.93729850019614430190e-02) (122, -2.96612464066320739853e-02) (123, -4.35639672194079313750e-02) (124, 1.32857650465096257392e-02) (125, 1.00545647013964789540e-01) (126, 5.25185462574994082335e-03) (127, -7.55931001601163471415e-02) (128, -9.58301491242628533662e-02) (129, -1.30098788341866371948e-02) (130, 4.99009943360645899513e-02) (131, 5.44371995619305354408e-02) (132, -1.22292387137635363836e-01) (133, 9.37234937757164959793e-02) (134, -8.56034233433571878358e-02) (135, -1.10147755797740803940e-02) (136, -2.10100802166600167387e-02) (137, -5.70297230256132294673e-03) (138, -9.94503746112623404629e-02) (139, 1.86614542415315137758e-01) (140, 7.34348965684677168486e-02) (141, 1.28500612193058055821e-01) (142, -8.57273605434614449639e-02) (143, -2.73622512796728653561e-02) (144, -5.75255200457861284868e-02) (145, -3.16886527481788013438e-02) (146, -1.29712401895923118422e-01) (147, 8.92230642348589425561e-02) (148, 6.36897552501688030135e-02) (149, 8.95189026373913732115e-02) (150, -1.14135317346027447168e-03) (151, 9.38698603401607184482e-02) (152, -1.99449558750003891339e-01) (153, 1.04960163122962246707e-01) (154, 8.13668763566997993442e-02) (155, 8.60149727956399517970e-02) (156, 1.08731592191692628957e-02) (157, 6.17569090081983920748e-02) (158, 8.77004972440443841819e-02) (159, 1.32292782794537738811e-01) (160, -7.27122446574611641656e-02) (161, -7.49533275439518142935e-02) (162, 9.19208908975867877711e-02) (163, -4.35874558016240906677e-02) (164, -4.11689874758131499344e-02) (165, -1.34858112347170738810e-01) (166, 5.88614846637444850963e-03) (167, -3.61056126763989251871e-02) (168, 7.52711845651445055072e-02) (169, -1.02536708166207649051e-01) (170, 1.60488041617352292234e-02) (171, -1.08849654768778184022e-01) (172, -7.14207614573581228701e-02) (173, -8.00142103280788441477e-02) (174, 3.77704668745473606806e-02) (175, -9.14798832243820525534e-02) (176, -2.90224703064595676572e-02) (177, 1.18476441273847585278e-01) (178, -8.39903544092083891026e-03) (179, -1.19056649000541719952e-01) (180, 1.22715849035953367130e-01) (181, 9.57053066888328279882e-02) (182, -1.38317827027716888644e-01) (183, 1.97408574845844009271e-01) (184, 8.18881129422345116486e-02) (185, 1.49856282824285730326e-01) (186, -1.71819182855043189884e-02) (187, 2.98206346516359001309e-02) (188, 3.81975077465220233530e-02) (189, 1.70793059811196606956e-03) (190, 1.12104491567344682207e-02) (191, 7.22625958611723823166e-02) (192, -3.45216185938336597716e-02) (193, 1.53630469530928376320e-01) (194, -7.47631158657179051286e-02) (195, -5.79735433606403186002e-02) (196, -1.15176261897530038403e-01) (197, 1.47210275189123551698e-01) (198, -1.58616640095415151190e-01) (199, 2.53236691597288732236e-01) (200, -1.43555535797305650059e-01) (201, -2.02120652463982607150e-02) (202, -1.29113239276027164104e-01) (203, -5.52597532998498272572e-02) (204, 1.31230097262365220240e-02) (205, 1.06595143110018733545e-01) (206, 8.35198473025612203591e-02) (207, -6.47140381267711228830e-02) (208, -1.18779830221790901057e-03) (209, -1.21788430382432685817e-01) (210, 9.51199870368438227253e-03) (211, 8.25086877906463025956e-03) (212, 1.57496043502075494525e-01) (213, -5.27753838911146494484e-02) (214, -9.58640848503799630764e-02) (215, 6.70198567973643855034e-02) (216, -1.91051419953702263099e-02) (217, 1.61173203172743535749e-02) (218, 3.55955033132275000529e-02) (219, 5.49104378105192206250e-02) (220, 2.10856021681548988500e-01) (221, -9.45513233757819537839e-02) (222, -8.41897778709780122974e-03) (223, 1.09948393118454224027e-01) (224, -1.80241002638147046477e-01) (225, 6.57121135807559458852e-02) (226, 6.94349822697579721620e-02) (227, 1.23116704844625571291e-01) (228, -2.02132502121529694650e-01) (229, -4.32530442552655422506e-02) (230, 5.36763007190360977305e-02) (231, 3.03809408668836945441e-03) (232, 1.69058061518661512102e-01) (233, 5.17463552409828664302e-02) (234, 4.56174651598023409016e-02) (235, -1.56949453022730917029e-01) (236, -4.32537172676472000954e-02) (237, 1.21258687090131697661e-01) (238, -6.33380171206408687512e-02) (239, -1.00777395614731479778e-01) (240, 6.86519970018169695125e-02) (241, 5.85776323634185913658e-02) (242, 1.00807334247295099505e-01) (243, 2.49509644140355896225e-01) (244, 5.96889009828422117260e-03) (245, 1.44249211993712461721e-01) (246, 1.54106728284330030121e-01) (247, 2.22214240073836610811e-01) (248, -1.71328237522797494075e-01) (249, -1.58306208702161006763e-02) (250, -8.46219971780833163377e-02) (251, -5.57247412018027701852e-02) (252, -7.77619297074393645008e-02) (253, 1.89290562221884062222e-02) (254, -2.44473709750395434143e-03) (255, 6.46664819494151693613e-02) (256, -1.56252819129341108395e-01) (257, 3.27817491649420658661e-02) (258, 1.37920332779996445555e-02) (259, -1.20090952110463181080e-01) (260, -1.25951888093442376793e-01) (261, -8.54877251116202274694e-02) (262, 4.37885992427471879007e-02) (263, -5.36422723710303864936e-03) (264, -2.74211783051398726163e-02) (265, -3.21473083028247647031e-02) (266, -1.50217828956869196150e-02) (267, 1.13854812381448428082e-01) (268, 2.09802668870290786804e-04) (269, 9.49662264621988078117e-02) (270, -3.89718421771055381631e-02) (271, -1.29135537588652649088e-01) (272, 1.75710660131002671669e-01) (273, 6.00562731437395344591e-02) (274, -8.03716191037168597999e-02) (275, 5.69988478750241833737e-02) (276, -1.20270737727393731142e-01) (277, 9.59141414813667603223e-02) (278, -2.61714242068940040886e-02) (279, -1.28190249451664628477e-01) (280, 3.51230907979478007563e-02) (281, -1.27776052470806988220e-02) (282, 1.82759369351844641605e-01) (283, 1.37676820169009256345e-01) (284, 4.35270986933879930336e-02) (285, 9.15602558251920051191e-02) (286, 1.26581052780363155497e-02) (287, 5.27693469899139996904e-02) (288, -1.79851014672726933208e-01) (289, 2.83494069760599938512e-02) (290, 3.96423734025941817971e-02) (291, -1.31223225129219224494e-02) (292, 1.38605896801772293658e-01) (293, -7.75278707854696325086e-02) (294, 1.59663918107416334669e-02) (295, -6.69855207777050459805e-02) (296, 6.12256656961605721934e-02) (297, -8.38831712373865751031e-02) (298, 4.44744415936932438460e-02) (299, 8.83157388304321305794e-02) (300, 5.85820061736982353184e-02) (301, -1.00499632041168768248e-01) (302, -1.17250259718614621707e-01) (303, -1.03252518870389498051e-01) (304, 1.09728648389088898063e-01) (305, -6.11633275373626439375e-02) (306, -1.49387589590637109849e-01) (307, 7.62386732806425854170e-02) (308, -8.17700681135280910139e-02) (309, 4.37106017944882616066e-02) (310, -2.16562427879782928852e-02) (311, -4.90701923474357992044e-03) (312, -5.76935612652594784211e-02) (313, -1.27135163677500190316e-01) (314, 1.79952835546532741162e-01) (315, 9.40516046935743477153e-02) (316, -7.50773601021290787338e-02) (317, -5.86634815015682833939e-02) (318, 7.52758901346715636471e-02) (319, 8.16273445543592435225e-02) (320, 1.21970494659113790070e-01) (321, -1.11153593157446481388e-01) (322, 4.43566317573102497640e-02) (323, 4.57009898679803516774e-02) (324, 5.83455805318208384214e-02) (325, 4.31275422523269905128e-03) (326, 4.14637758333167363856e-02) (327, -9.87110745632505809377e-02) (328, -5.13694240179893811538e-03) (329, 7.39979488552899855591e-02) (330, 9.44155872825820086103e-02) (331, 3.37257956597669184343e-03) (332, -9.43351995526726244679e-03) (333, -7.79427086385036521632e-02) (334, 2.74674785040171405559e-02) (335, -3.35330758947632590061e-02) (336, -3.83218781514350946907e-03) (337, 8.11517069802028534475e-02) (338, -5.45050775820994648502e-02) (339, -5.20549515394540876501e-02) (340, -1.97492527625717055606e-02) (341, 2.69684622500726174643e-02) (342, 9.80991288108445935734e-02) (343, 1.45879332268910606035e-02) (344, 7.00296058172674984466e-02) (345, 8.03953947537131008438e-02) (346, 6.42429028709491558441e-03) (347, 1.84174397382425275582e-01) (348, -1.41919765463508568137e-01) (349, -5.15786833405756858784e-02) (350, -2.18696469978956996305e-02) (351, -1.40797085139312966318e-01) (352, -1.02896993341695351665e-02) (353, -1.13158145617555938589e-01) (354, 1.14247261367686758771e-01) (355, -2.20560427262897797152e-02) (356, -1.15003521489243268339e-01) (357, 1.03129014312532893416e-01) (358, -5.87838444093880113650e-02) (359, 3.52427596497277839660e-02) (360, -1.81101606586580032854e-02) (361, -9.17930473469456831292e-02) (362, -9.49095902249896261615e-02) (363, -5.56954653529904905596e-02) (364, -1.95301376353732036341e-03) (365, -3.75520168512826282847e-02) (366, 5.09166263498805754528e-02) (367, -2.28173669826706934649e-02) (368, -1.89775606837711482977e-02) (369, 5.38689620023687157357e-02) (370, -1.05086477826872970454e-01) (371, 3.61091222079977930415e-02) (372, -1.61365602632550619866e-01) (373, -1.20461158566362552813e-01) (374, -5.16002253817450795559e-02) (375, -1.12066943543222663493e-01) (376, -1.03853342220448188749e-01) (377, 2.21895450572325916849e-02) (378, 1.00811082645608951491e-01) (379, -7.42033216288316005427e-02) (380, 1.76417988335596992444e-01) (381, -6.95512270908093949151e-02) (382, -1.16951869916460782228e-01) (383, 8.41813412179181763673e-02) (384, 9.46471376583150614259e-02) (385, -8.22258685480931061917e-02) (386, 6.12500459334472183159e-02) (387, 1.09050437581110049035e-01) (388, 1.14249826070599441730e-01) (389, -4.29892468900425553380e-02) (390, 1.91438621496627971175e-02) (391, -3.70198660194932110956e-02) (392, -1.17689099597639235117e-01) (393, -1.37562986870546383189e-01) (394, 2.57454209776222589512e-02) (395, 8.09618483874465083572e-02) (396, 8.14152402495161610363e-03) (397, 1.04317090833806455641e-01) (398, -5.42717406773677094045e-02) (399, 1.15405122668441693229e-02) (400, -2.68925254380513664709e-02) (401, 7.12357015020234768388e-02) (402, 8.83170837799998886819e-02) (403, -7.31386507027460414099e-02) (404, 1.39553856051877200883e-01) (405, 8.73223998667135015150e-02) (406, 8.91148658314944684677e-03) (407, -9.13327046058479002921e-02) (408, 5.84221027137567308629e-02) (409, 2.42410599403697600562e-02) (410, -5.71522691200339119644e-02) (411, 2.23780566506792330528e-02) (412, -1.56140814563591578956e-01) (413, -1.28952207274847935325e-01) (414, -1.90562165480965328701e-01) (415, -1.95636172199713624653e-02) (416, -8.02617604344523366544e-02) (417, -1.95994531649608227930e-01) (418, -8.80471965197175271411e-02) (419, -2.00016903026601133853e-01) (420, -2.51821765677273434747e-01) (421, -3.44382402613720828288e-01) (422, 2.10813625967972984032e-02) (423, -2.75629196633032036434e-01) (424, -9.24856368483788215951e-02) (425, -1.92141047616176174895e-01) (426, -1.94555449974066485552e-02) (427, -1.23976569969976621599e-01) (428, 7.20435475984303099611e-03) (429, -1.06133246348754609056e-01) (430, -4.53071975844554983293e-02) (431, -9.53726758113958988927e-02) (432, -6.97234787725800331248e-02) (0, -3.54318444544136246233e-01) (1, 9.99440680650532931040e-02) (2, -5.63471646021588504910e-04) (3, -8.41508491024228755251e-02) (4, 2.17636276275576412420e-01) (5, -2.45334696350107295260e-01) (6, -1.10067069910169276770e-01) (7, 1.36472426488973952452e-01) (8, 7.56557664708477212168e-02) (9, -1.43019971246226951234e-01) (10, -2.34761957732750159433e-01) (11, 8.11748596445767967023e-02) (12, 1.90779242043741074919e-03) (13, -3.26191608258237092377e-02) (14, 4.07413285523648027731e-01) (15, 5.16547536217152533644e-02) (16, 1.83854544186981022635e-01) (17, 1.94868648026597701683e-01) (18, -1.73815535439821450270e-02) (19, 1.47240341411857378340e-01) (20, -1.33612495738570768306e-02) (21, 2.75856126756889759311e-02) (22, -7.16739819946109052440e-02) (23, 8.35578806063846241114e-02) (24, 7.10158396866801544522e-02) (25, -1.70807310024158498507e-01) (26, -3.75214129898871651125e-01) (27, 6.03679850185076666280e-02) (28, -2.66497651833866623650e-02) (29, -4.65171503038900729932e-02) (30, 8.80512275222975898670e-02) (31, 2.39387761091909734290e-01) (32, -2.93504555344744786846e-04) (33, -1.23511153965429082424e-01) (34, 1.97159331785162678097e-01) (35, 1.17482029065399812273e-01) (36, 1.48231479016241937674e-02) (37, 1.45277940650954534574e-01) (38, -1.08037698759657393999e-01) (39, 7.00124765115583101716e-03) (40, -5.32569183587482675168e-02) (41, -7.89149948810497492424e-02) (42, -8.49529691404748710237e-02) (43, -2.07121158557360407482e-01) (44, -2.35651412813247980449e-02) (45, 2.24412074004796097126e-01) (46, -1.79274063887931933703e-01) (47, -2.32336445326078513962e-02) (48, 1.20506503126977304596e-01) (49, 2.48637043206581011268e-03) (50, 7.34206646718826294595e-02) (51, -8.07335459964403090449e-02) (52, 3.11506708436130180795e-03) (53, -3.15089688960044467247e-01) (54, -2.88529324504510076288e-02) (55, 1.34748157592347150846e-01) (56, -7.55065180050280282398e-02) (57, -3.13636791632174519173e-02) (58, -7.90358211446879066475e-02) (59, 1.80375218408876492049e-01) (60, -1.79611842057985582333e-01) (61, -1.18131682074892982448e-01) (62, -3.75864423618675683181e-02) (63, -1.27237633953361968520e-02) (64, 1.36586865304688359624e-01) (65, -6.79208493958587539163e-02) (66, -2.19636692001071831548e-01) (67, 1.03110335286160453849e-01) (68, 1.11350740557660005114e-01) (69, -1.57166034516298153134e-01) (70, -1.12912069496684100423e-01) (71, 1.99828170929017452651e-02) (72, 1.17074716005524950835e-01) (73, 2.42715125030010941964e-01) (74, 2.36186822680538623109e-02) (75, 9.97394309341456258844e-02) (76, -7.02748654253989163410e-02) (77, -7.92386032195733086558e-02) (78, -8.08313991843920970348e-02) (79, -2.65817053273269710001e-01) (80, -7.12538076048840340881e-02) (81, 3.85426485538086019411e-02) (82, 2.33011490112578129041e-01) (83, 3.90672503283060121304e-02) (84, 4.37922777153037373621e-02) (85, 3.22725033057502273467e-03) (86, -2.28067907225561167239e-01) (87, -1.14384494009951973026e-01) (88, -1.06716608100512838631e-01) (89, 2.45279922346268608457e-01) (90, 6.45014003817571401900e-02) (91, -3.04791661780564292206e-02) (92, 2.13199105961202006743e-01) (93, -1.20385869305478093727e-01) (94, 2.03299055652513160908e-01) (95, 3.24431334473899990467e-01) (96, -1.10837876581101016371e-01) (97, -6.40378737495147509762e-02) (98, -1.59325189930891869539e-01) (99, -1.21067683663122274695e-01) (100, -1.41779103354716440322e-01) (101, -2.13512090097795446952e-02) (102, -1.95051087236638553968e-01) (103, -1.77607426958252628824e-01) (104, 1.63968759066195485241e-01) (105, -4.69265200699978471399e-02) (106, -9.92652262551967923265e-02) (107, -5.93576639519622431540e-02) (108, -1.71617984814921353820e-01) (109, 1.41084206924986771403e-01) (110, -6.55761722399281904439e-02) (111, -2.40880787937142841482e-02) (112, -8.63140752511063480412e-02) (113, -1.63964081713903558901e-01) (114, -5.30214117847542243389e-02) (115, -1.98508193382001402183e-01) (116, -1.24994409929966451833e-01) (117, 2.88655956448323827712e-02) (118, -2.16818180837887314327e-01) (119, 4.20945992302404689567e-02) (120, 5.70842008631725003620e-02) (121, 9.96964625322265401985e-02) (122, -5.73273032005746675799e-03) (123, 2.43658381971232795848e-01) (124, -1.77416399998383683689e-01) (125, 1.71320252455501344235e-02) (126, 8.37205718122278723381e-03) (127, 1.55340860748082704168e-01) (128, -1.38363956384870506744e-01) (129, 1.76960917881345880520e-01) (130, -2.30651025754360528008e-01) (131, -3.96273719817679392907e-02) (132, 1.36660653331972664626e-01) (133, -2.06799504053961052952e-01) (134, -2.63620572877445613624e-01) (135, 1.14130820791071299625e-01) (136, -1.76359244107821944159e-01) (137, 9.94368862265990020866e-03) (138, -1.57983112671526093607e-01) (139, -7.98992605139533379477e-02) (140, 2.01132460610838725845e-01) (141, 6.14333471366467209762e-02) (142, -7.38676366395217831595e-02) (143, -1.37138720298732502689e-01) (144, 2.95477275341843315104e-01) (145, 1.16285552706558124869e-02) (146, -1.08403430000072621003e-02) (147, -1.07481709173868789087e-01) (148, -1.81591838164926439037e-01) (149, 8.63617637096493195870e-02) (150, 5.75332747730860349922e-02) (151, -1.79803899362530300587e-01) (152, -1.20911084450824463099e-01) (153, -1.12714328146308641332e-02) (154, 7.22971493864769665372e-02) (155, -1.03527513513782032373e-01) (156, -2.71800273321456009601e-01) (157, 1.32678765387575753332e-01) (158, -3.73979822784463733498e-02) (159, -1.33358879000472274612e-01) (160, -5.48612058866711355121e-02) (161, -6.79584695526843224345e-02) (162, 1.02202071538736213863e-01) (163, 2.56169265057858697165e-01) (164, 2.40248659980870880870e-02) (165, 3.63296784047090967618e-02) (166, 2.01695043126034229131e-01) (167, 1.49007150421769429816e-01) (168, -4.69051742308610533638e-02) (169, -1.64276450087261133293e-01) (170, 8.80008548684060309952e-02) (171, -1.59103610474253670537e-02) (172, 2.73189576754782947887e-01) (173, -1.15966333360698364841e-01) (174, -1.79528470615657742560e-02) (175, -1.80098172107808845999e-01) (176, -2.34507247916664052223e-01) (177, 1.08856189288699681250e-01) (178, 6.00550461775827826294e-02) (179, 3.91988550846553221452e-02) (180, -1.25859693124468041692e-01) (181, 6.80496142159785905035e-02) (182, 2.54684161345169468582e-02) (183, -3.09726869085719780372e-01) (184, 3.73681166930234454071e-01) (185, 7.58506337041974371127e-02) (186, 5.25282429265792605300e-02) (187, 4.09371488956545515059e-01) (188, -2.80503933897467083725e-01) (189, -1.11966152590695144919e-01) (190, -1.04571815801257156364e-01) (191, 2.84779324717871429318e-01) (192, 2.08612254584529865920e-01) (193, 2.59695150286701814668e-01) (194, -2.83486200409261812627e-01) (195, -1.58769552548832348915e-01) (196, -5.89689100718530784251e-02) (197, 5.97438840478881280638e-02) (198, -3.03621847785147336296e-01) (199, -2.17133645945254583065e-01) (200, -2.95392004492632476165e-01) (201, -1.67426547179326812298e-01) (202, 6.74962176202351243903e-02) (203, -1.08417627376493672098e-01) (204, -4.04022098984653521558e-02) (205, 1.73330994154334200319e-01) (206, 4.01288963139754650822e-01) (207, 1.25635380891780973345e-01) (208, -1.65489668415502777510e-01) (209, -1.41701043005684201859e-01) (210, 6.91460653763739940825e-02) (211, 2.17718033271559363584e-01) (212, 3.11317604961585281398e-01) (213, 2.76803961426176192706e-01) (214, 2.00949273429268188140e-01) (215, 7.91029644019760752593e-02) (216, -5.12305982148666613774e-02) (217, 1.53188510219029405679e-01) (218, 2.24066091182699052287e-02) (219, 1.34031347621887085564e-02) (220, -1.20713754370223760870e-01) (221, 1.22037578045739170118e-01) (222, 1.06117829917847100729e-02) (223, -2.80856015370539946474e-01) (224, -1.83823793326261836212e-01) (225, 1.21993259537936618586e-01) (226, 1.41225845309424835605e-01) (227, 6.27445963410924734127e-01) (228, -2.68125897211494046424e-01) (229, -1.57031706609281368481e-01) (230, 6.66825415710062849133e-04) (231, -7.12691478194072830510e-02) (232, 1.42299424990253886580e-01) (233, -1.56673268410066984790e-01) (234, 1.16370346926590234604e-01) (235, -7.28370441095256976327e-02) (236, -9.11215367899152889342e-02) (237, -4.82662355664118941645e-02) (238, 1.32025083830692224751e-01) (239, -5.35267325599245502588e-01) (240, 2.34516905617451865140e-01) (241, -6.46397686781894752900e-03) (242, 2.26982219680272739870e-01) (243, -2.27530443001714544060e-01) (244, 2.61116564376075277476e-01) (245, 5.75844032445684828048e-02) (246, -4.91884819951406287997e-02) (247, 7.71691850937238771335e-02) (248, 2.66805046704593928908e-01) (249, 1.67965360637635813257e-01) (250, -3.58125891308832058901e-02) (251, 5.52213476963495028538e-02) (252, -9.22906868254336348878e-02) (253, 3.03388037166534840772e-01) (254, 8.34367725859396364152e-02) (255, 1.85824725055615778968e-02) (256, -1.05137801512966450046e-01) (257, -6.13790323581055695390e-03) (258, -5.13605841364915462893e-03) (259, 2.27133071967771049682e-01) (260, 3.03571483655833918025e-01) (261, 6.11830757641011607761e-02) (262, -2.75276471684147566732e-02) (263, -1.23069715681427910292e-01) (264, 3.20578182528950600058e-03) (265, 9.10986725630266308551e-02) (266, -6.45740418893285678115e-02) (267, -1.03048084625499566935e-01) (268, 5.29607776426497880995e-02) (269, -8.68110149054170388006e-02) (270, 1.61515818493556395641e-02) (271, 1.54351866421540445673e-01) (272, -1.83017400403771346440e-01) (273, 3.07616644697034147260e-01) (274, -2.60330378846098220436e-01) (275, -4.36694225247754030939e-02) (276, 1.90065408083267300965e-01) (277, -4.36878234891250119554e-02) (278, 4.68320065789462544603e-02) (279, 2.19011142775562744900e-01) (280, 1.85263865439618619080e-01) (281, -2.24849932227105198113e-01) (282, -7.88005257081425686261e-02) (283, 1.20897307183509689077e-01) (284, 1.30428993415139804490e-02) (285, 1.27790212900979957555e-02) (286, -1.48009460181461577344e-01) (287, -1.72472803506844192534e-02) (288, 1.86535794710876480507e-02) (289, 2.12324201105793142208e-01) (290, -7.95534779617270704222e-02) (291, -1.23899988251082171509e-02) (292, -2.27763382485817067469e-01) (293, -3.53347953545772641704e-01) (294, 2.00586344472828248531e-01) (295, -5.65677353884323566580e-02) (296, -3.77613448412154051326e-02) (297, -1.54507517190909549054e-01) (298, 3.09889755219203755221e-01) (299, 3.32350432686527197390e-01) (300, -1.02944564150679276904e-01) (301, -1.26409424036853956785e-01) (302, 6.00534456044061124014e-02) (303, -5.49161004655606722891e-03) (304, -8.88939128228895814043e-02) (305, -1.25448778215233262140e-02) (306, -2.88585609132016238099e-03) (307, 8.07419832371600032506e-02) (308, -1.82151038706349049923e-01) (309, -1.62587262077734551191e-01) (310, -1.72985680294187350869e-02) (311, 1.41386594552616540188e-01) (312, -1.82948453109054387511e-01) (313, 1.00989529369482494703e-01) (314, 7.07817004262849269747e-02) (315, 2.79297061013793167239e-02) (316, -4.12548788653853415465e-02) (317, -3.65930373067523892483e-02) (318, -1.26247756925870036060e-01) (319, 6.62163932022132722954e-02) (320, -1.07367796549620291707e-02) (321, -1.88298280968538483959e-01) (322, -1.33948061857966815857e-01) (323, 3.86145358613683487015e-01) (324, -1.66600285410660964303e-01) (325, -1.26134435341358513982e-01) (326, -7.96060792354042270902e-03) (327, 6.43070286466684848392e-02) (328, -6.54009048274308418813e-02) (329, -1.67881302997521686393e-01) (330, -1.14531574276566405768e-01) (331, 3.96122216081166850232e-02) (332, 1.82441070607277482096e-02) (333, -1.50748818094744579943e-01) (334, 1.56521384243141603587e-01) (335, -7.15032342808191723194e-02) (336, -2.64166321220359150146e-02) (337, -3.16610466142570948223e-02) (338, -4.05845933426728297522e-02) (339, 1.10776014197786779047e-01) (340, 8.94746691306974317737e-02) (341, -2.29778566507978398992e-01) (342, -1.25543662686835311160e-01) (343, 2.71767865001738384567e-01) (344, -1.18808465981706121162e-01) (345, 3.48042559149062333268e-02) (346, -1.99019764928336055643e-02) (347, 1.15822559990018197906e-01) (348, 3.91723404127530677732e-02) (349, -1.16225523508699440933e-01) (350, -9.88895319279572693194e-02) (351, 2.65491515322725801784e-01) (352, 1.39213069599111172181e-01) (353, 5.41665642341502204249e-02) (354, -1.99078530416709892359e-02) (355, -5.28906566981559179280e-03) (356, -3.91564380068913434063e-02) (357, -1.42815705565541600786e-01) (358, 8.78531910329815451943e-02) (359, 4.09895105797137560000e-02) (360, -1.55159930308449489633e-01) (361, -1.53861824786481887761e-01) (362, 9.98991088568740998044e-02) (363, 2.40220655725288140259e-01) (364, -5.40202476149792484850e-02) (365, 7.29080788039746935381e-02) (366, 1.63822562262564197511e-01) (367, -2.13008583754747737871e-01) (368, 2.55445803850171855587e-02) (369, -6.52630494726425813834e-02) (370, -2.21093105226248892725e-01) (371, -7.08793036112875668442e-02) (372, 2.40574876676507759532e-01) (373, -3.92614314411382937103e-03) (374, -6.71945639807420835865e-02) (375, -1.03879523890305580647e-01) (376, 1.77811122660734353788e-03) (377, -2.87714710643898023690e-02) (378, 7.08229356679794422140e-04) (379, 1.05125561195865427355e-01) (380, 3.10579442114934092464e-03) (381, -1.51571575130327769465e-02) (382, -3.27125992249774455445e-01) (383, 1.06138264081349964485e-01) (384, 9.16944991389455205111e-02) (385, 5.30427076905293434783e-02) (386, 9.86238330809240115737e-02) (387, 3.08207107952741643508e-01) (388, 2.10710239294292639434e-01) (389, -1.51570516891701506657e-01) (390, -7.99319408866809022474e-02) (391, -8.60864589488599674105e-02) (392, -1.41511082868731374873e-01) (393, -6.32701466524881322995e-02) (394, 6.97375314414726138468e-02) (395, -1.79786564648604041405e-01) (396, 3.48196945835493806842e-02) (397, 1.28380050015534596941e-01) (398, -1.93470339447333744554e-01) (399, -1.34522164854689013636e-01) (400, -1.22769151734321166347e-01) (401, -7.41110606084464940135e-02) (402, 2.36850420270562096042e-03) (403, 6.29931437976729236006e-01) (404, -1.28690377670884919560e-03) (405, -9.76978566176091994810e-02) (406, 1.38994043842365105901e-01) (407, -6.60293490851856235135e-02) (408, -1.70770496455075915243e-01) (409, 3.09044216224642950136e-03) (410, -4.30760065569562589083e-02) (411, -1.92630451266107630137e-02) (412, 3.28760455183623942488e-02) (413, -8.75457091900707362608e-02) (414, -1.91025185259148855277e-01) (415, 1.77770093743181215040e-02) (416, -1.38113637404726569136e-01) (417, -1.57332386323875639267e-01) (418, -1.85810364874278599601e-01) (419, -1.26870312832612464060e-01) (420, -1.12891093132120881593e-01) (421, -6.51647864887983319093e-01) (422, 1.01582534474909988442e-01) (423, -4.46496310280494690392e-01) (424, -1.97801706751281780594e-01) (425, -2.26951331051036819808e-01) (426, -1.48798263297314797837e-01) (427, 5.71586607649822164845e-02) (428, -1.04471167407566688928e-02) (429, -5.32492449739268916553e-02) (430, -8.50453832153369587710e-02) (431, 9.40045424186757710983e-02) (432, 1.17906600100587108382e-01) (0, -2.20024914896203488412e-01) (1, 9.61453814529701078495e-02) (2, 1.08915830981412373180e-01) (3, -1.51914351852359741368e-01) (4, 4.66787287057430999582e-01) (5, -2.74623407796551144422e-01) (6, -4.31675756830984636014e-01) (7, 1.04843691238732883431e-01) (8, -2.65950047055177815625e-02) (9, -1.87160320981139105534e-01) (10, 1.68386126243713941941e-02) (11, -1.52967042516114704043e-01) (12, 1.25574723372417179634e-01) (13, -4.06628587295513113653e-03) (14, 5.47978040856434978068e-01) (15, -4.78766158554052162488e-02) (16, 6.54383028716148534842e-02) (17, 1.34803148195878463866e-01) (18, 9.31872281007215530479e-02) (19, -1.27961594095216874001e-01) (20, -8.59670764855455377118e-02) (21, -1.75304973175511691341e-01) (22, 2.28399395156678064467e-01) (23, 1.24754528426449684542e-01) (24, 3.80722117935071019401e-02) (25, 4.16496965121063156268e-01) (26, 2.48394742813239643997e-01) (27, 1.83041302673471149853e-02) (28, -1.31591614261757500204e-01) (29, 2.40452320207905773097e-01) (30, 3.34240046492994477556e-02) (31, -2.53734307405301506844e-01) (32, -1.38877369945772460857e-01) (33, -9.75722930405757971073e-02) (34, 7.49236059369422224830e-02) (35, -6.78492885399276240976e-02) (36, -1.89709997930691515178e-01) (37, 1.62645116251901450388e-02) (38, 1.94392373872690871206e-01) (39, -3.76236431627161070981e-03) (40, -1.20756235538131473373e-01) (41, 1.77968686785789677318e-02) (42, -2.17229610301748227164e-01) (43, -4.44665465170947127316e-01) (44, -1.46511504311633483644e-01) (45, 2.09522222783636719035e-02) (46, 5.80218297276993144607e-01) (47, 2.10603294751578434818e-01) (48, -7.75450947464021017597e-02) (49, 3.00215298125114243843e-02) (50, 5.20386100188431014596e-03) (51, 1.37240622685571661554e-01) (52, -1.99258722023841483573e-02) (53, 3.74344766851821109110e-01) (54, -3.34295737507280976697e-01) (55, -1.95367507620897495890e-01) (56, -3.96313232089413269854e-01) (57, -7.09816165072241905820e-02) (58, 3.09615248449427393762e-01) (59, 1.06699210724064588729e-01) (60, 3.25171049522476829363e-01) (61, 5.60108174550180623608e-02) (62, -1.82156733540196957843e-01) (63, 2.55079426974450684806e-01) (64, -2.17114305562775472547e-01) (65, -7.44039555284627673881e-02) (66, 4.19480590375693462857e-01) (67, -2.94774520570123987895e-01) (68, -6.72409965479153770573e-01) (69, 1.01795760871890891841e-01) (70, 1.51605153363231270891e-01) (71, -2.75146297944451855011e-02) (72, 2.56795130366987534032e-01) (73, 3.10234900176187877729e-01) (74, -2.04063220061806854799e-01) (75, -3.71798147589286531733e-01) (76, -4.31485446417435580813e-01) (77, -2.05170537520281935639e-02) (78, -3.32857762266687340347e-01) (79, -1.18711681626631222058e-02) (80, -2.64006770825272497893e-02) (81, -1.47881564263133119530e-01) (82, 1.78660541998322208723e-01) (83, 5.02510546337407104645e-01) (84, -3.06904113599677175195e-01) (85, -1.31432637502198496060e-01) (86, 2.02937425522937725519e-01) (87, -6.67312427351025166944e-02) (88, -5.36963951144997161946e-02) (89, 7.66355133633883772726e-02) (90, 6.43489217251713846446e-02) (91, 1.38089929881030186454e-02) (92, 1.46245679485195484437e-01) (93, -4.58987739804548100508e-01) (94, -1.43519578116722251737e-01) (95, -3.42596614833426238445e-01) (96, 6.81867658239394547337e-02) (97, -1.29811587294953539873e-01) (98, 1.11888739242259172002e-01) (99, 5.52670912405171965709e-01) (100, -1.04698545403978909851e-01) (101, 2.97550713142001599376e-01) (102, -4.13456736423176263173e-01) (103, -8.59927842294945926627e-02) (104, 6.25430811422828941692e-02) (105, -8.75663928138748631769e-02) (106, -2.45350708469837697212e-01) (107, 3.26271366829649300811e-01) (108, -1.17750436097308042692e-03) (109, 1.51734983980665288916e-01) (110, -1.05206735550444629990e-01) (111, 2.30002135464102253071e-01) (112, -7.61237687665421991490e-02) (113, -4.36443315755738567730e-04) (114, 4.99699354744035997844e-02) (115, -2.08446914163279928278e-01) (116, 1.97098795800746129370e-01) (117, -7.13234541110426556454e-02) (118, 2.16327911109815307356e-01) (119, -7.16027978257439828846e-02) (120, -7.51102887320590079101e-02) (121, -1.12017537009984374796e-01) (122, 3.80286740046583804364e-01) (123, -6.20491754526811128967e-02) (124, -3.29816964186922745306e-01) (125, -5.92117501776884755382e-02) (126, -3.35002994771248563399e-01) (127, -2.76154446611237947007e-01) (128, 2.85043831225839539023e-01) (129, 1.12565014899642004687e-01) (130, 1.12476094923236694112e-01) (131, -4.18396777345328707565e-01) (132, -5.23638702627294908010e-02) (133, 9.41160841617565413486e-02) (134, -2.21969893799979556270e-01) (135, -1.21898481829740210070e-01) (136, -7.56127200213075195689e-02) (137, -2.48868881660431612302e-02) (138, -2.38969809869473470698e-01) (139, -9.05631163783729015160e-02) (140, -5.58589828205145688678e-01) (141, -1.97399751545742574432e-01) (142, -1.61073936016159074969e-01) (143, 2.98749432812140947036e-01) (144, -2.73200819127376870465e-01) (145, -1.35321516558495804489e-02) (146, 4.20388343443803158550e-01) (147, -5.02853454035069799555e-02) (148, 5.11549614891492532287e-01) (149, -1.11234388685048334044e-02) (150, 1.04138819636538423191e-02) (151, 1.67465024339606832759e-01) (152, -2.96409716269352141449e-02) (153, 1.11392752406960796052e-01) (154, 1.97480546375811083504e-01) (155, -2.03411700703166359316e-01) (156, -1.26101233161567127805e-01) (157, -8.34982303018138027895e-02) (158, 1.76535188767332068549e-01) (159, -4.11342737922070988965e-01) (160, -4.62935011856711653433e-01) (161, 2.33809069481068533547e-02) (162, -1.36559231109578349539e-01) (163, -2.40182817481927601833e-01) (164, -8.97842127224854069656e-02) (165, 7.73935245681178912713e-02) (166, 3.43082584949627011905e-01) (167, -3.60316603216211228666e-01) (168, -1.64911121541238575583e-01) (169, 1.67152206609602227427e-01) (170, 5.73268401276866117200e-03) (171, 1.71154290873224645964e-01) (172, 2.48162341555346999122e-01) (173, 1.11556951261977843615e-01) (174, 2.68288922334611656950e-01) (175, -1.62188618620543206772e-01) (176, 3.46653744250088491352e-01) (177, -1.44468839882647553940e-01) (178, -1.35092100801465220261e-01) (179, 5.12832265369262296772e-01) (180, -2.76968956883126171675e-01) (181, 1.12606154231383676079e-01) (182, -4.11154782511246541521e-01) (183, -7.04976877730196904714e-01) (184, 1.21244693045585896773e-01) (185, 3.34794021613439782281e-02) (186, 1.70830982506799067266e-01) (187, -1.51975726064022376161e-01) (188, 8.00931002120889190543e-01) (189, 6.73057554170708227659e-01) (190, -1.05738638649820280296e-02) (191, -9.87509620926472625468e-02) (192, -5.59471610977036903911e-01) (193, 5.08152306648275930989e-01) (194, 3.28120578998399414772e-01) (195, 9.54768796679586362330e-01) (196, 1.20139596228371753339e-01) (197, 5.03453315817633875739e-02) (198, 3.69162418718244955684e-01) (199, 2.20949275338298972704e-01) (200, -3.12912783431651408961e-01) (201, -2.53838303207691406982e-01) (202, -5.58264982734477555049e-01) (203, -3.29329619805400264365e-01) (204, 2.61381446337685063863e-01) (205, -1.74944287215426180770e-01) (206, -5.79123720089305904501e-01) (207, 6.89255074063860440070e-01) (208, 9.26137603192226488424e-01) (209, 3.52739270512820835002e-01) (210, -3.60566606073255302434e-01) (211, -4.23527564027758596232e-01) (212, -3.67128825571500005953e-01) (213, 2.22369268401013675529e-01) (214, 2.32672157895018966167e-01) (215, 9.66421194736602373609e-01) (216, 5.86699007269004035869e-01) (217, -1.05996597928088038404e-02) (218, -5.61803566108766902487e-02) (219, 1.01818208596730665205e-02) (220, 9.77275527064042193182e-01) (221, 5.35162211965337572539e-02) (222, 5.09130873473446696198e-02) (223, -2.27336837076445863470e-02) (224, -2.46771975587642217187e-01) (225, -5.34310865565801526578e-02) (226, -2.15246593031171523647e-01) (227, 3.14041111899956482123e-01) (228, 1.59081329936193935359e-02) (229, -1.88004603808618359073e-01) (230, -1.60225013500878310513e-01) (231, -1.59305131031244662232e-01) (232, -3.32398820836101616116e-01) (233, 5.41933000842958811916e-01) (234, 1.91013040724253208014e-01) (235, 7.23568891621304000061e-02) (236, -3.09908273324298155771e-01) (237, -2.63678233956723406806e-02) (238, 2.87527276501190864888e-01) (239, -2.13812362614205581091e-01) (240, -2.81640857624162022077e-01) (241, -1.45899112277633136170e-01) (242, 1.39195204284303358094e-02) (243, 1.94166364372025494756e-02) (244, 5.33607060296824031731e-01) (245, -2.50665952083165333164e-01) (246, -1.33702936380487830137e-01) (247, 9.23494291294475688758e-01) (248, -5.10869241706455520791e-02) (249, 1.04978842135279026859e-02) (250, 4.38585963291132308051e-01) (251, 6.61259547246634965534e-02) (252, -1.03039514665610766608e-02) (253, -2.47705048584302867098e-01) (254, -4.38732313115045458041e-01) (255, 5.01314313595579874594e-01) (256, 7.78216123751910293649e-02) (257, 1.03038385907113311246e-01) (258, 1.50680225218168071383e-02) (259, 1.57975274794335401873e-01) (260, 2.59996888102659362563e-01) (261, -4.92869877099601089165e-02) (262, -1.94908925964314971857e-01) (263, 1.15856428035869693516e-01) (264, -5.65015205669885278716e-01) (265, -9.22077385394346887848e-02) (266, -2.08573832718037310840e-01) (267, 5.88221565418592162722e-01) (268, 3.52955582251227251156e-01) (269, 5.60395643450455005485e-01) (270, 1.98410417514528425453e-01) (271, -2.25659028257946953078e-01) (272, -1.59533804590483926922e-02) (273, -7.96375703599060819071e-02) (274, -3.30180918328195016631e-01) (275, -1.76919435081760390016e-01) (276, -1.40569073284163681414e-01) (277, 1.24553694440802456556e-01) (278, 2.41834153938078527668e-01) (279, 3.18078141001990333248e-01) (280, -1.74729079448396495966e-01) (281, 5.56649172100415617903e-02) (282, -2.17071423006713393189e-01) (283, 4.49043381958402376686e-01) (284, 1.52438847008875222322e-01) (285, 7.51617132329326503859e-02) (286, 5.82499576042719360847e-02) (287, 1.50426271921164422807e-01) (288, -2.27060719493336893304e-01) (289, 2.06101917310102300540e-01) (290, 4.89347550251860163861e-02) (291, 2.64873176434462342943e-01) (292, 2.49891047105042507503e-01) (293, -8.06117391484190148887e-02) (294, -1.22339274542817899594e-01) (295, -4.01503462233063490583e-01) (296, -4.49680553315835659922e-02) (297, 7.22720175296264338849e-02) (298, 4.05794702041471985754e-02) (299, 6.80386003530614180690e-02) (300, -3.57663344418641726552e-01) (301, 8.91925353617804422823e-02) (302, 7.52924695941919411984e-03) (303, 2.24391057106839930668e-01) (304, -2.43625984183815924577e-01) (305, 1.38412472826140636739e-01) (306, 3.24723260414659820050e-01) (307, 3.79208679359240685702e-01) (308, -1.67443035875094903275e-01) (309, 2.11159007255866060238e-01) (310, 2.63057959026882651546e-03) (311, 2.12378452079951790532e-01) (312, -5.38828948347594011148e-02) (313, -2.34345332212094026314e-01) (314, -3.81792322868752365128e-01) (315, 1.97312751035698286106e-01) (316, 1.95393005732954788689e-01) (317, -3.79805351232263055383e-01) (318, 2.76850099560173201763e-01) (319, 8.76244767582876199485e-02) (320, -3.03105688871311784727e-01) (321, 1.29453352192092197015e-01) (322, 6.77963405995975765261e-02) (323, -2.03365329123334076522e-01) (324, 1.63072969985679411264e-01) (325, -3.29384720811716824596e-01) (326, -8.95423651623160343771e-02) (327, -1.36734031029525693324e-01) (328, 2.11023623831026768682e-01) (329, 2.55640493716102923383e-01) (330, -8.34701411073248272787e-02) (331, -4.03874974241456297097e-02) (332, -5.96632333185700969302e-02) (333, 5.89702043842540879481e-01) (334, -1.30316600049675684891e-01) (335, -3.12560452296697599550e-01) (336, -2.51434893588355912186e-01) (337, 5.92403792524969427524e-02) (338, -5.64473239435951401610e-02) (339, -2.60168070220097635836e-01) (340, -3.07891763401798912447e-01) (341, -3.00288519525915620356e-01) (342, 3.76680372792825957085e-01) (343, 4.89828036189699431158e-02) (344, -1.95615949372173220100e-01) (345, -1.11871217949559287330e-01) (346, 2.23324166967894532920e-01) (347, 3.13700795859638073559e-02) (348, -2.71827171314735660523e-01) (349, 1.69936217221794000354e-01) (350, 6.12279802668511466401e-02) (351, 1.37689692316578932152e-01) (352, -7.02026341357550182076e-02) (353, -4.49330967779778489568e-01) (354, 3.18578347924216020992e-02) (355, -8.85518974754953280826e-02) (356, 2.78351449250835936144e-01) (357, -7.15077800089732040778e-02) (358, 7.83866225083370005144e-02) (359, 1.60420892535275305679e-01) (360, 2.38778835294348977525e-02) (361, -7.47891252382375526508e-02) (362, -2.66068898699597794488e-02) (363, -1.18634623006007411394e-01) (364, -1.63606785063677540037e-01) (365, -1.32980880623602054635e-01) (366, 1.32980901596550488142e-01) (367, -1.30240124832573661573e-01) (368, -1.10996355954342013073e-01) (369, 3.99306205303778027904e-01) (370, -1.02244261523623966581e-01) (371, 2.39382547803578454859e-01) (372, -9.89704574998280933729e-02) (373, 3.75311071030866416631e-01) (374, -9.02425409868851530204e-02) (375, -2.55636784025238372742e-01) (376, -1.63771456984567631565e-01) (377, -2.42429935522123413127e-01) (378, -1.04512687601667278448e-02) (379, 5.60612595940807104111e-02) (380, -2.83230569027982159724e-01) (381, 4.43437559775948231255e-02) (382, 2.79239650289077434575e-01) (383, -2.54285445242487084805e-01) (384, 1.76836513424355912250e-01) (385, -7.12190110872396170416e-02) (386, -1.44102562547012147398e-01) (387, -1.22248631106476671193e-01) (388, 1.13457886511311320521e-01) (389, 3.16517382569961980288e-01) (390, -4.44710199900358454927e-02) (391, -2.36023897442758145981e-01) (392, 1.39614252067190663942e-01) (393, -1.23374196330973087687e-01) (394, -2.22936910643376428806e-03) (395, 1.14052997358082292695e-02) (396, 6.50120214970857368542e-02) (397, -1.50665333572279847019e-01) (398, 2.66321825101587361662e-01) (399, -1.12003246240459500283e-01) (400, -4.62794945370538002294e-01) (401, -6.28510431542930320115e-02) (402, 5.19282451306719017303e-01) (403, -4.04651532450812922992e-01) (404, 3.09393966614354906652e-02) (405, 1.60716142919854587667e-01) (406, 7.61230827658522235524e-02) (407, -1.57116363630326133505e-01) (408, -1.92844098569985189506e-01) (409, 1.42202500562265132800e-01) (410, 2.78479207772363950013e-03) (411, -2.82286703921003911955e-01) (412, 3.04166746076447169767e-01) (413, 4.40340582850059447662e-01) (414, 1.33531669331313024296e-01) (415, 1.19970962758903607059e-01) (416, 2.79445537245475994492e-02) (417, 5.72308438049083031962e-02) (418, 4.96580289257284798743e-02) (419, -2.48913450128685459495e-01) (420, -5.52183808683489263380e-01) (421, -9.47972064144968373789e-01) (422, -1.33176304910115950175e-01) (423, -1.73832057837680609147e+00) (424, -8.45853585052332990202e-01) (425, -1.86100429844452630590e-01) (426, -9.11168725854648482720e-03) (427, 6.33976438078751869387e-02) (428, -1.09241081283769081445e-01) (429, -1.17779281890272383149e-01) (430, 9.42500488071839892523e-02) (431, 2.08003884294832963597e-01) (432, -1.43887635830581950280e-01) (0, 7.05320827990565946131e-01) (1, -2.60433492349874839977e-01) (2, -3.25842410397764792318e-01) (3, -9.81667726209442537133e-02) (4, -3.29663576140370118139e-01) (5, -1.00267063030953697961e-02) (6, 2.31089090314031270212e-02) (7, -2.75220770238314427214e-01) (8, -1.67875297421031743905e-01) (9, 2.72745876139000753557e-01) (10, 3.54277622359766397597e-01) (11, 2.65459792179726337957e-02) (12, 4.19014104928094932578e-01) (13, 1.54417385258219963529e-01) (14, -1.00229737335276580801e+00) (15, -1.68837794810127138356e-02) (16, -1.73584348111162994899e-01) (17, -1.31999850948234992432e-01) (18, -6.47813181371511698226e-02) (19, -2.21100431807033870335e-01) (20, -3.01675179263849544548e-03) (21, -3.92011770005261994676e-01) (22, 3.67925015126122356701e-01) (23, 5.44450150918169950565e-01) (24, 3.38864621784702446661e-02) (25, 6.22681805600776225318e-02) (26, -4.07881899490673216491e-01) (27, -3.10241110616905679809e-01) (28, 3.73075087599452903664e-01) (29, 8.99499070259151822793e-02) (30, -1.43691315881572412305e-01) (31, 1.31365627884032970529e-01) (32, -6.04470311882563254846e-02) (33, -2.56161441734686599891e-02) (34, 5.79088671007238313393e-03) (35, 2.58454199978566910578e-02) (36, 8.95149807571096467473e-02) (37, 1.42483661689529833572e-01) (38, 7.97394062430582112322e-02) (39, 1.14375701342901911484e-01) (40, -1.02066151876209640359e-01) (41, 3.61392789207590547917e-01) (42, -7.71483457652574339258e-02) (43, -5.57746647436425518896e-02) (44, -4.18312690294070643748e-02) (45, -2.92263409773990089080e-02) (46, 2.14220220067355082705e-01) (47, -2.92181766872104897725e-01) (48, -1.81524565267963677861e-02) (49, 2.76484625353870583364e-01) (50, 4.79684511981127992275e-02) (51, 3.72956807874529894242e-02) (52, -2.54708063842296716928e-01) (53, 1.43364315658416341392e-01) (54, 5.00294709639322529582e-02) (55, -5.42423596599892407499e-02) (56, 2.68485767374116168771e-01) (57, -9.93754510656654904688e-02) (58, -6.09144535578596338365e-02) (59, 3.70967291046234229346e-02) (60, 1.96282888653652953792e-01) (61, 2.43586452363527244946e-01) (62, 1.72663647441086559597e-01) (63, 5.42700745437894871426e-02) (64, -4.65026217356032278705e-01) (65, -3.16609022985407523310e-02) (66, 1.90102181146592713948e-03) (67, -2.43694527316013459517e-01) (68, 1.07784146417694640108e-01) (69, 3.67005210086962907479e-01) (70, 1.13508281225447760221e-01) (71, -2.62530728352644182610e-01) (72, -2.98012608017534819105e-01) (73, 3.71653340044985569524e-01) (74, 1.05731115365355496372e-01) (75, -2.59242836927155051452e-01) (76, -3.53963677152873412712e-01) (77, 1.63429973493030594733e-01) (78, -9.98804342310924825332e-02) (79, 3.06920001040478680754e-02) (80, 6.11605438946206322881e-02) (81, 5.45861583555718871130e-02) (82, 3.42370742100173763856e-01) (83, 3.21776283774813029459e-02) (84, -4.71326685333982753345e-01) (85, 1.27980339147976379666e-01) (86, -1.62250838154889692744e-02) (87, -2.01249517336729799588e-01) (88, 7.84482265979810911016e-02) (89, 1.42339382698831617979e-01) (90, 2.46147606783775424466e-01) (91, -9.90548717117871804771e-03) (92, -1.09585078749037709289e-01) (93, 2.32481681337849133140e-01) (94, -1.41366075858953527122e-01) (95, 8.03108057805332342660e-02) (96, -4.64553400532866089812e-02) (97, 1.42615570679835712564e-01) (98, -6.75582848675893160584e-02) (99, 3.17603755437693757724e-01) (100, -2.33779839660889325603e-02) (101, -6.89725705384614945492e-02) (102, -5.40889705443980475796e-02) (103, 1.09488536027543215123e-01) (104, -5.29684672036580650456e-01) (105, 1.94669014891157760028e-01) (106, -3.88330281074774699701e-02) (107, -7.67193243182562063104e-03) (108, 8.40158617322009082518e-02) (109, 1.82831244798609821034e-01) (110, 8.56183479171419153930e-02) (111, 1.28582609689102012052e-01) (112, 1.76046895538898712230e-01) (113, 1.31058829963546286113e-01) (114, -1.80146090851301177160e-01) (115, 1.67495787100431975380e-01) (116, 1.79743087194667028328e-01) (117, 2.91939505901782470065e-01) (118, -2.95716464478885276979e-01) (119, -2.62830315385016236029e-02) (120, -2.56131626887796615133e-01) (121, -1.64005703443949407694e-01) (122, 3.00770669576822732849e-02) (123, 4.66547207479067124747e-02) (124, -1.87230346596986535479e-01) (125, 1.33573717204272246484e-01) (126, 9.69252140985015914199e-02) (127, -7.73737730451507094154e-02) (128, 3.29132539875816532149e-01) (129, 1.11319378624798015487e-01) (130, 9.85651189341702205216e-02) (131, 2.83339713613368682221e-01) (132, -1.37099420512531905425e-01) (133, 6.09355118934220563176e-01) (134, -4.07443224510755375167e-01) (135, -8.91467227533426220809e-02) (136, -1.23049200319795354330e-01) (137, 2.24405031441964386563e-01) (138, -3.74651473876857210588e-01) (139, 1.76950783093257693612e-02) (140, -2.05428852287529800646e-01) (141, 