FANN_FLO_2.1
num_layers=3
learning_rate=0.010000
connection_rate=1.000000
network_type=0
learning_momentum=0.300000
training_algorithm=0
train_error_function=0
train_stop_function=0
cascade_output_change_fraction=0.010000
quickprop_decay=-0.000100
quickprop_mu=1.750000
rprop_increase_factor=1.200000
rprop_decrease_factor=0.500000
rprop_delta_min=0.000000
rprop_delta_max=50.000000
rprop_delta_zero=0.100000
cascade_output_stagnation_epochs=12
cascade_candidate_change_fraction=0.010000
cascade_candidate_stagnation_epochs=12
cascade_max_out_epochs=150
cascade_min_out_epochs=0
cascade_max_cand_epochs=150
cascade_min_cand_epochs=0
cascade_num_candidate_groups=2
bit_fail_limit=3.49999999999999977796e-01
cascade_candidate_limit=1.00000000000000000000e+03
cascade_weight_multiplier=4.00000000000000022204e-01
cascade_activation_functions_count=10
cascade_activation_functions=3 5 7 8 10 11 14 15 16 17 
cascade_activation_steepnesses_count=4
cascade_activation_steepnesses=2.50000000000000000000e-01 5.00000000000000000000e-01 7.50000000000000000000e-01 1.00000000000000000000e+00 
layer_sizes=394 31 4 
scale_included=0
neurons (num_inputs, activation_function, activation_steepness)=(0, 0, 0.00000000000000000000e+00) (0, 0, 0.00000000000000000000e+00) (0, 0, 0.00000000000000000000e+00) (0, 0, 0.00000000000000000000e+00) (0, 0, 0.00000000000000000000e+00) (0, 0, 0.00000000000000000000e+00) (0, 0, 0.00000000000000000000e+00) (0, 0, 0.00000000000000000000e+00) (0, 0, 0.00000000000000000000e+00) (0, 0, 0.00000000000000000000e+00) (0, 0, 0.00000000000000000000e+00) (0, 0, 0.00000000000000000000e+00) (0, 0, 0.00000000000000000000e+00) (0, 0, 0.00000000000000000000e+00) (0, 0, 0.00000000000000000000e+00) (0, 0, 0.00000000000000000000e+00) (0, 0, 0.00000000000000000000e+00) (0, 0, 0.00000000000000000000e+00) (0, 0, 0.00000000000000000000e+00) (0, 0, 0.00000000000000000000e+00) (0, 0, 0.00000000000000000000e+00) (0, 0, 0.00000000000000000000e+00) (0, 0, 0.00000000000000000000e+00) (0, 0, 0.00000000000000000000e+00) (0, 0, 0.00000000000000000000e+00) (0, 0, 0.00000000000000000000e+00) (0, 0, 0.00000000000000000000e+00) (0, 0, 0.00000000000000000000e+00) (0, 0, 0.00000000000000000000e+00) (0, 0, 0.00000000000000000000e+00) (0, 0, 0.00000000000000000000e+00) (0, 0, 0.00000000000000000000e+00) (0, 0, 0.00000000000000000000e+00) (0, 0, 0.00000000000000000000e+00) (0, 0, 0.00000000000000000000e+00) (0, 0, 0.00000000000000000000e+00) (0, 0, 0.00000000000000000000e+00) (0, 0, 0.00000000000000000000e+00) (0, 0, 0.00000000000000000000e+00) (0, 0, 0.00000000000000000000e+00) (0, 0, 0.00000000000000000000e+00) (0, 0, 0.00000000000000000000e+00) (0, 0, 0.00000000000000000000e+00) (0, 0, 0.00000000000000000000e+00) (0, 0, 0.00000000000000000000e+00) (0, 0, 0.00000000000000000000e+00) (0, 0, 0.00000000000000000000e+00) (0, 0, 0.00000000000000000000e+00) (0, 0, 0.00000000000000000000e+00) (0, 0, 0.00000000000000000000e+00) (0, 0, 0.00000000000000000000e+00) (0, 0, 0.00000000000000000000e+00) (0, 0, 0.00000000000000000000e+00) (0, 0, 0.00000000000000000000e+00) (0, 0, 0.00000000000000000000e+00) (0, 0, 0.00000000000000000000e+00) (0, 0, 0.00000000000000000000e+00) (0, 0, 0.00000000000000000000e+00) (0, 0, 0.00000000000000000000e+00) (0, 0, 0.00000000000000000000e+00) (0, 0, 0.00000000000000000000e+00) (0, 0, 0.00000000000000000000e+00) (0, 0, 0.00000000000000000000e+00) (0, 0, 0.00000000000000000000e+00) (0, 0, 0.00000000000000000000e+00) (0, 0, 0.00000000000000000000e+00) (0, 0, 0.00000000000000000000e+00) (0, 0, 0.00000000000000000000e+00) (0, 0, 0.00000000000000000000e+00) (0, 0, 0.00000000000000000000e+00) (0, 0, 0.00000000000000000000e+00) (0, 0, 0.00000000000000000000e+00) (0, 0, 0.00000000000000000000e+00) (0, 0, 0.00000000000000000000e+00) (0, 0, 0.00000000000000000000e+00) (0, 0, 0.00000000000000000000e+00) (0, 0, 0.00000000000000000000e+00) (0, 0, 0.00000000000000000000e+00) (0, 0, 0.00000000000000000000e+00) (0, 0, 0.00000000000000000000e+00) (0, 0, 0.00000000000000000000e+00) (0, 0, 0.00000000000000000000e+00) (0, 0, 0.00000000000000000000e+00) (0, 0, 0.00000000000000000000e+00) (0, 0, 0.00000000000000000000e+00) (0, 0, 0.00000000000000000000e+00) (0, 0, 0.00000000000000000000e+00) (0, 0, 0.00000000000000000000e+00) (0, 0, 0.00000000000000000000e+00) (0, 0, 0.00000000000000000000e+00) (0, 0, 0.00000000000000000000e+00) (0, 0, 0.00000000000000000000e+00) (0, 0, 0.00000000000000000000e+00) (0, 0, 0.00000000000000000000e+00) (0, 0, 0.00000000000000000000e+00) (0, 0, 0.00000000000000000000e+00) (0, 0, 0.00000000000000000000e+00) (0, 0, 0.00000000000000000000e+00) (0, 0, 0.00000000000000000000e+00) (0, 0, 0.00000000000000000000e+00) (0, 0, 0.00000000000000000000e+00) (0, 0, 0.00000000000000000000e+00) (0, 0, 0.00000000000000000000e+00) (0, 0, 0.00000000000000000000e+00) (0, 0, 0.00000000000000000000e+00) (0, 0, 0.00000000000000000000e+00) (0, 0, 0.00000000000000000000e+00) (0, 0, 0.00000000000000000000e+00) (0, 0, 0.00000000000000000000e+00) (0, 0, 0.00000000000000000000e+00) (0, 0, 0.00000000000000000000e+00) (0, 0, 0.00000000000000000000e+00) (0, 0, 0.00000000000000000000e+00) (0, 0, 0.00000000000000000000e+00) (0, 0, 0.00000000000000000000e+00) (0, 0, 0.00000000000000000000e+00) (0, 0, 0.00000000000000000000e+00) (0, 0, 0.00000000000000000000e+00) (0, 0, 0.00000000000000000000e+00) (0, 0, 0.00000000000000000000e+00) (0, 0, 0.00000000000000000000e+00) (0, 0, 0.00000000000000000000e+00) (0, 0, 0.00000000000000000000e+00) (0, 0, 0.00000000000000000000e+00) (0, 0, 0.00000000000000000000e+00) (0, 0, 0.00000000000000000000e+00) (0, 0, 0.00000000000000000000e+00) (0, 0, 0.00000000000000000000e+00) (0, 0, 0.00000000000000000000e+00) (0, 0, 0.00000000000000000000e+00) (0, 0, 0.00000000000000000000e+00) (0, 0, 0.00000000000000000000e+00) (0, 0, 0.00000000000000000000e+00) (0, 0, 0.00000000000000000000e+00) (0, 0, 0.00000000000000000000e+00) (0, 0, 0.00000000000000000000e+00) (0, 0, 0.00000000000000000000e+00) (0, 0, 0.00000000000000000000e+00) (0, 0, 0.00000000000000000000e+00) (0, 0, 0.00000000000000000000e+00) (0, 0, 0.00000000000000000000e+00) (0, 0, 0.00000000000000000000e+00) (0, 0, 0.00000000000000000000e+00) (0, 0, 0.00000000000000000000e+00) (0, 0, 0.00000000000000000000e+00) (0, 0, 0.00000000000000000000e+00) (0, 0, 0.00000000000000000000e+00) (0, 0, 0.00000000000000000000e+00) (0, 0, 0.00000000000000000000e+00) (0, 0, 0.00000000000000000000e+00) (0, 0, 0.00000000000000000000e+00) (0, 0, 0.00000000000000000000e+00) (0, 0, 0.00000000000000000000e+00) (0, 0, 0.00000000000000000000e+00) (0, 0, 0.00000000000000000000e+00) (0, 0, 0.00000000000000000000e+00) (0, 0, 0.00000000000000000000e+00) (0, 0, 0.00000000000000000000e+00) (0, 0, 0.00000000000000000000e+00) (0, 0, 0.00000000000000000000e+00) (0, 0, 0.00000000000000000000e+00) (0, 0, 0.00000000000000000000e+00) (0, 0, 0.00000000000000000000e+00) (0, 0, 0.00000000000000000000e+00) (0, 0, 0.00000000000000000000e+00) (0, 0, 0.00000000000000000000e+00) (0, 0, 0.00000000000000000000e+00) (0, 0, 0.00000000000000000000e+00) (0, 0, 0.00000000000000000000e+00) (0, 0, 0.00000000000000000000e+00) (0, 0, 0.00000000000000000000e+00) (0, 0, 0.00000000000000000000e+00) (0, 0, 0.00000000000000000000e+00) (0, 0, 0.00000000000000000000e+00) (0, 0, 0.00000000000000000000e+00) (0, 0, 0.00000000000000000000e+00) (0, 0, 0.00000000000000000000e+00) (0, 0, 0.00000000000000000000e+00) (0, 0, 0.00000000000000000000e+00) (0, 0, 0.00000000000000000000e+00) (0, 0, 0.00000000000000000000e+00) (0, 0, 0.00000000000000000000e+00) (0, 0, 0.00000000000000000000e+00) (0, 0, 0.00000000000000000000e+00) (0, 0, 0.00000000000000000000e+00) (0, 0, 0.00000000000000000000e+00) (0, 0, 0.00000000000000000000e+00) (0, 0, 0.00000000000000000000e+00) (0, 0, 0.00000000000000000000e+00) (0, 0, 0.00000000000000000000e+00) (0, 0, 0.00000000000000000000e+00) (0, 0, 0.00000000000000000000e+00) (0, 0, 0.00000000000000000000e+00) (0, 0, 0.00000000000000000000e+00) (0, 0, 0.00000000000000000000e+00) (0, 0, 0.00000000000000000000e+00) (0, 0, 0.00000000000000000000e+00) (0, 0, 0.00000000000000000000e+00) (0, 0, 0.00000000000000000000e+00) (0, 0, 0.00000000000000000000e+00) (0, 0, 0.00000000000000000000e+00) (0, 0, 0.00000000000000000000e+00) (0, 0, 0.00000000000000000000e+00) (0, 0, 0.00000000000000000000e+00) (0, 0, 0.00000000000000000000e+00) (0, 0, 0.00000000000000000000e+00) (0, 0, 0.00000000000000000000e+00) (0, 0, 0.00000000000000000000e+00) (0, 0, 0.00000000000000000000e+00) (0, 0, 0.00000000000000000000e+00) (0, 0, 0.00000000000000000000e+00) (0, 0, 0.00000000000000000000e+00) (0, 0, 0.00000000000000000000e+00) (0, 0, 0.00000000000000000000e+00) (0, 0, 0.00000000000000000000e+00) (0, 0, 0.00000000000000000000e+00) (0, 0, 0.00000000000000000000e+00) (0, 0, 0.00000000000000000000e+00) (0, 0, 0.00000000000000000000e+00) (0, 0, 0.00000000000000000000e+00) (0, 0, 0.00000000000000000000e+00) (0, 0, 0.00000000000000000000e+00) (0, 0, 0.00000000000000000000e+00) (0, 0, 0.00000000000000000000e+00) (0, 0, 0.00000000000000000000e+00) (0, 0, 0.00000000000000000000e+00) (0, 0, 0.00000000000000000000e+00) (0, 0, 0.00000000000000000000e+00) (0, 0, 0.00000000000000000000e+00) (0, 0, 0.00000000000000000000e+00) (0, 0, 0.00000000000000000000e+00) (0, 0, 0.00000000000000000000e+00) (0, 0, 0.00000000000000000000e+00) (0, 0, 0.00000000000000000000e+00) (0, 0, 0.00000000000000000000e+00) (0, 0, 0.00000000000000000000e+00) (0, 0, 0.00000000000000000000e+00) (0, 0, 0.00000000000000000000e+00) (0, 0, 0.00000000000000000000e+00) (0, 0, 0.00000000000000000000e+00) (0, 0, 0.00000000000000000000e+00) (0, 0, 0.00000000000000000000e+00) (0, 0, 0.00000000000000000000e+00) (0, 0, 0.00000000000000000000e+00) (0, 0, 0.00000000000000000000e+00) (0, 0, 0.00000000000000000000e+00) (0, 0, 0.00000000000000000000e+00) (0, 0, 0.00000000000000000000e+00) (0, 0, 0.00000000000000000000e+00) (0, 0, 0.00000000000000000000e+00) (0, 0, 0.00000000000000000000e+00) (0, 0, 0.00000000000000000000e+00) (0, 0, 0.00000000000000000000e+00) (0, 0, 0.00000000000000000000e+00) (0, 0, 0.00000000000000000000e+00) (0, 0, 0.00000000000000000000e+00) (0, 0, 0.00000000000000000000e+00) (0, 0, 0.00000000000000000000e+00) (0, 0, 0.00000000000000000000e+00) (0, 0, 0.00000000000000000000e+00) (0, 0, 0.00000000000000000000e+00) (0, 0, 0.00000000000000000000e+00) (0, 0, 0.00000000000000000000e+00) (0, 0, 0.00000000000000000000e+00) (0, 0, 0.00000000000000000000e+00) (0, 0, 0.00000000000000000000e+00) (0, 0, 0.00000000000000000000e+00) (0, 0, 0.00000000000000000000e+00) (0, 0, 0.00000000000000000000e+00) (0, 0, 0.00000000000000000000e+00) (0, 0, 0.00000000000000000000e+00) (0, 0, 0.00000000000000000000e+00) (0, 0, 0.00000000000000000000e+00) (0, 0, 0.00000000000000000000e+00) (0, 0, 0.00000000000000000000e+00) (0, 0, 0.00000000000000000000e+00) (0, 0, 0.00000000000000000000e+00) (0, 0, 0.00000000000000000000e+00) (0, 0, 0.00000000000000000000e+00) (0, 0, 0.00000000000000000000e+00) (0, 0, 0.00000000000000000000e+00) (0, 0, 0.00000000000000000000e+00) (0, 0, 0.00000000000000000000e+00) (0, 0, 0.00000000000000000000e+00) (0, 0, 0.00000000000000000000e+00) (0, 0, 0.00000000000000000000e+00) (0, 0, 0.00000000000000000000e+00) (0, 0, 0.00000000000000000000e+00) (0, 0, 0.00000000000000000000e+00) (0, 0, 0.00000000000000000000e+00) (0, 0, 0.00000000000000000000e+00) (0, 0, 0.00000000000000000000e+00) (0, 0, 0.00000000000000000000e+00) (0, 0, 0.00000000000000000000e+00) (0, 0, 0.00000000000000000000e+00) (0, 0, 0.00000000000000000000e+00) (0, 0, 0.00000000000000000000e+00) (0, 0, 0.00000000000000000000e+00) (0, 0, 0.00000000000000000000e+00) (0, 0, 0.00000000000000000000e+00) (0, 0, 0.00000000000000000000e+00) (0, 0, 0.00000000000000000000e+00) (0, 0, 0.00000000000000000000e+00) (0, 0, 0.00000000000000000000e+00) (0, 0, 0.00000000000000000000e+00) (0, 0, 0.00000000000000000000e+00) (0, 0, 0.00000000000000000000e+00) (0, 0, 0.00000000000000000000e+00) (0, 0, 0.00000000000000000000e+00) (0, 0, 0.00000000000000000000e+00) (0, 0, 0.00000000000000000000e+00) (0, 0, 0.00000000000000000000e+00) (0, 0, 0.00000000000000000000e+00) (0, 0, 0.00000000000000000000e+00) (0, 0, 0.00000000000000000000e+00) (0, 0, 0.00000000000000000000e+00) (0, 0, 0.00000000000000000000e+00) (0, 0, 0.00000000000000000000e+00) (0, 0, 0.00000000000000000000e+00) (0, 0, 0.00000000000000000000e+00) (0, 0, 0.00000000000000000000e+00) (0, 0, 0.00000000000000000000e+00) (0, 0, 0.00000000000000000000e+00) (0, 0, 0.00000000000000000000e+00) (0, 0, 0.00000000000000000000e+00) (0, 0, 0.00000000000000000000e+00) (0, 0, 0.00000000000000000000e+00) (0, 0, 0.00000000000000000000e+00) (0, 0, 0.00000000000000000000e+00) (0, 0, 0.00000000000000000000e+00) (0, 0, 0.00000000000000000000e+00) (0, 0, 0.00000000000000000000e+00) (0, 0, 0.00000000000000000000e+00) (0, 0, 0.00000000000000000000e+00) (0, 0, 0.00000000000000000000e+00) (0, 0, 0.00000000000000000000e+00) (0, 0, 0.00000000000000000000e+00) (0, 0, 0.00000000000000000000e+00) (0, 0, 0.00000000000000000000e+00) (0, 0, 0.00000000000000000000e+00) (0, 0, 0.00000000000000000000e+00) (0, 0, 0.00000000000000000000e+00) (0, 0, 0.00000000000000000000e+00) (0, 0, 0.00000000000000000000e+00) (0, 0, 0.00000000000000000000e+00) (0, 0, 0.00000000000000000000e+00) (0, 0, 0.00000000000000000000e+00) (0, 0, 0.00000000000000000000e+00) (0, 0, 0.00000000000000000000e+00) (0, 0, 0.00000000000000000000e+00) (0, 0, 0.00000000000000000000e+00) (0, 0, 0.00000000000000000000e+00) (0, 0, 0.00000000000000000000e+00) (0, 0, 0.00000000000000000000e+00) (0, 0, 0.00000000000000000000e+00) (0, 0, 0.00000000000000000000e+00) (0, 0, 0.00000000000000000000e+00) (0, 0, 0.00000000000000000000e+00) (0, 0, 0.00000000000000000000e+00) (0, 0, 0.00000000000000000000e+00) (0, 0, 0.00000000000000000000e+00) (0, 0, 0.00000000000000000000e+00) (0, 0, 0.00000000000000000000e+00) (0, 0, 0.00000000000000000000e+00) (0, 0, 0.00000000000000000000e+00) (0, 0, 0.00000000000000000000e+00) (0, 0, 0.00000000000000000000e+00) (0, 0, 0.00000000000000000000e+00) (0, 0, 0.00000000000000000000e+00) (0, 0, 0.00000000000000000000e+00) (0, 0, 0.00000000000000000000e+00) (0, 0, 0.00000000000000000000e+00) (0, 0, 0.00000000000000000000e+00) (0, 0, 0.00000000000000000000e+00) (0, 0, 0.00000000000000000000e+00) (0, 0, 0.00000000000000000000e+00) (0, 0, 0.00000000000000000000e+00) (0, 0, 0.00000000000000000000e+00) (0, 0, 0.00000000000000000000e+00) (0, 0, 0.00000000000000000000e+00) (0, 0, 0.00000000000000000000e+00) (0, 0, 0.00000000000000000000e+00) (0, 0, 0.00000000000000000000e+00) (0, 0, 0.00000000000000000000e+00) (0, 0, 0.00000000000000000000e+00) (0, 0, 0.00000000000000000000e+00) (0, 0, 0.00000000000000000000e+00) (0, 0, 0.00000000000000000000e+00) (0, 0, 0.00000000000000000000e+00) (0, 0, 0.00000000000000000000e+00) (0, 0, 0.00000000000000000000e+00) (0, 0, 0.00000000000000000000e+00) (0, 0, 0.00000000000000000000e+00) (0, 0, 0.00000000000000000000e+00) (394, 3, 5.00000000000000000000e-01) (394, 3, 5.00000000000000000000e-01) (394, 3, 5.00000000000000000000e-01) (394, 3, 5.00000000000000000000e-01) (394, 3, 5.00000000000000000000e-01) (394, 3, 5.00000000000000000000e-01) (394, 3, 5.00000000000000000000e-01) (394, 3, 5.00000000000000000000e-01) (394, 3, 5.00000000000000000000e-01) (394, 3, 5.00000000000000000000e-01) (394, 3, 5.00000000000000000000e-01) (394, 3, 5.00000000000000000000e-01) (394, 3, 5.00000000000000000000e-01) (394, 3, 5.00000000000000000000e-01) (394, 3, 5.00000000000000000000e-01) (394, 3, 5.00000000000000000000e-01) (394, 3, 5.00000000000000000000e-01) (394, 3, 5.00000000000000000000e-01) (394, 3, 5.00000000000000000000e-01) (394, 3, 5.00000000000000000000e-01) (394, 3, 5.00000000000000000000e-01) (394, 3, 5.00000000000000000000e-01) (394, 3, 5.00000000000000000000e-01) (394, 3, 5.00000000000000000000e-01) (394, 3, 5.00000000000000000000e-01) (394, 3, 5.00000000000000000000e-01) (394, 3, 5.00000000000000000000e-01) (394, 3, 5.00000000000000000000e-01) (394, 3, 5.00000000000000000000e-01) (394, 3, 5.00000000000000000000e-01) (0, 3, 0.00000000000000000000e+00) (31, 3, 5.00000000000000000000e-01) (31, 3, 5.00000000000000000000e-01) (31, 3, 5.00000000000000000000e-01) (0, 3, 0.00000000000000000000e+00) 
connections (connected_to_neuron, weight)=(0, 2.41051773352399939521e-02) (1, 6.16660840502246225536e-03) (2, 3.11839042502497255926e-02) (3, -4.35054143758421760224e-02) (4, -3.31450461613446486359e-03) (5, 3.03845031248544230132e-03) (6, 7.15231744641349892477e-02) (7, 1.29263238182964119473e-03) (8, -9.89563362990426576005e-02) (9, -6.46605467885053714072e-02) (10, -3.97642460060278202238e-02) (11, 5.46494501264399717977e-02) (12, -3.06144489687626801533e-02) (13, -5.13731231147721983943e-02) (14, -9.46861824339783053617e-02) (15, 2.73482068814265427692e-02) (16, 6.15437063709883616647e-02) (17, 9.46176761479612798977e-02) (18, 1.16281896645236675764e-02) (19, 2.42051206088875932310e-02) (20, 5.50431647202496363014e-02) (21, -4.51513448046762452814e-02) (22, -1.08353303301194331398e-01) (23, 2.89255303315937781217e-02) (24, 7.59703596864583219350e-02) (25, -2.32635239358222473127e-02) (26, 4.46731285901204103195e-02) (27, -5.74790296399040612219e-02) (28, -2.22442665665642178019e-02) (29, -1.02725917740479497087e-01) (30, -7.89768245340159158463e-02) (31, -5.92709518151769768068e-02) (32, 2.18177740764691346920e-02) (33, 3.74088383085323800126e-02) (34, -1.94591560715629934009e-02) (35, -5.71708276461135866953e-02) (36, -1.71144616855897387098e-02) (37, -2.36296289109166023079e-02) (38, 4.14681497857024294884e-02) (39, -1.34964393137807087131e-02) (40, 1.78252698360122432963e-02) (41, -5.48602047284715427233e-02) (42, -5.43927013429183620064e-02) (43, 4.81761591098312513815e-02) (44, -2.21999723187401992730e-02) (45, -4.72353819113778272687e-02) (46, -4.38276234932647151127e-03) (47, -5.84515926255171139325e-02) (48, -3.02324334713811974928e-02) (49, -6.17215254573902777357e-02) (50, 5.75163701048024555984e-02) (51, 9.58409707011026318346e-02) (52, 3.10566522829580395071e-02) (53, 6.26682987120605189402e-02) (54, 2.66765395916825458211e-02) (55, -1.29573763805573144436e-03) (56, -4.34983880237028441851e-02) (57, 1.75133621284680948693e-02) (58, 2.52717561753422366444e-02) (59, 2.43125302007536486792e-02) (60, 4.18294103001117106855e-02) (61, 5.40597260228339385191e-02) (62, 8.03076271755963216892e-02) (63, 7.67390114785315539947e-03) (64, 2.72657993282229837995e-02) (65, -2.19206326034024553961e-02) (66, 6.41130586729905249666e-02) (67, -9.08569043932365844052e-02) (68, 5.18787251929199444422e-02) (69, 1.14880369767916320350e-02) (70, -1.72793023131177468643e-02) (71, -2.48305404841927222781e-02) (72, 2.25219334851063032743e-02) (73, -1.00733910352594768778e-02) (74, -6.14383247722223926890e-02) (75, -1.01634564511375286022e-01) (76, 6.55090602488329482034e-02) (77, 7.23985703300541599825e-02) (78, -6.00807219167420400452e-02) (79, -9.57400558195669743045e-02) (80, 1.31888381951985822482e-01) (81, -9.26883125347529174265e-02) (82, -7.45351399197398400975e-02) (83, 2.58539991514615749568e-02) (84, 4.83684040967648012921e-02) (85, 5.13872558479679802934e-02) (86, -5.36323776241488386907e-02) (87, -6.87649697313623547990e-02) (88, -2.49339669351464655878e-02) (89, 7.83986540476732940430e-02) (90, 7.18512674239304843793e-02) (91, -5.60875085358013419912e-02) (92, 3.02830412241248680960e-02) (93, 2.28512977005204884207e-02) (94, -2.00553548526250791095e-02) (95, -6.10307323915016755600e-02) (96, -4.01523867445342796945e-02) (97, -2.69147481564302945567e-02) (98, -3.95197888408385031300e-02) (99, -1.01173779909233027552e-01) (100, 9.61511726404999100826e-02) (101, 4.35378195162084771774e-02) (102, -1.29932964693095357768e-03) (103, -1.40701241879378057681e-02) (104, -5.79440893270343829191e-02) (105, 3.04354037908791015543e-02) (106, 2.10343465811599107662e-02) (107, -2.86782674446327233431e-02) (108, 1.39876428529142407542e-02) (109, 8.07863594831564335585e-02) (110, -3.62843663739030042326e-02) (111, 1.76966367392384152368e-02) (112, 9.43831512149493623287e-02) (113, -6.29361349915551621104e-02) (114, -7.91428807357866248573e-02) (115, 2.61078842810704390975e-02) (116, -3.42952831112055198104e-02) (117, -1.29377457384497619036e-02) (118, 2.69354625859001689525e-02) (119, -6.91808931521652875629e-03) (120, -3.80018564232937269831e-02) (121, 3.75732977582080712731e-02) (122, 5.15749720463158298212e-02) (123, 3.86858848515777634103e-02) (124, -1.76658464700613811182e-02) (125, -5.63697464436126380316e-02) (126, -5.31119809989144819884e-02) (127, 8.16305815266547274422e-02) (128, 3.38364662877378083450e-02) (129, 1.93049381112348102107e-02) (130, 5.53866188704665515785e-02) (131, 1.77562731902612125356e-02) (132, -5.68246332333124173908e-02) (133, -8.83550895565797245190e-02) (134, 8.41128775330778483132e-02) (135, -2.82241499654442172182e-03) (136, 8.71563582494200433937e-02) (137, 1.73476729655369053817e-02) (138, 2.61277013717677170090e-02) (139, -1.04243039995923336000e-02) (140, -2.78986924183340437300e-02) (141, -9.31591365530059223321e-02) (142, -9.07667885288083731155e-02) (143, -4.34644898200130941346e-02) (144, -5.31624146984567697016e-02) (145, -3.21867321186143640066e-02) (146, 8.56142755886278999933e-02) (147, 7.98069385960155780468e-02) (148, 4.07234484238791355493e-02) (149, 4.00890336664338833850e-02) (150, -4.72022753919296572667e-02) (151, 9.63866719208899269677e-02) (152, -1.03903347044677091954e-02) (153, 5.67426985961042087969e-02) (154, 5.86389019892737672901e-02) (155, 1.13136843803520723006e-01) (156, -3.49464887614984592856e-02) (157, -9.02357924281521756038e-02) (158, 3.18163013275182746109e-02) (159, 3.56111339345504818166e-02) (160, 8.31787235186844456369e-03) (161, 1.38325243557132580158e-02) (162, -6.14476724896276527144e-02) (163, 3.73816408945574249305e-04) (164, -7.22778349130984523220e-04) (165, -7.83357426402549322786e-02) (166, -8.58081148474267030313e-02) (167, 7.33845269482377854375e-02) (168, 1.12166261375151649071e-01) (169, 9.96139327418750358811e-02) (170, -1.13018408882381071745e-01) (171, -8.01403752489858733910e-02) (172, 5.32363409846984825258e-02) (173, -1.06505739605354379784e-01) (174, -1.55809813255868012671e-02) (175, -5.08788911257627568530e-02) (176, -4.44500379672101778028e-02) (177, -3.81551971132863751435e-02) (178, -8.14402483354778744529e-02) (179, -6.12332003564964935660e-02) (180, -6.01528949955201647226e-02) (181, -5.26910033138761613181e-02) (182, -1.33253342847191924569e-01) (183, -1.29432607955031059310e-02) (184, -7.46638297287982311001e-02) (185, 6.75592408522542181570e-02) (186, -7.12251280443419558519e-03) (187, 3.18578097939655260906e-02) (188, 7.00706336693441289576e-02) (189, -1.06798357611346664275e-01) (190, -7.87716438479088704172e-02) (191, -1.63126084538304585991e-02) (192, 1.01959307733618231157e-02) (193, -4.23546580160113900204e-02) (194, -9.59151318684373505041e-02) (195, -3.66226413203640244198e-02) (196, 3.16321728430286469580e-02) (197, -5.75834402017183985545e-02) (198, 6.36872625574805562021e-02) (199, 1.08716817552821816417e-02) (200, -4.66202826541524811832e-02) (201, 7.42615355118216441399e-02) (202, -2.83969656283777106831e-02) (203, 4.62237390213307355880e-02) (204, 3.81915569320008321808e-02) (205, -9.42760566135075611660e-02) (206, -2.38556537285218306366e-02) (207, -1.20532032258326649021e-01) (208, 6.08035650241586789200e-03) (209, -3.85249823003842861713e-02) (210, -6.18812715884894323781e-02) (211, 8.45675621791164115748e-03) (212, 2.01314342260628664771e-02) (213, -7.65411160262450263048e-02) (214, -9.53228909812677965840e-02) (215, 3.36708923298047677064e-02) (216, -7.70398860733253754152e-02) (217, 1.12876665052864203626e-02) (218, 9.06286920592813682873e-02) (219, -9.76378393011531203749e-02) (220, 6.82574232492824256591e-02) (221, -8.02790637746193941338e-02) (222, 1.26604744677261838587e-02) (223, -3.68378386690029549499e-02) (224, -3.89693368820748578529e-02) (225, 7.57765904732837173446e-03) (226, 2.79964384542589345140e-02) (227, 4.81665994026284419172e-02) (228, 2.09255424447092747142e-02) (229, -2.73383629686521564817e-02) (230, -3.80540918189783070047e-02) (231, 6.37492513949318301281e-02) (232, -8.27445989987436458790e-02) (233, 3.15359414762063777760e-02) (234, 3.02827323483254584602e-02) (235, 6.57035580370670668771e-02) (236, 2.78897818467387821617e-02) (237, -6.97713037340825098509e-02) (238, -1.08491461453174425911e-01) (239, -7.04855977630637481335e-02) (240, 1.36413120368275402050e-02) (241, -3.66818955940808669181e-02) (242, 1.05652332161965484270e-01) (243, 9.63740691477099620244e-02) (244, -1.65991982346043107088e-02) (245, 9.00788704975953591347e-02) (246, 7.63106176458890894665e-02) (247, 2.87610046324295078046e-02) (248, -2.16668869343095531199e-02) (249, 3.89574112023802973659e-02) (250, 8.13810383705375062213e-02) (251, -5.54037822187395945228e-02) (252, 7.49905691896497195170e-02) (253, -5.46208843317977851828e-02) (254, -3.80266116805501389053e-02) (255, -6.39159277395811298295e-02) (256, 6.47928968903400126500e-02) (257, 6.45518649577957737140e-02) (258, 8.25564569370688949856e-02) (259, 2.96749315955354940610e-02) (260, -5.00259619763070984000e-02) (261, -4.66721427828947071914e-02) (262, -1.97316758786391863167e-02) (263, -9.04701529013152566661e-02) (264, -9.57998292258171457725e-02) (265, -5.48695421033538466293e-02) (266, -8.66475959723913002897e-02) (267, 1.12493483078752468107e-01) (268, -3.95604303564488571365e-02) (269, -4.10370941084313503588e-02) (270, -5.13191629844747185252e-02) (271, 7.32712716085667792321e-02) (272, -3.59820793932568317591e-03) (273, -9.32507513537210591670e-02) (274, 3.10814094947552271853e-02) (275, -8.89191627105270360198e-02) (276, -1.15599755424193123554e-01) (277, 5.50754017198764635188e-03) (278, 9.56435999538205773585e-03) (279, -1.39796360779493658577e-02) (280, -6.46077855429196407089e-02) (281, 1.11274246997404031162e-02) (282, 2.17360723275986239544e-02) (283, 5.13723883882816478863e-02) (284, 4.99169397413281173970e-02) (285, 8.80384946197058648742e-02) (286, 1.08382628372698006092e-01) (287, 6.94256305893879016589e-02) (288, 5.89242655442939536337e-02) (289, 1.19927894499152754015e-01) (290, 1.69858939203610150026e-02) (291, 1.13861602176248091767e-01) (292, -4.61293156438277868192e-02) (293, 6.34267924718823067343e-02) (294, -8.61560975407991008757e-02) (295, -6.67779355652157735612e-02) (296, -7.52025472989558269044e-02) (297, -4.39552342106953805589e-02) (298, -8.62508446823911922863e-02) (299, 1.52852150926151512250e-02) (300, -1.82110576883307249962e-02) (301, 5.54903168315300666241e-03) (302, 3.01905675485546675860e-03) (303, 6.92176674467881170028e-02) (304, -1.91547314111328408071e-02) (305, -5.12029529803373142927e-02) (306, 9.78095196190003901560e-02) (307, 1.28837952309444579713e-02) (308, 3.51435241268535369930e-02) (309, 2.32379445592975526769e-02) (310, -7.76954230044801102961e-02) (311, 1.00207055481401935415e-01) (312, -1.84207647667676555070e-02) (313, 1.15445375101393288980e-02) (314, 4.90409726248816554839e-02) (315, -8.80529762086759565376e-02) (316, 6.54299137654582637497e-03) (317, 6.52960102033754152817e-02) (318, 4.70471561838771840103e-02) (319, -1.76257587206319274453e-02) (320, 6.66127916745064552195e-02) (321, -6.17341546220134887446e-02) (322, -1.64844824439911996627e-02) (323, -9.13664235381349693066e-02) (324, -9.22430110285570453721e-02) (325, -1.94024145814591583714e-02) (326, -2.90000643293097971898e-02) (327, -2.84676697560067408499e-02) (328, 4.10303803735597924507e-02) (329, 3.81522826061605271897e-02) (330, 9.52375205947829234221e-02) (331, -6.32878931366725183683e-02) (332, -5.89762533433567034957e-02) (333, -5.42343898776590713218e-02) (334, -1.22994275072125000547e-01) (335, -1.95273608992990663213e-02) (336, -1.56700151834343291701e-02) (337, 5.74364736789738580813e-02) (338, -8.02805568250288814625e-02) (339, -3.98613300056771674429e-02) (340, -6.09457553732986115347e-02) (341, -4.37809724155584709115e-02) (342, -4.85930133973755326582e-02) (343, 5.04640382394096979196e-03) (344, 2.34109174904333222633e-02) (345, -1.12044920041150006251e-01) (346, 1.03686219970893223064e-02) (347, -4.50384701530243611312e-02) (348, -8.44442868356904130511e-02) (349, -2.37878614065790451593e-03) (350, 7.38171755513149230321e-02) (351, 9.52592801604765226919e-02) (352, 4.39861310363744567598e-02) (353, -7.06906101054018132235e-02) (354, 1.02046172592195089068e-01) (355, 7.78567224982694011670e-02) (356, 1.77446379458847738886e-02) (357, -2.12986609215469538392e-02) (358, -5.76297916698877213393e-02) (359, -2.02248831164984314845e-02) (360, 1.03648234504860811689e-01) (361, -8.44764518517308188317e-02) (362, 4.21613543482362712611e-02) (363, 1.96462008401358356746e-01) (364, -2.76797268544246299893e-02) (365, 9.06077771077824951906e-03) (366, 2.43255396539589413551e-01) (367, -1.39918608196291038848e-01) (368, -6.53323471611326894726e-02) (369, 5.07334248339779136927e-01) (370, -5.42091294190198205727e-02) (371, -4.25178569716515797339e-01) (372, 3.31480462374769857536e-01) (373, 1.70641566590410617699e-02) (374, -3.44418780610212874049e-02) (375, 1.84230978074963358537e-01) (376, -1.41767406943134971486e-01) (377, -1.15745148044903174017e-02) (378, 1.05478043002377858389e-05) (379, -1.22935345804314463680e-01) (380, -6.46936853766781616581e-02) (381, -7.02261655800456852106e-02) (382, -1.25208898782880467815e-01) (383, 9.45342315580030428945e-02) (384, -5.12554912227124528923e-03) (385, 5.86787662491331726833e-02) (386, 7.43383042579988662091e-02) (387, 1.27944697611072966126e-01) (388, -8.61872292855077742901e-02) (389, -6.87958949930673885342e-02) (390, 5.72918581002913526734e-03) (391, -1.28062153878569312537e-01) (392, 7.47926791087943302477e-03) (393, -1.69268390666304613390e-01) (0, 6.63776670868716361928e-02) (1, -7.69632359007481753332e-02) (2, 3.77687838084350135937e-02) (3, -1.89523639446692072907e-02) (4, 3.24267812760936592273e-03) (5, -6.82910330568099604998e-02) (6, -1.09409984886098182733e-01) (7, -5.17026228227334683218e-02) (8, -2.63256255353881800374e-02) (9, -1.04500375180410207121e-01) (10, -1.24514753062702737685e-01) (11, -5.90038907061586070935e-02) (12, 8.39188749746945655827e-02) (13, -6.31729901544825778181e-02) (14, 8.50129744172824219905e-02) (15, -6.11898952242534988066e-02) (16, -1.83471794845892731407e-02) (17, -9.47868700482373954808e-02) (18, -3.32152527152890369999e-02) (19, -1.16160538281773872277e-02) (20, 9.60176837997315374418e-02) (21, 4.01329119611824394753e-02) (22, 4.13438704541991240704e-03) (23, 3.79042169203279918910e-02) (24, 2.33457969745392984739e-02) (25, 7.73106394633350270384e-04) (26, -4.97811305678640889094e-02) (27, -2.60109788698371507953e-02) (28, 3.97049407940592083421e-02) (29, 4.64456448785339620633e-02) (30, -5.21824638387643688353e-02) (31, 4.19693350223712194347e-02) (32, 5.09069194431898824904e-02) (33, -2.20741819316978629684e-02) (34, 6.14661684103388339384e-02) (35, -4.11511571151300242777e-02) (36, 7.05454936303704926992e-02) (37, 9.00447576840255892172e-02) (38, -3.86061909380346207632e-02) (39, -1.09934946641338793238e-02) (40, -5.68690811903972970320e-02) (41, -1.82734993539470399852e-03) (42, 1.57211731143888228113e-02) (43, 1.96666147612558003810e-02) (44, 1.56125855076819884670e-02) (45, -3.47401240974751779333e-02) (46, -9.30985746546865999829e-02) (47, 1.08010545952529624092e-01) (48, 9.14780005938358245499e-03) (49, -1.08616959452321800578e-02) (50, -4.22941185130749491838e-02) (51, -2.89493133032744896782e-02) (52, 1.09990997448442012763e-01) (53, -1.29043240581041690485e-02) (54, -8.75143577834275182559e-02) (55, 3.01235341809549493630e-02) (56, -6.56633938787541254767e-02) (57, -1.40375220004486690739e-02) (58, 8.11554589008660234688e-04) (59, -1.08196607070825002311e-02) (60, -3.50968115590353652022e-02) (61, 1.96773456021649174874e-02) (62, -5.04085238195671331285e-02) (63, 3.13415031995679035925e-02) (64, -2.24367875911063337224e-02) (65, -7.91602207556914849729e-02) (66, -6.49313749656828115286e-02) (67, 1.73418123359410673509e-03) (68, -5.44992588834875349435e-02) (69, 6.03697581268988585357e-03) (70, 1.65094275132804369464e-03) (71, -6.68393001732337233012e-02) (72, 6.78260847271339728515e-02) (73, -1.26757063901022704044e-01) (74, -1.00772970119400812061e-01) (75, -2.05951405815422219914e-02) (76, 1.72232358478791938716e-02) (77, -7.83065198430847181355e-02) (78, -5.70858726712187708463e-02) (79, 4.00419904223044548219e-02) (80, 3.31181677797193138590e-02) (81, 3.69478243023109512166e-02) (82, -8.92115861251161455792e-03) (83, -6.64196636167191795108e-02) (84, -6.82256504096596799736e-02) (85, 1.74111120092195308107e-02) (86, 1.04411841316844625216e-01) (87, 2.84032915899777305135e-02) (88, -7.12842513690653128977e-02) (89, -3.56509728195916015744e-03) (90, -9.43764708244954064753e-02) (91, -8.34483200557203791403e-02) (92, -4.43513175238357676422e-02) (93, -1.21295769532364788867e-01) (94, 4.61402211851682578225e-02) (95, -3.83368282363188289663e-03) (96, -1.50923227324731967086e-02) (97, -9.16840401534374099812e-02) (98, 4.08418437526243613411e-02) (99, -6.12893001685580404714e-02) (100, 6.68244969563332458229e-02) (101, -2.52166658695739676066e-02) (102, 4.66754964021222212844e-02) (103, -4.27537400610360773801e-02) (104, 4.29037445728004261832e-04) (105, -1.19069259029710647346e-03) (106, 7.49091549333876088879e-02) (107, -1.72962372245280271432e-02) (108, -1.38100635570046603035e-02) (109, -1.69203949042009832437e-02) (110, -6.64682867395331999916e-02) (111, -7.53688359427428372639e-02) (112, 1.14119987685971036040e-01) (113, -3.85308824731902047067e-02) (114, -8.37290157836516196754e-02) (115, -1.10666271798667434356e-01) (116, -4.13068290727935522044e-02) (117, -4.55390515143960922240e-02) (118, -4.11597679988435494192e-02) (119, -1.02245226383363196909e-01) (120, 3.59522947841788495515e-02) (121, -1.42102314057719527479e-02) (122, -9.98560017240530950478e-03) (123, 6.40656533058523852686e-02) (124, 2.19230683110667179392e-02) (125, -8.99859238687954615665e-02) (126, 2.88296023771559793702e-02) (127, 5.41367338536297149076e-04) (128, -9.03156131976136228312e-02) (129, -1.33445551131626295727e-02) (130, 1.28769740103788134927e-02) (131, 6.09599154883786881198e-02) (132, 8.55570370525627621472e-02) (133, -9.85339147054055397579e-02) (134, -9.68407808996237934318e-02) (135, -4.29168503865414927012e-02) (136, 4.14973214582296454078e-02) (137, 8.34865084100082505136e-02) (138, -2.87219388723246940587e-02) (139, -2.92193283871832673593e-02) (140, -1.71858189716408538139e-01) (141, 6.28283105906809764135e-03) (142, 3.40687892013696695670e-03) (143, 7.46153102529058670500e-02) (144, -1.05952791570557230960e-01) (145, 3.27772674540193001413e-02) (146, 7.71025765953200908909e-02) (147, -7.93698041218583900946e-03) (148, -1.07932081314323649601e-01) (149, 2.20992197049861179015e-02) (150, -3.42705513789084634246e-02) (151, 8.06839820863742979151e-02) (152, 1.17536729246817614469e-01) (153, -1.84479292087058426020e-02) (154, 6.32371678302125483917e-02) (155, 8.00696304184737861487e-02) (156, 1.40764951962998707824e-01) (157, -6.05207885896700270578e-02) (158, 7.69556759967020415081e-02) (159, 7.46193512122475255399e-02) (160, -8.44973077870929054067e-03) (161, -4.43860443413246746197e-03) (162, -3.89755458666051629590e-02) (163, -6.41995736297510249946e-02) (164, -3.74997181850930255687e-02) (165, -2.75207756063043547379e-02) (166, -3.01817256628917930661e-02) (167, 3.42863948449382074934e-02) (168, 6.66452742735337971824e-02) (169, 1.08220830117883123900e-01) (170, 2.19034851372718096865e-03) (171, -2.90938693843049572818e-02) (172, -3.01325751364938908272e-02) (173, -1.00148785989448721456e-01) (174, -1.98256807945160345996e-02) (175, 7.48931958607727127353e-02) (176, 1.74106649032966437352e-01) (177, -2.44966319046367800305e-02) (178, 5.28282638566476211994e-02) (179, 1.64633357466702573424e-01) (180, 1.45882482964474841092e-01) (181, 8.39472610027146848299e-02) (182, -6.67249390260768182603e-02) (183, 2.94744898772040450630e-02) (184, 5.62352363308394817554e-03) (185, -2.11609169693275679658e-02) (186, -3.49521022543720499831e-02) (187, 7.32039564390720015608e-02) (188, 6.81803833533807246425e-02) (189, -4.63929429720849346303e-03) (190, -1.07234882285563937199e-01) (191, -1.02774704949602363468e-01) (192, -6.75035771437612879681e-03) (193, 3.31122438728668061492e-02) (194, 1.49681252802924200096e-02) (195, -8.27213663315717884217e-03) (196, 3.79353280027493050541e-02) (197, 5.93608189963642854381e-02) (198, 6.18563900692505330703e-02) (199, 1.50434398146395809093e-01) (200, 1.28631050884336128881e-01) (201, 1.81886469204696928081e-02) (202, -8.57983334815260456629e-02) (203, -1.22868688722972851934e-01) (204, -5.05375250378287642350e-03) (205, 7.06638484655723458916e-02) (206, 2.35310994353386815359e-02) (207, -4.52284265289587539272e-02) (208, -2.66788217507142296284e-03) (209, -6.74779421427358222507e-02) (210, -4.35498162129818525146e-02) (211, -2.99495982407838971795e-02) (212, -3.33387469957650561803e-02) (213, -1.37667713158246468597e-01) (214, -7.03099898484515484220e-02) (215, 5.97025637179598861470e-02) (216, -3.38921187945922164006e-03) (217, 6.03896201448199179684e-02) (218, -3.36338885201162285377e-02) (219, -2.19816088434598190526e-02) (220, -7.70574365275278755361e-02) (221, 1.00524389725376254306e-02) (222, 3.44593633050548162761e-03) (223, -8.02820133437297661638e-02) (224, -5.98948323372561694522e-02) (225, 1.00579103709829822955e-01) (226, 1.12510194167719200509e-02) (227, -1.45815869441388024086e-01) (228, 2.47869344636491885370e-02) (229, -3.39115829571576682389e-02) (230, 6.62314417416272945699e-03) (231, 2.77197722175968191971e-02) (232, 7.50295658188963182633e-02) (233, 3.80467985848689446704e-02) (234, 9.76510882279381375870e-02) (235, -7.23768298756261446725e-02) (236, -2.23045342229498122499e-02) (237, 3.68090396320390131346e-02) (238, -6.54684467420823482803e-03) (239, -8.02555923352114009006e-02) (240, 1.18114765832878568230e-01) (241, 8.37542699503863313781e-02) (242, 4.68676266820851339379e-02) (243, -7.35604431327603874163e-03) (244, 8.12283212546734828541e-02) (245, 7.11033265219627869103e-02) (246, -2.43677986912508443007e-02) (247, -6.31610869661662216457e-02) (248, -1.88020709065457591880e-02) (249, -6.21175008466460371048e-02) (250, 9.27535658400946011470e-02) (251, 8.49141004339571681125e-02) (252, 4.06151134831373647471e-02) (253, -8.30629745149585596575e-02) (254, 9.15737449748152271267e-02) (255, 1.94959761643967201261e-02) (256, -9.37896456139139522712e-02) (257, -2.43881409502373983078e-02) (258, -1.26030358152244531533e-01) (259, -7.77163936018002016182e-02) (260, 5.92690678612670038272e-02) (261, -2.13631450771196822191e-03) (262, 6.13622055719911102534e-02) (263, -1.69060849460004013201e-02) (264, -7.50490278693597412385e-02) (265, 3.10683803132683969417e-02) (266, 6.20442930037255757636e-02) (267, -3.86254842395547318135e-02) (268, -6.51039388771557092639e-02) (269, -9.41014285479672453472e-03) (270, -1.98761972833009642470e-02) (271, -1.05981094727341986633e-02) (272, -1.79735579314546332907e-02) (273, -1.16139642414735677622e-01) (274, -3.85876288552277971200e-02) (275, -5.81352688284039742506e-02) (276, 4.10352584817305771070e-02) (277, -1.11709879561487229749e-02) (278, -2.46349384960696830491e-03) (279, -4.32570775363619805520e-02) (280, 6.45583382691970603107e-02) (281, -7.75211934757721356226e-03) (282, -3.43784068090745020818e-02) (283, -6.92513657880039629200e-02) (284, 4.67817307333926804547e-02) (285, -7.09804417507586687952e-02) (286, 5.60844986245566043404e-02) (287, 1.49520188787147130516e-02) (288, 4.08519085871717549385e-02) (289, 8.30263288485224570934e-02) (290, -1.26393754229844196280e-02) (291, -2.86789606549493272802e-02) (292, -9.93354098647936112343e-02) (293, -1.02439166397832848165e-01) (294, 1.63226379078610234208e-02) (295, -2.51572024716717190795e-02) (296, 6.44432832364405516756e-02) (297, -2.81940861806319817418e-02) (298, -4.34518133878677159654e-02) (299, -5.95160567380889835021e-02) (300, 2.66422410059960826367e-02) (301, 6.93398533989678100831e-02) (302, -9.73085409460854901254e-03) (303, 4.24803015745162937389e-02) (304, 4.23067921559798776343e-02) (305, 6.06415582344809328541e-02) (306, -7.46648506287325430808e-02) (307, 6.28186627691150606401e-02) (308, -5.21630709780826068434e-02) (309, 7.90984947678533695248e-02) (310, -5.75908864133647876993e-02) (311, 8.89193780054164106819e-02) (312, -1.64336646037651357144e-02) (313, -5.82450408813187728296e-02) (314, -1.11344367917846381877e-01) (315, -6.52674698110650985949e-02) (316, 4.31112133348824366763e-02) (317, 3.31732540586554408568e-02) (318, -6.58235330032366505737e-02) (319, -9.60234273123796756855e-03) (320, 3.86819050435602898586e-02) (321, -1.02728129255794317642e-02) (322, 2.24350468834358281189e-02) (323, -3.29747954261556605604e-02) (324, 1.18156741691151385282e-02) (325, -5.39304537631561248245e-02) (326, 7.07827492929082591200e-02) (327, 2.33085488299255363942e-02) (328, 3.54358381310262218755e-02) (329, 9.54900253397647003940e-04) (330, 2.42735959975420891033e-02) (331, -7.84455903330513737437e-02) (332, 1.00129178228640543236e-03) (333, -8.44684022991528948854e-02) (334, 8.12575751064169155002e-02) (335, -8.40765517817083085639e-02) (336, 8.90755513365904111334e-02) (337, 6.86145984423042754052e-02) (338, 1.65076894931182084625e-02) (339, -1.43484653182800708793e-01) (340, 3.90513675620781722242e-02) (341, -1.69231765157559499446e-01) (342, -1.01817944824549089233e-01) (343, 9.86720558465023767081e-02) (344, 2.58559106311558734026e-02) (345, -3.72734484997329224010e-02) (346, -6.39409534101295362607e-02) (347, -3.94908409275668351168e-02) (348, 1.61311654081473188072e-01) (349, -3.96196955787629853663e-02) (350, 6.25221317026054546062e-02) (351, 4.81673222801368150492e-02) (352, 8.69519192332047913263e-02) (353, -1.80935396119147849647e-02) (354, 1.34972810200802983971e-01) (355, 5.88130256580340071704e-02) (356, 1.40155260257202683022e-02) (357, 1.16572487807743208066e-01) (358, -6.16964790729039799788e-02) (359, -2.80988507399600878633e-02) (360, 1.80406852569680808962e-01) (361, -2.62452170554808295044e-03) (362, 2.32547123550640305600e-02) (363, 2.47109290041169354923e-01) (364, -7.43048344662386034409e-02) (365, 2.40044056364650884583e-02) (366, 1.14675351653696300236e-01) (367, -3.14894136978074334898e-01) (368, 1.26176508633143530380e-01) (369, 3.65817750352240511624e-01) (370, -6.31277178643876224484e-01) (371, 5.46251868393745620978e-01) (372, 3.03031086725919440727e-01) (373, -4.43827551711250156696e-01) (374, 1.84515389530286122444e-01) (375, 1.41804547641985745354e-01) (376, -1.86621827080068802829e-01) (377, 1.13429629581701191254e-01) (378, 1.38715968772584907764e-01) (379, -9.20335299240876703042e-02) (380, -1.55031896490417427786e-02) (381, 4.55915315900427275952e-02) (382, 1.32520340124653284580e-02) (383, -4.83984545408719657456e-02) (384, 1.26786038897361424960e-01) (385, -3.54704276828611553274e-02) (386, 3.94353856258407853286e-02) (387, 8.02425337877630401318e-02) (388, -2.16672687848258713368e-04) (389, 7.86900074338658661599e-02) (390, 1.32837786704033955498e-01) (391, -7.66240467434727429152e-02) (392, 5.46673809537895002975e-02) (393, 8.18569647481726947458e-02) (0, -4.43245366542306465374e-02) (1, -1.36021520981255503863e-02) (2, -7.45876139501924356745e-02) (3, -2.18501649404296248436e-02) (4, -6.61618408916189171265e-02) (5, -2.12828273007927074034e-02) (6, -3.54819603692626689417e-02) (7, -6.45427391721638959998e-02) (8, -5.00570439038605999316e-02) (9, -5.30013578141584132397e-02) (10, -4.28455075204623586638e-02) (11, -9.19398346403530880577e-02) (12, 3.48291474775743875592e-02) (13, 2.45472694165069713068e-02) (14, -1.07132292704887763235e-01) (15, -7.35701208513970476149e-03) (16, 5.97855594145466837097e-02) (17, -4.05358839497528475326e-02) (18, 6.94031774142472857037e-02) (19, -6.45740619768550572211e-02) (20, -6.56396439794623698383e-03) (21, -2.52193890713850905894e-02) (22, -6.59087878249671188513e-02) (23, -6.44497670697802560458e-02) (24, 8.66027399117687418650e-02) (25, 7.69643193838535494278e-02) (26, 9.03123458620011115849e-02) (27, 1.78902983415219554719e-02) (28, -8.48293985754235840835e-02) (29, -1.55151928137348890657e-02) (30, -2.79975765923585334649e-02) (31, -2.08776146025460140193e-03) (32, 6.71264476660407005681e-02) (33, 1.83043291282049304380e-02) (34, 5.99884774041850241111e-02) (35, -7.71282365392020746730e-02) (36, 1.00093213439791453578e-01) (37, -7.46563185941219176200e-02) (38, -1.68588523617538531274e-02) (39, -7.38153599515149194676e-02) (40, -5.96756936583067443269e-02) (41, 4.66703808714388906909e-02) (42, -5.97809940052075675099e-02) (43, -9.46849088165374469517e-02) (44, -3.42155032340726306117e-02) (45, -3.84109088350054750371e-02) (46, -1.80983469589339647510e-02) (47, -8.73031215266951016174e-02) (48, 1.63805401084258887845e-02) (49, -1.99389099444053710664e-02) (50, -3.54432424398667955678e-02) (51, 1.00120603496182070113e-01) (52, 7.61197126329776069253e-02) (53, 3.92038424034309856969e-02) (54, -6.12447065051146960490e-02) (55, 4.05947293383878554662e-02) (56, -4.32019041473999179659e-02) (57, -7.86023430172944070904e-02) (58, -1.53139765572206619504e-02) (59, -1.11816070532447478405e-04) (60, -3.41165220601981344917e-02) (61, 3.86598857774705095824e-02) (62, 5.89073401934532489554e-02) (63, 4.42827327658305153202e-02) (64, -4.37899241672373359946e-02) (65, 2.88874625077007105012e-02) (66, 4.41343144610665261141e-02) (67, -1.05617543712709482939e-01) (68, 3.19411839305729083893e-02) (69, -6.85888298018036551840e-02) (70, -2.83998005814055341778e-02) (71, -8.47579244658630964748e-02) (72, 6.28222420237575518431e-02) (73, 3.33020310020872966489e-04) (74, -1.05097764894518191925e-01) (75, -8.29619862075595126960e-02) (76, 2.74576624576670369482e-02) (77, 1.24572011652711849700e-02) (78, -3.42682486008991440962e-02) (79, -2.75088614305953639561e-02) (80, 9.67238072467353215966e-02) (81, 1.15562339532619060001e-02) (82, -5.36045316802676377610e-02) (83, 1.02767094072576725683e-01) (84, -7.84607813664282283117e-02) (85, -3.46958610324559144078e-02) (86, 4.67572687846549012169e-02) (87, -5.10091148145337403008e-02) (88, -2.10402444670105687186e-02) (89, -5.54272548611077497949e-02) (90, 7.12898777707811903692e-02) (91, -5.73924357834779408361e-02) (92, 5.73658273785706135373e-02) (93, 4.81481453972434983446e-02) (94, -1.17991995678908122985e-02) (95, -9.82172372919977998418e-02) (96, -6.05980948902871876388e-03) (97, -5.01276088838338851339e-02) (98, -3.77978475073517464211e-02) (99, -3.87126951847832842524e-02) (100, -4.58097258599614934327e-02) (101, 4.63557024499544091667e-03) (102, -4.94428455669968722197e-02) (103, -6.30832564510329790730e-02) (104, 7.72656458890031844211e-02) (105, -3.10722613222286815626e-02) (106, -4.19664553673858228833e-02) (107, 2.96474005404696178134e-02) (108, 1.20322603050984050510e-01) (109, -3.94369363063883354020e-03) (110, 7.64043843068258760054e-02) (111, 8.09862455529034713786e-02) (112, -7.55989006657692697022e-02) (113, -1.02893161480602068902e-01) (114, 8.05040807589640222686e-02) (115, -4.45971168549047572438e-02) (116, 1.48342935238377250651e-02) (117, 2.61386991124116334351e-02) (118, 1.91082835120142367769e-02) (119, 8.24915923610040763281e-02) (120, 7.10377069638559732745e-02) (121, 1.71988573901059385585e-02) (122, 8.93235084576550625313e-02) (123, -1.76634958744729363145e-02) (124, -4.26992381962221362324e-02) (125, 5.85154432632863617803e-03) (126, 1.30305164842815339454e-02) (127, 1.49391392506651489447e-02) (128, 9.18790641901344046216e-02) (129, 8.01609980492172247146e-02) (130, 6.97493238451769720365e-02) (131, -5.78102156798802127580e-02) (132, -5.82612388957272631096e-02) (133, -8.45649412539819511636e-02) (134, -5.60329333482566249724e-02) (135, -5.73467723866088463502e-02) (136, 3.23424047172315423312e-03) (137, 9.67815229452803106602e-03) (138, 7.13884875382957279077e-02) (139, -4.92105589793540975502e-03) (140, -1.68150045673824063974e-02) (141, 6.82135538678889097319e-02) (142, -4.54724213673799379509e-02) (143, -4.38870190809586904757e-02) (144, 5.07772589064403451209e-02) (145, -2.73339181948106212106e-02) (146, 2.11276327034970934013e-03) (147, 1.17860779092229268211e-02) (148, 7.87249554538753393285e-02) (149, -1.14574478564179974005e-01) (150, -6.08473337494807448023e-03) (151, 3.52553962573620878473e-03) (152, 1.64230911052690060903e-02) (153, -2.29909791412976592662e-02) (154, -1.03551311903494813738e-01) (155, 8.97160251061255159533e-02) (156, 5.29017827729223455435e-02) (157, 5.48199923785598203230e-02) (158, 4.71452961285305765377e-03) (159, 1.32205779303456449902e-02) (160, 2.49112971296369632712e-02) (161, 4.08201707150693000187e-04) (162, 7.58131513779081306348e-02) (163, 3.51173882249706872938e-02) (164, 2.11130951335849331718e-03) (165, -8.56620124234917373895e-02) (166, -9.47263558826138551971e-02) (167, 1.23965441842560433749e-01) (168, 4.19490797399614534502e-02) (169, 1.02243709272538813027e-01) (170, -2.00782704659809366210e-02) (171, 4.28035889396629620762e-02) (172, 5.13810079517898962709e-02) (173, 3.66646540637387829964e-02) (174, 8.44720225835918492319e-02) (175, -2.85947226656702475911e-02) (176, 3.07555173513935535892e-03) (177, -3.72083805121473445987e-02) (178, -5.52868379366633286298e-02) (179, 2.50220936218919914884e-02) (180, -2.50894711287077028239e-02) (181, 2.92754618283606153628e-02) (182, -2.94210930949491801870e-03) (183, -7.50984593472349415411e-02) (184, -1.05116100402118370361e-01) (185, -4.34771440686736870829e-03) (186, 1.29166773777088711439e-01) (187, 9.07459332014071973216e-02) (188, -8.22864867108135111806e-02) (189, -4.60918031630231650464e-02) (190, 5.18512046763057454779e-02) (191, 7.99956889226015321892e-02) (192, 1.28244458657271631630e-01) (193, -3.11559807246541038694e-02) (194, -2.65103008929999661714e-02) (195, -2.65899555450981050792e-04) (196, -3.91474950666216015005e-02) (197, 2.61349339940266968407e-02) (198, -3.24303233037040172793e-02) (199, 8.35999399158527251030e-02) (200, 9.75836690452474772584e-03) (201, 3.72179288150396719859e-02) (202, 3.78944311019167937027e-02) (203, -4.41319133720647210906e-02) (204, -4.53778370976416628446e-02) (205, 2.87131464653683429744e-02) (206, -6.25630863526892289084e-02) (207, -7.18118665886736950998e-02) (208, 1.08330505741019128552e-01) (209, -2.18092429927670729273e-02) (210, -7.79774282768638943297e-02) (211, -2.78647971153680208689e-02) (212, 9.01706052039228656003e-02) (213, -4.46320012466779828669e-03) (214, -2.16606739723794114449e-02) (215, 7.91019159662841725433e-02) (216, 9.09535167882253720029e-02) (217, -2.69148778570883033534e-02) (218, 2.17077987183474652166e-02) (219, -9.83316731794325743499e-02) (220, 1.23288523438697769641e-01) (221, -5.45009003386484058851e-02) (222, 8.90079082260169518470e-02) (223, 6.28299545845838885993e-02) (224, 4.83606085900901982999e-03) (225, -4.45673359130843577125e-02) (226, -5.14214811994489831570e-02) (227, -3.83633911527547222242e-02) (228, 7.85837864951148823422e-02) (229, -5.10262878625482416313e-04) (230, 8.56398590975368800837e-02) (231, -2.15116193068181776882e-02) (232, -9.60344999359604989397e-02) (233, 1.38075708235873197832e-02) (234, -1.72923234072860816657e-02) (235, 2.95157474729471807143e-03) (236, -4.15443839093034283927e-02) (237, 4.15559889125147186029e-02) (238, 6.90026945673184316510e-02) (239, -7.54593470902355512031e-02) (240, 1.00078702822091053504e-01) (241, 1.08559617910580982758e-01) (242, 3.69795892658665512065e-02) (243, 4.10976039736333786934e-02) (244, -2.88268562819423632138e-02) (245, 8.88988787041602168681e-02) (246, 5.74083893793995367338e-02) (247, 1.48503761403139672437e-02) (248, -2.50611475649551024292e-02) (249, 2.14586088211867233311e-02) (250, 2.01080557487398475791e-02) (251, -6.24001395031391764556e-02) (252, 8.98238313118941006374e-02) (253, -6.72659034808017509965e-04) (254, 3.54407303740205820164e-02) (255, 3.54849924289516935327e-02) (256, 7.95741781921225632690e-02) (257, 6.88949131780876994346e-02) (258, 2.75298304993539695584e-02) (259, 4.60181221027514894550e-02) (260, -3.52608712868520204897e-02) (261, 1.25152182046288414780e-02) (262, -1.07131904205743547220e-01) (263, -5.54383291212574846885e-02) (264, -4.94985382280412750111e-02) (265, 4.06876814997621377712e-02) (266, 4.63067698454305357036e-02) (267, -1.85174711600121048860e-02) (268, -1.21887006977307189165e-02) (269, 5.57372816254492892130e-02) (270, 7.46403612884721356230e-03) (271, -3.15157307750906917621e-02) (272, 2.88929973774727823221e-02) (273, -8.19256078258541187154e-02) (274, -6.09331984785647234881e-02) (275, -4.84345742138449497638e-02) (276, 9.01092546548420691988e-02) (277, -7.20880865396700404313e-02) (278, 2.11620007667304953214e-02) (279, -2.69392282070141306227e-02) (280, 1.04016996057514207394e-04) (281, -3.92596031460317462791e-02) (282, -1.86808808688852037716e-02) (283, -1.39489688842302540783e-02) (284, 2.34547725924382152729e-02) (285, -6.22731728649618052063e-02) (286, -6.24074737816754168684e-02) (287, -5.77018446876326682182e-02) (288, -1.06300070291774143016e-01) (289, 5.53724783896731367894e-02) (290, -4.47041901245764927708e-02) (291, -1.51821075624017261252e-02) (292, -5.20477016060891207669e-04) (293, -4.60680404200668053294e-02) (294, 3.13918368441142708880e-02) (295, -2.87734287818713976859e-02) (296, 8.35299101500409646448e-02) (297, 8.53789657637312078553e-03) (298, 7.67104721947514667235e-02) (299, -1.82746425845172581759e-02) (300, -5.72420305689006758687e-02) (301, 1.41854585128639160141e-02) (302, 8.47167354715770010154e-02) (303, 1.07228528413085402726e-01) (304, 4.41907843742225889955e-03) (305, -6.57882683730139639078e-02) (306, -5.46586504860611457901e-02) (307, -1.22463419733784568272e-02) (308, -6.10548247687134199024e-02) (309, 3.86579711723846128346e-02) (310, 7.19109512396448047333e-02) (311, 9.55904223581494350004e-02) (312, -4.25221979984318210199e-02) (313, -4.34450587668768345440e-02) (314, -4.61768103826856821797e-03) (315, 4.86610620165232876655e-02) (316, -5.41851021331501148115e-02) (317, 4.28648907544893903454e-02) (318, -5.49204651093267159911e-02) (319, -3.86037627455894580275e-02) (320, -4.93598734450231696469e-02) (321, -2.19998629005215273757e-02) (322, 4.29633452481553573810e-02) (323, 8.59476514600738261684e-02) (324, 1.01185224322352992216e-02) (325, -5.66802537651911048089e-02) (326, -2.19292637201687415360e-02) (327, 4.97113339499646172959e-03) (328, 4.40874282432867567461e-02) (329, -3.16185913217874800529e-02) (330, -8.13168753465342009079e-02) (331, -7.16842320222069590008e-02) (332, 5.65954489754851020056e-02) (333, 8.72745769653343606009e-02) (334, -6.54583422373266332617e-02) (335, -3.71135281119485058166e-02) (336, -1.03502790199035910046e-01) (337, -1.83205446425776519170e-02) (338, 1.28326685376166510499e-01) (339, 4.06883402466143573317e-02) (340, -1.28730461280285285453e-01) (341, 1.34860292530406128408e-01) (342, -1.22040348785064922676e-02) (343, -8.09307952540591346580e-02) (344, 2.14089755727125893858e-02) (345, 1.19381726497113944269e-02) (346, 5.83153257523770576776e-02) (347, -9.60650811807225307737e-02) (348, -3.97603536216734748665e-02) (349, -7.62898521296871967579e-02) (350, -5.43650730659852518545e-02) (351, 6.70983862043297019095e-02) (352, -7.13408139559269880575e-03) (353, 5.00176607746883120087e-02) (354, 3.49505984033763664187e-02) (355, -1.05513130854484701859e-01) (356, -9.02513600701609491894e-02) (357, -9.32928057341319977303e-02) (358, 2.40354250817272005469e-02) (359, 6.37099822723411618464e-02) (360, -2.01463688575680595350e-02) (361, 6.16969265613627679268e-02) (362, -8.73612392770882623116e-02) (363, 2.37450618135157734412e-02) (364, 8.12928393022103179533e-02) (365, -1.31021652300856744633e-01) (366, 2.07919583938625363029e-01) (367, 2.05560275853283486169e-01) (368, -2.32341293509587348831e-01) (369, 4.02261814446734644601e-01) (370, 5.41061330744719848340e-01) (371, -7.70770086487850947243e-01) (372, 1.01195771582721791293e-01) (373, 1.17156235471604835974e-01) (374, -1.73959510661835181633e-01) (375, 1.52635653363940720917e-01) (376, 1.03042021445373874200e-01) (377, -5.26540447089837715389e-02) (378, 1.03180109060169569735e-01) (379, -8.45489615201888977669e-02) (380, 2.49338556231764891385e-03) (381, -7.50351731142366862315e-02) (382, -1.09292082401816634252e-01) (383, -9.57043299661359397890e-02) (384, -7.98348523520821806709e-02) (385, 3.30950493290443278904e-02) (386, -7.35893022390822632017e-02) (387, -7.90357777821528439954e-02) (388, -8.72772943135132345249e-02) (389, 4.48208576282842982574e-02) (390, -1.06988428717524453049e-01) (391, 2.06318418788934525299e-02) (392, 5.37841445157648690573e-03) (393, -1.11281648557125953380e-01) (0, 7.92706860381916095237e-02) (1, -7.00457622677668478861e-02) (2, -1.89480929504925107998e-02) (3, -5.53131876919811505365e-04) (4, 6.55852040800083690986e-02) (5, 5.97215480037320278761e-02) (6, 8.01588632865716105291e-02) (7, 3.39566606720407559994e-02) (8, -1.43740610783183835053e-02) (9, -8.73096521955858961839e-02) (10, 1.85715753228816345122e-02) (11, -6.18377835288775323797e-02) (12, 1.07603550911302484061e-01) (13, -3.16658088324237099731e-02) (14, 6.45120071722773413825e-02) (15, 8.42377741716582029152e-02) (16, 3.81711032629617310133e-03) (17, -1.93667673534273707125e-02) (18, -7.09080405312389749906e-02) (19, 2.82370239072341870645e-02) (20, -1.08477676608369232904e-03) (21, -5.97060958200429370279e-02) (22, -1.68949845544654961293e-02) (23, 1.32750362375700509121e-02) (24, -3.08256585836248382659e-02) (25, -2.10814684321572638759e-02) (26, -5.42923661621455989207e-03) (27, -3.71201655203565392127e-02) (28, -5.25405482735010892492e-02) (29, -5.80473246712384718937e-02) (30, 1.41013399202846306801e-02) (31, -9.38672101715466583594e-02) (32, -4.60761065852823489819e-02) (33, -1.18136086077294338859e-01) (34, 3.49766073223106918610e-02) (35, -6.25292872032369440038e-02) (36, 5.16859706565483967289e-02) (37, 2.58050688698911769026e-02) (38, 4.04199341867714639909e-02) (39, -2.61994036378527701825e-02) (40, 9.11241429816089798521e-02) (41, -2.86655050035698119593e-02) (42, 6.89085093534509869617e-03) (43, 3.35617464949589314194e-02) (44, 5.24931808349999723395e-02) (45, -6.45763203468743551827e-02) (46, 5.24157076579766095792e-02) (47, -4.03006539773638761126e-02) (48, 2.75195304778182610328e-02) (49, 6.13293284839272964670e-02) (50, 6.68048146415381738361e-02) (51, -6.68789946801472690030e-02) (52, -8.27501041755765165409e-02) (53, -6.07366343433121333439e-02) (54, 6.45845143551797284953e-02) (55, -3.05862265609604250249e-03) (56, -7.88693671259990958244e-02) (57, 5.87116315716602193975e-03) (58, 4.41688595855065577189e-02) (59, -5.52654272638141569329e-02) (60, 1.10173869461171164419e-01) (61, -2.52647716937067726845e-03) (62, 8.17884195845822170590e-03) (63, -1.16209230350090064743e-01) (64, 6.67904075017082370092e-03) (65, -5.71810659508255880734e-02) (66, -5.04686458681017982575e-02) (67, 3.23233729156573654229e-02) (68, 9.68535391438331005887e-02) (69, -1.07794936457139015062e-01) (70, 3.81872336875779122556e-02) (71, 3.16593677366054648825e-02) (72, -2.89778346107699147360e-02) (73, -6.05540882477643982451e-02) (74, 1.79397254668671943256e-02) (75, -8.30709263102301087578e-02) (76, 2.50608134632589775459e-02) (77, -6.27610162272248528481e-02) (78, -5.76744109240086566537e-02) (79, -6.98437203393880851054e-02) (80, 9.56329058496633299669e-02) (81, -5.69170018214000539292e-02) (82, -6.50830102684539762298e-03) (83, 5.80182143356069088269e-02) (84, 1.26580691264843604033e-02) (85, -2.09310185797041796441e-02) (86, -1.51397310132102991959e-02) (87, 7.63141981139376091026e-02) (88, 9.12603076514529876206e-02) (89, -8.66703241627138631920e-02) (90, 8.98789889650686013578e-02) (91, -2.81956780568267317486e-03) (92, 5.11916931062897997973e-02) (93, -2.83025596460408090937e-02) (94, 5.79086004408794624565e-02) (95, -4.26632519029282869516e-02) (96, 2.11079914867523012190e-02) (97, -8.56188278453970524895e-02) (98, 1.50254755308975862516e-02) (99, -4.27880746898342198548e-02) (100, -6.34744639188562081999e-02) (101, -1.83476467916731528218e-02) (102, -4.78596124673370260094e-02) (103, -1.56303298294806700119e-02) (104, 6.29655244942973618683e-02) (105, 2.25000638559938147265e-02) (106, 8.94947856543256738127e-03) (107, 1.06449639403322429687e-03) (108, 2.02395631567267308970e-02) (109, 9.23804639300528224188e-02) (110, 4.45735852965624956834e-02) (111, 5.26160669817065385079e-02) (112, -7.56319899501036035927e-02) (113, -5.48518659500835115139e-02) (114, 1.01600978578700526511e-02) (115, 2.20689455332301852353e-03) (116, 3.69788195152137262947e-03) (117, -9.35524657810002796543e-02) (118, -4.65761489438205888991e-02) (119, -1.92076873008209525473e-02) (120, -9.05074966698597299652e-02) (121, -8.30291388687463272067e-02) (122, -5.74516426262287674409e-02) (123, 1.05240492211535835443e-01) (124, 1.14063887133265817742e-02) (125, 7.43123331286310029320e-02) (126, -3.95518657684899507809e-02) (127, -9.87554728143496055037e-03) (128, 4.44831363567088355904e-02) (129, 7.43553509768110909572e-02) (130, 6.00885903936461962527e-02) (131, -9.88027125940049433250e-02) (132, 8.97930348649028306496e-03) (133, -1.08087702148891920406e-01) (134, 1.76390173246082908754e-04) (135, -5.75870694649026487744e-02) (136, 1.00072869078851114932e-02) (137, 1.02614914718832397900e-01) (138, 2.82467465638943752981e-02) (139, -1.84000924393196221840e-02) (140, -1.86530934739172378489e-02) (141, -4.55821105691416386674e-02) (142, -3.98691904995806881140e-02) (143, 5.69377660565374976720e-02) (144, 3.18326537574447898660e-02) (145, 3.01164899703691736621e-02) (146, -2.43059521131975264652e-02) (147, -1.02773955671078109919e-01) (148, 5.94841280242953962532e-02) (149, 8.40245893825101869412e-02) (150, -1.54289623467105917187e-02) (151, -6.91792189626013465098e-02) (152, 9.92960514180478703850e-02) (153, 1.35965672576968191199e-02) (154, -7.33098834740650434627e-02) (155, 6.15784381436981689134e-03) (156, 4.93903116401420358428e-02) (157, -5.27279700047824581577e-02) (158, 6.78273038737351036120e-02) (159, 3.06943430271532221795e-03) (160, -8.80122420856291332036e-02) (161, 1.10524735356758840171e-02) (162, -3.53595730903674965173e-02) (163, 5.11282580860442578685e-02) (164, 2.84204182216686498247e-03) (165, 7.19225297799941376553e-02) (166, 5.71529451229651416777e-02) (167, -5.01570718716474531207e-02) (168, 8.15266120103008140596e-02) (169, -1.12467068604449934449e-02) (170, 2.49634319072578117482e-02) (171, 4.37409617477765577664e-02) (172, 6.90597676191123804879e-02) (173, 7.70162390745442043682e-02) (174, 2.69705257654988157789e-02) (175, 4.93983319518722721608e-02) (176, 1.50329935379120233074e-01) (177, -4.97380394646224979760e-02) (178, -4.70994069405648446702e-02) (179, 5.74626480111239956727e-02) (180, 1.27071351335042881381e-01) (181, 3.46090170098122124065e-02) (182, -3.21381299338070608451e-02) (183, 4.96928439954462952688e-02) (184, -3.78427687447462010595e-02) (185, 3.91359513631885300167e-02) (186, -8.24314091982997487751e-02) (187, 1.02453004701903938045e-01) (188, -6.86464113541567361176e-02) (189, -1.27556191802052111550e-02) (190, -9.59281005013467164000e-02) (191, -1.03652374899214944071e-01) (192, 1.00899964228444508074e-02) (193, 4.16195288517537051454e-02) (194, 1.10621204801953823549e-01) (195, -4.46202985820267315764e-03) (196, 7.41698964399816751403e-02) (197, 2.64433767543763610652e-02) (198, 7.07235310523608301514e-02) (199, 6.14691307807219908255e-02) (200, -3.88737442191344900744e-02) (201, 1.45613788024919251635e-02) (202, -3.25860686966454246583e-02) (203, -1.22616391446356012840e-01) (204, 2.67207869272374255731e-03) (205, -6.88854069311648636864e-02) (206, -7.92267733680204200297e-02) (207, -4.31741174515558184810e-02) (208, -2.76367213872349797021e-02) (209, -3.58173444312085559327e-02) (210, 2.42299219798416606841e-02) (211, -1.45251302480579429222e-02) (212, -5.51975311700084597666e-02) (213, -5.56914990044620819565e-02) (214, -3.64757779071597718068e-02) (215, 9.28679078176037134384e-03) (216, -9.18875977788927295054e-02) (217, 4.05962400374983434226e-02) (218, 3.52419617538078308594e-02) (219, -4.21238256102386202095e-02) (220, 2.13861699519347116250e-02) (221, 7.99964513690929607259e-02) (222, -4.37043454649457679961e-02) (223, 6.25722989364220910646e-02) (224, 3.73931998113465544065e-02) (225, -4.00288015309771330608e-02) (226, -3.96657159943650944323e-02) (227, -1.46460571987564708296e-01) (228, 6.30367060492541125827e-02) (229, -5.31947500840281445322e-02) (230, -8.67937934252887982600e-02) (231, -7.92314856091609065469e-02) (232, 9.94880971702553629221e-02) (233, 1.10511795003884333299e-02) (234, -9.60171670209696015430e-03) (235, -5.35927523489563156778e-02) (236, 1.40410233104177519653e-02) (237, -5.46357022033570373376e-03) (238, -3.87846880500751431398e-02) (239, -5.35466533804529673524e-02) (240, 8.64317247957737261332e-02) (241, -1.16392201047362989219e-01) (242, 1.92368046639112937057e-02) (243, -7.03633784391954116705e-03) (244, -2.62920363169806409198e-02) (245, -9.78521039244788226608e-02) (246, 7.42921403994868945198e-02) (247, -8.95393406708820532858e-02) (248, 1.56493134198032839144e-02) (249, -5.26463300162090114265e-02) (250, -1.93234046019029881425e-02) (251, 4.41416035522971053617e-02) (252, 1.01984805754255974941e-01) (253, 1.51144791749908639217e-02) (254, 5.12870261752515835263e-02) (255, -1.32276110948403840401e-02) (256, 3.80940969962581948982e-02) (257, -7.46037094267231193356e-02) (258, 4.44190161115758097576e-02) (259, 4.71676543971450840109e-02) (260, -2.88253341895276342377e-02) (261, 6.66710144978123891990e-02) (262, -7.17389456882186887787e-02) (263, -1.01643882829241007093e-02) (264, -4.70559014244430681706e-02) (265, -5.57926793527169645470e-02) (266, 4.73313122088253393493e-02) (267, -7.35021207902023104852e-02) (268, 8.83980823950755723040e-03) (269, 8.38991030492290817966e-02) (270, -1.56549499815294944349e-02) (271, 5.38180105829901417325e-02) (272, 1.07029400472528540833e-01) (273, -8.85668826806918357830e-02) (274, 7.67000567508840380704e-02) (275, -7.70836200883496386327e-02) (276, -8.01459523656288391757e-02) (277, 1.62437995492282633014e-02) (278, -1.29088874631935641990e-02) (279, 5.14232907310275821899e-02) (280, 1.10411696783547008671e-01) (281, 4.89912969638584827603e-02) (282, 3.57251959678785355190e-02) (283, 1.05793338441322215537e-01) (284, 1.82129732620437898016e-02) (285, -5.17496336273810808581e-02) (286, -8.82511172246604365388e-03) (287, 4.77676323392229665310e-02) (288, -2.66128897111540287101e-03) (289, -4.55239879945365452651e-02) (290, -6.89740041082091553948e-02) (291, 4.37883653252084947827e-02) (292, -1.24569394348702081055e-01) (293, -6.34151181826883292292e-02) (294, -8.32794183032413704026e-02) (295, 6.03197141220710927878e-03) (296, -3.78898022348333595594e-03) (297, 2.86182510523271121938e-02) (298, 6.73258733809634687256e-03) (299, -8.61679005810938036802e-02) (300, 2.55087621415172743911e-02) (301, 6.82733511932048231508e-02) (302, 1.36589921012645089393e-02) (303, -3.62479307902891303983e-02) (304, -9.60785971515352305028e-02) (305, -8.39218035532820517963e-03) (306, 3.10224714670458770471e-02) (307, -3.69635879493718233491e-02) (308, -6.63768093666576852740e-02) (309, -3.53608615669104703327e-02) (310, -9.62109998043067793372e-02) (311, -1.10149359033257496221e-01) (312, -1.30713120311101771431e-01) (313, 8.10187281661404329336e-03) (314, 7.76959980667204647142e-02) (315, 8.18255408890395004307e-03) (316, -8.04744975011933705300e-02) (317, -4.40742908936076344117e-02) (318, 7.27958209575264164615e-02) (319, -9.86664458145180374091e-04) (320, 6.07548213613604420891e-02) (321, -7.71024368411063476536e-02) (322, -6.99430031316712608191e-02) (323, -1.13780755142330689683e-02) (324, -1.65962247917812860676e-02) (325, -1.98823994612346843791e-02) (326, 8.76695794974991088333e-02) (327, 7.68520215647272436632e-02) (328, 1.17693996597478200972e-01) (329, -2.78224485908480905633e-03) (330, 6.12101450761798546174e-02) (331, -4.42704989634395106035e-03) (332, 5.27683190012775407349e-04) (333, -3.19736488520427977744e-02) (334, 5.41257372868784517039e-02) (335, -4.40625759963899563121e-02) (336, -1.17179725252990876716e-01) (337, -3.42911189392503673590e-02) (338, -8.90875031879205664387e-02) (339, -2.30305343900598008533e-01) (340, 7.01594211072570500543e-02) (341, -1.28402790390737930881e-01) (342, -1.65832258351871597579e-01) (343, 4.19266818721059641994e-02) (344, 2.06746408666504295770e-03) (345, -8.03240690658037354011e-02) (346, -3.05056502365587955961e-02) (347, -5.58937463936947688536e-03) (348, 7.69901647857128626495e-03) (349, -5.03493159248067645439e-02) (350, -7.66979471634060133711e-02) (351, 1.03198566243204947757e-01) (352, -3.10166214421181125980e-04) (353, -1.38277296365481635471e-02) (354, 1.36243368213572416808e-02) (355, 1.14982478441130339664e-01) (356, 3.65428620439392504160e-02) (357, 1.42734713951444616709e-02) (358, 7.12525217977411640113e-02) (359, 4.90447645742532398194e-02) (360, 9.77973629213908929314e-02) (361, -2.53332509890947989856e-03) (362, -6.39344596185813102140e-02) (363, -9.40237506106887666046e-02) (364, -1.56871279638182675731e-01) (365, -5.13985349350790272915e-03) (366, -1.00588277756064103929e-01) (367, -3.31700583514599300905e-01) (368, 3.15380970530890480941e-01) (369, -3.53393889830012186692e-01) (370, -6.72895486900339290237e-01) (371, 9.08632820399749907558e-01) (372, -1.22093071064087801969e-02) (373, -2.78169123192102185627e-01) (374, 2.15113077966476357039e-01) (375, -4.26242801753605668469e-02) (376, -4.72543304761789545454e-02) (377, -8.03385192446152696100e-02) (378, 9.79964062850419287409e-02) (379, 1.27967928633143185335e-01) (380, -5.39066852635134777239e-02) (381, -6.59622811263317065933e-02) (382, 1.20808852189064355742e-01) (383, 3.39730113354675816728e-02) (384, -1.20708740357688623646e-02) (385, 7.14081780152365456354e-03) (386, 1.88277377046862154017e-03) (387, -3.16075681156017807005e-02) (388, 1.97339093852427326786e-03) (389, -3.37432556867343774742e-02) (390, -6.29582212802930474282e-02) (391, -7.78767227355607327688e-02) (392, 7.91961340489006487831e-02) (393, -3.69580715983251067991e-02) (0, -4.54350211145372120947e-02) (1, 9.00797970809040365880e-02) (2, 9.13063690291976599867e-03) (3, 5.12427371759499664106e-02) (4, -9.90641132614045599736e-02) (5, 1.69309106256303951166e-02) (6, 1.20557821167117829031e-01) (7, -4.90858492912518151741e-02) (8, -4.47315842531668256266e-02) (9, 8.71931724483484410504e-02) (10, 1.24999490604688415218e-01) (11, 8.68499378787261633317e-02) (12, -5.79232179402912050747e-02) (13, -1.20215237652921620487e-04) (14, 6.02809600399565395645e-02) (15, -6.10163337729317592495e-02) (16, -3.25684254247940799254e-02) (17, -6.51252328669358199198e-02) (18, -5.35284650049162036289e-02) (19, -8.60481473472188423957e-02) (20, 8.31408650814111638283e-02) (21, 1.53120414462186906629e-02) (22, -1.08458776647153629091e-01) (23, 3.83208120977698643572e-02) (24, 9.12630824117181133071e-02) (25, -1.03763962116503491266e-03) (26, -4.60823665292074214142e-04) (27, 6.28878580534133254515e-03) (28, 6.73320366249497391509e-03) (29, -3.40424697522474783984e-02) (30, -1.08809872207255631249e-01) (31, -2.63284676615643982445e-03) (32, -3.49866688187699600987e-02) (33, 1.30798751177820415936e-01) (34, 3.97501510544276334680e-02) (35, -7.09039845898529284135e-03) (36, -8.99850642133503443587e-03) (37, 1.54221441017744938240e-02) (38, 8.52855489143503203708e-02) (39, -3.33245590938344550883e-03) (40, -6.87787560276514886581e-02) (41, 4.64852695775832894243e-02) (42, -3.24826001789728716074e-03) (43, 1.01508274216732155559e-01) (44, -2.53433179638364869390e-02) (45, -6.75025571956266914192e-03) (46, 8.38482528528542853108e-02) (47, 2.11220679359408608500e-02) (48, -6.81307588535316321215e-03) (49, -8.41598464893644621077e-02) (50, 8.89266286155903779020e-02) (51, 1.43718634664587920774e-02) (52, 6.51836129240088435477e-02) (53, -2.80639638930320865773e-02) (54, -4.38251958804793603774e-02) (55, 6.27021955329821051306e-02) (56, 4.26491287247405953531e-02) (57, 4.48154018738530501853e-02) (58, 9.24311325378849718559e-02) (59, 3.44213660235265506149e-02) (60, -1.15956092695974136153e-01) (61, -6.77210089034326750967e-02) (62, -5.84470952643329280662e-02) (63, 6.40600996889882784435e-02) (64, 9.15042195610022424113e-02) (65, 6.21193467296143608802e-02) (66, -8.28994182772509191626e-02) (67, -8.24419626714099629261e-02) (68, -6.17774301157031566212e-02) (69, -1.03595382069849167861e-01) (70, 1.06627505711852935133e-01) (71, 4.50927726346782228872e-02) (72, 7.96885707774819679328e-02) (73, 5.62507535828476942785e-02) (74, 4.41411419984626400993e-04) (75, -3.46952537726996496081e-02) (76, 5.83506302090805589744e-02) (77, -3.76009310041235667033e-02) (78, -5.94578857847439176676e-02) (79, 6.07061654548762680284e-02) (80, -5.99289141450310008929e-02) (81, 8.48426507283971259588e-02) (82, 7.56928056723029235586e-02) (83, 3.24247431247759454465e-02) (84, -5.45942422234328358921e-02) (85, -7.95131944526277500973e-02) (86, -4.99440644801235136829e-02) (87, 1.82963395355388094843e-02) (88, 3.98344448241311765990e-02) (89, -6.30291117018338120648e-02) (90, -3.02083657084364042011e-02) (91, -9.33033963055863863056e-02) (92, -5.46943326891363434950e-02) (93, 8.57266607014713633017e-02) (94, 8.56961335755216102594e-02) (95, -1.76162279829207533977e-02) (96, -4.28278034832147436184e-02) (97, 6.96951119693208359651e-02) (98, 5.14502188336181179307e-02) (99, 9.96767689216384172868e-02) (100, 1.03633805058867631971e-02) (101, 3.59501137886918953335e-02) (102, -4.59768135045670808814e-02) (103, 8.27069795960695408610e-02) (104, -5.76274384391053176580e-02) (105, 9.73999594143759306331e-02) (106, -1.00835585349273990086e-01) (107, 2.11278866099599560435e-02) (108, -7.92578250611599907649e-03) (109, -1.27157054405097946770e-01) (110, -3.00557656493080881110e-02) (111, 4.27696519915112746690e-02) (112, -1.37048007484127792877e-01) (113, 2.87473237256768328340e-02) (114, 2.29693783379476962336e-02) (115, -2.60419659844618976707e-02) (116, -3.85555341740068807654e-02) (117, 3.66083167861603886450e-02) (118, -3.85988292411430511386e-02) (119, -1.23705764202469876978e-02) (120, 9.57514605878352631496e-02) (121, 3.15479253971929444328e-04) (122, -9.24104701216391377638e-02) (123, -1.98563158522896132663e-02) (124, 1.27360211314451937659e-01) (125, -7.60502926575377519169e-02) (126, -1.77971945067531799045e-02) (127, -1.26110948052109067552e-01) (128, 1.03647019973664725190e-01) (129, -7.78744580720984458377e-02) (130, 9.34436187835752246622e-02) (131, 3.96259533737764457761e-02) (132, 2.59574269429175205626e-02) (133, 2.59365093199918454736e-02) (134, 3.73219502555121249165e-02) (135, -9.93780834908412069595e-02) (136, -3.32182583604040820857e-02) (137, 3.44268933450779870964e-02) (138, 1.09686401437672387260e-01) (139, 2.23533218487474150127e-02) (140, 1.60235515124743377324e-01) (141, -1.31344916797494579846e-02) (142, -3.73288809055772261014e-02) (143, 7.93994207956585373864e-02) (144, 8.37586283095595185433e-02) (145, 5.87286794534268227763e-02) (146, -6.11405335664807064733e-02) (147, -1.25547876867655394673e-01) (148, -1.07605523783417950101e-02) (149, -9.55575323877420612639e-02) (150, -1.08858208217858885153e-02) (151, -5.91134696360632316825e-02) (152, -1.66335487178338459202e-02) (153, 9.10692326431723209179e-02) (154, 1.37518407495082466835e-02) (155, -3.43589422856017748242e-02) (156, -5.49228974622147161910e-02) (157, -5.02392166123865127614e-02) (158, 5.85799468250260205182e-02) (159, 5.62156628310364475665e-02) (160, 9.97333914847405716975e-03) (161, 4.91550213496851490236e-02) (162, 6.82748454695503853573e-02) (163, 8.11177893279270076365e-03) (164, 2.19332856192071349579e-04) (165, 2.24474146078475645522e-03) (166, 1.77662060983231583078e-02) (167, -6.55226396995456372707e-02) (168, 6.35670769318856521135e-03) (169, -3.80850405720953230637e-02) (170, -2.89500402776664104987e-02) (171, 1.06786553811774626022e-01) (172, 1.01263176629163606512e-01) (173, 2.66424626542916924421e-02) (174, 4.67149411582224588502e-02) (175, -4.48778212403661558305e-02) (176, -1.56234775968201872187e-01) (177, 8.04525428964966149437e-02) (178, 6.05404667583400307729e-02) (179, -5.69305344606805055485e-02) (180, 3.29248705768354701928e-02) (181, -1.63915140378423293543e-02) (182, 2.16504788924910013259e-01) (183, 5.79163780183425264125e-02) (184, -5.97457498646741247406e-02) (185, 3.53090227940437567655e-02) (186, -9.82498651996553153121e-03) (187, -4.53547905750228338984e-02) (188, 3.17665234941951687975e-02) (189, 8.66507977301901044509e-02) (190, 5.51725297981579612672e-02) (191, 1.86956821871312045547e-02) (192, 1.33341483697456020252e-01) (193, -4.92230230361132628514e-02) (194, 3.23437786540861291207e-02) (195, -9.17574216187081875828e-02) (196, -9.18320631345952154145e-02) (197, -1.05233136277424615956e-02) (198, 6.68572253141389970937e-03) (199, -1.33273033722582284755e-01) (200, -1.73648129392391901982e-02) (201, 1.19471270145384157041e-02) (202, 6.24409280601528719756e-03) (203, 1.25966139610781929781e-01) (204, -1.74222387627880753724e-02) (205, 7.24827265226616473948e-02) (206, -3.09722188775073429753e-03) (207, 5.50083263101709338261e-02) (208, -1.69450333580624286356e-02) (209, 4.51578166512917652392e-03) (210, -5.40288230403957944747e-02) (211, 1.61208112646606983864e-03) (212, 4.87698847617247660535e-02) (213, -1.37802989162616167790e-02) (214, -6.69591186710002117533e-02) (215, 9.56156375427758692398e-02) (216, 3.72688552211729515196e-02) (217, -4.54062724004547918488e-02) (218, 1.71237283939603170124e-02) (219, -3.56219229470935982995e-02) (220, -2.45888870061476624840e-02) (221, -7.66947930202978300773e-02) (222, 6.21569577106917472986e-02) (223, -8.67013915613656510617e-02) (224, -2.80208125579179852249e-02) (225, 1.13338496692537010757e-02) (226, -9.81876912783729571821e-02) (227, 2.21000290946117311508e-01) (228, 1.37644614416494448506e-01) (229, 2.44363160590741444744e-02) (230, -1.11368409006980834119e-01) (231, 5.03274367328577082459e-02) (232, -4.17670145256866451322e-02) (233, -2.53152864969823331032e-02) (234, -1.93626633355915254986e-02) (235, 8.81679223043248666558e-02) (236, 1.83061565846268758939e-01) (237, 6.01904111938871694276e-02) (238, 1.93751707843778028795e-02) (239, 2.65457566072988364325e-02) (240, -8.64534266474444035300e-02) (241, 2.46794049778626123359e-02) (242, 6.61050996231847681761e-02) (243, -1.35065415797109650287e-01) (244, 6.36903762579960203150e-02) (245, -7.95499758741735063516e-02) (246, 1.14614164711922088269e-02) (247, 5.58436952823352997233e-02) (248, 2.06516630957158907334e-02) (249, 4.58113986113691598612e-02) (250, 2.88170415802599701183e-02) (251, 1.03718507875039632482e-02) (252, -1.07470965223267628241e-01) (253, 6.30454693154199469207e-02) (254, 4.18004876230072403009e-02) (255, 2.77354797883214258813e-02) (256, -1.93280229743452679203e-02) (257, 8.76261774784181379783e-02) (258, 4.07390667154655453097e-02) (259, -7.61639494396536553822e-02) (260, -2.80391928969811769431e-03) (261, 1.49612103896681510051e-02) (262, 7.64936336134523497954e-02) (263, -7.04849610085808431226e-02) (264, 9.38586531443721533430e-02) (265, -2.50254150027556521163e-02) (266, -1.41076215095260526500e-01) (267, -3.04275985134209829563e-03) (268, -2.76219021602286674000e-02) (269, -6.25198850917527138016e-02) (270, -6.80289673840327735466e-02) (271, -4.88364037502806713764e-02) (272, 5.58034012498417816839e-02) (273, -5.13916348649611220978e-02) (274, 3.38557104936230771064e-02) (275, 4.45270704032896466606e-02) (276, -2.05678489010027200357e-02) (277, 2.38855875742171068141e-03) (278, -2.69595762234889936571e-02) (279, 7.17575219890830146019e-02) (280, -7.49996008586995555056e-02) (281, 1.01672560754746565959e-01) (282, -1.64257664511875678404e-02) (283, -1.55581144797676540481e-02) (284, 3.46742636461752559707e-02) (285, -4.94316383271269990662e-02) (286, -8.68216009534197030728e-02) (287, -5.16939900987458261783e-02) (288, -9.02384805792976474326e-02) (289, -1.72199601080575102896e-02) (290, 2.30516221049927028108e-02) (291, 2.69877150364756790424e-02) (292, -4.72299081835553680869e-03) (293, 4.53604394301723792826e-02) (294, 9.97333716505170581046e-02) (295, -5.94003883416870590017e-02) (296, 8.06563520168114833631e-02) (297, 6.90793714491802351985e-02) (298, 1.25260743905657084829e-01) (299, -9.62800822289503616114e-02) (300, -6.08282396740683073411e-02) (301, -8.20948534079528197127e-02) (302, -1.78678978595964779719e-02) (303, -2.99044837572136831816e-02) (304, -1.73186373134307236565e-02) (305, -8.62900388318494360185e-02) (306, 5.79693146021448210692e-02) (307, -2.88963509312090624515e-02) (308, 2.32361906373804508186e-02) (309, -1.15235666809482842354e-01) (310, -6.61954759593500613457e-02) (311, 5.93369166959537841510e-02) (312, -1.18882257857636633447e-01) (313, 6.75807703840967943787e-02) (314, -1.08031651626193138382e-02) (315, -2.27200773790918117423e-03) (316, 5.89601316695828464587e-02) (317, 6.37877893538507049348e-03) (318, -2.85482067404709723146e-02) (319, 4.37433869136866562699e-02) (320, -1.20312372062105737980e-01) (321, -6.87424315503602501032e-02) (322, 2.27555135247523056263e-02) (323, 3.47019915282850907601e-02) (324, 5.14806739142302377532e-02) (325, 2.69944297751296587162e-02) (326, 4.68529635877385705611e-02) (327, -2.76323030271237966848e-02) (328, -1.73012142474261512715e-02) (329, -1.30635661686315518448e-02) (330, 2.13226345306936210244e-02) (331, 6.05490336888469399268e-02) (332, -2.35141085146403985839e-02) (333, -1.09689705459544095678e-01) (334, -1.04451635435964876319e-01) (335, 5.56980865286817866666e-02) (336, -1.10798197935104439371e-01) (337, -9.44700336868476847618e-02) (338, -5.27615801552770453259e-03) (339, 8.73927192226342658410e-02) (340, -8.84737063883983265722e-02) (341, 5.84202424428787031596e-02) (342, -4.85767433823308409507e-03) (343, -9.76837459318305734168e-02) (344, -1.03382803451723098709e-01) (345, 1.20208691803917432084e-02) (346, 3.57533129532768782083e-03) (347, 5.85324521942205550085e-02) (348, -1.58011396521915897795e-01) (349, 1.12076654237642417411e-01) (350, -2.62275085279056003815e-03) (351, -1.32801223969679305092e-01) (352, 1.04734319058192359986e-01) (353, -6.36433956348204099562e-02) (354, -2.08336300792375778146e-01) (355, -1.38956907073303961159e-02) (356, 8.10717320195637608515e-02) (357, -7.59891658449669410436e-02) (358, -9.02724667437770772471e-02) (359, -6.63567669391930958778e-02) (360, -1.43959966167650416091e-01) (361, 9.83825342717329354159e-02) (362, -1.37852791827145715331e-01) (363, -2.49410736921782144604e-01) (364, 2.07478508197883382280e-01) (365, -1.35580566005570224419e-01) (366, -3.38320702978418430540e-01) (367, 4.70695411848277289746e-01) (368, -2.33662522391470756089e-01) (369, -3.92379468117796503801e-01) (370, 7.69237692233920800078e-01) (371, -4.46182395949991705830e-01) (372, -1.76964197372507514583e-01) (373, 4.82976522862196999686e-01) (374, -1.00899655176099029008e-01) (375, -2.63269419382081870662e-01) (376, 2.05260937557481065729e-01) (377, -8.50722281686120962441e-02) (378, -2.07217963420865181057e-01) (379, 1.34655428804446170021e-01) (380, -1.11033760088311825309e-01) (381, -2.65955596025738011390e-02) (382, -3.07576116887350904661e-02) (383, -1.04626307207066962524e-01) (384, -1.85549804564837106380e-01) (385, -3.28025864733729258238e-02) (386, 4.81610088932987109867e-02) (387, -3.84224577110125961599e-02) (388, 1.66433884088379533545e-03) (389, 5.06532858321386350586e-02) (390, -1.80214526174104772149e-01) (391, 1.38799856273633254178e-01) (392, -3.96440315669635418017e-02) (393, -1.37165103792391603749e-02) (0, -3.48971750966908245140e-02) (1, -2.91212403745204871652e-02) (2, 4.94800812037815770927e-02) (3, -6.18931620141923433120e-02) (4, -1.01757184213513054982e-01) (5, -7.29034792111133700399e-02) (6, 6.26008573096216436316e-02) (7, -3.86388433385343801896e-02) (8, -9.04888822567582497280e-03) (9, 3.76135939541677871700e-02) (10, 3.15039748196964328186e-02) (11, -7.40001744853028137205e-02) (12, 3.81826149778046811112e-02) (13, 9.41600240345373123985e-02) (14, -5.18783475362578558321e-02) (15, 4.47159702695948679807e-02) (16, 6.57020513200525652087e-02) (17, -1.11958954749896352765e-02) (18, 1.96990153416008772005e-03) (19, -5.28641668280376633704e-02) (20, 1.80509124311844446065e-02) (21, 1.18107719352433804261e-01) (22, -2.11733744816080676765e-02) (23, 1.26655225248357497514e-02) (24, 2.27898365229946935073e-02) (25, -4.21120827707569412440e-03) (26, -4.99824105354770842347e-02) (27, -1.88092459471844615504e-02) (28, -1.16903135045521050506e-01) (29, 1.61744547602906324490e-01) (30, 1.75373122082532403865e-02) (31, -7.39379995558245572962e-02) (32, -3.22403644071584324915e-02) (33, 3.02229137398598649011e-02) (34, 1.04281749125631345576e-02) (35, -6.59004947982495953296e-02) (36, -5.21088013002011379848e-02) (37, -8.97677922717266679742e-02) (38, 3.25306058997730587756e-02) (39, 3.31675769702327385979e-02) (40, 9.75815623178393279358e-03) (41, 3.69934608726492364372e-02) (42, 4.17133884548982897256e-02) (43, 6.87529404177371905593e-02) (44, 6.98549695622445038223e-02) (45, -8.87512885554081892847e-02) (46, -3.83712395902137334835e-02) (47, 2.86441727971391002505e-02) (48, -7.38958112019691137906e-02) (49, 2.85158807755562853856e-03) (50, -9.42135216065578123823e-02) (51, -9.09560452642081823660e-02) (52, -2.64378107721839304689e-02) (53, 6.73636394734230536940e-02) (54, 6.56011729173454072317e-02) (55, 9.46750898892318032418e-02) (56, -7.56257905714508987804e-02) (57, 4.97700181868836050159e-02) (58, 1.07915035740974982192e-01) (59, 3.53478949220960084188e-02) (60, 2.09805860597264311196e-02) (61, 8.48262050313481306973e-03) (62, -4.48092421617844478138e-03) (63, 5.66767035319176576413e-02) (64, 5.66204804731080257874e-02) (65, 7.20890747339142656802e-02) (66, 1.22000153077283218089e-02) (67, 6.76355336047047839276e-02) (68, 5.96742093999550402006e-02) (69, -5.97611307563559596145e-02) (70, 5.04603337236709872937e-02) (71, -6.87509827055228592979e-03) (72, -3.64530355875714445757e-02) (73, 9.42996878263891447070e-02) (74, 1.10652854363493369227e-01) (75, -5.61253258285700287744e-02) (76, 4.52658539568226566882e-04) (77, -9.13275885499284234559e-02) (78, 8.41960886485157572467e-02) (79, 1.51977459501983352963e-01) (80, -4.70916814265019550989e-02) (81, 5.82723386066902049318e-02) (82, -1.08732380560793664981e-01) (83, -6.20776657316143218313e-02) (84, 8.82341613457713891400e-02) (85, 2.13045051128814173780e-02) (86, -1.23335252011773519043e-01) (87, 1.05058884074573366529e-02) (88, -4.46526156522222342216e-02) (89, -1.03191266773361808862e-01) (90, -7.63302845947761432477e-02) (91, 5.37777266391490232911e-02) (92, -2.18910797817018498712e-02) (93, 1.12488527184708128615e-01) (94, 1.18313154964239039546e-01) (95, -2.11769134614523922566e-02) (96, -6.70678545497520595120e-02) (97, -4.90087288342693633281e-03) (98, -3.60042353046352778256e-02) (99, -2.62287745115878205560e-02) (100, -3.78466797827700443535e-02) (101, 8.74769802246801730927e-02) (102, -9.65599388980291697959e-03) (103, 1.44231353711748833124e-01) (104, 5.31492025922407698713e-02) (105, 4.13305448679909329113e-02) (106, 6.28502515482909085431e-02) (107, -3.51969040279338134594e-03) (108, 6.09067787487842099425e-02) (109, -1.29573003449817945876e-02) (110, 6.67060092226012535388e-02) (111, -4.90393386094403610498e-02) (112, -5.49050679895098578398e-02) (113, 1.67032464828970245163e-01) (114, 6.56161426444480944120e-02) (115, -2.77245132462543529550e-02) (116, -9.58275240103959730087e-02) (117, 1.53757441962603757894e-03) (118, 2.64754780196366831108e-03) (119, 8.59271906873826374351e-02) (120, -2.94263232656705245316e-02) (121, -7.23010276347314656542e-02) (122, -1.65764226251260277101e-02) (123, 3.60050110873799244365e-03) (124, 7.30209606766935859223e-02) (125, -1.14317254162721784055e-02) (126, -9.73180930083648032536e-02) (127, -3.10890497110368896339e-02) (128, 3.17552316518760410768e-02) (129, -5.77761177627073921337e-02) (130, -9.81729900925618487184e-02) (131, -2.70188780968706951380e-02) (132, -3.48421797251743589618e-02) (133, 9.36051502100094801051e-02) (134, 2.75637031260584954018e-02) (135, 6.72141929074329680383e-02) (136, -7.47632606657482878809e-02) (137, -1.14738477205850088886e-02) (138, 9.80704077610673741194e-02) (139, 1.01538195196354874561e-01) (140, -9.51113904172657710634e-03) (141, 2.49591558626470130799e-02) (142, -4.51892949612143768334e-02) (143, 2.80930866630647313453e-02) (144, 9.01773538405315627786e-02) (145, 2.39000341426192190741e-02) (146, 9.36913549014741220411e-02) (147, -6.12046288661103818352e-02) (148, -6.12841237410424871657e-02) (149, -9.15325655852093772458e-02) (150, -1.01377578400411103021e-02) (151, 1.59920204409637160825e-02) (152, -8.38175402288277859864e-02) (153, 2.55665589141658477004e-03) (154, 4.68635291174518270330e-02) (155, -3.54322058837556880251e-02) (156, -1.41468121600620111433e-01) (157, 8.94041214205842371676e-02) (158, 1.13584790253566450535e-02) (159, -1.77431239377039001726e-02) (160, -2.44304920273082579185e-02) (161, -3.18271993139675815621e-02) (162, 1.15826502740917533507e-01) (163, 1.38087429439619518989e-01) (164, 3.07268392425637526522e-02) (165, 6.39166535176213385094e-02) (166, 7.68652768167768785101e-02) (167, -1.65159288972552442676e-01) (168, -7.61700707757131528775e-02) (169, -6.95129621928119723062e-02) (170, 1.48843449092620101759e-02) (171, -1.87151047940205504660e-02) (172, -5.24370729273345619406e-04) (173, 6.40839294273474052721e-02) (174, 7.36845369950916012636e-02) (175, 1.01289465875502079223e-02) (176, -8.33231858335888170286e-02) (177, 9.63155067166187039973e-02) (178, -6.72345640811978506601e-02) (179, -1.39527173447001218154e-01) (180, 4.07808546189083048761e-02) (181, 7.47893010510339434349e-02) (182, 3.78010368781527758553e-02) (183, 1.34594594225208891158e-01) (184, 8.00209649792656962930e-02) (185, 7.25050437249029761100e-02) (186, 5.05397437120913492481e-02) (187, -1.99606558064164107957e-01) (188, 4.74344176185712285143e-02) (189, 1.37343803070890807527e-02) (190, 2.08186822438720629813e-02) (191, -6.63010324650798177348e-02) (192, 9.04517560284907040646e-02) (193, 1.80300493803206458854e-02) (194, 7.85583687701717492402e-02) (195, 3.93577162840865538151e-02) (196, 3.18335783191876081633e-03) (197, 4.73630161099865207297e-02) (198, -5.38436781175519324494e-02) (199, -7.51102903656271081445e-02) (200, -1.52773138803277530595e-01) (201, -8.91003131650250877749e-03) (202, 1.68275913326186243868e-01) (203, 9.29633863842252716747e-02) (204, 2.97484389168492201205e-02) (205, 4.22199129534075665027e-02) (206, 6.28774607422995790440e-02) (207, 1.53023813614085929524e-01) (208, -7.81986013935461882207e-02) (209, -3.06572219973075613120e-02) (210, 8.91665120596459304103e-02) (211, -4.86854756746561909142e-02) (212, -8.21153778761636449213e-02) (213, 1.43046707286387103641e-01) (214, -5.60611524260718439849e-03) (215, -9.48310016744031841762e-02) (216, 4.88594427788642815536e-02) (217, 5.27679958346631353128e-02) (218, -3.91120299632163395676e-02) (219, -6.88105211339313203867e-03) (220, -1.63067645406004740893e-01) (221, 5.27516843676921823314e-02) (222, -4.28753162145813493389e-02) (223, 4.50456429767998670077e-02) (224, 5.00656636025654730449e-03) (225, -2.44424540435618023460e-02) (226, -1.99537148273768415174e-02) (227, 8.70668598658833892134e-02) (228, -2.23271986293839576343e-02) (229, -1.21873194569259324371e-01) (230, 5.43055351871356284388e-02) (231, -5.67930499515702166824e-02) (232, 2.31120113234546328829e-02) (233, 1.28757309263475561156e-01) (234, 3.43246507906370193486e-02) (235, -5.18159763468284476073e-02) (236, 1.04101506728278878078e-01) (237, -4.89277415696042078386e-02) (238, 1.02725952448932428274e-01) (239, 1.44622925573447969061e-01) (240, -4.79953072480227282970e-02) (241, -6.02133519991703523855e-03) (242, -1.52282435038313068709e-01) (243, 1.60668587045266209046e-02) (244, 4.06798425580687031400e-02) (245, -5.86426491267168364940e-02) (246, -6.83954310917129354452e-02) (247, -4.09814160134916935507e-02) (248, -3.20771188453026559473e-02) (249, -9.23112978328216315926e-02) (250, -9.82094692512037459320e-02) (251, -1.19751981862058945461e-01) (252, -1.58840241354674671648e-01) (253, 1.02245773771952166986e-01) (254, 7.72609653211320940303e-02) (255, -4.98545868099936548279e-02) (256, 1.28544139017193193020e-01) (257, 3.42219046658135336858e-02) (258, 8.20051523451463537651e-02) (259, 9.56728263663692291008e-02) (260, -3.43827827367007010650e-02) (261, 1.76343292000262913399e-02) (262, -2.69874188095863311310e-02) (263, 6.09915661510909909437e-02) (264, 2.67002973959777727131e-02) (265, 6.20557558924924868027e-02) (266, 7.48733533355946685034e-03) (267, -2.88601490424668406798e-02) (268, -2.60868615774769926907e-02) (269, -1.20583044990546936481e-01) (270, 3.05623007498515659661e-03) (271, 1.78311936126242351515e-03) (272, 1.58512213693125028624e-02) (273, 5.74516206052303052276e-02) (274, 4.01555658854912747580e-02) (275, -1.04688402773902997089e-01) (276, 1.06596636694281890478e-01) (277, -7.64612323403964788682e-02) (278, 2.89024377207339651374e-02) (279, 1.11648557407068138581e-01) (280, -8.09564516675430750903e-02) (281, -2.57684991244096946172e-02) (282, -8.50496782772742210277e-02) (283, 3.81873993495007030274e-02) (284, 1.47868096802257570355e-01) (285, 9.94787345410670376111e-02) (286, 1.48639626227047485368e-02) (287, -1.34282480582405966407e-02) (288, -1.90096966564116155729e-02) (289, -6.59324744968083353847e-02) (290, -1.97991753813083664129e-03) (291, -1.16534052273133639788e-01) (292, -7.31989597180132262055e-02) (293, 1.58501890984597576528e-01) (294, 7.05680080667795972538e-02) (295, 6.84576102708454314882e-02) (296, 7.74966743819548303795e-02) (297, -1.02153854476566954834e-01) (298, 7.41768970992744136606e-02) (299, 3.69884035776595690437e-02) (300, -4.35816918903062303081e-02) (301, 8.52965534922732332435e-02) (302, -8.03723655440519435533e-02) (303, 9.13070547970115248271e-02) (304, 9.43337852688549693969e-02) (305, 4.82440896535793889432e-02) (306, 4.37651740342651501825e-02) (307, -4.36354584106062107218e-02) (308, 9.54745748141028333089e-02) (309, -1.03415018065002223269e-01) (310, -6.49850964552871890323e-02) (311, -1.13145680724779068571e-01) (312, -1.28675797879824554970e-01) (313, 3.31014040546981219704e-02) (314, 1.33053225869239222928e-02) (315, -2.28998464852917457679e-02) (316, -3.95084451846606649061e-02) (317, -7.61021820988673214359e-02) (318, 4.00598397663242972860e-03) (319, 2.72948922169810072325e-02) (320, -8.87960213620638677545e-03) (321, -5.80372445862148353402e-02) (322, 3.24446738965243064445e-02) (323, 6.32960629818350162257e-02) (324, -1.45809494405665495548e-02) (325, 2.92284384330755778181e-02) (326, -2.28835403411850359101e-02) (327, 3.82616999186789971676e-02) (328, 1.10826423628166068069e-02) (329, -2.13016027359312371675e-03) (330, -4.78617780619671438769e-03) (331, 4.97940886538095137115e-02) (332, -4.01956287027310510407e-02) (333, 1.24320337265432553919e-01) (334, 9.61239807407974905518e-02) (335, 5.61246879386565963865e-02) (336, 8.19706995697589840821e-02) (337, 9.36627434190614588383e-02) (338, 1.25101296972043474209e-01) (339, 5.62934879847325764235e-02) (340, 1.56225502011090228160e-01) (341, 1.51689688907783032379e-01) (342, 2.90509076345317890366e-02) (343, -9.48097810286131943702e-03) (344, 6.51479694245842844147e-02) (345, 1.23833717559799758035e-01) (346, 7.12487841196782073494e-02) (347, 9.59759817364409240081e-02) (348, -2.26407635505294635436e-02) (349, 8.91301463441419861145e-02) (350, -8.76758655668825048757e-02) (351, -1.31535374853784775562e-01) (352, 1.24285965604032086484e-01) (353, -1.16710453438051864339e-01) (354, -1.60409088850203218612e-01) (355, 1.43497979977302486665e-01) (356, -2.75391306477843211820e-02) (357, -9.33970260864745993601e-02) (358, 1.37069278830964563776e-01) (359, 1.86770637900824446054e-02) (360, -1.35989478943333685912e-01) (361, 9.96187562049803271291e-02) (362, -9.01705360404427558318e-02) (363, -3.31361869065291247960e-01) (364, 3.47406226774782167510e-01) (365, -9.44469139586924105734e-02) (366, -5.10875495387968614480e-01) (367, 4.25327537720832427048e-01) (368, 1.02081281697975728706e-01) (369, -1.00971202058324882600e+00) (370, 6.40622241156770355630e-01) (371, 3.71905484903065075564e-01) (372, -5.42171562456248978812e-01) (373, 3.16097432672077349736e-01) (374, 1.12355104191644572520e-01) (375, -2.12478495967830055546e-01) (376, 3.38860452933651357110e-01) (377, 7.06673075339923212335e-02) (378, -1.50982845264223647375e-01) (379, 2.09081238129098179179e-01) (380, -7.09724451922107840707e-02) (381, -4.80096781198754013475e-02) (382, 1.94505829791297879527e-01) (383, -9.40128625469336259846e-02) (384, -1.32213496818936598887e-01) (385, 1.95034314964359689615e-01) (386, -4.59618196571670301065e-02) (387, -8.63119390719818829760e-02) (388, 1.03806522144913024319e-01) (389, -6.29314882637758976625e-02) (390, -1.09904331327182303024e-01) (391, 1.82989431476152292211e-01) (392, -4.16004222975902282489e-02) (393, 7.74956340759087869419e-02) (0, 7.45219526796190162576e-02) (1, -4.57991836148498379644e-02) (2, 1.04872244527326047292e-02) (3, -1.94535107334569863646e-02) (4, 6.14350775683463398713e-02) (5, -1.14187413686277355884e-02) (6, 2.73438991633400234338e-02) (7, 3.83322495944705479709e-02) (8, -1.01139404342020691741e-01) (9, 8.06129053849240634344e-02) (10, 7.61544024372526467959e-02) (11, 1.04973594064889895472e-02) (12, -5.22907272815036332919e-03) (13, 6.60942320133717786668e-02) (14, 6.92219421847612564891e-03) (15, -1.75220347293669450120e-03) (16, -2.76196913884630464858e-03) (17, -6.62276312811664602531e-02) (18, 4.12104226188940228615e-02) (19, -2.13453943420654213003e-02) (20, 2.82584829029536126199e-02) (21, 6.10010282530350153585e-02) (22, -5.37047461460369995878e-02) (23, -9.31188533207063240393e-02) (24, 1.55181418900193941746e-02) (25, 3.40571484759519954588e-02) (26, -7.61558597513245644217e-02) (27, -8.72820246321456688632e-02) (28, 1.08910844623513747287e-03) (29, 4.26968577338481068001e-03) (30, -3.08372959898339550622e-02) (31, -7.27459450063574000755e-03) (32, 5.36270217939673402019e-02) (33, 6.73467141563332816201e-02) (34, 7.22459586511991630475e-02) (35, 2.64962013636223063517e-02) (36, -3.18834910868525181482e-02) (37, 9.19697647013357523493e-03) (38, -3.60043110799535964750e-02) (39, -1.39634744103479240679e-02) (40, 7.61106092672010278721e-03) (41, -4.88015184773282276187e-02) (42, 8.66602194321384189379e-02) (43, 7.45136691421990765560e-02) (44, -7.88746539779580785323e-02) (45, -9.28858847627673026026e-03) (46, -1.32806697019981559404e-02) (47, 1.45581060891964361725e-02) (48, 2.90074194531377005379e-02) (49, -6.60622435339507790841e-02) (50, 8.70032277631901385107e-02) (51, -4.33130402987119064728e-02) (52, -8.56178283491601105348e-02) (53, -4.93678569787157905946e-02) (54, -3.71364909979965754361e-02) (55, 3.17978421380593068157e-02) (56, -6.90976427188447345218e-02) (57, 2.33486898135759554651e-02) (58, 5.37163606324972675576e-02) (59, 3.74111858874317665391e-02) (60, -5.01251261378909823696e-02) (61, -6.77220430339534051889e-02) (62, -6.28164175864063950572e-02) (63, -1.03828589104780946717e-01) (64, -7.82621631242989140853e-02) (65, -8.81003651297151413324e-02) (66, 3.06770533566881782594e-02) (67, 5.78774017256519345692e-03) (68, 2.59785729537867736416e-02) (69, -9.64915089210671983455e-02) (70, 6.88599300834392274995e-02) (71, -8.31503421524973085344e-02) (72, -5.32316461976255553279e-02) (73, 5.18542314455781097604e-02) (74, -9.25071155379498244464e-02) (75, -3.80098868791442501269e-02) (76, -3.78375356759478587154e-02) (77, 8.36504092386657744328e-04) (78, 7.15059848904768813327e-02) (79, 7.78277548496115190169e-02) (80, 3.24540970050009106029e-02) (81, 7.15300487294478620770e-02) (82, 