FANN_FLO_2.1
num_layers=3
learning_rate=0.010000
connection_rate=1.000000
network_type=0
learning_momentum=0.300000
training_algorithm=0
train_error_function=0
train_stop_function=0
cascade_output_change_fraction=0.010000
quickprop_decay=-0.000100
quickprop_mu=1.750000
rprop_increase_factor=1.200000
rprop_decrease_factor=0.500000
rprop_delta_min=0.000000
rprop_delta_max=50.000000
rprop_delta_zero=0.100000
cascade_output_stagnation_epochs=12
cascade_candidate_change_fraction=0.010000
cascade_candidate_stagnation_epochs=12
cascade_max_out_epochs=150
cascade_min_out_epochs=0
cascade_max_cand_epochs=150
cascade_min_cand_epochs=0
cascade_num_candidate_groups=2
bit_fail_limit=3.49999999999999977796e-01
cascade_candidate_limit=1.00000000000000000000e+03
cascade_weight_multiplier=4.00000000000000022204e-01
cascade_activation_functions_count=10
cascade_activation_functions=3 5 7 8 10 11 14 15 16 17 
cascade_activation_steepnesses_count=4
cascade_activation_steepnesses=2.50000000000000000000e-01 5.00000000000000000000e-01 7.50000000000000000000e-01 1.00000000000000000000e+00 
layer_sizes=490 101 4 
scale_included=0
neurons (num_inputs, activation_function, activation_steepness)=(0, 0, 0.00000000000000000000e+00) (0, 0, 0.00000000000000000000e+00) (0, 0, 0.00000000000000000000e+00) (0, 0, 0.00000000000000000000e+00) (0, 0, 0.00000000000000000000e+00) (0, 0, 0.00000000000000000000e+00) (0, 0, 0.00000000000000000000e+00) (0, 0, 0.00000000000000000000e+00) (0, 0, 0.00000000000000000000e+00) (0, 0, 0.00000000000000000000e+00) (0, 0, 0.00000000000000000000e+00) (0, 0, 0.00000000000000000000e+00) (0, 0, 0.00000000000000000000e+00) (0, 0, 0.00000000000000000000e+00) (0, 0, 0.00000000000000000000e+00) (0, 0, 0.00000000000000000000e+00) (0, 0, 0.00000000000000000000e+00) (0, 0, 0.00000000000000000000e+00) (0, 0, 0.00000000000000000000e+00) (0, 0, 0.00000000000000000000e+00) (0, 0, 0.00000000000000000000e+00) (0, 0, 0.00000000000000000000e+00) (0, 0, 0.00000000000000000000e+00) (0, 0, 0.00000000000000000000e+00) (0, 0, 0.00000000000000000000e+00) (0, 0, 0.00000000000000000000e+00) (0, 0, 0.00000000000000000000e+00) (0, 0, 0.00000000000000000000e+00) (0, 0, 0.00000000000000000000e+00) (0, 0, 0.00000000000000000000e+00) (0, 0, 0.00000000000000000000e+00) (0, 0, 0.00000000000000000000e+00) (0, 0, 0.00000000000000000000e+00) (0, 0, 0.00000000000000000000e+00) (0, 0, 0.00000000000000000000e+00) (0, 0, 0.00000000000000000000e+00) (0, 0, 0.00000000000000000000e+00) (0, 0, 0.00000000000000000000e+00) (0, 0, 0.00000000000000000000e+00) (0, 0, 0.00000000000000000000e+00) (0, 0, 0.00000000000000000000e+00) (0, 0, 0.00000000000000000000e+00) (0, 0, 0.00000000000000000000e+00) (0, 0, 0.00000000000000000000e+00) (0, 0, 0.00000000000000000000e+00) (0, 0, 0.00000000000000000000e+00) (0, 0, 0.00000000000000000000e+00) (0, 0, 0.00000000000000000000e+00) (0, 0, 0.00000000000000000000e+00) (0, 0, 0.00000000000000000000e+00) (0, 0, 0.00000000000000000000e+00) (0, 0, 0.00000000000000000000e+00) (0, 0, 0.00000000000000000000e+00) (0, 0, 0.00000000000000000000e+00) (0, 0, 0.00000000000000000000e+00) (0, 0, 0.00000000000000000000e+00) (0, 0, 0.00000000000000000000e+00) (0, 0, 0.00000000000000000000e+00) (0, 0, 0.00000000000000000000e+00) (0, 0, 0.00000000000000000000e+00) (0, 0, 0.00000000000000000000e+00) (0, 0, 0.00000000000000000000e+00) (0, 0, 0.00000000000000000000e+00) (0, 0, 0.00000000000000000000e+00) (0, 0, 0.00000000000000000000e+00) (0, 0, 0.00000000000000000000e+00) (0, 0, 0.00000000000000000000e+00) (0, 0, 0.00000000000000000000e+00) (0, 0, 0.00000000000000000000e+00) (0, 0, 0.00000000000000000000e+00) (0, 0, 0.00000000000000000000e+00) (0, 0, 0.00000000000000000000e+00) (0, 0, 0.00000000000000000000e+00) (0, 0, 0.00000000000000000000e+00) (0, 0, 0.00000000000000000000e+00) (0, 0, 0.00000000000000000000e+00) (0, 0, 0.00000000000000000000e+00) (0, 0, 0.00000000000000000000e+00) (0, 0, 0.00000000000000000000e+00) (0, 0, 0.00000000000000000000e+00) (0, 0, 0.00000000000000000000e+00) (0, 0, 0.00000000000000000000e+00) (0, 0, 0.00000000000000000000e+00) (0, 0, 0.00000000000000000000e+00) (0, 0, 0.00000000000000000000e+00) (0, 0, 0.00000000000000000000e+00) (0, 0, 0.00000000000000000000e+00) (0, 0, 0.00000000000000000000e+00) (0, 0, 0.00000000000000000000e+00) (0, 0, 0.00000000000000000000e+00) (0, 0, 0.00000000000000000000e+00) (0, 0, 0.00000000000000000000e+00) (0, 0, 0.00000000000000000000e+00) (0, 0, 0.00000000000000000000e+00) (0, 0, 0.00000000000000000000e+00) (0, 0, 0.00000000000000000000e+00) (0, 0, 0.00000000000000000000e+00) (0, 0, 0.00000000000000000000e+00) (0, 0, 0.00000000000000000000e+00) (0, 0, 0.00000000000000000000e+00) (0, 0, 0.00000000000000000000e+00) (0, 0, 0.00000000000000000000e+00) (0, 0, 0.00000000000000000000e+00) (0, 0, 0.00000000000000000000e+00) (0, 0, 0.00000000000000000000e+00) (0, 0, 0.00000000000000000000e+00) (0, 0, 0.00000000000000000000e+00) (0, 0, 0.00000000000000000000e+00) (0, 0, 0.00000000000000000000e+00) (0, 0, 0.00000000000000000000e+00) (0, 0, 0.00000000000000000000e+00) (0, 0, 0.00000000000000000000e+00) (0, 0, 0.00000000000000000000e+00) (0, 0, 0.00000000000000000000e+00) (0, 0, 0.00000000000000000000e+00) (0, 0, 0.00000000000000000000e+00) (0, 0, 0.00000000000000000000e+00) (0, 0, 0.00000000000000000000e+00) (0, 0, 0.00000000000000000000e+00) (0, 0, 0.00000000000000000000e+00) (0, 0, 0.00000000000000000000e+00) (0, 0, 0.00000000000000000000e+00) (0, 0, 0.00000000000000000000e+00) (0, 0, 0.00000000000000000000e+00) (0, 0, 0.00000000000000000000e+00) (0, 0, 0.00000000000000000000e+00) (0, 0, 0.00000000000000000000e+00) (0, 0, 0.00000000000000000000e+00) (0, 0, 0.00000000000000000000e+00) (0, 0, 0.00000000000000000000e+00) (0, 0, 0.00000000000000000000e+00) (0, 0, 0.00000000000000000000e+00) (0, 0, 0.00000000000000000000e+00) (0, 0, 0.00000000000000000000e+00) (0, 0, 0.00000000000000000000e+00) (0, 0, 0.00000000000000000000e+00) (0, 0, 0.00000000000000000000e+00) (0, 0, 0.00000000000000000000e+00) (0, 0, 0.00000000000000000000e+00) (0, 0, 0.00000000000000000000e+00) (0, 0, 0.00000000000000000000e+00) (0, 0, 0.00000000000000000000e+00) (0, 0, 0.00000000000000000000e+00) (0, 0, 0.00000000000000000000e+00) (0, 0, 0.00000000000000000000e+00) (0, 0, 0.00000000000000000000e+00) (0, 0, 0.00000000000000000000e+00) (0, 0, 0.00000000000000000000e+00) (0, 0, 0.00000000000000000000e+00) (0, 0, 0.00000000000000000000e+00) (0, 0, 0.00000000000000000000e+00) (0, 0, 0.00000000000000000000e+00) (0, 0, 0.00000000000000000000e+00) (0, 0, 0.00000000000000000000e+00) (0, 0, 0.00000000000000000000e+00) (0, 0, 0.00000000000000000000e+00) (0, 0, 0.00000000000000000000e+00) (0, 0, 0.00000000000000000000e+00) (0, 0, 0.00000000000000000000e+00) (0, 0, 0.00000000000000000000e+00) (0, 0, 0.00000000000000000000e+00) (0, 0, 0.00000000000000000000e+00) (0, 0, 0.00000000000000000000e+00) (0, 0, 0.00000000000000000000e+00) (0, 0, 0.00000000000000000000e+00) (0, 0, 0.00000000000000000000e+00) (0, 0, 0.00000000000000000000e+00) (0, 0, 0.00000000000000000000e+00) (0, 0, 0.00000000000000000000e+00) (0, 0, 0.00000000000000000000e+00) (0, 0, 0.00000000000000000000e+00) (0, 0, 0.00000000000000000000e+00) (0, 0, 0.00000000000000000000e+00) (0, 0, 0.00000000000000000000e+00) (0, 0, 0.00000000000000000000e+00) (0, 0, 0.00000000000000000000e+00) (0, 0, 0.00000000000000000000e+00) (0, 0, 0.00000000000000000000e+00) (0, 0, 0.00000000000000000000e+00) (0, 0, 0.00000000000000000000e+00) (0, 0, 0.00000000000000000000e+00) (0, 0, 0.00000000000000000000e+00) (0, 0, 0.00000000000000000000e+00) (0, 0, 0.00000000000000000000e+00) (0, 0, 0.00000000000000000000e+00) (0, 0, 0.00000000000000000000e+00) (0, 0, 0.00000000000000000000e+00) (0, 0, 0.00000000000000000000e+00) (0, 0, 0.00000000000000000000e+00) (0, 0, 0.00000000000000000000e+00) (0, 0, 0.00000000000000000000e+00) (0, 0, 0.00000000000000000000e+00) (0, 0, 0.00000000000000000000e+00) (0, 0, 0.00000000000000000000e+00) (0, 0, 0.00000000000000000000e+00) (0, 0, 0.00000000000000000000e+00) (0, 0, 0.00000000000000000000e+00) (0, 0, 0.00000000000000000000e+00) (0, 0, 0.00000000000000000000e+00) (0, 0, 0.00000000000000000000e+00) (0, 0, 0.00000000000000000000e+00) (0, 0, 0.00000000000000000000e+00) (0, 0, 0.00000000000000000000e+00) (0, 0, 0.00000000000000000000e+00) (0, 0, 0.00000000000000000000e+00) (0, 0, 0.00000000000000000000e+00) (0, 0, 0.00000000000000000000e+00) (0, 0, 0.00000000000000000000e+00) (0, 0, 0.00000000000000000000e+00) (0, 0, 0.00000000000000000000e+00) (0, 0, 0.00000000000000000000e+00) (0, 0, 0.00000000000000000000e+00) (0, 0, 0.00000000000000000000e+00) (0, 0, 0.00000000000000000000e+00) (0, 0, 0.00000000000000000000e+00) (0, 0, 0.00000000000000000000e+00) (0, 0, 0.00000000000000000000e+00) (0, 0, 0.00000000000000000000e+00) (0, 0, 0.00000000000000000000e+00) (0, 0, 0.00000000000000000000e+00) (0, 0, 0.00000000000000000000e+00) (0, 0, 0.00000000000000000000e+00) (0, 0, 0.00000000000000000000e+00) (0, 0, 0.00000000000000000000e+00) (0, 0, 0.00000000000000000000e+00) (0, 0, 0.00000000000000000000e+00) (0, 0, 0.00000000000000000000e+00) (0, 0, 0.00000000000000000000e+00) (0, 0, 0.00000000000000000000e+00) (0, 0, 0.00000000000000000000e+00) (0, 0, 0.00000000000000000000e+00) (0, 0, 0.00000000000000000000e+00) (0, 0, 0.00000000000000000000e+00) (0, 0, 0.00000000000000000000e+00) (0, 0, 0.00000000000000000000e+00) (0, 0, 0.00000000000000000000e+00) (0, 0, 0.00000000000000000000e+00) (0, 0, 0.00000000000000000000e+00) (0, 0, 0.00000000000000000000e+00) (0, 0, 0.00000000000000000000e+00) (0, 0, 0.00000000000000000000e+00) (0, 0, 0.00000000000000000000e+00) (0, 0, 0.00000000000000000000e+00) (0, 0, 0.00000000000000000000e+00) (0, 0, 0.00000000000000000000e+00) (0, 0, 0.00000000000000000000e+00) (0, 0, 0.00000000000000000000e+00) (0, 0, 0.00000000000000000000e+00) (0, 0, 0.00000000000000000000e+00) (0, 0, 0.00000000000000000000e+00) (0, 0, 0.00000000000000000000e+00) (0, 0, 0.00000000000000000000e+00) (0, 0, 0.00000000000000000000e+00) (0, 0, 0.00000000000000000000e+00) (0, 0, 0.00000000000000000000e+00) (0, 0, 0.00000000000000000000e+00) (0, 0, 0.00000000000000000000e+00) (0, 0, 0.00000000000000000000e+00) (0, 0, 0.00000000000000000000e+00) (0, 0, 0.00000000000000000000e+00) (0, 0, 0.00000000000000000000e+00) (0, 0, 0.00000000000000000000e+00) (0, 0, 0.00000000000000000000e+00) (0, 0, 0.00000000000000000000e+00) (0, 0, 0.00000000000000000000e+00) (0, 0, 0.00000000000000000000e+00) (0, 0, 0.00000000000000000000e+00) (0, 0, 0.00000000000000000000e+00) (0, 0, 0.00000000000000000000e+00) (0, 0, 0.00000000000000000000e+00) (0, 0, 0.00000000000000000000e+00) (0, 0, 0.00000000000000000000e+00) (0, 0, 0.00000000000000000000e+00) (0, 0, 0.00000000000000000000e+00) (0, 0, 0.00000000000000000000e+00) (0, 0, 0.00000000000000000000e+00) (0, 0, 0.00000000000000000000e+00) (0, 0, 0.00000000000000000000e+00) (0, 0, 0.00000000000000000000e+00) (0, 0, 0.00000000000000000000e+00) (0, 0, 0.00000000000000000000e+00) (0, 0, 0.00000000000000000000e+00) (0, 0, 0.00000000000000000000e+00) (0, 0, 0.00000000000000000000e+00) (0, 0, 0.00000000000000000000e+00) (0, 0, 0.00000000000000000000e+00) (0, 0, 0.00000000000000000000e+00) (0, 0, 0.00000000000000000000e+00) (0, 0, 0.00000000000000000000e+00) (0, 0, 0.00000000000000000000e+00) (0, 0, 0.00000000000000000000e+00) (0, 0, 0.00000000000000000000e+00) (0, 0, 0.00000000000000000000e+00) (0, 0, 0.00000000000000000000e+00) (0, 0, 0.00000000000000000000e+00) (0, 0, 0.00000000000000000000e+00) (0, 0, 0.00000000000000000000e+00) (0, 0, 0.00000000000000000000e+00) (0, 0, 0.00000000000000000000e+00) (0, 0, 0.00000000000000000000e+00) (0, 0, 0.00000000000000000000e+00) (0, 0, 0.00000000000000000000e+00) (0, 0, 0.00000000000000000000e+00) (0, 0, 0.00000000000000000000e+00) (0, 0, 0.00000000000000000000e+00) (0, 0, 0.00000000000000000000e+00) (0, 0, 0.00000000000000000000e+00) (0, 0, 0.00000000000000000000e+00) (0, 0, 0.00000000000000000000e+00) (0, 0, 0.00000000000000000000e+00) (0, 0, 0.00000000000000000000e+00) (0, 0, 0.00000000000000000000e+00) (0, 0, 0.00000000000000000000e+00) (0, 0, 0.00000000000000000000e+00) (0, 0, 0.00000000000000000000e+00) (0, 0, 0.00000000000000000000e+00) (0, 0, 0.00000000000000000000e+00) (0, 0, 0.00000000000000000000e+00) (0, 0, 0.00000000000000000000e+00) (0, 0, 0.00000000000000000000e+00) (0, 0, 0.00000000000000000000e+00) (0, 0, 0.00000000000000000000e+00) (0, 0, 0.00000000000000000000e+00) (0, 0, 0.00000000000000000000e+00) (0, 0, 0.00000000000000000000e+00) (0, 0, 0.00000000000000000000e+00) (0, 0, 0.00000000000000000000e+00) (0, 0, 0.00000000000000000000e+00) (0, 0, 0.00000000000000000000e+00) (0, 0, 0.00000000000000000000e+00) (0, 0, 0.00000000000000000000e+00) (0, 0, 0.00000000000000000000e+00) (0, 0, 0.00000000000000000000e+00) (0, 0, 0.00000000000000000000e+00) (0, 0, 0.00000000000000000000e+00) (0, 0, 0.00000000000000000000e+00) (0, 0, 0.00000000000000000000e+00) (0, 0, 0.00000000000000000000e+00) (0, 0, 0.00000000000000000000e+00) (0, 0, 0.00000000000000000000e+00) (0, 0, 0.00000000000000000000e+00) (0, 0, 0.00000000000000000000e+00) (0, 0, 0.00000000000000000000e+00) (0, 0, 0.00000000000000000000e+00) (0, 0, 0.00000000000000000000e+00) (0, 0, 0.00000000000000000000e+00) (0, 0, 0.00000000000000000000e+00) (0, 0, 0.00000000000000000000e+00) (0, 0, 0.00000000000000000000e+00) (0, 0, 0.00000000000000000000e+00) (0, 0, 0.00000000000000000000e+00) (0, 0, 0.00000000000000000000e+00) (0, 0, 0.00000000000000000000e+00) (0, 0, 0.00000000000000000000e+00) (0, 0, 0.00000000000000000000e+00) (0, 0, 0.00000000000000000000e+00) (0, 0, 0.00000000000000000000e+00) (0, 0, 0.00000000000000000000e+00) (0, 0, 0.00000000000000000000e+00) (0, 0, 0.00000000000000000000e+00) (0, 0, 0.00000000000000000000e+00) (0, 0, 0.00000000000000000000e+00) (0, 0, 0.00000000000000000000e+00) (0, 0, 0.00000000000000000000e+00) (0, 0, 0.00000000000000000000e+00) (0, 0, 0.00000000000000000000e+00) (0, 0, 0.00000000000000000000e+00) (0, 0, 0.00000000000000000000e+00) (0, 0, 0.00000000000000000000e+00) (0, 0, 0.00000000000000000000e+00) (0, 0, 0.00000000000000000000e+00) (0, 0, 0.00000000000000000000e+00) (0, 0, 0.00000000000000000000e+00) (0, 0, 0.00000000000000000000e+00) (0, 0, 0.00000000000000000000e+00) (0, 0, 0.00000000000000000000e+00) (0, 0, 0.00000000000000000000e+00) (0, 0, 0.00000000000000000000e+00) (0, 0, 0.00000000000000000000e+00) (0, 0, 0.00000000000000000000e+00) (0, 0, 0.00000000000000000000e+00) (0, 0, 0.00000000000000000000e+00) (0, 0, 0.00000000000000000000e+00) (0, 0, 0.00000000000000000000e+00) (0, 0, 0.00000000000000000000e+00) (0, 0, 0.00000000000000000000e+00) (0, 0, 0.00000000000000000000e+00) (0, 0, 0.00000000000000000000e+00) (0, 0, 0.00000000000000000000e+00) (0, 0, 0.00000000000000000000e+00) (0, 0, 0.00000000000000000000e+00) (0, 0, 0.00000000000000000000e+00) (0, 0, 0.00000000000000000000e+00) (0, 0, 0.00000000000000000000e+00) (0, 0, 0.00000000000000000000e+00) (0, 0, 0.00000000000000000000e+00) (0, 0, 0.00000000000000000000e+00) (0, 0, 0.00000000000000000000e+00) (0, 0, 0.00000000000000000000e+00) (0, 0, 0.00000000000000000000e+00) (0, 0, 0.00000000000000000000e+00) (0, 0, 0.00000000000000000000e+00) (0, 0, 0.00000000000000000000e+00) (0, 0, 0.00000000000000000000e+00) (0, 0, 0.00000000000000000000e+00) (0, 0, 0.00000000000000000000e+00) (0, 0, 0.00000000000000000000e+00) (0, 0, 0.00000000000000000000e+00) (0, 0, 0.00000000000000000000e+00) (0, 0, 0.00000000000000000000e+00) (0, 0, 0.00000000000000000000e+00) (0, 0, 0.00000000000000000000e+00) (0, 0, 0.00000000000000000000e+00) (0, 0, 0.00000000000000000000e+00) (0, 0, 0.00000000000000000000e+00) (0, 0, 0.00000000000000000000e+00) (0, 0, 0.00000000000000000000e+00) (0, 0, 0.00000000000000000000e+00) (0, 0, 0.00000000000000000000e+00) (0, 0, 0.00000000000000000000e+00) (0, 0, 0.00000000000000000000e+00) (0, 0, 0.00000000000000000000e+00) (0, 0, 0.00000000000000000000e+00) (0, 0, 0.00000000000000000000e+00) (0, 0, 0.00000000000000000000e+00) (0, 0, 0.00000000000000000000e+00) (0, 0, 0.00000000000000000000e+00) (0, 0, 0.00000000000000000000e+00) (0, 0, 0.00000000000000000000e+00) (0, 0, 0.00000000000000000000e+00) (0, 0, 0.00000000000000000000e+00) (0, 0, 0.00000000000000000000e+00) (0, 0, 0.00000000000000000000e+00) (0, 0, 0.00000000000000000000e+00) (0, 0, 0.00000000000000000000e+00) (0, 0, 0.00000000000000000000e+00) (0, 0, 0.00000000000000000000e+00) (0, 0, 0.00000000000000000000e+00) (0, 0, 0.00000000000000000000e+00) (0, 0, 0.00000000000000000000e+00) (0, 0, 0.00000000000000000000e+00) (0, 0, 0.00000000000000000000e+00) (0, 0, 0.00000000000000000000e+00) (0, 0, 0.00000000000000000000e+00) (0, 0, 0.00000000000000000000e+00) (0, 0, 0.00000000000000000000e+00) (0, 0, 0.00000000000000000000e+00) (0, 0, 0.00000000000000000000e+00) (0, 0, 0.00000000000000000000e+00) (0, 0, 0.00000000000000000000e+00) (0, 0, 0.00000000000000000000e+00) (0, 0, 0.00000000000000000000e+00) (0, 0, 0.00000000000000000000e+00) (0, 0, 0.00000000000000000000e+00) (0, 0, 0.00000000000000000000e+00) (0, 0, 0.00000000000000000000e+00) (0, 0, 0.00000000000000000000e+00) (0, 0, 0.00000000000000000000e+00) (0, 0, 0.00000000000000000000e+00) (0, 0, 0.00000000000000000000e+00) (0, 0, 0.00000000000000000000e+00) (0, 0, 0.00000000000000000000e+00) (0, 0, 0.00000000000000000000e+00) (0, 0, 0.00000000000000000000e+00) (0, 0, 0.00000000000000000000e+00) (0, 0, 0.00000000000000000000e+00) (0, 0, 0.00000000000000000000e+00) (0, 0, 0.00000000000000000000e+00) (0, 0, 0.00000000000000000000e+00) (0, 0, 0.00000000000000000000e+00) (0, 0, 0.00000000000000000000e+00) (0, 0, 0.00000000000000000000e+00) (0, 0, 0.00000000000000000000e+00) (0, 0, 0.00000000000000000000e+00) (0, 0, 0.00000000000000000000e+00) (0, 0, 0.00000000000000000000e+00) (0, 0, 0.00000000000000000000e+00) (0, 0, 0.00000000000000000000e+00) (0, 0, 0.00000000000000000000e+00) (0, 0, 0.00000000000000000000e+00) (0, 0, 0.00000000000000000000e+00) (0, 0, 0.00000000000000000000e+00) (0, 0, 0.00000000000000000000e+00) (0, 0, 0.00000000000000000000e+00) (0, 0, 0.00000000000000000000e+00) (0, 0, 0.00000000000000000000e+00) (0, 0, 0.00000000000000000000e+00) (0, 0, 0.00000000000000000000e+00) (0, 0, 0.00000000000000000000e+00) (0, 0, 0.00000000000000000000e+00) (490, 3, 5.00000000000000000000e-01) (490, 3, 5.00000000000000000000e-01) (490, 3, 5.00000000000000000000e-01) (490, 3, 5.00000000000000000000e-01) (490, 3, 5.00000000000000000000e-01) (490, 3, 5.00000000000000000000e-01) (490, 3, 5.00000000000000000000e-01) (490, 3, 5.00000000000000000000e-01) (490, 3, 5.00000000000000000000e-01) (490, 3, 5.00000000000000000000e-01) (490, 3, 5.00000000000000000000e-01) (490, 3, 5.00000000000000000000e-01) (490, 3, 5.00000000000000000000e-01) (490, 3, 5.00000000000000000000e-01) (490, 3, 5.00000000000000000000e-01) (490, 3, 5.00000000000000000000e-01) (490, 3, 5.00000000000000000000e-01) (490, 3, 5.00000000000000000000e-01) (490, 3, 5.00000000000000000000e-01) (490, 3, 5.00000000000000000000e-01) (490, 3, 5.00000000000000000000e-01) (490, 3, 5.00000000000000000000e-01) (490, 3, 5.00000000000000000000e-01) (490, 3, 5.00000000000000000000e-01) (490, 3, 5.00000000000000000000e-01) (490, 3, 5.00000000000000000000e-01) (490, 3, 5.00000000000000000000e-01) (490, 3, 5.00000000000000000000e-01) (490, 3, 5.00000000000000000000e-01) (490, 3, 5.00000000000000000000e-01) (490, 3, 5.00000000000000000000e-01) (490, 3, 5.00000000000000000000e-01) (490, 3, 5.00000000000000000000e-01) (490, 3, 5.00000000000000000000e-01) (490, 3, 5.00000000000000000000e-01) (490, 3, 5.00000000000000000000e-01) (490, 3, 5.00000000000000000000e-01) (490, 3, 5.00000000000000000000e-01) (490, 3, 5.00000000000000000000e-01) (490, 3, 5.00000000000000000000e-01) (490, 3, 5.00000000000000000000e-01) (490, 3, 5.00000000000000000000e-01) (490, 3, 5.00000000000000000000e-01) (490, 3, 5.00000000000000000000e-01) (490, 3, 5.00000000000000000000e-01) (490, 3, 5.00000000000000000000e-01) (490, 3, 5.00000000000000000000e-01) (490, 3, 5.00000000000000000000e-01) (490, 3, 5.00000000000000000000e-01) (490, 3, 5.00000000000000000000e-01) (490, 3, 5.00000000000000000000e-01) (490, 3, 5.00000000000000000000e-01) (490, 3, 5.00000000000000000000e-01) (490, 3, 5.00000000000000000000e-01) (490, 3, 5.00000000000000000000e-01) (490, 3, 5.00000000000000000000e-01) (490, 3, 5.00000000000000000000e-01) (490, 3, 5.00000000000000000000e-01) (490, 3, 5.00000000000000000000e-01) (490, 3, 5.00000000000000000000e-01) (490, 3, 5.00000000000000000000e-01) (490, 3, 5.00000000000000000000e-01) (490, 3, 5.00000000000000000000e-01) (490, 3, 5.00000000000000000000e-01) (490, 3, 5.00000000000000000000e-01) (490, 3, 5.00000000000000000000e-01) (490, 3, 5.00000000000000000000e-01) (490, 3, 5.00000000000000000000e-01) (490, 3, 5.00000000000000000000e-01) (490, 3, 5.00000000000000000000e-01) (490, 3, 5.00000000000000000000e-01) (490, 3, 5.00000000000000000000e-01) (490, 3, 5.00000000000000000000e-01) (490, 3, 5.00000000000000000000e-01) (490, 3, 5.00000000000000000000e-01) (490, 3, 5.00000000000000000000e-01) (490, 3, 5.00000000000000000000e-01) (490, 3, 5.00000000000000000000e-01) (490, 3, 5.00000000000000000000e-01) (490, 3, 5.00000000000000000000e-01) (490, 3, 5.00000000000000000000e-01) (490, 3, 5.00000000000000000000e-01) (490, 3, 5.00000000000000000000e-01) (490, 3, 5.00000000000000000000e-01) (490, 3, 5.00000000000000000000e-01) (490, 3, 5.00000000000000000000e-01) (490, 3, 5.00000000000000000000e-01) (490, 3, 5.00000000000000000000e-01) (490, 3, 5.00000000000000000000e-01) (490, 3, 5.00000000000000000000e-01) (490, 3, 5.00000000000000000000e-01) (490, 3, 5.00000000000000000000e-01) (490, 3, 5.00000000000000000000e-01) (490, 3, 5.00000000000000000000e-01) (490, 3, 5.00000000000000000000e-01) (490, 3, 5.00000000000000000000e-01) (490, 3, 5.00000000000000000000e-01) (490, 3, 5.00000000000000000000e-01) (490, 3, 5.00000000000000000000e-01) (490, 3, 5.00000000000000000000e-01) (0, 3, 0.00000000000000000000e+00) (101, 3, 5.00000000000000000000e-01) (101, 3, 5.00000000000000000000e-01) (101, 3, 5.00000000000000000000e-01) (0, 3, 0.00000000000000000000e+00) 
connections (connected_to_neuron, weight)=(0, 9.48762125430256952896e-02) (1, 5.19516385499652136315e-02) (2, 2.13080588507512762309e-02) (3, 3.11217889573774351974e-02) (4, -1.64110535753656805458e-01) (5, 3.69734745284820282007e-02) (6, 1.89951177439483198661e-01) (7, -1.82259909356558835736e-01) (8, 3.41727206001311289985e-02) (9, -5.67899132766325684396e-02) (10, 2.42297763349705042035e-01) (11, 2.46936699420962288420e-02) (12, -6.88970077149565623964e-02) (13, 2.82419257885332501690e-02) (14, -3.46210953157505135769e-02) (15, -7.76823772688576552614e-02) (16, -1.08087211233754976192e-01) (17, -8.78508665714331365981e-02) (18, -1.38014132365018277193e-01) (19, -2.13097876696299842747e-01) (20, -1.21118174365740044474e-01) (21, -3.46872960492659698772e-01) (22, 1.22616718668400841163e-02) (23, 2.81708173697257924228e-01) (24, 3.44956629392074096141e-02) (25, 1.11948532692606725347e-01) (26, 7.30413531081103017950e-02) (27, -3.29293397999210271654e-02) (28, -1.70099584470751047371e-01) (29, 2.77813613795521267835e-02) (30, 2.32269387691370794713e-02) (31, 6.72995134220696206162e-02) (32, -1.61867519975922469211e-01) (33, 5.03833193466960566065e-02) (34, -9.91179336130179472475e-02) (35, 4.91580711300807111919e-03) (36, 1.37023977247292760850e-01) (37, 2.24933797338605391547e-02) (38, 1.85936233551595962721e-02) (39, 4.18118766284330048433e-02) (40, 2.13542933019966636732e-02) (41, -8.47472888257244129362e-03) (42, 6.25883922147196375407e-02) (43, -9.27471605305774521311e-02) (44, -3.19956676304360317087e-03) (45, 3.95459389361023441745e-02) (46, 3.13985221254703622887e-03) (47, -4.38492898088053140171e-02) (48, -7.61072713695145524129e-04) (49, -2.35148745899323718955e-02) (50, -1.64548810035371265159e-02) (51, 1.09352236023559382105e-01) (52, 3.96070514939676834865e-02) (53, 1.46232944357672395297e-01) (54, 8.95562935585183378384e-02) (55, -1.70213241493247582903e-02) (56, 5.55774572373850250795e-02) (57, 4.57487923065794804822e-02) (58, 2.49937647834752862952e-02) (59, 1.30483135430054120879e-02) (60, 1.24619745100225838563e-02) (61, 1.04600054368311393138e-01) (62, 3.61559832919998228040e-02) (63, -2.12942877775802071050e-02) (64, -5.38210102115598623684e-02) (65, -4.85677969479428109367e-02) (66, 5.55269302340474502078e-02) (67, -1.19126209632647625525e-01) (68, -4.45024620892899361313e-02) (69, 7.27939984142979001902e-02) (70, -5.08683243879841304191e-02) (71, -4.00519081726346815042e-02) (72, -5.79784399909153425057e-02) (73, -3.17109393649819062966e-02) (74, 7.21431325202978451783e-02) (75, -1.23211687119959736880e-01) (76, -4.58948173421711794889e-03) (77, -1.50476477790087923014e-02) (78, 8.64951614589963696522e-02) (79, 1.00184814257622198386e-01) (80, -1.13264883300080332340e-01) (81, 5.71611450120223310578e-02) (82, 9.00350021366270597545e-02) (83, 2.22885734881949876263e-01) (84, -1.80855322951135460974e-02) (85, 2.24888772747864618129e-02) (86, 4.01250911597562306965e-02) (87, -6.78423728999042047194e-02) (88, -2.20479759431307681394e-01) (89, -3.39889632720183978987e-02) (90, -4.02269813771446022033e-02) (91, -1.32465733562838437753e-02) (92, 7.79877090854515925278e-02) (93, 1.34972179720248997015e-01) (94, 3.47690481774268547732e-03) (95, -1.56276210905013784869e-01) (96, -5.02647967740867465669e-03) (97, 2.47765541462841160092e-02) (98, -3.14901723268878330764e-02) (99, 8.71760208488022714235e-02) (100, -2.09909864779064425644e-01) (101, 6.84574355510565862870e-02) (102, 6.45820265798732334739e-02) (103, 1.45865711726091001887e-01) (104, 6.61028598863235561378e-02) (105, -1.86797135211394169096e-02) (106, -4.51040131740445618402e-02) (107, -7.81782162079300013691e-02) (108, -4.68702919142285345799e-02) (109, -1.66608563778562951407e-01) (110, -3.78455494151948221293e-02) (111, 1.82187814433535516523e-01) (112, 6.59793816350618955724e-02) (113, 1.65138528145251095580e-01) (114, 6.69073628439211531838e-02) (115, -6.81505546953958818435e-02) (116, -1.14236046796131904268e-01) (117, -5.76368884531383365855e-02) (118, 2.80372269707765998936e-02) (119, 5.20424971155334994966e-02) (120, -2.11852406171188278883e-01) (121, 6.37037326853171770313e-02) (122, -7.23834712036243140346e-04) (123, 1.86105176645262160307e-01) (124, -6.82879250820127570165e-02) (125, -5.90324631499016417441e-03) (126, 2.10836950547089105323e-02) (127, -1.47981044575711817579e-01) (128, -2.50609588896753450460e-02) (129, -1.49577463506338548260e-01) (130, -8.25439733742286962936e-02) (131, 1.00885651478757401578e-01) (132, -8.46938529466984557637e-02) (133, 1.21270260663671219925e-01) (134, -4.23559605008968775852e-02) (135, -2.05096336991593269916e-02) (136, -9.04382336229214885137e-03) (137, 2.06170693277747639482e-02) (138, -1.03226450645599095862e-02) (139, 3.96778571229210452742e-02) (140, -1.16090317999182181599e-03) (141, -4.01069738579488480057e-02) (142, -1.62326852577395930322e-01) (143, 5.64162433520290149125e-02) (144, -6.08886121155530549154e-02) (145, 7.12187233420023477204e-03) (146, 1.08661530136107534195e-01) (147, -7.08801748844217760492e-03) (148, -5.57728393658155630064e-02) (149, -1.19868342818744019751e-01) (150, 5.07932511565326386127e-02) (151, 6.06584556078724121408e-02) (152, -5.97666939888097450972e-02) (153, 7.75813702356769885338e-02) (154, -7.83137565543760710840e-02) (155, 2.65977070465706934288e-02) (156, 4.36872687587960065181e-02) (157, 6.80911982136068322236e-02) (158, -6.45940971150344290901e-04) (159, -8.81172809679229979141e-02) (160, -2.24380145053383051046e-01) (161, -4.35902374442752801875e-02) (162, -1.06216145378404791533e-01) (163, -6.39523881469189342530e-02) (164, -4.29615799023756461672e-02) (165, 3.81923093864861215585e-02) (166, 9.62195137938951644552e-02) (167, -1.92209242284879303075e-02) (168, -1.24719695542259822324e-02) (169, -2.23060685979605960449e-01) (170, -5.23737120987845666820e-02) (171, 6.65761465585891359931e-02) (172, -6.00943499121775427316e-04) (173, 1.27631523101556870747e-01) (174, 4.74985451608995398742e-02) (175, 1.79439257517673617093e-01) (176, 1.77943395401250259447e-01) (177, 9.20181310793120044167e-02) (178, 5.81088596870064921784e-03) (179, -4.10422861143614203794e-02) (180, -1.52279685156628791232e-01) (181, -9.43729819984932133403e-02) (182, -5.13007974073032557705e-02) (183, -2.51596464733013606974e-02) (184, 6.92236278872778582061e-02) (185, -7.38769059382702545508e-03) (186, -2.38915003972362469109e-02) (187, -1.57830650934205340974e-02) (188, 1.24133990197595259208e-01) (189, -1.40245529956368408797e-01) (190, -7.64321835819845984278e-03) (191, 1.75636790955020563598e-02) (192, -2.22734128241330216202e-02) (193, 1.48407757712949950335e-01) (194, -9.14966614431670689778e-03) (195, 1.20554416540933545532e-01) (196, 2.07059650939179912266e-02) (197, 9.82409861702968206787e-02) (198, -5.45494309671466781619e-03) (199, -1.30601737346682206242e-01) (200, 9.96848982397773447639e-02) (201, -5.39066262859207515068e-02) (202, -9.95191037652428112104e-02) (203, -1.49880788368731334564e-02) (204, -5.45760162527815922973e-02) (205, 1.31892384750895846901e-01) (206, -1.30990639069284542373e-01) (207, 1.89809229948345037364e-01) (208, 1.84501908451979418357e-01) (209, -1.59491815592997104867e-01) (210, -1.33668666628612459180e-01) (211, -8.66634435655878887506e-02) (212, -1.94888089860749597060e-01) (213, 1.43176992106780837100e-01) (214, -1.44158390986766721253e-01) (215, 2.27226512806165681368e-01) (216, 1.02199173819167404842e-01) (217, 1.24260326594997319583e-01) (218, -1.32814572229877359000e-01) (219, -1.16469008884398955717e-01) (220, 2.91406575292277418565e-02) (221, 6.13653905201555840976e-03) (222, -1.90312302046505843478e-02) (223, -1.54925287474985712288e-01) (224, -1.51635608257419590705e-01) (225, 8.65369285805654142596e-02) (226, -1.74310364620643754030e-01) (227, 2.62649436999279339844e-01) (228, 7.36083185681365159692e-02) (229, -6.02024554602561615124e-02) (230, 5.74167130037148663868e-03) (231, 2.43011477871423048347e-02) (232, -5.50154676101355794016e-02) (233, -3.45384619085938732175e-02) (234, -1.67001449205285840138e-01) (235, 1.81059513609474947993e-01) (236, 1.15062578785968400163e-01) (237, 5.36343111503955194408e-02) (238, 5.47305496639349728372e-02) (239, -4.87385218133913403205e-02) (240, 1.79708898363003938270e-01) (241, -1.06657248621674610733e-01) (242, -2.16838338127129021116e-01) (243, -1.26941103986054404373e-01) (244, -3.69769774649744142891e-02) (245, -3.58073393213302823557e-02) (246, -2.18354174211447260578e-01) (247, 2.12794055564391432211e-01) (248, 1.39941599937762534145e-01) (249, -5.75401662228062285576e-02) (250, -4.91142035830124321083e-02) (251, -9.33404822741985135126e-02) (252, -4.55927150291120450443e-02) (253, 3.44384225379917516263e-02) (254, 1.16289940702032894987e-02) (255, 1.44773539276901480610e-01) (256, 1.14640881261925415419e-02) (257, -1.36836639129416903771e-01) (258, -1.16454256933544789132e-01) (259, -5.59101814614995223929e-02) (260, 2.20454896189047289123e-01) (261, 5.24644260617109850497e-02) (262, 7.42136645548324268978e-03) (263, -6.92042012840969784915e-03) (264, 2.48746801863197232463e-03) (265, -8.32021253504969526826e-02) (266, -9.18591734326482667328e-02) (267, 2.88466396421658555216e-01) (268, 1.44709000047912428322e-01) (269, -1.41902352664687801372e-04) (270, -1.60829117085563355616e-01) (271, -5.01158618372818873143e-02) (272, -1.63660930426605399912e-01) (273, 4.65194049293024200487e-03) (274, -1.02097091570732129151e-01) (275, 1.45733165132920838847e-01) (276, 1.22659809987028523004e-01) (277, -7.46880371573783036210e-02) (278, -1.74703694317490804133e-02) (279, -3.92342721651147141593e-02) (280, -4.14900844051271505686e-02) (281, 1.16113377636164347151e-01) (282, 8.03905123484977696124e-02) (283, -2.79921868797397520312e-02) (284, 6.10353145759523901814e-02) (285, 1.36002430129330657838e-02) (286, -9.38744797739763381372e-02) (287, -3.30728999023402192581e-02) (288, 1.31810946598195588564e-01) (289, 6.73303421026935091341e-04) (290, -4.87903813450644083249e-02) (291, -1.53654850787895355668e-02) (292, -8.65931378594730905007e-02) (293, -1.25707829705279574423e-02) (294, 3.80032846797960441321e-02) (295, 1.28107735394560162678e-01) (296, -4.52114868354554222396e-02) (297, 8.98201617814127356576e-02) (298, 1.95916210968885996097e-03) (299, -9.13092200837738871000e-03) (300, 1.17798335446903656987e-01) (301, 1.49007506380317872319e-01) (302, -5.75966835179726188709e-02) (303, -1.85747282296777407873e-02) (304, -1.23285399741861700917e-01) (305, -7.43334733199896291467e-02) (306, -6.75316426628100457963e-02) (307, 5.89066024660120160505e-02) (308, -3.25448584476310046054e-02) (309, -4.59963173837376615438e-02) (310, -8.18590692338980741027e-02) (311, 4.09003761332029161513e-02) (312, -8.79272241495527295818e-02) (313, -8.37138498105294420748e-02) (314, 5.07417907641734625135e-03) (315, -4.80627210656108059400e-03) (316, 3.02199347877273524765e-02) (317, -6.84484677695669091468e-02) (318, 9.00978344328552671616e-02) (319, 1.08166060309793175126e-02) (320, 4.33466220640473590131e-02) (321, -4.64942068858988227786e-02) (322, 8.75490245754825119340e-03) (323, -1.72524317824690777423e-02) (324, 1.30389008787223353164e-02) (325, -7.19108997047872983144e-02) (326, -3.16210644371740859371e-02) (327, 3.47394148422340287574e-02) (328, -9.08757145392661974670e-02) (329, -2.30398740774449689583e-01) (330, -4.57397782132260427579e-02) (331, 1.04560012599269974709e-01) (332, 1.73720755968142404058e-01) (333, -1.33231139873014967773e-02) (334, -6.94921757780986759818e-04) (335, 9.00583298813081856160e-02) (336, -9.73138849574477354798e-02) (337, -6.46749186006532195137e-02) (338, 6.14655325624907586390e-02) (339, -1.42764882826837774532e-01) (340, -1.21534592423457224464e-01) (341, 1.35967942729914182537e-02) (342, 1.20545341184645646293e-01) (343, 1.08130235288204479271e-01) (344, 9.71886471780515209806e-02) (345, -2.84671576116220861885e-02) (346, -3.05968468198856147211e-02) (347, 9.27333134014239612863e-02) (348, -9.68802153050886544206e-02) (349, 3.73137817296079025986e-03) (350, -2.80180746994526577026e-03) (351, 1.52165574134109027327e-01) (352, 1.16444367916487448444e-01) (353, -1.69591716977168904812e-01) (354, 1.13530328150411845972e-02) (355, -2.59931103016850968690e-02) (356, -1.39653962042757845419e-01) (357, 4.86771859753935415283e-02) (358, -1.94313013925248995184e-02) (359, -1.09232456791122076178e-01) (360, -1.04388578583582997128e-01) (361, 3.74530878318425422546e-02) (362, 5.30239630013571716649e-02) (363, 2.04438977512706759887e-01) (364, 1.51280536906949619746e-01) (365, 1.75725733869413688892e-02) (366, 6.77196567028337248484e-02) (367, -1.41123095996868331420e-02) (368, -1.50729710936152616618e-01) (369, -1.22313033804530846282e-01) (370, 6.24308579949627087680e-02) (371, 1.10754855351908917949e-01) (372, 1.02678562699952888315e-01) (373, 3.66419869289577315730e-02) (374, 6.85993540609361740490e-02) (375, 8.30802841901103344968e-02) (376, 8.21797420411065661361e-03) (377, 1.21648254930367908516e-02) (378, -5.95189089436699500513e-02) (379, -8.91978845946879289608e-02) (380, -2.88256295563237736890e-02) (381, 5.44562941300812328183e-02) (382, -4.49933974834600264314e-02) (383, 3.15544085353521019943e-02) (384, 7.77654081323572166085e-02) (385, 5.65565067757409362104e-02) (386, 9.40869485559864965341e-02) (387, 6.65397832951686030167e-02) (388, -1.41594944086005369854e-01) (389, 3.68961889149075697447e-02) (390, -1.02050574648843803138e-01) (391, 1.03175308955029340630e-01) (392, -1.33280916965967007048e-02) (393, -8.90926089477577093367e-02) (394, -1.74427056576825813272e-02) (395, 4.67306082197550126667e-02) (396, 1.30772583735666125641e-03) (397, -5.29924314673100235740e-02) (398, -2.76411926844386916791e-02) (399, -4.80063549083018237251e-02) (400, -4.63032093263997038268e-02) (401, 1.07037877974091227840e-01) (402, -1.27972651009123417065e-01) (403, -6.51045122283088265047e-03) (404, 3.01337560904695843378e-02) (405, 4.19367645515820730573e-02) (406, 1.22823734026678441089e-01) (407, 1.47161937993652482820e-02) (408, -3.00180563336385070050e-02) (409, -8.78201799973887253792e-02) (410, -1.24830545304610383145e-02) (411, -4.49956426084139465837e-02) (412, 4.58282671188039794630e-02) (413, 8.65864410490412989008e-02) (414, 1.25057604077360023931e-01) (415, 8.02187109823645910778e-02) (416, -5.02963397625571448368e-02) (417, 7.43780521940609531256e-03) (418, -8.46170839739234098564e-02) (419, -2.64037822433585978033e-01) (420, -2.40436770052284864985e-01) (421, -2.97172014292837530225e-02) (422, -2.85948049973893669851e-01) (423, -1.10214486164974576066e-01) (424, -1.81969467217140606907e-01) (425, -2.02775104665973898710e-01) (426, -7.61413559025844038919e-02) (427, -6.25858656504286736677e-02) (428, 2.07303345632727682724e-02) (429, 4.13646500709549461150e-02) (430, 7.29612310232734956328e-02) (431, 1.57967747267553471069e-01) (432, 6.29939895711805752931e-02) (433, -1.25889213323325283023e-01) (434, -1.08305967774655911851e-01) (435, -8.22478918759640166558e-03) (436, -2.46721017123139929605e-01) (437, -9.63282473063089561549e-02) (438, 6.16914407414198701085e-02) (439, -1.57885236497412512202e-01) (440, -1.03144150250472632635e-02) (441, -8.87824150756891944392e-02) (442, -1.90776214986836875620e-02) (443, -3.45575054719242727441e-02) (444, -2.01162927447975925510e-01) (445, -5.43055143217004432366e-02) (446, 8.14258258711173382727e-02) (447, -1.96541354966902975798e-01) (448, -4.00696647679437481515e-02) (449, -1.02832360108406378751e-01) (450, -1.34270207320826423514e-01) (451, 7.98824723960250143717e-02) (452, -2.92690650136378793800e-01) (453, -7.65242772473713889214e-02) (454, 1.95266110900908090864e-01) (455, -4.32029329284785934551e-01) (456, -8.45826039211782648719e-02) (457, 2.49858889093247493740e-01) (458, -2.65722388931196318307e-01) (459, 1.26234761453777433182e-01) (460, 1.12267608745774527534e+00) (461, -9.27837899647830477434e-01) (462, 7.10447361065819488202e-02) (463, 3.26136636847111027748e-01) (464, -1.97694482892991352241e-01) (465, 2.76154859095505342270e-02) (466, 2.10481678019837886717e-01) (467, -2.83540320552614077965e-01) (468, -1.64896604966165455375e-01) (469, 1.03796234790858282748e-01) (470, -1.84088909395060840168e-01) (471, -1.49494572507118755889e-01) (472, -4.57539208516417605921e-02) (473, 8.13782486070331601002e-02) (474, -1.00219508895354497691e-01) (475, -4.82412165307253698598e-02) (476, 5.28539781046002410392e-02) (477, -1.23596573877509843808e-01) (478, 1.31345380956250257221e-01) (479, -9.87869808838019447528e-02) (480, -2.35686223215110318696e-01) (481, 6.62073751251192610390e-02) (482, -5.72508089551675009021e-02) (483, -1.95186244263798047704e-01) (484, 1.78331083390420558343e-01) (485, 7.66398907544735552566e-02) (486, -1.94734982749345697517e-01) (487, 1.68487167415355340583e-02) (488, -1.16708745733582544557e-01) (489, -1.34431306969571978671e-01) (0, 2.75126433572863871024e-01) (1, 1.02254015219005206516e-01) (2, -1.41618247412200942703e-01) (3, 3.62423217647971362965e-02) (4, -1.16492761222731194826e-01) (5, 1.64896245449281581008e-01) (6, 1.99191607643601359401e-01) (7, -2.57725531919170969264e-01) (8, 8.70040603280085034221e-02) (9, 9.95053707446459517749e-02) (10, 3.95735594291121983712e-01) (11, -1.60087449083244799664e-02) (12, -1.69104377083188206488e-01) (13, -1.13783917343725629601e-01) (14, -2.06237909023922555418e-01) (15, 7.02100059535433040220e-03) (16, -1.46294476205791168510e-01) (17, 3.27127587335918346145e-02) (18, -1.03261966928407611377e-01) (19, -2.15742939056625421257e-01) (20, -1.22803043504003339681e-01) (21, -2.13058185802438682099e-01) (22, 1.69075094542963960675e-01) (23, 1.97236823751887946354e-01) (24, -1.33648385530743853133e-02) (25, 5.79078352934932344409e-02) (26, 4.09054493259334919775e-02) (27, 2.06144454851100999981e-02) (28, 6.39785291804687294981e-02) (29, 5.68043796972116099564e-02) (30, 9.10830484100005749459e-02) (31, -2.70599306978780602961e-02) (32, -6.94999973995024666884e-02) (33, 8.50507158121303341591e-02) (34, -8.43937964018357800189e-02) (35, 5.92208690435376550187e-02) (36, 7.66290032234220319651e-02) (37, 1.47168694712513439815e-02) (38, 1.42495894566324943220e-01) (39, -4.84977750179710516421e-03) (40, -5.63337751594126315280e-02) (41, 6.88738540992872710911e-02) (42, 1.77630459103710648672e-02) (43, 1.34358169003841801392e-02) (44, 1.52104298651403180287e-01) (45, 5.87090575220771265785e-02) (46, -7.12852093546704479454e-02) (47, 1.43750240507002999962e-02) (48, 8.35776508483611763056e-02) (49, 1.80352481793350331862e-02) (50, 4.38405677062391266330e-02) (51, 3.79419866677047148973e-02) (52, -1.33194924132571862474e-01) (53, 1.05706371954351383002e-01) (54, -7.47155265279650371291e-03) (55, 5.18208246592802776465e-02) (56, -1.16300601150593929667e-01) (57, 8.00744818524683626970e-02) (58, 1.08000167380194606048e-01) (59, 1.55744468112238437785e-02) (60, -1.50861410942553161862e-02) (61, 5.92374645662494536680e-02) (62, -7.80918231431815129673e-02) (63, 9.98133873605715621347e-02) (64, -9.92454172771179282675e-02) (65, -9.59365335643730943183e-02) (66, 3.59692980955050381486e-02) (67, -1.36566021452019847882e-01) (68, -2.33985230047802864745e-03) (69, -9.46788653478156244647e-02) (70, 4.66257044276220111723e-02) (71, 6.77598049201690311172e-02) (72, -1.35375759854293176154e-01) (73, 6.32853136196476345754e-02) (74, -1.45672455659250250914e-02) (75, -1.39692092783501503606e-01) (76, -8.31344517811022087894e-02) (77, -4.67210620020866874286e-03) (78, 6.33571537897108794102e-02) (79, 1.14624979614299085662e-01) (80, -1.67853949365511900815e-01) (81, 1.32566549593301809262e-02) (82, 1.35075864768302189578e-01) (83, -4.55385341927754608293e-02) (84, -5.93136688987216734170e-02) (85, -9.07743940308611968470e-02) (86, 1.40069696354171324693e-01) (87, -1.98117185329038575370e-01) (88, -2.74707018327429129678e-02) (89, -1.91244579013198634510e-02) (90, 6.42555681606342549150e-02) (91, -3.31967453840246919800e-03) (92, -8.28521409563744565263e-02) (93, 1.13784655045052349176e-01) (94, 1.21473770256220928165e-01) (95, -1.14215804561619685420e-01) (96, -3.98429697268844959512e-02) (97, -9.94816802470745581433e-02) (98, 6.76104035088138655141e-02) (99, 2.22515182112608400633e-02) (100, -1.63008735155886735901e-01) (101, -6.07273132559910597261e-02) (102, 5.61787351586624170152e-02) (103, 1.23754788578110216934e-01) (104, 1.18642261481981398097e-02) (105, 1.19088075887061384250e-01) (106, 1.77664926802405448436e-01) (107, -3.76679835522113412583e-02) (108, -9.25544862138208968005e-02) (109, -1.01029894674149425815e-01) (110, 7.85739642734645526989e-02) (111, 4.19333888131131482524e-02) (112, -9.07311900918353064771e-02) (113, 2.37498650342689542059e-02) (114, 4.13644163879810233819e-02) (115, -1.50184114600111578985e-01) (116, -1.09113919700222120057e-01) (117, -6.28954876813439811567e-02) (118, -8.36439591599522753139e-04) (119, -6.48662713099662502358e-02) (120, -7.47647109685757038644e-02) (121, 1.25722036134219367076e-01) (122, 2.96821525782125852921e-02) (123, 2.00141595254460818998e-01) (124, -1.17760959124033198764e-02) (125, 1.54662323279655733455e-01) (126, -2.95683795274328045655e-03) (127, -1.59812170509158607556e-01) (128, -1.61139333984054083926e-01) (129, -4.03629904965332048095e-02) (130, 1.05828937842168124828e-01) (131, 3.72593619755475918831e-02) (132, 1.42395307749812322085e-01) (133, 6.94495747469712904065e-02) (134, -2.84125939441683579567e-02) (135, -1.31082471484548296337e-01) (136, -1.35140679569486193978e-01) (137, -9.04526121919717734920e-02) (138, -6.57977029260649465270e-02) (139, -6.87331788449683372955e-03) (140, -1.37460998278562618324e-01) (141, 8.03794708844413896554e-02) (142, 1.14616323293928276672e-01) (143, 1.49340440331643509175e-01) (144, 1.15966960577268667770e-02) (145, 3.76837365100042079313e-02) (146, 8.72281095016369661943e-02) (147, -1.85004005804102977795e-01) (148, 2.99577615228421578752e-02) (149, 7.78553562697674558964e-04) (150, -6.94693273692391227714e-02) (151, -6.89573884733623698046e-03) (152, 1.35096353963087445482e-01) (153, 1.47108189160739005752e-01) (154, -3.71148074460923640960e-02) (155, 2.74148988699403871327e-03) (156, 6.40310249780072643366e-02) (157, -9.48858006499379152965e-03) (158, 2.81074924681810299487e-02) (159, 1.97272739791693255129e-02) (160, -1.95799946149861014977e-01) (161, -4.09511194022627797451e-02) (162, -1.26769549828113975432e-01) (163, 1.69264241907993634451e-01) (164, 8.70307385808514327730e-02) (165, 3.44422162460570266407e-02) (166, -2.21937213035159263894e-03) (167, -4.83182972526680978853e-02) (168, 2.94591389422667396247e-02) (169, -1.07215649655279174346e-01) (170, -9.98385036152613231097e-02) (171, -9.62752926845823198132e-02) (172, -1.32807422664991375827e-01) (173, -2.97717709925685407313e-02) (174, 1.01728901028141041629e-01) (175, 1.27861208685372929050e-01) (176, 1.23476868273675988164e-01) (177, -2.33399235633056992278e-02) (178, 1.17749944468018327703e-01) (179, 3.23409361662905861512e-02) (180, 3.26509227762827036745e-02) (181, -3.19498236811165681193e-02) (182, -3.11395830989988943449e-02) (183, -5.06566450699529602364e-02) (184, 8.57940963047375271255e-02) (185, -3.83379825383414821194e-02) (186, -1.08337474827318383519e-01) (187, -1.08527346961181728191e-01) (188, 1.61200462733019078687e-02) (189, -8.89312717018550663584e-02) (190, -1.13050758051914390645e-01) (191, -6.80220658257355975662e-02) (192, -1.08594930115865226372e-01) (193, -3.47073444494281069250e-02) (194, 8.01269997112782558779e-03) (195, -5.39407197337911994972e-02) (196, 7.81858205745367268458e-02) (197, 1.32165166989159033051e-01) (198, -1.40598889691696371518e-01) (199, -1.95321347669817152459e-01) (200, -4.54888344686963166930e-02) (201, -2.29155225345165844408e-02) (202, -1.25875548438730472389e-01) (203, 8.83318613550735654005e-02) (204, 5.02403038612247443417e-02) (205, 1.40494719598627332280e-01) (206, -1.72337048611522214436e-02) (207, -7.22182200348442382420e-02) (208, -1.44587000434281409689e-01) (209, -1.42179657984398220144e-02) (210, -3.63539994360238052917e-02) (211, 6.52219112115875066654e-03) (212, -3.64528593927348903980e-02) (213, 7.39514965961603487621e-02) (214, 4.00886620973218005259e-02) (215, 1.95150351209453024048e-02) (216, -5.28356386007398232119e-02) (217, 5.21227043094274061774e-02) (218, -1.31229242458140351463e-02) (219, 7.17130070797257490600e-02) (220, 1.34955539673130647804e-01) (221, 8.94330241651435098316e-02) (222, 4.57496820867650810793e-02) (223, 3.54646865144818135285e-02) (224, -3.34686218492962345161e-02) (225, -3.25549955574236243860e-02) (226, 6.85340418375616350355e-02) (227, 5.47345124030558308204e-02) (228, -1.30037194553856039203e-01) (229, -1.75613679381663306822e-01) (230, 3.96448487922846232179e-02) (231, -4.30225449355044545219e-02) (232, -1.04487760460773362881e-01) (233, 4.69272206272048700293e-02) (234, -8.90727281355368077920e-02) (235, 1.62789166218463288160e-02) (236, -1.59030323666930380189e-02) (237, -1.09340478362819834568e-01) (238, -3.62842291102418515458e-02) (239, 1.21002585286607879100e-02) (240, 3.42920797675931934845e-02) (241, -1.39301351568412418169e-01) (242, -4.82138854699760907585e-02) (243, 2.44059322070246283165e-02) (244, 1.47029928832532793409e-02) (245, -1.11621143752513290320e-02) (246, -2.23926057603656608608e-01) (247, 2.72394479503265951603e-01) (248, -1.53188360311375559863e-01) (249, 2.45663636336281368533e-02) (250, 3.20247912428763062409e-02) (251, 9.30253572492453252585e-03) (252, 3.43531833051144638858e-02) (253, 5.12950837425182951113e-02) (254, -7.02670846877466725999e-02) (255, 7.38495767524690455152e-03) (256, 5.28155085550237185510e-02) (257, -2.72344748186659178779e-02) (258, 3.40236616214679502002e-02) (259, -3.76049490157116458877e-02) (260, 1.09955542337989889412e-01) (261, 1.40066580235456931286e-02) (262, -6.62244377928012245560e-02) (263, -7.82069892555180140592e-02) (264, -9.26356918368578634293e-03) (265, 9.66213783209917964623e-02) (266, -1.46077626646339164829e-01) (267, 2.33408083226792295584e-01) (268, 5.39384588062934919317e-02) (269, -4.41788398252757341655e-02) (270, -3.92725295803255033955e-02) (271, -5.64456250651116792083e-02) (272, -7.66742051598422354186e-03) (273, -7.85197422887446705442e-02) (274, 6.58877309503606567453e-02) (275, -8.23643931284524927205e-02) (276, -1.58345912562416132885e-02) (277, 6.03190900580627825667e-02) (278, 7.67910406184842408983e-02) (279, -5.16551384716561479138e-02) (280, 6.99232299150903124918e-02) (281, 5.66803765011967899956e-02) (282, -6.61114724016808631701e-03) (283, 6.84830276015273853307e-02) (284, -5.94789481090944940900e-02) (285, -1.21112229711270585897e-01) (286, -1.02948807532154251038e-02) (287, 2.49727534461210015637e-01) (288, -1.79289078006779657726e-02) (289, -9.90778515018380795398e-02) (290, 2.81909637536040015571e-02) (291, -1.19631298772240032835e-01) (292, -8.57005843558302782270e-02) (293, -1.68451293977657078765e-03) (294, -1.31860623211835559232e-01) (295, -2.98673734013077882277e-02) (296, -4.58410804417012027190e-02) (297, -2.41276149283264317036e-02) (298, 2.60356427937024244301e-02) (299, -5.52456062236931638720e-02) (300, 7.76342738402393678365e-02) (301, -3.55867526306827205995e-02) (302, 1.65901920436799743541e-01) (303, 1.14070643580470986594e-02) (304, -8.46895586999753535729e-02) (305, 7.49630645133031181526e-02) (306, -7.50300534516246259154e-02) (307, 1.21688707114838631784e-01) (308, -2.76863267822453559819e-02) (309, -4.40674167091991836331e-02) (310, -5.23351543551992329228e-03) (311, -9.05647047411018008001e-02) (312, -9.98652891089572003480e-02) (313, 5.86264389062724766699e-02) (314, 4.81668354409187787768e-02) (315, -2.36558348074523173976e-02) (316, -1.52656347563191198934e-03) (317, 5.67999693098086635978e-02) (318, -1.04009326107089128399e-01) (319, -4.66552668702779060883e-02) (320, -3.97309989474339333992e-02) (321, 8.48190968598068056883e-02) (322, -4.57887359126689791333e-02) (323, -8.94441796754427559391e-02) (324, 8.66078317811455888897e-02) (325, -2.04862955985484519739e-02) (326, -1.15519814312413912627e-01) (327, 1.01465189887010559522e-01) (328, 4.16747374431738135114e-02) (329, -7.40176104175564036902e-02) (330, -9.77577643392646411513e-02) (331, 4.24074105973038933959e-02) (332, 7.57695101694515066315e-02) (333, -8.34208208290319191969e-02) (334, -6.11419871318500535162e-02) (335, 9.32215414472599285256e-02) (336, -1.95753384849978347149e-02) (337, 3.27276529195425006091e-02) (338, 8.10409286627278430126e-02) (339, -9.72206282383376030332e-02) (340, 7.41838036478577322885e-02) (341, 4.78149886452761199718e-02) (342, 2.53577668789457047471e-02) (343, 1.15854568586636313965e-01) (344, 2.90238692041679229028e-02) (345, 3.08904238344292932095e-02) (346, -7.07476297884473831479e-02) (347, 2.62500190949418836517e-02) (348, -7.39237803087260947343e-02) (349, -9.98453209262946672631e-02) (350, 1.89686642586222378726e-02) (351, -3.52574513292930047381e-02) (352, 2.05027352924932348976e-01) (353, 7.38344043958686635509e-02) (354, 1.03539330673073429190e-01) (355, 8.55039167639237152052e-02) (356, -9.25941907706195749261e-02) (357, 7.28377156895208960341e-02) (358, 5.01549190152457066705e-02) (359, -2.07785485826535082365e-01) (360, -8.36689308364788469907e-02) (361, 8.62908938033640771081e-02) (362, 6.33015860214684866758e-02) (363, 3.60961852544675835391e-04) (364, 8.68517773335348852726e-02) (365, 1.12982670082370728615e-01) (366, -7.99946047655185205061e-02) (367, 2.56374592017067151617e-02) (368, -5.85024449852417222084e-02) (369, -3.83728897489129111564e-02) (370, 7.43587636131618351376e-02) (371, -3.16786041581225835673e-02) (372, 2.63496046388000289273e-02) (373, 2.78425259579699636847e-02) (374, 4.99856111302526551210e-02) (375, -1.99579460722035910425e-02) (376, -5.58605733187384542043e-03) (377, -4.60518309973233785914e-02) (378, 8.95381123220590352529e-02) (379, 3.51832428628792437397e-02) (380, -2.05656367305334956616e-03) (381, -2.27439181416611603537e-02) (382, -2.13163852342538352735e-02) (383, 1.09127097029753483692e-01) (384, 3.08458888512938003354e-03) (385, -7.48880405706141977218e-02) (386, -3.34997609498306342379e-02) (387, -1.06425144113608694668e-02) (388, 1.07959796528718968145e-01) (389, -1.87341132753181927040e-01) (390, -2.42971268636107788630e-02) (391, -3.16455034042712954334e-02) (392, 3.78787220174812699902e-02) (393, -2.27818492138728567742e-02) (394, -2.34111681434793009182e-02) (395, 1.13990569036537398029e-01) (396, 1.50399992414867039736e-01) (397, -3.50956105186592398626e-02) (398, 2.35045506965651518350e-02) (399, -6.96746282186766624500e-02) (400, -1.44480710723062344414e-01) (401, 6.61949653145669017484e-03) (402, -4.90377940795986289046e-02) (403, 2.89857899777926919516e-02) (404, 1.16631590391537878770e-01) (405, 1.23447482815117678956e-01) (406, -1.25335157079797365753e-01) (407, 2.20031301998192330757e-04) (408, 4.93784240849532915507e-02) (409, 2.23555674099234907848e-02) (410, -2.00271494607573950775e-02) (411, 1.04759524856133351411e-01) (412, -1.51604468254416591133e-01) (413, 1.49040615230183609574e-01) (414, 1.08579276154667780929e-01) (415, 2.70533096842517674363e-02) (416, 1.17918294235130519110e-01) (417, -5.71966490486417664107e-02) (418, -8.48211149374010139890e-03) (419, -8.87238007725946048465e-02) (420, -2.09544222910374999813e-01) (421, -1.16165750216242744108e-01) (422, -7.41190143630347103576e-02) (423, -1.39176490115011569637e-01) (424, -1.87597632143570280938e-01) (425, -1.47484933578917787322e-01) (426, -1.06114967948188962388e-01) (427, -3.66742899007707415238e-02) (428, 5.07758258915023477642e-02) (429, 1.78829263286666394206e-02) (430, 6.76019544576314523887e-02) (431, 1.37318727223152053929e-01) (432, -1.14860345878439074063e-01) (433, -9.27568975299022102643e-02) (434, -2.43046737998375353418e-02) (435, -1.19149614438751980106e-01) (436, 8.08044991856264188668e-02) (437, -1.92344396169230082150e-02) (438, -1.66121976091408940501e-01) (439, -7.52821561249530750437e-03) (440, -1.06414553285309229635e-01) (441, -2.87224447831999185610e-01) (442, -5.29254996970574508042e-04) (443, -1.08133559431350084745e-01) (444, -1.12810510102704944502e-01) (445, 6.51076104375863801144e-02) (446, -1.17794519929606308906e-01) (447, -1.85742555971764339295e-01) (448, -6.92886566806229786675e-02) (449, -2.06376210397602677382e-01) (450, -2.58332751121263859417e-01) (451, 3.78064986451185566785e-02) (452, -1.77353199997286298251e-01) (453, -2.94219372931661837800e-01) (454, 8.43874498749719870183e-02) (455, -2.62492662026090839422e-01) (456, -2.01440960972408683594e-01) (457, 2.28897824487016648964e-01) (458, -2.44603032792411190233e-01) (459, -1.63431424792139290414e-01) (460, 8.10044875694030053204e-01) (461, -7.67086642230846327273e-01) (462, -1.74391777540780834599e-01) (463, 2.49548042068986286601e-01) (464, -3.67097915221228310312e-01) (465, -2.97617198035760754937e-01) (466, 3.19574361426164410549e-01) (467, -1.53506687974180849876e-01) (468, -1.22860073624079468857e-01) (469, 1.15702092590618185741e-01) (470, -2.94438221266588195935e-01) (471, -3.16105757726901581695e-01) (472, 2.84951883678306143455e-02) (473, -1.33247542168198646051e-01) (474, -1.87494593128165853990e-01) (475, -1.11225380007869648069e-01) (476, 3.78439447175288878888e-02) (477, -2.03945698247702145167e-01) (478, -2.31421894835491769038e-02) (479, 3.68228999026354794633e-02) (480, -9.31446956616027166298e-02) (481, -2.96006669652617432353e-03) (482, -7.43247505795730234457e-02) (483, -1.31340473856397021990e-01) (484, -2.16397592999312965434e-01) (485, 8.12849147017392220649e-02) (486, -1.06397000788643947278e-01) (487, -1.07047706777881793117e-01) (488, -3.07387139081417640196e-02) (489, -7.32923426434837627097e-02) (0, -1.97389160866437207709e-01) (1, -3.20916495358611886246e-02) (2, 1.08870667173832022523e-01) (3, 8.24117006634110804697e-02) (4, 9.24174486599632361017e-02) (5, 4.89175783198924005180e-02) (6, -2.01915257139195170044e-01) (7, 1.25408623526393314673e-01) (8, 7.40602708960299005447e-02) (9, 1.66455862393188082360e-02) (10, -2.87217918939153604718e-01) (11, -1.43474848808934685174e-01) (12, 1.33876887360002361227e-01) (13, -4.51197860710367097681e-04) (14, 7.24960704318531202334e-03) (15, -3.40033986601005547290e-02) (16, 1.03228803502007249193e-01) (17, -4.95143605490636490307e-02) (18, -1.01211725982470093885e-04) (19, 8.06313323419491911892e-02) (20, -7.50831448214965696542e-02) (21, -1.26524410918056658820e-02) (22, -5.00990636901934641156e-02) (23, -3.37928557595694595284e-02) (24, -5.34619763490915139714e-02) (25, -1.71424596473490863102e-02) (26, 1.46240915298152009127e-02) (27, 4.78915910568482247611e-02) (28, 8.09140704397794535696e-02) (29, 2.88094316932550331689e-02) (30, -2.10920511410198699420e-02) (31, -1.20267510724123463661e-01) (32, -5.93026190832843802525e-02) (33, -1.16124710899171840195e-01) (34, -1.46610818728112435316e-01) (35, -1.05312668198010966902e-01) (36, -2.97222657465203397853e-02) (37, -4.20145816421570519883e-02) (38, 3.39085957604054466508e-02) (39, -8.35196631551519269587e-02) (40, -6.51809960549342565228e-02) (41, 1.96439554702242565043e-02) (42, -4.67839859481285133547e-02) (43, 7.32115596062085927098e-02) (44, -4.70282484536590356106e-02) (45, -5.58628889035222425674e-03) (46, -8.65982804840234182686e-02) (47, 1.22585122927695744366e-01) (48, 2.36450068946725197594e-02) (49, 8.18899948178803023524e-03) (50, -4.45545743096432481090e-02) (51, 7.69747312227200275458e-02) (52, -3.23980082641490002571e-02) (53, 2.61825759824967953249e-02) (54, -8.74131058857144649377e-02) (55, -1.82763905801640313964e-02) (56, -2.89494561523198981612e-02) (57, 2.21304172225583010991e-02) (58, 1.28838013124600442305e-02) (59, 9.46493730904381935787e-02) (60, 5.04416903712071318377e-02) (61, -7.60531828210906785115e-02) (62, -9.34231387636663135332e-02) (63, -2.99256510894162115755e-02) (64, -1.51057166081948451158e-02) (65, -8.62344683899714248287e-02) (66, 3.92247088436015814428e-02) (67, 4.35630237830430880330e-02) (68, -1.33981084168964034026e-02) (69, 5.58631378383919324770e-02) (70, 4.55977952634598268644e-02) (71, -8.78561787158325772917e-03) (72, -5.83377363035651949619e-02) (73, 6.73317689374626146548e-03) (74, -9.76152626552866942156e-02) (75, 2.28787862345996885483e-02) (76, 3.46063934511693172338e-03) (77, -2.02941445143408720486e-02) (78, -4.24583635035785181278e-02) (79, 1.00360761708693291272e-01) (80, 1.68863109744657458045e-01) (81, 6.07673203498674610601e-02) (82, -4.23185872317151726141e-02) (83, -1.22387746581937906232e-01) (84, 1.33447991684308691490e-02) (85, 6.42273170609086729854e-02) (86, -1.66763197543147792534e-02) (87, 9.76737255639225782078e-02) (88, 1.66163206003405272519e-03) (89, 1.03670715513015116588e-02) (90, 3.45147272070377014730e-02) (91, 5.23555871068807562874e-02) (92, -8.86160465937093494437e-03) (93, -7.80007366197958944970e-03) (94, -5.75907731652062701566e-02) (95, 1.06255987723262113054e-01) (96, 8.42760312067387662438e-02) (97, -5.59434160715786971130e-02) (98, -5.64064268723959080787e-02) (99, -8.26182445825669742323e-02) (100, 7.84720479792946068454e-02) (101, -1.91714217171890903557e-02) (102, -2.36754374978913467720e-02) (103, -1.10861540757833970661e-01) (104, -3.20871487757210457903e-02) (105, 7.48139918068529540668e-03) (106, -1.96328486348666016170e-02) (107, 5.15421588677998920858e-02) (108, 1.25476245510701661656e-01) (109, 1.59793707112014515825e-01) (110, 4.35424559544947929746e-03) (111, 1.07197583753288624986e-01) (112, 2.37527435721228905030e-02) (113, -9.15085370905607403680e-02) (114, -1.36651954339585740561e-01) (115, -7.05425146681102482882e-02) (116, -6.00227982263765377779e-02) (117, -1.37783602801674616260e-03) (118, 3.35550893365165678328e-02) (119, -1.04026816643501066051e-02) (120, 3.93231527233573463498e-02) (121, 4.11899529015007787036e-02) (122, 6.59773219757113114567e-04) (123, -1.07299512219392566281e-02) (124, -7.13344587555858472561e-02) (125, 5.52476065961819071126e-02) (126, -5.94986523033555203543e-02) (127, -3.35467118861040719535e-02) (128, -1.08045133143728266933e-01) (129, 6.71223235386622513188e-02) (130, -6.74261780835877649887e-02) (131, 8.56233595065575975314e-02) (132, 8.80769552327710786299e-02) (133, -8.93947927843350385879e-03) (134, 6.78697931681506161361e-02) (135, -7.23818967325920298306e-02) (136, -2.15665538306839786598e-02) (137, -5.38757824112392966209e-02) (138, 2.38649709765156314845e-02) (139, -5.43401048675832207269e-02) (140, -2.94190243776452989288e-02) (141, 1.68885169921943606441e-02) (142, -3.52958194200163055676e-02) (143, -7.67105216924885147112e-02) (144, -2.17115365277496356888e-02) (145, -8.48661574694926368334e-02) (146, -8.39976993494477922053e-03) (147, 6.67468709769995227621e-02) (148, 6.72803082073744618263e-02) (149, -6.76647053170485734963e-02) (150, -4.30754120802748080576e-02) (151, 2.12038243845405621757e-02) (152, 1.32668033449068162311e-01) (153, -2.35717030761158526098e-02) (154, 9.44274455316982119779e-02) (155, -1.08255964602306742339e-01) (156, -8.67696520470820076287e-02) (157, -1.12631083561162276263e-01) (158, -1.00980198547884758575e-01) (159, -6.01032452181161219729e-02) (160, 2.25136204078248622351e-02) (161, 3.96894167634880695728e-02) (162, -2.21613053793379664869e-03) (163, -6.00598075656304936087e-03) (164, -8.51708018579420689242e-02) (165, -9.84323493523488607382e-02) (166, 1.31083841768543707396e-01) (167, 5.93982556467825689728e-02) (168, 1.08741936318907956444e-02) (169, -1.96098244051024356294e-02) (170, -5.71891720656196519967e-02) (171, 1.09687014966310447672e-01) (172, 1.64697165432584252676e-01) (173, -9.14957032421724186788e-02) (174, 9.45721337330058392512e-02) (175, -1.27008252912261809797e-02) (176, -9.28519631796187287776e-03) (177, -8.38463315798161773484e-02) (178, -7.55342807298270968452e-02) (179, -1.00886928878816908850e-01) (180, -4.08553781896315720834e-02) (181, 6.12025593393968822542e-02) (182, 9.08193518577199571107e-02) (183, -1.10804035939359307728e-01) (184, -1.44114683040471897035e-01) (185, 2.98536418030016827141e-02) (186, -3.80713755594265929050e-02) (187, 3.72441893162795134575e-02) (188, 6.39844276772638387296e-02) (189, -6.73080872071365760717e-03) (190, 1.00320979957839326313e-01) (191, 7.10384287567830674526e-02) (192, -1.28346993419183146024e-02) (193, -1.29028283581752417630e-01) (194, -7.97070016325114871769e-02) (195, 1.17140237499622171247e-01) (196, 2.02241766522015791602e-03) (197, 3.83856056938585016303e-02) (198, -3.74254810924136357975e-02) (199, 4.48496653774976203333e-02) (200, -1.47882955462307452699e-01) (201, -6.34595202912726589345e-03) (202, 5.43551941859856738160e-02) (203, -4.92745473315890081256e-02) (204, 1.07779302300198553954e-02) (205, -4.43189036906252373238e-02) (206, 7.03460394105303310486e-02) (207, 6.17281981559901580386e-03) (208, 4.48788621609198870588e-02) (209, -4.31787393195654789491e-02) (210, 4.47507637129590241098e-02) (211, -9.85188513054089526344e-02) (212, 9.88416684902352904452e-02) (213, -1.01898588164598680184e-01) (214, -5.15191822327192364139e-02) (215, 1.11475489387325141233e-01) (216, -7.59303090753005172076e-02) (217, 1.02354981199465969177e-02) (218, -4.70384302290327502294e-02) (219, 7.58240496060831742353e-02) (220, -6.52356603985710103988e-02) (221, -6.23121412753566417120e-02) (222, -9.67766680338422689844e-03) (223, -1.25354224985078557125e-02) (224, 1.15893935114421212096e-02) (225, -7.41222747602615465723e-03) (226, 8.76712896457869234057e-02) (227, 4.31811402624263530187e-03) (228, -4.23904671284058218172e-02) (229, -5.44059787790089136039e-02) (230, -1.97847396884811357887e-02) (231, 1.24775523508787178351e-02) (232, 3.36327547037142335351e-02) (233, -1.60251028696400565909e-01) (234, 6.48133340088586640260e-02) (235, 7.45506997292955109202e-02) (236, 1.00960312136253949067e-01) (237, 4.21295397183680947473e-02) (238, 9.04826586543436839349e-02) (239, 6.95745377456718095549e-03) (240, 1.09182275319304522565e-01) (241, -5.00677068259278712503e-02) (242, -1.14834082462131788216e-02) (243, -2.35827596799306343778e-02) (244, -3.40739080775337363494e-02) (245, 6.24421862835323818186e-02) (246, -1.74373141108844571974e-03) (247, -5.51515883952217664254e-02) (248, -3.64667230354899715716e-02) (249, 4.81449326623138316918e-04) (250, 4.24888929954947772161e-03) (251, 2.56275037692054209748e-02) (252, 4.65145628142302897112e-02) (253, 5.12608418095672410675e-02) (254, 9.64620350140267535100e-03) (255, -2.45562773694569039251e-02) (256, -4.48722392055161609092e-02) (257, 9.62283658813826159317e-02) (258, 1.03253792684367268206e-01) (259, 1.10860373332801728785e-01) (260, -7.25407918355102654395e-02) (261, -2.68305155607131071149e-02) (262, -9.22842535107128020266e-02) (263, 5.72227567715872173504e-02) (264, -6.37231353842522135755e-02) (265, -6.99024009794093764691e-02) (266, 5.39612953013654250700e-02) (267, -1.72957161549245952425e-01) (268, 3.44394584631545624953e-02) (269, -4.35616073412041990287e-02) (270, 5.76307380330256663337e-02) (271, 8.18202641535609037637e-02) (272, 1.50396999516269726314e-05) (273, -1.08484844917523637342e-01) (274, -6.65376505449971761275e-02) (275, -4.65523196035980968421e-02) (276, 6.31759147871553405906e-02) (277, -8.76165407453737173082e-03) (278, 1.00049473176837613875e-01) (279, 2.05317240303266911397e-03) (280, -1.12199944941977200474e-01) (281, -1.77459810712161519808e-02) (282, 2.97436492970059827845e-02) (283, 1.17028123597943789491e-01) (284, -2.97187781104689303924e-02) (285, 4.92054907723892751004e-02) (286, -7.49706105533155808818e-02) (287, 3.73934829366886489765e-02) (288, -1.63217217483004085887e-02) (289, 7.26629112909847607593e-02) (290, 1.34504566485125331282e-02) (291, 3.01614909277393254683e-02) (292, -5.18629195485967309232e-02) (293, -2.19209183883080568900e-02) (294, 7.37034556583519989692e-02) (295, 6.14225362678327627131e-02) (296, 5.86439317339110810501e-02) (297, -4.74955274429342405584e-02) (298, 1.25317361416800693297e-01) (299, 1.15388427663278406166e-01) (300, -3.06994028198975046906e-02) (301, 5.35114244337703270915e-02) (302, -5.60197188306502252830e-02) (303, -1.08800759534005364593e-01) (304, 8.72336317631313418186e-02) (305, 2.41560098939810098673e-02) (306, -2.87402659797390859497e-02) (307, 2.64953656726322206438e-02) (308, 1.01226307655660360818e-01) (309, -5.01988729723346557843e-02) (310, -7.89257816940844986187e-02) (311, 1.40576936165257598832e-01) (312, 5.59655269969471305669e-02) (313, 4.19056865747348891715e-02) (314, 3.07870955019590893109e-02) (315, -8.42649511142333842995e-03) (316, -2.42513474193131184364e-02) (317, 7.89610669285227689818e-02) (318, -7.90282856627363000657e-02) (319, -9.02153419434213316164e-02) (320, 8.59142570997274562794e-02) (321, 3.69134908234009032069e-02) (322, 1.01960058128812536271e-01) (323, -1.28679249793796747839e-03) (324, 5.30362593251766743091e-03) (325, 2.31811240495233029935e-02) (326, 1.03044252619826207096e-01) (327, -4.57425539304291417508e-02) (328, 9.48107728274526356804e-02) (329, 1.04416601126503680308e-01) (330, -3.66155659378338410592e-02) (331, 3.31730508921686609303e-02) (332, 6.91306981606399154061e-03) (333, -5.49382350788098217098e-02) (334, -1.18112981471577330704e-03) (335, -9.70159311139104883759e-03) (336, -1.36774306455885452660e-01) (337, -5.36735389227835091308e-02) (338, -6.29654947805470127653e-02) (339, -9.71355716432183990960e-02) (340, 1.49047118703255643962e-02) (341, -6.10967175968376990935e-02) (342, 1.20723824656722364401e-01) (343, -1.24827837777354705429e-02) (344, -3.41458809776135560621e-02) (345, 6.75454715831991653330e-02) (346, 6.17124625517795517837e-03) (347, 3.28196622189928302604e-02) (348, 8.52427119010707931568e-03) (349, 6.16541088699744874169e-02) (350, -8.12277878345681880745e-02) (351, -3.62145325623381628133e-02) (352, 4.46793665331441797184e-02) (353, 7.09919393755872318863e-02) (354, 4.55258743157251066780e-03) (355, -3.65540219208010594421e-02) (356, -1.57000792257335139435e-02) (357, -8.71529709980328401442e-03) (358, 8.63010607748007987916e-03) (359, -6.30635448330479561618e-03) (360, 3.96566771120108185755e-02) (361, 4.75318780677920632582e-02) (362, -7.64891184163033893695e-02) (363, 9.81774453350017783926e-02) (364, -1.53841569251391713929e-02) (365, 7.04858552467985954859e-02) (366, -1.26734793174202615973e-02) (367, 3.21879412474440143588e-02) (368, 5.40101697999177329801e-02) (369, 2.67478402361695163925e-02) (370, 1.24240882881400983850e-02) (371, -5.24497288121410845663e-02) (372, 1.87341458214703542040e-02) (373, 5.02811204584895608816e-03) (374, 3.87140316765527334186e-02) (375, 9.69502976501633306761e-02) (376, -8.19284840612470172116e-02) (377, -1.73757961762369718406e-02) (378, 5.17744224640445758340e-03) (379, 3.83519147468109472543e-02) (380, -9.30145932672633846128e-02) (381, 5.63688669358469174320e-02) (382, -3.12468249580447852976e-02) (383, 8.50796250102233905799e-03) (384, 9.34408905204888590168e-02) (385, 1.21208736232548044270e-02) (386, 7.30841383489028578735e-02) (387, -6.38925426514268257616e-03) (388, -9.30543504690760359122e-02) (389, 1.54421858190033380043e-02) (390, 1.07161590343826940153e-01) (391, -1.24693681947912037716e-02) (392, -1.01061684657370420837e-01) (393, -1.45928054713516525132e-01) (394, 3.30842550347420216728e-02) (395, 1.17305074331568409511e-03) (396, 9.64452973510844246974e-02) (397, 8.34218531508239963257e-02) (398, 6.41361396799773886279e-02) (399, 9.54130774569791548223e-03) (400, 1.06596243506498281062e-02) (401, -2.39849001542495263162e-02) (402, -8.35880536162111748011e-02) (403, -6.17752212047276427764e-02) (404, 1.17489339636994094551e-01) (405, 6.94572889677423782606e-02) (406, 1.55112332925228402908e-02) (407, -6.49368270419049126163e-02) (408, -3.62641047451058851081e-02) (409, 6.59315245440956765322e-02) (410, -6.07183156597838752377e-02) (411, -9.83656898009323266141e-03) (412, -2.58745904710783874991e-02) (413, -5.46509928454546115018e-02) (414, -1.01854806025264726932e-01) (415, 4.17298202304741405744e-02) (416, -1.24346160930697294256e-01) (417, 3.14501436712958035158e-02) (418, -1.25680334711359115163e-01) (419, -1.17385742066451553844e-01) (420, -1.88949086493583301438e-01) (421, -3.20761950341383716978e-01) (422, -2.67842763766818370286e-01) (423, -2.82036417992204635485e-01) (424, -1.66895605525847506856e-01) (425, -3.14246798345085356918e-02) (426, -3.71849657786502071910e-02) (427, 4.14559026886582998594e-02) (428, -1.05576049046685067206e-02) (429, -2.55347469738054777544e-02) (430, -6.72349247730812983603e-03) (431, -1.29368265398764448193e-01) (432, 2.51615710825087379732e-01) (433, 5.59427776650669034142e-02) (434, -1.16441439156269675032e-02) (435, 2.52092658343732567428e-01) (436, 3.21239653550938336624e-02) (437, -5.82943053013032161380e-02) (438, 9.57701064400128948551e-02) (439, 6.75685112064069864912e-02) (440, 3.47577454794401191629e-02) (441, 1.33322745366461326011e-01) (442, 7.27856285575702050689e-03) (443, -1.69812509993639532135e-01) (444, 1.84569358697247720702e-01) (445, 7.30844215924582735200e-02) (446, -1.97219717941423511309e-01) (447, 1.93200804026663452984e-01) (448, 6.94100903281990866400e-02) (449, -1.77105919891242247211e-01) (450, 4.19186203593406025991e-02) (451, 4.65944581682959102498e-02) (452, -8.45003672449415599299e-02) (453, 4.47966370645584421872e-02) (454, 7.38774757011411292718e-02) (455, -2.99559375903027010069e-02) (456, 1.39431873851307581297e-02) (457, -1.62535727475855790169e-01) (458, 3.58759740561017392846e-02) (459, 2.64721871902864114290e-01) (460, -7.33462428896097584641e-01) (461, 2.97577055450174654538e-01) (462, 1.67894042079855948524e-01) (463, -3.65326764503168199827e-01) (464, 4.70963087629281199065e-02) (465, -1.90952004363705261925e-02) (466, -7.17198366828237926507e-02) (467, 2.03475187729358464317e-01) (468, -2.09639988144022758332e-02) (469, -1.63028262529205131282e-01) (470, 1.93799454390090525324e-01) (471, -1.43067126656962820275e-02) (472, -2.62251826236148503912e-02) (473, -6.95674497896130172858e-03) (474, 9.19556611202177083542e-03) (475, -2.70157433444696316871e-02) (476, 3.99842523676884192829e-02) (477, 4.87098833460493860215e-02) (478, 1.24981729181004141971e-01) (479, -5.93756139523725426366e-02) (480, 1.18644307145182634211e-01) (481, -6.33627761072350081939e-02) (482, 7.94371724462565459435e-02) (483, 1.06448247542295492546e-02) (484, -3.44961883235242669499e-02) (485, 8.02656485124780411100e-02) (486, 1.86405512231126169187e-01) (487, -1.06673213469774527673e-01) (488, 3.10989417430808483267e-02) (489, -1.94985011324456974924e-01) (0, -5.35066149921775979781e-02) (1, -6.53230834859838543904e-02) (2, 3.82447129489570103456e-02) (3, -5.45541798979494035882e-02) (4, -1.00931693114064885419e-01) (5, 1.05195852039064952077e-01) (6, -1.07469400353061711462e-02) (7, -6.18104645855051745840e-02) (8, 8.74522578191142679893e-02) (9, 4.77000984851955467381e-02) (10, -6.21255336145286815586e-02) (11, 5.08657319987407055550e-02) (12, -1.08444901747385080704e-01) (13, 5.95936695585061876335e-02) (14, -9.55907407791777297135e-02) (15, 7.14595645895158958910e-03) (16, 9.12186102900373607660e-02) (17, 7.81296295684974495543e-02) (18, -1.05288807654855320894e-01) (19, 7.42619654651355681763e-02) (20, -9.71091123292282393242e-02) (21, -5.96236053847558761243e-02) (22, -1.32146598962772227059e-01) (23, 1.05353211175034433555e-01) (24, -5.80744910376404938068e-02) (25, -1.65562512322850567681e-02) (26, -7.04949142253265825797e-02) (27, -1.80295369173571029542e-01) (28, -1.21671224436749436659e-01) (29, -4.53950091107558351133e-02) (30, -4.34937560988301538667e-02) (31, -5.89148959316565731803e-02) (32, -5.18235504302646116104e-02) (33, -6.77938122834403911199e-02) (34, 3.59386898140442515026e-02) (35, 9.27728135026376077299e-02) (36, -7.46253887864939124963e-02) (37, 8.48476777486418254348e-02) (38, -8.22414654225731706072e-02) (39, -7.88197388427186590443e-02) (40, 1.40917324683703330118e-02) (41, -1.75849140759627049768e-02) (42, 9.43821713688425267819e-02) (43, 3.97741660320679243923e-02) (44, -3.18951191514767126711e-02) (45, -8.56679231214872993760e-02) (46, -4.91931953143207728596e-02) (47, -6.80735979999822632402e-02) (48, 9.24681031803514796863e-02) (49, -5.91646511148179871098e-02) (50, -8.54923488945919934912e-02) (51, -1.03273295588233476883e-01) (52, -5.59815139478393591910e-02) (53, -6.26112384550486789081e-02) (54, 7.23390008438859755113e-02) (55, -3.52246664508576515229e-02) (56, 9.22218945573894666179e-02) (57, -3.33098000519762224569e-02) (58, 5.73460580166840032390e-03) (59, 6.65035131148610236806e-02) (60, 5.60201004516059850036e-02) (61, 7.19365278792725298951e-02) (62, -5.89355633912638614269e-03) (63, 5.03879690652640505749e-03) (64, -1.24715394404947998996e-01) (65, -7.62075213731125133965e-02) (66, 2.41458159127726709747e-02) (67, -6.08288822401032436282e-02) (68, 6.40078056035542075630e-02) (69, -1.19390937368885393516e-02) (70, -2.93992235547883527802e-02) (71, 1.33664619336579804099e-02) (72, 8.38352665169409538848e-02) (73, -8.87450545265988793853e-02) (74, 9.10038280442862675124e-03) (75, -9.88095283872384572144e-02) (76, -7.10809144920492991249e-02) (77, 3.60053630789360090692e-02) (78, -2.61822407128887747751e-02) (79, -3.17578327145836072920e-02) (80, 6.86816169834248285708e-02) (81, -1.61812971053540907707e-02) (82, -1.54535124090007646575e-02) (83, -8.66015661756634053114e-02) (84, 3.52702051006824474078e-02) (85, -5.34610543272034527407e-02) (86, 3.28135231585053102621e-02) (87, -4.62041341869990976332e-02) (88, 2.61976522426693361062e-03) (89, 8.33538998791145263612e-02) (90, -3.00735768195534228231e-02) (91, -2.37039870283212196489e-02) (92, 6.40206920655193439940e-02) (93, 7.53292133636045274647e-02) (94, 6.83796097017903281579e-02) (95, 7.73537276533549228441e-02) (96, 1.65059305436901088138e-02) (97, -4.29920020924518392347e-02) (98, -5.74627774249990216915e-02) (99, 3.59023130159733666611e-02) (100, 4.53370283400839313133e-05) (101, -4.14791409546585564810e-03) (102, -3.14589315092667215490e-02) (103, 7.74796163031069989868e-02) (104, 2.73326231983179075702e-02) (105, 7.88784809037113843200e-02) (106, -1.10287405086609793803e-01) (107, -1.09176927592774919429e-01) (108, 1.81280107879085300437e-02) (109, -3.02012726280793744604e-02) (110, -3.19878716245282565533e-02) (111, 4.66223602359198338596e-02) (112, 9.19273930551874896011e-02) (113, 2.18801445597753864425e-02) (114, 3.16359270750590990118e-02) (115, -3.98054667221553679091e-02) (116, 4.38786333864843447472e-02) (117, -6.02284664206421682664e-02) (118, 6.81830185264281629642e-02) (119, -6.85421071852861663043e-02) (120, -1.09270267295817069542e-01) (121, -1.04330996360097100206e-01) (122, -2.66420386079354691578e-02) (123, 9.72779284502445634741e-02) (124, 7.39130094386653002658e-02) (125, -3.19869408280057179739e-02) (126, 9.14749230100880272865e-02) (127, 1.31555768222698585279e-02) (128, 9.71179043334795787101e-03) (129, -7.08898048947938924647e-02) (130, -1.92824239136994979305e-02) (131, -1.62648357966229425813e-03) (132, 3.64038570329500293932e-02) (133, 6.50971423074950678034e-02) (134, -6.56295752891031952680e-02) (135, -5.70280348087896862830e-02) (136, -1.71596650558663681163e-02) (137, -4.42040071256467118066e-02) (138, 2.49854777448259186834e-02) (139, -4.94620584496375526040e-02) (140, -4.14445780707964946815e-03) (141, 6.59099888032174258123e-02) (142, 2.84248687358078103507e-03) (143, -4.71701327690056144287e-03) (144, -4.79451267364440353314e-02) (145, -8.59641006186297358671e-03) (146, 5.88082449216944802561e-02) (147, -4.46185414227397020293e-02) (148, 1.99638818601284157017e-02) (149, 3.12930552455119095900e-02) (150, -3.77452517448084653995e-02) (151, 9.93665378295243428841e-02) (152, 3.34288606591208528607e-02) (153, 4.56818736100535124911e-02) (154, 3.29747689168583685282e-02) (155, -2.34522631979207953068e-02) (156, -6.79723989775870424124e-02) (157, 6.91317245463967111618e-02) (158, -9.89974362035440508256e-02) (159, 1.67597820866325492029e-02) (160, 7.22004169473595691642e-02) (161, -2.55179540554312279943e-02) (162, -7.55066912021952474365e-02) (163, -2.79816595909648845389e-03) (164, -7.72009265872707489686e-02) (165, -3.04145389418398887083e-02) (166, -7.72837454571123350089e-02) (167, 5.23574043052650317520e-02) (168, 5.13842088932181043082e-02) (169, 2.47069596856663124818e-02) (170, 1.11067555827524380718e-01) (171, -3.55093274501684444400e-02) (172, -7.08372201134873369366e-02) (173, 4.69608247851211746404e-02) (174, -2.52200237126170220825e-02) (175, 5.61165415956857496771e-02) (176, -4.24669431761166144002e-02) (177, -1.21139911159674675684e-02) (178, 5.17113279179240020733e-02) (179, 1.11111397064850361827e-01) (180, 1.05014837736111005251e-01) (181, -7.09299654110241706295e-02) (182, 3.36105797461524608005e-02) (183, -5.98920549839266555536e-02) (184, -1.19987019795307112147e-01) (185, 4.56997508021893539265e-02) (186, 5.41649241906982242822e-02) (187, -8.75074131465801256791e-03) (188, 4.37956575007059922822e-02) (189, 1.12231268798031469380e-01) (190, 4.44064517698905328325e-02) (191, 8.68720574088254794687e-03) (192, -6.16435690619061907314e-02) (193, 7.25635700079647061322e-02) (194, -1.21640939378187803999e-01) (195, 3.72062656333908697848e-02) (196, -2.17335406343879093682e-02) (197, -3.85222971787847201508e-02) (198, -7.79385623347939038297e-02) (199, 7.38466723392758872535e-02) (200, 1.04383156073268132391e-01) (201, -3.74130357755462564229e-02) (202, -8.22774433676999178422e-02) (203, -1.00947226904322270857e-01) (204, 6.66629220100164315843e-02) (205, 3.78436805845626875189e-02) (206, 6.46918901292706655104e-02) (207, 7.01545709808617939940e-02) (208, -5.24790047871682430181e-02) (209, 7.29022550892448051307e-02) (210, -8.62675912171402548001e-02) (211, -9.60429564245737082961e-02) (212, 4.99222270571706289166e-02) (213, -7.86644855892730671121e-02) (214, -2.91091943163446220666e-02) (215, 1.47275007948138414449e-01) (216, 1.07312661506866330319e-01) (217, -1.98417384663137665035e-02) (218, -1.06767485138577006287e-01) (219, -3.92161160610396894444e-02) (220, 1.28996315760279062212e-01) (221, -9.95939876210775731913e-02) (222, 2.33847861292562284041e-02) (223, 2.42574294552447035367e-02) (224, -1.18896129784530374396e-01) (225, -8.80617206040529842959e-02) (226, -4.69501825104541095635e-02) (227, 1.29870878063394451507e-01) (228, 1.02773856666506409330e-02) (229, 2.64952942973383509528e-02) (230, -7.76350565762965044714e-02) (231, -6.46633331671010586073e-02) (232, 3.16167564505837467292e-02) (233, -3.81542116143438816978e-02) (234, -3.97321257378728601162e-02) (235, 1.22910683635840914385e-01) (236, -5.25816028754641437426e-02) (237, -1.07494964435471511421e-02) (238, -5.53031350255109160896e-02) (239, -4.67218092690368652642e-02) (240, 2.30309462205600216922e-02) (241, -2.67940772180649718071e-02) (242, -1.23409443043142968977e-01) (243, -1.31231775029920560982e-01) (244, -5.94090729568859526877e-02) (245, 5.76980703216326412663e-02) (246, -1.56706335818571546037e-01) (247, 2.26022979026816450698e-02) (248, 5.76721634612988448554e-02) (249, -7.43862682428692578718e-02) (250, 7.14354768157363442804e-03) (251, -1.10414776680828038979e-01) (252, -1.06268831497198054659e-01) (253, 1.20714395891054569049e-02) (254, 7.37594280008457975351e-02) (255, -2.44370949081380642309e-02) (256, 6.87593293672094096891e-02) (257, -4.05001597278339120489e-02) (258, -1.54854545245220204946e-02) (259, -5.08465117750081727066e-02) (260, -5.63743322883654158356e-03) (261, 6.81103202149581365976e-02) (262, -1.38903901290755534860e-03) (263, 4.68092373737340611273e-02) (264, -9.57716667645983482648e-02) (265, -7.17834091900950294063e-02) (266, 3.51868939053504650727e-02) (267, 5.88075774802781711670e-02) (268, -3.37123067078825056401e-05) (269, 5.66588095768779873018e-02) (270, 5.98811425270211802191e-03) (271, -3.69149801334297958735e-03) (272, -1.01601059457921319429e-01) (273, 5.34569044676770147029e-02) (274, 2.71977388304008478592e-02) (275, 3.98370919649509644400e-02) (276, 9.24921659669907247903e-02) (277, 4.87199360858557931064e-02) (278, 8.66283843674438835958e-02) (279, -1.92433971863565159155e-02) (280, 1.14930967211551215978e-01) (281, 2.71236925937820769206e-02) (282, -5.27305589773331487291e-02) (283, -1.31569485911015665591e-01) (284, -7.17143704573446755246e-02) (285, -4.46083579545709790759e-02) (286, -6.21572450169401366504e-02) (287, -4.76651761717568692167e-02) (288, 3.94192737453684799442e-02) (289, 5.37392478786616403785e-02) (290, 1.63815673351593504500e-03) (291, 2.00875376193978411044e-02) (292, -4.64703273552346182718e-02) (293, -1.00146478040336953108e-01) (294, 3.99665440224108506340e-02) (295, 1.88892286429321494545e-02) (296, -5.24799971232500078733e-02) (297, -6.63631614783025298998e-03) (298, 3.83590139329003584900e-02) (299, 5.45767926363638286591e-02) (300, -7.63952666777469382997e-03) (301, -3.10424082699788800310e-02) (302, 2.37508051302525204085e-02) (303, 4.18920106813675738322e-02) (304, -1.07055756053706319086e-01) (305, -3.57042895358085574098e-02) (306, -5.08060914232018236841e-03) (307, 1.12798632252138014698e-01) (308, -4.51056825993133986286e-02) (309, 1.92349522950204555871e-02) (310, -2.79462349993645046975e-02) (311, -1.00707857778792764236e-01) (312, -6.14408353839116030959e-02) (313, 1.53972734578887646140e-02) (314, -8.18323618997767315841e-02) (315, -4.63770577723457769204e-02) (316, 7.44056717305287829145e-02) (317, -2.12684009946327474971e-02) (318, -3.51333767847023447847e-03) (319, 4.66494116261721089578e-02) (320, -1.27742794148903132667e-01) (321, -6.69947065394119051218e-02) (322, -2.66618887625696479593e-02) (323, -1.34169370994997819851e-02) (324, -9.27045436093610064621e-02) (325, -6.86903961573306354182e-02) (326, -7.95575069724929750947e-02) (327, -5.41293645443363599656e-02) (328, 2.74882330619474618549e-02) (329, 6.31258375249506009652e-02) (330, -3.81760248613239733251e-02) (331, -5.25371056042210488046e-02) (332, -6.16334913274462006805e-02) (333, 3.73151796316636835682e-02) (334, 9.31094758346447254338e-02) (335, -6.74163258360761519228e-02) (336, -6.55524380780431042970e-02) (337, -3.45919162307729670391e-03) (338, -2.06179173934880818897e-02) (339, -4.17862252804618132529e-03) (340, -6.77911607231237861582e-02) (341, 1.11837727941219745864e-02) (342, -2.84057834030129463532e-02) (343, -4.03117504139100316096e-02) (344, -7.24456473519818205942e-02) (345, 3.41071594406095130250e-03) (346, 6.99938800240312158918e-02) (347, -8.28764444940598699052e-02) (348, 9.72498108854797094214e-02) (349, -5.74832573755106324143e-02) (350, 5.52393652351569203196e-02) (351, 1.09815506426476208746e-01) (352, -1.94919641006318020149e-02) (353, -5.27286085204319437958e-02) (354, -2.63597555034031545695e-02) (355, -2.13244914959851671055e-02) (356, -4.87386704593493272353e-02) (357, -3.67710457520531181635e-03) (358, 7.84312890711725968496e-02) (359, 6.94103676250702184003e-02) (360, -6.95000495220859382250e-02) (361, -7.44906962040875614273e-02) (362, 1.12502380290931763840e-01) (363, 2.56381780968808906454e-04) (364, 1.04386231417777752828e-01) (365, 6.83592104460064714511e-02) (366, 6.08666445933116473377e-02) (367, -6.37821820366665653834e-02) (368, -4.05653012400754089950e-02) (369, 6.04074531785014842700e-02) (370, 7.38045075468118927375e-03) (371, 2.28873774110447229801e-02) (372, 3.92320845813482269038e-03) (373, 1.05314678787211957189e-01) (374, 7.79166024229930448408e-02) (375, 6.32907091289489770469e-02) (376, -3.47476643443811530898e-02) (377, 2.27114018513637563879e-02) (378, 6.69038261769470260498e-02) (379, -2.53214181246357653010e-02) (380, 1.15621667978108577657e-01) (381, 4.82775077678658656125e-04) (382, -5.35423049770490742244e-03) (383, 2.63023593735827506540e-03) (384, 3.57616708245062642213e-02) (385, 8.41961871521020865927e-02) (386, 7.80720853221281013701e-02) (387, -1.04905918120495447732e-01) (388, -7.29467370530765546466e-02) (389, 5.60061124512337971115e-02) (390, 7.57461278810307031550e-02) (391, 2.59910162116656663633e-02) (392, 9.00228095471849038001e-02) (393, 8.91399012580074701084e-02) (394, -1.06711210238703849140e-01) (395, 8.99604393354619391587e-02) (396, 4.25814053943892809051e-02) (397, 8.53730588702569515025e-02) (398, -6.83728822874754837979e-02) (399, -9.13912724734730202991e-02) (400, 4.88385138397363846585e-02) (401, 5.29518774417622999778e-03) (402, 4.27213897097905997979e-02) (403, -6.63410196625238007817e-02) (404, 1.92817833703834255743e-02) (405, 4.60447356712981575172e-03) (406, 1.04428043934225528444e-01) (407, -1.08898180368436195420e-01) (408, -8.95479651236822798976e-02) (409, 4.30620274400849989416e-02) (410, 1.99614760469144607302e-02) (411, -9.24643156973559560141e-02) (412, -6.73031272646308076357e-02) (413, 3.20285223466384508240e-02) (414, -7.09065145276636804583e-02) (415, -9.89826977839885491228e-02) (416, 1.38976362405749433171e-02) (417, -1.39545976646757108330e-01) (418, -1.55787198164332757466e-01) (419, -2.24532883137402855533e-01) (420, -6.98917492827103303821e-02) (421, -8.27229564565335473425e-02) (422, -4.79293645278370747387e-02) (423, 6.04285127404752472891e-02) (424, -2.55110758813008486889e-01) (425, -8.94360491939496515812e-02) (426, -7.30720189635064715228e-02) (427, -5.82125314432977436496e-02) (428, -3.31123437850092891543e-02) (429, 9.22998990167446346777e-03) (430, 1.30410069161333245363e-02) (431, -4.70149674421230096000e-02) (432, -4.41660382347763072475e-02) (433, -1.51238574074555025967e-02) (434, 2.39876485874252927399e-02) (435, -1.30056164023959974774e-01) (436, 6.03109610589757511034e-02) (437, 5.71077455139465256506e-02) (438, -8.35425848659405584362e-02) (439, -1.17839014258830532267e-01) (440, -3.35460593813178631697e-03) (441, 2.79597456848484186842e-02) (442, -1.32979228722995335144e-01) (443, 6.00358177792722907951e-02) (444, 4.10062905304702102205e-02) (445, -8.14047816348542202514e-02) (446, 6.75240171335677319409e-02) (447, 1.39222666783125701567e-02) (448, -4.16927192397304694632e-03) (449, -1.25190276018685375803e-01) (450, 5.68007730712163164122e-02) (451, 3.74914743716137296992e-02) (452, -9.21845891408782230902e-02) (453, 4.69689539860544125194e-02) (454, 6.55674328789526417172e-02) (455, -1.20696967037987296090e-01) (456, 7.17737948152558646875e-02) (457, 5.38400491681581411241e-02) (458, -1.12397862363573741717e-01) (459, 1.23538308055516937722e-01) (460, 3.05077052132426584929e-01) (461, -5.11574333389162139163e-01) (462, 1.00849796379771997068e-01) (463, 1.57546659902311286805e-01) (464, -8.40565095173965715070e-02) (465, -1.52771546477807624448e-02) (466, 7.28094153433624935445e-02) (467, -8.76612587384766189791e-02) (468, -9.48603257784104147987e-02) (469, -1.28565137583909500085e-01) (470, -4.98071773109169738114e-02) (471, -1.30000564215692285958e-02) (472, 2.84483389237183102727e-02) (473, -2.00037485315267549169e-02) (474, -5.28842433695767763502e-02) (475, -1.58075269857707798038e-02) (476, -1.03599192516015792265e-01) (477, -5.28866152007731876727e-02) (478, -8.25905105223697227901e-02) (479, 3.94291037301563521145e-02) (480, -1.65093791409945331305e-02) (481, -1.17778680656502016122e-01) (482, -2.16236442385682806067e-02) (483, -1.04760434226596838014e-01) (484, 3.77273634942666968861e-02) (485, 6.85078395298034659167e-02) (486, -6.21170314656880814819e-03) (487, -1.55673975229828707306e-02) (488, -6.53158940111160518649e-02) (489, -6.07939244166781564416e-02) (0, 4.42326805432107436622e-02) (1, 1.79243668073103996907e-02) (2, 5.41077938347234582706e-02) (3, -7.21834691851435256149e-02) (4, 3.40954034400348278411e-03) (5, -5.08969391694560902017e-02) (6, 5.22730967081976444222e-02) (7, -1.09160995553669010194e-01) (8, 6.09421439859602689926e-02) (9, 9.79034902326012396179e-02) (10, 1.30437789171189994636e-02) (11, -9.39580168771918418369e-03) (12, 2.13608707679432893722e-02) (13, -1.05481544196275617287e-01) (14, 9.32350374834583495165e-02) (15, 6.57630480954067703214e-02) (16, -1.56406163915868423597e-02) (17, 8.98442461932818930981e-02) (18, -3.70330292885872047748e-02) (19, 2.37618432470261820022e-02) (20, 2.74649391996224824519e-02) (21, -1.19482191359836947310e-03) (22, 1.14422151900702671889e-02) (23, -1.69566468726695507296e-01) (24, -1.10194756586369041473e-01) (25, -6.99960961150873223202e-02) (26, -1.31328593567447055035e-01) (27, -4.86514796669180113464e-02) (28, 2.13254104706938896197e-02) (29, -8.46829642514850405854e-02) (30, -6.98032472633439010634e-02) (31, -4.50669417337652492006e-02) (32, 7.31828612459441002480e-02) (33, -1.14469857954802509137e-01) (34, 1.59764187859114774326e-02) (35, -1.33475406838215859134e-02) (36, 2.47384307707612070837e-02) (37, -3.30909214503017079512e-02) (38, 2.12179038124437344473e-03) (39, 1.66428837398965544236e-02) (40, -4.51453553812676405821e-02) (41, 5.01072126886598287476e-02) (42, 8.63776656730970426867e-02) (43, 5.83302283857202036321e-02) (44, 4.13635254037229352364e-02) (45, 5.12879362238820094011e-02) (46, 6.65188395511908531210e-02) (47, 3.09427592677675436170e-03) (48, 9.37579805089573531385e-02) (49, -1.13611272688203066711e-02) (50, -5.95960517372666059854e-02) (51, -2.61959276749967745479e-02) (52, -1.37621858507116692077e-02) (53, -1.13081261364045282392e-01) (54, 8.66072980882344120590e-03) (55, -1.40804223389599109106e-02) (56, 3.10859589588500552504e-02) (57, 7.60992379226610969611e-03) (58, 8.23169911704285939269e-02) (59, -2.96239054961315306791e-02) (60, 9.91738840920683151214e-02) (61, -4.65944007630866088854e-02) (62, 5.19967238008948659522e-02) (63, 5.24804692935823338673e-02) (64, -1.37139901779976679415e-03) (65, -7.92573294593747201819e-02) (66, -5.99849664396940596145e-02) (67, -5.86165536065597625459e-02) (68, 2.70300086722211931056e-02) (69, 7.75562078776314833828e-02) (70, 2.92513159817597637180e-02) (71, 6.41828200346594851533e-02) (72, 5.81678069924644186584e-02) (73, -2.74977162952203639523e-02) (74, 6.85595508295274991273e-02) (75, -2.13235106703380736248e-02) (76, 1.00662993119459334007e-02) (77, 5.04484231868170124313e-02) (78, 6.61734971447958536528e-02) (79, -8.85624767560922072918e-03) (80, -4.97200126609193895910e-02) (81, -1.00557176549104565488e-01) (82, 6.66000035885016133941e-02) (83, -3.74592660662949397676e-02) (84, -9.22329878250457979583e-02) (85, -2.34242755313130573969e-02) (86, 3.54888369493606969929e-02) (87, 5.91303751232671939708e-02) (88, 1.10655218341326216924e-01) (89, 6.03640225276487127348e-02) (90, -9.22839611688765909525e-02) (91, 7.86945711276391957067e-02) (92, -1.10405201322644960782e-01) (93, -4.52527467858821873942e-03) (94, 9.11171866790361772992e-02) (95, 2.95718024731523726478e-02) (96, 1.34184939387012369671e-01) (97, -5.53409617592686212117e-02) (98, 8.65511433240244848486e-02) (99, 1.12550656616999221471e-02) (100, -7.70849608787242540631e-02) (101, 6.69537402304166886363e-03) (102, -3.72951270441597634853e-02) (103, -4.84851559916619698209e-02) (104, -6.83098597372974875030e-02) (105, -5.77750103369229633943e-02) (106, -1.21704126442943857955e-01) (107, 7.04561217243233478547e-02) (108, -7.37764875705936712391e-02) (109, 8.71318196749885781616e-02) (110, -7.68854255477947473585e-02) (111, -9.56745436156097028846e-02) (112, 8.37167942319989033528e-02) (113, 1.26101836177874015998e-01) (114, 2.20136024891964994510e-02) (115, -5.62284794529855705414e-02) (116, -1.31755071568418601763e-02) (117, -3.88509522468400356199e-02) (118, 4.81446185274441162960e-02) (119, -1.17689065007741608393e-02) (120, -5.27369641327226357230e-02) (121, 9.35077311033898489478e-02) (122, -6.24283495907562574478e-02) (123, -9.93659553876840295761e-02) (124, 5.52846151179155614885e-02) (125, -6.01626894705517209494e-02) (126, 1.91127567243876243797e-02) (127, 7.01147518105763208063e-04) (128, -5.68716133101532100858e-02) (129, 1.42689907396405003814e-02) (130, 8.16859935569845402314e-02) (131, -3.03302192353013637394e-02) (132, -8.10725525023731630192e-02) (133, -5.02230934755285921001e-02) (134, -6.91511119554745479210e-02) (135, -1.16008430567150280788e-02) (136, 2.57188276889144841475e-02) (137, -4.80196303912020922011e-02) (138, -6.48514990137890739996e-02) (139, -1.65534914140388657311e-02) (140, -6.77566260519121554839e-02) (141, -6.11072781634482489754e-02) (142, 3.04862390044047214255e-02) (143, -9.76176216292519161044e-02) (144, -3.50375865250126261596e-02) (145, -2.52760390205692825338e-02) (146, -7.55164059161288203637e-02) (147, -3.46756498945675895040e-03) (148, 4.57683187867860274967e-02) (149, 8.66071269445718022739e-02) (150, 9.86517816044132495046e-02) (151, 3.90910224260202568414e-02) (152, 3.62435199157018494986e-02) (153, 6.73636778069199547436e-03) (154, -9.07868265370165294925e-02) (155, -1.81675838084296090158e-02) (156, -2.39878526377887146825e-02) (157, 6.84040960804291470199e-02) (158, 1.14878096316362532381e-01) (159, 1.13743994050665209183e-01) (160, -9.69465680976398791469e-03) (161, 2.73201748909597252890e-02) (162, -5.89718492357521398284e-02) (163, 3.42853389063525956781e-02) (164, -6.39933204105643943516e-02) (165, 1.52964334032905484306e-02) (166, -8.15854335708871419852e-02) (167, -5.50661980632855506401e-03) (168, 8.41036991978941494974e-02) (169, -4.45109395163528348549e-02) (170, -9.00751156299199051691e-02) (171, 1.73520016959329212436e-02) (172, -4.78810368313035538551e-03) (173, 6.45704451593638456552e-02) (174, 1.04966640106294653578e-01) (175, 3.87776381614503215522e-02) (176, -1.00796550123153069722e-01) (177, 6.56542687523158502438e-02) (178, 7.11852590873812782896e-03) (179, 7.70067900210546496531e-02) (180, 4.68625460859253481494e-02) (181, -5.09332763142140154677e-02) (182, 2.63615102021372837982e-02) (183, 7.55683065904559636561e-02) (184, 7.69960210306692149906e-02) (185, 4.88010285263686949264e-02) (186, -1.01491077413837810228e-01) (187, -1.14866984241828132274e-01) (188, 2.17728757496013156092e-02) (189, -1.00039020754449564654e-01) (190, -6.28054853908532606521e-02) (191, -8.77139993329842521108e-02) (192, 7.52708949298796503591e-02) (193, 5.27375353555124409821e-02) (194, 3.25861137462439068302e-02) (195, 4.11170600819206616405e-02) (196, -1.36646218705104988134e-01) (197, 4.82982942700206710485e-02) (198, -2.86916218021956168430e-03) (199, 1.96523399111045264653e-02) (200, -1.20689626993330800797e-01) (201, 1.52185773973773433299e-02) (202, 4.61929349606747877144e-02) (203, 3.41921748704392125529e-02) (204, -3.39103037045214231182e-02) (205, 2.51218892808499107139e-02) (206, -2.54869635758090545830e-02) (207, -1.35722575454718552557e-01) (208, -4.42951104490872313302e-02) (209, 2.40734980667083996869e-03) (210, -2.91148725062404705247e-03) (211, -3.31410626995041123974e-03) (212, -7.06546069239441104637e-02) (213, -6.06695597201512906715e-02) (214, -1.30146632526889960424e-01) (215, 2.97171966715172345894e-03) (216, 1.07244376760763301948e-02) (217, -4.82481825717404957943e-02) (218, 1.12070554851790224471e-01) (219, -5.53503495226445249577e-03) (220, -1.23637388620979102316e-01) (221, -6.51908254248953628052e-02) (222, 4.56884460421517410444e-02) (223, -6.72365340860959226355e-02) (224, 7.18254718316299351627e-03) (225, -4.57245152180389760610e-02) (226, 1.42594784972514626586e-01) (227, -8.53394726579550927381e-02) (228, 2.69923945866216673239e-02) (229, -4.14011838949292984569e-02) (230, -2.29921456212804978247e-03) (231, 1.18208086097668987891e-01) (232, -5.24822763545865558776e-02) (233, -7.33738696455818600883e-02) (234, -2.24896546029278512902e-03) (235, -8.14742411834397661785e-02) (236, -4.09719428563912191343e-02) (237, 7.31934053393780564845e-02) (238, -7.36821394130838108749e-02) (239, 9.01240166201299902626e-02) (240, -9.97316523832167262098e-02) (241, 5.06406078843638363107e-02) (242, 3.49586462520638588392e-02) (243, 7.20303511996953915730e-02) (244, 1.04807859051626858782e-01) (245, -1.26884754297059785394e-02) (246, 4.72592397544031941892e-02) (247, 3.52920096531501581438e-02) (248, -1.46638411336781349092e-01) (249, -2.16798192939326138384e-02) (250, -4.70215188030282948972e-02) (251, 3.42700488862355337472e-02) (252, 4.40031581380420991345e-02) (253, 2.94039747510646889972e-02) (254, 6.51284291085277022848e-02) (255, -1.17155281734113408953e-01) (256, 4.67123267564082626097e-03) (257, 5.21241841337604719375e-02) (258, 2.52542582621346524407e-02) (259, 3.35920829992303743294e-02) (260, -1.74716905219959639517e-01) (261, -2.78019186225320485972e-02) (262, 5.67045746772849856843e-02) (263, 1.99115849637924308135e-02) (264, 3.83270570769166513125e-02) (265, -5.59736342504400796738e-02) (266, 8.40110224708672526095e-02) (267, -2.17909707347467312966e-01) (268, -1.49652308963951319321e-01) (269, -5.35423168749231473407e-02) (270, 1.03089225313382853999e-01) (271, 8.09093377013834491596e-02) (272, 1.59272526062435165750e-01) (273, -3.34087481769970648382e-02) (274, -4.38682154809502886095e-02) (275, 5.28860080124207293517e-02) (276, -3.31189326018206872670e-02) (277, 3.89140813263603932426e-02) (278, 4.48886060184970278608e-03) (279, 1.18902594688681875756e-01) (280, -1.20290264093701332326e-01) (281, 4.35513833465011948598e-02) (282, 3.25396316310878341849e-02) (283, 8.56373674265795692406e-02) (284, -4.20579647721625662915e-02) (285, -7.48834350667083870068e-02) (286, 6.03595597319713308981e-02) (287, -1.43346268728706538464e-01) (288, 7.74635641269298767103e-03) (289, 2.63854056383874026326e-02) (290, 2.38827399346664588642e-02) (291, -6.97018317262413228397e-02) (292, -3.54001774557180029501e-02) (293, -7.79130826265554271570e-02) (294, -1.33346414252310824927e-02) (295, 1.00247344841861291131e-02) (296, -3.88348932858943451940e-02) (297, -4.09836929162348678757e-02) (298, 2.43428687396068793580e-02) (299, -1.82690625459279963605e-02) (300, -1.38773347049076529319e-02) (301, -5.43124823611788971000e-05) (302, 9.12995415240880209273e-02) (303, -6.17813936983118198142e-04) (304, 8.11944607961362085913e-02) (305, -4.52628908278042210722e-02) (306, -4.46873143612174575368e-02) (307, 