FANN_FLO_2.1
num_layers=3
learning_rate=0.010000
connection_rate=1.000000
network_type=0
learning_momentum=0.300000
training_algorithm=0
train_error_function=0
train_stop_function=0
cascade_output_change_fraction=0.010000
quickprop_decay=-0.000100
quickprop_mu=1.750000
rprop_increase_factor=1.200000
rprop_decrease_factor=0.500000
rprop_delta_min=0.000000
rprop_delta_max=50.000000
rprop_delta_zero=0.100000
cascade_output_stagnation_epochs=12
cascade_candidate_change_fraction=0.010000
cascade_candidate_stagnation_epochs=12
cascade_max_out_epochs=150
cascade_min_out_epochs=0
cascade_max_cand_epochs=150
cascade_min_cand_epochs=0
cascade_num_candidate_groups=2
bit_fail_limit=3.49999999999999977796e-01
cascade_candidate_limit=1.00000000000000000000e+03
cascade_weight_multiplier=4.00000000000000022204e-01
cascade_activation_functions_count=10
cascade_activation_functions=3 5 7 8 10 11 14 15 16 17 
cascade_activation_steepnesses_count=4
cascade_activation_steepnesses=2.50000000000000000000e-01 5.00000000000000000000e-01 7.50000000000000000000e-01 1.00000000000000000000e+00 
layer_sizes=379 121 4 
scale_included=0
neurons (num_inputs, activation_function, activation_steepness)=(0, 0, 0.00000000000000000000e+00) (0, 0, 0.00000000000000000000e+00) (0, 0, 0.00000000000000000000e+00) (0, 0, 0.00000000000000000000e+00) (0, 0, 0.00000000000000000000e+00) (0, 0, 0.00000000000000000000e+00) (0, 0, 0.00000000000000000000e+00) (0, 0, 0.00000000000000000000e+00) (0, 0, 0.00000000000000000000e+00) (0, 0, 0.00000000000000000000e+00) (0, 0, 0.00000000000000000000e+00) (0, 0, 0.00000000000000000000e+00) (0, 0, 0.00000000000000000000e+00) (0, 0, 0.00000000000000000000e+00) (0, 0, 0.00000000000000000000e+00) (0, 0, 0.00000000000000000000e+00) (0, 0, 0.00000000000000000000e+00) (0, 0, 0.00000000000000000000e+00) (0, 0, 0.00000000000000000000e+00) (0, 0, 0.00000000000000000000e+00) (0, 0, 0.00000000000000000000e+00) (0, 0, 0.00000000000000000000e+00) (0, 0, 0.00000000000000000000e+00) (0, 0, 0.00000000000000000000e+00) (0, 0, 0.00000000000000000000e+00) (0, 0, 0.00000000000000000000e+00) (0, 0, 0.00000000000000000000e+00) (0, 0, 0.00000000000000000000e+00) (0, 0, 0.00000000000000000000e+00) (0, 0, 0.00000000000000000000e+00) (0, 0, 0.00000000000000000000e+00) (0, 0, 0.00000000000000000000e+00) (0, 0, 0.00000000000000000000e+00) (0, 0, 0.00000000000000000000e+00) (0, 0, 0.00000000000000000000e+00) (0, 0, 0.00000000000000000000e+00) (0, 0, 0.00000000000000000000e+00) (0, 0, 0.00000000000000000000e+00) (0, 0, 0.00000000000000000000e+00) (0, 0, 0.00000000000000000000e+00) (0, 0, 0.00000000000000000000e+00) (0, 0, 0.00000000000000000000e+00) (0, 0, 0.00000000000000000000e+00) (0, 0, 0.00000000000000000000e+00) (0, 0, 0.00000000000000000000e+00) (0, 0, 0.00000000000000000000e+00) (0, 0, 0.00000000000000000000e+00) (0, 0, 0.00000000000000000000e+00) (0, 0, 0.00000000000000000000e+00) (0, 0, 0.00000000000000000000e+00) (0, 0, 0.00000000000000000000e+00) (0, 0, 0.00000000000000000000e+00) (0, 0, 0.00000000000000000000e+00) (0, 0, 0.00000000000000000000e+00) (0, 0, 0.00000000000000000000e+00) (0, 0, 0.00000000000000000000e+00) (0, 0, 0.00000000000000000000e+00) (0, 0, 0.00000000000000000000e+00) (0, 0, 0.00000000000000000000e+00) (0, 0, 0.00000000000000000000e+00) (0, 0, 0.00000000000000000000e+00) (0, 0, 0.00000000000000000000e+00) (0, 0, 0.00000000000000000000e+00) (0, 0, 0.00000000000000000000e+00) (0, 0, 0.00000000000000000000e+00) (0, 0, 0.00000000000000000000e+00) (0, 0, 0.00000000000000000000e+00) (0, 0, 0.00000000000000000000e+00) (0, 0, 0.00000000000000000000e+00) (0, 0, 0.00000000000000000000e+00) (0, 0, 0.00000000000000000000e+00) (0, 0, 0.00000000000000000000e+00) (0, 0, 0.00000000000000000000e+00) (0, 0, 0.00000000000000000000e+00) (0, 0, 0.00000000000000000000e+00) (0, 0, 0.00000000000000000000e+00) (0, 0, 0.00000000000000000000e+00) (0, 0, 0.00000000000000000000e+00) (0, 0, 0.00000000000000000000e+00) (0, 0, 0.00000000000000000000e+00) (0, 0, 0.00000000000000000000e+00) (0, 0, 0.00000000000000000000e+00) (0, 0, 0.00000000000000000000e+00) (0, 0, 0.00000000000000000000e+00) (0, 0, 0.00000000000000000000e+00) (0, 0, 0.00000000000000000000e+00) (0, 0, 0.00000000000000000000e+00) (0, 0, 0.00000000000000000000e+00) (0, 0, 0.00000000000000000000e+00) (0, 0, 0.00000000000000000000e+00) (0, 0, 0.00000000000000000000e+00) (0, 0, 0.00000000000000000000e+00) (0, 0, 0.00000000000000000000e+00) (0, 0, 0.00000000000000000000e+00) (0, 0, 0.00000000000000000000e+00) (0, 0, 0.00000000000000000000e+00) (0, 0, 0.00000000000000000000e+00) (0, 0, 0.00000000000000000000e+00) (0, 0, 0.00000000000000000000e+00) (0, 0, 0.00000000000000000000e+00) (0, 0, 0.00000000000000000000e+00) (0, 0, 0.00000000000000000000e+00) (0, 0, 0.00000000000000000000e+00) (0, 0, 0.00000000000000000000e+00) (0, 0, 0.00000000000000000000e+00) (0, 0, 0.00000000000000000000e+00) (0, 0, 0.00000000000000000000e+00) (0, 0, 0.00000000000000000000e+00) (0, 0, 0.00000000000000000000e+00) (0, 0, 0.00000000000000000000e+00) (0, 0, 0.00000000000000000000e+00) (0, 0, 0.00000000000000000000e+00) (0, 0, 0.00000000000000000000e+00) (0, 0, 0.00000000000000000000e+00) (0, 0, 0.00000000000000000000e+00) (0, 0, 0.00000000000000000000e+00) (0, 0, 0.00000000000000000000e+00) (0, 0, 0.00000000000000000000e+00) (0, 0, 0.00000000000000000000e+00) (0, 0, 0.00000000000000000000e+00) (0, 0, 0.00000000000000000000e+00) (0, 0, 0.00000000000000000000e+00) (0, 0, 0.00000000000000000000e+00) (0, 0, 0.00000000000000000000e+00) (0, 0, 0.00000000000000000000e+00) (0, 0, 0.00000000000000000000e+00) (0, 0, 0.00000000000000000000e+00) (0, 0, 0.00000000000000000000e+00) (0, 0, 0.00000000000000000000e+00) (0, 0, 0.00000000000000000000e+00) (0, 0, 0.00000000000000000000e+00) (0, 0, 0.00000000000000000000e+00) (0, 0, 0.00000000000000000000e+00) (0, 0, 0.00000000000000000000e+00) (0, 0, 0.00000000000000000000e+00) (0, 0, 0.00000000000000000000e+00) (0, 0, 0.00000000000000000000e+00) (0, 0, 0.00000000000000000000e+00) (0, 0, 0.00000000000000000000e+00) (0, 0, 0.00000000000000000000e+00) (0, 0, 0.00000000000000000000e+00) (0, 0, 0.00000000000000000000e+00) (0, 0, 0.00000000000000000000e+00) (0, 0, 0.00000000000000000000e+00) (0, 0, 0.00000000000000000000e+00) (0, 0, 0.00000000000000000000e+00) (0, 0, 0.00000000000000000000e+00) (0, 0, 0.00000000000000000000e+00) (0, 0, 0.00000000000000000000e+00) (0, 0, 0.00000000000000000000e+00) (0, 0, 0.00000000000000000000e+00) (0, 0, 0.00000000000000000000e+00) (0, 0, 0.00000000000000000000e+00) (0, 0, 0.00000000000000000000e+00) (0, 0, 0.00000000000000000000e+00) (0, 0, 0.00000000000000000000e+00) (0, 0, 0.00000000000000000000e+00) (0, 0, 0.00000000000000000000e+00) (0, 0, 0.00000000000000000000e+00) (0, 0, 0.00000000000000000000e+00) (0, 0, 0.00000000000000000000e+00) (0, 0, 0.00000000000000000000e+00) (0, 0, 0.00000000000000000000e+00) (0, 0, 0.00000000000000000000e+00) (0, 0, 0.00000000000000000000e+00) (0, 0, 0.00000000000000000000e+00) (0, 0, 0.00000000000000000000e+00) (0, 0, 0.00000000000000000000e+00) (0, 0, 0.00000000000000000000e+00) (0, 0, 0.00000000000000000000e+00) (0, 0, 0.00000000000000000000e+00) (0, 0, 0.00000000000000000000e+00) (0, 0, 0.00000000000000000000e+00) (0, 0, 0.00000000000000000000e+00) (0, 0, 0.00000000000000000000e+00) (0, 0, 0.00000000000000000000e+00) (0, 0, 0.00000000000000000000e+00) (0, 0, 0.00000000000000000000e+00) (0, 0, 0.00000000000000000000e+00) (0, 0, 0.00000000000000000000e+00) (0, 0, 0.00000000000000000000e+00) (0, 0, 0.00000000000000000000e+00) (0, 0, 0.00000000000000000000e+00) (0, 0, 0.00000000000000000000e+00) (0, 0, 0.00000000000000000000e+00) (0, 0, 0.00000000000000000000e+00) (0, 0, 0.00000000000000000000e+00) (0, 0, 0.00000000000000000000e+00) (0, 0, 0.00000000000000000000e+00) (0, 0, 0.00000000000000000000e+00) (0, 0, 0.00000000000000000000e+00) (0, 0, 0.00000000000000000000e+00) (0, 0, 0.00000000000000000000e+00) (0, 0, 0.00000000000000000000e+00) (0, 0, 0.00000000000000000000e+00) (0, 0, 0.00000000000000000000e+00) (0, 0, 0.00000000000000000000e+00) (0, 0, 0.00000000000000000000e+00) (0, 0, 0.00000000000000000000e+00) (0, 0, 0.00000000000000000000e+00) (0, 0, 0.00000000000000000000e+00) (0, 0, 0.00000000000000000000e+00) (0, 0, 0.00000000000000000000e+00) (0, 0, 0.00000000000000000000e+00) (0, 0, 0.00000000000000000000e+00) (0, 0, 0.00000000000000000000e+00) (0, 0, 0.00000000000000000000e+00) (0, 0, 0.00000000000000000000e+00) (0, 0, 0.00000000000000000000e+00) (0, 0, 0.00000000000000000000e+00) (0, 0, 0.00000000000000000000e+00) (0, 0, 0.00000000000000000000e+00) (0, 0, 0.00000000000000000000e+00) (0, 0, 0.00000000000000000000e+00) (0, 0, 0.00000000000000000000e+00) (0, 0, 0.00000000000000000000e+00) (0, 0, 0.00000000000000000000e+00) (0, 0, 0.00000000000000000000e+00) (0, 0, 0.00000000000000000000e+00) (0, 0, 0.00000000000000000000e+00) (0, 0, 0.00000000000000000000e+00) (0, 0, 0.00000000000000000000e+00) (0, 0, 0.00000000000000000000e+00) (0, 0, 0.00000000000000000000e+00) (0, 0, 0.00000000000000000000e+00) (0, 0, 0.00000000000000000000e+00) (0, 0, 0.00000000000000000000e+00) (0, 0, 0.00000000000000000000e+00) (0, 0, 0.00000000000000000000e+00) (0, 0, 0.00000000000000000000e+00) (0, 0, 0.00000000000000000000e+00) (0, 0, 0.00000000000000000000e+00) (0, 0, 0.00000000000000000000e+00) (0, 0, 0.00000000000000000000e+00) (0, 0, 0.00000000000000000000e+00) (0, 0, 0.00000000000000000000e+00) (0, 0, 0.00000000000000000000e+00) (0, 0, 0.00000000000000000000e+00) (0, 0, 0.00000000000000000000e+00) (0, 0, 0.00000000000000000000e+00) (0, 0, 0.00000000000000000000e+00) (0, 0, 0.00000000000000000000e+00) (0, 0, 0.00000000000000000000e+00) (0, 0, 0.00000000000000000000e+00) (0, 0, 0.00000000000000000000e+00) (0, 0, 0.00000000000000000000e+00) (0, 0, 0.00000000000000000000e+00) (0, 0, 0.00000000000000000000e+00) (0, 0, 0.00000000000000000000e+00) (0, 0, 0.00000000000000000000e+00) (0, 0, 0.00000000000000000000e+00) (0, 0, 0.00000000000000000000e+00) (0, 0, 0.00000000000000000000e+00) (0, 0, 0.00000000000000000000e+00) (0, 0, 0.00000000000000000000e+00) (0, 0, 0.00000000000000000000e+00) (0, 0, 0.00000000000000000000e+00) (0, 0, 0.00000000000000000000e+00) (0, 0, 0.00000000000000000000e+00) (0, 0, 0.00000000000000000000e+00) (0, 0, 0.00000000000000000000e+00) (0, 0, 0.00000000000000000000e+00) (0, 0, 0.00000000000000000000e+00) (0, 0, 0.00000000000000000000e+00) (0, 0, 0.00000000000000000000e+00) (0, 0, 0.00000000000000000000e+00) (0, 0, 0.00000000000000000000e+00) (0, 0, 0.00000000000000000000e+00) (0, 0, 0.00000000000000000000e+00) (0, 0, 0.00000000000000000000e+00) (0, 0, 0.00000000000000000000e+00) (0, 0, 0.00000000000000000000e+00) (0, 0, 0.00000000000000000000e+00) (0, 0, 0.00000000000000000000e+00) (0, 0, 0.00000000000000000000e+00) (0, 0, 0.00000000000000000000e+00) (0, 0, 0.00000000000000000000e+00) (0, 0, 0.00000000000000000000e+00) (0, 0, 0.00000000000000000000e+00) (0, 0, 0.00000000000000000000e+00) (0, 0, 0.00000000000000000000e+00) (0, 0, 0.00000000000000000000e+00) (0, 0, 0.00000000000000000000e+00) (0, 0, 0.00000000000000000000e+00) (0, 0, 0.00000000000000000000e+00) (0, 0, 0.00000000000000000000e+00) (0, 0, 0.00000000000000000000e+00) (0, 0, 0.00000000000000000000e+00) (0, 0, 0.00000000000000000000e+00) (0, 0, 0.00000000000000000000e+00) (0, 0, 0.00000000000000000000e+00) (0, 0, 0.00000000000000000000e+00) (0, 0, 0.00000000000000000000e+00) (0, 0, 0.00000000000000000000e+00) (0, 0, 0.00000000000000000000e+00) (0, 0, 0.00000000000000000000e+00) (0, 0, 0.00000000000000000000e+00) (0, 0, 0.00000000000000000000e+00) (0, 0, 0.00000000000000000000e+00) (0, 0, 0.00000000000000000000e+00) (0, 0, 0.00000000000000000000e+00) (0, 0, 0.00000000000000000000e+00) (0, 0, 0.00000000000000000000e+00) (0, 0, 0.00000000000000000000e+00) (0, 0, 0.00000000000000000000e+00) (0, 0, 0.00000000000000000000e+00) (0, 0, 0.00000000000000000000e+00) (0, 0, 0.00000000000000000000e+00) (0, 0, 0.00000000000000000000e+00) (0, 0, 0.00000000000000000000e+00) (0, 0, 0.00000000000000000000e+00) (0, 0, 0.00000000000000000000e+00) (0, 0, 0.00000000000000000000e+00) (0, 0, 0.00000000000000000000e+00) (0, 0, 0.00000000000000000000e+00) (0, 0, 0.00000000000000000000e+00) (0, 0, 0.00000000000000000000e+00) (0, 0, 0.00000000000000000000e+00) (0, 0, 0.00000000000000000000e+00) (0, 0, 0.00000000000000000000e+00) (0, 0, 0.00000000000000000000e+00) (0, 0, 0.00000000000000000000e+00) (0, 0, 0.00000000000000000000e+00) (0, 0, 0.00000000000000000000e+00) (0, 0, 0.00000000000000000000e+00) (0, 0, 0.00000000000000000000e+00) (0, 0, 0.00000000000000000000e+00) (0, 0, 0.00000000000000000000e+00) (0, 0, 0.00000000000000000000e+00) (0, 0, 0.00000000000000000000e+00) (0, 0, 0.00000000000000000000e+00) (0, 0, 0.00000000000000000000e+00) (0, 0, 0.00000000000000000000e+00) (0, 0, 0.00000000000000000000e+00) (0, 0, 0.00000000000000000000e+00) (0, 0, 0.00000000000000000000e+00) (0, 0, 0.00000000000000000000e+00) (0, 0, 0.00000000000000000000e+00) (0, 0, 0.00000000000000000000e+00) (0, 0, 0.00000000000000000000e+00) (0, 0, 0.00000000000000000000e+00) (0, 0, 0.00000000000000000000e+00) (0, 0, 0.00000000000000000000e+00) (0, 0, 0.00000000000000000000e+00) (0, 0, 0.00000000000000000000e+00) (0, 0, 0.00000000000000000000e+00) (0, 0, 0.00000000000000000000e+00) (0, 0, 0.00000000000000000000e+00) (0, 0, 0.00000000000000000000e+00) (0, 0, 0.00000000000000000000e+00) (0, 0, 0.00000000000000000000e+00) (0, 0, 0.00000000000000000000e+00) (0, 0, 0.00000000000000000000e+00) (0, 0, 0.00000000000000000000e+00) (0, 0, 0.00000000000000000000e+00) (0, 0, 0.00000000000000000000e+00) (0, 0, 0.00000000000000000000e+00) (0, 0, 0.00000000000000000000e+00) (0, 0, 0.00000000000000000000e+00) (0, 0, 0.00000000000000000000e+00) (0, 0, 0.00000000000000000000e+00) (0, 0, 0.00000000000000000000e+00) (0, 0, 0.00000000000000000000e+00) (0, 0, 0.00000000000000000000e+00) (0, 0, 0.00000000000000000000e+00) (0, 0, 0.00000000000000000000e+00) (0, 0, 0.00000000000000000000e+00) (0, 0, 0.00000000000000000000e+00) (0, 0, 0.00000000000000000000e+00) (0, 0, 0.00000000000000000000e+00) (0, 0, 0.00000000000000000000e+00) (0, 0, 0.00000000000000000000e+00) (0, 0, 0.00000000000000000000e+00) (0, 0, 0.00000000000000000000e+00) (0, 0, 0.00000000000000000000e+00) (0, 0, 0.00000000000000000000e+00) (0, 0, 0.00000000000000000000e+00) (0, 0, 0.00000000000000000000e+00) (0, 0, 0.00000000000000000000e+00) (379, 3, 5.00000000000000000000e-01) (379, 3, 5.00000000000000000000e-01) (379, 3, 5.00000000000000000000e-01) (379, 3, 5.00000000000000000000e-01) (379, 3, 5.00000000000000000000e-01) (379, 3, 5.00000000000000000000e-01) (379, 3, 5.00000000000000000000e-01) (379, 3, 5.00000000000000000000e-01) (379, 3, 5.00000000000000000000e-01) (379, 3, 5.00000000000000000000e-01) (379, 3, 5.00000000000000000000e-01) (379, 3, 5.00000000000000000000e-01) (379, 3, 5.00000000000000000000e-01) (379, 3, 5.00000000000000000000e-01) (379, 3, 5.00000000000000000000e-01) (379, 3, 5.00000000000000000000e-01) (379, 3, 5.00000000000000000000e-01) (379, 3, 5.00000000000000000000e-01) (379, 3, 5.00000000000000000000e-01) (379, 3, 5.00000000000000000000e-01) (379, 3, 5.00000000000000000000e-01) (379, 3, 5.00000000000000000000e-01) (379, 3, 5.00000000000000000000e-01) (379, 3, 5.00000000000000000000e-01) (379, 3, 5.00000000000000000000e-01) (379, 3, 5.00000000000000000000e-01) (379, 3, 5.00000000000000000000e-01) (379, 3, 5.00000000000000000000e-01) (379, 3, 5.00000000000000000000e-01) (379, 3, 5.00000000000000000000e-01) (379, 3, 5.00000000000000000000e-01) (379, 3, 5.00000000000000000000e-01) (379, 3, 5.00000000000000000000e-01) (379, 3, 5.00000000000000000000e-01) (379, 3, 5.00000000000000000000e-01) (379, 3, 5.00000000000000000000e-01) (379, 3, 5.00000000000000000000e-01) (379, 3, 5.00000000000000000000e-01) (379, 3, 5.00000000000000000000e-01) (379, 3, 5.00000000000000000000e-01) (379, 3, 5.00000000000000000000e-01) (379, 3, 5.00000000000000000000e-01) (379, 3, 5.00000000000000000000e-01) (379, 3, 5.00000000000000000000e-01) (379, 3, 5.00000000000000000000e-01) (379, 3, 5.00000000000000000000e-01) (379, 3, 5.00000000000000000000e-01) (379, 3, 5.00000000000000000000e-01) (379, 3, 5.00000000000000000000e-01) (379, 3, 5.00000000000000000000e-01) (379, 3, 5.00000000000000000000e-01) (379, 3, 5.00000000000000000000e-01) (379, 3, 5.00000000000000000000e-01) (379, 3, 5.00000000000000000000e-01) (379, 3, 5.00000000000000000000e-01) (379, 3, 5.00000000000000000000e-01) (379, 3, 5.00000000000000000000e-01) (379, 3, 5.00000000000000000000e-01) (379, 3, 5.00000000000000000000e-01) (379, 3, 5.00000000000000000000e-01) (379, 3, 5.00000000000000000000e-01) (379, 3, 5.00000000000000000000e-01) (379, 3, 5.00000000000000000000e-01) (379, 3, 5.00000000000000000000e-01) (379, 3, 5.00000000000000000000e-01) (379, 3, 5.00000000000000000000e-01) (379, 3, 5.00000000000000000000e-01) (379, 3, 5.00000000000000000000e-01) (379, 3, 5.00000000000000000000e-01) (379, 3, 5.00000000000000000000e-01) (379, 3, 5.00000000000000000000e-01) (379, 3, 5.00000000000000000000e-01) (379, 3, 5.00000000000000000000e-01) (379, 3, 5.00000000000000000000e-01) (379, 3, 5.00000000000000000000e-01) (379, 3, 5.00000000000000000000e-01) (379, 3, 5.00000000000000000000e-01) (379, 3, 5.00000000000000000000e-01) (379, 3, 5.00000000000000000000e-01) (379, 3, 5.00000000000000000000e-01) (379, 3, 5.00000000000000000000e-01) (379, 3, 5.00000000000000000000e-01) (379, 3, 5.00000000000000000000e-01) (379, 3, 5.00000000000000000000e-01) (379, 3, 5.00000000000000000000e-01) (379, 3, 5.00000000000000000000e-01) (379, 3, 5.00000000000000000000e-01) (379, 3, 5.00000000000000000000e-01) (379, 3, 5.00000000000000000000e-01) (379, 3, 5.00000000000000000000e-01) (379, 3, 5.00000000000000000000e-01) (379, 3, 5.00000000000000000000e-01) (379, 3, 5.00000000000000000000e-01) (379, 3, 5.00000000000000000000e-01) (379, 3, 5.00000000000000000000e-01) (379, 3, 5.00000000000000000000e-01) (379, 3, 5.00000000000000000000e-01) (379, 3, 5.00000000000000000000e-01) (379, 3, 5.00000000000000000000e-01) (379, 3, 5.00000000000000000000e-01) (379, 3, 5.00000000000000000000e-01) (379, 3, 5.00000000000000000000e-01) (379, 3, 5.00000000000000000000e-01) (379, 3, 5.00000000000000000000e-01) (379, 3, 5.00000000000000000000e-01) (379, 3, 5.00000000000000000000e-01) (379, 3, 5.00000000000000000000e-01) (379, 3, 5.00000000000000000000e-01) (379, 3, 5.00000000000000000000e-01) (379, 3, 5.00000000000000000000e-01) (379, 3, 5.00000000000000000000e-01) (379, 3, 5.00000000000000000000e-01) (379, 3, 5.00000000000000000000e-01) (379, 3, 5.00000000000000000000e-01) (379, 3, 5.00000000000000000000e-01) (379, 3, 5.00000000000000000000e-01) (379, 3, 5.00000000000000000000e-01) (379, 3, 5.00000000000000000000e-01) (379, 3, 5.00000000000000000000e-01) (379, 3, 5.00000000000000000000e-01) (0, 3, 0.00000000000000000000e+00) (121, 3, 5.00000000000000000000e-01) (121, 3, 5.00000000000000000000e-01) (121, 3, 5.00000000000000000000e-01) (0, 3, 0.00000000000000000000e+00) 
connections (connected_to_neuron, weight)=(0, -5.09299028744536821933e-02) (1, 2.02790754256482498585e-02) (2, -6.29769458317745722820e-02) (3, -4.08337421095461474557e-03) (4, 2.68003601962553024418e-02) (5, -8.49554649920747362302e-02) (6, -2.95031968147537078384e-02) (7, -7.46319612675107602051e-02) (8, 5.92199988185547546160e-02) (9, 3.45634554669341578781e-02) (10, 4.08525957422326627122e-02) (11, 4.09541572482644000708e-03) (12, -5.48991302035135159132e-03) (13, -6.47340560988591412483e-02) (14, -1.55753610565987458958e-02) (15, -1.59451055638239018453e-02) (16, -1.01640351627200045681e-01) (17, -3.21889764775463091406e-02) (18, -5.90667221043806173197e-02) (19, -3.34403888263369933331e-02) (20, 3.50225150056188219705e-02) (21, -4.21516615441001260556e-02) (22, 3.10326530526771346766e-03) (23, 9.63884233129878448265e-02) (24, 7.09393581750565604960e-02) (25, -4.97087586563737179879e-02) (26, -1.73400079148850527755e-01) (27, -1.13516203446963143131e-01) (28, -1.22587033297629488526e-01) (29, 8.83358079090818121282e-02) (30, 1.65297885853562254166e-02) (31, 3.68652758973573094203e-02) (32, 2.96792954604488852521e-02) (33, -1.18715594602844962124e-01) (34, -8.51652176112483311199e-02) (35, 2.19540352704352369206e-02) (36, -6.11142838262274321059e-02) (37, 5.39927297241582296317e-02) (38, 3.84249382419589655124e-02) (39, 7.84433811451947099469e-02) (40, 3.17391460487710316829e-02) (41, -2.44495859887258679133e-02) (42, -2.42689519834419949185e-02) (43, 3.47894923506041758854e-02) (44, 1.62644782333868538615e-02) (45, -5.62801868057087942288e-02) (46, -5.13203471173276151718e-02) (47, 7.43891531900120195342e-02) (48, 3.94790910406421571843e-02) (49, 1.77443610502048890187e-02) (50, -9.98525950550962493324e-02) (51, 1.74209400658467232492e-02) (52, -4.35662539646032020979e-02) (53, -6.15428058265523724585e-03) (54, 1.02508693968421757403e-01) (55, 4.03277217559308773231e-02) (56, -1.18339107923552452201e-02) (57, 3.61687222231157345931e-02) (58, 1.18435278323511292142e-01) (59, 9.29762606356621390535e-02) (60, 1.88832392161384782225e-02) (61, -2.39243518612222531849e-03) (62, -8.20481092274009810028e-02) (63, -5.33590301554917392779e-02) (64, 5.96339456434022766040e-02) (65, -5.24999845617547533649e-02) (66, -1.25676590188123132874e-01) (67, 9.08775571077378163665e-02) (68, -6.46710396966236750194e-02) (69, -9.11213690137858134399e-02) (70, 6.11714070614549770832e-02) (71, 3.52271781751989157550e-02) (72, -2.18580820552124258094e-02) (73, -8.45587104853480209243e-02) (74, 1.11618685174226822676e-01) (75, -2.40953040817296904041e-02) (76, -8.54260138199004898096e-02) (77, -9.24560280916089521908e-02) (78, -2.93275499483801396772e-02) (79, 1.19733685596277505958e-01) (80, 4.36146267928275016557e-02) (81, -9.64043590597580823953e-02) (82, 6.74709001619854809029e-02) (83, -1.09392687465292640092e-01) (84, 1.36364280274744592569e-01) (85, -6.15927268789320941922e-02) (86, -4.89520375374697322424e-02) (87, -1.27733573093255867864e-02) (88, -3.52176691099785124650e-02) (89, -7.74360221351941269141e-03) (90, 2.18592853798528288789e-02) (91, -9.92864697133353235614e-02) (92, 1.33637896107508119536e-01) (93, -1.45501944163942353860e-01) (94, -7.77061126580907979289e-02) (95, 7.47177125914431916609e-02) (96, 3.22459820345236125583e-02) (97, -4.72653280284894283803e-02) (98, -4.44406378454289957558e-02) (99, 7.83201663876192666347e-02) (100, 1.62876877073538234297e-02) (101, 6.64950058178601227654e-02) (102, 4.55264985810552164081e-02) (103, -1.30949737645609937120e-01) (104, -1.11722574256088960643e-01) (105, -1.66958942784889777244e-02) (106, 8.19254082585561815844e-03) (107, -4.01038330841294934914e-02) (108, 8.98311044581832085498e-02) (109, 4.55969294655612505940e-02) (110, -1.22151375775352621922e-01) (111, 5.88853986973811791006e-02) (112, -1.16297067500030923415e-01) (113, -1.16539834219200645615e-02) (114, -1.60257218568238074541e-01) (115, 5.16650553449756674840e-02) (116, -1.10883504105846533716e-01) (117, -1.50817761900538995640e-02) (118, -1.29534548261648230216e-01) (119, -9.12588994283291682352e-02) (120, 7.31137708541657188599e-02) (121, -6.22924090614329142856e-02) (122, 2.67178217945729032379e-03) (123, 7.54859459719545572431e-02) (124, -1.34810401330011347953e-01) (125, 2.00900088820982931914e-02) (126, 1.75775958568497245316e-02) (127, 1.29759706114354417261e-01) (128, -9.06918250807532411173e-02) (129, -4.98316925783816033757e-02) (130, 6.47933833271872872128e-02) (131, 5.42770057894736632220e-02) (132, 7.72155869770298902699e-02) (133, -9.33839753228135139099e-04) (134, -1.65812886592517721995e-01) (135, 7.35880588860336054546e-03) (136, -1.18314062712913652814e-02) (137, 5.71783534796919956644e-02) (138, -1.80868492465263361324e-02) (139, -7.11245755352625658174e-02) (140, 4.72133526479837847822e-02) (141, 5.99004946420649969641e-02) (142, -1.30720747875300774554e-01) (143, -7.32869404179768840768e-02) (144, -8.89006186906817277849e-03) (145, -1.06267241197019260412e-01) (146, -8.47064064465461730169e-02) (147, 1.67117324145285212067e-01) (148, 6.32779917480886383574e-02) (149, -4.93132606310243692960e-02) (150, -7.68773041966519660173e-02) (151, -8.49530974248938024196e-03) (152, -1.29082656766659996384e-02) (153, 7.45020969177798003669e-02) (154, 3.64317023761359798373e-02) (155, 1.75167469812715047295e-02) (156, 4.08339529010700030831e-02) (157, -1.20200658028517468057e-01) (158, 5.63098716648387995209e-02) (159, 1.39376682039701660365e-01) (160, -7.66919272324587814049e-02) (161, 2.40777491646647218149e-02) (162, 6.58008316102208848375e-03) (163, -1.40895439350458451244e-01) (164, 6.81251211722567681650e-03) (165, 5.21574638611991322351e-03) (166, 7.33776617264878805447e-02) (167, 1.06234099504221399246e-01) (168, 3.18083514553245188736e-03) (169, 1.03235351530083438454e-01) (170, -1.08613498281057013761e-01) (171, 7.71402828583841876364e-02) (172, 4.11242917095498566882e-02) (173, -8.77707216584193011810e-02) (174, -7.74445396722081430552e-02) (175, -1.11346791542737494352e-01) (176, -1.13255085291975712836e-01) (177, -3.41728044873504874235e-02) (178, -1.63415047580738881372e-02) (179, -8.31053574239740272533e-02) (180, 1.04290059217230363098e-01) (181, 4.39647684450706066617e-02) (182, 1.17102624087451673285e-01) (183, 1.61214045794422881908e-02) (184, 2.16284815782955899821e-02) (185, 4.43340782877248498761e-03) (186, -4.22944743242248399895e-03) (187, 8.19603555434567365712e-02) (188, -3.13027529833499115752e-02) (189, -1.08695078719163645831e-01) (190, -4.80518306796487784660e-02) (191, -6.39884034746789898129e-02) (192, 1.57386320007329855164e-01) (193, -1.57592462384906817352e-01) (194, -7.70263181962821258386e-02) (195, -1.12096608674101649861e-01) (196, -3.14649261006590338918e-02) (197, -1.23096156519225993775e-01) (198, -1.54124928536953892388e-01) (199, -1.32646396700813656855e-01) (200, 1.03832408925415980994e-01) (201, -1.23206085808933676895e-01) (202, 2.56440558692146540476e-02) (203, -1.06714571410830308396e-01) (204, -9.77183808145344195983e-02) (205, 1.02188684909970736031e-02) (206, -5.01124969029416653110e-02) (207, 1.31249771641104101549e-01) (208, -9.88252649406586164416e-02) (209, -3.18211494091757696179e-02) (210, -8.97834573264944674209e-02) (211, -6.11445151283176099866e-02) (212, 5.58431170516759459166e-02) (213, -2.16610374452081040630e-02) (214, 1.38186333079030637672e-01) (215, 1.07708746494500579114e-04) (216, -5.05856710748221402585e-02) (217, -1.08112365629072851303e-02) (218, -6.42780661081241849741e-02) (219, -8.27592128683228983599e-02) (220, 7.75151821385268585685e-02) (221, 4.26043619597327657966e-02) (222, -4.55017835631733348623e-03) (223, 3.89889722447832737240e-02) (224, -1.90912474150533445494e-02) (225, 2.50398295363893005905e-03) (226, 1.36653241918439138924e-01) (227, -1.43118508313637343710e-01) (228, -1.71104159635253397220e-02) (229, -1.01412466215591398622e-01) (230, -2.19315499819183329366e-02) (231, 5.67801113314946107047e-02) (232, -3.62722251515098792485e-02) (233, -1.39456049450944502555e-01) (234, -3.27616153593403430788e-02) (235, -4.34583634646774144561e-02) (236, -1.57199367018590885348e-01) (237, 1.78362065886377013646e-02) (238, -3.74519813285109776091e-02) (239, -4.53841913836218122102e-02) (240, 1.85965829732573466326e-02) (241, 3.91169706105635589521e-02) (242, 1.81726172855916412452e-01) (243, 5.38745066988204415748e-02) (244, 4.44810612133767716708e-03) (245, 6.49738976159837805513e-02) (246, 8.51462087102794334958e-02) (247, -5.21799831957778584290e-04) (248, -1.02621793338219025049e-01) (249, 1.93276849488678778566e-02) (250, 2.35398634626178930584e-02) (251, -8.94518812197860058166e-02) (252, -2.19969040693034460776e-02) (253, 4.00453884199318682624e-02) (254, 3.63737761031519488131e-02) (255, 8.19785049102070700888e-02) (256, -5.74116245426973398347e-02) (257, 5.61141295079670629486e-02) (258, -1.04838704196519486023e-01) (259, 1.11230389232844242842e-01) (260, 8.73453928308571408978e-02) (261, 1.20734301379014502542e-02) (262, -3.46085123050154722102e-02) (263, 3.64360989988433275899e-02) (264, 1.14763482630540120111e-01) (265, 2.16182664763429968624e-02) (266, -2.16745839423429613457e-02) (267, 1.78822541577544208424e-01) (268, 4.28481178244904184482e-02) (269, -4.67962233351093721823e-03) (270, 1.03195662110910670040e-02) (271, -6.60707995749424802784e-03) (272, -1.05983814716225518970e-01) (273, -1.25851748950426528539e-01) (274, 1.37477929941709792194e-01) (275, 5.68286845555526429208e-02) (276, -2.29532969095302165352e-02) (277, -1.05251588025801631754e-01) (278, 9.67801844935470417797e-02) (279, 4.26867267068785707917e-03) (280, -9.96797676028743084853e-02) (281, -3.67648940475353430690e-02) (282, -1.85050528764131513859e-02) (283, -1.75354840974065367964e-01) (284, 1.93084578585166533049e-01) (285, -1.24376312904055721931e-01) (286, 7.50945680095776446628e-02) (287, -4.39313858564327336387e-02) (288, 6.19821128650939884297e-02) (289, 1.00816088959812921733e-01) (290, 4.96263482019213483798e-02) (291, 5.92953457294003241640e-02) (292, -5.92736077294552937689e-02) (293, -6.10442024823114812171e-02) (294, 6.73943089387597782380e-02) (295, -8.65854037199526027635e-02) (296, -7.35360968355355110182e-02) (297, -5.63592279254679570655e-02) (298, -9.32503888432930638785e-02) (299, 4.69373352455447409581e-02) (300, 1.87944683779374399624e-02) (301, 7.91529710288499527282e-02) (302, -1.21780958670343164574e-01) (303, -1.63236650282800564715e-02) (304, -1.09418464815187244099e-01) (305, -1.60332308644262677699e-01) (306, 2.85059828115971219953e-02) (307, 6.85036909511417130281e-02) (308, -2.55076772154973346884e-02) (309, -7.58130128724087640896e-03) (310, 5.20108371609097203114e-02) (311, 5.11029231231844016659e-02) (312, -5.14672519876896352592e-03) (313, -9.27340703262661061879e-03) (314, 4.27228149269877829908e-02) (315, -2.26721592882278165024e-03) (316, -3.05863682947963289038e-02) (317, 4.14640465171861594129e-02) (318, 3.37986192064165177906e-02) (319, 4.01706284597176527251e-02) (320, 2.46490155094134522074e-02) (321, 2.44509145728072710413e-02) (322, -4.84339513925495096514e-02) (323, -1.18404202987850426521e-01) (324, 7.65821569777563743164e-02) (325, 7.01054826447152640290e-02) (326, 1.93152339019616280102e-02) (327, -4.12050811391749954860e-02) (328, -5.52332577729918502291e-03) (329, 8.17472617331903850246e-02) (330, 5.38928181522992516550e-02) (331, -5.43960705513242062659e-02) (332, -4.17577203611728814403e-02) (333, 2.56929296495805002676e-02) (334, 2.88520337992671897787e-02) (335, -8.46068117048469209296e-02) (336, 2.67033151799187691566e-02) (337, -1.18271928029934053628e-01) (338, -9.17790102800877527489e-02) (339, -2.77303551659259128748e-01) (340, 9.27973489400117507175e-02) (341, -1.51070895044852882005e-01) (342, -3.95385412136311995002e-02) (343, 3.10728603278274213492e-03) (344, -9.89377247723192548845e-02) (345, 5.98662531813146190501e-03) (346, -2.83164702889672145747e-02) (347, 5.26164443510874074716e-02) (348, -9.19702402257550379050e-03) (349, -9.43552094265943802620e-02) (350, -1.13309568824761577877e-01) (351, -7.47462570375348467344e-02) (352, -2.09062701978087794874e-01) (353, -1.34764703078991236740e-02) (354, -2.03873464895175493528e-01) (355, 1.83741945631727722488e-02) (356, 1.43140817177005746919e-01) (357, -7.30121716945139054289e-02) (358, -1.86139912234122767432e-01) (359, -2.67521196385112125515e-01) (360, -3.34190724479968837013e-02) (361, 2.73221894603434198312e-02) (362, -2.57265947918083104362e-01) (363, 2.46597845511016787456e-02) (364, -9.42983567200513655981e-04) (365, 3.39366808227770863637e-02) (366, -1.38814049555923496593e-01) (367, -4.21795105047887627925e-02) (368, -1.23066812121611302011e-01) (369, 1.25507005446705427465e-02) (370, -1.99650329831911610423e-01) (371, -1.25590780512924243828e-01) (372, -2.04767951829010093345e-02) (373, 6.71983905182088336883e-02) (374, -4.96182378390969888726e-02) (375, 9.59241323604975715256e-02) (376, 5.80831826488104052686e-02) (377, 7.44982243971854252163e-02) (378, 3.74787549611176953879e-02) (0, 7.33489709361427044687e-02) (1, -8.28089434345225666734e-02) (2, 4.45809122248970041147e-02) (3, -5.58688123630662891728e-02) (4, -3.22281995131189880066e-01) (5, 3.12420348060480246311e-01) (6, 3.75936495183642915840e-01) (7, -3.19155660341655655898e-01) (8, -2.81753277797514682657e-02) (9, 1.36745420577272264184e-01) (10, -4.59319326930347909821e-02) (11, 2.29843071565503626053e-01) (12, -9.59446280484115530951e-03) (13, -1.65253774136445680254e-01) (14, -3.76225384719531930067e-01) (15, -5.00663495553282170136e-02) (16, 8.35283453309264567466e-02) (17, 8.71480803395634495701e-02) (18, 6.82566582426617080026e-03) (19, -2.62132743935017675785e-01) (20, 1.32145785835286411203e-01) (21, -6.49163301331250747195e-02) (22, 4.17679862417112746087e-01) (23, 4.82438443039883910202e-02) (24, 1.36801613208160878152e-04) (25, -7.01737698762383288464e-02) (26, 1.31301103575166944193e-01) (27, 1.64650821184258361329e-01) (28, 3.75517174439264578290e-01) (29, -1.22752112033057789175e-01) (30, 9.59505645930063544302e-02) (31, -4.21717441272346005299e-01) (32, 2.76002310819111806861e-01) (33, -3.43657054571804065901e-01) (34, -5.93781521293939434925e-02) (35, 1.57188660503131294455e-01) (36, 2.16146700002552635822e-02) (37, -7.78170228588038859208e-01) (38, -6.72267206974388464857e-02) (39, -1.84041931079995724208e-01) (40, 2.98469366780460765298e-01) (41, -2.65972558901911952656e-02) (42, 5.86771773325247408826e-02) (43, 7.42664915491842714257e-02) (44, -1.27411037964894197083e-01) (45, -1.73685175602596275635e-01) (46, 1.70226116240104918820e-01) (47, 1.73247269964754563309e-01) (48, -5.17186956973531009041e-02) (49, -1.05517240432889070068e-01) (50, 1.41210399999988939213e-01) (51, -3.75090780738139339956e-01) (52, 1.74683842320928761627e-01) (53, 1.32553970845729007788e-01) (54, 9.78317808449904180446e-02) (55, -1.14768866783756140482e-01) (56, -1.26852698028485449955e-01) (57, 3.44240951586197552192e-01) (58, 1.23465817905203598115e-01) (59, -7.64138590801610294995e-03) (60, 1.79906311126474066642e-01) (61, -2.13891477695200921127e-01) (62, -9.68317687484779587859e-02) (63, -5.73115040143647308524e-02) (64, 1.51997610061217314215e-01) (65, -4.17566884842824614932e-02) (66, 7.16548804630794122783e-02) (67, 2.16435684993066812520e-01) (68, -5.24809851805098315225e-01) (69, -1.05901541824282074966e-01) (70, 4.33581518795506326569e-01) (71, 6.19665205643527977619e-02) (72, -2.82397685273252430083e-01) (73, -1.61732338598907593452e-01) (74, -2.91176735202466674401e-01) (75, 1.23225570465600425818e-01) (76, 4.94562720193799820745e-01) (77, -6.53646277605852032977e-01) (78, 1.60753525201617231133e-01) (79, -3.72822453602522502214e-02) (80, -4.37688532844202476957e-02) (81, 8.59274394365174415400e-02) (82, 4.68132722881697105333e-01) (83, -6.13819368001103704557e-01) (84, -5.59039107110377297971e-02) (85, -5.01157721197054706330e-01) (86, -5.61384532568032744437e-03) (87, 5.25169702348879940956e-02) (88, 1.92122061374409708323e-01) (89, -3.82766463235208118099e-02) (90, 4.90344137503946550516e-02) (91, 1.46832471744380604894e-01) (92, 6.01602421869336767557e-01) (93, -1.21815691697973141339e-01) (94, -1.12946438342881178007e-01) (95, 1.44681603139170028571e-01) (96, -1.05586691432182064321e-01) (97, -2.66160413400425899244e-01) (98, -1.94602089419988771857e-01) (99, -9.10915583423429070509e-02) (100, 1.66050551738286727987e-01) (101, 5.69217337171608675495e-02) (102, 2.56307437392425840894e-01) (103, -6.88285251560883243327e-02) (104, 6.80354048038059600056e-02) (105, 5.82453357798642726295e-02) (106, -2.81447926775159285029e-01) (107, 1.11769546741738619311e-02) (108, -1.34146660982335408363e-01) (109, 4.27132815643159302610e-01) (110, -1.45133054162056712721e-02) (111, 1.66549157485119975197e-01) (112, 1.71178239606153664853e-01) (113, 8.19280182069380413790e-02) (114, -6.44112932835392282271e-02) (115, 1.72290183581375183630e-01) (116, 2.13248790293348519653e-02) (117, -1.02149621528122413333e-02) (118, -1.99714761609533580922e-01) (119, -5.41076771795032773760e-01) (120, 1.88195543975142431936e-01) (121, 1.83491010084550071335e-01) (122, -4.18810635196841460348e-02) (123, 1.94642499488453746270e-01) (124, -1.46479593330179569399e-01) (125, -1.60704270983862029798e-01) (126, 1.18046051227875745115e-01) (127, -1.21563928641021931631e-01) (128, -1.67507789555240482748e-01) (129, -2.72060470044628133213e-01) (130, 2.28063914026804537283e-01) (131, 2.15912268520530886695e-01) (132, 1.17128557066700347833e-01) (133, -5.92844432599743190182e-02) (134, 9.38629762110371364259e-03) (135, -1.42916252158978834136e-02) (136, -2.09998540428750407605e-01) (137, -7.22050970694273208661e-02) (138, -8.90626465832624059082e-02) (139, 5.39596686512444894540e-03) (140, 7.88984663718431789015e-01) (141, -3.29550221483424832236e-01) (142, 1.83102848829930026087e-01) (143, -8.73562662311906240609e-02) (144, -2.18799664376858257753e-02) (145, -2.07808624833075050731e-01) (146, -3.26954396399013691443e-01) (147, 7.00174572057363664435e-01) (148, -2.12682845975408346684e-01) (149, -6.47479971667731191154e-01) (150, 2.89553816204163927406e-01) (151, 3.71644612975215310469e-02) (152, 4.69169895156023475380e-01) (153, 8.07758108524721518684e-01) (154, 4.44140728049483068940e-01) (155, 4.06530613385759700962e-02) (156, 3.05125545221329008694e-01) (157, 2.44437496612272042729e-01) (158, 6.06093112646969411905e-01) (159, 5.67312363481093706596e-01) (160, -1.12500456000309223548e+00) (161, 2.43775636013350865960e-01) (162, 5.40731089257412422810e-01) (163, 1.02899635334883485238e-01) (164, 2.76729381725383194457e-01) (165, -3.60754081310136545668e-02) (166, 4.29230088431417966532e-01) (167, -5.73404374977421915638e-01) (168, 5.58959790398756983798e-01) (169, 7.28160982385943955641e-01) (170, 3.26813275367979605424e-01) (171, 4.93661180708222679936e-01) (172, 7.81319735788776115193e-01) (173, 3.02637401588027044053e-01) (174, 1.49554991947463522539e-01) (175, -3.59369454724673464963e-01) (176, -1.12760968303992639705e-01) (177, 2.40906757429471013454e-01) (178, 6.12656418756560849914e-02) (179, 2.82870987265023077217e-01) (180, -8.48651868988462565468e-01) (181, -3.78228263261128141992e-02) (182, -4.45232102772601199409e-03) (183, -5.90253027067733915256e-02) (184, -7.16424214163286360302e-02) (185, -2.53214005454184376553e-01) (186, -5.33734986258933008507e-02) (187, 5.61877639093125935688e-01) (188, 3.11436720950615975045e-01) (189, 4.83141633433546213716e-01) (190, 9.44498443957884487032e-02) (191, -9.13686783479718961365e-02) (192, -1.06582818046910429710e-01) (193, -2.71761282618470267902e-01) (194, 5.35532022707784719634e-03) (195, 5.25266573365389843886e-01) (196, 4.20956318761598335954e-01) (197, -3.22886221696396358283e-01) (198, -1.80844959123242249310e-01) (199, -1.38206388699523424757e-01) (200, 4.60828243621781152850e-01) (201, -1.65848942687569500531e-01) (202, -2.45233116278896601248e-01) (203, -3.06812180966121623993e-02) (204, -2.05826418708191488660e-01) (205, -2.93822810832014058580e-01) (206, -1.00612078138479804634e-01) (207, 7.55990563589312714043e-01) (208, 2.75502043178899036491e-01) (209, 1.18460868236645117113e-01) (210, -2.39429370783334011241e-01) (211, -3.08617596936060389901e-01) (212, -7.18320584583816645896e-01) (213, 3.71424046217758152544e-01) (214, -4.35479202460857459100e-02) (215, -4.53693682621919225362e-01) (216, -2.00592203947282249343e-01) (217, 6.14193520319040245359e-02) (218, 2.00395881853150992224e-01) (219, 2.40096418299768743498e-01) (220, 5.17108558353607694613e-01) (221, 2.38999725176963551121e-01) (222, 2.71160508599568805810e-01) (223, 2.40326018529962603942e-01) (224, -3.06230166305460238529e-01) (225, 1.65199247347238176165e-01) (226, 4.84749603194341183166e-01) (227, -1.08413708736579494918e+00) (228, -8.36438096832138988646e-01) (229, -4.53392424307591912491e-01) (230, -2.13443148689933137607e-01) (231, -8.53643824032977449612e-02) (232, 3.45263816427220510130e-02) (233, 9.41126640765216904150e-02) (234, 2.54314349039947318332e-01) (235, 1.44626997019300540526e-01) (236, 1.73132701436228192415e-01) (237, 4.88048257478949643051e-01) (238, 1.61439213147920423985e-01) (239, 7.02256953280876866641e-02) (240, 8.42485817248846413641e-02) (241, -1.78608156997649869524e-01) (242, -2.06055732292267507200e-01) (243, -2.31986327751145027243e-01) (244, 6.96195329464122658614e-02) (245, 8.16059918050564131464e-02) (246, -2.74841617731836018734e-01) (247, 6.21737571902104997623e-03) (248, 1.31627328641044039070e-01) (249, 1.99832513392457833401e-01) (250, -8.59345190181659557283e-02) (251, 6.23700075534603798344e-02) (252, -7.29554913764827034361e-02) (253, -1.00856544632867972666e-02) (254, -2.84259971080711937308e-01) (255, 3.38672038875936498581e-01) (256, -2.60919410950002761407e-01) (257, 4.67863592204247058515e-01) (258, 3.76448471184182009708e-02) (259, 3.44869360742355912652e-01) (260, 6.36456955161721349423e-02) (261, -3.08505638507349411181e-01) (262, 1.26000470641105588587e-01) (263, 2.88858864872356235765e-01) (264, 1.96362055859482909081e-01) (265, 3.71814724562208154257e-01) (266, -1.47871291562671536290e-01) (267, 7.47994971400067487632e-02) (268, -7.67988005340621282535e-02) (269, -1.73230272390305528596e-01) (270, 3.20213181262057333676e-01) (271, -2.61509909646669598537e-02) (272, -7.00520934980336240638e-02) (273, 9.36033346477250886852e-03) (274, 1.28778374615466761899e-01) (275, 3.81648309024461562800e-01) (276, -4.10818996287065252293e-01) (277, -2.08339913475735043213e-02) (278, -5.49417352722030405410e-01) (279, -4.73073363646374145386e-01) (280, 2.25707623321898642743e-01) (281, -2.83307037088774249511e-01) (282, 2.33515220581983595771e-01) (283, 7.73765954317410936669e-02) (284, 2.19801352186491633089e-01) (285, -1.73008290013150795028e-01) (286, 1.40302494292029178435e-01) (287, 1.39129664058420837724e-01) (288, -7.57943207255253881272e-02) (289, -1.89776488882426735971e-01) (290, -1.42115134617784660831e-01) (291, -1.91825400707043361437e-02) (292, 1.00605205662704186298e-01) (293, 1.18512011177164089393e-01) (294, 8.07122614608048738472e-02) (295, 5.84473476598420971229e-01) (296, -1.95713588901204743609e-01) (297, -3.70888733900174780156e-02) (298, -8.63535039436988532957e-02) (299, -4.04737891083645828783e-01) (300, 2.28436680130983310599e-01) (301, 2.20311584409581762145e-01) (302, 2.67387703125847198127e-01) (303, -7.31853296483007953466e-02) (304, 9.52381978702689785399e-02) (305, -8.42168467666126185911e-02) (306, 1.37644908043647068441e-01) (307, 2.61973662506788829152e-01) (308, 1.50700758188323652442e-01) (309, -1.97971217899089751979e-01) (310, -2.70433715302467458930e-01) (311, 1.56896325511000439556e-01) (312, -1.82905020588740613308e-01) (313, 2.63804039945397694744e-01) (314, -2.03070343011323393989e-02) (315, 1.76429653064412800267e-01) (316, -2.37411866631903334390e-01) (317, -3.38402661926568565365e-02) (318, -7.65050589957656790308e-02) (319, 1.70187507783104041703e-01) (320, -1.58777234661733962495e-01) (321, 3.60127271925372693939e-01) (322, 5.12882993071247291622e-03) (323, -4.94275378857257988163e-02) (324, -1.54318762629544803389e-01) (325, -2.00816504540896861863e-01) (326, -5.53006807194339478073e-02) (327, 1.43601972191171461946e-01) (328, 2.99917372422717730396e-02) (329, 2.38959497599025655346e-01) (330, -3.92657999651671030250e-02) (331, 1.89404446877360688184e-01) (332, 7.03577933816832840064e-02) (333, 5.46762696816463431015e-02) (334, 5.38137427326739609112e-02) (335, -1.29832080683164541313e-01) (336, -3.30792741942878623651e-02) (337, 2.96662172875186147536e-01) (338, 3.00256153073996057135e-01) (339, 7.79302721564504752294e-01) (340, -1.17873005890640522586e-01) (341, 6.88359415287504772252e-01) (342, 4.53931216668958581462e-01) (343, 2.77880883964008063014e-01) (344, 2.19780466357292952884e-01) (345, -1.04093871497268689041e-02) (346, -1.86818275600327127206e-02) (347, -2.50245022550757478808e-01) (348, -3.73592746901926731073e-01) (349, 8.63527875158944524525e-02) (350, -9.29627901351944563313e-02) (351, 1.41875399815424740879e-01) (352, 3.77910213660560267979e-02) (353, 2.91056873103275083603e-02) (354, -2.57031188616240746647e-01) (355, 4.87353130633311149023e-01) (356, 3.06963519601780643331e-01) (357, 2.46849347672760018046e-02) (358, 1.67589961303071494081e-01) (359, -4.12839011163529057136e-01) (360, -2.07267375719259977322e-05) (361, 1.22752659604949521110e-01) (362, -5.99496971237071796246e-02) (363, -2.13825489615810521160e-01) (364, 1.10396856832279760541e-01) (365, -5.89955893298636964428e-03) (366, 7.96678062416258658818e-02) (367, -7.52196955067690326002e-02) (368, -3.10168851131005951505e-01) (369, 2.46128652646637163803e-01) (370, -2.95936497110099838714e-01) (371, -2.82188782248233016592e-01) (372, -2.10571981090690696359e-01) (373, 8.50975117474693232289e-02) (374, -1.09981091440222389366e-01) (375, 1.92924559683167024492e-03) (376, -1.38321632602279587232e-01) (377, 1.89756169274467673125e-01) (378, -6.64048049090294606467e-02) (0, -4.99679537755600422511e-02) (1, 5.40659963048719313661e-02) (2, 5.25242554970564365369e-02) (3, 2.21763255546234723525e-02) (4, 8.89003100945370966501e-02) (5, 1.95961446949180669030e-02) (6, 4.61892875157645377282e-02) (7, -9.83491885405051169400e-02) (8, -6.38383360885218797964e-02) (9, 5.96511964149536236257e-02) (10, 1.11873802042530320899e-01) (11, 3.46104834627827956384e-02) (12, 3.19986468437987656155e-02) (13, 4.62183206322839060243e-02) (14, -4.42957390309083043345e-02) (15, 5.40900597711353112174e-02) (16, -1.07672258151935512638e-01) (17, -2.10322039804889844572e-02) (18, 4.94956959468785193113e-02) (19, 4.65610028238483582286e-03) (20, 9.82199398969268305803e-03) (21, -1.48981487804664081143e-01) (22, 3.96313587157064925459e-02) (23, 1.00578878116204750715e-01) (24, -5.71402438424053540911e-02) (25, 5.03570261791466064483e-02) (26, -1.60079590358979577738e-03) (27, -5.27956975359040042717e-02) (28, -7.33070206195963053331e-02) (29, 4.76076111277451835546e-02) (30, -4.55214108960350014033e-02) (31, -8.54695162878618963642e-02) (32, -3.50252955734561416401e-02) (33, -4.33879916872446369513e-02) (34, -1.03522754352126503119e-01) (35, -4.36293633185750942549e-02) (36, -4.91438134403269152872e-02) (37, 8.67362242655805998348e-02) (38, -4.23468286801632620708e-02) (39, -3.92330921735070947687e-02) (40, 7.89249034829384854550e-02) (41, -9.20702189141123644722e-02) (42, 5.62230824447640178954e-02) (43, -9.54989755483250934986e-02) (44, 5.96458029081877241784e-02) (45, 5.46045221335648700567e-02) (46, -1.41560780829332766295e-01) (47, 9.76635367608261334427e-02) (48, -6.14364826244216052920e-02) (49, 1.33246694339989209255e-02) (50, -1.28183019262739297806e-02) (51, -1.29134034995207036545e-01) (52, 5.49821558734917351097e-02) (53, -5.81554410044349337494e-02) (54, -9.15743975946595040183e-02) (55, -5.10880393605933069701e-02) (56, -4.04258015183676655546e-02) (57, 5.13520964821058065186e-02) (58, -1.69328323587454657173e-02) (59, 1.51235557858865436731e-02) (60, 1.42093346568944907393e-02) (61, -1.03513532965699761590e-01) (62, 6.84046007895313615960e-03) (63, -1.33381445410799048812e-01) (64, -1.19969168067739408862e-02) (65, -1.55105815197025098673e-01) (66, -7.66976647769175012836e-02) (67, 4.52164430109628576182e-02) (68, 6.32416071547213659576e-02) (69, -2.82374675429330826426e-02) (70, -1.02496837217709940715e-01) (71, 1.16416048995008920147e-02) (72, 2.27917896417488621830e-02) (73, 5.66688652328538530756e-02) (74, 9.82222532271779386059e-02) (75, -1.17232829869763112429e-02) (76, 5.70766700958414141542e-02) (77, -1.06500454900431071326e-01) (78, 2.10280402718881452573e-02) (79, -1.12399978645685381246e-02) (80, 1.20264241594654291978e-01) (81, -8.54476988243746682361e-02) (82, -3.17635154261712640555e-02) (83, 4.99234512980808384230e-02) (84, 1.89145377879690879119e-02) (85, -1.48055737276436213956e-02) (86, -9.68532738269955451038e-02) (87, 9.12477974399462654631e-02) (88, -6.35881072223619669970e-02) (89, -1.18073629848721318308e-03) (90, -1.44318278477616537825e-02) (91, 6.35148966329144720744e-02) (92, 1.64435478600962435569e-02) (93, -2.86577457694786163350e-03) (94, 8.73378600491605816547e-02) (95, -8.27550096662146850157e-02) (96, -1.92148374903833921157e-02) (97, -6.25774983425431974293e-02) (98, 7.03936368786895749761e-02) (99, -1.30166761163982847016e-02) (100, 1.50764878950856023865e-01) (101, -9.95923528073365676994e-02) (102, -1.22229729877849385700e-01) (103, -4.16119263303310615854e-03) (104, -8.95961975982160763188e-02) (105, 5.28735768908772524322e-02) (106, -6.88866070055052237553e-02) (107, -6.22607516369571220571e-02) (108, 9.51788625381132652459e-02) (109, 6.70477714578874839368e-02) (110, -5.12808378560649161249e-02) (111, 4.45258632967267323211e-02) (112, -1.11207760771204616779e-01) (113, 4.81450093303566264979e-02) (114, 3.70090532638015223821e-02) (115, 1.80767141025374653007e-02) (116, 4.04619135423024828269e-02) (117, 5.26741679914523447392e-02) (118, -2.63437594620396613176e-02) (119, 8.32893747154655889053e-02) (120, -7.53799727707014314421e-03) (121, 9.99522568143412643016e-02) (122, 4.87129163702023637583e-02) (123, -1.19717320254192322038e-01) (124, -4.97786404562925097195e-02) (125, -1.68960823656429288964e-03) (126, -1.53347713763734745662e-02) (127, 6.43392941200252865830e-02) (128, 4.45934563020459959204e-02) (129, -3.93527183405465788568e-02) (130, -6.05189601248046146753e-02) (131, 8.19414388273418531350e-02) (132, -5.20983870730052645026e-02) (133, -9.38728837382238057163e-02) (134, -5.81235740034206291305e-02) (135, -5.43261199937346492272e-02) (136, -9.66159870197874359743e-02) (137, 8.30522059369463439005e-02) (138, -8.40941718435175289414e-02) (139, -9.62789579915989540693e-02) (140, 5.50977778802707526817e-02) (141, 4.28978224520508988338e-02) (142, 7.03799929633265181073e-02) (143, 5.38461469252294322452e-02) (144, 1.39895238564178136381e-02) (145, 5.20636397131398961924e-02) (146, -5.43770086220826884271e-02) (147, -6.49223309558372430050e-02) (148, -7.98636943938133524179e-03) (149, 9.27596824750927945180e-03) (150, -5.23538789315640060162e-02) (151, 8.99025905119977541968e-02) (152, 2.80431931243293915135e-02) (153, -6.42472683252928809111e-03) (154, -8.88917234909360892692e-02) (155, -1.15057082087361723516e-02) (156, 4.61124542375059565114e-02) (157, -7.98913432146358404307e-02) (158, -2.25268119251114326551e-02) (159, 4.31874208454433375359e-03) (160, 6.17790848074497578324e-02) (161, 4.05654199548423841093e-02) (162, -4.14190561092613318550e-02) (163, 6.50258173932198590972e-02) (164, 3.52643791516621743498e-02) (165, 3.48005337135973286111e-02) (166, -5.21494144132965478655e-02) (167, 7.29294157473821674786e-02) (168, -6.46294812724506062551e-02) (169, -6.56517511177429902158e-02) (170, 5.87082310491885972503e-02) (171, -1.10350487437787206368e-01) (172, -5.88652654008587766787e-02) (173, 4.11109387988991548113e-02) (174, 3.43220102065808357894e-02) (175, -1.52484937454733154860e-01) (176, -3.66389581477258238773e-02) (177, 6.54150164021143620818e-02) (178, -2.28376553696336172250e-02) (179, 1.47866906346996784816e-01) (180, -1.14921960021527505558e-01) (181, 1.56283530951586459301e-02) (182, 1.69048804790254164621e-01) (183, 1.19773966319522792712e-01) (184, -5.34183398290912353490e-02) (185, 1.48716312013813273252e-01) (186, 1.12815371817314935576e-01) (187, 2.93265305341434620590e-02) (188, -9.61815649616896140017e-02) (189, -8.56234422422201546521e-02) (190, 1.93439397954494121668e-02) (191, 1.70325673449221837163e-01) (192, 1.70688517618659413300e-01) (193, -2.16789943578029505045e-02) (194, -9.98837379716295721555e-03) (195, 1.44392681222355896004e-02) (196, -7.27778481166599638258e-03) (197, 1.01352635186483019947e-01) (198, -6.43273723115266905792e-03) (199, 9.37337988251510240145e-02) (200, -5.47487634457403463117e-02) (201, -3.81471827163138155203e-02) (202, 9.69331720168336991028e-02) (203, 1.70890236434492852335e-02) (204, -1.76536041708393903749e-01) (205, 2.14376265512924123191e-02) (206, 6.18072717569478694011e-02) (207, 3.37065673503822577084e-02) (208, -1.45887403412117533374e-01) (209, -1.27735754584216182339e-01) (210, -7.53682865092584336475e-03) (211, 2.78859263667534211517e-02) (212, 1.85865192686791406984e-02) (213, -4.90046141832953877082e-02) (214, -6.56311154105159721972e-02) (215, 5.10605530936568477451e-02) (216, -3.90513653296749030375e-02) (217, 1.07865994775866919086e-01) (218, 4.01679981303141725446e-02) (219, 2.20398436138824378727e-02) (220, -1.08054221167242739399e-01) (221, -1.35588889754588409753e-01) (222, -4.63379241758740192947e-02) (223, -1.28909721732796689331e-01) (224, 9.92964181295216165302e-03) (225, -9.42381064459563849711e-02) (226, 1.10120153722740102276e-02) (227, -6.55293183554609831587e-02) (228, 7.04971020838165568501e-02) (229, -4.23701671787692843441e-02) (230, -1.25121871449590610359e-01) (231, -6.90599616722841203043e-02) (232, -9.07024270644387481388e-03) (233, -1.07652534348681883092e-01) (234, 1.17376365366023471815e-01) (235, 1.67825353288254958128e-02) (236, 2.02750534272545072934e-02) (237, 3.37098966594713486677e-02) (238, -1.05884957175556668196e-01) (239, 1.38553087200396600476e-02) (240, 6.72299969658957802254e-02) (241, 9.29175562657090503560e-02) (242, -1.24395693441572835480e-01) (243, -1.03527026038864863877e-01) (244, -1.34131204485106347857e-01) (245, -3.32915463750400250631e-02) (246, -9.31321616556707587709e-02) (247, 2.95094945153871190957e-02) (248, -1.94749703252286750221e-02) (249, 4.30286841584995929932e-02) (250, -7.86096223979465269505e-02) (251, 2.44048940224407505395e-02) (252, 2.39055111487937801962e-02) (253, 2.28377916743510581479e-03) (254, 1.35441766754636483405e-02) (255, 4.47341306748936864968e-02) (256, 2.82868699264561297702e-02) (257, 5.43513248092219458663e-02) (258, -1.61011797041856863366e-01) (259, 1.47115267829520564302e-02) (260, 1.04730042381898494352e-01) (261, -1.27378871098416168728e-01) (262, 1.07864781587443031574e-01) (263, -2.41550496317167080751e-02) (264, -1.05653450253408290327e-01) (265, 6.48742705803500296913e-02) (266, -9.15185972981687884120e-02) (267, 3.27970732922693505862e-02) (268, -2.95645606107354380621e-02) (269, -9.12730884593331154298e-02) (270, -4.99221081976541705694e-02) (271, -5.18494855833118925559e-02) (272, 1.05933506689453407756e-01) (273, -5.39066108752283071337e-02) (274, -2.21088310022960789214e-02) (275, 5.18546118296407052006e-02) (276, 7.47527113718500779704e-02) (277, 6.75092954190946014509e-03) (278, -4.85117722723960934084e-02) (279, -5.00677834334337865108e-02) (280, -2.25842819573784416021e-02) (281, -4.13087678951511161340e-02) (282, 5.91817301854423369334e-02) (283, -8.77920975456217000943e-02) (284, 6.73586264770337089791e-02) (285, -1.50977422014004492024e-02) (286, -1.11225336661661344806e-01) (287, -3.46293103760354770149e-02) (288, -7.26764563281930980887e-02) (289, -9.95872480355169675814e-02) (290, -1.06584139531569685455e-01) (291, -8.70234458358478679685e-02) (292, -7.50715633953420863334e-02) (293, -8.68076358375483025931e-02) (294, -4.23789724174527399070e-02) (295, -8.69311785379872359325e-02) (296, 4.56608158258150487185e-02) (297, 5.24287995516044130762e-02) (298, -1.50411483482920077526e-01) (299, -2.41554385480407980691e-02) (300, -1.18366299028659818782e-01) (301, -5.47912131802984411766e-02) (302, 1.11453305475940928071e-01) (303, -1.01273621818182155141e-01) (304, -2.68695249877632068303e-02) (305, 1.23814910624653311960e-02) (306, -8.15815458186963243792e-02) (307, -4.37000424605397778943e-03) (308, -9.87334356060994011717e-02) (309, -7.67128957906393262739e-03) (310, 7.00429036263268828266e-02) (311, 4.83084599014109439263e-02) (312, 7.46536978242830495667e-02) (313, -1.10966630358913902199e-02) (314, -1.30734778489521308309e-01) (315, 2.23369408097077726261e-02) (316, -8.08904565080619392115e-02) (317, -6.23705834121482116661e-02) (318, -8.39273613718523742167e-02) (319, -5.91093563705179098067e-02) (320, -4.85671382830128728347e-02) (321, 8.69570645106758225232e-04) (322, 1.97449985403428326936e-02) (323, 1.69472487049230555178e-02) (324, -5.67980019609853267748e-02) (325, -8.40111113205006393434e-02) (326, -7.69499071201588252800e-02) (327, -5.03554902865238351861e-02) (328, 6.89988708855159976752e-02) (329, -1.01316548302316802865e-01) (330, -1.24533846047562887782e-01) (331, -9.37779500678641159128e-02) (332, -8.54523885030935084761e-03) (333, 5.61420274781621597704e-02) (334, -1.17303680843990607019e-01) (335, -1.14584702805159199812e-01) (336, -3.65432008138257199970e-02) (337, -1.31154140065896235301e-01) (338, -3.97396755646467689238e-02) (339, -1.14066456710318009371e-01) (340, 1.66788102481615907458e-02) (341, -1.99544013589570218281e-01) (342, -1.44911445946068695445e-01) (343, -9.38683332830752281684e-02) (344, -1.28884678678552883069e-01) (345, -5.56124060404625183973e-02) (346, -9.41276413054306371198e-02) (347, -4.58620756953443745041e-02) (348, 2.89867720034274155283e-02) (349, 2.33980411024856081725e-02) (350, 4.50344415853944080030e-02) (351, -1.29848567278318005602e-01) (352, -1.67349402105352512704e-01) (353, -5.13627282362043163788e-02) (354, 6.73037500473658723693e-03) (355, -9.70761529399429140552e-02) (356, -6.60507427662452156758e-02) (357, 5.19303517645930967639e-02) (358, -1.69947796863613775908e-01) (359, -4.16575591913787984799e-02) (360, 1.12278626897569636101e-01) (361, -1.03308725370228879359e-01) (362, 7.98148272040513362402e-02) (363, -1.95847639605724321843e-02) (364, 8.74980650401462056731e-02) (365, 4.98465255503023341177e-02) (366, -2.69412903756491572960e-02) (367, -3.30140344493937143433e-02) (368, -1.29811398113741982563e-01) (369, -1.60609593112476273236e-01) (370, -1.45717612635848758895e-01) (371, -8.32035313323869901714e-02) (372, -6.14356372667819866651e-02) (373, -4.16930700323196110069e-02) (374, 5.17025760473189682775e-02) (375, 2.07241284684568267960e-02) (376, 1.01444130462283066407e-01) (377, -5.24649091516418975001e-02) (378, -8.99029745366523441730e-02) (0, -2.83978291311648367579e-01) (1, 4.86756443866015534039e-02) (2, 2.32048716210674146887e-02) (3, 6.74491369871798272795e-03) (4, 1.88019958061129865978e-01) (5, -2.27706565446286396392e-01) (6, -2.23310686861327045705e-01) (7, 1.88680063998332814279e-01) (8, -1.89057061238711958395e-02) (9, -1.79268642837523001221e-01) (10, -1.08454247312994467300e-01) (11, -2.66220557440942293126e-02) (12, -6.38463177820487448599e-02) (13, 6.16612787996149921965e-02) (14, 3.93297390377767397407e-01) (15, -1.78859676015968374618e-02) (16, 2.52495965867110183298e-03) (17, -3.23033924512689460395e-02) (18, 9.60612730841787915148e-02) (19, 3.09594434457003075956e-01) (20, -9.86818210094405762201e-02) (21, 6.58589317469256835258e-02) (22, 2.52045616097197777705e-01) (23, 4.76978682505755424703e-01) (24, -4.01534550755465527438e-02) (25, -4.64418326700200487234e-02) (26, -9.76597651912363834414e-02) (27, -1.58500465049811634088e-01) (28, 1.99128439075928032054e-01) (29, -8.55083645109510764870e-02) (30, -5.39697587290093205858e-01) (31, -5.50654110025080800739e-01) (32, 1.08095039942766979468e-01) (33, -1.11102289816047312965e-02) (34, 8.67563629211080128423e-02) (35, 2.57194634283856721213e-02) (36, 5.78846923746695746216e-02) (37, -1.53869314159842049405e-02) (38, 2.06913201375491323519e-01) (39, 1.03373541394281842631e-01) (40, 1.04992165485251628954e-01) (41, -7.33779331820550023702e-02) (42, -2.45127499939432641485e-01) (43, -2.34296201400057468867e-01) (44, -1.46521259437522144431e-01) (45, -2.21134857331799737634e-02) (46, 8.38122707895785634680e-02) (47, 4.77393612090661223490e-01) (48, -9.12223046738546705647e-02) (49, 3.84658226457308072277e-01) (50, -1.90399809226423633035e-01) (51, -1.11719140994523485899e-01) (52, 4.17849032437912575565e-04) (53, -7.64913779865969839511e-02) (54, -4.29517357305186017746e-02) (55, -2.70999281422595779401e-02) (56, 7.71847306545243444509e-02) (57, -2.03276957284577480811e-01) (58, -6.70285226734278621885e-02) (59, -4.32624453419986967906e-02) (60, 5.66096445298583453298e-02) (61, -1.06028956443466021442e-01) (62, 9.78090267927144846327e-02) (63, -6.31904361844259493397e-02) (64, -2.61070548433656179910e-01) (65, -3.66888953362940639646e-01) (66, -6.69781043870276149299e-02) (67, 1.09820798123780677402e-01) (68, -2.32658107467860975071e-01) (69, 1.62163598482360116204e-01) (70, -1.23979228806215285852e-01) (71, -5.12759529955891038555e-02) (72, 3.84083827051858728296e-01) (73, -1.48429409408102949003e-02) (74, -1.81450595165745548476e-01) (75, 1.10468460641765089947e-01) (76, 8.37445226672001025170e-02) (77, -7.70196018307577195960e-02) (78, 4.76322351858078432696e-02) (79, 9.89759452843772535857e-02) (80, 6.27723805076459751007e-01) (81, -1.09704405337604074533e-01) (82, -1.58201944601190358508e-01) (83, 8.22620846863994503728e-02) (84, -2.34919236160537919789e-01) (85, 3.60076039971670702755e-02) (86, -1.61388653727131764493e-01) (87, 4.33004582967039530761e-01) (88, 9.98088324733545778633e-02) (89, 1.24626544092153485055e-01) (90, -2.03768232876768012884e-01) (91, -1.12958057255335322933e-01) (92, 8.02319556914293102734e-02) (93, 4.59395331159880224159e-02) (94, -3.40009010473050488077e-01) (95, -2.64435340044567694651e-02) (96, 9.10043932850931728586e-04) (97, -1.95422862685724035847e-01) (98, 1.68877054497327483418e-01) (99, 7.29733903831578240018e-02) (100, 1.05942488420201888499e-01) (101, 8.60865878269741202633e-02) (102, 3.62534490273702991736e-01) (103, 4.01758524808019726327e-02) (104, -3.70858368277168573557e-02) (105, 5.33242702105349089536e-02) (106, 1.87798603830639038170e-01) (107, -6.44014820382201869098e-02) (108, -1.93788224776481297906e-02) (109, -1.31947907758171584236e-02) (110, -1.82426422658630627005e-01) (111, 7.99962795238545187892e-02) (112, 1.96896676586357288752e-01) (113, -1.81419492332345916319e-01) (114, -5.92415495131743199964e-02) (115, 7.48518022961509599256e-02) (116, -4.20612000097933058998e-04) (117, 2.19414066088199251336e-02) (118, 6.72022876700738014399e-02) (119, 2.78849649229997720301e-02) (120, 4.63547109890648650898e-02) (121, 3.75991733797659405392e-02) (122, 1.88586654689953975295e-01) (123, 1.12504043704462292075e-01) (124, -2.26034225329337312704e-01) (125, 5.14329425358813277502e-02) (126, 1.79427394156398099800e-02) (127, 1.31499817260404688879e-01) (128, -1.05594785651186157116e-01) (129, -2.08295903988254260675e-01) (130, 1.00255427491172902088e-01) (131, -2.07286163558962170661e-02) (132, 1.64768410255549058174e-01) (133, -6.95782906630659503389e-02) (134, 1.66052683855788862921e-01) (135, -3.08171651580599614828e-01) (136, -1.16562005719306568952e-01) (137, -5.35838582437541122161e-02) (138, 8.05662901803055053751e-02) (139, -6.22789384667505607762e-02) (140, -2.52122920273239958799e-01) (141, 3.43292553235259312316e-02) (142, 1.47510474894152338043e-01) (143, 8.42215770149422476853e-02) (144, -1.66024046689580540015e-01) (145, 6.03754955265248874352e-02) (146, 1.84245943621613256225e-01) (147, -1.61903127455868878215e-01) (148, 9.52029779604571507051e-05) (149, 4.54492383869731023105e-02) (150, -3.30121225391339714883e-02) (151, 5.99542379778172842414e-03) (152, 1.63826222824796169375e-01) (153, -9.94037829844723191952e-02) (154, 2.47983978214549538599e-01) (155, -1.00955469162420985452e-01) (156, -1.54549794484426343544e-02) (157, -3.68993754644884319749e-01) (158, -1.00399334644748663981e-01) (159, 2.86451216083271412161e-02) (160, 3.64585802948570070203e-01) (161, -9.03738748021171156566e-02) (162, -9.15157828146380553092e-02) (163, -1.02440802290237928385e-01) (164, -2.52694765515552144386e-01) (165, -2.84213275523776953690e-01) (166, -2.66376157189664841685e-01) (167, 6.83843694847902305867e-01) (168, -1.67714880425756773796e-01) (169, 1.45246655237432371194e-02) (170, -1.47013715001406086724e-01) (171, -4.05775548184880208158e-01) (172, -1.50045303708889243843e-01) (173, -4.92086775444142907054e-02) (174, 8.87191949380871092146e-02) (175, 5.09466136210457373745e-02) (176, 8.21913476883665145012e-02) (177, -1.87502208561582950352e-01) (178, 2.72933197143765349235e-01) (179, 2.94597285907808259520e-01) (180, -4.23162611754863190322e-03) (181, -5.26379363970772215509e-02) (182, -6.82674742286816654824e-02) (183, -5.66580576263171625806e-02) (184, 3.00780484650536895919e-02) (185, -6.80143644871126634710e-02) (186, -1.14347811107702049260e-01) (187, -1.86173023986150820708e-01) (188, -4.17273221366859181636e-01) (189, -2.93187169848250162030e-01) (190, -1.67471463159085454109e-01) (191, -1.15436234842323265370e-01) (192, -5.36907145888652383159e-03) (193, -1.28674600211033607344e-01) (194, 1.91625957820523801223e-01) (195, 1.74993208993254774353e-02) (196, -2.46041264271638249195e-01) (197, -2.75466365730353102137e-01) (198, 2.83010462552929165092e-01) (199, 1.09716738182331324802e-01) (200, 1.54325564737774791058e-02) (201, -3.27140676498283988760e-02) (202, -1.11393413421787226825e-01) (203, -4.87606445047960718187e-02) (204, -9.32708358551088100030e-03) (205, 2.16700935472652844727e-01) (206, -2.29091890268746795067e-01) (207, -1.92415428838472207795e-01) (208, -5.45760435716724945365e-01) (209, -2.66477331893718444311e-02) (210, -6.38784770778583893547e-02) (211, 3.86808210286298942426e-02) (212, 1.03339821222460284678e-01) (213, -1.03835789424104110723e-01) (214, 1.82161384455643143854e-01) (215, -8.25250229669792084719e-02) (216, -2.32115297242718288118e-01) (217, -1.08500536938537062159e-01) (218, 6.96057664652548480078e-02) (219, 1.48813425526399062404e-01) (220, -2.86337556572069551475e-01) (221, -9.91477725021620986956e-02) (222, -1.69787069287791053673e-01) (223, -1.38174508501948428707e-01) (224, -8.22552335487278796222e-02) (225, -3.89532869419582719606e-02) (226, -5.33821765428992511815e-01) (227, -3.32987560803469778703e-02) (228, 9.06485219309182028991e-03) (229, 2.14009674059817661673e-01) (230, -2.82209104545598499225e-01) (231, -2.61194350409976218386e-02) (232, 6.00985319079934687814e-02) (233, -2.75506034551458334203e-01) (234, 1.15213250128540448808e-02) (235, 4.36571380861347432822e-02) (236, -2.32090295241761918055e-01) (237, 4.25235330954676221671e-02) (238, -3.46815978680348302454e-01) (239, 8.45793100384928213387e-03) (240, -1.11544124771544447827e-01) (241, -6.84002299316593814771e-02) (242, 3.93210370579662293888e-01) (243, 2.18307129752830564318e-01) (244, -2.77348344666537960368e-01) (245, 3.88402262636063255741e-01) (246, 7.83115824683353750624e-02) (247, 4.04580589422688721712e-02) (248, -3.34632524562337385632e-01) (249, -1.94438056406260884046e-01) (250, 2.84648802175306359086e-01) (251, 1.78009685602956657657e-01) (252, 2.11468280141546255413e-01) (253, -9.79232543941623879979e-03) (254, 1.27867544485374851071e-01) (255, 3.31419636804471173797e-01) (256, -2.43119678432320462935e-01) (257, 1.82734727505763389077e-01) (258, -9.92455786852695226452e-02) (259, -3.32417634235922077046e-01) (260, -7.64362189919225581969e-02) (261, 4.50884008954272608172e-01) (262, -8.50871405700975441677e-02) (263, -8.52423865649536288691e-02) (264, -1.26839785866445734636e-02) (265, 1.92669669111898228531e-01) (266, 3.66620983703897923567e-02) (267, -1.65020772995105341474e-01) (268, 2.46279766703673880235e-01) (269, 3.02335945902348857128e-01) (270, -2.15903719970756240165e-02) (271, 3.26671773161126277607e-01) (272, -7.04021483954214155609e-02) (273, -2.09527030936816960338e-01) (274, 4.93950392105970276235e-02) (275, 1.21466111533046872140e-01) (276, 4.26351262638766728696e-02) (277, -2.85787286840024738754e-02) (278, -1.53802694114237276102e-01) (279, -1.49739607271078814174e-03) (280, -4.22538502292545553596e-02) (281, -5.48286051674986146809e-02) (282, -2.12384290956878885037e-01) (283, -4.10737713948007510112e-01) (284, -1.69530141974430892393e-01) (285, -3.13568969803192029722e-02) (286, 6.59130192132574427299e-02) (287, 1.78122366111069352357e-01) (288, 3.53527323155516437492e-01) (289, 1.26258204069540941328e-01) (290, 2.78062266542744129794e-01) (291, 3.23403395469111676341e-01) (292, -2.95162476583413269093e-01) (293, -1.64884290869800748114e-01) (294, -3.34825302613748071456e-02) (295, 2.21518532380697491524e-01) (296, -1.49501460063888702567e-01) (297, 6.12770035939723678453e-02) (298, -4.16061917515822485281e-02) (299, -2.18292841420555994159e-01) (300, 3.14688216085272920441e-01) (301, -2.27638820041431051699e-02) (302, -1.62555339059972270288e-01) (303, 9.65986415088086886049e-02) (304, 3.91558940886762296696e-02) (305, 1.25309052604643922368e-01) (306, 1.79848740769087966918e-01) (307, -6.63843285888765649583e-02) (308, -2.48906443302229524184e-01) (309, 2.62823409019698056577e-02) (310, -1.08617222231232376378e-02) (311, 2.75211513065668544886e-01) (312, -1.25645283890125164517e-01) (313, -7.27164197287531038905e-02) (314, 2.70123421884308767549e-01) (315, 1.98761223375501339117e-01) (316, 1.15702616921967177399e-01) (317, -5.02172608886712751319e-02) (318, -3.35231891271285595280e-02) (319, -1.79381487185822557917e-01) (320, -9.49094456592839835762e-02) (321, 1.75908469136996842286e-01) (322, -2.05525321945966094050e-01) (323, -2.54206410541721883334e-01) (324, 2.03192101045425149719e-01) (325, -1.17889814407157705878e-01) (326, -2.77948651559762949237e-01) (327, 7.81564465445013650813e-02) (328, 5.64029894695766767510e-02) (329, 5.64116621529790251977e-01) (330, -1.16553267999732618199e-01) (331, 8.97163251315192811219e-02) (332, -8.73823012514221425517e-02) (333, 1.85990517071874354726e-02) (334, 1.19303903848025333323e-01) (335, 5.47130132224779158756e-02) (336, 9.90604112967414032753e-03) (337, -1.42674313407750219529e-01) (338, -9.80450196907699106363e-02) (339, -1.90519792845341956466e-01) (340, -6.95030421862548319911e-02) (341, -9.42864769135282054791e-01) (342, -4.90164462247291377039e-01) (343, -2.08347570665307346705e-01) (344, 2.83187682184676721431e-02) (345, -6.77327641192609630760e-02) (346, -6.96787477830447532501e-03) (347, 1.04425854984265386455e-02) (348, -4.82924129606791055491e-02) (349, 3.19953974255678452732e-01) (350, -1.51305551546195571344e-01) (351, 7.72943422016262593477e-02) (352, -6.43024025869258636368e-02) (353, -9.46688085958596187153e-02) (354, 4.83760566164037564274e-01) (355, 2.23588545022369383775e-01) (356, -2.35695198531582744694e-01) (357, -9.15403218692370373999e-02) (358, -1.14004576190573539418e-01) (359, 1.81540039319893931058e-01) (360, 2.51167547780861366569e-01) (361, -1.59042053958180773510e-01) (362, 1.03334712622226376766e-01) (363, 2.59973634597146230352e-01) (364, 2.02313658050278483147e-01) (365, 1.37252765576686142079e-01) (366, 1.33013355204207872617e-01) (367, 6.01644095659048389058e-02) (368, 6.76311793421878193477e-02) (369, -2.47106833606043047036e-01) (370, -2.36765717042588197394e-01) (371, -1.82690320981306497661e-01) (372, -2.82358768757925981951e-01) (373, -3.59689459505013187091e-01) (374, -3.23735427638725203892e-01) (375, -3.23285314417061875325e-01) (376, -1.21184225419222163511e-01) (377, -1.01350739713647844398e-01) (378, -2.78028407191151846062e-03) (0, 2.54695673149791523837e-01) (1, -4.87175120458677949481e-03) (2, 1.21609092151570161167e-01) (3, 1.21305073693077025698e-01) (4, -1.13869950978883499593e-01) (5, 1.48940990900955111398e-01) (6, 4.01126674238993174981e-01) (7, -1.51679185148542505779e-01) (8, -2.00921513053149529415e-03) (9, 2.18158545503483708439e-01) (10, 1.62722894844020665728e-01) (11, 2.00644525418409130912e-01) (12, 1.49159913946847570709e-02) (13, -5.74160586824999444322e-02) (14, -4.36940283305086552001e-01) (15, 2.91367553319205659784e-03) (16, 2.84888886112453013078e-02) (17, -4.22119828735000798825e-02) (18, -1.01260508272640589733e-01) (19, -2.27955789657256296943e-01) (20, 4.40904833743889570941e-02) (21, 1.46366705548312020513e-01) (22, -1.23986006707313467512e-01) (23, -6.49973006187364310549e-02) (24, 5.81534943873396742431e-02) (25, -2.00652375768971019676e-01) (26, -1.38805155366076626855e-01) (27, -8.22421962748631357742e-02) (28, -1.42082779193554220587e-01) (29, -1.43966770575736230375e-01) (30, 2.78104242648192723220e-01) (31, -8.80705469084941822144e-02) (32, 6.56605919081478806021e-02) (33, 1.05219157184255854287e-01) (34, 7.29117766984755111270e-02) (35, 3.17768596817564530355e-01) (36, 1.72398672573694178300e-01) (37, -2.38879001820603398265e-01) (38, 2.42181612973178445047e-01) (39, 3.34033839213205230312e-01) (40, -9.04010022638398330619e-02) (41, 7.32642299000939856146e-02) (42, -2.03661761282623088309e-01) (43, -2.51889104641823124986e-01) (44, 1.16597874906512424809e-01) (45, -2.00268868227563845430e-01) (46, -8.42132625930093331457e-02) (47, -2.18128449799737639259e-01) (48, -6.31981242492038186587e-02) (49, 2.54906802150462810652e-02) (50, 2.83494355957705918003e-02) (51, -6.00530884203704651281e-02) (52, -2.57543747884007190319e-01) (53, -1.06528512923552295955e-01) (54, -2.03349508791650868123e-01) (55, -2.20614786022854281189e-01) (56, -3.34711106774438424405e-02) (57, 3.79837678109458745657e-02) (58, -1.97370518172691522540e-01) (59, -2.29574681477774739102e-01) (60, -7.84675845900188219384e-03) (61, -3.50409845597170921394e-01) (62, 7.10559151999067776379e-03) (63, 5.76009504018590162699e-02) (64, -1.98715695606139358675e-02) (65, 1.75638972297498363595e-01) (66, 1.20546751875085664252e-01) (67, -6.76033607480975989867e-02) (68, -2.00472604807857168741e-01) (69, -8.25068484766180824941e-03) (70, -2.57761087609767675435e-03) (71, 1.87862743457642353273e-02) (72, 4.29293696317634664028e-03) (73, -7.12665142099231097017e-02) (74, 1.28221424175793713429e-01) (75, 7.31917583621699840979e-02) (76, 6.27758608106578617526e-04) (77, -1.16330847595396316696e-01) (78, 1.38558659179402909878e-01) (79, 1.13141883520561079002e-01) (80, -1.62218946260564989004e-01) (81, -6.05297445330745947922e-02) (82, -1.73007559791821974304e-01) (83, 1.81103404437586851250e-01) (84, 1.70890712412979123291e-01) (85, 8.52175839503288429233e-02) (86, 4.45708718144198906552e-02) (87, -1.94060989618727239292e-02) (88, 2.52668065565774674353e-02) (89, 2.62408303694431466191e-01) (90, -1.87845963739087240540e-02) (91, 2.66876367677954078050e-02) (92, -1.63751495250848533303e-01) (93, 2.14707845492167065382e-01) (94, 1.03962891365554629952e-01) (95, -1.18872235617493715587e-01) (96, -3.24673936393818987622e-02) (97, 1.99190323248822964697e-01) (98, 1.17227153523807622881e-01) (99, 2.17128001641103823838e-01) (100, 3.44095193056048742619e-02) (101, -5.54023347193296350488e-02) (102, -6.04255689028741632685e-02) (103, 8.58132082917271582501e-02) (104, 8.89229009959579749789e-03) (105, 4.70140168018656837146e-02) (106, 4.07460123096876694615e-02) (107, -2.66238523846324737221e-01) (108, -6.68857908068499207310e-02) (109, 1.12355502113542879417e-01) (110, 6.05875838950931805416e-02) (111, -3.36654997982253068045e-02) (112, -5.73016666273521782515e-02) (113, 1.84399062571544564149e-01) (114, 2.05567229229282250058e-01) (115, -2.32843982411168881619e-01) (116, 7.44219162305695125514e-02) (117, 1.49919252643768818878e-01) (118, 1.44707013258986688653e-01) (119, 1.27311335451560758703e-01) (120, -1.97053011528996596669e-01) (121, 7.20352521998665479286e-02) (122, 7.17111887464633585010e-02) (123, 2.39238054095826352397e-01) (124, 3.19662825455027832522e-01) (125, 2.15770438773135259103e-01) (126, 1.05352587731251542968e-01) (127, -3.07733339377956827132e-01) (128, 1.87233202345613164441e-01) (129, 1.52558537202376331976e-01) (130, 8.07263479147441870287e-02) (131, -3.15995607892181028242e-03) (132, 1.55636527239037647519e-01) (133, 2.96029292106535169005e-01) (134, 3.15067223188589609628e-02) (135, -1.08020110388693565961e-01) (136, -2.53598491631322586759e-01) (137, -1.98312295453119652455e-01) (138, -1.27688242696736287130e-01) (139, 5.76002041309275972236e-02) (140, -3.12372591350812654765e-02) (141, -8.58187722857208928895e-02) (142, 8.59920145767625737632e-02) (143, 2.82450690265309167781e-01) (144, 6.43405448227885312651e-02) (145, 1.64021501097994737428e-01) (146, -8.88507958035366501859e-02) (147, -4.10677368217240088000e-02) (148, -4.00814713221133545051e-01) (149, -3.87542075673957320259e-01) (150, 5.81334494339481519520e-02) (151, 3.07859887258719669423e-02) (152, 3.02493348091946168132e-01) (153, 3.89561394694661389249e-01) (154, -5.79734376041487267650e-02) (155, -2.80948462662478970486e-01) (156, -3.92767141880362880002e-01) (157, 1.53996317011673378161e-01) (158, -1.73762955482666292539e-01) (159, -1.42944404369237526575e-01) (160, -2.01330836307261784590e-01) (161, -3.52985625879456976772e-01) (162, 3.62764249004951799815e-01) (163, 1.50604389484153278200e-01) (164, 4.89651548010790627768e-04) (165, 4.59238363241588343211e-02) (166, 2.30592177206992996266e-03) (167, -3.32325727253644120918e-01) (168, -3.86319764633332507486e-01) (169, -4.09259063967614467039e-01) (170, 2.08748319327254662492e-02) (171, 1.24595550677467151179e-01) (172, 5.58472302080605387253e-01) (173, 4.70549159036943220880e-01) (174, 2.16858790685430652401e-01) (175, -3.95506940837309917125e-01) (176, -3.81317632485948188048e-01) (177, 1.66676722471073707199e-01) (178, 2.55738295372508528391e-01) (179, -1.03483761452315178864e-01) (180, -6.08538838959615246971e-01) (181, -5.65516463947363517972e-02) (182, 3.01866838026765116343e-01) (183, 3.59010352974576285590e-01) (184, 3.80255428756028843185e-02) (185, 2.40856585500447223369e-01) (186, -7.51024655898406643534e-03) (187, -2.64669167424070705952e-01) (188, -1.30559059292351532615e-03) (189, -1.06785771373785042665e-02) (190, -1.20797262974148819636e-01) (191, 1.83120936828433000798e-01) (192, 3.70281828729473905248e-01) (193, -4.94234047654997926680e-02) (194, 2.21498128303506514047e-01) (195, -9.18723948951867402934e-02) (196, -2.61221866839243255232e-01) (197, 2.45647097521916532581e-02) (198, 1.24993802565553133177e-01) (199, -1.09320624590977896751e-01) (200, -2.50990653057725165986e-01) (201, -1.28868694690718960105e-01) (202, 3.56168734043389514921e-02) (203, 1.17718658294615668991e-01) (204, 1.71374738480058602663e-01) (205, -6.25606422998186001427e-02) (206, -1.29630945987481344117e-01) (207, -6.74202930329006910881e-01) (208, 8.08078118780681947664e-02) (209, 1.35638446799218742589e-01) (210, -2.17589886912032515198e-01) (211, -5.23427682723548171051e-02) (212, 2.50413243811832414432e-02) (213, 1.86196177397489254224e-01) (214, -8.45572450827494492831e-02) (215, -3.02847281794273226474e-01) (216, -1.60604693213507482286e-01) (217, -1.08618198549755129445e-01) (218, 9.03098687100779007331e-02) (219, 2.21605865725282402678e-01) (220, -4.19873607989025898757e-01) (221, -1.67337107821376701589e-01) (222, 1.44017559811321027574e-01) (223, 3.06971022378321356516e-01) (224, 1.78739349834747068835e-01) (225, 7.18147179266049734414e-02) (226, 1.56693152590104411992e-01) (227, 3.18193241475114851902e-01) (228, -3.39556330325699706751e-01) (229, -5.17875838980975111703e-01) (230, -1.34635847301388028585e-01) (231, -2.75551014685472495103e-01) (232, 3.38755154162188598654e-01) (233, -5.27764767154334166199e-02) (234, 2.08625675896726599234e-02) (235, -2.24956282721242795120e-01) (236, 8.77605996186033299189e-02) (237, -1.41392004530374509885e-01) (238, 2.48119353112169788167e-01) (239, -3.44654917193318449664e-02) (240, -5.64531919971807405467e-02) (241, -2.64687244088754013160e-02) (242, 1.15959145230932147985e-01) (243, 8.42242999413530812891e-02) (244, 5.76516039538780972196e-02) (245, -1.19009806829896272462e-01) (246, 1.55214356111007617534e-01) (247, -2.15188519072148809474e-01) (248, -1.77596261361573665161e-01) (249, -2.92522748940443666488e-01) (250, -2.15843156120763685069e-01) (251, -1.83349744942854137042e-01) (252, 7.07320253154305050858e-02) (253, 7.74085331757830147348e-02) (254, -1.02306178600910888110e-01) (255, -2.72060380881340324599e-01) (256, 1.78094964429300950393e-01) (257, -5.58413245383438325287e-02) (258, 2.10898807363470407183e-02) (259, 1.40542738238674719264e-01) (260, -4.57601279561367715876e-02) (261, -6.67452273978688115363e-02) (262, -1.53892209190933604290e-01) (263, -2.09246411171183366307e-02) (264, -1.34535981840281232413e-01) (265, -1.15445108797399928480e-01) (266, -4.63398008512520762081e-02) (267, -2.19369064585165723935e-01) (268, -1.05536975918998340851e-01) (269, -2.95967582005633667031e-01) (270, -5.34819529221451997469e-02) (271, -1.10748591003043087011e-01) (272, 5.89600373053895867453e-03) (273, 7.10643457958393676144e-02) (274, 1.18548605137630113510e-02) (275, -1.84495509184188305474e-01) (276, -1.15869641486914629058e-01) (277, 5.63387083492440030041e-02) (278, -5.15683158808522279504e-02) (279, -6.11974578955786566170e-02) (280, 1.51906404798107574905e-01) (281, -1.55100856365400052717e-01) (282, -1.08782550950814058122e-01) (283, 1.76561144766198635514e-01) (284, 5.13838699223454556386e-02) (285, 2.21252104415177244801e-02) (286, -1.24396120004786794877e-01) (287, -3.55499506558751843244e-01) (288, -2.10530180280860013120e-01) (289, -2.43429851758166670983e-01) (290, -2.99735902806453971547e-02) (291, -2.33791912956277173063e-02) (292, 1.77278873873660314242e-01) (293, -2.58093263517169442534e-02) (294, 1.69043614258939989270e-01) (295, -5.75357478494335633501e-02) (296, 1.59690398685080253705e-01) (297, -4.58368931455782058215e-02) (298, 8.83677605171599017675e-03) (299, 1.71060241849406158288e-01) (300, 9.80077591768285516505e-02) (301, -1.57558005855835819853e-01) (302, -2.32770726422278306789e-01) (303, -4.39277079950792515017e-02) (304, -2.28700708448130308310e-05) (305, -1.85893735215365632496e-02) (306, -2.48040843647848480158e-01) (307, -1.80221117813013115283e-01) (308, -1.87174869060023840728e-01) (309, -3.31311520783191190698e-02) (310, 8.65704413817483114935e-02) (311, -1.06442069606529198661e-02) (312, -3.27770790739702680416e-02) (313, 2.17339819234029035799e-01) (314, 2.33744730335694678169e-01) (315, -7.63796699954965782609e-03) (316, 2.60273410263623328209e-01) (317, -1.33519325764238805387e-01) (318, 1.02037630124848066604e-01) (319, 1.90508667060610231703e-01) (320, 3.87390202797770338838e-02) (321, -6.85095870113298505144e-02) (322, -1.25504322568807058502e-01) (323, 2.04373069213477170925e-01) (324, -5.87619678871498241080e-02) (325, -8.15293521984101487998e-02) (326, 1.53579513753425867667e-02) (327, 1.08569301296203860052e-01) (328, -6.62163534393253455645e-02) (329, -1.59196559371487855739e-01) (330, 1.24009121416329790022e-01) (331, -1.32895851032713258055e-01) (332, -2.94296912914414968143e-02) (333, -1.41048216430104178531e-01) (334, 8.35818299426000291263e-03) (335, -3.50365891398921394662e-02) (336, -7.20704472297579862294e-02) (337, 2.06318844205812701453e-01) (338, 2.19626540719649820943e-01) (339, 4.86897285074175789621e-01) (340, -2.18210773639594471374e-02) (341, 5.86373963601260705936e-01) (342, 2.39184507514555666496e-01) (343, 3.40023770558864346647e-02) (344, -6.91563959508406933541e-02) (345, -8.13563239994353482043e-02) (346, -6.35477042076788498082e-03) (347, -2.80304857693221970427e-02) (348, -1.35876961456845191112e-01) (349, 1.36920937232028999686e-01) (350, -2.86139938283038353095e-01) (351, -2.19222215614243570725e-01) (352, -1.16569364146887677336e-01) (353, 1.44782341456962254655e-03) (354, 1.71829775726588140916e-01) (355, -3.50964807990878299715e-02) (356, -1.04676952823174546081e-01) (357, -4.72527707240979685799e-02) (358, -2.46870004313552077191e-01) (359, 1.41896793160115303190e-01) (360, 5.75583081331978718698e-02) (361, 2.75077106825103862020e-02) (362, -3.22300603747896152740e-01) (363, 6.79645041736624561796e-04) (364, -1.07700404734597229850e-01) (365, 8.41591380268436189960e-02) (366, 8.54972575687401176170e-02) (367, 1.86287166350584593166e-01) (368, -6.42552812399459238359e-05) (369, 7.18036244649342680901e-02) (370, 2.13279646429078623138e-01) (371, 2.25832671472205342988e-01) (372, 2.09006552100617831735e-01) (373, 1.12079031502891529604e-01) (374, 6.71681270618190023880e-02) (375, 1.54358184929932057416e-01) (376, -9.40548156568133276317e-04) (377, -4.64493670795168914212e-02) (378, 1.27909970087534685668e-01) (0, -7.62412545762084392642e-01) (1, -1.19693763354093790641e-01) (2, 1.45275901104916949080e-01) (3, 5.91365258353506312305e-02) (4, -6.56753089914109688952e-02) (5, -2.86441976220308647250e-01) (6, -5.31459267227383902465e-01) (7, 1.06877235342029841547e+00) (8, 1.13028169752024842953e-01) (9, -2.60904523055535020326e-01) (10, -1.03736597870003466326e+00) (11, -4.76133147400341238953e-01) (12, -2.93115443905472172759e-01) (13, 8.28708541491141037483e-02) (14, 6.28408620852251686983e-01) (15, 2.30898625488976994014e-01) (16, 3.85092490585565272454e-01) (17, 1.17166051148563155060e-01) (18, 1.60919587149201182008e-01) (19, 8.56048213857092843426e-01) (20, 6.63565394969898355443e-03) (21, -1.74413424294425217775e-01) (22, -1.59752652192233307593e-01) (23, 2.54596555964411927486e-02) (24, 3.45275604845363820461e-02) (25, -1.17744563445656744149e-01) (26, -1.18376465749473636091e-01) (27, -2.44074879844956259267e-02) (28, 9.83283129248218867868e-02) (29, -4.81098981171245887456e-01) (30, 9.49329498353138415134e-03) (31, -2.14556862366042030987e-02) (32, -7.00440691022807902094e-03) (33, 4.18131216222967505569e-02) (34, -4.44335715378966211730e-02) (35, -1.70814467530518848681e-01) (36, 1.11312387800543699523e-01) (37, -1.93008420732011604093e-01) (38, -5.95404105937266808768e-02) (39, -3.73517667224926505631e-02) (40, 1.13696040464450587315e-01) (41, -8.89904984791313607984e-02) (42, -5.64956326742436579225e-02) (43, 5.09945972191146179586e-02) (44, 6.45033918174720971583e-02) (45, 3.41486179772165637791e-02) (46, -7.31931283677172278557e-02) (47, 1.22605289975074624453e-01) (48, 7.16361764200300950994e-03) (49, -1.86594699668416519334e-01) (50, 1.46590980098923490127e-01) (51, 5.84354118161207400362e-02) (52, 1.25455972303418622493e-01) (53, 1.90063088323519313594e-01) (54, 1.68611642862147928512e-02) (55, -2.56582387464318745218e-02) (56, 5.64948445551260516884e-02) (57, -1.57561834097618369555e-01) (58, 2.13011966080641546029e-01) (59, -4.79268890729323557634e-04) (60, 8.63409549836544470969e-02) (61, -3.29006025211992722546e-02) (62, -5.74628306501335298084e-02) (63, 3.17062832451710185921e-01) (64, 1.99047836564235663959e-01) (65, 1.20150341790211168114e-01) (66, 1.92285440859701395322e-01) (67, 5.58139211499522336357e-02) (68, -2.07901969707220940498e-01) (69, 6.86839872370228511633e-03) (70, -5.41943317404412899796e-02) (71, -5.12341923448878244773e-02) (72, 1.76971554179448965771e-02) (73, 2.74968846924915188978e-01) (74, 1.65444918932835888237e-01) (75, 1.99055997285259550500e-01) (76, 6.52859055036463745841e-03) (77, -5.11457077184561348382e-01) (78, 3.90734189343516946646e-01) (79, 1.49517582345897442203e-02) (80, -2.25931673886402478724e-01) (81, 1.34542154791550294668e-01) (82, 8.11950609112028903747e-02) (83, 2.31817006608153769465e-01) (84, 2.24308433982477350987e-01) (85, -1.63116160973789420252e-01) (86, 8.71781616579507361020e-03) (87, -7.26715679460006574314e-03) (88, 5.25620725520880086035e-02) (89, -1.33056171947986384696e-01) (90, 1.16009084306684245869e-01) (91, -2.32479626088514773619e-01) (92, 2.14288827012297178332e-01) (93, 4.17661980739682248132e-01) (94, 2.91997515007303087842e-01) (95, -1.68867266538650834251e-01) (96, 3.68513321971183985259e-02) (97, 1.20369245120430137796e-01) (98, 2.62375217579232489218e-01) (99, 5.77071933883141832689e-02) (100, -1.71763416660954237880e-01) (101, -1.36668692815240883087e-01) (102, -2.97191103649025789579e-01) (103, 1.52510016829005973227e-01) (104, 9.04472699241565388992e-04) (105, 2.58102441454388931152e-01) (106, 3.20852334476527112361e-01) (107, 5.80858728684159608679e-02) (108, 3.70855214030335307920e-03) (109, -2.39081441252237597572e-01) (110, 1.33756367762634994362e-02) (111, 2.35043451352099641571e-01) (112, -4.38323296896748093587e-01) (113, 2.04106357330874066403e-01) (114, 3.40636270643969868432e-02) (115, 2.67830087533407923406e-01) (116, 3.55083840201538880610e-01) (117, -1.33810189853058064680e-01) (118, -1.11745326229329949852e-01) (119, -2.10837769306305260197e-02) (120, 3.29026288273466471779e-01) (121, 2.05991609963555866170e-01) (122, -1.39971252570050219699e-01) (123, -8.44835523567776525145e-02) (124, 8.89742910023339078629e-02) (125, -2.45760207000576769154e-01) (126, -1.84472958579271262280e-01) (127, 4.25457537442026079155e-01) (128, -1.28164939906297153938e-01) (129, 3.17465854952629356056e-02) (130, 6.75220030855106234657e-02) (131, -2.98091949149389828788e-02) (132, -1.89820053652695441837e-01) (133, -8.01568868772909587372e-02) (134, -4.01554954684122250574e-02) (135, 2.74560082805755723001e-01) (136, 3.75940960308925486988e-01) (137, 5.43056838358135993139e-02) (138, -9.57922351726292059526e-02) (139, -1.19653297686307835690e-01) (140, 9.56791253612805148165e-01) (141, -6.10609063465879231547e-02) (142, -3.81606761380478443080e-01) (143, -3.28570267395169757219e-01) (144, -2.95429411599980651371e-01) (145, -1.08731212982327463124e-01) (146, 2.84663721172358774592e-02) (147, -1.44397320872148904325e-01) (148, -1.42226767780390173090e-01) (149, -1.06986924002284711221e-01) (150, -5.53064460506022051445e-02) (151, -2.56530716524742907758e-01) (152, -4.52801707748780812857e-01) (153, -3.53605441306428236459e-01) (154, -4.29399048222099816163e-02) (155, 6.95695108694276087569e-01) (156, 5.88528617440373325032e-01) (157, 1.08898284242919959897e-01) (158, -3.85395458200992691022e-01) (159, -3.00833473409702067958e-01) (160, 6.01771901438229117609e-01) (161, 4.73100424272303241024e-02) (162, -1.98473540418256183537e-01) (163, -6.42585168502786241440e-01) (164, 2.02865180614478501919e-01) (165, 5.31854705940926972274e-02) (166, -3.93312497177456393826e-02) (167, 1.15831785118658658895e-01) (168, -3.93167009760413480035e-03) (169, 1.45961504396637992143e-01) (170, -1.72784053960264749605e-01) (171, -1.52126899475550220187e-01) (172, 1.00308170064437485181e-01) (173, -2.91452197239101921944e-02) (174, -2.59958934324757660883e-02) (175, -6.14978446085351349026e-01) (176, -7.39124919744267305788e-01) (177, 1.36023556303158932312e-01) (178, 2.78641825894987760215e-01) (179, 2.80417830526174388650e-02) (180, 3.87252091083815142003e-01) (181, 1.04974037990674867737e-01) (182, -2.52880228983590082947e-01) (183, -4.24128362055251617591e-01) (184, 1.54472808651655663104e-01) (185, 1.04672512982809398641e-01) (186, 3.39562852825968319870e-01) (187, -3.19652176514844177380e-01) (188, -8.09799235206384970809e-01) (189, -3.01305474686790787653e-02) (190, -1.12467750230829180436e-01) (191, 1.20675887359575725877e-01) (192, 1.90733571706938470625e-01) (193, -3.27907047241678628602e-01) (194, 3.50018880173910140741e-01) (195, -3.99454682197245503072e-01) (196, -3.79224619911178784104e-01) (197, 9.25933444036254882370e-02) (198, 1.15985534478324752578e-02) (199, 3.32758212794703633897e-01) (200, -7.16174300866901369922e-01) (201, 1.05444748738522706133e-01) (202, -7.14183366370736288919e-02) (203, -3.62167644068495872545e-02) (204, -1.06454182124639425144e-02) (205, 2.12435790142814218129e-02) (206, -1.22182972539660164579e-01) (207, -3.76813265945371567156e-01) (208, 1.34773386796896516016e-01) (209, 2.69084364516150309488e-01) (210, 6.81012029792071593715e-02) (211, 1.19377326116075030416e-01) (212, 5.27096263365253281385e-01) (213, 2.65497512286879844279e-01) (214, -4.62974728146398673001e-01) (215, -1.01617400707303762175e+00) (216, -1.13714228407521744657e+00) (217, 5.26079283115290508022e-01) (218, -1.96402517547664308417e-02) (219, -5.47980892699443722371e-01) (220, -9.16822254871825920164e-02) (221, -5.78612819001116246431e-02) (222, 3.69918960095574955727e-01) (223, -3.20062177138926429176e-01) (224, -4.23826500685714369077e-01) (225, 1.03663238304018842650e-01) (226, 3.50750465201558336847e-01) (227, -1.41054624438421050137e+00) (228, -9.41185341751670234700e-01) (229, -7.27648817853840501613e-01) (230, -9.03619094736415051639e-02) (231, 2.12006847460664948901e-01) (232, 8.56291170598319384411e-01) (233, -4.77494148579087507311e-01) (234, 5.40443226416845168281e-01) (235, -4.37807518983815591174e-01) (236, -7.48903079713691632868e-01) (237, 6.03231272590913580878e-01) (238, 1.45387305994407710352e-02) (239, 1.00414155135867502744e-01) (240, -7.06899522019628245850e-01) (241, 1.47033346888419097498e-01) (242, 5.19873703211697346660e-01) (243, -3.25543493253945104282e-01) (244, -1.72733162343361362767e-01) (245, 3.62026925426762319349e-02) (246, -2.41905002578686467718e-01) (247, -3.87309717801638420109e-01) (248, 3.63643648841139532912e-01) (249, 2.57821553097544009514e-01) (250, 6.97904534076732308012e-02) (251, 3.50195940860897225733e-01) (252, 8.60556934400009687636e-01) (253, -5.70150786027385711452e-03) (254, -3.44779669225166035540e-02) (255, -5.29606039499173952834e-01) (256, -3.47964095767219705468e-01) (257, 4.95712335574190809950e-01) (258, 2.35194611124105827649e-02) (259, -2.44956166937588482035e-01) (260, -2.09515271280835330137e-01) (261, -1.62189081366289400421e-01) (262, 4.06539257651020891071e-01) (263, 9.86255818807081630073e-02) (264, -2.37382671078798734854e-01) (265, -1.57445379261596768439e-01) (266, 4.85570191543144291657e-01) (267, -6.00695572489818307993e-01) (268, -3.67896697757875978940e-01) (269, -4.08521119021040546304e-01) (270, 1.79040512482320696153e-01) (271, -1.36601445829460044212e-01) (272, 7.35819809892101717175e-01) (273, -4.80708812765478499252e-01) (274, 4.51690757448467150592e-01) (275, 2.21153194667174979315e-01) (276, 1.39511342167958324323e-01) (277, 2.54027210970252347033e-02) (278, 7.23724755134308034288e-02) (279, 5.81702171996957284605e-02) (280, -2.82919695507520996269e-01) (281, 1.64026911026058791476e-01) (282, -5.87397477929518102568e-02) (283, -1.58459263272318212623e-01) (284, 1.22450324452869380165e-01) (285, -8.47577202273395030607e-02) (286, 6.72879896695494431058e-03) (287, 7.44255261960226177642e-01) (288, 2.28873266970332195358e-01) (289, 5.89736858796105378744e-01) (290, 2.19619611698887134965e-01) (291, 4.98391726010914526412e-01) (292, 1.95709644312907049546e-01) (293, -1.51682777248227873557e-01) (294, -2.55139889025886079654e-01) (295, 1.52084650016826444796e-01) (296, 5.06240023031971686507e-01) (297, -2.27328494548688642141e-01) (298, -2.30060520011976271659e-01) (299, -4.04346978304027659945e-01) (300, 3.47003411385082116691e-01) (301, -3.03774907113226078081e-01) (302, -6.91401109937686136897e-02) (303, 2.17472909916358259075e-01) (304, -8.19175518731246887771e-02) (305, -8.15222738846822087000e-02) (306, 1.22031263579348306370e-01) (307, 1.41519565579127037935e-01) (308, 3.08504188015102265297e-01) (309, -1.15760786816744273842e-01) (310, -1.30757572287795664767e-01) (311, 1.70279387151911010614e-03) (312, 4.78165819510921671909e-02) (313, 7.28550955205598260722e-02) (314, 5.55816635069304385008e-02) (315, 5.19122921919970115034e-01) (316, 4.02578944697103591199e-01) (317, 1.23786566387784721655e-01) (318, 5.85594056723796954622e-02) (319, -1.17473312314594013905e-01) (320, 4.40755094843834904772e-01) (321, -2.20130854172608608765e-01) (322, -2.27786960485069550630e-01) (323, 1.12808589499804080847e-02) (324, 1.45303986895710279814e-01) (325, -2.75226921007598102076e-01) (326, -1.69610215385559252865e-02) (327, 4.22302993771369539200e-01) (328, -6.86541064205926365727e-02) (329, 1.07406131488645070760e-01) (330, 1.67488004693401359990e-01) (331, -3.11761855159738802967e-02) (332, 4.64666118563149890819e-02) (333, -8.84489289313051957331e-02) (334, -2.36712737981076171145e-01) (335, -1.55459816074575263301e-01) (336, -2.42502677149199236117e-01) (337, -2.96108697532314613099e-01) (338, -3.28418351236847982921e-01) (339, -3.23455650936328553691e-01) (340, -1.99736194082119816740e-01) (341, -3.36653414735342104702e-01) (342, -2.30876215152033881228e-01) (343, 1.24829037462088690558e-01) (344, 3.33830831577822451095e-01) (345, -3.62923058249239108286e-02) (346, -2.82776936843049886416e-01) (347, -3.05108825271330763584e-01) (348, 1.09639648551625445982e-01) (349, 9.78331381718222370392e-02) (350, 1.41146130981164963369e-01) (351, -6.94106277455259768061e-02) (352, -5.29718611206852624251e-02) (353, -1.49783850974299692638e-01) (354, -2.51167147983643625209e-02) (355, -3.63177734082466729948e-01) (356, -2.49193465611660586179e-01) (357, -8.24527015479522701336e-02) (358, 3.00395326913819663006e-02) (359, 4.94330244367155002827e-01) (360, 1.51016835811764518760e-02) (361, 1.12599024012077761348e-01) (362, -8.28558684145212914762e-02) (363, -5.65379277111110328802e-02) (364, -4.42727494432652649015e-02) (365, 5.47889242521666219171e-03) (366, -5.99451967470003427296e-02) (367, 1.66622776436074343520e-01) (368, 1.63285863111993972963e-01) (369, 4.69316478315092600049e-01) (370, -2.54818329677208688100e-01) (371, 2.74753752671852702338e-02) (372, -3.81023740518697917601e-01) (373, -5.68284086829217438552e-02) (374, -1.11762874070158835238e-01) (375, 9.37274251297397081872e-02) (376, 1.20556821035356587224e-01) (377, -1.01303565833359435211e-01) (378, -2.74717518456759790535e-01) (0, -7.61038237317101073920e-01) (1, -1.61914487528417611051e-01) (2, -6.66141336844602027778e-02) (3, 3.79568909613687763271e-02) (4, -2.08954519289012763394e-01) (5, -1.82202945762231172111e-01) (6, -4.37114214705113357518e-01) (7, 7.62887345288885798666e-01) (8, 1.29638030315753910449e-01) (9, -2.91664328604527289812e-01) (10, -8.24982760444750384821e-01) (11, -4.76333503776752098524e-01) (12, -3.55623222202261113356e-01) (13, 1.73007494564081962078e-03) (14, 4.51288436778418622364e-01) (15, 2.79220801307234256505e-01) (16, 4.63572573078523952894e-01) (17, 3.36094594887921052639e-02) (18, 6.59374520740866887358e-02) (19, 6.84063686139541937692e-01) (20, 9.21831925850530864430e-02) (21, -2.17090273370283109999e-01) (22, -3.89176511876157649183e-01) (23, 7.75174901652282786341e-03) (24, 1.30894226846954814247e-01) (25, -1.60219818438735506216e-01) (26, 9.99149236233004139907e-02) (27, -6.25650936953598690859e-02) (28, -4.86441374655619401812e-02) (29, 2.86773503114324060121e-04) (30, -1.41240848412266334355e-01) (31, 1.76571377390177003397e-01) (32, 9.28083023846281024438e-02) (33, 7.70152430213410649218e-02) (34, -2.38231110424770908818e-01) (35, -9.55055928260346333192e-03) (36, -1.57911041275670044337e-01) (37, 2.45172523649576395988e-01) (38, -7.08392506804894767081e-02) (39, -5.28945727613942054401e-02) (40, -7.60464212507142856001e-02) (41, -1.15151301060363503437e-01) (42, 1.25557196350218530645e-01) (43, -4.50211821080606505729e-02) (44, -2.70213832915689511349e-01) (45, -8.58832924336454667236e-02) (46, -1.15936093263494535699e-01) (47, 1.07655327720299592853e-01) (48, -3.58636316935644905435e-01) (49, 2.13174564993030252191e-01) (50, 1.44573337566683779443e-01) (51, 5.58651701535058248238e-02) (52, 1.03663396474413763149e-01) (53, 1.76788016882593795875e-01) (54, 2.52607624723349077911e-01) (55, -1.56453439343194167233e-01) (56, 3.90149061259257579071e-01) (57, 1.65737072260739824736e-02) (58, 1.20676728233566326470e-02) (59, 4.70798520015524690763e-01) (60, -3.76527881792054319732e-01) (61, 1.45473084956722370498e-01) (62, 1.33154733835719074619e-01) (63, 1.36978822018436585672e-01) (64, 1.52757607169852926976e-01) (65, -2.01410331409727139107e-01) (66, 6.98082889254936223011e-02) (67, -1.13457351799559125194e-01) (68, -2.22945134236960273988e-01) (69, 3.93284626913698170947e-02) (70, -5.10383725766980628213e-02) (71, -2.11158650846018952629e-01) (72, 7.25158949682955245031e-02) (73, 3.09763129990632435362e-01) (74, -1.93990860044174944291e-03) (75, 6.02131306724293727251e-02) (76, 1.44725334694905172217e-01) (77, 3.48875649898325479459e-01) (78, -8.64393456821621747332e-02) (79, 1.09093927188705752673e-01) (80, 4.80023357872346123632e-01) (81, -1.54344091299947000495e-01) (82, 3.66459869936978599458e-01) (83, -1.84210819211691523289e-01) (84, -5.08466434478009390863e-02) (85, -3.99966263119141407500e-01) (86, -3.06303246427976016975e-01) (87, 2.34761639908245584030e-01) (88, 2.17921961458344914941e-01) (89, -1.97131603691408530121e-01) (90, -6.29768796105466960311e-02) 