FANN_FLO_2.1
num_layers=3
learning_rate=0.010000
connection_rate=1.000000
network_type=0
learning_momentum=0.300000
training_algorithm=0
train_error_function=0
train_stop_function=0
cascade_output_change_fraction=0.010000
quickprop_decay=-0.000100
quickprop_mu=1.750000
rprop_increase_factor=1.200000
rprop_decrease_factor=0.500000
rprop_delta_min=0.000000
rprop_delta_max=50.000000
rprop_delta_zero=0.100000
cascade_output_stagnation_epochs=12
cascade_candidate_change_fraction=0.010000
cascade_candidate_stagnation_epochs=12
cascade_max_out_epochs=150
cascade_min_out_epochs=0
cascade_max_cand_epochs=150
cascade_min_cand_epochs=0
cascade_num_candidate_groups=2
bit_fail_limit=3.49999999999999977796e-01
cascade_candidate_limit=1.00000000000000000000e+03
cascade_weight_multiplier=4.00000000000000022204e-01
cascade_activation_functions_count=10
cascade_activation_functions=3 5 7 8 10 11 14 15 16 17 
cascade_activation_steepnesses_count=4
cascade_activation_steepnesses=2.50000000000000000000e-01 5.00000000000000000000e-01 7.50000000000000000000e-01 1.00000000000000000000e+00 
layer_sizes=684 121 4 
scale_included=0
neurons (num_inputs, activation_function, activation_steepness)=(0, 0, 0.00000000000000000000e+00) (0, 0, 0.00000000000000000000e+00) (0, 0, 0.00000000000000000000e+00) (0, 0, 0.00000000000000000000e+00) (0, 0, 0.00000000000000000000e+00) (0, 0, 0.00000000000000000000e+00) (0, 0, 0.00000000000000000000e+00) (0, 0, 0.00000000000000000000e+00) (0, 0, 0.00000000000000000000e+00) (0, 0, 0.00000000000000000000e+00) (0, 0, 0.00000000000000000000e+00) (0, 0, 0.00000000000000000000e+00) (0, 0, 0.00000000000000000000e+00) (0, 0, 0.00000000000000000000e+00) (0, 0, 0.00000000000000000000e+00) (0, 0, 0.00000000000000000000e+00) (0, 0, 0.00000000000000000000e+00) (0, 0, 0.00000000000000000000e+00) (0, 0, 0.00000000000000000000e+00) (0, 0, 0.00000000000000000000e+00) (0, 0, 0.00000000000000000000e+00) (0, 0, 0.00000000000000000000e+00) (0, 0, 0.00000000000000000000e+00) (0, 0, 0.00000000000000000000e+00) (0, 0, 0.00000000000000000000e+00) (0, 0, 0.00000000000000000000e+00) (0, 0, 0.00000000000000000000e+00) (0, 0, 0.00000000000000000000e+00) (0, 0, 0.00000000000000000000e+00) (0, 0, 0.00000000000000000000e+00) (0, 0, 0.00000000000000000000e+00) (0, 0, 0.00000000000000000000e+00) (0, 0, 0.00000000000000000000e+00) (0, 0, 0.00000000000000000000e+00) (0, 0, 0.00000000000000000000e+00) (0, 0, 0.00000000000000000000e+00) (0, 0, 0.00000000000000000000e+00) (0, 0, 0.00000000000000000000e+00) (0, 0, 0.00000000000000000000e+00) (0, 0, 0.00000000000000000000e+00) (0, 0, 0.00000000000000000000e+00) (0, 0, 0.00000000000000000000e+00) (0, 0, 0.00000000000000000000e+00) (0, 0, 0.00000000000000000000e+00) (0, 0, 0.00000000000000000000e+00) (0, 0, 0.00000000000000000000e+00) (0, 0, 0.00000000000000000000e+00) (0, 0, 0.00000000000000000000e+00) (0, 0, 0.00000000000000000000e+00) (0, 0, 0.00000000000000000000e+00) (0, 0, 0.00000000000000000000e+00) (0, 0, 0.00000000000000000000e+00) (0, 0, 0.00000000000000000000e+00) (0, 0, 0.00000000000000000000e+00) (0, 0, 0.00000000000000000000e+00) (0, 0, 0.00000000000000000000e+00) (0, 0, 0.00000000000000000000e+00) (0, 0, 0.00000000000000000000e+00) (0, 0, 0.00000000000000000000e+00) (0, 0, 0.00000000000000000000e+00) (0, 0, 0.00000000000000000000e+00) (0, 0, 0.00000000000000000000e+00) (0, 0, 0.00000000000000000000e+00) (0, 0, 0.00000000000000000000e+00) (0, 0, 0.00000000000000000000e+00) (0, 0, 0.00000000000000000000e+00) (0, 0, 0.00000000000000000000e+00) (0, 0, 0.00000000000000000000e+00) (0, 0, 0.00000000000000000000e+00) (0, 0, 0.00000000000000000000e+00) (0, 0, 0.00000000000000000000e+00) (0, 0, 0.00000000000000000000e+00) (0, 0, 0.00000000000000000000e+00) (0, 0, 0.00000000000000000000e+00) (0, 0, 0.00000000000000000000e+00) (0, 0, 0.00000000000000000000e+00) (0, 0, 0.00000000000000000000e+00) (0, 0, 0.00000000000000000000e+00) (0, 0, 0.00000000000000000000e+00) (0, 0, 0.00000000000000000000e+00) (0, 0, 0.00000000000000000000e+00) (0, 0, 0.00000000000000000000e+00) (0, 0, 0.00000000000000000000e+00) (0, 0, 0.00000000000000000000e+00) (0, 0, 0.00000000000000000000e+00) (0, 0, 0.00000000000000000000e+00) (0, 0, 0.00000000000000000000e+00) (0, 0, 0.00000000000000000000e+00) (0, 0, 0.00000000000000000000e+00) (0, 0, 0.00000000000000000000e+00) (0, 0, 0.00000000000000000000e+00) (0, 0, 0.00000000000000000000e+00) (0, 0, 0.00000000000000000000e+00) (0, 0, 0.00000000000000000000e+00) (0, 0, 0.00000000000000000000e+00) (0, 0, 0.00000000000000000000e+00) (0, 0, 0.00000000000000000000e+00) (0, 0, 0.00000000000000000000e+00) (0, 0, 0.00000000000000000000e+00) (0, 0, 0.00000000000000000000e+00) (0, 0, 0.00000000000000000000e+00) (0, 0, 0.00000000000000000000e+00) (0, 0, 0.00000000000000000000e+00) (0, 0, 0.00000000000000000000e+00) (0, 0, 0.00000000000000000000e+00) (0, 0, 0.00000000000000000000e+00) (0, 0, 0.00000000000000000000e+00) (0, 0, 0.00000000000000000000e+00) (0, 0, 0.00000000000000000000e+00) (0, 0, 0.00000000000000000000e+00) (0, 0, 0.00000000000000000000e+00) (0, 0, 0.00000000000000000000e+00) (0, 0, 0.00000000000000000000e+00) (0, 0, 0.00000000000000000000e+00) (0, 0, 0.00000000000000000000e+00) (0, 0, 0.00000000000000000000e+00) (0, 0, 0.00000000000000000000e+00) (0, 0, 0.00000000000000000000e+00) (0, 0, 0.00000000000000000000e+00) (0, 0, 0.00000000000000000000e+00) (0, 0, 0.00000000000000000000e+00) (0, 0, 0.00000000000000000000e+00) (0, 0, 0.00000000000000000000e+00) (0, 0, 0.00000000000000000000e+00) (0, 0, 0.00000000000000000000e+00) (0, 0, 0.00000000000000000000e+00) (0, 0, 0.00000000000000000000e+00) (0, 0, 0.00000000000000000000e+00) (0, 0, 0.00000000000000000000e+00) (0, 0, 0.00000000000000000000e+00) (0, 0, 0.00000000000000000000e+00) (0, 0, 0.00000000000000000000e+00) (0, 0, 0.00000000000000000000e+00) (0, 0, 0.00000000000000000000e+00) (0, 0, 0.00000000000000000000e+00) (0, 0, 0.00000000000000000000e+00) (0, 0, 0.00000000000000000000e+00) (0, 0, 0.00000000000000000000e+00) (0, 0, 0.00000000000000000000e+00) (0, 0, 0.00000000000000000000e+00) (0, 0, 0.00000000000000000000e+00) (0, 0, 0.00000000000000000000e+00) (0, 0, 0.00000000000000000000e+00) (0, 0, 0.00000000000000000000e+00) (0, 0, 0.00000000000000000000e+00) (0, 0, 0.00000000000000000000e+00) (0, 0, 0.00000000000000000000e+00) (0, 0, 0.00000000000000000000e+00) (0, 0, 0.00000000000000000000e+00) (0, 0, 0.00000000000000000000e+00) (0, 0, 0.00000000000000000000e+00) (0, 0, 0.00000000000000000000e+00) (0, 0, 0.00000000000000000000e+00) (0, 0, 0.00000000000000000000e+00) (0, 0, 0.00000000000000000000e+00) (0, 0, 0.00000000000000000000e+00) (0, 0, 0.00000000000000000000e+00) (0, 0, 0.00000000000000000000e+00) (0, 0, 0.00000000000000000000e+00) (0, 0, 0.00000000000000000000e+00) (0, 0, 0.00000000000000000000e+00) (0, 0, 0.00000000000000000000e+00) (0, 0, 0.00000000000000000000e+00) (0, 0, 0.00000000000000000000e+00) (0, 0, 0.00000000000000000000e+00) (0, 0, 0.00000000000000000000e+00) (0, 0, 0.00000000000000000000e+00) (0, 0, 0.00000000000000000000e+00) (0, 0, 0.00000000000000000000e+00) (0, 0, 0.00000000000000000000e+00) (0, 0, 0.00000000000000000000e+00) (0, 0, 0.00000000000000000000e+00) (0, 0, 0.00000000000000000000e+00) (0, 0, 0.00000000000000000000e+00) (0, 0, 0.00000000000000000000e+00) (0, 0, 0.00000000000000000000e+00) (0, 0, 0.00000000000000000000e+00) (0, 0, 0.00000000000000000000e+00) (0, 0, 0.00000000000000000000e+00) (0, 0, 0.00000000000000000000e+00) (0, 0, 0.00000000000000000000e+00) (0, 0, 0.00000000000000000000e+00) (0, 0, 0.00000000000000000000e+00) (0, 0, 0.00000000000000000000e+00) (0, 0, 0.00000000000000000000e+00) (0, 0, 0.00000000000000000000e+00) (0, 0, 0.00000000000000000000e+00) (0, 0, 0.00000000000000000000e+00) (0, 0, 0.00000000000000000000e+00) (0, 0, 0.00000000000000000000e+00) (0, 0, 0.00000000000000000000e+00) (0, 0, 0.00000000000000000000e+00) (0, 0, 0.00000000000000000000e+00) (0, 0, 0.00000000000000000000e+00) (0, 0, 0.00000000000000000000e+00) (0, 0, 0.00000000000000000000e+00) (0, 0, 0.00000000000000000000e+00) (0, 0, 0.00000000000000000000e+00) (0, 0, 0.00000000000000000000e+00) (0, 0, 0.00000000000000000000e+00) (0, 0, 0.00000000000000000000e+00) (0, 0, 0.00000000000000000000e+00) (0, 0, 0.00000000000000000000e+00) (0, 0, 0.00000000000000000000e+00) (0, 0, 0.00000000000000000000e+00) (0, 0, 0.00000000000000000000e+00) (0, 0, 0.00000000000000000000e+00) (0, 0, 0.00000000000000000000e+00) (0, 0, 0.00000000000000000000e+00) (0, 0, 0.00000000000000000000e+00) (0, 0, 0.00000000000000000000e+00) (0, 0, 0.00000000000000000000e+00) (0, 0, 0.00000000000000000000e+00) (0, 0, 0.00000000000000000000e+00) (0, 0, 0.00000000000000000000e+00) (0, 0, 0.00000000000000000000e+00) (0, 0, 0.00000000000000000000e+00) (0, 0, 0.00000000000000000000e+00) (0, 0, 0.00000000000000000000e+00) (0, 0, 0.00000000000000000000e+00) (0, 0, 0.00000000000000000000e+00) (0, 0, 0.00000000000000000000e+00) (0, 0, 0.00000000000000000000e+00) (0, 0, 0.00000000000000000000e+00) (0, 0, 0.00000000000000000000e+00) (0, 0, 0.00000000000000000000e+00) (0, 0, 0.00000000000000000000e+00) (0, 0, 0.00000000000000000000e+00) (0, 0, 0.00000000000000000000e+00) (0, 0, 0.00000000000000000000e+00) (0, 0, 0.00000000000000000000e+00) (0, 0, 0.00000000000000000000e+00) (0, 0, 0.00000000000000000000e+00) (0, 0, 0.00000000000000000000e+00) (0, 0, 0.00000000000000000000e+00) (0, 0, 0.00000000000000000000e+00) (0, 0, 0.00000000000000000000e+00) (0, 0, 0.00000000000000000000e+00) (0, 0, 0.00000000000000000000e+00) (0, 0, 0.00000000000000000000e+00) (0, 0, 0.00000000000000000000e+00) (0, 0, 0.00000000000000000000e+00) (0, 0, 0.00000000000000000000e+00) (0, 0, 0.00000000000000000000e+00) (0, 0, 0.00000000000000000000e+00) (0, 0, 0.00000000000000000000e+00) (0, 0, 0.00000000000000000000e+00) (0, 0, 0.00000000000000000000e+00) (0, 0, 0.00000000000000000000e+00) (0, 0, 0.00000000000000000000e+00) (0, 0, 0.00000000000000000000e+00) (0, 0, 0.00000000000000000000e+00) (0, 0, 0.00000000000000000000e+00) (0, 0, 0.00000000000000000000e+00) (0, 0, 0.00000000000000000000e+00) (0, 0, 0.00000000000000000000e+00) (0, 0, 0.00000000000000000000e+00) (0, 0, 0.00000000000000000000e+00) (0, 0, 0.00000000000000000000e+00) (0, 0, 0.00000000000000000000e+00) (0, 0, 0.00000000000000000000e+00) (0, 0, 0.00000000000000000000e+00) (0, 0, 0.00000000000000000000e+00) (0, 0, 0.00000000000000000000e+00) (0, 0, 0.00000000000000000000e+00) (0, 0, 0.00000000000000000000e+00) (0, 0, 0.00000000000000000000e+00) (0, 0, 0.00000000000000000000e+00) (0, 0, 0.00000000000000000000e+00) (0, 0, 0.00000000000000000000e+00) (0, 0, 0.00000000000000000000e+00) (0, 0, 0.00000000000000000000e+00) (0, 0, 0.00000000000000000000e+00) (0, 0, 0.00000000000000000000e+00) (0, 0, 0.00000000000000000000e+00) (0, 0, 0.00000000000000000000e+00) (0, 0, 0.00000000000000000000e+00) (0, 0, 0.00000000000000000000e+00) (0, 0, 0.00000000000000000000e+00) (0, 0, 0.00000000000000000000e+00) (0, 0, 0.00000000000000000000e+00) (0, 0, 0.00000000000000000000e+00) (0, 0, 0.00000000000000000000e+00) (0, 0, 0.00000000000000000000e+00) (0, 0, 0.00000000000000000000e+00) (0, 0, 0.00000000000000000000e+00) (0, 0, 0.00000000000000000000e+00) (0, 0, 0.00000000000000000000e+00) (0, 0, 0.00000000000000000000e+00) (0, 0, 0.00000000000000000000e+00) (0, 0, 0.00000000000000000000e+00) (0, 0, 0.00000000000000000000e+00) (0, 0, 0.00000000000000000000e+00) (0, 0, 0.00000000000000000000e+00) (0, 0, 0.00000000000000000000e+00) (0, 0, 0.00000000000000000000e+00) (0, 0, 0.00000000000000000000e+00) (0, 0, 0.00000000000000000000e+00) (0, 0, 0.00000000000000000000e+00) (0, 0, 0.00000000000000000000e+00) (0, 0, 0.00000000000000000000e+00) (0, 0, 0.00000000000000000000e+00) (0, 0, 0.00000000000000000000e+00) (0, 0, 0.00000000000000000000e+00) (0, 0, 0.00000000000000000000e+00) (0, 0, 0.00000000000000000000e+00) (0, 0, 0.00000000000000000000e+00) (0, 0, 0.00000000000000000000e+00) (0, 0, 0.00000000000000000000e+00) (0, 0, 0.00000000000000000000e+00) (0, 0, 0.00000000000000000000e+00) (0, 0, 0.00000000000000000000e+00) (0, 0, 0.00000000000000000000e+00) (0, 0, 0.00000000000000000000e+00) (0, 0, 0.00000000000000000000e+00) (0, 0, 0.00000000000000000000e+00) (0, 0, 0.00000000000000000000e+00) (0, 0, 0.00000000000000000000e+00) (0, 0, 0.00000000000000000000e+00) (0, 0, 0.00000000000000000000e+00) (0, 0, 0.00000000000000000000e+00) (0, 0, 0.00000000000000000000e+00) (0, 0, 0.00000000000000000000e+00) (0, 0, 0.00000000000000000000e+00) (0, 0, 0.00000000000000000000e+00) (0, 0, 0.00000000000000000000e+00) (0, 0, 0.00000000000000000000e+00) (0, 0, 0.00000000000000000000e+00) (0, 0, 0.00000000000000000000e+00) (0, 0, 0.00000000000000000000e+00) (0, 0, 0.00000000000000000000e+00) (0, 0, 0.00000000000000000000e+00) (0, 0, 0.00000000000000000000e+00) (0, 0, 0.00000000000000000000e+00) (0, 0, 0.00000000000000000000e+00) (0, 0, 0.00000000000000000000e+00) (0, 0, 0.00000000000000000000e+00) (0, 0, 0.00000000000000000000e+00) (0, 0, 0.00000000000000000000e+00) (0, 0, 0.00000000000000000000e+00) (0, 0, 0.00000000000000000000e+00) (0, 0, 0.00000000000000000000e+00) (0, 0, 0.00000000000000000000e+00) (0, 0, 0.00000000000000000000e+00) (0, 0, 0.00000000000000000000e+00) (0, 0, 0.00000000000000000000e+00) (0, 0, 0.00000000000000000000e+00) (0, 0, 0.00000000000000000000e+00) (0, 0, 0.00000000000000000000e+00) (0, 0, 0.00000000000000000000e+00) (0, 0, 0.00000000000000000000e+00) (0, 0, 0.00000000000000000000e+00) (0, 0, 0.00000000000000000000e+00) (0, 0, 0.00000000000000000000e+00) (0, 0, 0.00000000000000000000e+00) (0, 0, 0.00000000000000000000e+00) (0, 0, 0.00000000000000000000e+00) (0, 0, 0.00000000000000000000e+00) (0, 0, 0.00000000000000000000e+00) (0, 0, 0.00000000000000000000e+00) (0, 0, 0.00000000000000000000e+00) (0, 0, 0.00000000000000000000e+00) (0, 0, 0.00000000000000000000e+00) (0, 0, 0.00000000000000000000e+00) (0, 0, 0.00000000000000000000e+00) (0, 0, 0.00000000000000000000e+00) (0, 0, 0.00000000000000000000e+00) (0, 0, 0.00000000000000000000e+00) (0, 0, 0.00000000000000000000e+00) (0, 0, 0.00000000000000000000e+00) (0, 0, 0.00000000000000000000e+00) (0, 0, 0.00000000000000000000e+00) (0, 0, 0.00000000000000000000e+00) (0, 0, 0.00000000000000000000e+00) (0, 0, 0.00000000000000000000e+00) (0, 0, 0.00000000000000000000e+00) (0, 0, 0.00000000000000000000e+00) (0, 0, 0.00000000000000000000e+00) (0, 0, 0.00000000000000000000e+00) (0, 0, 0.00000000000000000000e+00) (0, 0, 0.00000000000000000000e+00) (0, 0, 0.00000000000000000000e+00) (0, 0, 0.00000000000000000000e+00) (0, 0, 0.00000000000000000000e+00) (0, 0, 0.00000000000000000000e+00) (0, 0, 0.00000000000000000000e+00) (0, 0, 0.00000000000000000000e+00) (0, 0, 0.00000000000000000000e+00) (0, 0, 0.00000000000000000000e+00) (0, 0, 0.00000000000000000000e+00) (0, 0, 0.00000000000000000000e+00) (0, 0, 0.00000000000000000000e+00) (0, 0, 0.00000000000000000000e+00) (0, 0, 0.00000000000000000000e+00) (0, 0, 0.00000000000000000000e+00) (0, 0, 0.00000000000000000000e+00) (0, 0, 0.00000000000000000000e+00) (0, 0, 0.00000000000000000000e+00) (0, 0, 0.00000000000000000000e+00) (0, 0, 0.00000000000000000000e+00) (0, 0, 0.00000000000000000000e+00) (0, 0, 0.00000000000000000000e+00) (0, 0, 0.00000000000000000000e+00) (0, 0, 0.00000000000000000000e+00) (0, 0, 0.00000000000000000000e+00) (0, 0, 0.00000000000000000000e+00) (0, 0, 0.00000000000000000000e+00) (0, 0, 0.00000000000000000000e+00) (0, 0, 0.00000000000000000000e+00) (0, 0, 0.00000000000000000000e+00) (0, 0, 0.00000000000000000000e+00) (0, 0, 0.00000000000000000000e+00) (0, 0, 0.00000000000000000000e+00) (0, 0, 0.00000000000000000000e+00) (0, 0, 0.00000000000000000000e+00) (0, 0, 0.00000000000000000000e+00) (0, 0, 0.00000000000000000000e+00) (0, 0, 0.00000000000000000000e+00) (0, 0, 0.00000000000000000000e+00) (0, 0, 0.00000000000000000000e+00) (0, 0, 0.00000000000000000000e+00) (0, 0, 0.00000000000000000000e+00) (0, 0, 0.00000000000000000000e+00) (0, 0, 0.00000000000000000000e+00) (0, 0, 0.00000000000000000000e+00) (0, 0, 0.00000000000000000000e+00) (0, 0, 0.00000000000000000000e+00) (0, 0, 0.00000000000000000000e+00) (0, 0, 0.00000000000000000000e+00) (0, 0, 0.00000000000000000000e+00) (0, 0, 0.00000000000000000000e+00) (0, 0, 0.00000000000000000000e+00) (0, 0, 0.00000000000000000000e+00) (0, 0, 0.00000000000000000000e+00) (0, 0, 0.00000000000000000000e+00) (0, 0, 0.00000000000000000000e+00) (0, 0, 0.00000000000000000000e+00) (0, 0, 0.00000000000000000000e+00) (0, 0, 0.00000000000000000000e+00) (0, 0, 0.00000000000000000000e+00) (0, 0, 0.00000000000000000000e+00) (0, 0, 0.00000000000000000000e+00) (0, 0, 0.00000000000000000000e+00) (0, 0, 0.00000000000000000000e+00) (0, 0, 0.00000000000000000000e+00) (0, 0, 0.00000000000000000000e+00) (0, 0, 0.00000000000000000000e+00) (0, 0, 0.00000000000000000000e+00) (0, 0, 0.00000000000000000000e+00) (0, 0, 0.00000000000000000000e+00) (0, 0, 0.00000000000000000000e+00) (0, 0, 0.00000000000000000000e+00) (0, 0, 0.00000000000000000000e+00) (0, 0, 0.00000000000000000000e+00) (0, 0, 0.00000000000000000000e+00) (0, 0, 0.00000000000000000000e+00) (0, 0, 0.00000000000000000000e+00) (0, 0, 0.00000000000000000000e+00) (0, 0, 0.00000000000000000000e+00) (0, 0, 0.00000000000000000000e+00) (0, 0, 0.00000000000000000000e+00) (0, 0, 0.00000000000000000000e+00) (0, 0, 0.00000000000000000000e+00) (0, 0, 0.00000000000000000000e+00) (0, 0, 0.00000000000000000000e+00) (0, 0, 0.00000000000000000000e+00) (0, 0, 0.00000000000000000000e+00) (0, 0, 0.00000000000000000000e+00) (0, 0, 0.00000000000000000000e+00) (0, 0, 0.00000000000000000000e+00) (0, 0, 0.00000000000000000000e+00) (0, 0, 0.00000000000000000000e+00) (0, 0, 0.00000000000000000000e+00) (0, 0, 0.00000000000000000000e+00) (0, 0, 0.00000000000000000000e+00) (0, 0, 0.00000000000000000000e+00) (0, 0, 0.00000000000000000000e+00) (0, 0, 0.00000000000000000000e+00) (0, 0, 0.00000000000000000000e+00) (0, 0, 0.00000000000000000000e+00) (0, 0, 0.00000000000000000000e+00) (0, 0, 0.00000000000000000000e+00) (0, 0, 0.00000000000000000000e+00) (0, 0, 0.00000000000000000000e+00) (0, 0, 0.00000000000000000000e+00) (0, 0, 0.00000000000000000000e+00) (0, 0, 0.00000000000000000000e+00) (0, 0, 0.00000000000000000000e+00) (0, 0, 0.00000000000000000000e+00) (0, 0, 0.00000000000000000000e+00) (0, 0, 0.00000000000000000000e+00) (0, 0, 0.00000000000000000000e+00) (0, 0, 0.00000000000000000000e+00) (0, 0, 0.00000000000000000000e+00) (0, 0, 0.00000000000000000000e+00) (0, 0, 0.00000000000000000000e+00) (0, 0, 0.00000000000000000000e+00) (0, 0, 0.00000000000000000000e+00) (0, 0, 0.00000000000000000000e+00) (0, 0, 0.00000000000000000000e+00) (0, 0, 0.00000000000000000000e+00) (0, 0, 0.00000000000000000000e+00) (0, 0, 0.00000000000000000000e+00) (0, 0, 0.00000000000000000000e+00) (0, 0, 0.00000000000000000000e+00) (0, 0, 0.00000000000000000000e+00) (0, 0, 0.00000000000000000000e+00) (0, 0, 0.00000000000000000000e+00) (0, 0, 0.00000000000000000000e+00) (0, 0, 0.00000000000000000000e+00) (0, 0, 0.00000000000000000000e+00) (0, 0, 0.00000000000000000000e+00) (0, 0, 0.00000000000000000000e+00) (0, 0, 0.00000000000000000000e+00) (0, 0, 0.00000000000000000000e+00) (0, 0, 0.00000000000000000000e+00) (0, 0, 0.00000000000000000000e+00) (0, 0, 0.00000000000000000000e+00) (0, 0, 0.00000000000000000000e+00) (0, 0, 0.00000000000000000000e+00) (0, 0, 0.00000000000000000000e+00) (0, 0, 0.00000000000000000000e+00) (0, 0, 0.00000000000000000000e+00) (0, 0, 0.00000000000000000000e+00) (0, 0, 0.00000000000000000000e+00) (0, 0, 0.00000000000000000000e+00) (0, 0, 0.00000000000000000000e+00) (0, 0, 0.00000000000000000000e+00) (0, 0, 0.00000000000000000000e+00) (0, 0, 0.00000000000000000000e+00) (0, 0, 0.00000000000000000000e+00) (0, 0, 0.00000000000000000000e+00) (0, 0, 0.00000000000000000000e+00) (0, 0, 0.00000000000000000000e+00) (0, 0, 0.00000000000000000000e+00) (0, 0, 0.00000000000000000000e+00) (0, 0, 0.00000000000000000000e+00) (0, 0, 0.00000000000000000000e+00) (0, 0, 0.00000000000000000000e+00) (0, 0, 0.00000000000000000000e+00) (0, 0, 0.00000000000000000000e+00) (0, 0, 0.00000000000000000000e+00) (0, 0, 0.00000000000000000000e+00) (0, 0, 0.00000000000000000000e+00) (0, 0, 0.00000000000000000000e+00) (0, 0, 0.00000000000000000000e+00) (0, 0, 0.00000000000000000000e+00) (0, 0, 0.00000000000000000000e+00) (0, 0, 0.00000000000000000000e+00) (0, 0, 0.00000000000000000000e+00) (0, 0, 0.00000000000000000000e+00) (0, 0, 0.00000000000000000000e+00) (0, 0, 0.00000000000000000000e+00) (0, 0, 0.00000000000000000000e+00) (0, 0, 0.00000000000000000000e+00) (0, 0, 0.00000000000000000000e+00) (0, 0, 0.00000000000000000000e+00) (0, 0, 0.00000000000000000000e+00) (0, 0, 0.00000000000000000000e+00) (0, 0, 0.00000000000000000000e+00) (0, 0, 0.00000000000000000000e+00) (0, 0, 0.00000000000000000000e+00) (0, 0, 0.00000000000000000000e+00) (0, 0, 0.00000000000000000000e+00) (0, 0, 0.00000000000000000000e+00) (0, 0, 0.00000000000000000000e+00) (0, 0, 0.00000000000000000000e+00) (0, 0, 0.00000000000000000000e+00) (0, 0, 0.00000000000000000000e+00) (0, 0, 0.00000000000000000000e+00) (0, 0, 0.00000000000000000000e+00) (0, 0, 0.00000000000000000000e+00) (0, 0, 0.00000000000000000000e+00) (0, 0, 0.00000000000000000000e+00) (0, 0, 0.00000000000000000000e+00) (0, 0, 0.00000000000000000000e+00) (0, 0, 0.00000000000000000000e+00) (0, 0, 0.00000000000000000000e+00) (0, 0, 0.00000000000000000000e+00) (0, 0, 0.00000000000000000000e+00) (0, 0, 0.00000000000000000000e+00) (0, 0, 0.00000000000000000000e+00) (0, 0, 0.00000000000000000000e+00) (0, 0, 0.00000000000000000000e+00) (0, 0, 0.00000000000000000000e+00) (0, 0, 0.00000000000000000000e+00) (0, 0, 0.00000000000000000000e+00) (0, 0, 0.00000000000000000000e+00) (0, 0, 0.00000000000000000000e+00) (0, 0, 0.00000000000000000000e+00) (0, 0, 0.00000000000000000000e+00) (0, 0, 0.00000000000000000000e+00) (0, 0, 0.00000000000000000000e+00) (0, 0, 0.00000000000000000000e+00) (0, 0, 0.00000000000000000000e+00) (0, 0, 0.00000000000000000000e+00) (0, 0, 0.00000000000000000000e+00) (0, 0, 0.00000000000000000000e+00) (0, 0, 0.00000000000000000000e+00) (0, 0, 0.00000000000000000000e+00) (0, 0, 0.00000000000000000000e+00) (0, 0, 0.00000000000000000000e+00) (0, 0, 0.00000000000000000000e+00) (0, 0, 0.00000000000000000000e+00) (0, 0, 0.00000000000000000000e+00) (0, 0, 0.00000000000000000000e+00) (0, 0, 0.00000000000000000000e+00) (0, 0, 0.00000000000000000000e+00) (0, 0, 0.00000000000000000000e+00) (0, 0, 0.00000000000000000000e+00) (0, 0, 0.00000000000000000000e+00) (0, 0, 0.00000000000000000000e+00) (0, 0, 0.00000000000000000000e+00) (0, 0, 0.00000000000000000000e+00) (0, 0, 0.00000000000000000000e+00) (0, 0, 0.00000000000000000000e+00) (0, 0, 0.00000000000000000000e+00) (0, 0, 0.00000000000000000000e+00) (0, 0, 0.00000000000000000000e+00) (0, 0, 0.00000000000000000000e+00) (0, 0, 0.00000000000000000000e+00) (0, 0, 0.00000000000000000000e+00) (0, 0, 0.00000000000000000000e+00) (0, 0, 0.00000000000000000000e+00) (0, 0, 0.00000000000000000000e+00) (0, 0, 0.00000000000000000000e+00) (0, 0, 0.00000000000000000000e+00) (0, 0, 0.00000000000000000000e+00) (0, 0, 0.00000000000000000000e+00) (0, 0, 0.00000000000000000000e+00) (0, 0, 0.00000000000000000000e+00) (0, 0, 0.00000000000000000000e+00) (0, 0, 0.00000000000000000000e+00) (0, 0, 0.00000000000000000000e+00) (0, 0, 0.00000000000000000000e+00) (0, 0, 0.00000000000000000000e+00) (0, 0, 0.00000000000000000000e+00) (0, 0, 0.00000000000000000000e+00) (0, 0, 0.00000000000000000000e+00) (0, 0, 0.00000000000000000000e+00) (0, 0, 0.00000000000000000000e+00) (0, 0, 0.00000000000000000000e+00) (0, 0, 0.00000000000000000000e+00) (0, 0, 0.00000000000000000000e+00) (0, 0, 0.00000000000000000000e+00) (0, 0, 0.00000000000000000000e+00) (0, 0, 0.00000000000000000000e+00) (0, 0, 0.00000000000000000000e+00) (0, 0, 0.00000000000000000000e+00) (0, 0, 0.00000000000000000000e+00) (0, 0, 0.00000000000000000000e+00) (0, 0, 0.00000000000000000000e+00) (0, 0, 0.00000000000000000000e+00) (0, 0, 0.00000000000000000000e+00) (0, 0, 0.00000000000000000000e+00) (0, 0, 0.00000000000000000000e+00) (0, 0, 0.00000000000000000000e+00) (0, 0, 0.00000000000000000000e+00) (0, 0, 0.00000000000000000000e+00) (0, 0, 0.00000000000000000000e+00) (0, 0, 0.00000000000000000000e+00) (0, 0, 0.00000000000000000000e+00) (0, 0, 0.00000000000000000000e+00) (0, 0, 0.00000000000000000000e+00) (0, 0, 0.00000000000000000000e+00) (0, 0, 0.00000000000000000000e+00) (0, 0, 0.00000000000000000000e+00) (0, 0, 0.00000000000000000000e+00) (0, 0, 0.00000000000000000000e+00) (0, 0, 0.00000000000000000000e+00) (0, 0, 0.00000000000000000000e+00) (0, 0, 0.00000000000000000000e+00) (0, 0, 0.00000000000000000000e+00) (0, 0, 0.00000000000000000000e+00) (0, 0, 0.00000000000000000000e+00) (0, 0, 0.00000000000000000000e+00) (0, 0, 0.00000000000000000000e+00) (0, 0, 0.00000000000000000000e+00) (0, 0, 0.00000000000000000000e+00) (0, 0, 0.00000000000000000000e+00) (0, 0, 0.00000000000000000000e+00) (0, 0, 0.00000000000000000000e+00) (0, 0, 0.00000000000000000000e+00) (0, 0, 0.00000000000000000000e+00) (684, 3, 5.00000000000000000000e-01) (684, 3, 5.00000000000000000000e-01) (684, 3, 5.00000000000000000000e-01) (684, 3, 5.00000000000000000000e-01) (684, 3, 5.00000000000000000000e-01) (684, 3, 5.00000000000000000000e-01) (684, 3, 5.00000000000000000000e-01) (684, 3, 5.00000000000000000000e-01) (684, 3, 5.00000000000000000000e-01) (684, 3, 5.00000000000000000000e-01) (684, 3, 5.00000000000000000000e-01) (684, 3, 5.00000000000000000000e-01) (684, 3, 5.00000000000000000000e-01) (684, 3, 5.00000000000000000000e-01) (684, 3, 5.00000000000000000000e-01) (684, 3, 5.00000000000000000000e-01) (684, 3, 5.00000000000000000000e-01) (684, 3, 5.00000000000000000000e-01) (684, 3, 5.00000000000000000000e-01) (684, 3, 5.00000000000000000000e-01) (684, 3, 5.00000000000000000000e-01) (684, 3, 5.00000000000000000000e-01) (684, 3, 5.00000000000000000000e-01) (684, 3, 5.00000000000000000000e-01) (684, 3, 5.00000000000000000000e-01) (684, 3, 5.00000000000000000000e-01) (684, 3, 5.00000000000000000000e-01) (684, 3, 5.00000000000000000000e-01) (684, 3, 5.00000000000000000000e-01) (684, 3, 5.00000000000000000000e-01) (684, 3, 5.00000000000000000000e-01) (684, 3, 5.00000000000000000000e-01) (684, 3, 5.00000000000000000000e-01) (684, 3, 5.00000000000000000000e-01) (684, 3, 5.00000000000000000000e-01) (684, 3, 5.00000000000000000000e-01) (684, 3, 5.00000000000000000000e-01) (684, 3, 5.00000000000000000000e-01) (684, 3, 5.00000000000000000000e-01) (684, 3, 5.00000000000000000000e-01) (684, 3, 5.00000000000000000000e-01) (684, 3, 5.00000000000000000000e-01) (684, 3, 5.00000000000000000000e-01) (684, 3, 5.00000000000000000000e-01) (684, 3, 5.00000000000000000000e-01) (684, 3, 5.00000000000000000000e-01) (684, 3, 5.00000000000000000000e-01) (684, 3, 5.00000000000000000000e-01) (684, 3, 5.00000000000000000000e-01) (684, 3, 5.00000000000000000000e-01) (684, 3, 5.00000000000000000000e-01) (684, 3, 5.00000000000000000000e-01) (684, 3, 5.00000000000000000000e-01) (684, 3, 5.00000000000000000000e-01) (684, 3, 5.00000000000000000000e-01) (684, 3, 5.00000000000000000000e-01) (684, 3, 5.00000000000000000000e-01) (684, 3, 5.00000000000000000000e-01) (684, 3, 5.00000000000000000000e-01) (684, 3, 5.00000000000000000000e-01) (684, 3, 5.00000000000000000000e-01) (684, 3, 5.00000000000000000000e-01) (684, 3, 5.00000000000000000000e-01) (684, 3, 5.00000000000000000000e-01) (684, 3, 5.00000000000000000000e-01) (684, 3, 5.00000000000000000000e-01) (684, 3, 5.00000000000000000000e-01) (684, 3, 5.00000000000000000000e-01) (684, 3, 5.00000000000000000000e-01) (684, 3, 5.00000000000000000000e-01) (684, 3, 5.00000000000000000000e-01) (684, 3, 5.00000000000000000000e-01) (684, 3, 5.00000000000000000000e-01) (684, 3, 5.00000000000000000000e-01) (684, 3, 5.00000000000000000000e-01) (684, 3, 5.00000000000000000000e-01) (684, 3, 5.00000000000000000000e-01) (684, 3, 5.00000000000000000000e-01) (684, 3, 5.00000000000000000000e-01) (684, 3, 5.00000000000000000000e-01) (684, 3, 5.00000000000000000000e-01) (684, 3, 5.00000000000000000000e-01) (684, 3, 5.00000000000000000000e-01) (684, 3, 5.00000000000000000000e-01) (684, 3, 5.00000000000000000000e-01) (684, 3, 5.00000000000000000000e-01) (684, 3, 5.00000000000000000000e-01) (684, 3, 5.00000000000000000000e-01) (684, 3, 5.00000000000000000000e-01) (684, 3, 5.00000000000000000000e-01) (684, 3, 5.00000000000000000000e-01) (684, 3, 5.00000000000000000000e-01) (684, 3, 5.00000000000000000000e-01) (684, 3, 5.00000000000000000000e-01) (684, 3, 5.00000000000000000000e-01) (684, 3, 5.00000000000000000000e-01) (684, 3, 5.00000000000000000000e-01) (684, 3, 5.00000000000000000000e-01) (684, 3, 5.00000000000000000000e-01) (684, 3, 5.00000000000000000000e-01) (684, 3, 5.00000000000000000000e-01) (684, 3, 5.00000000000000000000e-01) (684, 3, 5.00000000000000000000e-01) (684, 3, 5.00000000000000000000e-01) (684, 3, 5.00000000000000000000e-01) (684, 3, 5.00000000000000000000e-01) (684, 3, 5.00000000000000000000e-01) (684, 3, 5.00000000000000000000e-01) (684, 3, 5.00000000000000000000e-01) (684, 3, 5.00000000000000000000e-01) (684, 3, 5.00000000000000000000e-01) (684, 3, 5.00000000000000000000e-01) (684, 3, 5.00000000000000000000e-01) (684, 3, 5.00000000000000000000e-01) (684, 3, 5.00000000000000000000e-01) (684, 3, 5.00000000000000000000e-01) (684, 3, 5.00000000000000000000e-01) (684, 3, 5.00000000000000000000e-01) (684, 3, 5.00000000000000000000e-01) (684, 3, 5.00000000000000000000e-01) (0, 3, 0.00000000000000000000e+00) (121, 3, 5.00000000000000000000e-01) (121, 3, 5.00000000000000000000e-01) (121, 3, 5.00000000000000000000e-01) (0, 3, 0.00000000000000000000e+00) 
connections (connected_to_neuron, weight)=(0, -2.44099251410326498202e-02) (1, 2.54554045154774186144e-02) (2, 2.90604993237636305414e-02) (3, 2.08556795478413888045e-02) (4, 3.59049556628298904837e-02) (5, -6.56694559097239193013e-03) (6, 4.94785097663030942750e-02) (7, 2.83848709314225081113e-02) (8, -4.34395325096322629244e-02) (9, 4.36059490002873098580e-02) (10, 9.10730024964800793930e-02) (11, -6.68782099767264576196e-02) (12, 1.08783915597047142754e-01) (13, 2.14271553815567478152e-02) (14, 4.33892034042382274128e-02) (15, 7.12796042339663843412e-02) (16, 4.78414947307382598662e-02) (17, -6.15849284805544128218e-02) (18, -8.28549047553941014899e-02) (19, -2.84272412763770972177e-02) (20, -2.17747871089831492031e-02) (21, -4.25233087623099748065e-02) (22, -8.69969457952363689479e-02) (23, 1.79044263343627260698e-02) (24, -9.48271124486320393654e-02) (25, -5.46641667060883129636e-02) (26, -6.39277337062189171535e-02) (27, -2.87671777093746958154e-02) (28, -4.49797123175493807068e-02) (29, 4.34132089075464147609e-02) (30, 9.54018541342203235667e-02) (31, 1.11758009695611906786e-01) (32, -1.18605106916568978775e-02) (33, -9.63402144595738862964e-03) (34, -4.97295086842733449761e-02) (35, -1.29465129981573640050e-01) (36, -8.84373601695364469633e-02) (37, -2.75122026351845468117e-02) (38, 1.81859628974225112641e-02) (39, 1.13256356087790607118e-02) (40, -1.09153641859855557450e-01) (41, -3.74106185450560338110e-03) (42, 5.70843692747450212610e-02) (43, -6.36934637221498872739e-02) (44, -1.24849050437417397053e-01) (45, -6.89582209088202002789e-02) (46, -9.15270407772164340532e-02) (47, 2.28601996726553249872e-02) (48, -8.03351740582175337380e-03) (49, -5.79513882728902238184e-02) (50, -8.41779371607093290786e-02) (51, -8.19131280892463481402e-02) (52, 8.35946116850453530001e-02) (53, 5.04536736831447674145e-02) (54, 2.14368342475172966866e-02) (55, -9.09528592260674534353e-02) (56, -6.95443223562443590957e-02) (57, -8.88128803389918730637e-02) (58, 5.83975208414215102293e-02) (59, 2.72403471129933939798e-02) (60, 5.03415550550050383549e-02) (61, 1.33920643018385528145e-02) (62, 3.57965218762441514389e-02) (63, -8.95971400391319533485e-02) (64, -1.66699403420217419358e-02) (65, -1.12333299577177359030e-01) (66, -6.53080646764248456959e-02) (67, -2.10903809635440003811e-02) (68, 1.03471288635689669111e-02) (69, 8.68995664302397302636e-02) (70, -1.24372169448469113706e-01) (71, 2.78028124216867164598e-02) (72, -3.62481280117405851859e-02) (73, 9.11013350038409469578e-02) (74, -1.13860654746542541704e-01) (75, 6.73329744559599679965e-02) (76, -4.09815823800579320801e-02) (77, -7.28807380044894370652e-02) (78, 4.35766011928103713657e-02) (79, 5.57811221142550314744e-02) (80, -3.56555588953372457062e-02) (81, -1.17047860226476507783e-01) (82, 1.02221385283703586344e-01) (83, -2.85749976703318225857e-02) (84, 6.24729958350882449980e-02) (85, 8.23956328973963862683e-03) (86, -5.99100046141189668258e-02) (87, -1.52321435322065407147e-01) (88, -1.93549952864369781413e-02) (89, -3.77514510888592239035e-02) (90, -4.31470598036365407535e-02) (91, -9.66877963663746314849e-02) (92, 1.08795991181582632490e-01) (93, -3.20358432665347053758e-02) (94, -3.85225066820706896209e-02) (95, -5.95753375252612987767e-02) (96, -4.57979178391649914548e-03) (97, 5.85064488380849789806e-02) (98, -1.22971065166107743072e-01) (99, -4.87520879893103831204e-02) (100, 3.07491828386208809754e-02) (101, -1.26618839564981544576e-01) (102, -5.47962387057485331154e-02) (103, -1.94459915744775967139e-02) (104, -1.46968323006224643734e-01) (105, -3.83183811779100880202e-02) (106, -3.67086694089677548214e-02) (107, -9.36234406090630799646e-02) (108, -2.95906763497742995861e-02) (109, 4.88989836391160587192e-02) (110, 4.30532243726397326200e-02) (111, -1.23787671724868111878e-01) (112, -1.24044465869525583068e-01) (113, 6.12945568738410065390e-02) (114, -1.81235373451908293729e-02) (115, 7.10193932940370309392e-02) (116, -2.89749146011579646054e-02) (117, 6.55891052940438673557e-02) (118, 1.01559627856598194695e-01) (119, 5.91175042376046247505e-02) (120, -1.36999475110545054779e-01) (121, 3.24791485168738902622e-02) (122, -1.09846239038609558292e-01) (123, 5.16030912818434550626e-02) (124, 5.46177797073262635136e-03) (125, -2.01644265583496087868e-02) (126, -8.56082822415365346513e-02) (127, -9.74735899067386557526e-02) (128, 1.82279318010139419759e-02) (129, -7.67694792797651431870e-02) (130, -7.82516839118893026139e-02) (131, -3.94677022036943499217e-03) (132, -2.93187463142833976137e-02) (133, 2.58450780558582317303e-02) (134, -9.94857113512281759915e-02) (135, 4.09734013958343717965e-02) (136, -2.85133335367675176675e-02) (137, -7.21821098527929555511e-02) (138, 8.73876242314472750916e-02) (139, 1.60083852772926166219e-01) (140, -4.48312032253828998685e-02) (141, 1.06763742002937603304e-01) (142, 3.10753883239894383717e-02) (143, -9.90233105013960529517e-02) (144, 2.20289160756699659016e-02) (145, -1.08347266051652610375e-01) (146, -1.18288560194964600947e-01) (147, 6.85982194930710442726e-02) (148, -2.53249719767870348774e-02) (149, -3.41388764187499776925e-02) (150, 8.87207772515022710658e-03) (151, -6.71697580123017806697e-02) (152, 1.55122922208380323306e-02) (153, -6.74298561155112739784e-03) (154, -1.02195098804850545426e-01) (155, -1.16256498970955815531e-01) (156, -9.07007668011899415884e-04) (157, -1.64408403521674572733e-04) (158, -9.03730118262455750511e-02) (159, -8.42938359313988583299e-02) (160, -1.21578808921918191110e-01) (161, -2.38670274343001555944e-03) (162, 5.74332418890358895047e-02) (163, 4.36740210754193308729e-03) (164, -1.88351800232801902535e-02) (165, 6.14791103745900222033e-02) (166, -1.11991803991887572955e-01) (167, 7.17884883578943228111e-03) (168, -5.00508185541848893418e-02) (169, -5.60932380696081700489e-02) (170, -6.50460986977799415776e-02) (171, -8.15243999399165170106e-02) (172, -6.99152765892554345362e-02) (173, -3.31968302947751522924e-02) (174, 3.59049593496078567334e-02) (175, 2.55579991805373780978e-02) (176, 2.19995346884800935250e-02) (177, 1.75164368585778301712e-02) (178, 2.75520523374375931117e-03) (179, 1.04821927028813169369e-01) (180, 1.47566475397795538599e-03) (181, -1.34972071970879459180e-01) (182, -6.64273029681551191450e-02) (183, 5.68869105433025268326e-02) (184, 6.10346900387975926927e-02) (185, 3.85759177558230503466e-03) (186, 7.04992222621241143576e-02) (187, -8.19557403776208920343e-02) (188, -9.94837325865355615040e-02) (189, -1.03123034064263582876e-01) (190, -8.11702855341376178222e-02) (191, -6.51143989492134339647e-02) (192, 3.23931557706417863618e-02) (193, 1.25410829564909676037e-01) (194, 6.52333595907771957023e-02) (195, -4.68959434139457898016e-02) (196, 1.22063353068889331177e-02) (197, 4.15766271345773194557e-02) (198, -4.57393280382638531267e-02) (199, 1.07519389950201618711e-01) (200, 1.22884504647675044109e-01) (201, -9.87034803880614507177e-03) (202, -8.41814812041628696138e-02) (203, -1.23278454240687659893e-01) (204, 1.14728940747320623528e-01) (205, 5.37313164484416808109e-02) (206, -3.81351807562330764531e-03) (207, -1.02296625226914565665e-02) (208, 6.56326587459759441812e-03) (209, -2.52843197353066970190e-02) (210, -4.75182581195439240895e-02) (211, -6.19954682558587974461e-02) (212, -3.55666287601651212591e-02) (213, 7.69838710810240162141e-02) (214, 9.60354658404229816204e-02) (215, -1.32822836741830763163e-01) (216, -9.17330640610193176476e-02) (217, 1.43424697029893351979e-02) (218, -3.66918882189705836128e-02) (219, -1.31610985729469845418e-02) (220, 1.16099944647567995815e-01) (221, 3.19305171891477723722e-02) (222, -8.54464661319484924951e-02) (223, 1.17381879519861329064e-02) (224, -2.86209780607989960899e-02) (225, -9.52710082058661478221e-02) (226, -3.36921841295807072969e-02) (227, -1.42685241308606741706e-01) (228, 7.84227631354605658753e-02) (229, -9.44304307498060185866e-02) (230, -9.72835542048787332847e-02) (231, 1.14783263968617280093e-01) (232, 8.65947799690099453973e-03) (233, -4.46945156215832334334e-02) (234, 4.27648454299520350275e-02) (235, -5.38317559131619993718e-02) (236, -9.98901597920003880837e-02) (237, 3.07873598888004536278e-02) (238, -1.45464752352679665970e-01) (239, 3.92788049622327523069e-02) (240, 3.26537786546232319806e-03) (241, -4.99392699127957587907e-03) (242, -6.62088278946274116921e-02) (243, -2.03689412433144360903e-02) (244, -1.18118914764197821543e-01) (245, -6.05855724669373194025e-02) (246, -4.91808474962246167106e-02) (247, -1.02657861622919052702e-01) (248, 1.05767964673350617355e-01) (249, 9.29023627488706899014e-02) (250, -1.85286216067694388399e-02) (251, 3.28484442541958354678e-02) (252, -4.52200765598348500274e-02) (253, 5.33926102248724193666e-02) (254, -4.61214054789310171079e-02) (255, -6.62535993822071234138e-02) (256, -1.86298348925680173904e-01) (257, 4.24438405081294309329e-02) (258, 9.65681151402635919168e-03) (259, 7.20512130973063186223e-02) (260, 6.48906015187391965737e-02) (261, -4.73167798900074512009e-03) (262, 6.93369259872014670476e-02) (263, 1.67206085612620070080e-02) (264, -1.29540999585057020616e-01) (265, 8.27663776691907326910e-02) (266, -8.65641235455116009323e-02) (267, -1.56822521529254688133e-01) (268, -4.14268739139277905603e-02) (269, -7.71238206719627589214e-02) (270, 7.26681518946781235258e-02) (271, -7.83666354389723207596e-02) (272, 6.00418121630581155812e-02) (273, 1.68217784859800462138e-01) (274, 8.12888400575299402417e-02) (275, 5.84205542442233563549e-02) (276, -1.10796084837553460156e-01) (277, -1.28987368341490660217e-01) (278, 1.93875038143450466321e-02) (279, 1.66919103688175168854e-01) (280, 5.76003136956068292895e-02) (281, 5.93839545192640441695e-02) (282, 2.29417219370884120644e-03) (283, -1.47100166561408313148e-01) (284, 7.29579452618894092053e-02) (285, -9.84267094787533297628e-02) (286, -7.00852777448580238628e-02) (287, 9.91999467080535018981e-02) (288, -6.49303491567020107933e-02) (289, -5.86598317423122975200e-02) (290, 2.11995955868668484179e-02) (291, -1.71437140258867332099e-01) (292, 9.69508117243765010773e-02) (293, 7.58900769059922281762e-03) (294, -3.95537654336146834999e-02) (295, -1.70219219502101781760e-01) (296, -7.51161905496348786260e-02) (297, -1.31152988797720217867e-02) (298, -7.37228562786942237528e-02) (299, 2.99435241014473670085e-02) (300, 4.80340694629401154803e-02) (301, -1.28021273736400237331e-01) (302, -2.59325095085771346881e-02) (303, 4.11208013511786818484e-02) (304, -1.37789676981694475533e-01) (305, 6.74738016370842325076e-02) (306, 2.68483517671794964798e-02) (307, -1.68723060909797051288e-01) (308, -1.95152453750940396704e-01) (309, -3.16881759569666160425e-02) (310, -1.11674077854278935851e-01) (311, 5.18721403112986298445e-02) (312, 9.54040956244174426226e-02) (313, 1.09473605199488566164e-01) (314, 1.30483748767106971789e-01) (315, -6.57905063207889218013e-02) (316, -1.66608766410537123548e-01) (317, 2.03750576961497752160e-02) (318, 2.64767082406682195683e-02) (319, -8.32531574383817279950e-02) (320, -4.99913139755636948269e-02) (321, -1.78927685151814251652e-02) (322, -1.04381604908356309669e-02) (323, 6.95939289145399153647e-02) (324, -9.39859988427026865621e-02) (325, 9.94815196215270980407e-02) (326, 4.54531815498700197953e-02) (327, -1.03165511156047273733e-01) (328, 3.43095292081499539383e-02) (329, 1.36765822526845742813e-01) (330, -6.80270751798746214911e-02) (331, 4.54483611165745760019e-02) (332, -4.37564833633986806014e-04) (333, -7.17563654775924542051e-02) (334, -4.99146103886919691173e-03) (335, -6.74967565743546799029e-02) (336, -7.57095111396635378487e-02) (337, -1.36987285787236706680e-01) (338, -1.01379482446022056025e-02) (339, -6.24981662980459151679e-02) (340, -1.77179792387325035774e-01) (341, -6.46980747257504869990e-03) (342, -8.34827474650217116192e-02) (343, 4.66043185789497271809e-02) (344, -5.71327460672290468602e-02) (345, -1.55359796701208946468e-01) (346, 3.64252456151501272097e-02) (347, -5.24789454530043691927e-02) (348, -7.37425496878919561894e-02) (349, -4.88304120815986550386e-02) (350, -5.31726744748891103076e-02) (351, -7.54938980711925833322e-02) (352, 5.83800732048116444162e-02) (353, 1.18814968472064824700e-01) (354, 7.51168997875228117156e-02) (355, 8.60873703438472526184e-02) (356, 9.38186399491437034159e-02) (357, 3.87144099934666890972e-02) (358, -5.21024686136503240030e-02) (359, 1.14352805804248600086e-02) (360, 8.93047281973377293784e-02) (361, 1.99835548266499643533e-02) (362, -7.16835212921893005777e-02) (363, 3.95728559453341517671e-03) (364, 7.21569519192633429538e-02) (365, 1.64644452150522653533e-02) (366, -8.62673852807827601374e-02) (367, 1.05888000038006677150e-01) (368, 4.06460929854940283823e-02) (369, 7.21417123891539193575e-03) (370, -9.44867870846986951383e-02) (371, 5.96146683656156722853e-02) (372, -5.95701160556562428483e-02) (373, -5.27207737414523841535e-02) (374, 5.63736655301764946063e-03) (375, -6.88461031076582491428e-02) (376, -9.06132014557876480643e-02) (377, -4.25358515635761366691e-02) (378, -2.72649590940217158297e-02) (379, 7.30601244460929097335e-03) (380, 3.36004924161361351320e-02) (381, -7.91648018284198534689e-02) (382, 1.03260452039503444754e-01) (383, 5.92172582011757028808e-03) (384, -9.08288299009129135309e-02) (385, 5.76933895705918770025e-02) (386, -1.73185627381571630168e-02) (387, 5.57305761387738157753e-02) (388, -4.07980306724805286134e-02) (389, 5.10552404756626620336e-03) (390, -3.65481148200361427580e-02) (391, -1.07601589923882509647e-01) (392, -8.34036939053110944198e-03) (393, 1.76736877840748887736e-02) (394, 3.41762411957985470790e-02) (395, -9.12188748842809316031e-02) (396, -1.90733951239993593241e-02) (397, 1.26808616333443230362e-01) (398, -1.02933765852934386298e-01) (399, -9.39210014152691147205e-02) (400, -4.07970593560156354757e-03) (401, -8.18149965297945841458e-02) (402, 6.22669106277350531409e-02) (403, 5.25384269258839711053e-03) (404, -2.42585877150771761501e-02) (405, -3.07645226302924942874e-02) (406, -1.09793933252087402841e-01) (407, -1.41218027297440092832e-02) (408, 6.14307581578629954833e-02) (409, 1.86129421172541512086e-02) (410, -4.76879907712239592410e-02) (411, -1.45155528510999397990e-02) (412, 8.29758080623601845804e-02) (413, -1.31073553467853046867e-02) (414, -8.17269531803042903473e-02) (415, 6.96648793579897340766e-02) (416, -1.33942898864121556768e-01) (417, -3.03597158431766454834e-02) (418, 1.48889586220571253083e-02) (419, 2.96080385945914487111e-02) (420, -4.60716405406042736614e-02) (421, 8.56744456455417191520e-02) (422, 3.05345202914169555619e-02) (423, 1.19784622852378234287e-02) (424, 3.22167643856107951961e-02) (425, -9.33093163304237090128e-03) (426, 1.04003506249815825917e-03) (427, 5.66378233326697427819e-02) (428, -2.47406690767104572859e-02) (429, 1.38618628249635583716e-01) (430, 8.92082524616710920151e-02) (431, -1.40620445951035011323e-01) (432, -1.92729907356240133531e-02) (433, 2.73034876181031775644e-02) (434, 1.43172826636405754047e-02) (435, 2.75013186188143195221e-02) (436, 1.76652919274760469848e-02) (437, 5.47830043975315317262e-02) (438, -5.37582855787764948841e-02) (439, -2.12426307118411920871e-02) (440, -4.61011245852650519694e-02) (441, 2.00665072028047841712e-02) (442, 3.24405176402465245111e-02) (443, -7.71413925136818223738e-02) (444, 1.06337494201810808803e-01) (445, -1.30239723765554871182e-01) (446, -1.63888655270344185677e-01) (447, 1.08641934295503159169e-01) (448, -7.60685930151538958199e-03) (449, 4.63573887365128431415e-02) (450, -3.20919300041379376709e-02) (451, -2.42441334783228684691e-02) (452, 4.74340203560179862752e-02) (453, -4.38878352633691598550e-02) (454, -3.26493244607595420326e-02) (455, -5.07417971477038473593e-02) (456, -2.30596130757339690814e-03) (457, -4.40465399601975421406e-03) (458, -4.40112593535384316601e-02) (459, -9.82241705315975016655e-02) (460, -7.88665908315992897348e-02) (461, -6.31457909976177456102e-02) (462, -9.78780541422220456971e-02) (463, -3.41170717494513608958e-02) (464, 9.56436104094483541260e-02) (465, 6.66046534511003374135e-02) (466, -6.65112601984316348380e-02) (467, -5.56039950753107747872e-02) (468, 1.68719546713133432270e-02) (469, 1.31120849291542513476e-02) (470, 1.85389975097086032174e-02) (471, 8.11296063148462531789e-02) (472, -2.52263687438379832773e-02) (473, 2.31330751695864311746e-02) (474, 1.16952324091788850691e-02) (475, -1.03107346965509216741e-01) (476, -3.38661401158582217596e-02) (477, -9.85236782332493503389e-03) (478, -4.77476468304299794809e-02) (479, -9.01010060999010431448e-02) (480, -4.07922444068840317488e-02) (481, 1.79402659678570726431e-02) (482, 5.46935974350286763235e-02) (483, -5.56472535946577681609e-02) (484, 8.93667970741795353318e-02) (485, -3.03491765928846531086e-02) (486, 6.63444250160404591643e-02) (487, 9.29336494514768768349e-03) (488, 1.69860150595483247460e-02) (489, -4.53901352828307153020e-02) (490, -1.88650032097455767899e-02) (491, 1.17448493177193552528e-01) (492, -4.16742290822693303709e-02) (493, -5.43970445998500778950e-02) (494, 1.38635248707176389482e-02) (495, -2.52595776105504314646e-02) (496, -7.99909306048651388976e-03) (497, 5.11249809467240259875e-02) (498, 4.61893201335208114511e-02) (499, 8.82521841509381343993e-02) (500, -6.52144783519309073627e-02) (501, -4.07000264495458799474e-02) (502, 5.00953426344483004895e-02) (503, 1.05116063440779776428e-02) (504, 9.13881042276561555981e-02) (505, -7.61306865333459259482e-02) (506, 1.34509432484514107609e-01) (507, -3.95683925634035746355e-02) (508, 4.70161018672754830137e-04) (509, -1.16999364392194354911e-01) (510, -2.32665291646129632208e-02) (511, -3.89059707128260809372e-02) (512, 5.05575370444281205207e-02) (513, -4.04551765151614506344e-02) (514, 1.56062706398313443684e-02) (515, -3.85497753873045856388e-02) (516, 7.45339959201051505122e-02) (517, 4.78491804092950265281e-02) (518, 6.87771047677535607434e-02) (519, -2.40165325470477475367e-02) (520, 6.91391639775672667279e-02) (521, -7.52545979722080982111e-02) (522, -6.72936188482958497215e-02) (523, -1.05200409982712794754e-01) (524, 6.54773685925371263378e-03) (525, 6.29061718916015255587e-02) (526, -4.90823746441275132746e-02) (527, 1.41506908841123324461e-01) (528, -2.71446630935581884048e-02) (529, 3.98067536495998949841e-02) (530, 6.09376176632298593994e-02) (531, 7.78470738175955773164e-02) (532, -7.28124467229942368141e-02) (533, -1.29930197053010100527e-02) (534, -4.34729497114102678146e-02) (535, 3.82157629145198698972e-02) (536, 3.66713593698532111520e-02) (537, -9.35758064523425914238e-02) (538, -1.21535915271848135588e-01) (539, -3.34418512686369684417e-02) (540, -7.99284910833516215600e-02) (541, -1.63905479079697290190e-02) (542, 1.57102327520162107777e-02) (543, 4.05209416467331856593e-02) (544, -1.26766734040620582258e-01) (545, -8.95090032787138611958e-02) (546, -2.19885390237680861114e-01) (547, -5.13019042909892628024e-02) (548, -1.16142429864337509704e-01) (549, -6.31354678058209384250e-02) (550, 5.90411215119360857639e-02) (551, 2.74028139861197429783e-02) (552, -5.98168875051218809635e-02) (553, -1.03275736940279125320e-01) (554, 7.30971925662876886864e-02) (555, 7.66700637971095971812e-02) (556, 5.62538823226146553202e-02) (557, -3.28955107498511908903e-02) (558, 1.84339962863315859343e-01) (559, 3.07364247892846463583e-02) (560, -5.31047577206208570866e-02) (561, 1.51178772759703844430e-01) (562, -3.30982544275865361860e-02) (563, -5.21007533962216384804e-02) (564, -9.43728736659911471296e-03) (565, 3.69759443050764746719e-02) (566, -9.12365378530620579900e-02) (567, -6.67914224276841272943e-02) (568, 9.64623982388799483534e-02) (569, -3.64926978482082303712e-02) (570, -3.22854588763513000726e-02) (571, 1.15905886370906152649e-02) (572, 8.18387804105726035520e-03) (573, 4.56613497474677720867e-02) (574, -8.53333255820483693732e-02) (575, 9.65017431099237932290e-02) (576, 1.82740352983878001636e-01) (577, -2.84224059191323895346e-02) (578, 4.40150049477916471830e-03) (579, -6.05705365141661206119e-02) (580, 8.23925323073913112859e-02) (581, -4.15846223852111632202e-02) (582, 1.69926453483966510838e-01) (583, 1.62366560827975292547e-01) (584, -6.47441014295651179333e-02) (585, 9.63342295534391629408e-02) (586, 1.08711374149430148317e-01) (587, 9.99948420303287260902e-02) (588, 9.47604133083993771525e-02) (589, 1.91987142385325465499e-02) (590, -8.69030305085146809185e-02) (591, -9.07565876486943201584e-02) (592, -1.44194992379662705051e-02) (593, -6.59607665383021568584e-02) (594, -2.79289509446161050843e-02) (595, 5.71991611713440900600e-02) (596, 3.62118657866133467071e-02) (597, -3.05488183081546842146e-02) (598, -1.12276345567710988949e-01) (599, 8.19719764150289055549e-03) (600, 2.45320978495213171122e-02) (601, 4.26286007462561289394e-02) (602, 1.93388758451916824288e-02) (603, -1.44449175471755945910e-02) (604, -1.18323022671425644170e-02) (605, 2.63927941682469899276e-02) (606, -5.33891508632819006275e-02) (607, -1.78678462811439030256e-02) (608, -1.06086288502554124125e-01) (609, 5.98284012387218910173e-03) (610, -9.58927294811884600723e-02) (611, 6.10030833961788254705e-02) (612, 2.06409316026994393498e-03) (613, -1.04582819063961135475e-01) (614, 8.91973328001125290165e-03) (615, 2.23755395004508715606e-02) (616, 6.37378123552335418278e-02) (617, -2.45068636553055878291e-02) (618, 9.56142806784105424300e-03) (619, 7.05468673757434355798e-02) (620, -4.87785452100076705184e-02) (621, 4.78093934063093528586e-02) (622, -1.22168363057892956358e-01) (623, 4.71635309305538513724e-02) (624, 8.87498216929950567433e-02) (625, -4.64960014947591523948e-02) (626, 6.26690328192100326588e-02) (627, 4.24202675524463015955e-02) (628, 1.12879938915572009678e-02) (629, 7.05580831474391101388e-02) (630, -5.36674031469894299851e-02) (631, -6.10015236066108884616e-02) (632, 1.08255405590108599867e-02) (633, 2.43565427752317348320e-02) (634, 4.01589461203018527335e-02) (635, 7.74155072505515740033e-02) (636, -9.88345861372156297975e-02) (637, 3.56784519154709281463e-02) (638, 5.67127506428265065752e-02) (639, -3.61652186981204215588e-02) (640, -5.03558461315833788552e-02) (641, -1.77787783865468729250e-01) (642, -2.41771511462572030737e-01) (643, 7.15897469383473677995e-02) (644, -2.94499222022264472987e-01) (645, -4.23748687354428388296e-01) (646, 4.34671540254605581755e-01) (647, -2.40446757053428966655e-01) (648, -1.23707532125024347036e-01) (649, 1.85026962169492804888e-02) (650, -2.11123833989953380019e-01) (651, 8.34354807450490981724e-02) (652, -1.01250428216272406190e-01) (653, -1.50626069378967331058e-01) (654, 5.43887467056459739112e-02) (655, -1.16399831354799906946e-01) (656, -5.20482684050970825784e-02) (657, 1.86272564703920506801e-01) (658, 5.81269508004064461293e-02) (659, -1.08216384099566631516e-01) (660, 2.96357630539617125653e-02) (661, -6.59883013572313825712e-02) (662, -1.71244889913235720513e-01) (663, 1.26994504763444537865e-01) (664, 4.37152913249343744173e-02) (665, 4.27952933082860476066e-02) (666, 4.23370867623344415698e-02) (667, -1.04092926783484904241e-01) (668, 1.30768902334635565149e-02) (669, 2.04242638611376939317e-02) (670, -4.94727156779366378236e-02) (671, -1.29483961023947852231e-01) (672, 7.11016953329671325124e-02) (673, -2.02488536615437857147e-02) (674, 2.64577047490615162306e-02) (675, 1.42832286782725303986e-01) (676, -9.23383784385019834584e-02) (677, 5.67944713629756278706e-02) (678, -5.94870792221230404451e-03) (679, -5.66495443455279149014e-02) (680, -3.48925008792573196348e-02) (681, -1.99139355012509268461e-02) (682, 1.13093441386263676707e-01) (683, -8.65225721568877170764e-02) (0, 5.89826019156903663676e-02) (1, -6.52411050488760080324e-02) (2, -1.10689890660770236253e-03) (3, -4.94384870868552900314e-02) (4, 2.42315896301131469825e-02) (5, -5.38340146219324355847e-02) (6, -4.93393621567178655707e-02) (7, 8.49813042572877264114e-02) (8, -1.10034788910886270619e-03) (9, -2.69970348500293312599e-02) (10, 3.15359322424725446732e-02) (11, -7.23004152433673469291e-02) (12, 5.65620929774716327265e-02) (13, -2.40926717593693551223e-02) (14, 4.17008377882162051264e-02) (15, 1.34896695032867830477e-02) (16, 1.00146201809548866107e-02) (17, 1.70793047443100198812e-02) (18, 4.42030437614032781224e-02) (19, -9.84559491609961062730e-02) (20, -1.67416203947116565276e-01) (21, -1.85917515553352036273e-01) (22, 3.73160089812423906297e-02) (23, 2.05147791188679540220e-01) (24, -6.04334005532367463109e-02) (25, -1.75326299089516857155e-01) (26, 9.18418710056864567859e-02) (27, -8.93601141630074868871e-02) (28, 6.67076836091211183843e-02) (29, 3.90286101984228667172e-02) (30, -1.28923954949247743240e-01) (31, -1.14422379559812922856e-01) (32, -9.69717064253161203924e-02) (33, 6.82383736555565723059e-02) (34, -1.26135892255161891073e-01) (35, -2.34345708771228206091e-02) (36, -1.26343723772995852883e-01) (37, -1.32628673875324287756e-01) (38, -7.66324030118300386638e-02) (39, -7.89009055873854114882e-02) (40, 1.33966703347983162598e-01) (41, 3.53568862251534762886e-02) (42, 7.61010128718210988180e-03) (43, 3.58119655303891504250e-02) (44, -1.48034459446591298848e-01) (45, 7.39501334780993772877e-03) (46, -1.86652088098150703566e-01) (47, 1.20231279534818838450e-01) (48, 1.06255863258422941775e-01) (49, 2.56390868401988082648e-02) (50, -1.12326503592911172702e-01) (51, 3.11044152911073047696e-02) (52, -6.31851343530489412137e-02) (53, 3.49309284465015995602e-02) (54, -8.83855790255377860021e-02) (55, 1.57198483270877875650e-01) (56, -1.41517856896046234638e-01) (57, 6.43403482676640353644e-02) (58, -1.10577776249270523512e-01) (59, -2.43700978303137499870e-01) (60, 2.84914196258120623606e-02) (61, 6.08235267992778202983e-02) (62, -5.15364587346525473976e-02) (63, -2.92520281875821644424e-02) (64, -7.66825296692782119867e-03) (65, -2.43966193745076359578e-01) (66, -1.76063007793103520893e-01) (67, 1.01857176879449951024e-01) (68, 2.53303982457443802034e-02) (69, 6.18917836190908399185e-02) (70, -1.45397835167067279727e-01) (71, -1.55277409706305630221e-01) (72, -1.16125809011842662244e-01) (73, 2.26966526883533858960e-02) (74, 3.64835135363629665950e-03) (75, -6.24471399989573322520e-02) (76, -1.24429184335595757749e-01) (77, 3.24010824303452432682e-02) (78, -1.47746644715939512427e-01) (79, -1.76420941673024911367e-01) (80, 1.48598622720961137667e-01) (81, -8.50657104864325358529e-02) (82, 7.14693000539670802995e-02) (83, -1.49527838800317641743e-01) (84, -8.60901025899768815308e-03) (85, 7.74488576743346812670e-02) (86, 1.01953354214210048512e-01) (87, 1.25905417562106630713e-01) (88, 3.94445399816474168153e-02) (89, -2.24524991347452330948e-02) (90, -1.21506057797437713730e-01) (91, 4.31101015264130360549e-02) (92, -1.14349025250522179364e-01) (93, 1.03690996237345040010e-01) (94, -8.63069612611994801954e-02) (95, 1.31109625729256024096e-01) (96, -1.32991170810168229943e-01) (97, -1.10770550483956439769e-01) (98, 2.83260967318146282545e-02) (99, -5.03413179114078901399e-02) (100, 1.18764102722088815689e-01) (101, -8.36617255511433732806e-02) (102, -2.00363262722729057463e-01) (103, -2.67119460369532775446e-02) (104, -7.36638125161856310852e-02) (105, 6.24011771777937887529e-02) (106, -1.24147165573466871508e-02) (107, 1.86072079266354239481e-03) (108, 1.26720545796640382541e-01) (109, 2.53108936936488226888e-01) (110, 4.46097044190319341750e-02) (111, 7.22497628895846094599e-02) (112, -7.63950604835945817905e-02) (113, 2.71104903138489235215e-02) (114, -2.18360578520312820228e-01) (115, -6.27200440777063716880e-02) (116, 3.02503845080118833819e-03) (117, -2.68214358989451616064e-03) (118, -1.13102943129298930125e-01) (119, -1.52065930164525381363e-01) (120, 1.95382548054069890564e-02) (121, -2.00267308700408652733e-02) (122, -1.74232694524936809755e-01) (123, -1.12546643880541100136e-01) (124, -4.56743822579450189925e-02) (125, -1.31050579912013132056e-01) (126, 1.11805216437186133449e-01) (127, -1.37894799597427925031e-01) (128, 1.69339556961209322661e-02) (129, 2.61010543556489463257e-02) (130, 1.37693161048182188821e-01) (131, 4.48641863109688759925e-02) (132, 2.75395667769996813079e-02) (133, -9.16389336024494294275e-02) (134, -1.67020575407794344414e-02) (135, -8.33625479500142846367e-02) (136, -9.07921102364997040235e-02) (137, 4.21539207870867405070e-02) (138, 2.18165161322940365229e-01) (139, -6.12605580892446113794e-02) (140, 5.51824320298876999646e-02) (141, 2.53161719615324770638e-02) (142, -6.03182499174191588676e-02) (143, -9.92210259717638126675e-02) (144, -1.32180369973080663604e-01) (145, 5.99431392182810732217e-02) (146, -1.77523098052540961866e-01) (147, -3.70074133331965288152e-02) (148, -1.21559495431472833205e-01) (149, -2.07181236006472896394e-01) (150, -9.92376839449149450445e-02) (151, -1.61263837298642798146e-01) (152, -1.70692825950998980367e-02) (153, -7.83732925975166305754e-02) (154, -2.11719914307251261265e-01) (155, 5.72192621558098302170e-02) (156, 9.30731351766993370012e-02) (157, -1.09376930184178530747e-01) (158, 9.80101786354054538286e-02) (159, -1.07471469043130304910e-01) (160, -4.92426851208784960301e-02) (161, -1.62696406495910883550e-01) (162, 1.87128549905804797415e-02) (163, -1.58784041979260936994e-01) (164, -9.34067993980128852272e-02) (165, 7.98209369112188107942e-03) (166, -9.91938133351153300543e-02) (167, 1.01281201971252746152e-01) (168, 9.34350131482933887739e-02) (169, -2.21415340238637042836e-01) (170, -2.42605708363526455240e-02) (171, -1.08341178586814357310e-01) (172, 1.70290225439841749755e-02) (173, 8.54388991871328634664e-02) (174, -1.73135960618555795332e-01) (175, -1.11068385073070541313e-01) (176, 3.00837480626111146431e-02) (177, -5.57329817803924112973e-02) (178, 1.29386647666044601879e-01) (179, -1.87410443908033796934e-01) (180, 8.49214062898095145560e-02) (181, -1.66792464311157184742e-01) (182, -4.56747614075987545812e-02) (183, -1.55646872511006534312e-01) (184, -7.48342913905279683018e-02) (185, 2.75677145386412584399e-03) (186, -1.18859364999009523012e-01) (187, -7.43748910012640152001e-02) (188, -7.87885655068684132019e-02) (189, -5.82985625516812058788e-02) (190, -1.32142671264996680591e-01) (191, -1.60403803892298808809e-02) (192, -3.61235628584371526451e-02) (193, 1.55471436266704267359e-03) (194, 5.40860976501506343639e-02) (195, 1.21255562516223974051e-02) (196, -7.88705821390325162445e-02) (197, -1.61784133234508728516e-02) (198, 8.06016682619282165412e-02) (199, -3.14982635005817482310e-02) (200, 2.14894886480481994706e-01) (201, -4.21359524059765760962e-02) (202, -3.89432583431004175623e-02) (203, -1.02758056864412167242e-01) (204, -8.98652628761080203394e-04) (205, 4.16584072038037878105e-02) (206, -3.03693948132656502126e-02) (207, 3.15303355088885281510e-02) (208, -1.01365209650360593024e-02) (209, 4.49390681214281786926e-02) (210, 7.86950762518547584923e-03) (211, -4.03730680706762823373e-02) (212, -6.34093186098206029744e-02) (213, 1.32268576555058053890e-01) (214, 1.13687511620495340647e-01) (215, -1.10438365061134753653e-02) (216, 5.13963741056113060379e-02) (217, -1.29391197961542581130e-01) (218, 1.20311953737598217873e-01) (219, -1.59968713632156922522e-01) (220, 6.86553380636000937232e-02) (221, 9.45886122378363364271e-02) (222, -1.57688575144478065893e-01) (223, -7.28908607844634681694e-02) (224, -1.01766031496297676417e-01) (225, -9.99302087869676780585e-02) (226, 1.02768719816236624859e-02) (227, -1.18228067472413281291e-01) (228, -2.61762866971234180180e-02) (229, 1.24731002663983958634e-01) (230, 1.69868471103679224976e-01) (231, -2.30362735113867123093e-01) (232, -8.85851443303075358759e-02) (233, 2.35210378898693922567e-01) (234, -2.19260776302264495663e-02) (235, -3.01903707771624951750e-01) (236, -2.31335016205556354141e-01) (237, 1.02693071998309140569e-01) (238, 1.95373558179146838976e-01) (239, -5.22190099680409913763e-02) (240, 6.69612411021254239074e-02) (241, 5.50787207860032046458e-02) (242, -1.55753132890080765033e-02) (243, 1.96998973414585942798e-01) (244, -9.27776646318310277417e-02) (245, 3.05107285954971194780e-03) (246, -2.74992407956327553076e-02) (247, 1.26817682153021638047e-01) (248, -1.41008208306854149194e-01) (249, -1.30348166033110945961e-01) (250, -2.22666722696170403311e-04) (251, -1.06241652978686929032e-01) (252, 1.24548774714485603610e-02) (253, 1.32878120661124032864e-01) (254, 1.45135604078433178010e-01) (255, -2.32381918835247135158e-02) (256, -4.96977783704458872527e-02) (257, 4.42173092236261625065e-02) (258, 1.79589842217808631775e-01) (259, 7.97767706468569502698e-03) (260, -1.53505450132319004597e-01) (261, 1.25471087833692401814e-01) (262, -7.25235704036635980829e-02) (263, -1.64105169686733151635e-02) (264, 9.02421362868887771969e-02) (265, -1.08216302873183803368e-01) (266, -1.92261348640106119467e-02) (267, -1.73323362772923483810e-01) (268, 2.60389530563068629168e-03) (269, 9.48947414052005305818e-02) (270, -2.17744653759334265419e-02) (271, 1.66463722056775342839e-01) (272, 7.78637743664980543079e-03) (273, 1.05183143990942112866e-01) (274, 1.36875338262684009133e-02) (275, -9.63921229316717226299e-02) (276, 2.41910635118280648026e-02) (277, -8.94000194000628273239e-02) (278, -1.16856606001865551137e-01) (279, 4.08337774862291766342e-02) (280, 2.80109433629468253246e-02) (281, 4.88034910585376721648e-02) (282, 8.55445513637827226194e-02) (283, -1.68008061861111626656e-02) (284, 2.02924870940211776738e-02) (285, -2.20383475702959456821e-02) (286, -4.95317188827291369352e-03) (287, -3.04460610588485114381e-01) (288, -2.82835124028795875661e-02) (289, -1.54473828945673657964e-01) (290, 1.10696689779431187151e-01) (291, 1.50401996157671330456e-01) (292, 1.14251884385328586480e-01) (293, 1.27305439335034693837e-02) (294, -8.77301291758718210234e-02) (295, 2.06703398321060161091e-01) (296, 2.52114124960689078847e-01) (297, -1.69726911984413419976e-01) (298, 1.91827497991405193645e-01) (299, 2.77408751561109334638e-01) (300, -5.18750413262846071794e-02) (301, 1.79172817841091513991e-01) (302, 7.17312057584203327520e-02) (303, -1.07865115758236179699e-01) (304, 1.56020917879405196516e-01) (305, -4.08122903169427370118e-02) (306, -1.79483555906468278396e-01) (307, 1.36312912216492082562e-01) (308, 2.07626064497332785130e-01) (309, 1.90675018719669797651e-01) (310, 1.62095635388302293164e-03) (311, -6.63691376773417468504e-02) (312, -1.53352463234463463893e-02) (313, 1.47346133268473317157e-01) (314, 1.57035516397846623693e-02) (315, 4.34012136039235996154e-02) (316, 3.15766347639215155807e-02) (317, 2.05855974517182155337e-02) (318, 7.97434880067082879629e-02) (319, 1.37109918143213799224e-01) (320, 4.81159677032764240140e-03) (321, 5.42128828444021979016e-02) (322, 1.75738525275233814504e-01) (323, 5.74213092695060895593e-03) (324, -7.02136077325950513917e-02) (325, 3.72298129763276725024e-02) (326, 1.04084038337873829860e-01) (327, -1.64798528391423781958e-01) (328, -8.48274128606072291836e-02) (329, 7.16618534968179732303e-02) (330, 3.08395894569482229008e-02) (331, -3.33285111057479016550e-02) (332, 5.06092458068999398457e-02) (333, 1.11599932966680425589e-02) (334, 4.87029476905738306636e-02) (335, 1.63612126969961413359e-01) (336, -9.33008415364669496661e-02) (337, 3.37499030230466665059e-02) (338, 1.88770407214974740573e-02) (339, -3.54872586010207130558e-02) (340, 5.47465143013318306098e-02) (341, -4.35977058830230856934e-02) (342, 3.91527067045761428821e-02) (343, -4.65073000312137968537e-02) (344, 3.90323704456857836775e-02) (345, -2.24036672578588683113e-02) (346, -2.57424179346713299932e-02) (347, -2.00570543537041512394e-01) (348, -1.24562869116601429575e-01) (349, 1.40256106370069966172e-01) (350, -6.56491747019722904355e-02) (351, -3.25731395271311174877e-02) (352, -7.01747694152808354495e-02) (353, 2.35184092571543407191e-01) (354, 9.60915148346184605499e-02) (355, -7.50615793967530364750e-02) (356, -3.87454936715857234386e-02) (357, 9.07980876358193411679e-02) (358, 9.19289129079233074959e-02) (359, -7.72074192700389766442e-02) (360, -3.19288362694333666125e-02) (361, 7.49944495914369457790e-02) (362, 1.20554220329829823305e-02) (363, -2.24387399452835346880e-02) (364, 1.41494173031243581501e-03) (365, 1.15306282372676385806e-01) (366, -3.63576375603714974094e-02) (367, 8.34879982106138118780e-02) (368, 2.74522181160886911966e-02) (369, 1.57256224443096892518e-01) (370, 8.53018904451666726274e-02) (371, 7.06128515383422361573e-03) (372, 3.52361784283398288276e-02) (373, 1.53738984796324834603e-01) (374, 1.72990510890283277767e-01) (375, 7.73552055097181945342e-02) (376, -1.35003064280862894453e-01) (377, -7.41390572052956497995e-02) (378, 1.71477101836707473970e-01) (379, 5.61663315529426702792e-04) (380, -2.89519290846886601098e-02) (381, -9.73767410109127456996e-02) (382, -5.06535339680708462939e-02) (383, -1.95448821280222090335e-01) (384, 3.16763177502372636485e-02) (385, -3.51020507035518583572e-02) (386, -1.67550377492566876514e-01) (387, 7.22668728613159727647e-02) (388, 3.37859047674448076393e-02) (389, 9.87820302690996659978e-02) (390, -9.42114064643847642921e-02) (391, -1.10120035049674547256e-01) (392, -3.66246584076619363657e-02) (393, 1.30228350216117200189e-01) (394, -4.70746058140321943508e-02) (395, -1.52667870984084779601e-02) (396, 1.18435418584378296392e-01) (397, -6.43442655733393598094e-02) (398, 1.64686154982668919722e-01) (399, 1.29440115457923693443e-01) (400, -1.40958231875960571244e-01) (401, 6.84634151808580920795e-02) (402, 6.27061496365685037274e-03) (403, -4.42971671300159408613e-02) (404, 1.48077660712736980386e-01) (405, 4.75055913941471522066e-02) (406, 3.22811209948469174727e-03) (407, 1.18288249331736108894e-01) (408, 6.89364551708274066882e-03) (409, -1.37106531834073314124e-01) (410, -5.62941358776804998132e-02) (411, 2.75253157980963267248e-02) (412, -1.19400514906321961184e-01) (413, 7.78053221137325196066e-02) (414, -5.08549871770374584123e-02) (415, -2.18723377852718114944e-02) (416, -3.88244145798073009290e-02) (417, 1.21896415662085880194e-01) (418, 1.92622580197741505303e-01) (419, 1.51334910423767426968e-01) (420, 3.90243843965658102069e-02) (421, -2.99380853043232711408e-02) (422, -4.55103077108629794356e-02) (423, -8.90951831194226016863e-03) (424, 1.47354308797086691607e-01) (425, 6.65971828032527052299e-02) (426, 3.70072489476453297952e-02) (427, -4.33972284157727802856e-02) (428, 1.07602970497390273974e-01) (429, -2.24720813547345348027e-02) (430, 1.88943186076724084499e-01) (431, -2.68982004785299280702e-02) (432, 1.03982608164046776839e-02) (433, 1.33355884227631338312e-01) (434, -2.32105788902026127785e-01) (435, -1.87740759816047778075e-02) (436, -2.25447495356022884275e-03) (437, 1.03921659647805697535e-03) (438, -1.84091316448156058772e-02) (439, 5.95194832280439498073e-02) (440, 1.97797355967992555259e-01) (441, -7.70295367432936028962e-02) (442, 3.52869717065850130311e-02) (443, -1.97642588774336575019e-01) (444, -4.68584194734196143872e-02) (445, 8.10449747008872983800e-02) (446, -3.47257221255249659553e-02) (447, -1.92806661945700508198e-01) (448, -5.02011542828084758594e-02) (449, -1.13092880180435312321e-01) (450, -1.98150715253037595920e-01) (451, 1.31980812158442817328e-01) (452, -2.27834066251699947359e-02) (453, 5.92343747758924607516e-02) (454, -9.24187678413938978883e-02) (455, -3.28130014945605952281e-02) (456, 1.09449156469469885411e-01) (457, 9.21588151562325180732e-02) (458, 1.32305156282246344501e-01) (459, 2.33908828867240542460e-01) (460, 1.45587577574683407766e-01) (461, 5.28814646581442851514e-02) (462, 9.42393705954334692798e-02) (463, -9.10918181535069343413e-02) (464, -1.58179256428639669618e-01) (465, -1.13591988890347342367e-01) (466, -2.11386090294360562414e-01) (467, -1.10759865028847742652e-01) (468, -2.80709094091942806815e-02) (469, -2.42969124239424405509e-02) (470, -1.92084333625199166207e-01) (471, -1.20295678388516666391e-01) (472, 4.07239617013069755275e-03) (473, -1.00300854300542086062e-01) (474, -7.03178702657566295775e-02) (475, 5.18895046082477259808e-02) (476, -1.04495986757494649377e-01) (477, 1.57737033505729401517e-01) (478, 6.77942940888060646687e-02) (479, 2.11004265254148615227e-01) (480, -1.23990037974008440735e-01) (481, -9.85683624579795046594e-03) (482, 8.28171857955661422368e-02) (483, 5.89854594306519416924e-02) (484, 1.30778687133828647182e-01) (485, 2.27788979213565112580e-02) (486, -1.40451411716994184475e-01) (487, -1.17951888450587905055e-01) (488, -7.26226164297353628252e-03) (489, -1.96970959708400866761e-02) (490, -7.70130020707998907969e-02) (491, -5.97487413171874249401e-03) (492, 2.84161011825483696830e-03) (493, 5.45029739926405909500e-02) (494, -9.98784466658961256336e-02) (495, 1.55336736517637172272e-02) (496, -1.32768333836416896343e-01) (497, -2.76947729644824100492e-02) (498, -6.26001251574726056554e-03) (499, 1.37745824651067175215e-02) (500, -6.41212994499200106269e-02) (501, -1.01566771512251099313e-02) (502, 7.94305542528045832595e-02) (503, -4.63780428427471164143e-02) (504, 7.09889082641508486343e-03) (505, 1.22833507958379106739e-01) (506, -4.58905543825693061633e-03) (507, -1.81515292001285882817e-01) (508, -4.45227180608140857276e-02) (509, 7.43318698417596845918e-02) (510, -6.79560745224502549267e-02) (511, 3.32177268039532957999e-02) (512, -5.91361714501451515846e-02) (513, 3.15515024293307744241e-02) (514, -3.37183801147902043049e-02) (515, 8.33445476925361306009e-02) (516, -6.43258572542199924538e-02) (517, -8.12108233225577041958e-02) (518, -7.02683130239326741995e-02) (519, -1.06324489444653988435e-01) (520, -2.28064607112385200893e-02) (521, 5.09374563020520143564e-02) (522, 1.74358881643973451236e-01) (523, -3.16832447855483617660e-02) (524, 8.01556300532656087858e-04) (525, 6.10381367243613970341e-02) (526, -1.25810605841192579835e-01) (527, 9.47923860194914702504e-02) (528, -1.84906202126494667581e-02) (529, 1.16195015674234302522e-02) (530, 9.53070547366262760258e-02) (531, 1.44575219820629902179e-01) (532, 3.78506428199652245059e-02) (533, -1.69188319920156621246e-01) (534, -2.01380507784420570427e-01) (535, -1.84541233441012281213e-01) (536, -4.00818625150177465510e-02) (537, -2.61298532336587785441e-01) (538, -2.14068740090517517505e-01) (539, -1.56535379471866881174e-01) (540, -1.05542167359971628127e-01) (541, -6.19337349519156754596e-02) (542, -8.11696308929735904636e-02) (543, -5.10110986465814805757e-02) (544, -4.37927336187639515419e-01) (545, -1.50835779145976539573e-01) (546, -4.32485358084615023611e-01) (547, -7.14113335160221768261e-02) (548, -8.24519691378065855414e-02) (549, 1.15411976711100511261e-01) (550, 4.40810071465514291544e-02) (551, -9.94150046843052526135e-02) (552, 9.70380841045314218585e-02) (553, 2.83428799114376003820e-02) (554, 6.66292655493128382904e-02) (555, -4.86847563694751614416e-02) (556, -4.59253421109047238469e-02) (557, -4.45916022557646257729e-02) (558, 7.15227744993388314665e-02) (559, -5.18560680084941064139e-02) (560, -1.88290512641267927807e-02) (561, -1.97852732729572045045e-01) (562, 1.32541375631617552866e-01) (563, 7.03307677465000676865e-05) (564, 1.62867013051071179985e-01) (565, 3.06843652682674605803e-01) (566, 1.04754314232498244031e-02) (567, 8.82838230531719503347e-02) (568, 3.55971236220092579483e-02) (569, -1.39420940112418317858e-01) (570, -5.96592827236937586766e-02) (571, -1.97220676288914265051e-01) (572, -1.39711357710110423147e-01) (573, -1.75367454589897241168e-02) (574, -1.55237867794903144913e-01) (575, 4.35132417907737462093e-03) (576, -1.10347052588112195387e-02) (577, 9.50219219029881795313e-02) (578, 5.75753210613891494574e-02) (579, -2.23036109337668118913e-02) (580, 2.22699623713262850888e-01) (581, 9.33798251952075164528e-02) (582, 4.06414434461971341150e-01) (583, 4.79396330095902545310e-02) (584, -4.23723912002389874187e-02) (585, -7.42998227321088750008e-02) (586, 1.03742385382884910738e-01) (587, 8.99684507706794561743e-02) (588, 3.85672459563270730865e-02) (589, -1.00208967723272368566e-01) (590, -8.07263790031055999963e-02) (591, -1.79398053909425231334e-01) (592, -1.06691401227857154965e-01) (593, -2.59674335335755603060e-02) (594, 3.92302515678610019823e-02) (595, -6.34808797250079742680e-02) (596, -1.06234339349079096038e-01) (597, 3.11910127529696282189e-02) (598, -9.92756690709435812847e-02) (599, -1.31145237866667624393e-01) (600, -7.08444189084025122138e-02) (601, -5.92112901749428863218e-02) (602, 1.05366908980996265566e-01) (603, 6.32660674245267701243e-02) (604, 2.39124014589185307500e-01) (605, 2.72741153396077851134e-01) (606, 3.81842636505840216099e-01) (607, 2.32372559394799754751e-01) (608, -6.67310125968735151636e-02) (609, -2.00911074578211418240e-01) (610, 2.14270481803670642673e-01) (611, -8.22447119700536743991e-02) (612, -1.69078793763939444483e-01) (613, 1.66898389925519641253e-01) (614, 1.09936352362457051557e-01) (615, -1.45589111117455982658e-01) (616, -1.62866012203503607303e-01) (617, 1.65057163953918034638e-01) (618, 3.04233278114278901660e-02) (619, -1.57299125567509051615e-01) (620, 1.35160571543202684408e-01) (621, -1.08322864799798121438e-01) (622, -1.29196409195454803287e-01) (623, -1.11698687600577217793e-01) (624, -1.69089551125507497886e-01) (625, 4.90893021495587555947e-02) (626, 1.46938201645845979183e-03) (627, -1.82331051966525742314e-01) (628, 3.82813391368160699235e-02) (629, 4.82824709983334654506e-02) (630, -1.11379255690300715820e-01) (631, 1.68697025721740195836e-01) (632, 2.60409189553372166781e-01) (633, -1.71179920714224276246e-01) (634, -5.73886193455737173008e-02) (635, 2.83555929856150468193e-01) (636, -1.34126278149842181886e-01) (637, -1.00311501977792694867e-02) (638, -8.24607092214127840313e-02) (639, -7.87360919177559487325e-02) (640, 2.01015897336270815687e-01) (641, -3.04074522648800582569e-01) (642, -2.43185038842098716350e-01) (643, 2.61300776533548773095e-01) (644, -9.67618248405313408078e-01) (645, -1.19864777953774859220e+00) (646, 1.74385018998258201073e+00) (647, -2.55122991726893399989e-01) (648, -4.85234973360337995540e-01) (649, 2.58774810524946885515e-01) (650, -8.57139834812875867076e-02) (651, 2.38301065031772951741e-02) (652, 7.82588052943275630513e-02) (653, 1.54887151843200211732e-02) (654, 1.85569612258681300443e-02) (655, -6.02892893040604671562e-02) (656, 2.23023977609851847825e-01) (657, -2.02756793312573180277e-01) (658, 1.28409738654368471567e-01) (659, -9.53182958520616685494e-03) (660, -3.17106430517228476962e-01) (661, 2.72808261421575160011e-01) (662, 1.00852800790440094714e-02) (663, -3.60638106186731866032e-01) (664, 3.89998939076596218278e-02) (665, 7.34255061709448986207e-02) (666, -2.81612292607814618250e-01) (667, 1.86649456013538883603e-01) (668, 9.63352018103302842889e-02) (669, -1.47553098330588217113e-01) (670, -1.56735365147987366907e-02) (671, 3.63723798574098686198e-02) (672, -2.17130661125288698665e-01) (673, 3.37863904515465218736e-02) (674, 2.19463920335406292850e-01) (675, -6.52439243034081406414e-02) (676, -2.07261116612449225460e-01) (677, 2.03041689312697559711e-01) (678, 8.79036745370643940456e-02) (679, -2.24962781438654002564e-01) (680, 1.67030675682614093702e-01) (681, 4.57355132290542237133e-03) (682, -1.14082517158595991846e-01) (683, -1.65753726497907954984e-01) (0, 2.87477875713182812190e-02) (1, 7.01599967866192997246e-02) (2, 2.31143432647559106397e-02) (3, 4.11366991726542369223e-02) (4, -2.13283025060283341900e-02) (5, -8.14504861646451333579e-02) (6, -9.31871576054160294378e-02) (7, -3.39337068582163392527e-02) (8, -2.38868298162040366972e-02) (9, -4.05688313192213989566e-02) (10, 2.19104863296645212267e-02) (11, -2.36282246764000884720e-02) (12, -9.01820968915294507440e-02) (13, 5.65008413467390571694e-02) (14, 4.20427563226742975755e-02) (15, 4.16970885906754670791e-02) (16, -8.54763394897557760022e-02) (17, 1.37659912053791199521e-02) (18, 5.92618163473154768717e-02) (19, -8.48239048217807739549e-02) (20, -8.10991111873892028816e-02) (21, -1.56070299010416108088e-01) (22, -5.40888051535884442633e-02) (23, 1.48659859586456971625e-01) (24, 7.82925681907326899422e-03) (25, 5.39667038295780013279e-02) (26, 1.17589545322470082067e-01) (27, 2.25614375572626250921e-02) (28, -1.50517789490476547321e-02) (29, 6.81902668510656062573e-03) (30, 7.76809520188278951336e-02) (31, 1.54275170604897433890e-02) (32, -5.55836347752646474374e-03) (33, -4.68487579580101135002e-02) (34, -4.12676681701287587090e-02) (35, 1.90393604132627375369e-01) (36, 8.68865144940599992696e-02) (37, 3.10696317238807161176e-02) (38, 5.03649173495464910766e-02) (39, 1.77081007042784351058e-02) (40, 2.80849675020629130362e-01) (41, 4.38694276976088551323e-02) (42, 5.46841693176671889143e-02) (43, -1.36102379941111129025e-01) (44, 3.11779125116808560059e-02) (45, -7.44845532223694338503e-03) (46, 4.54397385681512815808e-03) (47, 6.25093265828961797137e-02) (48, 7.75416554336984531481e-02) (49, 6.19676201226434936187e-02) (50, 2.25691133577216864955e-03) (51, -2.45046764509952860137e-04) (52, -4.67658784178305239609e-02) (53, -5.12435736322600088322e-03) (54, 1.21836149493083051309e-01) (55, 1.62650044354055806073e-01) (56, -1.40438096455965583109e-01) (57, 7.11556802842357727368e-02) (58, 9.20136674710105573194e-02) (59, -1.15067452484085321063e-02) (60, -1.56850434759097101534e-02) (61, 2.25498098663910712114e-01) (62, 2.62802195886002471631e-03) (63, 4.85711807932494021856e-02) (64, 3.07053109401611915019e-02) (65, 8.99799209987953152456e-02) (66, 7.48028045747000935872e-02) (67, -3.01060771323038078515e-03) (68, 7.20837067697413236278e-02) (69, -6.26294822730063538430e-02) (70, 1.06648618262984301586e-01) (71, 1.32057122682562283478e-01) (72, 5.45200486234704018162e-02) (73, -8.53598429361299426699e-02) (74, 7.42594913383948090901e-02) (75, 1.66134469929192923887e-02) (76, -7.12257614707192399095e-02) (77, 5.55347809732564395846e-02) (78, 1.30085923668107644735e-01) (79, -2.53499648355427320556e-01) (80, 5.07574118517059992388e-04) (81, 1.56441783723593547117e-01) (82, 8.07159278308004490832e-02) (83, 1.31255585503366849209e-02) (84, 1.96946123398740846611e-01) (85, 6.91022616503380315844e-02) (86, 9.86545329153746125561e-02) (87, 8.45571109336891724162e-02) (88, -7.33908959960296453096e-02) (89, 1.39770164030540572364e-01) (90, 1.81136021281701285052e-03) (91, -7.21684671047590903248e-02) (92, -5.35302815110518317998e-03) (93, 4.83379180521895310263e-02) (94, -3.12586660813741312737e-01) (95, 8.88176745648553006562e-02) (96, -2.20187596151237119368e-01) (97, -1.05299801857750716105e-01) (98, 3.80457893646480790895e-02) (99, -2.19075248294688218476e-01) (100, -5.79242244525914398712e-02) (101, 9.94025997667112581890e-03) (102, -1.20863357219207628868e-02) (103, 1.51288884320248478987e-01) (104, -1.32701982735036444483e-01) (105, 1.93833526012336720967e-01) (106, 1.49136887082330721332e-01) (107, -1.33856264589344381433e-01) (108, -1.61362909748451570369e-02) (109, -1.94973552596639614076e-02) (110, -1.76903610830045632252e-02) (111, 1.80286468542797284620e-01) (112, 7.79114927015445712932e-02) (113, -4.99846533841385217561e-03) (114, -1.21107058410712786767e-01) (115, 2.19209215014192826398e-01) (116, -4.62123238817099130094e-02) (117, 5.78420200041956239501e-02) (118, 1.00399840521509658986e-01) (119, 4.34027320229338972601e-02) (120, -1.65655251211131671063e-01) (121, 1.83679322197239092151e-01) (122, -1.15521709083468995805e-01) (123, -9.45511001905472991957e-02) (124, -2.72231916186167800797e-02) (125, 8.21447412349593647507e-02) (126, -4.89991179292118481103e-02) (127, -2.23831561016578058435e-03) (128, 1.76996871358809704233e-01) (129, 1.07125549383380133661e-01) (130, 9.79964655488549801765e-02) (131, 3.69370159777654208377e-02) (132, -6.74997809882706689688e-02) (133, 4.67962610873906489917e-02) (134, -6.10233924362479779324e-02) (135, -2.99550193076062419573e-02) (136, -3.39825872421129545481e-03) (137, 1.21384243374258724013e-01) (138, -2.80458040891701371189e-02) (139, -2.87086727528978753049e-03) (140, -1.05354028294309287617e-01) (141, 7.24750161665603520600e-02) (142, -1.19888136165623784835e-01) (143, 1.98187384842362576687e-02) (144, -8.48954772921576700240e-02) (145, -2.40830367977347796493e-02) (146, 1.28024835409958182009e-01) (147, -5.07995721818456091867e-02) (148, 8.88237233320551683446e-02) (149, -8.56133521094665783657e-02) (150, -5.49360601292714009758e-02) (151, 2.21232706773811321765e-01) (152, 9.75920790955590866655e-03) (153, -6.74922284902683689012e-02) (154, -7.07131020373033269966e-02) (155, 4.53307581121258351686e-02) (156, -3.20942845050769740012e-02) (157, 4.50809983324947007727e-03) (158, -2.96667599698929168595e-02) (159, -1.04737458888093284970e-01) (160, 6.60075506530812816663e-02) (161, 7.91266406326861099219e-02) (162, -5.24882457908856167594e-02) (163, -8.30480005897503426038e-02) (164, -1.24944453274492911499e-01) (165, 8.75514068510769571940e-02) (166, -1.99413213928612866044e-02) (167, -1.07588533320003135185e-01) (168, 1.49774585008465022096e-01) (169, 7.66914352966781981413e-02) (170, -4.77494784244786169003e-02) (171, 1.08623465714721562092e-01) (172, 1.04552687345071768088e-01) (173, 5.13173103959786783279e-02) (174, -7.47778989267514331701e-03) (175, 1.68673163958485694547e-01) (176, 4.45015895352228949000e-02) (177, -1.37553014227799891289e-01) (178, 1.04602569373752438131e-01) (179, -7.77946110047438299517e-02) (180, 3.64295248199281024304e-02) (181, 7.57604823929665244231e-02) (182, -9.82714629930309668815e-02) (183, -8.51491704782964542453e-02) (184, -3.04037771666250782043e-02) (185, 7.20606120980411546384e-02) (186, -1.70363864452031776864e-01) (187, 3.17587648488311738437e-02) (188, 1.46180379382519071152e-01) (189, 1.71317973468338241583e-01) (190, -2.22981502315824420268e-01) (191, 2.20382026919401195764e-02) (192, -1.75552430291970845699e-01) (193, -2.69058313797371669029e-02) (194, 1.09540953540536055086e-03) (195, 8.87654556586379428484e-02) (196, -3.69524520792618230147e-02) (197, -1.69808569441363355068e-01) (198, 1.01996140123902678809e-01) (199, 6.35357799537939055279e-02) (200, 2.56444622572609935707e-02) (201, -1.89645859073489936319e-01) (202, 8.36663730770352692678e-02) (203, -5.62290802228267994067e-02) (204, 3.62714423343568487246e-02) (205, 1.12482206780828208892e-01) (206, -1.56027115334693988746e-01) (207, -1.98884073557277857303e-01) (208, 2.44910475555563944550e-02) (209, -2.11702340940110728118e-02) (210, 4.06351973667107152499e-02) (211, -1.21041119298320593023e-01) (212, -1.53178643921656171267e-01) (213, -9.11124224088135682698e-03) (214, -6.82179166824572746908e-02) (215, 2.17128514260362254218e-02) (216, 4.42587191702125473669e-02) (217, -6.19855727477001960946e-02) (218, -3.51102957655079761512e-02) (219, 7.42524040407110692136e-03) (220, 1.01597769951990539450e-02) (221, -6.57427847111142632519e-02) (222, -9.76649754752141052716e-02) (223, 7.63782674208171672575e-03) (224, -3.47734911453596029496e-02) (225, 1.60661026024130730583e-02) (226, -2.20198888182258412094e-01) (227, -7.18342142767105090728e-02) (228, -6.59536049640543908801e-02) (229, -3.41037487517703644113e-02) (230, -2.79789678224555728170e-02) (231, -1.10162970245778313316e-01) (232, -2.11034440633964592848e-01) (233, -7.89022244712283826740e-02) (234, 1.54521783763017029126e-03) (235, -1.95129671496614170989e-01) (236, -7.17660140098616422533e-02) (237, -2.08849277584452291956e-01) (238, -1.18111790923880900089e-03) (239, -1.24437611064254938231e-01) (240, -2.89772735306101258956e-01) (241, 3.33321390753659463346e-02) (242, 3.68448275763157227086e-03) (243, -1.25143465781798381847e-02) (244, 5.84584764845718224402e-02) (245, 3.78540725230127952927e-02) (246, 4.82565862956073482470e-02) (247, -2.20634852978820211744e-01) (248, -1.75623895092768628201e-01) (249, 1.64913361835898247820e-01) (250, 2.17932345204054772614e-01) (251, 1.08378082350144955281e-01) (252, 9.45094583655565513569e-03) (253, -2.64036292218591019110e-02) (254, 4.22669922730693481405e-02) (255, 4.79126727604762200907e-02) (256, -1.84909206455087488097e-01) (257, -1.45892830265517053911e-01) (258, -5.78640612651378852260e-02) (259, -6.52089678762783203636e-02) (260, -2.38201813929371730705e-01) (261, -6.33961728578330274697e-02) (262, -1.44826611615885836315e-01) (263, -4.21659151814355280530e-03) (264, -7.44044624557960165845e-02) (265, 5.77375387275506496421e-02) (266, 1.06010375367471140762e-01) (267, -3.28661669472252504498e-01) (268, 1.13373447326136286839e-01) (269, -6.95375859163326059953e-02) (270, 1.05204802334949429343e-01) (271, -2.90978685604983064450e-02) (272, 6.93283083059960808514e-02) (273, -9.97902192926787556804e-03) (274, -6.23851328271792585078e-02) (275, 1.60850096956101112911e-01) (276, 6.65409685053517246933e-02) (277, -1.07013730806301832210e-01) (278, 1.18040758882807919616e-01) (279, -1.85569288065013299205e-01) (280, -9.98796348617266294134e-02) (281, 1.19635974559814922680e-01) (282, -9.48034273165165586317e-02) (283, -1.92009080300657664075e-01) (284, -1.17055267348401131899e-01) (285, -2.97038730139915461981e-02) (286, 6.38483144346833481064e-02) (287, -2.74070524861701747543e-01) (288, -8.38155425563156808444e-02) (289, -1.76238065704752783214e-01) (290, 6.37686468660492861149e-02) (291, -4.66518073514977094085e-02) (292, -9.22010166008144088634e-02) (293, -1.50887465214620208886e-01) (294, -3.31960888222232880507e-02) (295, -1.15694062474033743104e-01) (296, -4.41415070160454184323e-02) (297, -1.32036502317764120606e-01) (298, -3.64973734870606483782e-02) (299, 6.90645189405820168760e-03) (300, -2.06285383234914090900e-02) (301, -7.60614465410744539087e-02) (302, 1.67308601335068418692e-01) (303, -4.03803116394098413761e-03) (304, -1.12274430753519685600e-01) (305, -9.00355721293808752836e-02) (306, 5.59988824194226214592e-02) (307, 7.54263224159506112665e-02) (308, -8.19208267120292016328e-02) (309, -9.08176803806587801260e-02) (310, 4.05716835506679598944e-02) (311, 3.36959127095532145341e-03) (312, -1.28613863911450077016e-01) (313, 1.20303850657054511863e-01) (314, -2.96816319109740852158e-03) (315, 1.17541305345431085216e-01) (316, 1.01502992489991589187e-01) (317, -1.72948814140870904543e-01) (318, 8.32566608590834672521e-02) (319, 5.81048351840851642902e-02) (320, -9.32943208418533231896e-02) (321, -2.16373323600843991965e-01) (322, 6.12656998393846172202e-02) (323, 1.39395901236362140807e-01) (324, -2.65456000479632921174e-02) (325, 3.94430101342506111983e-02) (326, -5.36419372036193442543e-02) (327, -1.51569284954561050299e-02) (328, 7.56133843673489295517e-03) (329, -1.60316919023745507733e-01) (330, -1.80881218556264045105e-01) (331, 4.76972367970986688146e-02) (332, -2.63862330602842067029e-02) (333, 1.85949959652752433437e-01) (334, 1.33946538344769296852e-02) (335, 1.47696899945039868823e-02) (336, -8.95109225504573113863e-02) (337, -9.67472129241180450743e-02) (338, 7.71928737616925028653e-03) (339, 6.30300040897207539820e-03) (340, -1.64597702338062062966e-01) (341, 1.34043683387136819407e-03) (342, -5.42900383991763713087e-02) (343, 1.06082988317579882120e-01) (344, -1.32801518682548164163e-01) (345, 1.76210947743504868501e-02) (346, -2.53298571301858281568e-02) (347, -5.84443221548585408603e-03) (348, -4.89675155794877785959e-03) (349, 1.21235955893616881296e-01) (350, -9.59767663427643913376e-02) (351, -3.60103067480326069494e-02) (352, 1.21308167531357993796e-01) (353, 3.98384661911660095668e-02) (354, 4.54680345713576045119e-02) (355, -1.70258296216139227985e-02) (356, 1.25964686580737006416e-01) (357, -9.79980759623379910073e-02) (358, -1.60954369348447340338e-02) (359, -1.77455222214335378572e-01) (360, 6.13872866336661812681e-02) (361, 1.06447390327464502802e-01) (362, -1.53433952522850358680e-01) (363, 6.06360765010580029383e-03) (364, -5.50706953359707054863e-02) (365, -1.11551784698119289124e-02) (366, 8.45930007507000453204e-02) (367, 9.14892148077599692835e-02) (368, -7.94699968299089065660e-02) (369, 1.11844936722004059670e-01) (370, -2.42268949108371371703e-02) (371, 2.32380689820641736509e-02) (372, -3.34542385460531305208e-02) (373, 4.90440001836250222267e-02) (374, 6.13235111371593921703e-02) (375, 1.87596807030105755532e-01) (376, -1.88837246668964800489e-02) (377, -6.87575383784501809048e-02) (378, -3.69347625015075606281e-02) (379, -3.63109242511905766504e-02) (380, 2.20103248752350183493e-01) (381, 1.57136668348008240459e-01) (382, -2.61160886815596134103e-02) (383, 5.83706914243683344656e-02) (384, -4.73580044512201137757e-03) (385, 8.46761563021669327878e-02) (386, -4.59169773791116286876e-02) (387, -7.83235265203388875133e-02) (388, 1.25292081199110422185e-01) (389, 1.53221600497445348266e-01) (390, -1.81392027554389025090e-02) (391, -6.29134319146403692136e-02) (392, -1.38780491664719868306e-01) (393, 1.29488236869867382600e-02) (394, -2.00763816523716887019e-02) (395, 7.67286359971601078511e-02) (396, 1.78984290293911663117e-01) (397, -1.30371104285884220619e-01) (398, 1.59109631110995519698e-01) (399, 9.86997299282598439252e-02) (400, 1.36089742580981165609e-01) (401, 2.00682361467481723549e-01) (402, -2.60964592545411100399e-01) (403, -1.97714659137528780963e-01) (404, 3.72466340647489915772e-02) (405, -2.20649037206828296798e-01) (406, -1.30865272288136658130e-01) (407, 1.17146413834701673684e-01) (408, 1.14302693918439196574e-01) (409, 1.29929204295491873555e-01) (410, 3.79609653743920652524e-02) (411, -7.26046829914187841215e-02) (412, -7.92888900084450926053e-02) (413, 8.17554649762433915949e-02) (414, -1.41529107116466178196e-02) (415, 1.87151275277551237819e-01) (416, -3.95934955781879274750e-02) (417, 1.95665274503483116453e-01) (418, 1.21325299841857414673e-01) (419, -1.49943290287955305340e-01) (420, 1.31116593153807220462e-01) (421, -1.51096241820676852052e-01) (422, -5.15722218099703803851e-03) (423, 7.38213825313003557671e-02) (424, -9.48253373001591570723e-02) (425, -8.01726769721079479680e-02) (426, -1.98529713145199071533e-01) (427, -3.39710231700301110158e-02) (428, 9.94122705358626151950e-02) (429, 6.04589940598935296490e-02) (430, -1.01172084712374918403e-01) (431, -9.01441208440458552342e-02) (432, -1.06450201385669143694e-01) (433, -1.96461627081120721039e-01) (434, 1.44419988120451821267e-02) (435, -1.32405695956750446562e-01) (436, -8.82889983348895679427e-02) (437, 8.46431869321485758073e-02) (438, -3.59113432167561183461e-02) (439, -3.27102021676406035100e-02) (440, 6.28099980460555540329e-02) (441, -1.05085464807939080178e-01) (442, 4.17871218545693146051e-02) (443, -1.30690602740813260896e-01) (444, -1.12305787473113580233e-01) (445, -1.22586117892682283648e-01) (446, -2.18198630208096405747e-02) (447, 3.71610262935539309437e-02) (448, -6.93580172309682663201e-02) (449, 1.71081638914571759758e-01) (450, -7.31086768444804031841e-04) (451, 1.37605188122766758374e-01) (452, -9.29804662181461794024e-02) (453, 5.49928266366202095350e-02) (454, -4.93884948466936164919e-04) (455, -1.51106521382782243990e-01) (456, -1.63411994868924353996e-01) (457, 7.54149694212403881588e-02) (458, -6.23436555630621086488e-02) (459, -1.36621005545295243211e-01) (460, -1.47392583241381824877e-01) (461, 1.69139211498559385860e-02) (462, 1.09743937687034595618e-01) (463, 7.90919461185949843052e-03) (464, -2.65371956638947685547e-02) (465, -8.07281297634932296092e-03) (466, -1.03571826855721790817e-01) (467, -1.81692811719569968787e-01) (468, 5.74068213215493047819e-02) (469, 6.91266188939200915131e-02) (470, 6.38776406267437535380e-02) (471, 3.05720836122600515827e-02) (472, 1.60395920253332685546e-01) (473, -4.52045932060633273708e-02) (474, -1.94337922695073843718e-03) (475, 3.00064679122011429557e-02) (476, -1.74998452069886928362e-01) (477, 1.13012868678349726048e-01) (478, -8.26445465909128318405e-02) (479, -8.02750978483601357327e-02) (480, 1.00034575244460258170e-01) (481, 1.22321863129418423322e-01) (482, 7.04680096964567237450e-02) (483, 1.38436934782775356023e-01) (484, 2.08693561501874860764e-02) (485, 6.72560929917960098612e-02) (486, 2.91626067486511555971e-02) (487, -2.88722769940211454465e-02) (488, 3.64093875299956806768e-02) (489, 9.64543529102817737142e-02) (490, 1.46832615494633889064e-01) (491, -1.40377831253982992415e-02) (492, 1.26635918647688999750e-01) (493, -2.42349649610157959201e-02) (494, 1.16201410901353496818e-01) (495, 4.88891995727386216575e-02) (496, -1.64844272866955771084e-01) (497, -3.77392702387078018966e-02) (498, 4.89133670629708222632e-02) (499, 5.52319033767393052781e-02) (500, 1.23848836908750190022e-01) (501, 3.07214644004971844382e-02) (502, -1.42778815057511498932e-01) (503, -6.96099249953060633667e-02) (504, 6.02592626468941572337e-02) (505, 8.65036936499479491847e-02) (506, -1.62512479593127173727e-01) (507, 2.50735143341398875050e-02) (508, 2.01391909005474323280e-01) (509, 2.06849999356851360632e-01) (510, -1.55856799169866971910e-01) (511, -4.13718190698620091883e-02) (512, 2.67518881956564091862e-02) (513, -1.00690320345820552572e-01) (514, -1.12440107993828447563e-01) (515, 1.74249725018105927621e-01) (516, 9.16266706737992459031e-02) (517, 1.23248931420339435938e-01) (518, -2.14220595610188080382e-01) (519, -1.01563858334062756539e-01) (520, 1.37367009494805264458e-01) (521, 1.21814248185875398378e-01) (522, 4.69419599922630964572e-02) (523, -5.84313110857028403244e-02) (524, -3.32021002040266410837e-02) (525, -3.67263287768459581462e-02) (526, -1.01110041325219182640e-01) (527, -1.24319915046276763260e-01) (528, -4.96212418228277607479e-02) (529, 1.62396081426522537194e-02) (530, 5.90127951736741651612e-02) (531, 2.01571599506871090846e-01) (532, -1.03722662976448012917e-01) (533, -8.98747822864457701630e-02) (534, -1.13823448083861904212e-02) (535, 3.70060538074903841443e-02) (536, 7.78702516522408738631e-02) (537, 4.48565926193462277682e-02) (538, -1.43480746473076542502e-01) (539, -8.49384388746460099184e-03) (540, 8.58504219967247232670e-03) (541, -9.24885394080039308085e-02) (542, -1.10491512619955045693e-01) (543, -1.74065373921421490122e-01) (544, -4.44961294789074202072e-01) (545, -2.14430679990658568101e-01) (546, -5.68193338106394163489e-01) (547, -1.25661537772455977890e-01) (548, -4.65240019950771965807e-02) (549, -2.55385859961124762896e-02) (550, 1.59376240689356497848e-02) (551, -1.41754214401080519403e-01) (552, 4.90890435151421083981e-02) (553, -6.46651938777050155904e-02) (554, -1.14015910312784143898e-01) (555, -2.47123808851623487370e-03) (556, -5.46985659005788400072e-03) (557, -4.90971080666544948401e-02) (558, 2.43201190918969391286e-02) (559, -2.51855905013155696726e-02) (560, 8.60018971941146209703e-02) (561, 1.22916671308038405463e-01) (562, -5.04802347873543749701e-02) (563, 1.26572699778644215396e-01) (564, 8.71621178106267574526e-02) (565, 4.38606317853745646118e-03) (566, -2.13944740798958346530e-04) (567, 1.53583774950766027700e-01) (568, -9.55457325119253575441e-02) (569, -1.51348858062698071736e-01) (570, -9.16676750620916275247e-02) (571, 3.59416899915550747818e-03) (572, -1.18338563500598750733e-01) (573, 1.87021856956855123122e-02) (574, 5.86028133003857060190e-02) (575, 1.42452609035926769376e-01) (576, -3.85839539615518284377e-02) (577, -7.19337800668761184752e-02) (578, 6.71548012016229267651e-02) (579, 1.47527343037569841355e-01) (580, 5.14625351539468034456e-02) (581, -1.69038019573179404409e-01) (582, 1.35738080330510962890e-01) (583, 2.02161361938049705111e-01) (584, 1.02842989225824993360e-01) (585, 2.41791290590215396383e-01) (586, 5.52760537803265936119e-02) (587, 7.83915048271313780193e-02) (588, -1.12697503441045843164e-01) (589, -9.42938761449025053540e-02) (590, -1.90518102645432438336e-02) (591, 6.98465474433208749483e-02) (592, 1.53781350812103000114e-02) (593, -7.85870189459552948019e-02) (594, 6.09482167359678885660e-03) (595, -7.32592278928559798024e-02) (596, -5.40211677734105180648e-02) (597, 2.97830942434801106133e-02) (598, -8.24157915211054525884e-02) (599, -4.59070244552128373106e-02) (600, 3.35247645018892093116e-02) (601, 7.50340254778950888070e-02) (602, -3.75409218316300336005e-02) (603, -1.52728257350449158486e-02) (604, 5.05649980479470143035e-02) (605, 6.51948169573379338049e-02) (606, 1.51366715914684323713e-02) (607, 1.24603858654452920307e-01) (608, 6.39480431123538722860e-02) (609, 3.45556643669928317819e-02) (610, -4.08655092722386582144e-03) (611, 5.21705809938484629806e-02) (612, -2.88612814178248154595e-02) (613, 2.75850049996312265271e-03) (614, 2.14283357746783115205e-01) (615, -8.55708781773282245453e-02) (616, -1.93026194061767825128e-01) (617, 1.09447185770281230077e-01) (618, 1.45988484364104637026e-01) (619, -3.02001366367999513063e-01) (620, 9.67242085276835694696e-02) (621, 6.66469590321074889516e-02) (622, -3.15581503255947914965e-01) (623, 3.80371727860791195019e-02) (624, 1.04736154557622709871e-01) (625, -3.68814527075168763215e-01) (626, 2.61645753442045769788e-01) (627, -4.21165644227076210737e-02) (628, -2.01161795419387112727e-01) (629, 1.41023493892753676304e-01) (630, 9.17702039473988068208e-02) (631, -2.91847497510611952887e-01) (632, 3.97409814959746698904e-01) (633, -1.51535481854992798434e-01) (634, -1.63022165212043823601e-01) (635, 2.91692814613631778986e-01) (636, -2.87567363409514609174e-01) (637, -3.02490251693934675270e-01) (638, 9.96967444590601686860e-02) (639, -1.34448123312519235428e-01) (640, -5.87073819023420373497e-02) (641, -9.30748600527306763075e-02) (642, -1.77087268478034742802e-01) (643, -5.54567745776512067285e-03) (644, -9.85695150371172834625e-01) (645, -7.15200704515799534633e-01) (646, 1.43682431944446475924e+00) (647, -2.74213330581580483347e-01) (648, -2.77960505085988240914e-01) (649, 9.36953513699915196966e-02) (650, -5.20815219972318790842e-02) (651, -3.69207378007546105358e-02) (652, -4.84278024569269952004e-02) (653, -2.29556636163969970954e-02) (654, -2.49089674555361337283e-02) (655, 8.72119975214052517432e-02) (656, 3.37807125407782529725e-02) (657, -1.36245536904709196868e-01) (658, 2.04861106896729074089e-02) (659, 7.73506143082684088919e-02) (660, -2.14004069044087336104e-01) (661, 2.47571412325896605955e-01) (662, -2.32692011453204915250e-02) (663, -2.49795891278523418677e-01) (664, 2.85256421370694681142e-03) (665, 8.28244271406304716221e-02) (666, -1.99036002226055858122e-01) (667, 9.07617644360736858244e-02) (668, 7.57885625266575269077e-02) (669, -3.36019835169763386729e-02) (670, -1.21964694353482602796e-01) (671, 4.82844588259302102268e-03) (672, -3.20320893482519061801e-02) (673, -1.31327238832383064171e-01) (674, 