FANN_FLO_2.1
num_layers=3
learning_rate=0.010000
connection_rate=1.000000
network_type=0
learning_momentum=0.300000
training_algorithm=0
train_error_function=0
train_stop_function=0
cascade_output_change_fraction=0.010000
quickprop_decay=-0.000100
quickprop_mu=1.750000
rprop_increase_factor=1.200000
rprop_decrease_factor=0.500000
rprop_delta_min=0.000000
rprop_delta_max=50.000000
rprop_delta_zero=0.100000
cascade_output_stagnation_epochs=12
cascade_candidate_change_fraction=0.010000
cascade_candidate_stagnation_epochs=12
cascade_max_out_epochs=150
cascade_min_out_epochs=0
cascade_max_cand_epochs=150
cascade_min_cand_epochs=0
cascade_num_candidate_groups=2
bit_fail_limit=3.49999999999999977796e-01
cascade_candidate_limit=1.00000000000000000000e+03
cascade_weight_multiplier=4.00000000000000022204e-01
cascade_activation_functions_count=10
cascade_activation_functions=3 5 7 8 10 11 14 15 16 17 
cascade_activation_steepnesses_count=4
cascade_activation_steepnesses=2.50000000000000000000e-01 5.00000000000000000000e-01 7.50000000000000000000e-01 1.00000000000000000000e+00 
layer_sizes=788 71 4 
scale_included=0
neurons (num_inputs, activation_function, activation_steepness)=(0, 0, 0.00000000000000000000e+00) (0, 0, 0.00000000000000000000e+00) (0, 0, 0.00000000000000000000e+00) (0, 0, 0.00000000000000000000e+00) (0, 0, 0.00000000000000000000e+00) (0, 0, 0.00000000000000000000e+00) (0, 0, 0.00000000000000000000e+00) (0, 0, 0.00000000000000000000e+00) (0, 0, 0.00000000000000000000e+00) (0, 0, 0.00000000000000000000e+00) (0, 0, 0.00000000000000000000e+00) (0, 0, 0.00000000000000000000e+00) (0, 0, 0.00000000000000000000e+00) (0, 0, 0.00000000000000000000e+00) (0, 0, 0.00000000000000000000e+00) (0, 0, 0.00000000000000000000e+00) (0, 0, 0.00000000000000000000e+00) (0, 0, 0.00000000000000000000e+00) (0, 0, 0.00000000000000000000e+00) (0, 0, 0.00000000000000000000e+00) (0, 0, 0.00000000000000000000e+00) (0, 0, 0.00000000000000000000e+00) (0, 0, 0.00000000000000000000e+00) (0, 0, 0.00000000000000000000e+00) (0, 0, 0.00000000000000000000e+00) (0, 0, 0.00000000000000000000e+00) (0, 0, 0.00000000000000000000e+00) (0, 0, 0.00000000000000000000e+00) (0, 0, 0.00000000000000000000e+00) (0, 0, 0.00000000000000000000e+00) (0, 0, 0.00000000000000000000e+00) (0, 0, 0.00000000000000000000e+00) (0, 0, 0.00000000000000000000e+00) (0, 0, 0.00000000000000000000e+00) (0, 0, 0.00000000000000000000e+00) (0, 0, 0.00000000000000000000e+00) (0, 0, 0.00000000000000000000e+00) (0, 0, 0.00000000000000000000e+00) (0, 0, 0.00000000000000000000e+00) (0, 0, 0.00000000000000000000e+00) (0, 0, 0.00000000000000000000e+00) (0, 0, 0.00000000000000000000e+00) (0, 0, 0.00000000000000000000e+00) (0, 0, 0.00000000000000000000e+00) (0, 0, 0.00000000000000000000e+00) (0, 0, 0.00000000000000000000e+00) (0, 0, 0.00000000000000000000e+00) (0, 0, 0.00000000000000000000e+00) (0, 0, 0.00000000000000000000e+00) (0, 0, 0.00000000000000000000e+00) (0, 0, 0.00000000000000000000e+00) (0, 0, 0.00000000000000000000e+00) (0, 0, 0.00000000000000000000e+00) (0, 0, 0.00000000000000000000e+00) (0, 0, 0.00000000000000000000e+00) (0, 0, 0.00000000000000000000e+00) (0, 0, 0.00000000000000000000e+00) (0, 0, 0.00000000000000000000e+00) (0, 0, 0.00000000000000000000e+00) (0, 0, 0.00000000000000000000e+00) (0, 0, 0.00000000000000000000e+00) (0, 0, 0.00000000000000000000e+00) (0, 0, 0.00000000000000000000e+00) (0, 0, 0.00000000000000000000e+00) (0, 0, 0.00000000000000000000e+00) (0, 0, 0.00000000000000000000e+00) (0, 0, 0.00000000000000000000e+00) (0, 0, 0.00000000000000000000e+00) (0, 0, 0.00000000000000000000e+00) (0, 0, 0.00000000000000000000e+00) (0, 0, 0.00000000000000000000e+00) (0, 0, 0.00000000000000000000e+00) (0, 0, 0.00000000000000000000e+00) (0, 0, 0.00000000000000000000e+00) (0, 0, 0.00000000000000000000e+00) (0, 0, 0.00000000000000000000e+00) (0, 0, 0.00000000000000000000e+00) (0, 0, 0.00000000000000000000e+00) (0, 0, 0.00000000000000000000e+00) (0, 0, 0.00000000000000000000e+00) (0, 0, 0.00000000000000000000e+00) (0, 0, 0.00000000000000000000e+00) (0, 0, 0.00000000000000000000e+00) (0, 0, 0.00000000000000000000e+00) (0, 0, 0.00000000000000000000e+00) (0, 0, 0.00000000000000000000e+00) (0, 0, 0.00000000000000000000e+00) (0, 0, 0.00000000000000000000e+00) (0, 0, 0.00000000000000000000e+00) (0, 0, 0.00000000000000000000e+00) (0, 0, 0.00000000000000000000e+00) (0, 0, 0.00000000000000000000e+00) (0, 0, 0.00000000000000000000e+00) (0, 0, 0.00000000000000000000e+00) (0, 0, 0.00000000000000000000e+00) (0, 0, 0.00000000000000000000e+00) (0, 0, 0.00000000000000000000e+00) (0, 0, 0.00000000000000000000e+00) (0, 0, 0.00000000000000000000e+00) (0, 0, 0.00000000000000000000e+00) (0, 0, 0.00000000000000000000e+00) (0, 0, 0.00000000000000000000e+00) (0, 0, 0.00000000000000000000e+00) (0, 0, 0.00000000000000000000e+00) (0, 0, 0.00000000000000000000e+00) (0, 0, 0.00000000000000000000e+00) (0, 0, 0.00000000000000000000e+00) (0, 0, 0.00000000000000000000e+00) (0, 0, 0.00000000000000000000e+00) (0, 0, 0.00000000000000000000e+00) (0, 0, 0.00000000000000000000e+00) (0, 0, 0.00000000000000000000e+00) (0, 0, 0.00000000000000000000e+00) (0, 0, 0.00000000000000000000e+00) (0, 0, 0.00000000000000000000e+00) (0, 0, 0.00000000000000000000e+00) (0, 0, 0.00000000000000000000e+00) (0, 0, 0.00000000000000000000e+00) (0, 0, 0.00000000000000000000e+00) (0, 0, 0.00000000000000000000e+00) (0, 0, 0.00000000000000000000e+00) (0, 0, 0.00000000000000000000e+00) (0, 0, 0.00000000000000000000e+00) (0, 0, 0.00000000000000000000e+00) (0, 0, 0.00000000000000000000e+00) (0, 0, 0.00000000000000000000e+00) (0, 0, 0.00000000000000000000e+00) (0, 0, 0.00000000000000000000e+00) (0, 0, 0.00000000000000000000e+00) (0, 0, 0.00000000000000000000e+00) (0, 0, 0.00000000000000000000e+00) (0, 0, 0.00000000000000000000e+00) (0, 0, 0.00000000000000000000e+00) (0, 0, 0.00000000000000000000e+00) (0, 0, 0.00000000000000000000e+00) (0, 0, 0.00000000000000000000e+00) (0, 0, 0.00000000000000000000e+00) (0, 0, 0.00000000000000000000e+00) (0, 0, 0.00000000000000000000e+00) (0, 0, 0.00000000000000000000e+00) (0, 0, 0.00000000000000000000e+00) (0, 0, 0.00000000000000000000e+00) (0, 0, 0.00000000000000000000e+00) (0, 0, 0.00000000000000000000e+00) (0, 0, 0.00000000000000000000e+00) (0, 0, 0.00000000000000000000e+00) (0, 0, 0.00000000000000000000e+00) (0, 0, 0.00000000000000000000e+00) (0, 0, 0.00000000000000000000e+00) (0, 0, 0.00000000000000000000e+00) (0, 0, 0.00000000000000000000e+00) (0, 0, 0.00000000000000000000e+00) (0, 0, 0.00000000000000000000e+00) (0, 0, 0.00000000000000000000e+00) (0, 0, 0.00000000000000000000e+00) (0, 0, 0.00000000000000000000e+00) (0, 0, 0.00000000000000000000e+00) (0, 0, 0.00000000000000000000e+00) (0, 0, 0.00000000000000000000e+00) (0, 0, 0.00000000000000000000e+00) (0, 0, 0.00000000000000000000e+00) (0, 0, 0.00000000000000000000e+00) (0, 0, 0.00000000000000000000e+00) (0, 0, 0.00000000000000000000e+00) (0, 0, 0.00000000000000000000e+00) (0, 0, 0.00000000000000000000e+00) (0, 0, 0.00000000000000000000e+00) (0, 0, 0.00000000000000000000e+00) (0, 0, 0.00000000000000000000e+00) (0, 0, 0.00000000000000000000e+00) (0, 0, 0.00000000000000000000e+00) (0, 0, 0.00000000000000000000e+00) (0, 0, 0.00000000000000000000e+00) (0, 0, 0.00000000000000000000e+00) (0, 0, 0.00000000000000000000e+00) (0, 0, 0.00000000000000000000e+00) (0, 0, 0.00000000000000000000e+00) (0, 0, 0.00000000000000000000e+00) (0, 0, 0.00000000000000000000e+00) (0, 0, 0.00000000000000000000e+00) (0, 0, 0.00000000000000000000e+00) (0, 0, 0.00000000000000000000e+00) (0, 0, 0.00000000000000000000e+00) (0, 0, 0.00000000000000000000e+00) (0, 0, 0.00000000000000000000e+00) (0, 0, 0.00000000000000000000e+00) (0, 0, 0.00000000000000000000e+00) (0, 0, 0.00000000000000000000e+00) (0, 0, 0.00000000000000000000e+00) (0, 0, 0.00000000000000000000e+00) (0, 0, 0.00000000000000000000e+00) (0, 0, 0.00000000000000000000e+00) (0, 0, 0.00000000000000000000e+00) (0, 0, 0.00000000000000000000e+00) (0, 0, 0.00000000000000000000e+00) (0, 0, 0.00000000000000000000e+00) (0, 0, 0.00000000000000000000e+00) (0, 0, 0.00000000000000000000e+00) (0, 0, 0.00000000000000000000e+00) (0, 0, 0.00000000000000000000e+00) (0, 0, 0.00000000000000000000e+00) (0, 0, 0.00000000000000000000e+00) (0, 0, 0.00000000000000000000e+00) (0, 0, 0.00000000000000000000e+00) (0, 0, 0.00000000000000000000e+00) (0, 0, 0.00000000000000000000e+00) (0, 0, 0.00000000000000000000e+00) (0, 0, 0.00000000000000000000e+00) (0, 0, 0.00000000000000000000e+00) (0, 0, 0.00000000000000000000e+00) (0, 0, 0.00000000000000000000e+00) (0, 0, 0.00000000000000000000e+00) (0, 0, 0.00000000000000000000e+00) (0, 0, 0.00000000000000000000e+00) (0, 0, 0.00000000000000000000e+00) (0, 0, 0.00000000000000000000e+00) (0, 0, 0.00000000000000000000e+00) (0, 0, 0.00000000000000000000e+00) (0, 0, 0.00000000000000000000e+00) (0, 0, 0.00000000000000000000e+00) (0, 0, 0.00000000000000000000e+00) (0, 0, 0.00000000000000000000e+00) (0, 0, 0.00000000000000000000e+00) (0, 0, 0.00000000000000000000e+00) (0, 0, 0.00000000000000000000e+00) (0, 0, 0.00000000000000000000e+00) (0, 0, 0.00000000000000000000e+00) (0, 0, 0.00000000000000000000e+00) (0, 0, 0.00000000000000000000e+00) (0, 0, 0.00000000000000000000e+00) (0, 0, 0.00000000000000000000e+00) (0, 0, 0.00000000000000000000e+00) (0, 0, 0.00000000000000000000e+00) (0, 0, 0.00000000000000000000e+00) (0, 0, 0.00000000000000000000e+00) (0, 0, 0.00000000000000000000e+00) (0, 0, 0.00000000000000000000e+00) (0, 0, 0.00000000000000000000e+00) (0, 0, 0.00000000000000000000e+00) (0, 0, 0.00000000000000000000e+00) (0, 0, 0.00000000000000000000e+00) (0, 0, 0.00000000000000000000e+00) (0, 0, 0.00000000000000000000e+00) (0, 0, 0.00000000000000000000e+00) (0, 0, 0.00000000000000000000e+00) (0, 0, 0.00000000000000000000e+00) (0, 0, 0.00000000000000000000e+00) (0, 0, 0.00000000000000000000e+00) (0, 0, 0.00000000000000000000e+00) (0, 0, 0.00000000000000000000e+00) (0, 0, 0.00000000000000000000e+00) (0, 0, 0.00000000000000000000e+00) (0, 0, 0.00000000000000000000e+00) (0, 0, 0.00000000000000000000e+00) (0, 0, 0.00000000000000000000e+00) (0, 0, 0.00000000000000000000e+00) (0, 0, 0.00000000000000000000e+00) (0, 0, 0.00000000000000000000e+00) (0, 0, 0.00000000000000000000e+00) (0, 0, 0.00000000000000000000e+00) (0, 0, 0.00000000000000000000e+00) (0, 0, 0.00000000000000000000e+00) (0, 0, 0.00000000000000000000e+00) (0, 0, 0.00000000000000000000e+00) (0, 0, 0.00000000000000000000e+00) (0, 0, 0.00000000000000000000e+00) (0, 0, 0.00000000000000000000e+00) (0, 0, 0.00000000000000000000e+00) (0, 0, 0.00000000000000000000e+00) (0, 0, 0.00000000000000000000e+00) (0, 0, 0.00000000000000000000e+00) (0, 0, 0.00000000000000000000e+00) (0, 0, 0.00000000000000000000e+00) (0, 0, 0.00000000000000000000e+00) (0, 0, 0.00000000000000000000e+00) (0, 0, 0.00000000000000000000e+00) (0, 0, 0.00000000000000000000e+00) (0, 0, 0.00000000000000000000e+00) (0, 0, 0.00000000000000000000e+00) (0, 0, 0.00000000000000000000e+00) (0, 0, 0.00000000000000000000e+00) (0, 0, 0.00000000000000000000e+00) (0, 0, 0.00000000000000000000e+00) (0, 0, 0.00000000000000000000e+00) (0, 0, 0.00000000000000000000e+00) (0, 0, 0.00000000000000000000e+00) (0, 0, 0.00000000000000000000e+00) (0, 0, 0.00000000000000000000e+00) (0, 0, 0.00000000000000000000e+00) (0, 0, 0.00000000000000000000e+00) (0, 0, 0.00000000000000000000e+00) (0, 0, 0.00000000000000000000e+00) (0, 0, 0.00000000000000000000e+00) (0, 0, 0.00000000000000000000e+00) (0, 0, 0.00000000000000000000e+00) (0, 0, 0.00000000000000000000e+00) (0, 0, 0.00000000000000000000e+00) (0, 0, 0.00000000000000000000e+00) (0, 0, 0.00000000000000000000e+00) (0, 0, 0.00000000000000000000e+00) (0, 0, 0.00000000000000000000e+00) (0, 0, 0.00000000000000000000e+00) (0, 0, 0.00000000000000000000e+00) (0, 0, 0.00000000000000000000e+00) (0, 0, 0.00000000000000000000e+00) (0, 0, 0.00000000000000000000e+00) (0, 0, 0.00000000000000000000e+00) (0, 0, 0.00000000000000000000e+00) (0, 0, 0.00000000000000000000e+00) (0, 0, 0.00000000000000000000e+00) (0, 0, 0.00000000000000000000e+00) (0, 0, 0.00000000000000000000e+00) (0, 0, 0.00000000000000000000e+00) (0, 0, 0.00000000000000000000e+00) (0, 0, 0.00000000000000000000e+00) (0, 0, 0.00000000000000000000e+00) (0, 0, 0.00000000000000000000e+00) (0, 0, 0.00000000000000000000e+00) (0, 0, 0.00000000000000000000e+00) (0, 0, 0.00000000000000000000e+00) (0, 0, 0.00000000000000000000e+00) (0, 0, 0.00000000000000000000e+00) (0, 0, 0.00000000000000000000e+00) (0, 0, 0.00000000000000000000e+00) (0, 0, 0.00000000000000000000e+00) (0, 0, 0.00000000000000000000e+00) (0, 0, 0.00000000000000000000e+00) (0, 0, 0.00000000000000000000e+00) (0, 0, 0.00000000000000000000e+00) (0, 0, 0.00000000000000000000e+00) (0, 0, 0.00000000000000000000e+00) (0, 0, 0.00000000000000000000e+00) (0, 0, 0.00000000000000000000e+00) (0, 0, 0.00000000000000000000e+00) (0, 0, 0.00000000000000000000e+00) (0, 0, 0.00000000000000000000e+00) (0, 0, 0.00000000000000000000e+00) (0, 0, 0.00000000000000000000e+00) (0, 0, 0.00000000000000000000e+00) (0, 0, 0.00000000000000000000e+00) (0, 0, 0.00000000000000000000e+00) (0, 0, 0.00000000000000000000e+00) (0, 0, 0.00000000000000000000e+00) (0, 0, 0.00000000000000000000e+00) (0, 0, 0.00000000000000000000e+00) (0, 0, 0.00000000000000000000e+00) (0, 0, 0.00000000000000000000e+00) (0, 0, 0.00000000000000000000e+00) (0, 0, 0.00000000000000000000e+00) (0, 0, 0.00000000000000000000e+00) (0, 0, 0.00000000000000000000e+00) (0, 0, 0.00000000000000000000e+00) (0, 0, 0.00000000000000000000e+00) (0, 0, 0.00000000000000000000e+00) (0, 0, 0.00000000000000000000e+00) (0, 0, 0.00000000000000000000e+00) (0, 0, 0.00000000000000000000e+00) (0, 0, 0.00000000000000000000e+00) (0, 0, 0.00000000000000000000e+00) (0, 0, 0.00000000000000000000e+00) (0, 0, 0.00000000000000000000e+00) (0, 0, 0.00000000000000000000e+00) (0, 0, 0.00000000000000000000e+00) (0, 0, 0.00000000000000000000e+00) (0, 0, 0.00000000000000000000e+00) (0, 0, 0.00000000000000000000e+00) (0, 0, 0.00000000000000000000e+00) (0, 0, 0.00000000000000000000e+00) (0, 0, 0.00000000000000000000e+00) (0, 0, 0.00000000000000000000e+00) (0, 0, 0.00000000000000000000e+00) (0, 0, 0.00000000000000000000e+00) (0, 0, 0.00000000000000000000e+00) (0, 0, 0.00000000000000000000e+00) (0, 0, 0.00000000000000000000e+00) (0, 0, 0.00000000000000000000e+00) (0, 0, 0.00000000000000000000e+00) (0, 0, 0.00000000000000000000e+00) (0, 0, 0.00000000000000000000e+00) (0, 0, 0.00000000000000000000e+00) (0, 0, 0.00000000000000000000e+00) (0, 0, 0.00000000000000000000e+00) (0, 0, 0.00000000000000000000e+00) (0, 0, 0.00000000000000000000e+00) (0, 0, 0.00000000000000000000e+00) (0, 0, 0.00000000000000000000e+00) (0, 0, 0.00000000000000000000e+00) (0, 0, 0.00000000000000000000e+00) (0, 0, 0.00000000000000000000e+00) (0, 0, 0.00000000000000000000e+00) (0, 0, 0.00000000000000000000e+00) (0, 0, 0.00000000000000000000e+00) (0, 0, 0.00000000000000000000e+00) (0, 0, 0.00000000000000000000e+00) (0, 0, 0.00000000000000000000e+00) (0, 0, 0.00000000000000000000e+00) (0, 0, 0.00000000000000000000e+00) (0, 0, 0.00000000000000000000e+00) (0, 0, 0.00000000000000000000e+00) (0, 0, 0.00000000000000000000e+00) (0, 0, 0.00000000000000000000e+00) (0, 0, 0.00000000000000000000e+00) (0, 0, 0.00000000000000000000e+00) (0, 0, 0.00000000000000000000e+00) (0, 0, 0.00000000000000000000e+00) (0, 0, 0.00000000000000000000e+00) (0, 0, 0.00000000000000000000e+00) (0, 0, 0.00000000000000000000e+00) (0, 0, 0.00000000000000000000e+00) (0, 0, 0.00000000000000000000e+00) (0, 0, 0.00000000000000000000e+00) (0, 0, 0.00000000000000000000e+00) (0, 0, 0.00000000000000000000e+00) (0, 0, 0.00000000000000000000e+00) (0, 0, 0.00000000000000000000e+00) (0, 0, 0.00000000000000000000e+00) (0, 0, 0.00000000000000000000e+00) (0, 0, 0.00000000000000000000e+00) (0, 0, 0.00000000000000000000e+00) (0, 0, 0.00000000000000000000e+00) (0, 0, 0.00000000000000000000e+00) (0, 0, 0.00000000000000000000e+00) (0, 0, 0.00000000000000000000e+00) (0, 0, 0.00000000000000000000e+00) (0, 0, 0.00000000000000000000e+00) (0, 0, 0.00000000000000000000e+00) (0, 0, 0.00000000000000000000e+00) (0, 0, 0.00000000000000000000e+00) (0, 0, 0.00000000000000000000e+00) (0, 0, 0.00000000000000000000e+00) (0, 0, 0.00000000000000000000e+00) (0, 0, 0.00000000000000000000e+00) (0, 0, 0.00000000000000000000e+00) (0, 0, 0.00000000000000000000e+00) (0, 0, 0.00000000000000000000e+00) (0, 0, 0.00000000000000000000e+00) (0, 0, 0.00000000000000000000e+00) (0, 0, 0.00000000000000000000e+00) (0, 0, 0.00000000000000000000e+00) (0, 0, 0.00000000000000000000e+00) (0, 0, 0.00000000000000000000e+00) (0, 0, 0.00000000000000000000e+00) (0, 0, 0.00000000000000000000e+00) (0, 0, 0.00000000000000000000e+00) (0, 0, 0.00000000000000000000e+00) (0, 0, 0.00000000000000000000e+00) (0, 0, 0.00000000000000000000e+00) (0, 0, 0.00000000000000000000e+00) (0, 0, 0.00000000000000000000e+00) (0, 0, 0.00000000000000000000e+00) (0, 0, 0.00000000000000000000e+00) (0, 0, 0.00000000000000000000e+00) (0, 0, 0.00000000000000000000e+00) (0, 0, 0.00000000000000000000e+00) (0, 0, 0.00000000000000000000e+00) (0, 0, 0.00000000000000000000e+00) (0, 0, 0.00000000000000000000e+00) (0, 0, 0.00000000000000000000e+00) (0, 0, 0.00000000000000000000e+00) (0, 0, 0.00000000000000000000e+00) (0, 0, 0.00000000000000000000e+00) (0, 0, 0.00000000000000000000e+00) (0, 0, 0.00000000000000000000e+00) (0, 0, 0.00000000000000000000e+00) (0, 0, 0.00000000000000000000e+00) (0, 0, 0.00000000000000000000e+00) (0, 0, 0.00000000000000000000e+00) (0, 0, 0.00000000000000000000e+00) (0, 0, 0.00000000000000000000e+00) (0, 0, 0.00000000000000000000e+00) (0, 0, 0.00000000000000000000e+00) (0, 0, 0.00000000000000000000e+00) (0, 0, 0.00000000000000000000e+00) (0, 0, 0.00000000000000000000e+00) (0, 0, 0.00000000000000000000e+00) (0, 0, 0.00000000000000000000e+00) (0, 0, 0.00000000000000000000e+00) (0, 0, 0.00000000000000000000e+00) (0, 0, 0.00000000000000000000e+00) (0, 0, 0.00000000000000000000e+00) (0, 0, 0.00000000000000000000e+00) (0, 0, 0.00000000000000000000e+00) (0, 0, 0.00000000000000000000e+00) (0, 0, 0.00000000000000000000e+00) (0, 0, 0.00000000000000000000e+00) (0, 0, 0.00000000000000000000e+00) (0, 0, 0.00000000000000000000e+00) (0, 0, 0.00000000000000000000e+00) (0, 0, 0.00000000000000000000e+00) (0, 0, 0.00000000000000000000e+00) (0, 0, 0.00000000000000000000e+00) (0, 0, 0.00000000000000000000e+00) (0, 0, 0.00000000000000000000e+00) (0, 0, 0.00000000000000000000e+00) (0, 0, 0.00000000000000000000e+00) (0, 0, 0.00000000000000000000e+00) (0, 0, 0.00000000000000000000e+00) (0, 0, 0.00000000000000000000e+00) (0, 0, 0.00000000000000000000e+00) (0, 0, 0.00000000000000000000e+00) (0, 0, 0.00000000000000000000e+00) (0, 0, 0.00000000000000000000e+00) (0, 0, 0.00000000000000000000e+00) (0, 0, 0.00000000000000000000e+00) (0, 0, 0.00000000000000000000e+00) (0, 0, 0.00000000000000000000e+00) (0, 0, 0.00000000000000000000e+00) (0, 0, 0.00000000000000000000e+00) (0, 0, 0.00000000000000000000e+00) (0, 0, 0.00000000000000000000e+00) (0, 0, 0.00000000000000000000e+00) (0, 0, 0.00000000000000000000e+00) (0, 0, 0.00000000000000000000e+00) (0, 0, 0.00000000000000000000e+00) (0, 0, 0.00000000000000000000e+00) (0, 0, 0.00000000000000000000e+00) (0, 0, 0.00000000000000000000e+00) (0, 0, 0.00000000000000000000e+00) (0, 0, 0.00000000000000000000e+00) (0, 0, 0.00000000000000000000e+00) (0, 0, 0.00000000000000000000e+00) (0, 0, 0.00000000000000000000e+00) (0, 0, 0.00000000000000000000e+00) (0, 0, 0.00000000000000000000e+00) (0, 0, 0.00000000000000000000e+00) (0, 0, 0.00000000000000000000e+00) (0, 0, 0.00000000000000000000e+00) (0, 0, 0.00000000000000000000e+00) (0, 0, 0.00000000000000000000e+00) (0, 0, 0.00000000000000000000e+00) (0, 0, 0.00000000000000000000e+00) (0, 0, 0.00000000000000000000e+00) (0, 0, 0.00000000000000000000e+00) (0, 0, 0.00000000000000000000e+00) (0, 0, 0.00000000000000000000e+00) (0, 0, 0.00000000000000000000e+00) (0, 0, 0.00000000000000000000e+00) (0, 0, 0.00000000000000000000e+00) (0, 0, 0.00000000000000000000e+00) (0, 0, 0.00000000000000000000e+00) (0, 0, 0.00000000000000000000e+00) (0, 0, 0.00000000000000000000e+00) (0, 0, 0.00000000000000000000e+00) (0, 0, 0.00000000000000000000e+00) (0, 0, 0.00000000000000000000e+00) (0, 0, 0.00000000000000000000e+00) (0, 0, 0.00000000000000000000e+00) (0, 0, 0.00000000000000000000e+00) (0, 0, 0.00000000000000000000e+00) (0, 0, 0.00000000000000000000e+00) (0, 0, 0.00000000000000000000e+00) (0, 0, 0.00000000000000000000e+00) (0, 0, 0.00000000000000000000e+00) (0, 0, 0.00000000000000000000e+00) (0, 0, 0.00000000000000000000e+00) (0, 0, 0.00000000000000000000e+00) (0, 0, 0.00000000000000000000e+00) (0, 0, 0.00000000000000000000e+00) (0, 0, 0.00000000000000000000e+00) (0, 0, 0.00000000000000000000e+00) (0, 0, 0.00000000000000000000e+00) (0, 0, 0.00000000000000000000e+00) (0, 0, 0.00000000000000000000e+00) (0, 0, 0.00000000000000000000e+00) (0, 0, 0.00000000000000000000e+00) (0, 0, 0.00000000000000000000e+00) (0, 0, 0.00000000000000000000e+00) (0, 0, 0.00000000000000000000e+00) (0, 0, 0.00000000000000000000e+00) (0, 0, 0.00000000000000000000e+00) (0, 0, 0.00000000000000000000e+00) (0, 0, 0.00000000000000000000e+00) (0, 0, 0.00000000000000000000e+00) (0, 0, 0.00000000000000000000e+00) (0, 0, 0.00000000000000000000e+00) (0, 0, 0.00000000000000000000e+00) (0, 0, 0.00000000000000000000e+00) (0, 0, 0.00000000000000000000e+00) (0, 0, 0.00000000000000000000e+00) (0, 0, 0.00000000000000000000e+00) (0, 0, 0.00000000000000000000e+00) (0, 0, 0.00000000000000000000e+00) (0, 0, 0.00000000000000000000e+00) (0, 0, 0.00000000000000000000e+00) (0, 0, 0.00000000000000000000e+00) (0, 0, 0.00000000000000000000e+00) (0, 0, 0.00000000000000000000e+00) (0, 0, 0.00000000000000000000e+00) (0, 0, 0.00000000000000000000e+00) (0, 0, 0.00000000000000000000e+00) (0, 0, 0.00000000000000000000e+00) (0, 0, 0.00000000000000000000e+00) (0, 0, 0.00000000000000000000e+00) (0, 0, 0.00000000000000000000e+00) (0, 0, 0.00000000000000000000e+00) (0, 0, 0.00000000000000000000e+00) (0, 0, 0.00000000000000000000e+00) (0, 0, 0.00000000000000000000e+00) (0, 0, 0.00000000000000000000e+00) (0, 0, 0.00000000000000000000e+00) (0, 0, 0.00000000000000000000e+00) (0, 0, 0.00000000000000000000e+00) (0, 0, 0.00000000000000000000e+00) (0, 0, 0.00000000000000000000e+00) (0, 0, 0.00000000000000000000e+00) (0, 0, 0.00000000000000000000e+00) (0, 0, 0.00000000000000000000e+00) (0, 0, 0.00000000000000000000e+00) (0, 0, 0.00000000000000000000e+00) (0, 0, 0.00000000000000000000e+00) (0, 0, 0.00000000000000000000e+00) (0, 0, 0.00000000000000000000e+00) (0, 0, 0.00000000000000000000e+00) (0, 0, 0.00000000000000000000e+00) (0, 0, 0.00000000000000000000e+00) (0, 0, 0.00000000000000000000e+00) (0, 0, 0.00000000000000000000e+00) (0, 0, 0.00000000000000000000e+00) (0, 0, 0.00000000000000000000e+00) (0, 0, 0.00000000000000000000e+00) (0, 0, 0.00000000000000000000e+00) (0, 0, 0.00000000000000000000e+00) (0, 0, 0.00000000000000000000e+00) (0, 0, 0.00000000000000000000e+00) (0, 0, 0.00000000000000000000e+00) (0, 0, 0.00000000000000000000e+00) (0, 0, 0.00000000000000000000e+00) (0, 0, 0.00000000000000000000e+00) (0, 0, 0.00000000000000000000e+00) (0, 0, 0.00000000000000000000e+00) (0, 0, 0.00000000000000000000e+00) (0, 0, 0.00000000000000000000e+00) (0, 0, 0.00000000000000000000e+00) (0, 0, 0.00000000000000000000e+00) (0, 0, 0.00000000000000000000e+00) (0, 0, 0.00000000000000000000e+00) (0, 0, 0.00000000000000000000e+00) (0, 0, 0.00000000000000000000e+00) (0, 0, 0.00000000000000000000e+00) (0, 0, 0.00000000000000000000e+00) (0, 0, 0.00000000000000000000e+00) (0, 0, 0.00000000000000000000e+00) (0, 0, 0.00000000000000000000e+00) (0, 0, 0.00000000000000000000e+00) (0, 0, 0.00000000000000000000e+00) (0, 0, 0.00000000000000000000e+00) (0, 0, 0.00000000000000000000e+00) (0, 0, 0.00000000000000000000e+00) (0, 0, 0.00000000000000000000e+00) (0, 0, 0.00000000000000000000e+00) (0, 0, 0.00000000000000000000e+00) (0, 0, 0.00000000000000000000e+00) (0, 0, 0.00000000000000000000e+00) (0, 0, 0.00000000000000000000e+00) (0, 0, 0.00000000000000000000e+00) (0, 0, 0.00000000000000000000e+00) (0, 0, 0.00000000000000000000e+00) (0, 0, 0.00000000000000000000e+00) (0, 0, 0.00000000000000000000e+00) (0, 0, 0.00000000000000000000e+00) (0, 0, 0.00000000000000000000e+00) (0, 0, 0.00000000000000000000e+00) (0, 0, 0.00000000000000000000e+00) (0, 0, 0.00000000000000000000e+00) (0, 0, 0.00000000000000000000e+00) (0, 0, 0.00000000000000000000e+00) (0, 0, 0.00000000000000000000e+00) (0, 0, 0.00000000000000000000e+00) (0, 0, 0.00000000000000000000e+00) (0, 0, 0.00000000000000000000e+00) (0, 0, 0.00000000000000000000e+00) (0, 0, 0.00000000000000000000e+00) (0, 0, 0.00000000000000000000e+00) (0, 0, 0.00000000000000000000e+00) (0, 0, 0.00000000000000000000e+00) (0, 0, 0.00000000000000000000e+00) (0, 0, 0.00000000000000000000e+00) (0, 0, 0.00000000000000000000e+00) (0, 0, 0.00000000000000000000e+00) (0, 0, 0.00000000000000000000e+00) (0, 0, 0.00000000000000000000e+00) (0, 0, 0.00000000000000000000e+00) (0, 0, 0.00000000000000000000e+00) (0, 0, 0.00000000000000000000e+00) (0, 0, 0.00000000000000000000e+00) (0, 0, 0.00000000000000000000e+00) (0, 0, 0.00000000000000000000e+00) (0, 0, 0.00000000000000000000e+00) (0, 0, 0.00000000000000000000e+00) (0, 0, 0.00000000000000000000e+00) (0, 0, 0.00000000000000000000e+00) (0, 0, 0.00000000000000000000e+00) (0, 0, 0.00000000000000000000e+00) (0, 0, 0.00000000000000000000e+00) (0, 0, 0.00000000000000000000e+00) (0, 0, 0.00000000000000000000e+00) (0, 0, 0.00000000000000000000e+00) (0, 0, 0.00000000000000000000e+00) (0, 0, 0.00000000000000000000e+00) (0, 0, 0.00000000000000000000e+00) (0, 0, 0.00000000000000000000e+00) (0, 0, 0.00000000000000000000e+00) (0, 0, 0.00000000000000000000e+00) (0, 0, 0.00000000000000000000e+00) (0, 0, 0.00000000000000000000e+00) (0, 0, 0.00000000000000000000e+00) (0, 0, 0.00000000000000000000e+00) (0, 0, 0.00000000000000000000e+00) (0, 0, 0.00000000000000000000e+00) (0, 0, 0.00000000000000000000e+00) (0, 0, 0.00000000000000000000e+00) (0, 0, 0.00000000000000000000e+00) (0, 0, 0.00000000000000000000e+00) (0, 0, 0.00000000000000000000e+00) (0, 0, 0.00000000000000000000e+00) (0, 0, 0.00000000000000000000e+00) (0, 0, 0.00000000000000000000e+00) (0, 0, 0.00000000000000000000e+00) (0, 0, 0.00000000000000000000e+00) (0, 0, 0.00000000000000000000e+00) (0, 0, 0.00000000000000000000e+00) (0, 0, 0.00000000000000000000e+00) (0, 0, 0.00000000000000000000e+00) (0, 0, 0.00000000000000000000e+00) (0, 0, 0.00000000000000000000e+00) (0, 0, 0.00000000000000000000e+00) (0, 0, 0.00000000000000000000e+00) (0, 0, 0.00000000000000000000e+00) (0, 0, 0.00000000000000000000e+00) (0, 0, 0.00000000000000000000e+00) (0, 0, 0.00000000000000000000e+00) (0, 0, 0.00000000000000000000e+00) (0, 0, 0.00000000000000000000e+00) (0, 0, 0.00000000000000000000e+00) (0, 0, 0.00000000000000000000e+00) (0, 0, 0.00000000000000000000e+00) (0, 0, 0.00000000000000000000e+00) (0, 0, 0.00000000000000000000e+00) (0, 0, 0.00000000000000000000e+00) (0, 0, 0.00000000000000000000e+00) (0, 0, 0.00000000000000000000e+00) (0, 0, 0.00000000000000000000e+00) (0, 0, 0.00000000000000000000e+00) (0, 0, 0.00000000000000000000e+00) (0, 0, 0.00000000000000000000e+00) (0, 0, 0.00000000000000000000e+00) (0, 0, 0.00000000000000000000e+00) (0, 0, 0.00000000000000000000e+00) (0, 0, 0.00000000000000000000e+00) (0, 0, 0.00000000000000000000e+00) (0, 0, 0.00000000000000000000e+00) (0, 0, 0.00000000000000000000e+00) (0, 0, 0.00000000000000000000e+00) (0, 0, 0.00000000000000000000e+00) (0, 0, 0.00000000000000000000e+00) (0, 0, 0.00000000000000000000e+00) (0, 0, 0.00000000000000000000e+00) (0, 0, 0.00000000000000000000e+00) (0, 0, 0.00000000000000000000e+00) (0, 0, 0.00000000000000000000e+00) (0, 0, 0.00000000000000000000e+00) (0, 0, 0.00000000000000000000e+00) (0, 0, 0.00000000000000000000e+00) (0, 0, 0.00000000000000000000e+00) (0, 0, 0.00000000000000000000e+00) (0, 0, 0.00000000000000000000e+00) (0, 0, 0.00000000000000000000e+00) (0, 0, 0.00000000000000000000e+00) (0, 0, 0.00000000000000000000e+00) (0, 0, 0.00000000000000000000e+00) (0, 0, 0.00000000000000000000e+00) (0, 0, 0.00000000000000000000e+00) (0, 0, 0.00000000000000000000e+00) (0, 0, 0.00000000000000000000e+00) (0, 0, 0.00000000000000000000e+00) (0, 0, 0.00000000000000000000e+00) (0, 0, 0.00000000000000000000e+00) (0, 0, 0.00000000000000000000e+00) (0, 0, 0.00000000000000000000e+00) (0, 0, 0.00000000000000000000e+00) (0, 0, 0.00000000000000000000e+00) (0, 0, 0.00000000000000000000e+00) (0, 0, 0.00000000000000000000e+00) (0, 0, 0.00000000000000000000e+00) (0, 0, 0.00000000000000000000e+00) (0, 0, 0.00000000000000000000e+00) (0, 0, 0.00000000000000000000e+00) (0, 0, 0.00000000000000000000e+00) (788, 3, 5.00000000000000000000e-01) (788, 3, 5.00000000000000000000e-01) (788, 3, 5.00000000000000000000e-01) (788, 3, 5.00000000000000000000e-01) (788, 3, 5.00000000000000000000e-01) (788, 3, 5.00000000000000000000e-01) (788, 3, 5.00000000000000000000e-01) (788, 3, 5.00000000000000000000e-01) (788, 3, 5.00000000000000000000e-01) (788, 3, 5.00000000000000000000e-01) (788, 3, 5.00000000000000000000e-01) (788, 3, 5.00000000000000000000e-01) (788, 3, 5.00000000000000000000e-01) (788, 3, 5.00000000000000000000e-01) (788, 3, 5.00000000000000000000e-01) (788, 3, 5.00000000000000000000e-01) (788, 3, 5.00000000000000000000e-01) (788, 3, 5.00000000000000000000e-01) (788, 3, 5.00000000000000000000e-01) (788, 3, 5.00000000000000000000e-01) (788, 3, 5.00000000000000000000e-01) (788, 3, 5.00000000000000000000e-01) (788, 3, 5.00000000000000000000e-01) (788, 3, 5.00000000000000000000e-01) (788, 3, 5.00000000000000000000e-01) (788, 3, 5.00000000000000000000e-01) (788, 3, 5.00000000000000000000e-01) (788, 3, 5.00000000000000000000e-01) (788, 3, 5.00000000000000000000e-01) (788, 3, 5.00000000000000000000e-01) (788, 3, 5.00000000000000000000e-01) (788, 3, 5.00000000000000000000e-01) (788, 3, 5.00000000000000000000e-01) (788, 3, 5.00000000000000000000e-01) (788, 3, 5.00000000000000000000e-01) (788, 3, 5.00000000000000000000e-01) (788, 3, 5.00000000000000000000e-01) (788, 3, 5.00000000000000000000e-01) (788, 3, 5.00000000000000000000e-01) (788, 3, 5.00000000000000000000e-01) (788, 3, 5.00000000000000000000e-01) (788, 3, 5.00000000000000000000e-01) (788, 3, 5.00000000000000000000e-01) (788, 3, 5.00000000000000000000e-01) (788, 3, 5.00000000000000000000e-01) (788, 3, 5.00000000000000000000e-01) (788, 3, 5.00000000000000000000e-01) (788, 3, 5.00000000000000000000e-01) (788, 3, 5.00000000000000000000e-01) (788, 3, 5.00000000000000000000e-01) (788, 3, 5.00000000000000000000e-01) (788, 3, 5.00000000000000000000e-01) (788, 3, 5.00000000000000000000e-01) (788, 3, 5.00000000000000000000e-01) (788, 3, 5.00000000000000000000e-01) (788, 3, 5.00000000000000000000e-01) (788, 3, 5.00000000000000000000e-01) (788, 3, 5.00000000000000000000e-01) (788, 3, 5.00000000000000000000e-01) (788, 3, 5.00000000000000000000e-01) (788, 3, 5.00000000000000000000e-01) (788, 3, 5.00000000000000000000e-01) (788, 3, 5.00000000000000000000e-01) (788, 3, 5.00000000000000000000e-01) (788, 3, 5.00000000000000000000e-01) (788, 3, 5.00000000000000000000e-01) (788, 3, 5.00000000000000000000e-01) (788, 3, 5.00000000000000000000e-01) (788, 3, 5.00000000000000000000e-01) (788, 3, 5.00000000000000000000e-01) (0, 3, 0.00000000000000000000e+00) (71, 3, 5.00000000000000000000e-01) (71, 3, 5.00000000000000000000e-01) (71, 3, 5.00000000000000000000e-01) (0, 3, 0.00000000000000000000e+00) 
connections (connected_to_neuron, weight)=(0, 5.56035401146337537881e-02) (1, -6.72983475079686338516e-02) (2, -6.66745380509984747475e-02) (3, 8.86048342372582203863e-02) (4, 4.18646295987490054454e-04) (5, 2.20853601338127612796e-02) (6, -7.16409764185639424960e-02) (7, -9.72509370002423434443e-02) (8, 2.55944211288243704538e-02) (9, 6.32335206406614558361e-02) (10, 8.42431105790345247097e-02) (11, -4.37422915461526794906e-03) (12, -7.80206341292572630453e-03) (13, 6.67716618218181651168e-02) (14, -6.92325081385350288299e-02) (15, 6.23137316163911297862e-02) (16, -5.01074316019624252383e-02) (17, -4.30595480158858442965e-02) (18, 4.49875164162810564639e-02) (19, -1.15350320275192808755e-02) (20, -5.52006512844783201258e-05) (21, -1.34871188990029339250e-01) (22, -5.75520965754467983544e-02) (23, 2.75796889769884707999e-03) (24, 2.55502922493588066621e-02) (25, 6.48909933071337985400e-02) (26, 8.30935202869229616596e-02) (27, -7.85928637400445384564e-02) (28, -1.96343290913228128713e-02) (29, 5.98896498981994554467e-02) (30, -7.67304866030428800450e-02) (31, -9.83769490291939441295e-02) (32, -1.20423823269697083393e-01) (33, 1.45879466245524332807e-02) (34, 9.19951819239268331341e-02) (35, 2.07967582217472510275e-02) (36, -5.17370736105330700227e-02) (37, -7.24339576031649140520e-02) (38, 2.58848263051285019942e-02) (39, 7.41083936030025869357e-02) (40, -8.54767878327411523287e-02) (41, -4.25091960740062238533e-02) (42, -1.06767684301823928550e-01) (43, -5.33318956345832650978e-02) (44, -4.51824688963545564868e-02) (45, -8.96513704165601693630e-02) (46, -2.56100845028621737498e-02) (47, -6.14872476065939643775e-02) (48, 3.57756837436726329860e-02) (49, -7.21611245308463045145e-02) (50, 6.71320127906533392625e-02) (51, -9.84992897715869925035e-02) (52, -7.58912843343781118310e-02) (53, -5.45699772007453565159e-02) (54, -2.05732488522962150834e-02) (55, 9.38492331238646865232e-02) (56, 6.89511796412824173874e-02) (57, -4.65784148786948931642e-02) (58, 9.22951193985007550813e-02) (59, -9.26885782802410879144e-02) (60, -6.32917419649468293574e-02) (61, -7.97433290546344236693e-02) (62, -9.11461880167780125195e-02) (63, -5.20453085707943199911e-02) (64, 1.81712314984395842399e-02) (65, -6.85701076567504508308e-02) (66, 3.44947748291306727220e-02) (67, -3.94675731214298233795e-02) (68, -4.80324278787634065951e-03) (69, -4.21191672398642177888e-02) (70, -6.56165247058657918888e-02) (71, -1.19848960691601395118e-02) (72, -1.23899349403187360869e-02) (73, -2.72032462387549155147e-02) (74, 6.93830096581280059143e-02) (75, 8.55558585953830053050e-02) (76, 2.33649735020413848452e-02) (77, -1.90091029526411499362e-02) (78, -1.00659291513549520314e-01) (79, -7.04269378912920906988e-02) (80, -4.82401249158135383976e-02) (81, -1.05414915233220898849e-01) (82, -6.06086888335492166013e-02) (83, 2.32385730100178149182e-02) (84, -5.66340095960839659539e-02) (85, 8.15710668693606782975e-02) (86, -2.07322188697003258195e-02) (87, -1.16258598065861251669e-01) (88, -9.03644612356013787746e-02) (89, -2.53372215685187009149e-02) (90, -6.53048950991709786784e-02) (91, -6.70375294715512548560e-02) (92, -2.31333675222497141266e-02) (93, 2.96873121659379330881e-03) (94, 3.15577360496268602072e-03) (95, -5.75481533167697123510e-02) (96, 2.26227072740265607032e-02) (97, -1.04705839116491908336e-01) (98, 1.27663988635607628108e-02) (99, -1.22889508205636946436e-01) (100, -3.24449742331050644539e-02) (101, 6.25292104449342717176e-02) (102, -3.59160605433569458944e-03) (103, 6.97177680057635973387e-02) (104, 1.44815057609243187653e-02) (105, 2.57605942669029489012e-02) (106, -3.27264001262359896516e-02) (107, 1.21155847404645078402e-01) (108, 8.32001270752898286487e-02) (109, 4.27333050820685456106e-02) (110, -1.14184532906534158547e-01) (111, -1.10176388195935406888e-01) (112, 5.26044531343656477512e-03) (113, -2.86675879781764300636e-02) (114, 2.80505096619478311304e-02) (115, 7.01446595590460297842e-02) (116, -1.21621493125346855080e-01) (117, -4.65180622515850780707e-02) (118, 5.98307313239993462939e-02) (119, -1.18695049670917457396e-01) (120, -6.02525587976754373187e-03) (121, -1.17770403033522874647e-01) (122, 3.77650638064794307372e-03) (123, 9.84472286660582479589e-02) (124, 4.47990105734642971025e-02) (125, 7.95115247326235313752e-02) (126, 8.65885209394385291226e-02) (127, -4.06170743887931673388e-02) (128, 3.60245219732182112016e-02) (129, 1.70563154651433290798e-02) (130, -4.95687065493474118827e-02) (131, -1.06873047670060186687e-01) (132, 3.75471183844331146684e-02) (133, 2.14531808208112129144e-02) (134, 3.64510530312840072553e-02) (135, 7.40022093949608272823e-02) (136, -3.69845448796873380037e-02) (137, -2.51860060313606054505e-02) (138, 4.58848796092259370027e-02) (139, -8.58257005957761970327e-02) (140, 9.06341789756064525330e-02) (141, 6.03654565547611515752e-02) (142, -1.91302761718309191630e-02) (143, -5.92169033404606626886e-03) (144, -5.39005672231821567064e-02) (145, -6.44918222413360942014e-02) (146, -5.53516284970353641959e-03) (147, -9.07914983494372551664e-02) (148, -7.47404828695418382845e-02) (149, -8.76185664005078579386e-02) (150, -8.29363644190137527801e-02) (151, 6.46015591061277621998e-02) (152, -6.41144273741056369698e-02) (153, 7.27700076728784485403e-03) (154, 3.01327109790042284299e-02) (155, 1.80936156409520210175e-02) (156, -1.16821903318158504259e-01) (157, 1.98532764954449277017e-02) (158, 1.08556132504042029963e-01) (159, 6.15581092941422380882e-02) (160, -7.32265108337445125297e-02) (161, -7.04836266255030458039e-02) (162, 8.97057803518379187624e-02) (163, 3.13003106283899976137e-02) (164, -9.57673200826268666841e-02) (165, 6.82856125801593744074e-02) (166, -6.73174680154101229279e-02) (167, -3.68987643806956283621e-02) (168, -5.42839173531743726664e-02) (169, -4.51740453830464377960e-02) (170, -1.71296122758609892234e-02) (171, -1.22963668237268189398e-01) (172, -5.83651324578165070500e-02) (173, 6.82048038292297625906e-02) (174, 4.48200972761391355781e-02) (175, -1.03999190637810278587e-02) (176, 1.18461317870507940042e-01) (177, -9.83265085481514755639e-02) (178, 2.14788769463429077278e-02) (179, -7.78865403305557535418e-02) (180, -9.06369090172792594984e-03) (181, -2.48608047323823407732e-03) (182, 5.79162564837393950556e-02) (183, -7.16300802853969825756e-02) (184, -4.95453497986616461790e-02) (185, 1.78566901062303870495e-02) (186, -1.56814573840440757424e-01) (187, -4.90811395671130537566e-02) (188, -7.18357205422725242361e-02) (189, 7.13377866933904841718e-02) (190, -8.67284943593256002492e-02) (191, -7.79529098534372383300e-02) (192, -6.41682103690743715907e-02) (193, -4.02390558067097711681e-02) (194, 4.88265195778153707207e-02) (195, -9.61388477398878067703e-03) (196, -4.40606537472734358096e-02) (197, -3.56260381548092076170e-03) (198, 8.68850636692154558449e-03) (199, -1.23603158964740670461e-02) (200, 7.43076111694910834693e-02) (201, -1.16052133496766796128e-01) (202, -5.65435763298225563256e-02) (203, 2.55595028215697232798e-02) (204, 6.49492290059800886359e-02) (205, -8.01402410369688733560e-02) (206, -1.46768202302598516074e-01) (207, 8.60875865838831300092e-02) (208, -5.16106024051883865295e-03) (209, 6.94900262102397386910e-02) (210, -1.14459637775132058723e-01) (211, -2.84411591208176134371e-02) (212, -3.37319567361112973569e-02) (213, -1.19455055277774641054e-01) (214, 7.43305633069183263606e-02) (215, 7.34451206126043171230e-02) (216, 5.41781571532177208539e-02) (217, 5.30394776660721156691e-02) (218, 9.25122937792958038861e-02) (219, 4.80120872684082836135e-02) (220, 9.33660414660913845486e-02) (221, -9.92852419244308198598e-02) (222, -1.51213589235091733221e-01) (223, -1.20349882914077596641e-01) (224, -2.98721681243917062953e-02) (225, 7.63038743216644388401e-02) (226, -6.19710802308640201774e-02) (227, -4.49028212517174341034e-02) (228, -1.79320814342813321385e-02) (229, 8.86641929965617803244e-02) (230, 2.14521459101896239119e-02) (231, -8.19767216678209537095e-02) (232, 1.86552748032382982590e-02) (233, -9.22374304685556201111e-02) (234, -8.53224194375660077716e-02) (235, 7.39112402968734316655e-02) (236, -4.55299967449191503310e-02) (237, -4.23128963283985193300e-02) (238, 4.22483404554697614119e-02) (239, 6.38070598044294806650e-02) (240, 1.11197197121536681119e-01) (241, -1.55523038064123001779e-03) (242, -7.35950430450630077583e-02) (243, -3.58501994243571736609e-02) (244, 8.49353929741338414816e-02) (245, -1.00506585819287896921e-01) (246, -9.01360879436808593024e-02) (247, -4.28204829923829119465e-02) (248, 1.11245787263662895827e-01) (249, -5.50854876737512932916e-02) (250, -9.46052923286854197116e-02) (251, 1.45576396796868179351e-02) (252, -6.92886223434707043678e-02) (253, -9.64722737047844364211e-02) (254, 3.26746472568670148773e-02) (255, 1.55617497173422408840e-02) (256, 1.35071863299929734170e-01) (257, 3.68446372608615749233e-02) (258, 5.57850631830449708581e-02) (259, -6.62765242253578051868e-02) (260, 6.20279527705914074387e-02) (261, -5.81811095205182066126e-02) (262, -1.26598040614538218281e-03) (263, 3.49406046484288176912e-02) (264, -2.28019712812496215537e-02) (265, 1.07935142947453207446e-02) (266, -2.22125157837430378671e-03) (267, 1.22027401468627035366e-03) (268, 2.59246818812702145562e-02) (269, -4.50603866127643262751e-02) (270, -5.50110069080529589321e-05) (271, 3.03372397629211483505e-02) (272, 5.48068506045310890884e-02) (273, 1.76791402892892447751e-02) (274, -8.17938500165246579199e-02) (275, -1.01256851965130442728e-02) (276, -1.50416092057397516799e-03) (277, -5.85467074705314713401e-02) (278, 9.96311062339161751522e-02) (279, -4.91437024266926265892e-03) (280, -5.27207935756130591232e-02) (281, 7.45031616531836166084e-02) (282, -5.36259974476716930192e-02) (283, -1.83037315657255499068e-03) (284, 7.34759517147827723171e-02) (285, 1.15862332741414164605e-01) (286, 1.20251848245254852610e-01) (287, 7.03356457334680940097e-02) (288, 3.21645424133519541865e-02) (289, -7.79476480847183204881e-03) (290, 4.43218121537774113056e-03) (291, 7.71849597797407277477e-02) (292, -1.09760908050767935773e-01) (293, 2.49619602771522959561e-02) (294, -1.02240704159639067550e-01) (295, -7.07847684051897685364e-02) (296, -6.05973583980985164299e-02) (297, 5.38540072112839076496e-03) (298, -1.18458379881752992602e-01) (299, -8.62854896394383424907e-02) (300, 2.34971982787659247963e-03) (301, -1.93837298410835063775e-03) (302, 7.08417649036229279957e-02) (303, 7.32231524285806116559e-03) (304, 5.80506705309083298472e-02) (305, -1.14080729992315541010e-01) (306, -6.17966640100799883412e-03) (307, -6.35643176427898720648e-02) (308, -9.18273311820753945778e-02) (309, -1.49001337870196787216e-01) (310, 1.57616880310657847541e-01) (311, 9.62279386766608096915e-02) (312, 7.14938140521529236215e-02) (313, -6.29943029503008122827e-02) (314, -1.50926724840927450888e-01) (315, 1.28803954904804562887e-01) (316, -3.13901117625976708303e-02) (317, -8.11459884453362423340e-02) (318, 6.19998433528405681892e-02) (319, -8.78707931046596585345e-02) (320, -1.17987696774255225451e-02) (321, -1.07585077691369213060e-01) (322, 3.38187928853430144760e-02) (323, 1.36118431506232345773e-02) (324, 3.74798972197972965481e-02) (325, 7.93639464520457527108e-02) (326, -8.98938615259473605690e-02) (327, -2.16983286160591676284e-01) (328, 8.08033090614616172909e-02) (329, -6.09913116888078851718e-02) (330, -3.31995528232693834503e-02) (331, 9.07815450086610527258e-03) (332, 3.28217185689841459834e-03) (333, -1.03975276908142108545e-01) (334, -1.54865010414497045188e-01) (335, -2.92169290257776707864e-02) (336, -5.60679452242215450863e-02) (337, -6.74650023546837784849e-02) (338, -8.03176313690074500373e-02) (339, 5.64152249560909493931e-03) (340, -1.34624622832874824008e-01) (341, -8.87244820101843884030e-02) (342, 8.56920247193155085186e-03) (343, -9.03392618523583997014e-03) (344, -6.86492623935078954966e-02) (345, 5.43441387461027995004e-03) (346, 5.31600027559146932898e-03) (347, -6.91110503050820779158e-02) (348, -3.75621528827100384373e-02) (349, -1.68240101278027909260e-01) (350, 5.14560573524889958152e-02) (351, -1.23393059115686799798e-02) (352, -8.29131806454696668185e-02) (353, -4.55438127028164677079e-02) (354, 5.42775629927041772249e-02) (355, 1.06566326185298543283e-01) (356, -1.06131138649490103926e-02) (357, -9.16112702324628214168e-02) (358, -5.47714683403419180796e-02) (359, 9.70110263636008857135e-02) (360, -1.12153207312978536736e-01) (361, 1.11639680349418096705e-02) (362, -6.03561578694866707195e-02) (363, -1.04272013457620729704e-01) (364, -1.29729438206607709111e-02) (365, -3.20394226505510632333e-03) (366, 6.82935023377595484817e-02) (367, 1.44528583624563278232e-02) (368, 3.98586761587847310251e-02) (369, -1.35140644218997990622e-01) (370, -2.01862877816605607376e-03) (371, -6.45168582739253232416e-02) (372, -9.78100362625239361236e-02) (373, 9.89610425184681979927e-02) (374, -3.90857516100526353187e-02) (375, 3.66494007210817207554e-02) (376, -6.07382727703166258593e-02) (377, -2.73275993156846495891e-02) (378, -5.13514071738104330156e-02) (379, 3.03236892576599220694e-02) (380, -3.37976783993087573355e-02) (381, 4.95403470236291249007e-02) (382, 8.70607842782700341866e-02) (383, 4.65119178039236497169e-02) (384, 8.23548834134180812727e-02) (385, 8.81270177902201135023e-02) (386, 1.30541761310450435407e-02) (387, -1.20906720061982053682e-01) (388, 7.53894969839713630089e-02) (389, 2.06699903751786234762e-02) (390, 7.57491330723597949826e-02) (391, -6.15343006977594822460e-02) (392, -9.78780858305550310883e-02) (393, -3.69195879627654266475e-02) (394, -2.06323012706343990319e-02) (395, 2.31673741598465501856e-02) (396, 5.09746606849241709614e-02) (397, -6.94521480232635768370e-02) (398, 5.59058241827769045185e-03) (399, -2.21508090534668425353e-02) (400, -9.82309030440393776695e-02) (401, -9.85275138343836148769e-02) (402, -2.01194876783206619275e-02) (403, -3.12157462407056211784e-02) (404, 6.73319487441520619919e-02) (405, 5.86167891957349584953e-02) (406, 8.26484119625267854570e-02) (407, 2.86819057502636330648e-02) (408, -7.75168030264937746310e-02) (409, -1.20046998928129158846e-01) (410, -1.69110418525647877852e-02) (411, 5.45937821965438233041e-02) (412, 1.44068117513417304210e-02) (413, -1.85420640784883239416e-02) (414, -4.69986307677401887045e-03) (415, 8.10926008887067999165e-03) (416, -6.47068604318992851576e-02) (417, 4.92354386621633235976e-02) (418, 5.61616037883066326897e-02) (419, -4.64820058341975025917e-02) (420, -9.47628462662497886813e-04) (421, -9.80531469381386647233e-03) (422, 1.53707514646199590314e-02) (423, 8.71490536855147601702e-02) (424, -4.19821685936451333143e-02) (425, 1.08405159511659063276e-01) (426, 9.19059195523706990751e-04) (427, -1.95510217064252263914e-04) (428, 7.11100089016540731768e-02) (429, -1.22083114451409235901e-01) (430, -9.45100676547005885686e-02) (431, -6.88771063941639866135e-02) (432, -1.00311947099639586778e-01) (433, 6.25774949089579896055e-02) (434, -1.61023460460555725704e-02) (435, 4.76288187418566280606e-02) (436, -4.90081020301095793279e-02) (437, -2.50770280218194363542e-02) (438, 3.07882354449635319005e-02) (439, 5.17882769875043710850e-02) (440, 5.47735939490757300918e-02) (441, -9.59391270170102811177e-02) (442, -3.58088116273311274362e-02) (443, -2.82904804659035898073e-03) (444, 2.28822915429058547365e-02) (445, 5.39753879944194631113e-02) (446, -9.13794590175157628309e-02) (447, 8.09907574565373183928e-02) (448, 3.57740449051358114230e-02) (449, 2.37846592559341728224e-02) (450, -1.30800811549130285849e-01) (451, -2.28938864809099043574e-02) (452, -3.00769883123429351834e-02) (453, 5.72090319914585893057e-03) (454, -9.89866441326909679566e-02) (455, 1.36036070917403668044e-03) (456, -3.59084023056213397229e-02) (457, 6.07237265502262590910e-02) (458, -3.90784676296521693573e-02) (459, -3.97948542107808070356e-02) (460, 1.79575121811997272248e-02) (461, 3.78059941188861534100e-02) (462, 9.17986277382837161098e-03) (463, 6.01685226982717341615e-02) (464, -6.50589142538397086080e-02) (465, -1.16943363129087610219e-01) (466, 1.35748530381395345057e-02) (467, 1.00340620166097728612e-03) (468, -2.13144516831123877199e-02) (469, -6.69840354480079336330e-02) (470, -6.09647747056354313844e-02) (471, -4.96802131615608003057e-02) (472, -3.81380054487925057582e-02) (473, 3.09873350683968519503e-02) (474, -3.22273917692344896713e-02) (475, 4.81053519431583961885e-02) (476, -6.72932660463553267149e-02) (477, 5.06919178315752907982e-02) (478, 5.37205839222514858200e-02) (479, -8.63691861136507421648e-02) (480, -6.37631148313238258277e-04) (481, 7.11124331708823387288e-02) (482, 1.68297866820678429685e-03) (483, -9.52967654119901141918e-02) (484, -2.09727356511566070951e-02) (485, 4.31838073789697352023e-02) (486, 1.47460832849264453920e-02) (487, 6.36757304972704885060e-02) (488, -2.01753831933920955988e-02) (489, 6.71543255820937490252e-02) (490, -3.83998654913646347842e-02) (491, -8.30725317093944509717e-02) (492, -1.31740202201948222727e-02) (493, 9.68579599184983125459e-02) (494, 6.21277713909523798819e-02) (495, 7.81247182940539020013e-02) (496, 8.59531413225640000819e-02) (497, 2.50882435205464172576e-03) (498, -6.71907308754724902355e-02) (499, -2.83872987703056404996e-02) (500, -3.00132830443012657562e-02) (501, -1.07005550539343175648e-02) (502, -4.24323555439100608133e-02) (503, -3.96915018484610693239e-02) (504, 1.03426102776814285433e-01) (505, 7.82002184415593742939e-02) (506, 3.48938519098651867001e-02) (507, 4.58547249901293963587e-03) (508, 4.24355716113734016126e-02) (509, 6.30967199565870412448e-02) (510, 1.16027805015784697684e-02) (511, -8.46258630412151241496e-02) (512, -1.32115136146461874950e-02) (513, -8.31497088186213401118e-02) (514, -1.17282936594675923914e-01) (515, 7.92273089157157633933e-02) (516, -1.34676831200428503976e-01) (517, 3.73920038779001553952e-02) (518, 3.98788235885359845789e-02) (519, -4.57015574126609785965e-02) (520, 3.71104599383382943723e-02) (521, -5.63504336751299919617e-02) (522, 1.06481234927270334428e-02) (523, -9.69942653499901163983e-02) (524, -1.06638861609879218029e-01) (525, -3.12545295648597939997e-02) (526, 9.79355091588167275818e-02) (527, -8.98639260237391185315e-02) (528, -8.59509842207144443560e-03) (529, 5.88365279605876367874e-02) (530, 1.81530684796132844860e-02) (531, 1.25779365503276535643e-01) (532, -5.15377952705768291319e-02) (533, 5.69439954272143167291e-02) (534, 1.94082388196060023899e-02) (535, -3.20863213958260326542e-02) (536, 5.47409669952312535890e-02) (537, 2.80645434578428963623e-02) (538, 3.90096036859005207420e-02) (539, -3.11814937734058023056e-02) (540, -1.46515256734033212649e-02) (541, -5.65571597827207658837e-02) (542, -1.42988872061126544299e-02) (543, 8.42936199850337700146e-03) (544, 4.02503984341642806477e-03) (545, 1.17062410412413150929e-02) (546, 1.02047733777163626701e-01) (547, 1.85593741712256586618e-02) (548, -1.03930916792194336096e-01) (549, -5.13404062728259422826e-03) (550, -6.66087668621303946592e-02) (551, 9.94859085193429554250e-02) (552, 4.47814460326437166482e-02) (553, 1.94845513269605169482e-02) (554, 3.06497588025028688818e-02) (555, -1.49308626364465180103e-01) (556, 3.37094340287158455993e-02) (557, 1.53547434962415709631e-03) (558, -1.19916941779507332799e-01) (559, -3.52088107419481349813e-02) (560, 1.79413516329332174692e-02) (561, -4.74729283728657705521e-02) (562, 3.34255290317012586365e-03) (563, 6.24816715815404849499e-02) (564, -2.78403842166068671293e-02) (565, -6.59521165122924080126e-02) (566, -6.20024874539112716421e-02) (567, -6.81122479191968166479e-02) (568, 1.29810206074131816167e-02) (569, 2.21117410323893072432e-02) (570, 5.84802112749504623967e-02) (571, 9.27844561731830386186e-02) (572, -5.24185517656427443778e-02) (573, -2.11578848279792217091e-02) (574, -5.18496563836727195063e-03) (575, 7.65845643239904810828e-02) (576, 6.05311310470861632660e-02) (577, 1.53544792476898502714e-02) (578, -2.19010604363291984387e-02) (579, 1.09033709203341377947e-01) (580, -5.18227336412488415185e-02) (581, 3.12929932782752759368e-02) (582, 1.70027533099647645831e-02) (583, 2.57761650591621718775e-02) (584, -7.92624158662663114150e-02) (585, 7.80619395299010990219e-03) (586, 8.60285454091591905712e-02) (587, -8.49037725732284809244e-02) (588, -4.27026895022221339437e-02) (589, -9.71143931716009767285e-02) (590, 2.65005576765813032417e-03) (591, 1.16366599328120740031e-01) (592, -5.24307220371263912884e-02) (593, 5.99365157171430906757e-02) (594, 3.60650080716723026031e-02) (595, 7.08112466537748758144e-02) (596, 8.35585269112035511352e-02) (597, 1.19745905029954191612e-01) (598, -6.95081988742961426331e-02) (599, 1.01335989090403002372e-02) (600, 6.36695718798981208364e-02) (601, 8.72912750076525328913e-02) (602, -1.35043142769488647842e-02) (603, 8.64439609948279737150e-03) (604, -8.76424008634172913013e-02) (605, -3.37161887933301179787e-02) (606, 2.77085168514167104470e-02) (607, 6.82816443646140462664e-03) (608, 5.51848694544130810580e-02) (609, -1.06678949383556029296e-01) (610, 4.54964308110159323939e-02) (611, 1.13856766451427782183e-01) (612, -1.89233128135221336311e-03) (613, -1.64562705511250295665e-02) (614, 5.39855731212059240104e-03) (615, 7.25999317590383247412e-02) (616, -7.14751260305570290665e-02) (617, 7.19250762621050695328e-03) (618, 1.08594821469015015425e-01) (619, 9.77806216199145076043e-04) (620, -1.85638542171097354304e-03) (621, -3.61090422056641185966e-02) (622, -2.45693366744205235475e-02) (623, -7.89632619991097461920e-02) (624, -6.15501640708099387322e-02) (625, -9.84808517876330224983e-02) (626, -4.36168126237804557044e-02) (627, -1.09444473923898194512e-01) (628, -2.35697020540908380726e-01) (629, -1.12952950303245897024e-01) (630, 5.08859508610189983924e-02) (631, 3.08399762474731164996e-02) (632, -1.05310864183367589031e-01) (633, -3.46382837004220872634e-02) (634, -3.00025618147440192862e-02) (635, -1.05044920666149343980e-01) (636, 3.19443427271709212700e-02) (637, 8.50627600004413703116e-02) (638, 5.22096561946678375254e-02) (639, -2.18333374022487806954e-02) (640, -9.13101663844353705901e-02) (641, 1.08420250808843755125e-02) (642, -7.81967099164847245785e-02) (643, 5.55803649085936241070e-02) (644, 1.13795462990445891971e-01) (645, 5.61734048043962680419e-02) (646, 3.54527884265215739723e-02) (647, -7.86505743035925512785e-03) (648, -3.78295948881775048744e-02) (649, 7.26785142243239618010e-02) (650, 3.55850628605489660572e-02) (651, 7.25021181262628655606e-02) (652, 8.97150025156624453260e-02) (653, -6.73397312231203415411e-02) (654, 6.64455579665030743319e-02) (655, -1.36050406118948218059e-02) (656, -1.35479706254964925999e-02) (657, 8.24573859158105881839e-02) (658, 1.71861310407822875934e-02) (659, -5.04276964396611765418e-02) (660, 1.48322957601607435807e-01) (661, -7.72442760175683640345e-02) (662, 7.62368889690186596342e-02) (663, 1.13941036806879267274e-01) (664, 1.12994346170932277729e-02) (665, -7.23958205585001207671e-02) (666, 1.35330486877618172414e-01) (667, 1.82508556357527662595e-02) (668, -5.22708605055211272816e-02) (669, 6.30110125090193179398e-02) (670, 3.51076602895854933406e-02) (671, -5.12229267819186082078e-02) (672, -4.46215926210248095551e-02) (673, 2.69531776755260396583e-02) (674, 7.66206099998580497656e-02) (675, -8.29020866949072010588e-02) (676, -3.80685015772797771816e-02) (677, -2.43006129793037206621e-02) (678, -1.06502324025642206018e-01) (679, -2.83039510813007759438e-02) (680, -1.43580168917134542994e-01) (681, -2.18209715166009553602e-03) (682, -9.45271708766584478623e-02) (683, -1.39063373120757199919e-01) (684, -5.84186353568078020615e-03) (685, -1.23857151300192327992e-01) (686, -9.01626275825806733355e-02) (687, 6.71620857107141505660e-02) (688, 6.77941884894992571192e-03) (689, -4.43604217667853129026e-02) (690, -1.00119594506214618090e-01) (691, 3.21849374260923604477e-03) (692, -3.29074270951453711279e-03) (693, -1.33769368577428632294e-01) (694, 6.30449470849430392005e-03) (695, -1.07523519962273758632e-01) (696, -7.33082847536397630428e-02) (697, -5.56100823260616532878e-03) (698, -2.10964576335584547140e-02) (699, -3.61563031296696507644e-02) (700, 9.30110078772776183165e-02) (701, -1.23338419275781888129e-01) (702, -2.21837887400326084011e-03) (703, 1.33692495932491994814e-01) (704, -3.72570703474087204857e-03) (705, -3.32202646522928310771e-03) (706, 1.34556654241913459247e-01) (707, -1.48198092826879429529e-01) (708, -6.82130559903876970695e-02) (709, -2.79700289897941191397e-02) (710, -3.39916759591307737765e-02) (711, -2.92783654034555300416e-02) (712, 1.50233564862373186743e-01) (713, 2.73004282255674135538e-02) (714, -2.24726945892316683218e-02) (715, 8.44165791126663678234e-02) (716, -1.67990983301554347440e-01) (717, 5.31370404320711670065e-02) (718, 7.61453613907271675831e-02) (719, 2.89752118334086073825e-04) (720, -3.49160143326737518188e-02) (721, 1.03262820409386044118e-01) (722, -6.18745452360536657421e-02) (723, -6.39379277860685490964e-02) (724, 1.25247732328894190168e-01) (725, -1.05647536308007564121e-01) (726, -3.63742401680823487786e-02) (727, -6.18153435651383541087e-04) (728, -1.43314612128798479773e-01) (729, 4.21319992738075216332e-02) (730, 9.75997078767877751515e-02) (731, -3.89490201217707748826e-02) (732, 7.15293648660833975006e-02) (733, 5.74071884634588976148e-03) (734, -1.31387091946560480293e-01) (735, 5.71245601104689790239e-02) (736, 8.66221682144963089911e-02) (737, 3.11547139177732468340e-02) (738, 1.26576041415087964248e-01) (739, -1.66054597678368165425e-01) (740, -2.06964361111503514223e-01) (741, 5.73193625952654328692e-02) (742, -2.12620598548482170331e-01) (743, -2.62680114252349661275e-01) (744, 4.28675956548842940208e-01) (745, 1.02064413638879664115e-01) (746, -1.44060651664063454902e-01) (747, -2.15280184088240192364e-02) (748, 9.33473195693238638748e-02) (749, -1.67541068736994702704e-01) (750, -7.75528096242247555470e-02) (751, 2.11221587665055721139e-01) (752, -1.35616792414744811307e-02) (753, 3.22632959567812765966e-02) (754, 2.02704994584649966782e-01) (755, -4.70108396824505461731e-02) (756, -7.00065839107148896181e-02) (757, 8.07272628395819258351e-03) (758, -3.09155747203130326639e-02) (759, -5.19768552683927687053e-02) (760, 1.60378642953073330402e-01) (761, -9.85051500627371345864e-02) (762, 3.25612368137107796584e-02) (763, 1.39560117176319886667e-01) (764, -3.85368983127205300132e-02) (765, -1.20717056998170105264e-01) (766, 4.12836552044312798948e-02) (767, -2.41625218527121467249e-02) (768, 6.25367624342267058868e-02) (769, 1.08169681688813495990e-02) (770, 2.45907816565735515280e-02) (771, -1.25565706896227341494e-01) (772, 1.25052275132242235456e-01) (773, -9.25212431038805183103e-02) (774, 5.14712628944558187039e-02) (775, 3.28729760422303840528e-02) (776, -1.25079926486874104530e-01) (777, -6.48052025143888849046e-02) (778, 1.50268854758616426937e-01) (779, -6.50186989218646052557e-03) (780, -7.30435833847983967404e-02) (781, 3.94793030430926825125e-02) (782, -4.72741286226598944609e-02) (783, -1.27901323463394417379e-01) (784, 4.49262007102197435948e-02) (785, -5.95705607175722462454e-02) (786, -8.43957440281281785766e-03) (787, -7.49309832022655112477e-03) (0, -1.65760285219479705510e-02) (1, -4.60080359952957929082e-02) (2, -6.52196275371134531751e-02) (3, -1.77108177693795498797e-02) (4, 8.81951746062108188351e-03) (5, 1.16433934516144116378e-01) (6, -6.57836632006006949425e-02) (7, -6.98132330607903472952e-02) (8, 5.52772356904361605867e-02) (9, 6.53533740466252371926e-02) (10, -4.00848585231151216535e-02) (11, 1.01782201726988583146e-01) (12, -9.06534836187564835308e-02) (13, 9.24826135009305244639e-03) (14, -5.35919178477025325014e-03) (15, 7.56255877011872412741e-02) (16, 8.01264016697630643282e-02) (17, 2.72997058201123396493e-02) (18, -6.43122676031028517318e-02) (19, 9.96572059208215427217e-02) (20, 1.13022833892424692803e-01) (21, -2.29959213264102152463e-01) (22, -3.16910892784725062299e-01) (23, -3.38012075670142853046e-01) (24, 8.69047715128763893777e-03) (25, -1.41391013989549008123e-01) (26, -1.73679165920778449950e-01) (27, 3.71000478482652468193e-02) (28, -1.50373571382942133878e-01) (29, 4.53200486509051578277e-02) (30, -7.19288234396839448737e-02) (31, -2.25481331855827728250e-02) (32, -2.25377987073718283328e-01) (33, -6.42880436321612569461e-02) (34, -3.71882182821540382966e-02) (35, 1.24224897288767191506e-01) (36, 2.05138816190738537681e-01) (37, 1.17439672170354517111e-01) (38, 3.72221895244278719317e-02) (39, 9.72349769198681129767e-02) (40, -8.39402483906695195959e-02) (41, -3.95796997715797474471e-02) (42, 1.00795476373778114532e-01) (43, -2.41509089337592734725e-02) (44, 2.51169251306327279138e-01) (45, 2.91211503269355020951e-01) (46, -1.70596093599117620832e-01) (47, 2.82982572487475853018e-02) (48, 1.15899831027283142793e-01) (49, 3.53304763347277658858e-02) (50, -7.32019646757589292907e-02) (51, 1.29116245830090348168e-01) (52, 1.43522664021411339164e-01) (53, -5.64845403082947245671e-03) (54, 4.24023489379280089928e-03) (55, 1.36766376431238123601e-01) (56, 2.86138986389701976965e-01) (57, 8.89518411054028013130e-02) (58, 6.36065346702587020022e-02) (59, 2.48549084782003631977e-01) (60, -2.25479596141529708975e-02) (61, -1.00398083708069948972e-01) (62, -2.02085274656470283150e-02) (63, -2.09382138166149173175e-01) (64, 5.49640044753480841444e-02) (65, 1.80910929999206188112e-01) (66, 1.60552170932817817040e-02) (67, -2.48087607969477187686e-02) (68, 4.31300330217599253713e-02) (69, -1.53748864705199383973e-01) (70, 3.88529285059609763575e-02) (71, 6.64816193226189511289e-02) (72, -8.49697643457304058190e-02) (73, 2.77479462293645949209e-03) (74, -1.15756188131466972169e-01) (75, 9.02598573396149878034e-02) (76, 2.62738621750839673741e-01) (77, -6.32252143885012746205e-02) (78, -9.19634605019196832432e-02) (79, -4.58486595963873005966e-03) (80, 4.53164303003659590940e-02) (81, -1.23014770200268810929e-02) (82, -1.82313705450122598428e-01) (83, -5.47936442706925125323e-02) (84, -1.49520087530359922084e-02) (85, 1.47133334266076387653e-01) (86, -4.58543897790323409791e-02) (87, 7.47000877768851379024e-02) (88, 1.76139911121232173308e-01) (89, -2.18040505437775596065e-02) (90, 3.32084108767956437402e-02) (91, 5.31615189540302676002e-03) (92, 6.90282725533701221887e-03) (93, -1.62593034344457210150e-01) (94, -7.06940929971548726041e-02) (95, 2.24290493666952611695e-01) (96, 1.31929513327825126412e-01) (97, 9.79147784783207936199e-02) (98, -5.58961216318566087025e-02) (99, -1.18173507968607011120e-01) (100, -1.55391352820779232724e-01) (101, -1.73964167122511101371e-02) (102, 4.14506583745172102473e-02) (103, -1.36374326812629138167e-02) (104, -7.57924847453967098776e-02) (105, 1.12843542532855611871e-01) (106, 9.36285435600171106474e-02) (107, -7.61523201224853923952e-02) (108, 1.58682083767589299228e-01) (109, 1.47674142822204479408e-01) (110, 9.17440109325966118847e-02) (111, 1.10632743036724365271e-01) (112, 1.34788354391054437942e-01) (113, 1.30676578781860011245e-04) (114, 5.13766295704465858485e-02) (115, 1.31797419462979348292e-01) (116, 8.48503298440956565951e-02) (117, 4.18528035195377817734e-02) (118, -2.90307907348348950838e-02) (119, -7.10835932189130270675e-02) (120, 8.26534304715442480482e-02) (121, 4.12295782146465672469e-02) (122, 7.68484274106881887212e-02) (123, 3.55704065931582574800e-02) (124, -9.65636718748129757595e-02) (125, 2.09235459045955862756e-01) (126, -6.59365059283523050407e-04) (127, -1.70770331360642457774e-01) (128, 6.79606797640049803411e-02) (129, -5.03652987794169573754e-02) (130, -6.22534633294034855933e-02) (131, 1.25879425722856042036e-01) (132, -5.26308229513090461427e-02) (133, 6.03814793821682155306e-02) (134, 1.38787684403437715230e-02) (135, 2.96585231839648667818e-02) (136, 5.66517424739697919578e-02) (137, -1.49824747707538813435e-01) (138, -2.08724637852643002400e-01) (139, 4.59651636857707560080e-02) (140, 9.12665064869728620556e-02) (141, -1.07214868229238813324e-01) (142, 1.13563686140378733436e-01) (143, -9.64053011808691517892e-02) (144, -1.02225601675563479431e-01) (145, 1.83058811120622333402e-01) (146, -1.31907009979620126749e-01) (147, -6.86369078950434946540e-02) (148, -8.53909222170154587339e-03) (149, 1.07101581093304032422e-01) (150, -2.56840297794808242182e-02) (151, 7.05294454709872314924e-02) (152, 8.29628507418628952097e-02) (153, -1.00153780748834953657e-02) (154, 2.32121756147043965812e-02) (155, 7.30079409555878799942e-02) (156, 7.00773640325262625606e-02) (157, -3.10039402723577099674e-02) (158, 1.70624884856235455033e-02) (159, -1.38560793840234054014e-02) (160, 4.05823506392941762977e-03) (161, -4.62181810936676748525e-02) (162, 8.18623085338007622225e-02) (163, 1.26887812134423329236e-02) (164, -6.60592060191969310257e-02) (165, 1.80934464417116455670e-02) (166, -6.30101674358684443744e-02) (167, 4.41371766398521783725e-02) (168, 9.47863314382712679462e-02) (169, 2.48320089833887480690e-01) (170, -8.43676663367802920357e-02) (171, -7.93462146795172185154e-02) (172, 1.57414006300345549194e-01) (173, -1.93042829937868531953e-01) (174, -3.37769136176803083660e-02) (175, -2.57283148791149808565e-02) (176, 1.20551498852710520238e-01) (177, 2.89093882649717748290e-02) (178, -6.65639327202230263181e-02) (179, 3.82693711462627483844e-02) (180, -1.71544668664387923995e-02) (181, -7.76980085693712435591e-02) (182, -6.23047763985019528721e-03) (183, -1.41078864388449031625e-02) (184, -6.92425583076880929445e-02) (185, -8.06556199647221055971e-02) (186, -5.94709230641777136794e-02) (187, 1.13072289436743269458e-02) (188, 1.61291495447705685029e-01) (189, 9.57312746432303213195e-02) (190, -1.70701785166123165549e-01) (191, 3.82339864547723423671e-02) (192, 2.07747240775629053722e-02) (193, -1.76423226651876485782e-01) (194, 2.48105274053650098898e-01) (195, 6.63746003107625742734e-02) (196, 7.08217754247998793060e-02) (197, -9.11771792372012834793e-02) (198, -5.66685700415741344660e-02) (199, -6.05306468104820916132e-02) (200, -1.40875963895874006804e-01) (201, 5.69168466592643099156e-02) (202, 3.39507993516408104751e-02) (203, -1.32370071757207552476e-01) (204, 1.49411810993686972049e-01) (205, -1.78730722092746652230e-01) (206, -2.47057905474809200164e-02) (207, 3.64634829137205143668e-02) (208, -7.82741691120752008937e-02) (209, 1.54212021965742657192e-01) (210, -1.05511935622790500866e-01) (211, -8.84651075993153068744e-02) (212, 2.87384825908464924815e-02) (213, -2.09125096038855512459e-01) (214, 1.41112751103972949851e-01) (215, -7.38635627096885516440e-02) (216, -2.34494636403609936492e-02) (217, -7.79016778173875074076e-02) (218, 5.06699919500954443219e-02) (219, 1.63340552728295368423e-01) (220, -5.55544043433318091019e-02) (221, 1.00913764762320390389e-01) (222, -4.45289700439880763855e-03) (223, -1.13303648557415370668e-01) (224, 1.04903861081804591904e-01) (225, -6.64067238922689262459e-02) (226, 1.99228411273633665424e-02) (227, -4.31161337938354219390e-02) (228, -1.05511251816487711119e-01) (229, 1.74538119079340053874e-02) (230, -6.01679098015315272363e-02) (231, -2.02190630899092124630e-04) (232, 6.49386219148291726766e-02) (233, -8.40399883093071592421e-02) (234, -2.94158669408799665346e-02) (235, 4.72605023114288577690e-02) (236, 3.01955157028738763181e-02) (237, 9.31188361615984394604e-02) (238, 3.35552594170179657729e-02) (239, 5.43307138900911562596e-02) (240, 1.36268794791117336951e-01) (241, -6.93993380216115403336e-03) (242, -1.01524182569176172480e-02) (243, -1.78300042774247546884e-01) (244, 1.42996531504432394799e-01) (245, -9.41827643554651594560e-02) (246, 9.35582075694976200708e-02) (247, -1.28002819200122242016e-01) (248, -2.77658578073232097105e-02) (249, -8.55452745036695133551e-02) (250, -2.07334293290340962446e-02) (251, -6.64965008264938872706e-02) (252, 1.72281592290376567300e-01) (253, -2.34209260075965181036e-01) (254, 1.12822592746689695509e-01) (255, 2.61311541044812953305e-02) (256, -6.26939527544825986327e-02) (257, 1.47147035322096105675e-02) (258, -4.56704422204136303853e-02) (259, -1.25822528283156875872e-01) (260, -1.84579395915762355107e-02) (261, -5.83439658572232691669e-02) (262, -4.58068764804316977401e-02) (263, -5.50274813906243900896e-02) (264, 1.07405554868371957977e-01) (265, -9.15485893170858017198e-02) (266, 2.78609759611591310813e-02) (267, 1.70955754966205519807e-01) (268, -1.20420083693090720911e-01) (269, -3.35434734259849945404e-02) (270, -2.44824372736157022667e-02) (271, -6.51718561432240803960e-03) (272, 1.09933194243245782595e-01) (273, -2.41494011395477964355e-01) (274, 1.40868651558849700134e-01) (275, -1.15623252799814293934e-01) (276, -7.17872014974237082630e-02) (277, 7.39228308152862223501e-02) (278, -1.11216974784132272697e-02) (279, -2.19662067740456934395e-01) (280, -2.32629164420385087242e-01) (281, -6.83751768282526706244e-02) (282, -1.59512806511746332849e-02) (283, 7.15297388527977567180e-03) (284, -6.45429629655789177667e-02) (285, -1.45373896708035511144e-02) (286, 1.99892939755778355215e-02) (287, -1.80766766734324658972e-02) (288, -1.26336584877431629126e-01) (289, 1.31733757019432250884e-02) (290, -6.73859469326429458974e-03) (291, -1.11191767849781755761e-01) (292, 2.79260012479098686244e-02) (293, -3.54844399880447025630e-01) (294, 9.96603656669947379765e-02) (295, 6.40968924580041926609e-02) (296, 4.61594550204585188369e-02) (297, -8.96376161594200498994e-02) (298, -2.52626492760578170993e-02) (299, -2.37538141086420268033e-01) (300, 6.58350262112789158531e-02) (301, 2.48593690172650011450e-03) (302, -1.14953417553765424586e-01) (303, 3.14972048386492203820e-02) (304, 6.13933103511828254240e-02) (305, -7.98083358428482436686e-02) (306, -6.22273862185809736175e-03) (307, 4.50295304888642056174e-01) (308, 1.72104135865078861078e-01) (309, 1.96866151403651823415e-01) (310, -2.16723348395119717880e-02) (311, -1.52033276524435101429e-01) (312, -1.83661449295633966150e-01) (313, 3.29055357370126796979e-02) (314, -9.89663921087118036990e-02) (315, -2.86672125247379117052e-01) (316, -3.96356156018351848958e-02) (317, -1.57114347297359235878e-01) (318, -2.27597506233134294629e-01) (319, 2.59248158860531062453e-02) (320, 2.15967927690494693183e-01) (321, -1.91163731246771051442e-01) (322, 1.36870804919211781769e-02) (323, -1.26316728479473866509e-01) (324, 5.32490355763459450450e-03) (325, -1.85893827910315806440e-01) (326, -1.72201042482932414890e-01) (327, 6.44647404058760198353e-01) (328, -5.09566109601037431354e-01) (329, -2.16538721111269705233e-01) (330, -7.23090993486753493870e-04) (331, -4.52575813416170175119e-02) (332, 1.43221811302071455607e-01) (333, -1.16956438674605200934e-01) (334, -2.31219454608167701570e-01) (335, 1.08831322983178421793e-01) (336, 2.18783679228459759791e-01) (337, 2.26276924204312918087e-02) (338, -3.12727379872962063523e-01) (339, 1.01452229878138650010e-01) (340, 7.63652209349190702614e-02) (341, -1.28402782201130719747e-02) (342, -3.97880667784033109635e-02) (343, -1.90235803158436689309e-01) (344, -9.89278020466984459036e-02) (345, -2.70575355236984338436e-01) (346, -9.04956854877940058968e-02) (347, -2.64740902534609634511e-01) (348, 1.00342649227547181523e-01) (349, 1.00336694310628693483e-01) (350, -1.74355108075159470626e-01) (351, -6.89115458201279701411e-02) (352, 1.23836150351185319413e-02) (353, -1.14173327666367702138e-01) (354, -1.97602206006125852289e-01) (355, 6.70943988598332041740e-02) (356, 8.85213536611798856857e-02) (357, 2.27196168968785000564e-01) (358, -3.83608906513187991605e-02) (359, -4.47657989631137856468e-02) (360, -2.65244690289256512816e-01) (361, -6.08413029895055398888e-02) (362, -1.53149148260936118771e-01) (363, -1.57392478081039205451e-01) (364, -1.53448722583112179274e-01) (365, -4.27451984426947678708e-02) (366, -1.53560190263664880783e-01) (367, -4.53941262430909209247e-01) (368, -1.14870633027616922406e-01) (369, 1.78638725935164555114e-01) (370, -3.38175411821118251932e-02) (371, -1.68013650544190457081e-01) (372, 1.08849697562580227661e-01) (373, -2.99527234621880911192e-01) (374, -1.02648782872419713774e-01) (375, -9.14973546702697870803e-02) (376, -2.33046913824323215225e-01) (377, 1.10309520102860367241e-01) (378, -7.77457286832095584295e-02) (379, -2.71731210564188585543e-01) (380, -9.02504164933341096466e-02) (381, 5.54227771392140373258e-03) (382, 1.32561401787127497442e-01) (383, 3.80500161648481202703e-02) (384, -1.20754019719409771971e-01) (385, 1.04675703808917677784e-01) (386, -9.74404432177126411663e-02) (387, -4.70433671381847717807e-01) (388, -1.98836033246899690496e-01) (389, 4.70111218688431739543e-02) (390, -6.62198047780288706621e-02) (391, -6.67277753300940523751e-02) (392, 2.36263166421951137375e-01) (393, -1.49614234419648550745e-01) (394, -6.35699330129234907449e-02) (395, -9.00903261355019274736e-02) (396, -1.03236737116076671139e-01) (397, 6.75687630167604996734e-02) (398, 4.65156696721642157200e-02) (399, 2.30108815603049694787e-02) (400, 5.97885297287895287055e-02) (401, -2.72813906796963191737e-02) (402, 8.75652713042352204287e-02) (403, -2.19746667393794337109e-01) (404, -1.32384847391444709919e-01) (405, -8.71057386496727342751e-02) (406, -5.52543963075321428735e-02) (407, 9.06816871217612681388e-03) (408, 1.81386431921207874618e-02) (409, -3.43466409436732553195e-02) (410, 2.16381455942876652077e-02) (411, 7.69752943990712895639e-02) (412, 3.36823578672812568024e-02) (413, -3.65980128100154344928e-01) (414, 3.40266058204412857879e-02) (415, -9.49216963655546003276e-02) (416, -1.02632173102143245402e-01) (417, 2.43602414046441145823e-02) (418, -1.70786564700021153973e-01) (419, -1.97362373605462937398e-01) (420, 1.51952110328559930608e-01) (421, -9.20916980896907683141e-02) (422, -4.63807203617104622101e-03) (423, -3.11922222994965303577e-01) (424, -1.39759230295187469872e-01) (425, -1.10735667440285137642e-01) (426, -3.51402031856050608982e-02) (427, 1.92652014502684293396e-01) (428, -1.66096443281689681859e-01) (429, 6.20498286748344396457e-02) (430, -4.86661434345492874276e-02) (431, 1.07330104522435812453e-01) (432, 7.36615352413016594157e-02) (433, -2.28109716390822780951e-01) (434, -6.67660904694194479170e-02) (435, -1.53258852655513255758e-01) (436, -6.36638807826558211778e-02) (437, -2.04517788519521202806e-02) (438, -1.69993767432610326518e-01) (439, 1.95169557913409119632e-01) (440, 1.38796497453822359480e-01) (441, 2.04891060389529935937e-02) (442, -7.51191964944161877371e-02) (443, -2.83932521780380864307e-01) (444, 6.64423474528246654769e-02) (445, -2.38003597718088988344e-01) (446, -2.13576350242981244376e-01) (447, 1.59769573978992024399e-01) (448, 3.23383014634072291082e-02) (449, -1.67168394922078073286e-03) (450, 5.94917941291767723294e-03) (451, -2.49718003315033930389e-02) (452, 1.33881370394458021345e-01) (453, -2.84769120429274991135e-01) (454, 1.12087276777132649475e-01) (455, -1.31401168454828909393e-01) (456, 1.47994803601651236935e-01) (457, 1.15401206697728644923e-01) (458, 7.76333806988090957546e-02) (459, 1.24757701369514029111e-01) (460, 1.32917573547118833543e-01) (461, 1.02617236082698428529e-02) (462, -7.94517126604946805069e-02) (463, -1.19919877896503393466e-01) (464, 8.87304664825298572417e-02) (465, -2.11399501352868002257e-01) (466, -1.57548693904923875486e-01) (467, 2.06016840380398164045e-01) (468, 4.44052805587915253027e-02) (469, 1.21603341336225426184e-01) (470, -1.27736210495042301627e-01) (471, -4.43816679711090678051e-02) (472, 7.83965863337317270254e-02) (473, -5.68278581465247387139e-02) (474, 6.10393203249329704962e-02) (475, -2.23738324730811191654e-02) (476, -2.82259881871988332902e-02) (477, 1.18330308965686581413e-01) (478, -2.85176154861606738489e-02) (479, -9.76487305717853026898e-02) (480, 4.46008680148934841259e-02) (481, 8.74227513770979708374e-02) (482, -7.02009503223421094109e-02) (483, -7.65089836587030946990e-02) (484, -4.79289271195738192377e-02) (485, -1.05806721959430388713e-01) (486, 4.10161902611911807770e-02) (487, 4.57462984079144013849e-02) (488, 3.62985291644566873681e-02) (489, 1.15502575401896095952e-01) (490, -1.23083501556408708710e-01) (491, -1.77115447597317843265e-01) (492, -5.63053951950771500168e-02) (493, -1.14422099103963684219e-01) (494, -5.73646008746770200148e-02) (495, 4.11578505235243516380e-02) (496, -8.09642208385929346148e-02) (497, 3.14716762058986285200e-02) (498, 7.25931695240971119887e-02) (499, -5.94418403358453525248e-03) (500, 1.72379627282562369883e-01) (501, 7.28955123305421726077e-02) (502, 3.01112553250431486118e-02) (503, -1.69951221141630387512e-01) (504, -3.36234285876873010765e-03) (505, -4.35856544627563347039e-02) (506, -3.43502004487212797557e-02) (507, -2.49632853599143344353e-03) (508, 7.33623565751344557800e-03) (509, 1.64892730573385146164e-02) (510, 2.56500113477539613827e-02) (511, -7.61271762028466886241e-02) (512, -6.38239489557382994045e-02) (513, -1.40423922605346973569e-01) (514, 9.08177264353723368018e-02) (515, 1.22312545744760636790e-01) (516, 4.43509520113276600739e-02) (517, -9.03117591183232176766e-02) (518, -6.94047936099818768563e-02) (519, -3.80886061478080545362e-02) (520, 1.34432228579320023343e-01) (521, -5.58734155732232458391e-03) (522, 2.90397447333625574606e-02) (523, -8.81959495547215838185e-02) (524, 6.13533303076415834076e-02) (525, 1.22640451235054667722e-01) (526, -1.03151519541638786448e-01) (527, 1.77621339762570412679e-01) (528, -2.65486073881977032579e-03) (529, 8.63516982022119045093e-02) (530, -5.97341146650737786494e-02) (531, 2.82492742149656646256e-03) (532, -1.26411271759850740021e-02) (533, 3.38547022843901507239e-02) (534, -1.21192164036242250313e-01) (535, 9.83448672461950251789e-02) (536, -6.40694904501647594097e-02) (537, -1.14921472270498953305e-01) (538, -9.53002819132278272685e-02) (539, -1.64838194438502755323e-01) (540, 5.03035081283442833677e-02) (541, 3.03949211468765058408e-02) (542, 1.40199879205905320045e-01) (543, -1.05824984827565388157e-01) (544, 8.48345335952267742829e-02) (545, 5.24119194688268189020e-02) (546, -3.12670657775147645130e-02) (547, 1.16205630606266901994e-01) (548, 5.99744649681531738494e-02) (549, 3.07205506295177149800e-02) (550, 1.29132030211817436932e-02) (551, -4.28920268536420318251e-02) (552, 1.14600612530093362573e-01) (553, -2.11165461825233644055e-02) (554, 3.11607116352374396984e-02) (555, 6.82097083034823581382e-02) (556, -8.05761696235030716595e-03) (557, 4.04782325832155481793e-02) (558, -3.81951772085015600622e-02) (559, -1.26519665892470073443e-01) (560, 1.75511125252278653297e-02) (561, -1.01522504068245630893e-01) (562, 6.53768193041723150172e-02) (563, 3.90956887196359861858e-02) (564, 1.80200166327450471415e-02) (565, -7.07809174664778516239e-03) (566, 5.78952863676577590690e-03) (567, 2.54417566048548773883e-02) (568, 1.20601660822285572383e-01) (569, 1.93776528268092065876e-02) (570, -4.60261092666861965084e-02) (571, 1.54115613933907035296e-03) (572, 2.22228516745139048627e-01) (573, -1.18882012897264854878e-01) (574, -1.88161066128961940169e-01) (575, 1.04348863492836244071e-01) (576, 5.09933123690035419728e-02) (577, 2.34441109840083095062e-02) (578, -3.46370302111632943909e-02) (579, 8.27698495858819605075e-02) (580, 1.35954451265562388518e-02) (581, -1.15143552462142598203e-01) (582, 3.84607714352297527793e-02) (583, -7.92265010359528981665e-02) (584, 1.21636668845356399338e-01) (585, -5.46718754593784050932e-02) (586, 1.36339215000580438186e-01) (587, -4.58894717316010308794e-02) (588, 7.60747096468142453007e-02) (589, -2.94693769746545708443e-02) (590, -9.54468463779810719072e-03) (591, 7.91233723203207950370e-02) (592, 2.35399472076094684603e-01) (593, -1.16052424106150159355e-01) (594, -3.24204830636399127242e-02) (595, 3.80425499515937154404e-02) (596, 1.74605197997366928808e-01) (597, -1.19901082804983294405e-01) (598, -6.19043125335806826426e-02) (599, -4.23095164506819138017e-02) (600, 1.01540807382112907575e-01) (601, -1.13620376407457548962e-01) (602, 5.45311264814459170647e-02) (603, -8.33104790341268747200e-02) (604, 1.31317835820912914846e-01) (605, -7.10434781360186479171e-02) (606, 6.02002470661619423775e-02) (607, -1.61851160431914081750e-01) (608, 3.75685657629640235022e-02) (609, -1.06303434106294739103e-01) (610, -1.01548357683342374558e-02) (611, 5.92652315875329613326e-02) (612, 7.80856592598711818365e-02) (613, -2.04858164583575624168e-03) (614, 3.75175519861376191577e-02) (615, -7.10827986154517199591e-02) (616, -4.68595209891839170613e-02) (617, -2.75574673049250040702e-02) (618, -1.65680724959221481463e-01) (619, -1.09550383267024847855e-02) (620, -1.03749273548401049760e-01) (621, -1.13059357235291674249e-01) (622, -1.36763252943922331006e-01) (623, -2.18225706363670626797e-02) (624, -1.70428566708083067960e-01) (625, -6.67635270238777916996e-02) (626, -8.54254756468733472685e-02) (627, -3.57797428909527481800e-01) (628, -2.20675585226205672740e-01) (629, -1.87632452995545262464e-01) (630, -1.91384745138767353723e-01) (631, -1.67560011969834166123e-01) (632, -8.66026445787624887807e-02) (633, -2.26271125126380860670e-02) (634, -3.06827172454721347830e-03) (635, 1.15156379129129363137e-01) (636, -8.81545684197298229368e-02) (637, -6.29761858100325311316e-02) (638, 5.57280713443512789457e-03) (639, -9.01483270673052589084e-02) (640, -1.77129924597759121074e-02) (641, -2.04085160708970675403e-01) (642, -1.40001631462672387896e-01) (643, -8.16099521774680258801e-02) (644, -4.72712946020129552716e-04) (645, 3.22103118598075430223e-02) (646, -3.80955889819449555755e-02) (647, 6.93509898793942952677e-02) (648, -1.51207470185069942081e-01) (649, -4.74510272277056457946e-02) (650, -3.37063252542982166871e-02) (651, -4.42584403865372844056e-02) (652, -4.41297219698087023199e-02) (653, -7.53053450000166768596e-02) (654, -1.60291550921534325935e-01) (655, -3.99310299488296951975e-02) (656, -1.08534351588719074622e-01) (657, 1.04702882404473299194e-01) (658, -5.02513024647932658034e-03) (659, 2.13826688776217105348e-01) (660, 7.84998193789126080810e-02) (661, 2.38818952824999986007e-01) (662, 2.03190191535026654091e-01) (663, -7.27824142476636848365e-02) (664, 7.92000389431254392392e-02) (665, 1.96949518767465490965e-02) (666, 3.78156328471418307080e-02) (667, -9.25098396845798892629e-02) (668, -9.34443935243818059322e-03) (669, -7.34613837922352408416e-02) (670, -9.05961187245662852296e-02) (671, -6.25810856007694409769e-03) (672, 5.46836956433842807934e-02) (673, -1.81963044670310630790e-02) (674, 1.04597739927859409437e-01) (675, 1.85046496895295342622e-01) (676, 1.87706940356194063035e-01) (677, 6.23917503797652775455e-02) (678, 7.92232657243341353848e-02) (679, -7.64418571808742342011e-02) (680, -5.70859913803099666696e-02) (681, 1.27657949578562190940e-01) (682, -4.67745755045519337467e-02) (683, 5.90424996292611067861e-02) (684, 1.29791843729992084633e-01) (685, -8.94047058094890739754e-02) (686, -6.76247414033221694307e-02) (687, -1.27098403358555128717e-01) (688, -7.32771719710721552987e-02) (689, -3.70757703477459510388e-02) (690, 1.36867580629479845822e-01) (691, -7.08548281027197857096e-02) (692, -1.16188962527248335066e-01) (693, 1.20165472973581460847e-01) (694, 2.28808120472507620091e-01) (695, 1.11669664072023569479e-01) (696, 1.34870955158437694221e-01) (697, 1.69813500293510943884e-01) (698, 1.94611175159150384673e-01) (699, 6.73991337097502168918e-02) (700, 5.48473573013248151542e-03) (701, 3.00038135815198954426e-02) (702, -7.12510569140378663411e-02) (703, 5.80218880740283743380e-02) (704, 5.15427969804550592525e-02) (705, 1.11308893944992368108e-01) (706, 5.33320690783771617083e-02) (707, 6.80471614831469617801e-02) (708, 8.68399622960671913052e-02) (709, -1.94531605957553406158e-03) (710, 6.25026962983904615934e-02) (711, 1.03211715834580969320e-01) (712, 4.69782902560123005742e-03) (713, 1.03982726822037865877e-01) (714, 1.62977373909131056928e-01) (715, 7.21434450858333010254e-03) (716, 7.22405016552793294293e-02) (717, -7.22005627507398273224e-02) (718, -1.12762555291966604099e-01) (719, 1.05128180250015787478e-01) (720, 4.10519288378123556327e-02) (721, 6.39884782478855745902e-02) (722, 2.67124586274312736389e-01) (723, -1.50744805523877228870e-01) (724, -5.76735029969050808085e-02) (725, 2.86205131595806683276e-01) (726, -6.34393150876193523402e-02) (727, 2.45255507945090524269e-02) (728, 1.82954511654864648840e-01) (729, -1.43732747750791867158e-01) (730, 5.80384376917137019547e-03) (731, 9.63700338589809357703e-02) (732, 5.88741513673405741924e-02) (733, -1.62205088349062526154e-01) (734, 1.71095202589749667554e-01) (735, 2.39796551972868865477e-01) (736, 2.39374951388102663596e-01) (737, -7.83320635140281190667e-02) (738, 1.08602389120236619835e-01) (739, 4.66934335243726739151e-01) (740, -1.24957155099044245339e-01) (741, -1.28629160877751225200e-01) (742, 1.78414175854839984758e+00) (743, -6.77872574664246940745e-02) (744, -1.50911802478749890177e+00) (745, 1.03030027943344615338e+00) (746, -3.21371892806588621561e-01) (747, -5.26852660441395004298e-01) (748, 6.70079100685467721199e-01) (749, -3.35048733275214838390e-01) (750, -2.72720073133198015469e-01) (751, 2.28990450367447112567e-01) (752, -2.60290712228654519400e-01) (753, -6.96641742434569166686e-02) (754, 1.52243353982974838345e-01) (755, -2.39700457076184064720e-01) (756, 1.16515363349635470147e-01) (757, 2.70390879575754472519e-01) (758, -2.32672156856536277436e-01) (759, 1.13221762448726850914e-01) (760, 2.68138154809565654180e-01) (761, -2.26575127218760330461e-01) (762, 1.42955955674416046453e-01) (763, 7.66147963142762150612e-02) (764, -1.32192917661277775654e-01) (765, 9.50652872919751645853e-02) (766, -4.68891173316780679459e-02) (767, -6.80901254615596807085e-02) (768, 1.37831753575333088024e-01) (769, -2.68998449016406258882e-02) (770, 5.53319717968943983188e-02) (771, 5.24709222746225084633e-02) (772, 2.35924182716199526411e-02) (773, 7.33012614102493825774e-02) (774, -5.41368318227028258449e-02) (775, 2.48208121730397746063e-02) (776, 1.02285148260900529693e-01) (777, 8.95549900674101617692e-03) (778, -1.84083546815271142938e-01) (779, 2.70382382144428081577e-03) (780, 1.19620382011722259374e-01) (781, -7.34400366431281481638e-02) (782, 6.68893549403907911044e-02) (783, 8.03247981559437745913e-02) (784, -1.31184633471304296082e-01) (785, 4.69057153190217956951e-02) (786, 1.77759320110177809759e-01) (787, -3.99233087841264211448e-01) (0, -2.29295893231171166171e-03) (1, 3.43488291899533976226e-02) (2, -3.15234105134704761797e-02) (3, -1.53423898620132087567e-02) (4, 1.23332412052937333974e-02) (5, -7.76874805024167225387e-02) (6, 4.86652945199504000096e-02) (7, -9.06252081715259449890e-02) (8, -5.86142168514894174036e-02) (9, -9.59689124706867430215e-03) (10, 1.64338589325413765574e-02) (11, 9.85664544046410823208e-02) (12, 4.21567550752536199243e-02) (13, -7.09799944827493867194e-02) (14, -1.46474755571905285167e-01) (15, 4.16764261312749795252e-02) (16, 6.66389319270195845668e-02) (17, -4.45473532448658338101e-02) (18, -3.87541581310524643755e-02) (19, -7.74083998931414472150e-03) (20, 8.63696924743601740504e-02) (21, -6.13852120786528843155e-02) (22, -4.71558951267126505447e-02) (23, 5.87869076310818042264e-02) (24, -6.53051407731778804644e-02) (25, 1.32106141403039611948e-01) (26, -7.54995238683405511804e-02) (27, 2.44000058077084580610e-02) (28, 1.03776104459080031894e-01) (29, -1.99015916848985403853e-03) (30, 3.45785359171863759808e-02) (31, -2.68286456020496943964e-01) (32, -1.88522304170100463150e-01) (33, 1.38032301214418479107e-01) (34, -5.21641944907644608542e-02) (35, -7.22790166343756507183e-02) (36, -2.88725958528163496875e-02) (37, 9.78893788657597546665e-02) (38, 8.04946482812516662941e-03) (39, 2.59136712001988601950e-02) (40, 5.92349798042140981980e-02) (41, 5.32398271467557776537e-02) (42, -3.85225133298045252506e-02) (43, 2.15147518967444516258e-02) (44, -1.28294134049561664446e-01) (45, 1.79328269631706477272e-01) (46, -5.63629479609465341983e-02) (47, 1.19782426653647036674e-01) (48, 8.50560575305916305444e-02) (49, -9.80419568854311584971e-02) (50, -2.24180209574150884899e-02) (51, -1.07631051331525309095e-02) (52, -1.60087555394366268247e-02) (53, 1.01660216660973440339e-01) (54, -2.88596758525717679567e-02) (55, 2.81453255045727469830e-02) (56, 7.34695510395769607603e-02) (57, -4.95936232760934778141e-03) (58, 1.02536438699436890931e-01) (59, 1.02851191978273900918e-01) (60, 1.99685957248779299977e-01) (61, -1.34198648577287221739e-01) (62, -7.76613851297276898411e-03) (63, -7.76623071434692224813e-02) (64, 1.07802697196122416329e-02) (65, 4.25984751362947847153e-02) (66, -4.09372663175731066332e-02) (67, 1.36730640229836108990e-01) (68, 1.79748806548004541606e-01) (69, 4.74747086237697693556e-02) (70, 1.88865851253518485242e-01) (71, -8.19979644785751998759e-02) (72, -1.03145363024738007107e-01) (73, -4.29102103267359896721e-02) (74, -2.28121751888875588798e-02) (75, -9.89431013729637071075e-02) (76, 8.67928129355114985621e-02) (77, 1.21757552605706476090e-01) (78, -6.61436452180153532099e-03) (79, 7.46781420975057511763e-03) (80, 1.67623630903961401417e-01) (81, -8.85288975266752126148e-02) (82, 6.95914454952621247541e-02) (83, -3.05831310663100090774e-03) (84, 2.91275034456679460249e-02) (85, 6.21184330131498586153e-03) (86, -7.80463072461985013506e-02) (87, -7.58784386330509930119e-02) (88, -1.81536695653466521871e-02) (89, 6.39574217632862644656e-03) (90, 1.10263344910526944753e-01) (91, 2.77853993281216736164e-03) (92, -8.53496750968179701546e-02) (93, -4.70341684856497230238e-02) (94, 1.08341902057957656380e-01) (95, 2.73732466424409723316e-02) (96, -5.87950277262955303681e-02) (97, -3.54027544218120659991e-02) (98, -4.99609037540837755409e-02) (99, 3.88448388323168261604e-02) (100, 1.48434013301387973671e-01) (101, 1.03833851544248609300e-01) (102, 3.91811874743004384669e-02) (103, 1.75667407873598385715e-01) (104, -4.79929098717571667176e-02) (105, 8.85089432645365381536e-02) (106, 1.82917991346454554547e-02) (107, 5.16267005180579760526e-02) (108, 5.01929275260646831636e-02) (109, 6.16625080012815143804e-02) (110, 8.54943603940341856351e-02) (111, 1.15673799436587038114e-01) (112, 5.76866477600247104518e-02) (113, 4.71309282717205582647e-02) (114, -1.29759772399883500232e-02) (115, -7.71399852556152315630e-02) (116, -2.47903286543916766271e-02) (117, -2.07804085654583539644e-02) (118, -4.35509494511924916127e-02) (119, 1.76721601806398342926e-01) (120, -1.54062585489816800122e-01) (121, 1.05459247888218060618e-01) (122, -7.84196780529860665299e-02) (123, 1.66207496974433405201e-01) (124, -7.97767553849437344171e-02) (125, 1.81456152488918082133e-01) (126, 7.91698270420320149299e-02) (127, 1.60864748067017587774e-01) (128, 1.99856304808439556864e-02) (129, 1.13634505985477016199e-02) (130, 4.84315324999971749675e-02) (131, -4.95904824598060664509e-02) (132, -3.26109336538028607433e-02) (133, 1.22041860608465363436e-01) (134, 2.03059480793932100933e-04) (135, -1.87229183083206345006e-02) (136, 3.28177300016627565560e-02) (137, 7.28950397772948205377e-02) (138, 9.36040939704057273207e-02) (139, 3.56949595152527762720e-02) (140, -1.70158427529501564239e-03) (141, 6.94228850206139863621e-02) (142, 1.82238069196990065679e-02) (143, 1.30552398888982373881e-01) (144, -5.09029979785081618249e-02) (145, 1.66423002495714400517e-01) (146, 6.68916444313947047839e-03) (147, 2.83172088633434106131e-02) (148, 6.12265188770630408577e-02) (149, 1.08622246171205291687e-01) (150, 5.87880497344212757382e-02) (151, -5.34598355977881148360e-02) (152, 6.32636551503337057900e-02) (153, -6.04568370807329405481e-02) (154, 3.05701056547150878950e-02) (155, 1.14225014075551578596e-01) (156, -9.72610594152638757715e-02) (157, 7.41172959512626135237e-03) (158, 9.48430300587278646285e-02) (159, 1.04649845193511299019e-02) (160, -1.81266300844541788928e-01) (161, 5.63217402676924744354e-02) (162, 9.67830700593422382783e-02) (163, 1.80637429465474452783e-01) (164, 1.12026839127483235359e-01) (165, 2.84272196506887009360e-01) (166, 1.33586301571108179154e-01) (167, -1.60996349991447879058e-01) (168, -2.20024322804014127453e-02) (169, 9.53197834839431129561e-02) (170, 1.59340188274723570938e-01) (171, 4.81954388879120912414e-02) (172, -4.32121249477407445849e-02) (173, 2.46652675966061883314e-03) (174, 1.93735263851844280447e-02) (175, -1.57139803028931868828e-03) (176, 6.05966588204993883426e-02) (177, 1.12158516355669850978e-02) (178, 1.89341000219679748973e-02) (179, -5.20266349941431588411e-02) (180, -1.03216160624839708992e-01) (181, 9.86931725014740662827e-02) (182, -2.64715521487587195082e-02) (183, -3.36742604665551392706e-02) (184, 3.79987103725537983534e-02) (185, 6.74339523245581634603e-02) (186, 5.71800589359886049512e-02) (187, -1.26555616253135633231e-01) (188, 7.21236877414506011297e-02) (189, -7.70197857794228252226e-02) (190, -1.12185843848613573878e-03) (191, 6.63376903484788754684e-02) (192, -9.28745271009431966336e-02) (193, 2.86903663850231332999e-02) (194, -4.25320574245165936023e-02) (195, -7.32891060133700807805e-03) (196, -1.19181796669139722367e-01) (197, 3.08054614321467343241e-02) (198, 1.78274358779929482932e-02) (199, 1.06850086638080737922e-02) (200, -1.91974239802706336810e-01) (201, 5.04719793286203480959e-03) (202, -5.11714191722088262981e-02) (203, 2.28556904405572747230e-01) (204, 5.19198357532836482497e-02) (205, 9.96508904015932228670e-02) (206, 5.07941066221878276266e-02) (207, 6.57834257981974729335e-02) (208, -1.15869153756857912185e-01) (209, -1.65995773226022019786e-01) (210, 8.31924203112069382549e-02) (211, 7.60920312019384148527e-02) (212, -1.25652699253705257831e-01) (213, 4.66746050600725728708e-02) (214, 8.29077987063078641894e-02) (215, 5.15672965980123673702e-02) (216, 3.75434658995208031529e-02) (217, 9.23961865674024218631e-02) (218, 9.25125720668007606173e-02) (219, 4.70779602929883092544e-02) (220, -1.69366314222322650318e-01) (221, 3.41059026085949318352e-02) (222, -4.40400191177373542817e-02) (223, 2.07469770375703299603e-01) (224, 6.81227420533017796744e-02) (225, 7.01017256968764629343e-02) (226, 7.51604580113576226097e-02) (227, -7.67919727847589383973e-02) (228, 6.46526555860747892401e-02) (229, -2.40531724058183155046e-01) (230, 1.14986862491043104195e-01) (231, -6.35290274707597524273e-02) (232, -1.95223239992214830929e-01) (233, -1.65664967216141711948e-02) (234, -3.28128094494589267471e-02) (235, 4.83428064419632250170e-02) (236, -6.04104548838857013243e-03) (237, 1.15106067915406604096e-01) (238, 2.28002536836513836072e-01) (239, 1.26107302117147407339e-01) (240, -1.00540599732080682127e-01) (241, 2.10302861561219127384e-02) (242, -1.06708925262410117552e-01) (243, -4.78083991513861342182e-02) (244, 1.01706509337823991501e-01) (245, -9.55499561955569370886e-02) (246, 2.31865758231129467926e-02) (247, -4.36376412722348575035e-02) (248, 2.07661321422339915921e-02) (249, -9.62910075655907665704e-02) (250, -8.45396913217213649694e-03) (251, -8.70024692410606981241e-02) (252, -1.73141071321239264913e-01) (253, 1.26613910449101141342e-01) (254, 8.33958012168926482444e-02) (255, 1.49476230258404323842e-02) (256, -3.63633940037682359958e-02) (257, 1.35357257222375348960e-01) (258, 8.87489015035314993129e-02) (259, -8.19223922120531355962e-02) (260, -5.30411583753520668449e-02) (261, 1.46213012681878418153e-01) (262, -1.33289143439174279093e-01) (263, 1.39708143905283108804e-02) (264, 6.56601422505843496102e-02) (265, -5.17042728850302946153e-02) (266, 2.56407211986129750236e-02) (267, -1.52052055957203891001e-01) (268, -1.10062416876472016214e-01) (269, -2.22335309263567204585e-01) (270, 8.35789513531131548867e-05) (271, 8.35231098659856494026e-03) (272, -9.72674894990671196071e-02) (273, 1.63726273959784479617e-01) (274, -1.38115809922586957326e-01) (275, -2.86506890506258889151e-02) (276, 2.11359457097248348845e-01) (277, 6.00537555481355511677e-02) (278, 2.87039036930085457444e-02) (279, 2.52122264739429551017e-02) (280, 9.55937029233006052564e-02) (281, 5.91335967597871672852e-02) (282, -6.17965222723324825171e-02) (283, 1.83126743062055313827e-01) (284, 4.69776154138076759703e-02) (285, -4.42536750242879736716e-02) (286, -1.06211922345773909782e-01) (287, -1.82814843601322510325e-02) (288, -3.79860834776150693703e-02) (289, -7.46704509399553351123e-02) (290, 8.33304460746281741579e-03) (291, -2.23420350124586102047e-02) (292, -9.65368929567465318409e-03) (293, 7.14229846989043876127e-02) (294, -3.04013758345142506845e-02) (295, 1.05754365064493816018e-01) (296, 9.20531996407697866713e-02) (297, 3.62461031454443249888e-02) (298, -1.54249104877889151727e-02) (299, -1.79698315324415339167e-02) (300, 3.78171475470221660209e-02) (301, -3.86618672362811915955e-02) (302, -9.66965022663278661597e-02) (303, 1.00871094392536650441e-01) (304, -2.29992085274702245945e-01) (305, 5.94917269039673124453e-02) (306, -5.32186528238126413393e-02) (307, -1.84380779510637887730e-01) (308, -1.48063538594321499747e-03) (309, -1.92893256985794570024e-01) (310, 6.03017311519691012744e-02) (311, -3.12507144288371313534e-02) (312, -1.85553158320323707819e-01) (313, 8.03855979894200767255e-02) (314, -1.42463092608028918384e-01) (315, 7.35167610561175272066e-02) (316, -2.77894285686473632713e-02) (317, 1.42644871057953006449e-02) (318, -5.59722742455525876237e-02) (319, 2.50669284243730527972e-01) (320, 1.82608436395252898832e-01) (321, -2.82690504048493523870e-02) (322, -7.58748600596995947942e-02) (323, -9.31483874608018264096e-02) (324, -7.03280238820251039217e-03) (325, -1.80336828133841955979e-02) (326, 6.11951645415389419713e-02) (327, 9.96807188320966708339e-02) (328, 2.43596368290506098964e-02) (329, -2.88224603156481407051e-01) (330, -7.32837274999501298023e-02) (331, 1.74528969165916557349e-02) (332, -2.12693502576800419490e-01) (333, -9.15691771080764244095e-02) (334, 1.53723341938102497917e-01) (335, 3.73307363921984089461e-02) (336, -1.25232955427890868538e-01) (337, -8.81878708063600358358e-02) (338, 6.88727472025154746627e-02) (339, 1.20276425633484770894e-03) (340, 1.44006869120581443289e-01) (341, -1.02448817874259273664e-01) (342, 1.50159295086651961570e-01) (343, 1.91383635964099269033e-01) (344, 1.00328065861793561120e-01) (345, 1.60054269838737189824e-01) (346, -1.64298805170640729867e-02) (347, 3.12534726681071434173e-02) (348, -1.66430936771134407870e-01) (349, -2.41467298527901025329e-01) (350, 3.12401012489312117359e-02) (351, -7.48869710434835189616e-02) (352, 6.46633510402451483490e-02) (353, 2.30570618683456143860e-02) (354, -6.98112231939003596848e-02) (355, 3.14870326692485158482e-02) (356, -6.48397157591656253528e-02) (357, 7.08496379124784608772e-02) (358, -8.00103048908924613380e-02) (359, -6.53004218335351532126e-03) (360, -1.06928414558383946126e-02) (361, -1.03012881222164481843e-01) (362, 1.53902894949118851375e-01) (363, 6.10251254136629436853e-02) (364, 5.70408161747090816651e-02) (365, 1.80380797783091351150e-01) (366, -2.29672940639927491979e-01) (367, 3.32131069561628772258e-02) (368, -3.46711911579635767566e-02) (369, -6.45090523863009052130e-02) (370, -1.52878295230843980201e-01) (371, -1.53965011342783120174e-01) (372, -4.66215228216740537603e-02) (373, -4.67900773931705440956e-02) (374, 7.36255072938748686417e-03) (375, -8.91078187911773511587e-02) (376, 7.76717865998385881277e-03) (377, -4.47899422491161280230e-03) (378, 9.91371744514964042816e-02) (379, -2.07305114756981406776e-02) (380, -1.10876743945697825433e-01) (381, 3.57853910935705676888e-02) (382, 1.94023423411951202733e-02) (383, -1.08759652549999988325e-01) (384, -3.94150900606908202728e-02) (385, 6.91643086857142569412e-02) (386, -2.28697721204999017408e-02) (387, 7.38189248212137716365e-02) (388, -5.78351587343474277114e-02) (389, -7.35288990979355849831e-02) (390, -2.16503609671764513447e-03) (391, -9.08323372689070068775e-02) (392, -6.21889823438863606486e-02) (393, -6.85273802766005277892e-03) (394, -8.03607962752378307547e-02) (395, -8.73659821638880507155e-02) (396, -1.15226767445914549115e-01) (397, 4.21353448831184550227e-03) (398, 8.52868573707164651099e-02) (399, -1.29358850779019318722e-01) (400, -2.41331498217453421784e-01) (401, 1.23463073514679166909e-01) (402, 9.71239153453288817097e-02) (403, -8.19623998246377521992e-02) (404, -9.62639397824501391598e-02) (405, -2.51515021223831097830e-02) (406, -1.04549487586451841925e-01) (407, 2.81120677214866832028e-01) (408, -1.15760679114685169355e-01) (409, -2.78569240485087819825e-02) (410, -3.84730137230471988530e-02) (411, -1.05949870501505560849e-01) (412, -1.29304421133147384726e-01) (413, 7.78525025777608709054e-02) (414, -1.33611535294706190030e-03) (415, 